{"model_data": {"model": "SimpleRNN", "input_size": 1, "skip": "0", "output_size": 1, "unit_type": "LSTM", "num_layers": 1, "hidden_size": 6, "bias_fl": true}, "state_dict": {"rec.weight_ih_l0": [[1.080057978630066], [-0.11798658221960068], [-1.2448575496673584], [0.3178030848503113], [0.347130686044693], [0.6130368709564209], [0.2188139259815216], [-0.28528842329978943], [-0.19171945750713348], [0.44684070348739624], [2.4675910472869873], [0.48989707231521606], [-0.06477034091949463], [0.6151625514030457], [-4.417905807495117], [0.30811822414398193], [0.4017462134361267], [2.2785136699676514], [0.15050768852233887], [-1.3949816226959229], [-1.8684911727905273], [1.441454529762268], [-2.4615225791931152], [-0.48296037316322327]], "rec.weight_hh_l0": [[-1.1639758348464966, 0.8153456449508667, -0.6106909513473511, 1.4514645338058472, -0.006684057414531708, 0.3883099853992462], [0.29514771699905396, 0.24179935455322266, 0.06812037527561188, 0.44279009103775024, 0.14946593344211578, -0.03844465687870979], [0.5778026580810547, 0.8522098660469055, -0.4137880802154541, -1.5472525358200073, 0.6511094570159912, -0.15934215486049652], [-0.9410935044288635, -0.9893775582313538, 1.538902759552002, -0.002637931378558278, -0.09362085908651352, -0.9398161172866821], [0.6842374205589294, -0.7574808597564697, 0.7249523997306824, 0.4509207010269165, 0.5346617698669434, 0.2878043055534363], [1.025377631187439, 0.5273791551589966, -1.752975583076477, 0.12112452834844589, -0.01364989671856165, 1.5391113758087158], [0.24383679032325745, 0.11842644214630127, -0.9280559420585632, 0.21418845653533936, -0.07225406169891357, -0.2726869285106659], [-0.21819868683815002, -0.3113916516304016, -0.12346892803907394, -0.14968453347682953, 0.13047468662261963, 0.4485788941383362], [-0.292910099029541, -0.3905388116836548, 0.4094659090042114, -0.7401910424232483, 0.07306882739067078, -0.26578059792518616], [-0.08459970355033875, 0.34845632314682007, -0.019856810569763184, -1.1588793992996216, 0.17801764607429504, 0.31073713302612305], [-0.2685774862766266, -0.21440663933753967, -0.687596321105957, 0.05396158620715141, -0.3641032874584198, 1.035474181175232], [-1.281144380569458, -0.7266809344291687, -2.1468167304992676, 0.15918773412704468, -0.9542198181152344, -0.1059478223323822], [-0.6634377837181091, 0.6874648928642273, 0.06311766803264618, 0.3887592852115631, 0.8412141799926758, 1.652112364768982], [-0.7159655690193176, -0.4381125271320343, -0.7831559777259827, 0.5690639019012451, 0.16376160085201263, 1.0272005796432495], [0.033758386969566345, -0.07939755171537399, 0.7770731449127197, 0.5424122214317322, -0.12099520862102509, 0.05654912814497948], [-0.6618842482566833, -0.4867023825645447, 0.8972618579864502, 1.3989664316177368, -0.04371166601777077, 0.8916477560997009], [1.2921350002288818, 0.4142456352710724, 1.1323397159576416, 0.7089154720306396, -0.5330691337585449, 0.17015409469604492], [0.023359671235084534, -1.176986575126648, -2.2809348106384277, -0.29171714186668396, -0.9833542108535767, 1.1186710596084595], [-0.7354578375816345, 0.2848139703273773, -0.8043369054794312, 1.1895281076431274, 0.12505650520324707, 0.9040808081626892], [0.5821235775947571, 0.7971851825714111, -0.4473789632320404, 0.23096027970314026, 0.5860799551010132, 0.39367741346359253], [0.9648140668869019, 0.9912056922912598, -0.319126695394516, -1.143617033958435, 0.858719527721405, 1.1518688201904297], [0.059060364961624146, 0.5939447283744812, -0.3358963131904602, 0.5010752081871033, 0.2693208158016205, -0.1913095861673355], [-0.8552014827728271, -0.5450750589370728, 0.06747452169656754, 0.22315120697021484, -1.0304547548294067, -0.016044702380895615], [0.48365575075149536, 0.27874788641929626, 0.3950912356376648, 0.3157038390636444, 0.485856831073761, 0.7077007293701172]], "rec.bias_ih_l0": [-0.12986628711223602, 0.5860771536827087, 0.3215983808040619, 0.047743361443281174, -0.036767423152923584, 0.09792108088731766, 0.5283371210098267, -0.04986655339598656, -0.4162299633026123, 0.9213648438453674, -0.06892585009336472, 0.842170774936676, 0.03459225967526436, 0.16517210006713867, 0.2781703770160675, 0.02305031567811966, 0.13630127906799316, -0.2483963668346405, 0.7920066714286804, 0.03191893547773361, -0.2817523181438446, 0.7281268239021301, 0.9408079981803894, 0.8835198879241943], "rec.bias_hh_l0": [-0.11677619814872742, 0.5860902667045593, 0.2361811399459839, 0.15312661230564117, -0.03443166986107826, 0.06996965408325195, 0.5359169244766235, -0.05042828619480133, -0.3884061872959137, 0.7524325847625732, -0.07455573976039886, 0.9923854470252991, 0.015468332916498184, 0.19676050543785095, 0.13411889970302582, -0.02166922390460968, 0.09528946131467819, -0.07555681467056274, 0.7978076338768005, 0.03236880898475647, -0.2965943515300751, 0.5946412086486816, 0.8742671608924866, 0.8636587262153625], "lin.weight": [[-1.1518630981445312, 0.3274184763431549, -0.14342544972896576, 0.08405004441738129, 1.3261624574661255, 1.1661972999572754]], "lin.bias": [-0.03179358318448067]}}