{
    "in_shape": [
        32,
        0,
        1
    ],
    "layers": [
        {
            "type": "lstm",
            "activation": "tanh",
            "shape": [
                32,
                0,
                4
            ],
            "weights": [
                [
                    [
                        -0.6626955270767212,
                        1.0221023559570312,
                        0.09366185963153839,
                        0.13647519052028656,
                        0.9765539169311523,
                        0.32770055532455444,
                        0.9574065208435059,
                        1.8695648908615112,
                        -0.6301783919334412,
                        0.19320358335971832,
                        -2.4530515670776367,
                        -1.6221123933792114,
                        -0.486617773771286,
                        0.5342885851860046,
                        -2.1356191635131836,
                        0.18740719556808472
                    ]
                ],
                [
                    [
                        -0.44443851709365845,
                        0.9958165884017944,
                        -2.6516292095184326,
                        -0.678152322769165,
                        -0.07409801334142685,
                        -0.9571868777275085,
                        0.5850870013237,
                        -0.4838186204433441,
                        0.05611291155219078,
                        0.011918216943740845,
                        -0.9323784112930298,
                        -1.3128621578216553,
                        -0.5987178087234497,
                        1.0453639030456543,
                        -0.5552616119384766,
                        -1.6049809455871582
                    ],
                    [
                        1.8066887855529785,
                        1.295649528503418,
                        -1.8659636974334717,
                        0.679868757724762,
                        -0.2920536696910858,
                        -2.7942147254943848,
                        -0.9071744680404663,
                        -0.14330603182315826,
                        -1.5672911405563354,
                        0.021887702867388725,
                        0.6072076559066772,
                        -0.30555903911590576,
                        2.017272710800171,
                        -0.24411778151988983,
                        -1.775167465209961,
                        0.01609777845442295
                    ],
                    [
                        0.7583708763122559,
                        1.3135857582092285,
                        0.15575718879699707,
                        -2.9016168117523193,
                        -1.0455740690231323,
                        -2.610625743865967,
                        -1.4905072450637817,
                        -2.0941710472106934,
                        0.23759202659130096,
                        0.7036303281784058,
                        -0.25354260206222534,
                        0.6656972169876099,
                        -0.5456510186195374,
                        -1.1558231115341187,
                        -0.8172339200973511,
                        0.010289840400218964
                    ],
                    [
                        -0.6172115206718445,
                        0.3071136474609375,
                        -1.3522228002548218,
                        -2.260929584503174,
                        -1.6700620651245117,
                        0.7311376333236694,
                        -1.3667805194854736,
                        -1.4133590459823608,
                        1.0282466411590576,
                        0.2570742964744568,
                        -0.20310740172863007,
                        0.46203193068504333,
                        -1.1114834547042847,
                        -0.6683188080787659,
                        -0.8676002621650696,
                        -0.6267380118370056
                    ]
                ],
                [
                    0.11716291308403015,
                    -1.5333524942398071,
                    0.3925117552280426,
                    1.7235925197601318,
                    0.10294795036315918,
                    2.716329574584961,
                    -0.1777213215827942,
                    -0.3955104649066925,
                    -0.26640722155570984,
                    -0.10035651922225952,
                    0.34105223417282104,
                    0.7250922918319702,
                    0.31747347116470337,
                    1.9408900737762451,
                    -0.7701422572135925,
                    2.150082588195801
                ]
            ]
        },
        {
            "type": "dense",
            "activation": "",
            "shape": [
                32,
                0,
                1
            ],
            "weights": [
                [
                    [
                        0.013597773388028145
                    ],
                    [
                        0.7547187209129333
                    ],
                    [
                        -1.239078402519226
                    ],
                    [
                        -0.38973909616470337
                    ]
                ],
                [
                    0.03249478340148926
                ]
            ]
        }
    ]
}