{"model_data": {"model": "SimpleRNN", "input_size": 1, "skip": "0", "output_size": 1, "unit_type": "LSTM", "num_layers": 1, "hidden_size": 4, "bias_fl": true}, "state_dict": {"rec.weight_ih_l0": [[-0.6626955270767212], [1.0221023559570312], [0.09366185963153839], [0.13647519052028656], [0.9765539169311523], [0.32770055532455444], [0.9574065208435059], [1.8695648908615112], [-0.6301783919334412], [0.19320358335971832], [-2.4530515670776367], [-1.6221123933792114], [-0.486617773771286], [0.5342885851860046], [-2.1356191635131836], [0.18740719556808472]], "rec.weight_hh_l0": [[-0.44443851709365845, 1.8066887855529785, 0.7583708763122559, -0.6172115206718445], [0.9958165884017944, 1.295649528503418, 1.3135857582092285, 0.3071136474609375], [-2.6516292095184326, -1.8659636974334717, 0.15575718879699707, -1.3522228002548218], [-0.678152322769165, 0.679868757724762, -2.9016168117523193, -2.260929584503174], [-0.07409801334142685, -0.2920536696910858, -1.0455740690231323, -1.6700620651245117], [-0.9571868777275085, -2.7942147254943848, -2.610625743865967, 0.7311376333236694], [0.5850870013237, -0.9071744680404663, -1.4905072450637817, -1.3667805194854736], [-0.4838186204433441, -0.14330603182315826, -2.0941710472106934, -1.4133590459823608], [0.05611291155219078, -1.5672911405563354, 0.23759202659130096, 1.0282466411590576], [0.011918216943740845, 0.021887702867388725, 0.7036303281784058, 0.2570742964744568], [-0.9323784112930298, 0.6072076559066772, -0.25354260206222534, -0.20310740172863007], [-1.3128621578216553, -0.30555903911590576, 0.6656972169876099, 0.46203193068504333], [-0.5987178087234497, 2.017272710800171, -0.5456510186195374, -1.1114834547042847], [1.0453639030456543, -0.24411778151988983, -1.1558231115341187, -0.6683188080787659], [-0.5552616119384766, -1.775167465209961, -0.8172339200973511, -0.8676002621650696], [-1.6049809455871582, 0.01609777845442295, 0.010289840400218964, -0.6267380118370056]], "rec.bias_ih_l0": [0.3538861870765686, -0.6356881856918335, 0.2753026485443115, 1.0103100538253784, -0.16470110416412354, 1.4535154104232788, -0.10094485431909561, -0.4196966588497162, -0.23829787969589233, -0.49041932821273804, 0.3496539294719696, 0.4288463890552521, 0.22554580867290497, 0.7029728293418884, -0.4216720759868622, 1.3499847650527954], "rec.bias_hh_l0": [-0.23672327399253845, -0.8976643085479736, 0.11720910668373108, 0.7132825255393982, 0.2676490545272827, 1.2628141641616821, -0.07677645981311798, 0.02418619953095913, -0.028109336271882057, 0.3900628089904785, -0.008601708337664604, 0.29624590277671814, 0.0919276773929596, 1.2379173040390015, -0.34847018122673035, 0.8000977635383606], "lin.weight": [[0.013597773388028145, 0.7547187209129333, -1.239078402519226, -0.38973909616470337]], "lin.bias": [0.03249478340148926]}}