{"model_data": {"model": "SimpleRNN", "input_size": 1, "skip": "0", "output_size": 1, "unit_type": "LSTM", "num_layers": 1, "hidden_size": 16, "bias_fl": true}, "state_dict": {"rec.weight_ih_l0": [[0.06773626804351807], [0.0036719334311783314], [-0.4258148968219757], [-0.001010415842756629], [0.15963579714298248], [-0.5122771859169006], [0.07639247924089432], [-0.05044254660606384], [0.02006147801876068], [-0.06289496272802353], [0.31093475222587585], [0.08993459492921829], [-0.19659093022346497], [-0.20302414894104004], [0.0003083722840528935], [0.2505330443382263], [0.13973936438560486], [0.0032217088155448437], [0.23048435151576996], [0.052158452570438385], [0.5788835883140564], [0.06837485730648041], [0.45659705996513367], [-0.06885429471731186], [0.044311076402664185], [-0.2654716372489929], [0.3676612675189972], [-0.12946128845214844], [0.14759692549705505], [0.9691376686096191], [-0.00021662302606273443], [0.5722282528877258], [0.2944037616252899], [0.010846379213035107], [-1.0970994234085083], [0.34639599919319153], [-0.053198616951704025], [-3.878220558166504], [-0.7107066512107849], [0.26153942942619324], [-0.0020716958679258823], [-0.2614288628101349], [-0.22026684880256653], [-1.2899658679962158], [-0.6467292308807373], [-2.1896727085113525], [0.007636263035237789], [-2.9455506801605225], [0.42555269598960876], [0.004698197823017836], [-0.6786471605300903], [0.039494436234235764], [0.25190067291259766], [-0.09135334938764572], [0.26786381006240845], [0.08720239996910095], [0.01631510630249977], [-0.30915868282318115], [1.0360338687896729], [0.09008365869522095], [-0.2675477862358093], [-1.0364830493927002], [-0.00011770970741054043], [-1.4126479625701904]], "rec.weight_hh_l0": [[-0.1329023838043213, -0.002467447891831398, -0.010304163210093975, 0.042584378272295, -0.028860775753855705, -0.12982407212257385, 0.008603459224104881, 0.008259161375463009, 0.01542193628847599, -0.0830640122294426, -0.24672770500183105, 0.010047339834272861, -0.014134509488940239, 0.09444461017847061, -0.0026533682830631733, -0.008982029743492603], [-9.21895625651814e-05, -0.0002766366524156183, 0.0016818284057080746, 0.0006766471196897328, 0.003214319935068488, 0.0035471476148813963, -0.0043478915467858315, 0.0006178615149110556, -0.0008373497403226793, -0.001760229468345642, -0.0019313156371936202, 0.00016862803022377193, -0.0008171881781890988, 0.004462282173335552, 0.0003147146198898554, 0.003215250326320529], [-0.27507269382476807, -0.002600901061668992, 0.03137722238898277, 0.06013280525803566, -0.01328954752534628, 0.1152053251862526, 0.17836610972881317, -0.14840067923069, 0.08359157294034958, -0.28951364755630493, -0.15775166451931, -0.026799868792295456, -0.2720750868320465, -0.08917078375816345, -0.00044485885882750154, 0.09850963950157166], [-0.06546513736248016, -0.0012707782443612814, 0.04208993539214134, 0.06895381212234497, -0.016280801966786385, -0.07363559305667877, -0.03944195806980133, 0.07940810173749924, 0.004730713088065386, 0.03777531906962395, -0.09348024427890778, -0.005312719382345676, 0.05531289055943489, 0.03946486860513687, 0.0006698237266391516, -0.045226696878671646], [-0.38544967770576477, 0.016182616353034973, -0.1823984533548355, 0.11519385874271393, -0.04463265836238861, 0.21487900614738464, -0.07073954492807388, -0.14205071330070496, 0.045634012669324875, -0.2031669169664383, -0.22428496181964874, 0.03097131848335266, -0.1862962394952774, 0.24668985605239868, -0.0024266396649181843, 0.11317085474729538], [0.1883654147386551, 0.013485689647495747, -0.8413696885108948, -0.03745425119996071, -0.5791510939598083, 0.10369579493999481, 0.7267510890960693, -0.018967868760228157, 0.028587235137820244, 0.17562879621982574, 0.7863848209381104, 0.18871177732944489, 0.11410306394100189, -1.0174028873443604, -0.0014855326153337955, -0.47453272342681885], [-0.12169265002012253, 0.0029558250680565834, -0.02353496663272381, 0.006046241149306297, 0.08035019785165787, 0.15463367104530334, -0.07698829472064972, -0.1728978306055069, 0.003597560105845332, -0.19552797079086304, -0.2182583063840866, 0.10790092498064041, -0.1537904292345047, 0.16904914379119873, -0.004086327739059925, 0.03439416363835335], [-0.14270104467868805, 0.0031313507352024317, -0.08162682503461838, 0.09098471701145172, -0.15850786864757538, -0.04577311500906944, 0.10291413962841034, -0.0718863233923912, 0.06394419074058533, -0.11493562906980515, -0.09210231155157089, 0.11681890487670898, 0.019602643325924873, -0.01128975860774517, 0.002158835995942354, -0.0259845070540905], [-0.01423864159733057, 0.0027805124409496784, 0.013613451272249222, 0.03432733938097954, -0.01207522302865982, -0.026357976719737053, -0.03492579981684685, 0.011013567447662354, 0.0006302157999016345, -0.011919321492314339, -0.030763152986764908, 0.020920876413583755, 0.0014317920431494713, -0.005141165107488632, -0.002413240959867835, -0.024287603795528412], [-0.1517428308725357, -0.0027400851249694824, 0.01613672636449337, 0.03862438723444939, -0.03014565072953701, 0.01158906240016222, 0.08530613034963608, -0.021925898268818855, 0.03931127116084099, -0.031268924474716187, -0.11823316663503647, 0.002275088569149375, 0.030723949894309044, 0.0558653362095356, -0.00022568737040273845, 0.01921975612640381], [0.19282542169094086, -0.009643550030887127, 0.18086259067058563, 0.019243238493800163, 0.3551599383354187, 1.0124129056930542, -0.22041629254817963, -0.296152800321579, 0.04742597043514252, -0.24193298816680908, 0.055067237466573715, 0.15945863723754883, -0.1538824439048767, 0.8999677896499634, 0.0063460287638008595, 0.6654016375541687], [-0.15777426958084106, -0.002234458224847913, -0.30493682622909546, 0.019662071019411087, -0.23029078543186188, 0.32179513573646545, -0.7560973763465881, -0.20309829711914062, 0.03448115289211273, -0.09867911785840988, -0.18020689487457275, -0.0675363764166832, -0.36351704597473145, -0.37162086367607117, 0.009060787037014961, 0.1521749496459961], [-0.2142614871263504, -0.00026806251844391227, 0.11123041063547134, 0.049970824271440506, 0.06872233748435974, 0.15168136358261108, 0.04262664541602135, -0.1442314237356186, 0.026337243616580963, -0.28408724069595337, -0.14982274174690247, 0.16610199213027954, -0.04659083113074303, 0.21550481021404266, -0.005593348294496536, 0.1622486412525177], [-0.5967082977294922, 0.02282918430864811, -0.3205527067184448, -0.13195829093456268, 0.5378987193107605, -0.47755977511405945, -0.027614904567599297, -0.3342815637588501, 0.07816769182682037, -0.22382232546806335, -0.2283167541027069, -0.3597491383552551, -1.018667221069336, -1.3132920265197754, 0.019530029967427254, -0.9606555700302124], [-0.0008701854385435581, -9.520791354589164e-05, 0.00047705398174002767, 0.0004119694931432605, -0.00016265155863948166, 0.0006813064683228731, 1.92198422155343e-06, -0.0010080869542434812, 0.0007331162923946977, -0.0015198399778455496, -0.0008851991733536124, 0.001218333258293569, 5.90326999372337e-05, 0.0008551111677661538, 0.00010659959662007168, 0.000907736539375037], [-0.04959051311016083, 0.0004981640377081931, -0.5957613587379456, -0.0988546758890152, -0.22836095094680786, -0.1458258479833603, 0.26630899310112, -0.07144879549741745, -0.0028087252285331488, 0.3952518701553345, 0.17101654410362244, 0.05156274139881134, -0.13352826237678528, -0.5591548085212708, -0.006657610181719065, -0.31511613726615906], [-0.31277838349342346, -0.0061644394882023335, -0.11615702509880066, 0.11862783133983612, -0.11691258102655411, -0.3237965703010559, 0.09241113066673279, -0.03166576102375984, 0.03125249221920967, -0.15141865611076355, -0.42997685074806213, 0.00220090732909739, -0.024782465770840645, 0.00771768344566226, 0.0006432610098272562, -0.1313958764076233], [-0.0004296902916394174, -0.0002820313675329089, 0.001054254942573607, 0.0015325050335377455, 0.002754025626927614, 0.0028995624743402004, -0.0037020747549831867, 0.0013469196856021881, -0.0005652137333527207, -0.0009911261731758714, -0.00209548557177186, -9.195596794597805e-05, 0.00019492124556563795, 0.004078304395079613, 0.00031211282475851476, 0.0026038256473839283], [-0.21332576870918274, -0.006720005068928003, 0.12577217817306519, 0.09094058722257614, -0.10771984606981277, 0.16686464846134186, 0.192013680934906, -0.08724018931388855, 0.021356528624892235, -0.1711077243089676, -0.31813105940818787, -0.12031272053718567, -0.17119552195072174, -0.08520334959030151, -0.016634725034236908, 0.019351253286004066], [-0.1436263918876648, -0.0011049379827454686, 0.1091306209564209, 0.13928543031215668, 0.08441481739282608, -0.07244511693716049, -0.07854662090539932, 0.08545298129320145, 0.010239252820611, -0.049660202115774155, -0.18257299065589905, -0.0033682009670883417, 0.042153142392635345, 0.110161192715168, -0.0016089031705632806, -0.05289282277226448], [-0.418661892414093, 0.009079375304281712, -0.33205002546310425, 0.2652655839920044, 0.11707675457000732, -0.31881213188171387, 0.07582725584506989, 0.20354212820529938, -0.029683515429496765, 0.07324323058128357, -0.6457725763320923, -0.13529039919376373, -0.01470821350812912, -0.3463631868362427, 0.00892599020153284, -0.4327961206436157], [0.28891852498054504, -0.01676381193101406, -0.2872779071331024, -0.030100764706730843, -0.10585805028676987, 0.36119648814201355, 0.4201628565788269, -0.21529121696949005, -0.0075199236162006855, -0.024172941222786903, 0.43423032760620117, 0.2519032657146454, 0.02825540117919445, -0.06496092677116394, 0.014259165152907372, 0.1307927817106247], [0.06326877325773239, 0.0038822232745587826, -0.1828426867723465, -0.1488826423883438, -0.08841808885335922, -0.13339221477508545, 0.26101094484329224, -0.006437111645936966, -0.059667836874723434, 0.05394921824336052, -0.01926545985043049, -0.24618276953697205, -0.2033711075782776, -0.029269374907016754, 0.003859813790768385, -0.21268640458583832], [-0.02720057964324951, -0.00013129087164998055, 0.08294808864593506, 0.0698883980512619, -0.12043027579784393, -0.03263191506266594, 0.2567172646522522, 0.02099071443080902, 0.07306001335382462, -0.09783728420734406, 0.0723436027765274, 0.12006790935993195, 0.0442209392786026, -0.007940320298075676, -0.0008140893769450486, -0.04073091968894005], [0.005844118073582649, 0.0031507418025285006, 0.014612802304327488, 0.03575683757662773, -0.011042865924537182, -0.041131194680929184, -0.04938708618283272, 0.030708419159054756, -0.0054354374296963215, 0.0032499965745955706, -0.02119712345302105, 0.013145685195922852, 0.003811454866081476, -0.022660285234451294, -0.002404487691819668, -0.03870050236582756], [-0.23386113345623016, -0.0016113342717289925, 0.03364502266049385, 0.047208044677972794, -0.018446722999215126, 0.15878620743751526, 0.09882324934005737, -0.13356991112232208, 0.05625006556510925, -0.17315343022346497, -0.09801318496465683, 0.08164350688457489, 0.007313507609069347, 0.1480797380208969, -0.0015802014386281371, 0.15034119784832], [-0.4472477436065674, -0.0032235318794846535, -0.17684809863567352, -0.045444242656230927, -0.14173246920108795, -0.28069302439689636, -0.3909789025783539, 0.17336109280586243, -0.08701200783252716, -0.10121122002601624, 0.5482736229896545, 0.06768573820590973, 0.1915694624185562, -0.4837745428085327, -0.01966479979455471, -0.6372814774513245], [0.17484958469867706, 0.010978100821375847, 0.17275816202163696, 0.007918770425021648, 0.002604157431051135, 0.16286829113960266, -0.05003825202584267, 0.13919949531555176, -0.02081741765141487, 0.02707827277481556, 0.22173450887203217, 0.12087364494800568, 0.1613554060459137, -0.07546579092741013, 0.01455172523856163, 0.11457376927137375], [0.0707070380449295, 0.004049577750265598, -0.2548306882381439, 0.022865919396281242, -0.013609565794467926, -0.1336745023727417, 0.22168205678462982, -0.006476471666246653, 0.02331363782286644, 0.1758377104997635, -0.2703801393508911, -0.3378559648990631, 0.040386397391557693, 0.011480300687253475, -0.0006222932133823633, -0.1699475198984146], [-0.12685513496398926, 0.0044073727913200855, 0.4976523518562317, -0.0923556238412857, 0.3969445526599884, -1.414022445678711, -0.2220747172832489, 0.29579684138298035, -0.15368059277534485, -0.29214420914649963, 0.01003953255712986, -0.6251140832901001, 0.04242190718650818, 0.08931558579206467, 0.00397530198097229, -1.0882333517074585], [-0.00011750055273296311, -8.372768934350461e-05, 3.2597381505183876e-06, 0.0003215310862287879, -0.0003769516770262271, 9.44713392527774e-05, -0.00011167966295033693, 0.000154652982018888, 0.0004065847024321556, -0.0002075544180115685, -0.00024273768940474838, 0.00017828861018642783, 0.0003048625076189637, 0.00039610968087799847, 0.00010911005665548146, 0.00034250025055371225], [0.08355399966239929, 0.009027905762195587, 0.027485743165016174, 0.07006238400936127, 0.2544509172439575, 0.2116970419883728, 0.029355794191360474, -0.11559566855430603, 0.05543937161564827, 0.1371747851371765, 0.035842809826135635, -0.24890506267547607, -0.27356648445129395, 0.31696468591690063, 0.00942824687808752, 0.21602047979831696], [0.0833170935511589, -0.008933046832680702, -0.05382940545678139, 0.05321784317493439, 0.10949665307998657, 0.10874093323945999, -0.21808278560638428, 0.04261835664510727, -0.0021815255749970675, 0.056972578167915344, 0.9045256972312927, 0.030050301924347878, 0.06326820701360703, -0.04628000780940056, 0.013475190848112106, -0.12341346591711044], [0.008752746507525444, -0.0028485998045653105, 0.009388372302055359, -0.049000270664691925, -0.02938404493033886, 0.015838630497455597, -0.01994895562529564, 0.009597402065992355, -0.012800795026123524, -0.00570725928992033, 0.005151161924004555, 0.02025519870221615, -0.0021450140047818422, -0.007199733052402735, 0.00252207787707448, 0.0029721027240157127], [-0.06562638282775879, -0.008470269851386547, 0.16628283262252808, 0.08506501466035843, 0.04107106477022171, -0.45407170057296753, 0.4272162616252899, 0.2126324623823166, -0.04637133702635765, -0.29931482672691345, -0.3786136507987976, 0.30891120433807373, 0.39061084389686584, 0.39416325092315674, 0.015043049119412899, -0.3118090331554413], [-0.21292388439178467, 0.022487454116344452, -0.13904492557048798, 0.14805245399475098, 0.16617390513420105, 0.06657086312770844, -0.32160860300064087, 0.11217091232538223, -0.06170295923948288, 0.16847315430641174, -0.047418709844350815, -0.048190925270318985, 0.013222973793745041, 0.05126107111573219, -0.0026656677946448326, -0.052005868405103683], [-0.06916897743940353, 0.005577719304710627, 0.16109976172447205, -0.04744726046919823, -0.13825708627700806, -0.17179375886917114, 0.3970440924167633, -0.0655132457613945, 0.029802383854985237, 0.3946540951728821, 0.06449119001626968, -0.48267990350723267, 0.9099400639533997, 1.24543035030365, 0.017954356968402863, 0.09189038723707199], [-0.09136028587818146, -0.015271148644387722, -0.15000270307064056, 0.07335925847291946, 0.1511826366186142, 0.524409830570221, 0.05892338976264, -0.08976396173238754, 0.07454188913106918, -0.0006036075064912438, -0.6362344026565552, 0.4352297782897949, -0.06144031882286072, -0.15735174715518951, -0.004179477691650391, 0.12651121616363525], [-0.13789720833301544, -0.012898843735456467, -0.7260109782218933, 0.10163400322198868, -0.030752182006835938, -0.36732545495033264, 0.17978423833847046, -0.05328274145722389, 0.05339507386088371, -0.011921667493879795, -0.04420332610607147, 0.2252165973186493, 0.5251732468605042, -0.0960489958524704, -0.02036089450120926, -0.4436357617378235], [0.134333997964859, -0.0077216471545398235, 0.43333300948143005, 0.057644009590148926, 0.255704790353775, -0.09319274872541428, -0.5177507996559143, 0.3379080295562744, -0.15007038414478302, -0.020228909328579903, 0.34875720739364624, -0.16614089906215668, 0.18453587591648102, 0.17135167121887207, -0.009550501592457294, -0.09756005555391312], [-0.1900317370891571, 0.011202959343791008, -0.11689368635416031, 0.08550059795379639, -0.1032601073384285, -0.08919236063957214, 0.12789884209632874, -0.1499156951904297, 0.05988522619009018, 0.04153633117675781, -0.18647584319114685, 0.08869004249572754, -0.020520159974694252, -0.04403430223464966, -0.0013068474363535643, 0.014056905172765255], [0.1075964942574501, -0.0032345433719456196, 0.2147471159696579, -0.1763298511505127, 0.1694679707288742, -0.10732012987136841, -0.1858852207660675, -0.11703542619943619, 0.048062004148960114, 0.42094528675079346, 0.3595660328865051, -0.09677831083536148, -0.04101290926337242, -0.07442773133516312, -0.007506851572543383, -0.06448769569396973], [0.16322746872901917, -0.021512070670723915, -1.2147762775421143, 0.03989817947149277, -0.2770640552043915, 0.43423399329185486, 0.06719724833965302, 0.13915051519870758, 0.024989012628793716, 0.3387819528579712, 0.5505812764167786, 0.23956997692584991, -0.12848685681819916, -0.5106137990951538, -0.005000341217964888, 0.27315860986709595], [-0.36173275113105774, -0.0017631646478548646, 0.3319287598133087, -0.3410361707210541, -0.43123331665992737, 0.04189816489815712, -0.5805076956748962, -0.11267948895692825, -0.08767163008451462, -0.12069399654865265, -0.3355628550052643, -1.32503080368042, 0.11852685362100601, 0.16698212921619415, 0.011742189526557922, -0.2202882170677185], [-0.11476597189903259, -0.003026711754500866, -0.34716978669166565, 0.15365010499954224, 0.532765805721283, -0.36259394884109497, 0.0407445915043354, 0.7760800719261169, -0.0755256861448288, 0.2582593858242035, 0.1358240246772766, 0.5581101775169373, -0.9334697127342224, 0.578361988067627, 0.006827271077781916, -0.6490246653556824], [-0.6158751249313354, -0.03562186658382416, -0.9953973889350891, 0.1797766387462616, 0.4719443619251251, 1.539664387702942, 0.4718756079673767, 0.13971170783042908, 0.07448163628578186, 0.04587910696864128, -0.7361287474632263, 0.2804777920246124, 0.2491244524717331, 0.4540812373161316, -0.02058902196586132, 1.1520841121673584], [-0.011371140368282795, 0.0016972222365438938, -0.024096868932247162, -0.03225281089544296, -0.026982273906469345, -0.00653959671035409, -0.0029686607886105776, -0.0043967231176793575, -0.0019102066289633512, -0.0002111659268848598, 0.002852753736078739, 0.0039339871145784855, -0.006654428318142891, 0.03616463765501976, -0.0037376072723418474, -0.003840133547782898], [-0.08554418385028839, 0.019278161227703094, -0.18788982927799225, 0.15514646470546722, -0.060951169580221176, 0.7794632911682129, -0.011975354515016079, 0.3063094913959503, -0.10612212121486664, -0.06560888886451721, -0.3328861892223358, 0.5421088933944702, -0.03888675570487976, 0.0977931022644043, 0.013091986067593098, 0.7526012063026428], [-0.34827131032943726, 0.001211262890137732, 0.056251853704452515, 0.16511069238185883, -0.20429536700248718, -0.12850436568260193, -0.05764443054795265, 0.0571490079164505, 0.02658197283744812, -0.1284627765417099, -0.16974787414073944, -0.11950933188199997, 0.014582108706235886, 0.08953464776277542, -0.0014190329238772392, -0.204420268535614], [-3.957735680160113e-05, -0.0002772546431515366, 0.0013169866288080812, 0.0009948884835466743, 0.0031567972619086504, 0.003472323529422283, -0.004660830833017826, 0.0009634243906475604, -0.0008382461965084076, -0.0015645025996491313, -0.0020351242274045944, -0.00043910881504416466, -0.0007801706669852138, 0.004237605258822441, 0.0003313924535177648, 0.003128488315269351], [-0.4247741401195526, -0.009742090478539467, 0.003457119455561042, 0.09028176218271255, 0.06402038037776947, 0.3099357485771179, 0.3272920250892639, -0.04392091929912567, 0.026701167225837708, -0.22561995685100555, -0.38188090920448303, 0.1922951191663742, 0.10405327379703522, 0.24710798263549805, -0.008395631797611713, 0.035883061587810516], [-0.08646513521671295, -0.00825822725892067, 0.11052952706813812, 0.0970306321978569, -0.007139085326343775, -0.11842380464076996, -0.01692233793437481, 0.015527653507888317, 0.027310864999890327, -0.01868555322289467, -0.09587907791137695, 0.049775488674640656, 0.0586639903485775, 0.018382109701633453, -0.0013058462645858526, -0.09698237478733063], [-0.23191754519939423, 0.006447551306337118, -0.41597244143486023, -0.02820536121726036, 0.1720205545425415, 0.22923126816749573, 0.7130454778671265, -0.09030119329690933, 0.025465138256549835, -0.13647332787513733, -0.062079887837171555, 0.22098837792873383, 0.10858044773340225, 0.7854128479957581, 0.0011126045137643814, 0.2846158444881439], [-0.42822885513305664, 0.005486587528139353, -0.3295590877532959, 0.007188154384493828, -0.3673241138458252, 0.11193915456533432, 0.6156653165817261, -0.1201939657330513, 0.16043680906295776, 0.11252585798501968, 0.10710447281599045, 0.02275056578218937, -0.0380634069442749, -0.6311015486717224, 0.008623230271041393, -0.1595638245344162], [-0.23080120980739594, -0.0007013314170762897, -0.1559760570526123, 0.04916731268167496, -0.0026845321990549564, -0.00431969715282321, -0.1383432000875473, -0.2171405702829361, 0.012961776927113533, -0.18838061392307281, -0.39776554703712463, 0.028317075222730637, -0.33593496680259705, 0.004669589456170797, -0.0032560310792177916, -0.0856170579791069], [0.12753407657146454, -0.002566732931882143, 0.1486889123916626, 0.11459551006555557, -0.3793361783027649, 0.19063591957092285, 0.23337388038635254, 0.39168041944503784, -0.031248170882463455, 0.04822538420557976, 0.02973240241408348, 0.21190744638442993, 0.015193028375506401, 0.49175164103507996, -0.0068774232640862465, 0.13592270016670227], [-0.007799333892762661, 0.003350380575284362, 0.011322424747049809, 0.04194945842027664, -0.029018718749284744, -0.021488163620233536, -0.011620343662798405, 0.016348479315638542, 0.00252354284748435, -0.012102492153644562, -0.02690090425312519, 0.041412174701690674, 0.016899816691875458, 0.0012572698760777712, -0.0029285605996847153, -0.02163917012512684], [-0.04840027540922165, -0.002347505884245038, 0.36240994930267334, -0.0008118801051750779, 0.006871247198432684, 0.3198974132537842, 0.15798187255859375, -0.06623109430074692, 0.04668296501040459, -0.12431605905294418, 0.016978248953819275, -0.10278639197349548, -0.01737840287387371, 0.35762229561805725, -0.00033633445855230093, 0.3018050789833069], [-0.9201219081878662, 0.006462418008595705, 0.081520676612854, 0.25462958216667175, 0.15188609063625336, -0.03584829717874527, -0.3720024526119232, 0.03589530289173126, 0.05926743149757385, -0.16358846426010132, -0.526858925819397, -0.08470840752124786, -0.44013363122940063, 0.06063535809516907, 0.000757386616896838, -0.13974130153656006], [-0.163761168718338, -0.002563696587458253, -0.20406323671340942, 0.05828824266791344, -0.08533306419849396, 0.31418171525001526, -0.844814121723175, -0.22971798479557037, 0.023225244134664536, -0.1706904172897339, -0.1712586134672165, -0.016390172764658928, -0.19233733415603638, -0.4437682032585144, 0.012685218825936317, 0.13128182291984558], [-0.2560500204563141, -4.876586172031239e-05, 0.08322585374116898, 0.05868035554885864, 0.14393195509910583, 0.16519708931446075, -0.010665629990398884, -0.18148154020309448, 0.021203219890594482, -0.3420056998729706, -0.24655506014823914, -0.026525983586907387, -0.10607375204563141, 0.21322885155677795, -0.007613810710608959, 0.18615755438804626], [-0.473516047000885, 0.01596187800168991, 0.439463347196579, 0.23801971971988678, 0.06871003657579422, 0.4991375505924225, 0.6180537939071655, -0.44730833172798157, 0.01753934845328331, -0.393970251083374, 0.7609080672264099, 0.2007477879524231, 0.0028315261006355286, 0.3223005533218384, -0.021899191662669182, 0.2225174456834793], [-0.0006565090734511614, -9.237145422957838e-05, 0.0005576168186962605, 0.0004908024566248059, -0.00046890226076357067, 0.0007796099525876343, 0.00015613672439940274, -0.0008538825204595923, 0.000814334605820477, -0.001486790250055492, -0.0005719065084122121, 0.0011348538100719452, 0.000355678319465369, 0.0007981106755323708, 0.0001099479995900765, 0.00108742481097579], [-0.055329568684101105, 0.005565008148550987, -1.1383965015411377, -0.31709709763526917, -0.7925369739532471, -0.030282022431492805, 1.0289510488510132, -0.085039421916008, -0.022009924054145813, 0.04843771457672119, 1.5813912153244019, 0.21775515377521515, 0.09881000965833664, -0.48818930983543396, 0.0052838316187262535, -0.01584497094154358]], "rec.bias_ih_l0": [0.016986044123768806, -0.0027640298940241337, 0.26360994577407837, 0.05761395022273064, 0.24374356865882874, 0.011787709780037403, 0.3639521598815918, 0.30625292658805847, 0.05125798285007477, 0.10584074258804321, -0.26624882221221924, 0.1671288162469864, 0.5170499086380005, 0.20736125111579895, -0.0026843762025237083, 0.6005424857139587, 0.4292120933532715, -0.0029411083087325096, 0.23625193536281586, 0.1501714438199997, -0.20326440036296844, 0.0118390629068017, -0.00686020078137517, 0.3256474733352661, 0.04383856803178787, 0.3247837424278259, 0.8858531713485718, -0.4102277159690857, -0.21553859114646912, 0.10913529247045517, -0.0037793631199747324, -0.4496696889400482, -0.07986656576395035, 0.006462824065238237, -0.2697746455669403, 0.0879293754696846, 0.06639909744262695, -0.11002900451421738, -0.06423843652009964, 0.021364659070968628, -0.02173270471394062, -0.07097946852445602, -0.09939221292734146, 0.20337501168251038, -0.009370109997689724, 0.15290415287017822, -0.007049641106277704, 0.2786593437194824, 0.3691559433937073, -0.00296423165127635, 0.27895429730415344, 0.08546604216098785, -0.034033093601465225, 0.3934694528579712, 0.3859139382839203, 0.2232038974761963, 0.05953405052423477, 0.008797665126621723, 0.10455512255430222, 0.2545551061630249, 0.5458469986915588, 0.6580485701560974, -0.0031744749285280704, 0.4283324182033539], "rec.bias_hh_l0": [0.01752845011651516, -0.0027640298940241337, 0.26332008838653564, 0.05761395022273064, 0.24373984336853027, 0.010455574840307236, 0.36395302414894104, 0.30631789565086365, 0.05125798285007477, 0.10584074258804321, -0.31568387150764465, 0.16781002283096313, 0.5170499086380005, 0.22480405867099762, -0.0026843762025237083, 0.5985649228096008, 0.41306358575820923, -0.0029411083087325096, 0.2425631433725357, 0.1501714438199997, -0.20468062162399292, 0.004116922616958618, -0.006836419925093651, 0.3255942761898041, 0.04383856803178787, 0.32478392124176025, 0.871128261089325, -0.41073447465896606, -0.21553899347782135, 0.14233119785785675, -0.0037793631199747324, -0.4538200795650482, -0.08519904315471649, 0.006261696107685566, -0.306384801864624, 0.08949567377567291, -0.05095299333333969, 0.23950167000293732, -0.04253319278359413, -0.03299252316355705, -0.027643730863928795, -0.05898289009928703, -0.07192064076662064, 0.19532683491706848, 0.0036878054961562157, 0.06487181037664413, -0.0055373781360685825, 0.014304636046290398, 0.3042342960834503, -0.00296423165127635, 0.27958574891090393, 0.08546595275402069, -0.05235122889280319, 0.38960105180740356, 0.38600030541419983, 0.22332632541656494, 0.05953405052423477, 0.010205957107245922, 0.19906717538833618, 0.2527827322483063, 0.5458476543426514, 0.7043830156326294, -0.0031744749285280704, 0.4043707847595215], "lin.weight": [[-0.029582833871245384, -0.006897482555359602, -0.07498111575841904, 0.09568680077791214, 0.7233608365058899, 0.3688856363296509, -0.11604157835245132, -0.001473875599913299, -0.0359172560274601, -0.1019933894276619, -0.20625174045562744, 0.6032257080078125, -0.2975809872150421, -0.8110314607620239, -0.001609303057193756, -1.0914185047149658]], "lin.bias": [-0.06164107844233513]}}