{"model_data": {"model": "SimpleRNN", "input_size": 1, "skip": "0", "output_size": 1, "unit_type": "GRU", "num_layers": 1, "hidden_size": 16, "bias_fl": true}, "state_dict": {"rec.weight_ih_l0": [[0.2125828117132187], [-0.055801872164011], [0.051765553653240204], [0.17257924377918243], [0.014711946249008179], [-0.09553438425064087], [0.44276225566864014], [-0.031443025916814804], [0.0579661950469017], [-0.5888969898223877], [0.0020436488557606936], [0.049286458641290665], [-0.014284787699580193], [1.242470383644104], [-0.3581635653972626], [0.06416952610015869], [0.017990948632359505], [0.290330171585083], [-0.6307869553565979], [0.09433933347463608], [-0.030756790190935135], [0.5019119381904602], [0.7199699878692627], [0.07417275011539459], [0.5432954430580139], [0.04459638148546219], [0.29900509119033813], [0.05694282427430153], [-0.7367879152297974], [-0.06327861547470093], [0.2512344717979431], [-0.016460426151752472], [0.7101779580116272], [1.1998732089996338], [0.5765339136123657], [-0.5905138850212097], [-0.5785788297653198], [2.0836567878723145], [1.970552921295166], [0.12584656476974487], [-1.154002070426941], [-0.8899668455123901], [1.030739188194275], [-0.8755304217338562], [0.8389850854873657], [-2.6069748401641846], [0.03001132607460022], [1.4117562770843506]], "rec.weight_hh_l0": [[-0.13238802552223206, -0.31656399369239807, 0.44253483414649963, 0.28749901056289673, -0.5298156142234802, 0.21160294115543365, 0.12421587854623795, -0.02304295264184475, -0.20127113163471222, 0.16669487953186035, 0.001961340429261327, -0.6201134324073792, -0.18200859427452087, 0.07607494294643402, -0.08929251879453659, 0.6310673952102661], [-0.008727570064365864, 0.26755332946777344, -0.2556259036064148, -0.330777108669281, 0.4305434226989746, -0.16007590293884277, -0.289448618888855, -0.032836541533470154, -0.16280481219291687, -0.14722435176372528, -0.13716264069080353, 0.13324443995952606, -0.06419400870800018, 0.2060677409172058, 0.10257335752248764, -0.13230550289154053], [-0.0604395754635334, 0.24007375538349152, 0.16244980692863464, -0.26920363306999207, -0.18539366126060486, 0.24714171886444092, 0.12037267535924911, 0.03331422805786133, -0.23824653029441833, -0.042491182684898376, 0.14115944504737854, -0.1952669769525528, -0.05976232513785362, -0.2818731963634491, 0.012355770915746689, 0.0960688591003418], [0.18281134963035583, 0.27251285314559937, -0.1488214135169983, -0.33726567029953003, 0.42649045586586, -0.11657987534999847, -0.3974913954734802, -0.01377190463244915, -0.5150777101516724, -0.038762956857681274, -0.0025891142431646585, -0.020945927128195763, 0.03168630227446556, 0.03307238593697548, -0.0013082621153444052, -0.09085078537464142], [-0.17043599486351013, 0.16231058537960052, 0.5349519848823547, 0.05046503245830536, 0.05205851048231125, 0.13252224028110504, 0.09901459515094757, 0.029408086091279984, 0.159427210688591, -0.02782544121146202, -0.14132611453533173, -0.11452730745077133, -0.11795662343502045, 0.09443558007478714, -0.09167926013469696, -0.10199425369501114], [-0.09748038649559021, 0.27648240327835083, -0.26973605155944824, -0.0934729278087616, -0.0852435827255249, -0.4066174328327179, -0.1445833146572113, -0.09259301424026489, 0.20328885316848755, 0.30462002754211426, -0.1572403907775879, -0.09941552579402924, 0.01565217785537243, 0.47216328978538513, -0.17036089301109314, -0.1645277440547943], [-0.5363799333572388, 0.11483696103096008, -0.5450628995895386, 0.16301864385604858, -0.11317311972379684, 0.018944747745990753, 0.9411678910255432, 0.033147670328617096, -0.12734746932983398, 0.12106771022081375, 0.20010501146316528, -0.39023494720458984, -0.924618661403656, -0.2557782828807831, -0.23226778209209442, 0.04121372103691101], [0.0053331670351326466, -0.07364796102046967, 0.025478463619947433, 0.0725167840719223, 0.03983263671398163, -0.049632079899311066, -0.0643262043595314, 0.014423057436943054, -0.005916208494454622, -0.08086075633764267, -0.033452440053224564, 0.0525338351726532, -0.01873873919248581, 0.04791459068655968, 0.02035367302596569, -0.05861647054553032], [0.15240126848220825, 0.2540225684642792, 0.3349251449108124, -0.3513331115245819, 0.2548214793205261, -0.32520148158073425, -0.7383096814155579, 0.026898708194494247, 0.2736675441265106, -0.03805550932884216, -0.2035394310951233, 0.11908912658691406, 0.1945430040359497, 0.3451846241950989, -0.11790252476930618, -0.40191420912742615], [-0.1814202517271042, 0.46903252601623535, 1.3601173162460327, -0.7193314433097839, 0.11203817278146744, -0.03437931463122368, -0.009084920398890972, -0.007074960973113775, -0.08390995860099792, 0.15664416551589966, -0.43346336483955383, 0.3095439374446869, -0.4242636561393738, 0.5594806671142578, -0.1263720542192459, -0.4064529240131378], [0.29592543840408325, -0.25526946783065796, 0.06949198246002197, -0.04761390760540962, 0.19313357770442963, -0.053796201944351196, -0.2863025665283203, 0.10106492787599564, -0.2759914696216583, -0.2337256371974945, 0.1852591335773468, 0.1237364262342453, 0.31166717410087585, -0.10780125856399536, 0.06301375478506088, -0.1850014328956604], [0.1215340718626976, -0.02703007310628891, 0.0929279699921608, 0.054442696273326874, -0.04558639973402023, 0.1156047135591507, 0.31367063522338867, 0.030481934547424316, -0.02964642085134983, 0.07106336206197739, 0.12269756197929382, -0.14805443584918976, 0.261254221200943, -0.32422271370887756, -0.0029504518024623394, 0.14426583051681519], [0.08099135011434555, -0.39337652921676636, -0.19473731517791748, 1.15585196018219, -0.33144786953926086, 0.1039755791425705, 0.6898382902145386, -0.11720187216997147, 0.08564146608114243, -0.3152163326740265, -0.503309965133667, -0.8123102188110352, 0.49729713797569275, -0.6734304428100586, 0.4762243330478668, 0.3624839186668396], [0.3355511426925659, 0.28077059984207153, 0.2597813010215759, -0.7367072105407715, -0.23816810548305511, -0.08850095421075821, -0.19028149545192719, 2.3386965040117502e-05, 0.32587242126464844, 0.27227112650871277, -0.09789050370454788, 0.6005299091339111, 0.4739019274711609, -1.1660981178283691, -0.03377923369407654, 0.02350272424519062], [-0.20830698311328888, -0.10818658769130707, -0.01568666100502014, 0.12663210928440094, 0.13683736324310303, 0.00046223646495491266, -0.32037368416786194, 0.009682869538664818, 0.1431913673877716, 0.06682036072015762, 0.036486003547906876, 0.17380675673484802, -0.2520204782485962, 0.2692069709300995, -0.07902085036039352, 0.0031862121541053057], [0.10380778461694717, -0.11751968413591385, -0.8839730620384216, 0.8683531284332275, -0.23429617285728455, 0.1483873873949051, 0.16560107469558716, -0.023510893806815147, 0.6215638518333435, -0.020454198122024536, 0.2780459523200989, 0.10765575617551804, 0.2717112898826599, -0.6613350510597229, 0.01529613882303238, 0.13804040849208832], [0.020741092041134834, -0.27701735496520996, 0.014978224411606789, -0.0975220650434494, 0.025783514603972435, 0.09232110530138016, -0.033283744007349014, 0.03948850557208061, -0.034735627472400665, -0.08694729954004288, 0.1055494174361229, -0.18640252947807312, 0.0047878120094537735, 0.006018043961375952, -0.26490917801856995, 0.18212968111038208], [-0.238677516579628, 0.3035092055797577, 0.2658555507659912, -0.6913191676139832, -0.2107888013124466, 0.17175447940826416, -0.09893190115690231, 0.015281065367162228, -0.6114279627799988, -0.20566263794898987, -0.17342998087406158, -0.34163737297058105, -0.3686351180076599, 0.16752037405967712, 0.17487165331840515, 0.401556134223938], [-0.4190652668476105, -0.13853336870670319, 0.2160176932811737, 0.08023840934038162, -0.04844960942864418, -0.20039987564086914, -0.25299835205078125, 0.061700187623500824, -0.05866210535168648, 0.39886847138404846, 0.05118844285607338, -0.0036727525293827057, -0.3624666929244995, 0.33815711736679077, -0.09205866605043411, -0.09583862870931625], [-0.040878813713788986, 0.2594541013240814, 0.20070597529411316, -0.19758625328540802, -0.41739970445632935, 0.5721377730369568, 0.8043367266654968, 0.050449032336473465, -0.21593278646469116, 0.22455154359340668, 0.27585992217063904, -0.38702699542045593, -0.023894011974334717, -0.49642929434776306, 0.15884946286678314, 0.4932771623134613], [-0.29210707545280457, 0.7288763523101807, -0.8494845032691956, -0.13731908798217773, 0.20478853583335876, -0.7666847705841064, -0.3946990370750427, -0.03087816946208477, -0.45639124512672424, 0.11001163721084595, 0.3197246491909027, 0.3305843770503998, -0.04802624136209488, 0.22361773252487183, -0.1396978497505188, 0.008495114743709564], [0.13674584031105042, 0.27032190561294556, -0.22350646555423737, -0.00925588607788086, 0.3305526375770569, 0.04440990462899208, -0.35936617851257324, -0.14128611981868744, 0.06587695330381393, -0.4053046703338623, -0.15816126763820648, 0.48975273966789246, 0.378664493560791, 0.04213535413146019, -0.424641489982605, -0.14414945244789124], [0.4714445173740387, -0.24695533514022827, 0.11345446109771729, -0.019392292946577072, 0.6947791576385498, 0.8755059838294983, 0.08996669203042984, 0.13828888535499573, -0.12356102466583252, -0.27512824535369873, 0.6695482134819031, 0.8581161499023438, 0.2639370262622833, -1.0606719255447388, 0.06979402154684067, 0.051745012402534485], [-0.006958324927836657, 0.024094153195619583, -0.024716809391975403, 0.004218579735606909, 0.022578449919819832, -0.0026768515817821026, 0.013788853771984577, -0.01603950746357441, 0.0019085939275100827, 0.004967621993273497, 0.013712522573769093, 0.004419001284986734, 0.014570933766663074, -0.0217418372631073, -0.023480432108044624, 0.006403244566172361], [-0.006485994439572096, 0.28780844807624817, -0.13600076735019684, 0.31241342425346375, -0.2214871346950531, 0.44089558720588684, 1.1860811710357666, 0.049979373812675476, 0.02273811772465706, -0.03213616833090782, 0.09287955611944199, -0.09607741236686707, 0.2308449000120163, -1.030537724494934, -0.0027370040770620108, 0.3350570499897003], [0.10074155777692795, 0.33244600892066956, -0.14819133281707764, 0.21254092454910278, -0.011435887776315212, -0.014361751265823841, 0.17439599335193634, 0.0019195727072656155, -0.09549499303102493, -0.16712874174118042, 0.27785947918891907, -0.05210106819868088, 0.42160671949386597, -0.23365911841392517, -0.27117204666137695, 0.07459522038698196], [-0.15060743689537048, -0.09190116822719574, -0.1640305072069168, -0.09929394721984863, 0.12724348902702332, -0.6098456382751465, -0.46918946504592896, -0.024073408916592598, -0.06914961338043213, -0.21902799606323242, -0.02226281724870205, 0.22003912925720215, -0.1295665055513382, 0.20411843061447144, -0.09367507696151733, -0.3954336941242218], [-0.2785867750644684, 0.11384063959121704, -0.15892696380615234, -0.04661395773291588, -0.4870773255825043, 0.5758256912231445, 0.6742756366729736, -0.022562915459275246, 0.1446041315793991, 0.6654609441757202, 0.3237950801849365, -0.11313991248607635, -0.32721659541130066, -0.41811037063598633, 0.1054258719086647, 0.3767591714859009], [0.13916830718517303, 0.276768296957016, -0.1670307219028473, -0.13648080825805664, 0.15412871539592743, -0.21592919528484344, -0.06620464473962784, -0.06417698413133621, 0.09606856107711792, 0.13970141112804413, -0.22327330708503723, 0.04359151050448418, -0.08468311280012131, 0.12120017409324646, 0.08698869496583939, -0.20686370134353638], [0.11840275675058365, 0.1264607012271881, -0.15804357826709747, 0.0860498920083046, 0.307587206363678, -0.36158597469329834, -0.40496909618377686, -0.02139672264456749, 0.30818676948547363, -0.21783407032489777, -0.1315230280160904, 0.43241608142852783, 0.32211291790008545, 0.1849220246076584, 0.17196780443191528, -0.575037956237793], [0.11190906912088394, 0.06262842565774918, -0.10488121211528778, -0.02794424071907997, 0.06268010288476944, 0.21704109013080597, 0.37341681122779846, -0.012991731986403465, 0.029739465564489365, 0.1650140881538391, -0.02522183582186699, -0.004330197349190712, 0.008204873651266098, -0.2801821231842041, -0.009711557067930698, 0.09476757794618607], [0.0808611512184143, -0.13427503407001495, -0.18174423277378082, 0.09023642539978027, 0.34218475222587585, 0.050684940069913864, -0.046539828181266785, 0.0252008605748415, 0.06622326374053955, -0.15248838067054749, 0.040422022342681885, 0.09282778948545456, 0.21521112322807312, -0.14837196469306946, -0.02503739483654499, 0.06286019086837769], [-0.016827892512083054, -0.1353757530450821, -0.1855238974094391, 0.02034514583647251, 0.03361637145280838, 0.05274589732289314, -0.2259717732667923, -0.15660212934017181, 0.7845780253410339, -0.512954592704773, -0.1873997002840042, 0.4627235233783722, 0.45758119225502014, -0.6024354100227356, 0.40165871381759644, 0.06088931858539581], [0.23048117756843567, 0.6437357664108276, -0.12685498595237732, -0.662180483341217, 0.47861143946647644, -0.07144788652658463, 0.10686669498682022, 0.007898356765508652, -0.4854280352592468, -0.20093443989753723, -0.14573200047016144, -0.07155223190784454, 0.19590701162815094, -0.09109970927238464, 0.10782089829444885, 0.00921081192791462], [0.16155390441417694, -0.14036722481250763, 0.5792385339736938, -0.4096442759037018, 0.15843912959098816, 0.2172740399837494, -0.4195176959037781, 0.026694197207689285, -0.5625031590461731, -0.48046499490737915, -0.022474993020296097, -0.11089976131916046, 0.09781133383512497, -0.08548545837402344, 0.15729424357414246, 0.5600977540016174], [-0.11913131177425385, -0.377036988735199, 0.20060819387435913, 0.785210132598877, -0.42746129631996155, 0.09590652585029602, -0.025028178468346596, -0.0115278959274292, 0.8303825259208679, 0.5792847871780396, 0.8402001261711121, 0.2855601906776428, 0.29172345995903015, 0.04047909751534462, -0.26302558183670044, -0.17261332273483276], [0.09746091812849045, -0.04398621991276741, 0.1733052134513855, 0.3427441418170929, -0.0012679893989115953, -0.017076430842280388, -0.80997633934021, -0.14694273471832275, 0.7725193500518799, 0.5560157895088196, -0.17884807288646698, 0.5158833265304565, 0.5822036862373352, 0.1662406325340271, 0.3562982380390167, 0.24161480367183685], [0.16733087599277496, 0.1779869943857193, -0.029757598415017128, 0.2998129725456238, 0.23126699030399323, 0.8514180183410645, 0.024659134447574615, 0.009939304552972317, -0.5015432238578796, -0.8098911643028259, 0.09245013445615768, -0.06956528127193451, 0.011145911179482937, -0.8724197745323181, 0.17901094257831573, 1.0482285022735596], [-0.2504977881908417, 0.791716992855072, -1.2109724283218384, 1.1505428552627563, 0.14401794970035553, 1.044771432876587, 1.5224411487579346, 0.02376505732536316, 0.1268269270658493, -0.4009709358215332, 0.6395095586776733, -0.26120758056640625, 0.49910110235214233, -2.0359582901000977, -0.13846971094608307, 0.46677103638648987], [0.007054626476019621, -0.03653594106435776, 0.20142240822315216, 0.13073407113552094, 0.10051348805427551, -0.10669512301683426, 0.10657015442848206, -0.007693698164075613, -0.062231648713350296, -0.11599183827638626, 0.03990232199430466, 0.06562100350856781, -0.05885429307818413, -0.10149464011192322, 0.012864260002970695, -0.1716650128364563], [-0.3607555031776428, -0.3379388153553009, -0.42573782801628113, 0.3358924388885498, -0.8096076250076294, 0.3232640326023102, 0.7801328301429749, -0.20887315273284912, -0.7349094152450562, 0.5775327682495117, 0.17785228788852692, 0.04131827875971794, 0.2117895483970642, 0.09082433581352234, -0.19846327602863312, -0.517618715763092], [-0.1345796287059784, -0.2736046016216278, -0.33924639225006104, 0.23298576474189758, -0.690561830997467, 0.17880673706531525, 0.8503592610359192, -0.08087288588285446, -0.326377809047699, 0.2728832960128784, 0.8175089359283447, -0.49704834818840027, 0.2934652864933014, -0.16191887855529785, -0.2370108664035797, 0.7473556399345398], [0.0751587450504303, 0.13903112709522247, -0.27166199684143066, 0.12441049516201019, 0.16947852075099945, -0.3706660568714142, -0.04771539568901062, -0.08394891023635864, 0.11746800690889359, 0.3767543137073517, 0.4799010455608368, 0.2072693258523941, 0.2933915853500366, -0.14140912890434265, -0.2495056390762329, -0.2894411087036133], [-0.09220384061336517, 0.08782463520765305, -0.3500577509403229, -0.28441232442855835, 0.15381024777889252, 0.0646149218082428, -0.13531149923801422, -0.020837023854255676, 0.0210800189524889, 0.4389514625072479, 0.32494449615478516, 0.3263877332210541, 0.23714642226696014, 0.3707323968410492, -0.028916427865624428, -0.5208340287208557], [0.7759394645690918, 0.6315836906433105, 0.24445660412311554, 1.2259151935577393, 0.715501606464386, 0.541878342628479, -0.3459463119506836, 0.036073025315999985, 0.9214122891426086, -0.1919073909521103, 0.27727892994880676, 0.6151325106620789, 1.0646069049835205, -0.7639183402061462, 0.057455893605947495, -0.15242646634578705], [0.09583701938390732, -0.08710403740406036, 0.5698950886726379, -0.41430625319480896, 0.05023837834596634, -0.49495598673820496, -0.948428750038147, -0.059702131897211075, -0.8079670667648315, -0.7041137218475342, -0.5215827226638794, -0.8283095359802246, -0.20975027978420258, 0.5445929169654846, 0.12186018377542496, -0.3084077537059784], [0.37609902024269104, -0.21704469621181488, -0.3038143515586853, 0.13033895194530487, 0.014508016407489777, -0.03719056397676468, 0.3019057512283325, 0.024830862879753113, -0.7325013279914856, -0.6454557776451111, -0.5806583762168884, -0.26467573642730713, -0.008447444066405296, -0.056308794766664505, -0.3880974054336548, 0.12203586101531982], [-0.2631153464317322, 0.3097025156021118, -0.13822922110557556, -0.12965762615203857, -0.31736478209495544, 0.9255049228668213, -0.37644490599632263, -0.08245185762643814, -0.29911574721336365, -0.2051653414964676, 0.060510843992233276, -0.5017487406730652, -0.4232870936393738, -0.4284611642360687, 0.08083784580230713, 0.980124831199646]], "rec.bias_ih_l0": [-0.09995942562818527, -0.17877551913261414, -0.029957110062241554, 0.06718140840530396, 0.17526717483997345, -0.16106456518173218, 0.166448175907135, -0.008205010555684566, 0.05637118220329285, -0.3004051148891449, -0.06198286637663841, 0.06525164097547531, -0.2292412370443344, -0.263616144657135, -0.0402655266225338, -0.3741510808467865, -0.07089481502771378, 0.7807404398918152, 1.020190954208374, 0.3455025851726532, 0.4315052926540375, -0.3286161422729492, -0.039431437849998474, -0.02188841626048088, -0.027226712554693222, -0.13015399873256683, 0.36980342864990234, 0.23422271013259888, 0.22450987994670868, -0.23413453996181488, -0.14958715438842773, -0.5124152302742004, 0.3198491632938385, 0.041128575801849365, 0.01967005245387554, 0.10229417681694031, -0.27896180748939514, 0.13939297199249268, -0.15296010673046112, 0.014864861033856869, -0.06637409329414368, 0.08622144907712936, 0.12720458209514618, 0.030552418902516365, 0.16288889944553375, 0.6104645729064941, -0.01843073219060898, -0.09820812195539474], "rec.bias_hh_l0": [-0.10020601004362106, -0.17877908051013947, -0.03304324671626091, 0.06461868435144424, 0.17584088444709778, -0.22830842435359955, 0.18933817744255066, -0.008205008693039417, 0.05642477422952652, -0.3156737685203552, -0.061985839158296585, 0.06525947153568268, -0.23468895256519318, -0.060425788164138794, -0.040255047380924225, -0.3853452205657959, -0.07089560478925705, 0.7807368040084839, 1.0243356227874756, 0.3428892195224762, 0.43147575855255127, -0.3281777501106262, -0.04591812938451767, -0.02188842184841633, -0.021955784410238266, -0.13044947385787964, 0.36980342864990234, 0.2342226803302765, 0.2245211899280548, -0.23401303589344025, -0.14958710968494415, -0.5124139785766602, -0.09259481728076935, 0.37229636311531067, -0.015418972820043564, -0.05968897417187691, -0.19220760464668274, 0.001022971118800342, 0.14338500797748566, -0.009192703291773796, -0.16535945236682892, 0.1416381448507309, 0.10965030640363693, 0.07997475564479828, -0.304695188999176, -0.2733610272407532, 0.02729593589901924, 0.08233890682458878], "lin.weight": [[0.39621469378471375, 0.27530962228775024, 0.08794768899679184, -0.05533526465296745, 0.6197753548622131, 0.06811149418354034, 1.0579895973205566, -0.00018225365784019232, -0.2938295602798462, -0.32580864429473877, -0.0550035685300827, -0.1148577556014061, -0.7391178607940674, 0.5559510588645935, -0.33039844036102295, 0.32447195053100586]], "lin.bias": [-0.025617320090532303]}}