{"model_data": {"model": "SimpleRNN", "input_size": 1, "skip": "0", "output_size": 1, "unit_type": "GRU", "num_layers": 1, "hidden_size": 16, "bias_fl": true}, "state_dict": {"rec.weight_ih_l0": [[-0.8716377019882202], [-0.2720398008823395], [0.5770320296287537], [-0.36659833788871765], [0.5964354872703552], [0.014266443438827991], [-0.1305927038192749], [0.17871612310409546], [0.031003039330244064], [-0.06253419071435928], [0.20820479094982147], [-0.04773786664009094], [-0.4649409055709839], [-0.28349000215530396], [0.013194503262639046], [0.11171190440654755], [-0.1221509724855423], [0.47110411524772644], [0.623436689376831], [0.695563018321991], [-0.21374721825122833], [-0.25500962138175964], [0.17053908109664917], [-0.03269738703966141], [0.28054866194725037], [0.2662222981452942], [-0.2941570281982422], [-0.09793688356876373], [0.007377488538622856], [0.09477733820676804], [-0.3113919496536255], [-0.2150866687297821], [3.038489580154419], [0.5284563899040222], [-1.2478580474853516], [-0.5831121206283569], [1.0812773704528809], [0.05660524591803551], [1.1902868747711182], [0.3899022936820984], [0.1212896928191185], [-0.020509345456957817], [0.0340350978076458], [-0.5152451992034912], [-0.5193817019462585], [-1.9635001420974731], [0.4987911283969879], [-1.2540091276168823]], "rec.weight_hh_l0": [[-1.0069769620895386, 0.16918210685253143, 0.5025748610496521, 0.5106072425842285, -0.3587936758995056, -0.8173776268959045, -0.3440847396850586, 0.30069699883461, -0.7204909324645996, -0.35138729214668274, -0.5915542244911194, 0.5580242276191711, -0.9131028652191162, 0.5264310240745544, 0.20574699342250824, 0.3709399402141571], [-0.3098562955856323, -0.35373586416244507, 0.2443096786737442, -0.024717574939131737, 0.025560742244124413, 0.12369658052921295, -0.3415670394897461, -0.015924349427223206, 0.2385714203119278, -0.013656235300004482, 0.2731437385082245, -0.007621789816766977, 0.1040276512503624, 0.09284840524196625, 0.04587416723370552, 0.2576194405555725], [0.15380172431468964, -0.1096709743142128, -0.2277810275554657, -0.1257021427154541, -0.2725020945072174, 0.2641857862472534, 0.15390843152999878, -0.09314288198947906, 1.147963285446167, -0.436457097530365, 0.5138479471206665, -0.7778260111808777, -0.11782178282737732, 0.14775916934013367, -0.11693811416625977, 0.4581057131290436], [-0.1578136831521988, -0.12248283624649048, 0.24833057820796967, 0.04123283550143242, -0.07832098007202148, -0.1851210743188858, -0.2083442062139511, 0.09336096048355103, -0.25235339999198914, -0.3032267093658447, 0.009116397239267826, 0.12221910804510117, -0.021358070895075798, 0.1900985687971115, 0.14145973324775696, 0.33490824699401855], [0.028156103566288948, 0.042698707431554794, 0.41573861241340637, -0.4418545663356781, 0.13073766231536865, -0.4125405251979828, -0.2669079303741455, 0.7805124521255493, -0.9448760747909546, -0.45926687121391296, -0.49557340145111084, 0.2113066017627716, -1.1373367309570312, -0.7435262799263, -0.04297752305865288, 0.4008406698703766], [-0.039602894335985184, -0.6067983508110046, -0.2761712372303009, -0.27713742852211, -0.14341558516025543, 0.3601031005382538, -0.09294653683900833, 0.07033165544271469, 0.17409202456474304, -0.3341919183731079, 0.02451302297413349, 0.023767733946442604, -0.10546883195638657, -0.6931380033493042, 0.19174689054489136, 0.24621479213237762], [0.20916691422462463, -0.6379291415214539, -0.08306188136339188, -0.008435899391770363, 0.2714521288871765, 0.3694275915622711, -0.19324471056461334, -0.06704166531562805, 0.933133065700531, 0.21582181751728058, 0.9515483975410461, -0.6130334734916687, 0.15255168080329895, 0.5007171630859375, -0.2111818492412567, -0.08562397211790085], [-0.08064384758472443, 0.18384850025177002, 0.09613189846277237, 0.15535297989845276, -0.08190429955720901, -0.03645902872085571, -0.18019527196884155, -0.004051450174301863, -0.04688193276524544, 0.07877111434936523, 0.021372472867369652, -0.00586018618196249, -0.0993819311261177, -0.011371827684342861, 0.09119335561990738, -0.19353584945201874], [-0.019126463681459427, 0.1966913789510727, 0.07903299480676651, 0.010755429044365883, -0.2551967203617096, 0.09906156361103058, -0.07909902185201645, 0.09378554672002792, -0.22570505738258362, -0.010010084137320518, -0.34440213441848755, 0.2798088490962982, 0.06681421399116516, -0.055015817284584045, 0.11135806888341904, -0.1564701944589615], [-0.08723650127649307, -0.25157591700553894, 0.0007305959006771445, -0.04177206754684448, -0.058217454701662064, 0.2049795687198639, -0.002083595609292388, 0.04998145252466202, 0.09896715730428696, -0.11612221598625183, 0.06418401747941971, 0.08204490691423416, -0.2301030308008194, -0.15111085772514343, 0.30591946840286255, 0.047895465046167374], [0.17136718332767487, -0.1609915792942047, -0.25417062640190125, -0.1847970336675644, 0.0339445136487484, 0.3234601318836212, 0.14126171171665192, 0.015332496725022793, 0.3337617516517639, 0.059709932655096054, -0.11892919987440109, -0.05493716895580292, 0.11978580057621002, -0.060157645493745804, 0.14737698435783386, -0.16228798031806946], [-0.18372011184692383, 0.004494186025112867, 0.15439827740192413, -0.09576302021741867, 0.04213983565568924, -0.13849711418151855, -0.18723192811012268, -0.11564004421234131, -0.2807873785495758, -0.1453767865896225, 0.30217477679252625, 0.0943327471613884, -0.029275480657815933, 0.013349154964089394, -0.02259899117052555, 0.197968989610672], [0.04120410978794098, 0.5747432708740234, 0.1872430145740509, 0.6853289604187012, 0.38135120272636414, 0.06653822213411331, -0.4452856779098511, 0.04839179664850235, 0.12776483595371246, 0.45921072363853455, 0.16839955747127533, -0.5609123706817627, 1.2336596250534058, 0.6779099106788635, -0.7047128677368164, -1.152963399887085], [-0.08199694007635117, -0.017422979697585106, 0.221207857131958, -0.502921462059021, -0.33382120728492737, -0.5610445737838745, 0.08821557462215424, -0.019145885482430458, -0.34719008207321167, -0.42395249009132385, -0.7048477530479431, 0.302561491727829, -0.390304297208786, -0.10652606934309006, 0.2523723244667053, 0.4093957841396332], [0.03888668492436409, -0.02933347597718239, -0.1717708855867386, 0.021477386355400085, -0.0803508311510086, 0.2083020806312561, 0.13756665587425232, 0.07778926938772202, 0.0917803943157196, -0.07294704020023346, -0.05337141826748848, 0.011496960185468197, -0.14448784291744232, -0.02385917492210865, 0.18510408699512482, 0.06662491708993912], [0.7034139633178711, -0.4507802426815033, 0.01365878526121378, -0.09595285356044769, 0.2552604675292969, -0.10787735879421234, 0.5611371397972107, -0.01446580421179533, 0.05531681701540947, 0.29059481620788574, -0.1865355223417282, -0.20473459362983704, -0.12045658379793167, -0.32108378410339355, 0.2753112316131592, -0.6747940182685852], [0.11497879028320312, -0.2799963355064392, 0.6484860181808472, -0.6226897239685059, 0.0910065770149231, -0.6952845454216003, -0.3745221793651581, -0.263421893119812, -0.19783668220043182, 0.23796868324279785, -0.019197873771190643, 0.018808899447321892, 0.3444851040840149, 0.3920347988605499, -0.3741556704044342, -0.08551075309515], [0.3468456566333771, -0.07035885006189346, -0.8173916339874268, -0.2358318418264389, 0.12163593620061874, 0.3662334680557251, 0.474902480840683, 0.11311579495668411, -0.13221977651119232, -0.08059274405241013, -0.16389578580856323, -0.11280028522014618, -0.13146647810935974, -0.2839997112751007, -0.08044640719890594, -0.08873042464256287], [-0.3192373812198639, -0.4811205565929413, -0.5203675627708435, -0.8694272637367249, 0.07959643751382828, -0.565900444984436, 0.3872920572757721, -0.37385323643684387, -0.4163888990879059, -0.15082089602947235, -0.45559826493263245, 0.03324709087610245, 0.5475345849990845, -0.4463895857334137, -0.1025114431977272, -0.2837657630443573], [-0.08264638483524323, 0.09552749991416931, 0.22865617275238037, -0.5520578622817993, 0.2882206439971924, -0.5990133881568909, 0.06507951021194458, -0.056718651205301285, -0.3260851800441742, -0.07484695315361023, -0.4742446541786194, 0.35163283348083496, 0.011205938644707203, -0.7000775337219238, 0.13989324867725372, 0.06922353804111481], [-0.25866973400115967, -0.33942368626594543, 0.0842650756239891, 0.056760746985673904, 0.06415411829948425, -0.06339140981435776, -0.45185714960098267, -0.044591523706912994, -0.0006728405132889748, -0.0512038916349411, 0.14857366681098938, 0.11190363764762878, 0.09278160333633423, 0.3560120761394501, -0.3952684998512268, 0.3564991056919098], [0.11594421416521072, -0.009132151491940022, -0.17335522174835205, -0.03813031688332558, -0.1547255665063858, 0.19280049204826355, 0.08928942680358887, 0.11864502727985382, -0.10638688504695892, 0.150717630982399, -0.31444287300109863, -0.13524016737937927, 0.05471912398934364, 0.1504385769367218, -0.1366361528635025, -0.12841717898845673], [0.2503150999546051, 0.4280930757522583, 0.44532713294029236, 0.03651227056980133, -0.017973950132727623, -0.41850540041923523, -0.17845672369003296, -0.12015804648399353, -0.22878792881965637, 0.3363647162914276, -0.09850357472896576, -0.12014520168304443, 0.1812489926815033, 0.2059587985277176, -0.26562029123306274, -0.21087567508220673], [0.05043598636984825, -0.4666194021701813, -0.538260281085968, -0.18958130478858948, 0.09196996688842773, 0.5382912158966064, 0.4259868264198303, 0.03361066058278084, 0.3362891972064972, -0.23042254149913788, 0.07331877201795578, -0.06405261158943176, -0.0707797035574913, 0.05383414030075073, 0.14938250184059143, 0.11174499988555908], [0.47006499767303467, 0.22829470038414001, 0.3321264982223511, -0.2047063708305359, 0.44694989919662476, -0.42477503418922424, -0.01747267320752144, 0.048013512045145035, 0.15701934695243835, -0.049877919256687164, -0.061003923416137695, -0.510770857334137, 0.0002871827164199203, -0.5101480484008789, 0.577134370803833, -0.6003544926643372], [0.09850244224071503, 0.12867788970470428, -0.3208118677139282, -0.08921287208795547, 0.26103562116622925, -0.1290413737297058, 0.29781562089920044, -0.03190143033862114, -0.04095633700489998, 0.005022096913307905, 0.04808606579899788, -0.09339749068021774, 0.0211944580078125, -0.1798509806394577, -0.1900096833705902, -0.046900250017642975], [-0.10520287603139877, -0.058753225952386856, -0.07281967997550964, -0.09492085129022598, -0.0009371928754262626, 0.20157663524150848, 0.32027482986450195, 0.05956855043768883, 0.10017327219247818, -0.1299465298652649, 0.23165148496627808, -0.2537616491317749, -0.1290949434041977, 0.11948435753583908, 0.056805483996868134, 0.3668115735054016], [-0.14980578422546387, -0.19427315890789032, -0.25818613171577454, -0.33735308051109314, 0.004586022812873125, 0.21896134316921234, 0.12257035076618195, 0.06361211091279984, 0.08308999985456467, -0.19976791739463806, -0.08793515712022781, 0.14347553253173828, -0.0495138093829155, -0.19186505675315857, 0.1540166586637497, 0.07853201776742935], [0.1110476404428482, -0.3910771310329437, -0.24472041428089142, -0.699314534664154, 0.224720299243927, 0.15357762575149536, 0.41918593645095825, 0.016876358538866043, 0.6455968618392944, 0.06721922010183334, 0.24941065907478333, -0.5107215642929077, 0.09685660898685455, 0.014931729063391685, 0.07777416706085205, -0.006440292112529278], [0.34604644775390625, 0.026000402867794037, 0.006978292483836412, -0.228174090385437, -0.03159241005778313, -0.15049442648887634, 0.12441744655370712, -0.07921978831291199, 0.20297640562057495, 0.1757039874792099, -2.7990990929538384e-05, -0.24944142997264862, 0.18817535042762756, 0.07435428351163864, -0.24417249858379364, 0.0007315570837818086], [-0.30741363763809204, -0.21986065804958344, 0.04331570863723755, 0.043880581855773926, -0.1648726761341095, 0.16155889630317688, -0.2051413655281067, 0.01815011538565159, 0.13674789667129517, -0.08159171044826508, 0.14024245738983154, 0.062196627259254456, -0.030618928372859955, 0.2642628252506256, 0.28080055117607117, 0.18006910383701324], [-0.30827319622039795, -0.332028329372406, 0.35748326778411865, -0.16388998925685883, 0.4442317485809326, -0.2997298836708069, -0.45919910073280334, -0.156611829996109, -0.3826017379760742, -0.1598927527666092, 0.36289507150650024, 0.18441623449325562, 0.3003658354282379, 0.0059943352825939655, -0.12191363424062729, 0.21291309595108032], [-0.26061078906059265, -0.219522625207901, 0.38483726978302, -0.17809778451919556, 0.3413410782814026, 0.059087809175252914, -0.09752537310123444, -0.4690803587436676, 0.1398039609193802, 0.4875679910182953, -0.3665584623813629, -0.35127323865890503, 0.8850367069244385, 0.4966612756252289, -0.49394336342811584, 0.061912134289741516], [0.0425410270690918, -0.7609180212020874, 0.9204167127609253, 0.8183603286743164, -0.1482999324798584, 0.4376485049724579, -0.3909039795398712, 0.30903419852256775, 0.014889955520629883, 0.41922393441200256, -0.5414434671401978, 0.16578224301338196, 1.0182157754898071, 0.005504291970282793, -0.26636943221092224, -0.37091392278671265], [-1.472649335861206, 0.10149598121643066, 0.6751787662506104, 0.40369924902915955, -0.745193362236023, -0.39809873700141907, -2.353102207183838, 0.050398919731378555, -0.28095799684524536, 0.24606634676456451, -0.4246762692928314, 0.5610287189483643, -0.2717907726764679, 1.0052152872085571, -0.17003224790096283, 0.39171767234802246], [-0.531055748462677, 0.46726712584495544, 0.008283335715532303, 0.2961457371711731, 0.004643386695533991, 0.383263498544693, -0.244786337018013, 0.2506698668003082, -0.04055330529808998, 0.23670578002929688, 0.2283869832754135, -0.009113234467804432, -0.126801535487175, 0.5888078212738037, 0.7227156162261963, -0.7735247015953064], [-0.4581261873245239, -0.03985847160220146, 0.29601773619651794, 0.044723961502313614, 0.32728925347328186, -0.253962904214859, -0.5879082083702087, -0.5781897306442261, 0.16479963064193726, 0.1332702338695526, 0.3680717349052429, -0.0033887058962136507, 1.126505732536316, 0.1993517428636551, -0.20521223545074463, 0.1596432626247406], [-0.21312902867794037, 0.5743301510810852, -1.3103216886520386, 0.4203524887561798, 0.08981086313724518, 0.10636726021766663, 0.5995867848396301, -0.02634933963418007, 0.37317606806755066, -0.28747081756591797, 0.4625498652458191, -0.292353093624115, -0.4965730309486389, 0.11013565212488174, 0.15490207076072693, 0.1941320300102234], [2.393137216567993, -0.28979629278182983, -0.1277819275856018, -0.1665702909231186, 0.6193576455116272, 0.5916212201118469, 1.0993900299072266, -0.11573818325996399, 0.07707281410694122, -0.0301853958517313, -0.0724097490310669, -0.3704143762588501, 0.25647059082984924, -1.3886607885360718, 0.04046009108424187, -0.6305086612701416], [0.13252121210098267, 0.3952414393424988, 0.002024260815232992, 0.04312554746866226, -0.2174258530139923, -0.00822482816874981, 0.124805748462677, -0.07446210086345673, -0.08377567678689957, -0.15009988844394684, -0.04101509973406792, -0.039798714220523834, -0.15377993881702423, 0.15675029158592224, -0.053770072758197784, 0.08027875423431396], [0.4493885636329651, -0.5009689331054688, -1.028753399848938, -0.3467830717563629, -0.045588091015815735, 0.26370787620544434, 0.36998414993286133, -0.026268551126122475, 0.2901066541671753, -0.40902888774871826, 0.2730931043624878, -0.15250813961029053, -0.34630393981933594, -0.2049807608127594, -0.06351735442876816, 0.4361608922481537], [0.04121224954724312, -0.09315600246191025, 0.22556860744953156, 0.14145901799201965, 0.4356365203857422, 0.8380246758460999, -0.26937198638916016, -0.41777363419532776, 0.16564816236495972, -0.5050322413444519, -0.27328556776046753, -0.04286278411746025, 0.6390149593353271, 0.39496544003486633, 0.30951809883117676, -0.8520530462265015], [-0.5621059536933899, -0.5539100170135498, -0.022959429770708084, 0.25390830636024475, 0.087367944419384, -0.03501470014452934, -0.2922251522541046, 0.01898006536066532, 0.29668697714805603, -0.11045543104410172, 0.8336061835289001, -0.6801636815071106, 0.09869610518217087, 0.4659727215766907, -0.0780884250998497, 0.4958183169364929], [-0.08892182260751724, 0.23861420154571533, -0.05991826206445694, 0.14491988718509674, -0.3646080493927002, -0.4261995851993561, 0.15230628848075867, 0.08693720400333405, -0.496273398399353, -0.4393056333065033, -0.028079800307750702, 0.472606360912323, -0.7397659420967102, -0.23644942045211792, -0.1489597111940384, 0.006421381141990423], [-0.26910921931266785, 0.19658344984054565, -0.11780659854412079, -0.7681370973587036, 1.204254150390625, -0.31611958146095276, -0.41120922565460205, -0.29525336623191833, 0.05694520100951195, 0.03425079584121704, 0.3542814254760742, -0.6779507398605347, -0.051508717238903046, 0.5800732970237732, 0.11561417579650879, 0.02020673081278801], [0.3491268754005432, 0.8514871597290039, -0.6159037947654724, 0.2651227116584778, 0.41263535618782043, 0.16507259011268616, 0.43567749857902527, 0.4203418493270874, 0.37662598490715027, 0.48849138617515564, 0.0731402337551117, -0.24400441348552704, 0.29904553294181824, 0.07959757000207901, 0.17721500992774963, -0.7919480800628662], [-0.0107591412961483, 0.15632012486457825, -0.11182410269975662, -0.013159123249351978, -0.12003173679113388, 0.08805114030838013, 0.22594068944454193, 0.22554685175418854, 0.2255975604057312, -0.2723931670188904, -0.3784717619419098, 0.29543957114219666, -0.13364143669605255, -0.2527880072593689, 0.3948449492454529, 0.04403781145811081], [-0.16279414296150208, -0.15726129710674286, 0.17200066149234772, -0.12455276399850845, -0.8658125996589661, -0.12481711059808731, 0.37685427069664, 0.7091714143753052, -0.19292420148849487, -0.4517863690853119, 0.2935672998428345, -0.6702642440795898, -0.9531326293945312, 0.11960703879594803, -0.24810907244682312, 0.8464399576187134]], "rec.bias_ih_l0": [0.13516181707382202, 0.32540395855903625, 0.056353166699409485, 0.03705901280045509, -0.275745153427124, 0.31659287214279175, -0.08368650078773499, -0.0905638188123703, 0.4467591643333435, 0.29502949118614197, 0.1853945404291153, 0.2659105062484741, -0.40562692284584045, -0.3888642489910126, 0.12913887202739716, -0.2182215452194214, -0.18848916888237, 0.04739963635802269, -0.20758311450481415, 0.4539410471916199, 0.12840865552425385, -0.35194021463394165, -0.47105926275253296, 0.2763095796108246, 0.7927119135856628, -0.1921689361333847, 0.18934017419815063, 0.5638070106506348, 0.5433079600334167, -0.4227299094200134, 0.39006510376930237, 0.37241774797439575, -0.034612178802490234, -0.291434645652771, 0.5616330504417419, -0.2529880106449127, 0.004487109370529652, 0.20491093397140503, -0.29608121514320374, 0.07009021192789078, 0.01771298423409462, -0.1843271553516388, 0.11772164702415466, 0.009155387058854103, -0.27728697657585144, 0.03501372039318085, 0.244228795170784, 0.014428616501390934], "rec.bias_hh_l0": [0.019392656162381172, 0.3253876566886902, 0.04598123952746391, 0.0372345931828022, -0.2798116207122803, 0.3115980327129364, -0.06309513747692108, -0.09012775123119354, 0.4467126429080963, 0.29506152868270874, 0.1853996366262436, 0.2578670382499695, -0.4022457003593445, -0.3898158371448517, 0.12913823127746582, -0.2182183563709259, -0.18854622542858124, 0.04763325676321983, -0.19735857844352722, 0.44924217462539673, 0.1282995045185089, -0.35203832387924194, -0.4710331857204437, 0.2763061821460724, 0.7971508502960205, -0.1921689212322235, 0.1893407255411148, 0.5641741752624512, 0.5503936409950256, -0.4227304756641388, 0.39006510376930237, 0.3724724054336548, -1.0281158685684204, -0.3185819685459137, -0.38491886854171753, 0.019681662321090698, 0.19349405169487, 0.23716159164905548, -0.02286888286471367, 0.03371049091219902, -0.05850226432085037, -0.24923837184906006, 0.14653290808200836, 0.37837454676628113, 0.12243305891752243, 0.365805059671402, 0.29408779740333557, 0.04363240301609039], "lin.weight": [[-0.17058509588241577, 0.20922791957855225, -1.2406328916549683, -0.43286970257759094, -0.22743843495845795, -0.39945855736732483, -0.13594111800193787, -0.1656091958284378, -0.9354868531227112, 0.19377672672271729, 0.36840951442718506, -0.5466583371162415, -1.1476165056228638, 0.06105775013566017, -0.11743864417076111, 0.2959620952606201]], "lin.bias": [0.13399368524551392]}}