{"model_data": {"model": "SimpleRNN", "input_size": 1, "skip": "0", "output_size": 1, "unit_type": "GRU", "num_layers": 1, "hidden_size": 16, "bias_fl": true}, "state_dict": {"rec.weight_ih_l0": [[0.05888473242521286], [0.4639304578304291], [-0.15371699631214142], [-0.037519894540309906], [0.07674659788608551], [-0.09764169901609421], [-0.12333370000123978], [-0.6485995054244995], [0.9399848580360413], [-0.05195167288184166], [-1.8038333654403687], [0.9673292636871338], [-0.13432972133159637], [1.2754490375518799], [0.5062405467033386], [-0.6145727634429932], [-0.6054744720458984], [0.03531786426901817], [-0.30981841683387756], [0.3247798681259155], [0.15310275554656982], [-0.9875795841217041], [-0.039234478026628494], [-0.3251895606517792], [0.2242775410413742], [0.46990424394607544], [-0.1677735149860382], [0.2633485496044159], [-0.14274948835372925], [0.39097291231155396], [0.13031719624996185], [0.6694923043251038], [0.7404367923736572], [-0.29607173800468445], [1.0318948030471802], [1.238817811012268], [-0.1596834659576416], [1.2433737516403198], [-0.7060551047325134], [0.6266632080078125], [-0.08101721853017807], [-0.15471993386745453], [-1.9556665420532227], [0.8030167818069458], [-0.7525607943534851], [0.053786855190992355], [1.6322439908981323], [-1.4799015522003174]], "rec.weight_hh_l0": [[-0.08754134923219681, 0.22236645221710205, -1.0564831495285034, 0.018600618466734886, 0.5336962342262268, 0.2454562932252884, -0.04253329709172249, 0.07573641091585159, -0.3953951299190521, -0.01483722124248743, -0.9710782170295715, -0.24900266528129578, -0.5723711252212524, -1.059809684753418, -0.34658023715019226, -0.08725890517234802], [0.21812811493873596, 0.1744704246520996, 0.6484267115592957, 0.3264555037021637, 0.06427530199289322, 0.0795283317565918, 0.06256864964962006, -0.08987963944673538, -0.15139538049697876, -0.4424512982368469, -0.26383474469184875, -0.12172766029834747, -0.5441576242446899, -0.521183967590332, 0.7572118043899536, -0.16791248321533203], [0.676719605922699, -0.17928536236286163, -0.8810450434684753, 0.8349289298057556, -0.648838222026825, -0.1542060375213623, 0.49528008699417114, 0.20424823462963104, 0.02803952805697918, -0.6174191832542419, 0.34946155548095703, -0.4428655803203583, -0.6725859045982361, 0.20765265822410583, 0.07502112537622452, 0.73957759141922], [0.6395856142044067, 0.8738595247268677, 1.2553898096084595, -1.64500892162323, -0.28154268860816956, 0.6641431450843811, -0.7183772325515747, -0.7660434246063232, 0.45805537700653076, -0.09642505645751953, 0.9050348401069641, 0.5964822173118591, -1.202471375465393, 0.8610258102416992, 0.8407939076423645, -0.2587437927722931], [0.01408669538795948, 0.16944697499275208, 0.3469366729259491, 0.5332905650138855, -0.49640196561813354, 0.03414582088589668, 0.028107671067118645, 0.047116026282310486, -0.45182937383651733, -0.47202181816101074, -0.062093839049339294, -0.07563246041536331, -0.882328450679779, -0.788560688495636, 0.20489798486232758, -0.13819628953933716], [1.3049992322921753, 0.6214748620986938, -1.8987730741500854, 0.18041016161441803, 0.027799515053629875, -0.1506202071905136, 0.19703993201255798, 0.21578486263751984, -0.15703150629997253, -0.4570657014846802, 0.2879359722137451, -0.4285088777542114, 0.5972415804862976, -0.48862311244010925, -0.8120080232620239, 0.18183283507823944], [-0.22560961544513702, 0.06736992299556732, -0.23711328208446503, 0.12434883415699005, 0.19449710845947266, 0.29394015669822693, 0.12551797926425934, 0.47724923491477966, -0.19734802842140198, -0.06875770539045334, 0.010791813023388386, 0.21827031672000885, -0.034474246203899384, -0.17400546371936798, -0.035495515912771225, 0.08820055425167084], [-0.24597422778606415, 0.10666175931692123, -0.7767329812049866, -1.1468851566314697, 0.3860897123813629, -0.06202535703778267, -0.19462381303310394, 0.0319654643535614, -0.19971820712089539, -0.4282967746257782, 0.15794260799884796, 0.24805377423763275, 0.5359113812446594, -0.15118031203746796, 0.12776131927967072, 0.8114855289459229], [0.003141281194984913, 0.3754515051841736, -0.09806079417467117, -0.2053101509809494, -0.34631386399269104, 0.10501407831907272, -0.45671507716178894, 0.22852961719036102, 0.17916348576545715, 0.10735338926315308, 0.2161359339952469, -0.07254816591739655, -0.4151415228843689, -0.21582083404064178, -0.16121579706668854, 0.39846715331077576], [-0.23034244775772095, 0.30315208435058594, 0.6537756323814392, 0.16973817348480225, -0.42211246490478516, -0.2068706750869751, 0.2663157880306244, -0.13053731620311737, 0.38540711998939514, 0.0670568123459816, 0.22773654758930206, -0.4858386218547821, -0.11248937994241714, -0.06272880733013153, -0.38165488839149475, 0.26697367429733276], [2.060356378555298, 0.22093318402767181, -0.039190053939819336, -0.6426883935928345, -0.40578317642211914, -1.3433138132095337, -0.9572994709014893, -0.42398712038993835, 1.2489885091781616, 1.569909930229187, 1.4364556074142456, 0.6532981991767883, -0.09427431225776672, 1.2066322565078735, 0.503804087638855, 0.9050918817520142], [-0.47520527243614197, -0.2701979875564575, 0.15154039859771729, 0.4731156527996063, 0.1163254976272583, -0.021494939923286438, 0.46370893716812134, 0.5178921818733215, -0.5416668057441711, -1.0073022842407227, -0.06568443030118942, 0.7326525449752808, 0.1038677766919136, 0.5727946758270264, -0.39313772320747375, 0.7661045789718628], [0.8643172383308411, 0.032435983419418335, -1.2364283800125122, 0.6672089099884033, -0.5136709809303284, 1.3387620449066162, -0.12814262509346008, 0.769666314125061, 0.4485585689544678, -0.9087633490562439, -0.9472406506538391, -0.5895864963531494, 0.3861801326274872, -1.2832759618759155, -0.13582965731620789, -0.028252311050891876], [-0.44228261709213257, -0.1069582998752594, 0.3051096796989441, -0.14425478875637054, 0.32288143038749695, -0.18068020045757294, -0.3587835729122162, 0.9917307496070862, -0.527556300163269, -1.1085920333862305, -0.3872191905975342, 0.7114275693893433, 0.01203059684485197, 0.4916650950908661, 1.4615174531936646, 0.6048810482025146], [0.010357004590332508, -0.18602198362350464, -0.7398427128791809, 0.09293633699417114, 0.9150542616844177, -0.09039651602506638, 0.09586033225059509, -0.12046578526496887, -0.10663007199764252, -0.019573016092181206, -0.13666552305221558, 0.4112519323825836, 0.5267423987388611, -0.2803436517715454, -1.6229302883148193, -0.25595706701278687], [1.6490278244018555, 0.14285172522068024, -0.9353963732719421, 0.013582327403128147, 0.43780019879341125, -0.6394705772399902, -0.02857081964612007, -0.05260172486305237, 0.13461992144584656, 0.20246145129203796, -0.40235522389411926, 0.22547315061092377, 0.2767784297466278, -0.872136116027832, -0.14005039632320404, 0.9093647003173828], [-2.6611926555633545, 0.543066143989563, -0.25835686922073364, -1.54860258102417, -0.0766180157661438, -1.4394656419754028, 0.43336236476898193, -0.21550129354000092, 0.5146159529685974, -0.8652175068855286, 1.8738754987716675, -0.39201781153678894, 0.6431198716163635, -0.07225889712572098, -1.2739167213439941, 2.2655673027038574], [-0.32014867663383484, -0.1607712358236313, 0.05141009762883186, -0.04096589609980583, 0.10767555981874466, -0.13004250824451447, 0.030495088547468185, 0.09923195093870163, -0.18688735365867615, -0.17493011057376862, -0.24031352996826172, 0.1638559252023697, 0.2428707480430603, -0.11516299098730087, -0.1591278612613678, 0.18773871660232544], [-1.6390715837478638, -0.059070996940135956, 0.14435893297195435, -0.5004478096961975, 0.5068747401237488, -0.6109309792518616, -0.055141840130090714, 0.4731237292289734, -0.0026062061078846455, 0.3358141779899597, -0.002702671568840742, 0.05655577778816223, 0.26954516768455505, -0.15310756862163544, -1.0479902029037476, 0.0084042614325881], [0.19230510294437408, -0.13816344738006592, 0.19173671305179596, -0.20926016569137573, -0.010294176638126373, -0.20056088268756866, -0.08739666640758514, -0.758375883102417, -0.38208088278770447, -0.020169569179415703, -0.1827603578567505, -0.1832720935344696, 0.09992212057113647, 0.36913809180259705, 0.7900291085243225, 0.055712174624204636], [0.32009783387184143, -0.26899632811546326, 0.05704990774393082, 0.2947036027908325, 0.23310847580432892, 0.3519284129142761, -0.04861064255237579, -0.21214871108531952, 0.19697332382202148, -0.03333151340484619, -0.3083075284957886, -0.4602661430835724, -0.048100922256708145, -0.27638036012649536, 0.45837289094924927, -0.11405367404222488], [0.2726892828941345, 0.09327913820743561, -0.09856212139129639, 0.27516505122184753, -0.1598385125398636, 0.047972388565540314, 0.18293949961662292, 0.593736469745636, -0.24059516191482544, -0.4203828275203705, -0.3104226887226105, 0.5695897936820984, 0.2498137354850769, -0.04945143684744835, -0.07417251169681549, 0.055392924696207047], [0.46161162853240967, -0.1334628313779831, 0.32616642117500305, 0.06963606923818588, -0.14995421469211578, -0.24145282804965973, -0.025833655148744583, -0.1056644394993782, -0.03659869357943535, -0.3782288730144501, -0.46789005398750305, -0.12243057042360306, -0.26652953028678894, 0.2735835611820221, 0.5172884464263916, 0.10540109127759933], [0.6536150574684143, -0.15668310225009918, 0.236154243350029, 0.38244006037712097, -0.2978513538837433, -0.16252471506595612, 0.021727830171585083, -0.03642037510871887, 0.21256490051746368, -0.1715889722108841, -0.32077285647392273, -0.003558988915756345, -0.18469473719596863, 0.1319267898797989, 0.5888043642044067, -0.049337491393089294], [0.5702431201934814, -0.08505140990018845, 0.3014865219593048, -0.010025935247540474, 0.113613061606884, -0.24734464287757874, 0.21068863570690155, -0.12234649062156677, -0.03212495148181915, -0.27040618658065796, -0.14813940227031708, -0.14988330006599426, -0.10240446776151657, 0.16325199604034424, 0.5911740660667419, 0.018166104331612587], [-1.8608429431915283, -0.13068392872810364, 0.0526229627430439, -0.009310477413237095, 0.31908121705055237, -0.357829213142395, -0.10253060609102249, 0.11982981860637665, -0.20339207351207733, 0.17070458829402924, -0.2436961829662323, 0.044856514781713486, -0.23105204105377197, -0.12261106818914413, -0.7137265801429749, 0.09688356518745422], [-1.3374031782150269, -0.06690239906311035, -0.6484702825546265, -1.0277576446533203, 0.144539937376976, -0.11384070664644241, -0.4093313217163086, 0.8556486368179321, -0.014939682558178902, -0.08607646077871323, -0.09306269139051437, -0.29423752427101135, 0.7411092519760132, -0.14926427602767944, -0.7655925154685974, 0.9681078195571899], [1.06364905834198, -0.023039791733026505, -0.3090057075023651, 0.3867211937904358, -0.1935020387172699, 0.5127984285354614, -0.0422515906393528, -0.4030286371707916, -0.1321229487657547, 0.1446804255247116, 0.3391030728816986, -0.06989115476608276, -0.5069418549537659, -0.5598593950271606, 0.36487242579460144, -0.4832274615764618], [0.22532722353935242, 0.135938823223114, 0.16582156717777252, -0.29330047965049744, 0.17966192960739136, -0.4498390257358551, 0.5974382758140564, 0.23001912236213684, -0.02373182401061058, -0.2309560328722, -0.0550544373691082, -0.15074463188648224, 0.11093153804540634, 0.11828542500734329, 0.049016304314136505, 0.21774977445602417], [-1.5869245529174805, -0.638508141040802, 0.04642629250884056, -0.47030961513519287, 0.3926084339618683, 0.45379170775413513, -0.43856382369995117, 0.685736894607544, -0.6215307116508484, 0.31016650795936584, -0.2149622142314911, 0.15475155413150787, 0.05700986087322235, 0.6251869797706604, -0.9791806936264038, 0.49868154525756836], [-2.924445390701294, -0.3149372637271881, -0.4864973723888397, -1.5227259397506714, 0.2933785319328308, -0.6892301440238953, -0.4114798903465271, 0.24074441194534302, 0.4100627303123474, -0.9073746800422668, 0.35910123586654663, -0.2954774498939514, 0.6659150719642639, 0.026799052953720093, -0.5896339416503906, 0.4536546766757965], [-0.05818205326795578, 0.07481309026479721, -0.009228028357028961, 0.5488471984863281, 0.3511337637901306, 0.5658257007598877, 0.140372633934021, 1.0870836973190308, 0.33378949761390686, 0.21697494387626648, -0.44708549976348877, 0.33232858777046204, -0.26199769973754883, -0.6305945515632629, 0.9001650810241699, -0.005516577512025833], [1.9532302618026733, -0.3065766990184784, 0.48809128999710083, 1.1449639797210693, -0.18881745636463165, 0.8889827728271484, 0.15691028535366058, 0.19349059462547302, -0.5484645962715149, -0.21561986207962036, -1.5164717435836792, 0.3564973771572113, -0.19695280492305756, 0.4801528751850128, 0.4477456510066986, -1.7474020719528198], [0.2718560993671417, -0.1879231333732605, 0.012068281881511211, -0.8117906451225281, -0.20974771678447723, 0.7658124566078186, -0.34110912680625916, -0.19536705315113068, -0.055274154990911484, 0.28406161069869995, -0.11840039491653442, -0.1386609822511673, -0.43517619371414185, 0.035906340926885605, 0.8624813556671143, 0.2823984920978546], [-0.15006189048290253, 0.6409727334976196, -0.0657367929816246, -0.3810509443283081, -0.26656773686408997, -0.5077957510948181, 0.3542271852493286, 0.05297832190990448, 0.004325650166720152, 0.5573700666427612, 0.6798787713050842, -1.38077712059021, -0.39012596011161804, 0.40623486042022705, 0.46063652634620667, 0.8647103309631348], [1.3373684883117676, 0.5737739205360413, -0.6162663698196411, 0.12034337967634201, -0.265969842672348, 0.38864609599113464, 0.038841888308525085, 0.23584367334842682, 1.1867070198059082, 0.6482185125350952, -0.5626611709594727, -1.0148301124572754, 0.6215844750404358, -0.3251560926437378, -1.1719059944152832, -1.165435552597046], [-0.8092684745788574, -0.47898805141448975, -0.6588598489761353, 0.22210174798965454, -0.38623738288879395, 0.43251797556877136, 0.39952582120895386, -0.20209267735481262, -0.7790100574493408, -0.37409117817878723, -0.28394615650177, 0.5731696486473083, -0.07552698999643326, -0.4063405990600586, -0.44092604517936707, -0.392193466424942], [0.3188145160675049, 0.4669620394706726, -1.2289081811904907, 0.09946440905332565, 0.1445346623659134, -0.6091210842132568, 0.18611331284046173, 0.46630680561065674, -0.22029659152030945, 0.6446800231933594, 0.17564213275909424, -0.7109741568565369, 0.12922735512256622, -0.40360963344573975, -1.1178780794143677, -0.43310800194740295], [0.16201983392238617, -0.23884259164333344, 0.06134575977921486, 0.48150670528411865, -0.6675518155097961, 0.4797959625720978, -1.574550986289978, 0.27712592482566833, -0.15626326203346252, -0.7514649629592896, 0.05477664992213249, 0.03352494537830353, -0.16514450311660767, -0.05041508376598358, -0.28662899136543274, -0.2848341763019562], [-0.8132376074790955, 0.1767149418592453, -0.9009405374526978, 0.3236847221851349, -0.3391529619693756, -0.5459024310112, -0.2862702012062073, -0.7182300686836243, -0.7291437387466431, -0.5550978779792786, -0.7275872826576233, 0.3780819773674011, 0.7310077548027039, -0.11030909419059753, -0.7227264642715454, 0.7487726211547852], [0.06151049584150314, 0.5139522552490234, -0.11874451488256454, -0.7649524807929993, -0.848533570766449, -1.0886077880859375, 0.02401694655418396, -0.5207682251930237, -1.134859561920166, 0.15820081532001495, 0.5346590876579285, -0.606156051158905, -0.14982080459594727, -0.20619024336338043, 0.11424239724874496, -0.21330653131008148], [-0.18498778343200684, 0.09084352105855942, 1.2072659730911255, 0.06251493841409683, -0.19420680403709412, -0.3367248773574829, -0.009760708548128605, 0.01603306084871292, 0.405078649520874, 0.48570695519447327, 0.7023159265518188, -0.42810261249542236, -0.3907930254936218, 0.18622368574142456, -0.5262089967727661, -0.06886037439107895], [0.2091967761516571, 0.09431767463684082, 1.4937611818313599, -0.6256851553916931, -0.24130919575691223, 0.05531363561749458, -0.8827412724494934, -0.11379677802324295, 0.7570804953575134, 0.23470507562160492, 0.6104507446289062, 0.6274351477622986, -1.470613956451416, 1.2684892416000366, 1.6340523958206177, 0.04866621643304825], [0.3195553123950958, -0.21295054256916046, 0.33776748180389404, 0.06006975099444389, 0.020055295899510384, -1.7132872343063354, 0.41872289776802063, 0.40473508834838867, 0.053440239280462265, 0.40519294142723083, 0.4654088020324707, 0.19668075442314148, 0.7503013014793396, 0.002914812881499529, -0.6740282773971558, 1.240828037261963], [-0.6471746563911438, -0.364419162273407, -0.37596046924591064, -0.30768659710884094, 0.026198357343673706, -0.24294413626194, -0.005324291996657848, 0.430905818939209, -0.21960948407649994, -0.15970464050769806, 0.6888992190361023, 1.1410901546478271, -0.7444035410881042, 0.7826820015907288, -0.7406631708145142, 0.26149532198905945], [0.6422987580299377, 0.33481621742248535, 0.5127393007278442, -0.4407840371131897, 0.21932189166545868, 0.06290882080793381, -0.2767641544342041, 0.21049091219902039, 0.2461031973361969, 0.38473817706108093, 1.32700514793396, 0.4569128453731537, -0.017690954729914665, 1.3460516929626465, 1.3399168252944946, 0.24928203225135803], [1.46365225315094, 0.49151742458343506, 0.03645743057131767, 0.1123804897069931, 0.3825114965438843, 0.9344871044158936, -0.14884673058986664, 0.2059575319290161, 0.22467339038848877, 0.016880622133612633, -1.0648784637451172, 0.04529077187180519, 0.5239838361740112, -0.28541281819343567, 0.007176846265792847, -0.3990267813205719], [-0.6761392951011658, -0.2774842083454132, 0.37605294585227966, -0.36238858103752136, -0.2907993793487549, -0.08970160037279129, 0.5445677638053894, 0.27148330211639404, -0.5617611408233643, -1.440999984741211, -0.46076712012290955, 0.08328647166490555, 0.5260379910469055, 0.2812749743461609, 0.6039451956748962, -0.13500650227069855]], "rec.bias_ih_l0": [0.5426790714263916, -0.06369545310735703, -0.2809508740901947, 0.22634631395339966, -0.040651608258485794, -0.1644134223461151, 0.26885250210762024, 0.1536353975534439, 0.021725758910179138, 0.04043155908584595, 0.7119157910346985, -0.5695440769195557, 0.04256539046764374, 0.2854999005794525, -0.18512386083602905, 0.12275481224060059, 1.3438677787780762, -0.2154056876897812, 0.3691466152667999, -0.2730359137058258, -0.4118193984031677, -0.4019990563392639, -0.7710539102554321, -0.5388020277023315, -0.5932526588439941, 0.5336260199546814, -0.540023922920227, -0.13187605142593384, -0.342824250459671, 0.30207833647727966, 0.6595444679260254, 0.09730628877878189, -0.42920124530792236, 0.3115847110748291, -0.4033629298210144, -0.2952130436897278, -0.2552180290222168, -0.5807614326477051, -0.00903131254017353, -0.2597403824329376, 0.29201531410217285, 0.28506502509117126, 0.6498287916183472, -0.03209957852959633, -0.41460850834846497, -0.1659388542175293, -0.6214087009429932, 0.30775314569473267], "rec.bias_hh_l0": [0.400793194770813, -0.07177942991256714, -0.2796894311904907, 0.15546564757823944, -0.010898327454924583, -0.22373849153518677, 0.27282190322875977, 0.18505091965198517, -0.007094068452715874, 0.027508510276675224, 0.6647931933403015, -0.5738174319267273, -0.03253748640418053, 0.2785607874393463, -0.16938333213329315, 0.11479809880256653, 1.1585699319839478, -0.21540729701519012, 0.3616179823875427, -0.2643730342388153, -0.41177523136138916, -0.40120187401771545, -0.7706097364425659, -0.5398027300834656, -0.5949875712394714, 0.547521710395813, -0.407346248626709, -0.1317572146654129, -0.3431164622306824, 0.28190022706985474, 0.7422308921813965, 0.1019468680024147, -0.12667882442474365, 0.13566049933433533, -0.5286819338798523, -0.7279918193817139, 0.14376042783260345, 0.010711192153394222, -0.2992211580276489, -0.45637449622154236, 0.2648497223854065, 0.016728892922401428, 1.5493228435516357, 0.02927836962044239, 0.1017487496137619, 0.632300615310669, -0.044651731848716736, -0.10723622143268585], "lin.weight": [[-0.6619625687599182, -0.19483159482479095, -0.5667058825492859, 0.7075966596603394, 0.37155675888061523, -0.7504627704620361, 0.20694617927074432, -0.5578609704971313, -0.36201268434524536, -0.40266984701156616, 1.334215521812439, 0.6944611668586731, 0.022741878405213356, 0.7315770387649536, 0.4233122169971466, 0.5336759686470032]], "lin.bias": [-0.2220901995897293]}}