{
    "in_shape": [
        32,
        0,
        1
    ],
    "layers": [
        {
            "type": "gru",
            "activation": "tanh",
            "shape": [
                32,
                0,
                16
            ],
            "weights": [
                [
                    [
                        0.274969220161438,
                        0.207134410738945,
                        0.551993727684021,
                        -0.272676557302475,
                        1.0250511169433594,
                        0.061234645545482635,
                        0.10443580150604248,
                        -0.13676448166370392,
                        0.6838853359222412,
                        0.020156927406787872,
                        0.7073425650596619,
                        -0.13204433023929596,
                        0.3878037631511688,
                        -0.02895241603255272,
                        -0.3754750192165375,
                        0.06222584843635559,
                        -0.09254216402769089,
                        0.19070464372634888,
                        0.2268935889005661,
                        -0.0700950101017952,
                        0.06653520464897156,
                        -0.031120540574193,
                        -0.04152223467826843,
                        -0.18142099678516388,
                        -0.23214416205883026,
                        -1.1630399227142334,
                        0.2989213466644287,
                        -0.1955273300409317,
                        0.0971045196056366,
                        0.32712435722351074,
                        -0.2959405183792114,
                        -0.05929429456591606,
                        -0.46257081627845764,
                        0.9690380692481995,
                        0.8692998290061951,
                        3.1912121772766113,
                        0.932043194770813,
                        0.17839044332504272,
                        -0.07428382337093353,
                        0.5618270039558411,
                        -0.13860780000686646,
                        -2.205181837081909,
                        -1.5720819234848022,
                        0.17664232850074768,
                        -0.8379825949668884,
                        -0.02211138606071472,
                        -0.6520401239395142,
                        0.1647190898656845
                    ]
                ],
                [
                    [
                        -0.5790301561355591,
                        -0.20158571004867554,
                        0.31497254967689514,
                        0.4162142276763916,
                        -0.1521300971508026,
                        -0.07580525428056717,
                        -0.39333468675613403,
                        0.03244626522064209,
                        -0.3833256661891937,
                        0.41071754693984985,
                        0.41164857149124146,
                        0.03369097411632538,
                        -0.5335797667503357,
                        -0.14454293251037598,
                        0.3110102415084839,
                        -0.05730186030268669,
                        0.2799433767795563,
                        -0.07634597271680832,
                        -0.25271159410476685,
                        0.20179103314876556,
                        0.5066211223602295,
                        0.0005157425184734166,
                        0.0018452067160978913,
                        0.013602662831544876,
                        0.2973727583885193,
                        0.2979591488838196,
                        -0.5007815957069397,
                        0.08089696615934372,
                        0.028984764590859413,
                        -0.22514818608760834,
                        -0.3771933317184448,
                        -0.01598767563700676,
                        0.44121745228767395,
                        -0.19488973915576935,
                        -0.16543623805046082,
                        0.36268898844718933,
                        -0.13869380950927734,
                        -0.041810907423496246,
                        0.4772043526172638,
                        0.5061846971511841,
                        -0.35417529940605164,
                        -0.7446668744087219,
                        0.13721400499343872,
                        0.39566653966903687,
                        -0.10833019018173218,
                        -0.08847635239362717,
                        -0.1575162559747696,
                        0.31165826320648193
                    ],
                    [
                        0.0016254180809482932,
                        0.2890782058238983,
                        -0.03168699890375137,
                        -0.08395703136920929,
                        0.22003643214702606,
                        -0.01777392439544201,
                        0.35388490557670593,
                        0.020417921245098114,
                        0.014459636993706226,
                        -0.35402780771255493,
                        -0.7799768447875977,
                        0.21105235815048218,
                        0.21751989424228668,
                        -0.13122132420539856,
                        -0.7599056363105774,
                        -0.13117225468158722,
                        0.24057041108608246,
                        0.28746604919433594,
                        0.1880776584148407,
                        -0.2306189388036728,
                        0.17722614109516144,
                        0.20663078129291534,
                        0.20493286848068237,
                        -0.36433446407318115,
                        -1.0851709842681885,
                        -0.02961309626698494,
                        -0.23382103443145752,
                        -0.19463568925857544,
                        -0.08916997909545898,
                        0.09096858650445938,
                        -0.26196491718292236,
                        0.16160231828689575,
                        0.0814032331109047,
                        0.8306775689125061,
                        -0.03149309381842613,
                        0.07530175894498825,
                        -0.10152354836463928,
                        0.7325840592384338,
                        -0.05907564237713814,
                        -0.4342706501483917,
                        -0.034860752522945404,
                        1.0572876930236816,
                        -0.2714804410934448,
                        0.40805289149284363,
                        -0.08388680964708328,
                        -0.6404821872711182,
                        -0.09289179742336273,
                        0.4542795419692993
                    ],
                    [
                        0.43821635842323303,
                        0.12173574417829514,
                        0.538299024105072,
                        -0.21246393024921417,
                        0.7121790051460266,
                        0.4583872854709625,
                        0.3190089464187622,
                        -0.35410818457603455,
                        0.39596813917160034,
                        -0.15109777450561523,
                        0.22659386694431305,
                        -0.030961597338318825,
                        0.7039980888366699,
                        0.49178844690322876,
                        -0.15565380454063416,
                        0.09628422558307648,
                        0.431846559047699,
                        -0.0059251440688967705,
                        0.08353166282176971,
                        -0.4951156973838806,
                        -0.1549658328294754,
                        -0.21487288177013397,
                        -0.011997288092970848,
                        0.4742521047592163,
                        0.22956161201000214,
                        -0.8461862802505493,
                        0.957477867603302,
                        -0.018797626718878746,
                        -0.43362537026405334,
                        -0.5128561854362488,
                        -0.1177578940987587,
                        -0.12446033954620361,
                        0.13493093848228455,
                        0.05522695928812027,
                        0.40787145495414734,
                        -0.1670999675989151,
                        -0.28348013758659363,
                        0.48178035020828247,
                        -0.5419824123382568,
                        0.03830477595329285,
                        0.451806902885437,
                        0.5080873370170593,
                        -0.9784455299377441,
                        -0.10129905492067337,
                        0.19906456768512726,
                        -0.020094025880098343,
                        -0.21176567673683167,
                        0.01945332996547222
                    ],
                    [
                        -0.026180211454629898,
                        0.03213941678404808,
                        0.7603090405464172,
                        -0.19776462018489838,
                        0.22514881193637848,
                        -0.012637054547667503,
                        -0.06609446555376053,
                        -0.31085383892059326,
                        0.21803422272205353,
                        -0.04893006384372711,
                        0.44952836632728577,
                        0.002042009960860014,
                        0.2972187101840973,
                        0.23273120820522308,
                        -0.09692057967185974,
                        0.0732981413602829,
                        0.22248652577400208,
                        -0.03445997089147568,
                        0.053257524967193604,
                        -0.10714030265808105,
                        -0.09191077202558517,
                        0.06329908221960068,
                        -0.01963804103434086,
                        0.46108898520469666,
                        -0.09592539072036743,
                        -1.259035587310791,
                        -0.09490387886762619,
                        -0.004234862048178911,
                        -0.1627015322446823,
                        -0.43521198630332947,
                        -0.9322160482406616,
                        -0.1878618448972702,
                        0.186022087931633,
                        0.2306155115365982,
                        1.7170246839523315,
                        0.3322555422782898,
                        -0.885362446308136,
                        0.3386053144931793,
                        -0.37987783551216125,
                        0.07664088159799576,
                        0.15791359543800354,
                        -0.27665409445762634,
                        -0.813930869102478,
                        0.16382433474063873,
                        -0.03309839591383934,
                        -0.3461569547653198,
                        0.1081591323018074,
                        -0.13037285208702087
                    ],
                    [
                        -0.47758543491363525,
                        -0.0010921418434008956,
                        -0.24966010451316833,
                        -0.6668159365653992,
                        -0.1362343281507492,
                        -0.29029107093811035,
                        0.05452756956219673,
                        0.09264509379863739,
                        -0.12977060675621033,
                        -0.28147611021995544,
                        -0.8406049609184265,
                        0.06596212834119797,
                        -0.024455808103084564,
                        -0.20970973372459412,
                        -0.08487226068973541,
                        -0.04634936526417732,
                        0.09377524256706238,
                        0.10475059598684311,
                        -0.1581803411245346,
                        0.27499088644981384,
                        -0.08281490951776505,
                        0.2721306085586548,
                        -0.0682339295744896,
                        -0.025870615616440773,
                        -0.07154865562915802,
                        0.9282218217849731,
                        0.4157685339450836,
                        -0.31587064266204834,
                        0.07896547764539719,
                        0.3718489408493042,
                        0.4527699947357178,
                        0.018869390711188316,
                        -0.3626886308193207,
                        0.34809353947639465,
                        -0.04564216732978821,
                        -0.18375039100646973,
                        0.35099196434020996,
                        -0.13866108655929565,
                        -0.6632457971572876,
                        -0.5171592235565186,
                        0.13566604256629944,
                        1.1956908702850342,
                        0.06471363455057144,
                        0.11497732251882553,
                        -0.513664186000824,
                        -0.8826084733009338,
                        -0.6979675889015198,
                        -0.08390820026397705
                    ],
                    [
                        0.0062578232027590275,
                        0.4974122941493988,
                        -0.22501087188720703,
                        -0.35960862040519714,
                        0.47634047269821167,
                        -0.036896802484989166,
                        -0.37285545468330383,
                        -0.05274418741464615,
                        -0.1498643010854721,
                        -0.43521618843078613,
                        -0.48819905519485474,
                        0.21442477405071259,
                        0.3303947150707245,
                        0.12318197637796402,
                        -0.8928275108337402,
                        -0.14352433383464813,
                        0.5922176241874695,
                        -0.022717894986271858,
                        0.37962454557418823,
                        -0.3593601584434509,
                        -0.06694004684686661,
                        0.24521861970424652,
                        0.15206708014011383,
                        0.07497752457857132,
                        0.45483559370040894,
                        0.16389572620391846,
                        -0.8709364533424377,
                        -0.13144895434379578,
                        -0.15793542563915253,
                        -0.3867701292037964,
                        -0.283475399017334,
                        -0.013253439217805862,
                        0.3772640526294708,
                        0.1231265664100647,
                        0.18083126842975616,
                        0.10784715414047241,
                        -0.24794714152812958,
                        -0.38239049911499023,
                        -0.4202035367488861,
                        0.00496992701664567,
                        -0.2505461275577545,
                        0.663072407245636,
                        -0.5454210042953491,
                        0.14152251183986664,
                        0.1912539005279541,
                        -0.17515039443969727,
                        0.8194595575332642,
                        0.08694051206111908
                    ],
                    [
                        -0.43187224864959717,
                        0.2642536163330078,
                        0.2917761504650116,
                        0.16625462472438812,
                        -0.6875402927398682,
                        -0.10852349549531937,
                        -0.4907418489456177,
                        0.29423394799232483,
                        -0.17189447581768036,
                        0.20990808308124542,
                        0.9630885124206543,
                        0.31332090497016907,
                        -0.5158566236495972,
                        -0.291698694229126,
                        0.33410367369651794,
                        -0.16289998590946198,
                        -0.3156087398529053,
                        0.2914905846118927,
                        -0.4197007715702057,
                        0.8065683245658875,
                        0.36378997564315796,
                        0.33852675557136536,
                        0.1115613505244255,
                        -0.8676367402076721,
                        0.04465487599372864,
                        2.0948102474212646,
                        -0.6744711995124817,
                        -0.13384763896465302,
                        0.1942148506641388,
                        0.40491241216659546,
                        -0.4760269224643707,
                        0.12067095190286636,
                        1.300459384918213,
                        0.3815070390701294,
                        -0.9188045263290405,
                        0.030057314783334732,
                        0.2907038927078247,
                        0.530619740486145,
                        0.45204582810401917,
                        -0.3353126347064972,
                        0.09022698551416397,
                        0.4575193226337433,
                        0.11826634407043457,
                        -0.43084633350372314,
                        0.41411909461021423,
                        -0.26135507225990295,
                        -0.5886008739471436,
                        0.11902572959661484
                    ],
                    [
                        0.652992308139801,
                        -0.05545646324753761,
                        0.5326358675956726,
                        0.030509138479828835,
                        -0.07773107290267944,
                        -0.07185254245996475,
                        0.13449470698833466,
                        -0.21888500452041626,
                        0.3995234966278076,
                        0.13548675179481506,
                        0.3657016158103943,
                        -0.0980142205953598,
                        0.29975783824920654,
                        0.040482062846422195,
                        -0.24180704355239868,
                        0.057880982756614685,
                        -0.16882061958312988,
                        -0.004120412282645702,
                        -0.014453627169132233,
                        0.06719468533992767,
                        -0.12510919570922852,
                        -0.062301669269800186,
                        -0.07317676395177841,
                        0.80130535364151,
                        -0.29003530740737915,
                        0.03250817954540253,
                        -0.41522467136383057,
                        0.08310700207948685,
                        -0.12757930159568787,
                        0.21698208153247833,
                        -0.31401941180229187,
                        -0.12159644067287445,
                        -0.38053107261657715,
                        -0.4844600558280945,
                        0.06440986692905426,
                        -0.20159505307674408,
                        -0.43160465359687805,
                        0.32803040742874146,
                        -0.08106067031621933,
                        1.4005781412124634,
                        0.8906142115592957,
                        -0.13733619451522827,
                        -0.28455957770347595,
                        0.8736335635185242,
                        0.31614241003990173,
                        0.45516231656074524,
                        0.537005603313446,
                        -0.08547825366258621
                    ],
                    [
                        0.28945618867874146,
                        0.5218383073806763,
                        -0.009140160866081715,
                        0.1739434152841568,
                        0.3901725709438324,
                        0.03703373670578003,
                        0.1723242700099945,
                        0.09437935799360275,
                        0.15986944735050201,
                        -0.07528793066740036,
                        0.17969872057437897,
                        0.08775889128446579,
                        0.27917781472206116,
                        0.12477350980043411,
                        0.14806213974952698,
                        0.06762874871492386,
                        -0.09792422503232956,
                        0.289454847574234,
                        0.10298154503107071,
                        -0.13148929178714752,
                        -0.31717419624328613,
                        0.07185233384370804,
                        0.050686296075582504,
                        0.27512308955192566,
                        0.31900233030319214,
                        -0.5737545490264893,
                        -0.25541913509368896,
                        0.09856069087982178,
                        -0.09016511589288712,
                        -0.08821500092744827,
                        0.05622730776667595,
                        0.034049615263938904,
                        -0.18749915063381195,
                        0.08675491064786911,
                        -0.3884066641330719,
                        -0.2611117660999298,
                        -0.10492441058158875,
                        -0.4625849425792694,
                        0.2518955171108246,
                        0.8133389353752136,
                        0.030196117237210274,
                        -0.09452596306800842,
                        -0.4971085786819458,
                        -0.010265564545989037,
                        0.18628959357738495,
                        0.24899525940418243,
                        0.21740050613880157,
                        0.2611173689365387
                    ],
                    [
                        0.12569092214107513,
                        0.16873061656951904,
                        -1.5657539367675781,
                        -0.40819936990737915,
                        -0.3277672827243805,
                        -0.15179060399532318,
                        -0.3218168020248413,
                        0.0354822538793087,
                        -0.6483978629112244,
                        -0.3590177893638611,
                        -0.4563508927822113,
                        0.0024099794682115316,
                        -0.3080656826496124,
                        -0.38877740502357483,
                        -0.5213119983673096,
                        -0.13111741840839386,
                        0.07630541920661926,
                        -0.19261373579502106,
                        -0.00772265437990427,
                        -0.15202073752880096,
                        0.8375673294067383,
                        0.07743045687675476,
                        0.03363080695271492,
                        -0.1672551929950714,
                        -0.4052865207195282,
                        1.6360701322555542,
                        -1.2258281707763672,
                        0.04239119961857796,
                        0.16560831665992737,
                        0.14960390329360962,
                        0.2565236985683441,
                        0.14543339610099792,
                        0.07860729843378067,
                        0.4231829345226288,
                        -1.5705257654190063,
                        0.6142017841339111,
                        0.373068630695343,
                        -9.804633737076074e-05,
                        0.05804070457816124,
                        0.01215251162648201,
                        -0.2594781219959259,
                        -0.0243011973798275,
                        1.5911328792572021,
                        0.07881691306829453,
                        -0.3891400396823883,
                        0.438917875289917,
                        0.28062501549720764,
                        0.2711659073829651
                    ],
                    [
                        -0.24241110682487488,
                        -0.20341844856739044,
                        0.22667725384235382,
                        0.3289243280887604,
                        -0.9121561646461487,
                        -0.3722700774669647,
                        -0.4494450092315674,
                        0.3788766860961914,
                        -0.4650420844554901,
                        0.44198498129844666,
                        0.00293164886534214,
                        0.04243089631199837,
                        -0.8324828147888184,
                        -0.24470175802707672,
                        0.13079695403575897,
                        -0.15570493042469025,
                        -0.6890717148780823,
                        -0.03287705406546593,
                        -0.3848094940185547,
                        0.43540728092193604,
                        0.4177030622959137,
                        0.10121595859527588,
                        0.02805541828274727,
                        -0.10931068658828735,
                        0.32037052512168884,
                        0.0129542862996459,
                        -0.542735755443573,
                        0.20042391121387482,
                        0.5990945100784302,
                        0.3883022367954254,
                        0.09930572658777237,
                        0.13691259920597076,
                        -0.3529069721698761,
                        -0.5422298312187195,
                        0.1756344586610794,
                        0.2058446854352951,
                        -0.08739117532968521,
                        -0.9535796642303467,
                        1.0900194644927979,
                        0.09046132117509842,
                        -0.5554292798042297,
                        -0.7704988718032837,
                        1.2747926712036133,
                        0.38920891284942627,
                        -0.5125111937522888,
                        0.16512317955493927,
                        0.33861202001571655,
                        -0.08676116913557053
                    ],
                    [
                        0.18758425116539001,
                        0.001199874677695334,
                        0.22470830380916595,
                        -0.1665762960910797,
                        -0.0232543908059597,
                        -0.12533524632453918,
                        0.2237452268600464,
                        0.002492571249604225,
                        0.024741586297750473,
                        -0.07653678208589554,
                        -0.2576209604740143,
                        0.14956782758235931,
                        0.12621214985847473,
                        -0.10393665730953217,
                        -0.5449645519256592,
                        -0.0739431232213974,
                        -0.2073388546705246,
                        -0.2303926795721054,
                        0.15531714260578156,
                        -0.07138600945472717,
                        -0.1646701842546463,
                        0.1654214859008789,
                        0.048115577548742294,
                        0.12545445561408997,
                        -0.04280845820903778,
                        0.2782348394393921,
                        0.08734583854675293,
                        -0.04298514872789383,
                        0.00935099832713604,
                        0.253315269947052,
                        -0.22988377511501312,
                        0.021560287103056908,
                        -0.2239786833524704,
                        -0.31639957427978516,
                        0.5945295095443726,
                        -0.15615002810955048,
                        -0.427948921918869,
                        0.2881407141685486,
                        0.028337573632597923,
                        0.7666299939155579,
                        -0.30098986625671387,
                        0.4661790430545807,
                        0.08887557685375214,
                        0.21846845746040344,
                        0.2894600033760071,
                        1.3110719919204712,
                        0.7481706738471985,
                        -0.4954685866832733
                    ],
                    [
                        -0.23094157874584198,
                        0.013120220974087715,
                        -0.21695438027381897,
                        -0.07252342253923416,
                        0.07668175548315048,
                        0.22256465256214142,
                        -0.2369343340396881,
                        0.07925928384065628,
                        -0.11745748668909073,
                        -0.09526844322681427,
                        0.21576637029647827,
                        0.1347973644733429,
                        0.10289884358644485,
                        0.03779665753245354,
                        0.2463115155696869,
                        0.007803858257830143,
                        -0.03817770257592201,
                        0.024896379560232162,
                        0.07966689020395279,
                        -0.093318410217762,
                        0.10145817697048187,
                        0.0442311055958271,
                        0.07943258434534073,
                        0.4927799105644226,
                        0.6621249318122864,
                        -0.1220112144947052,
                        -0.33065348863601685,
                        0.45066267251968384,
                        -0.013224253430962563,
                        -0.3066198229789734,
                        0.03393561393022537,
                        -0.025539426133036613,
                        0.21873892843723297,
                        -0.0534023642539978,
                        0.04915996268391609,
                        0.09439852833747864,
                        -0.31946027278900146,
                        -0.6732731461524963,
                        0.49990206956863403,
                        0.18189787864685059,
                        -0.15621304512023926,
                        -0.5881035923957825,
                        -0.43110010027885437,
                        -0.005487332120537758,
                        -0.9068626165390015,
                        0.7052074074745178,
                        0.6496922969818115,
                        0.2543867826461792
                    ],
                    [
                        0.45798805356025696,
                        -0.14805464446544647,
                        0.2750174105167389,
                        0.5784230828285217,
                        -0.15766200423240662,
                        -0.1834343522787094,
                        0.27876824140548706,
                        -0.19457583129405975,
                        0.1931159347295761,
                        0.47001758217811584,
                        0.38807082176208496,
                        0.01850995235145092,
                        -0.045983947813510895,
                        -0.1627277284860611,
                        0.5725677609443665,
                        0.050482675433158875,
                        -0.6414457559585571,
                        -0.40136954188346863,
                        -0.09150943160057068,
                        -0.008145390078425407,
                        -0.06662367284297943,
                        0.05773584544658661,
                        0.051404763013124466,
                        0.20036718249320984,
                        0.23793728649616241,
                        -0.1807948797941208,
                        0.5202124118804932,
                        0.14115341007709503,
                        0.13865698873996735,
                        0.1694420874118805,
                        0.2334163933992386,
                        -0.06511887162923813,
                        -0.3272353410720825,
                        -0.5465661883354187,
                        0.15644623339176178,
                        -0.39571788907051086,
                        -0.2108953446149826,
                        -0.4217846393585205,
                        0.371696799993515,
                        0.04543125629425049,
                        -0.415030837059021,
                        -0.3527449369430542,
                        0.2172180563211441,
                        0.39580222964286804,
                        0.34927186369895935,
                        0.3330274820327759,
                        -0.27392324805259705,
                        -0.2835288941860199
                    ],
                    [
                        -0.29033204913139343,
                        -0.7908061146736145,
                        -0.23083281517028809,
                        0.23616869747638702,
                        -0.3211176097393036,
                        -0.08368594199419022,
                        -0.48549938201904297,
                        -0.3486253023147583,
                        -0.49504372477531433,
                        0.38117343187332153,
                        -0.5545696020126343,
                        -0.32081446051597595,
                        -0.4619031548500061,
                        -0.08169131726026535,
                        -0.3967437446117401,
                        0.041411712765693665,
                        0.16547757387161255,
                        -0.43413862586021423,
                        0.07248719781637192,
                        -0.35987088084220886,
                        0.18868529796600342,
                        -0.23317550122737885,
                        -0.21119293570518494,
                        0.025902044028043747,
                        -0.05211804807186127,
                        -0.44132450222969055,
                        0.13526181876659393,
                        0.10681671649217606,
                        0.06995144486427307,
                        -0.36558082699775696,
                        0.15406711399555206,
                        -0.12121790647506714,
                        0.31924352049827576,
                        -0.055509552359580994,
                        -0.2512933909893036,
                        0.14889299869537354,
                        0.3843187689781189,
                        0.3372533619403839,
                        -0.19929653406143188,
                        -0.18639066815376282,
                        -1.1913741827011108,
                        0.4111107289791107,
                        0.6609994769096375,
                        -0.18897873163223267,
                        -0.20468451082706451,
                        -0.04092583432793617,
                        0.2671944499015808,
                        0.008277867920696735
                    ],
                    [
                        -0.0476539321243763,
                        -0.10886618494987488,
                        -0.024656619876623154,
                        0.2162238508462906,
                        -0.15969011187553406,
                        -0.07957854866981506,
                        0.1225278228521347,
                        -0.1296110898256302,
                        -0.07377791404724121,
                        0.3497416079044342,
                        -0.4495236873626709,
                        -0.15562616288661957,
                        -0.07850570231676102,
                        -0.06301414966583252,
                        0.05875642970204353,
                        0.03359876200556755,
                        0.11906850337982178,
                        -0.02311713993549347,
                        0.14435918629169464,
                        -0.0971805602312088,
                        0.02882283180952072,
                        -0.04588222876191139,
                        -0.053827378898859024,
                        0.06257365643978119,
                        -0.5004811882972717,
                        0.09028205275535583,
                        0.018674233928322792,
                        -0.016115818172693253,
                        -0.01856016367673874,
                        -0.07344236969947815,
                        -0.11525437235832214,
                        0.015718813985586166,
                        0.0416884608566761,
                        0.02348405495285988,
                        -0.09160970896482468,
                        0.4044605493545532,
                        -0.1052340641617775,
                        -0.015836354345083237,
                        0.1024208664894104,
                        0.07143548876047134,
                        0.20807678997516632,
                        0.02516043372452259,
                        -0.1930524855852127,
                        -0.03499554097652435,
                        -0.03402714803814888,
                        -0.6260225772857666,
                        -0.26159727573394775,
                        -0.013595410622656345
                    ]
                ],
                [
                    [
                        0.22091469168663025,
                        0.8272936940193176,
                        0.2571203410625458,
                        -0.3332034945487976,
                        0.4458707869052887,
                        -0.34432604908943176,
                        1.359531283378601,
                        0.4411524534225464,
                        0.0395943708717823,
                        -0.5223841667175293,
                        0.22061151266098022,
                        0.6600844264030457,
                        -0.157520592212677,
                        -0.3156205713748932,
                        0.0530080683529377,
                        -0.2173975110054016,
                        -0.06352664530277252,
                        0.06885555386543274,
                        0.43467605113983154,
                        -0.40430861711502075,
                        -0.16752825677394867,
                        0.4216046929359436,
                        0.5149162411689758,
                        -0.5122909545898438,
                        -0.1720959097146988,
                        0.42699310183525085,
                        0.19161783158779144,
                        0.039918024092912674,
                        0.15010443329811096,
                        -0.094667948782444,
                        -0.011838394217193127,
                        0.012518195435404778,
                        -0.23538526892662048,
                        0.12590409815311432,
                        -0.23522166907787323,
                        -0.08781296014785767,
                        0.0327288955450058,
                        0.2791185975074768,
                        0.10915262997150421,
                        -0.18481707572937012,
                        0.06767517328262329,
                        -0.42593470215797424,
                        0.9740510582923889,
                        0.26425209641456604,
                        0.02485050819814205,
                        0.026154514402151108,
                        -0.33671844005584717,
                        -0.07328984141349792
                    ],
                    [
                        0.22073569893836975,
                        0.8272935748100281,
                        0.24576908349990845,
                        -0.3332081735134125,
                        0.4458703100681305,
                        -0.34432804584503174,
                        1.3756961822509766,
                        0.44115257263183594,
                        0.03964642435312271,
                        -0.5223878026008606,
                        0.22592034935951233,
                        0.6600845456123352,
                        -0.1575206071138382,
                        -0.31562045216560364,
                        0.05319518968462944,
                        -0.21739748120307922,
                        -0.06320242583751678,
                        0.06883006542921066,
                        0.43542128801345825,
                        -0.4043837785720825,
                        -0.1675274670124054,
                        0.41902878880500793,
                        0.5149109363555908,
                        -0.5122879147529602,
                        -0.17395520210266113,
                        0.26603376865386963,
                        0.1622513234615326,
                        0.039935071021318436,
                        0.14995306730270386,
                        -0.09525154531002045,
                        -0.012062564492225647,
                        0.012518234550952911,
                        0.17181633412837982,
                        0.16926980018615723,
                        -0.09341494739055634,
                        0.136525496840477,
                        -0.20190301537513733,
                        0.4100779891014099,
                        0.028730615973472595,
                        -0.26024889945983887,
                        0.00314317992888391,
                        1.1356959342956543,
                        -0.4738539457321167,
                        -0.05370793864130974,
                        0.2901272773742676,
                        -0.04106735810637474,
                        -0.11259050667285919,
                        -0.12425611913204193
                    ]
                ]
            ]
        },
        {
            "type": "dense",
            "activation": "",
            "shape": [
                32,
                0,
                1
            ],
            "weights": [
                [
                    [
                        -0.5762812495231628
                    ],
                    [
                        0.3085789680480957
                    ],
                    [
                        0.32720667123794556
                    ],
                    [
                        0.05920149385929108
                    ],
                    [
                        -0.12792392075061798
                    ],
                    [
                        -0.17608873546123505
                    ],
                    [
                        1.0350337028503418
                    ],
                    [
                        -0.28059419989585876
                    ],
                    [
                        -0.7516825199127197
                    ],
                    [
                        0.1082335114479065
                    ],
                    [
                        -1.1683732271194458
                    ],
                    [
                        -0.589665949344635
                    ],
                    [
                        -0.31337353587150574
                    ],
                    [
                        -0.3182823359966278
                    ],
                    [
                        0.46993133425712585
                    ],
                    [
                        -0.11707743257284164
                    ]
                ],
                [
                    0.22122903168201447
                ]
            ]
        }
    ]
}