{
    "in_shape": [
        32,
        0,
        1
    ],
    "layers": [
        {
            "type": "gru",
            "activation": "tanh",
            "shape": [
                32,
                0,
                8
            ],
            "weights": [
                [
                    [
                        0.5268086791038513,
                        -0.1545913815498352,
                        -0.9124305844306946,
                        1.1438382863998413,
                        -0.059211891144514084,
                        -0.12800954282283783,
                        1.589114785194397,
                        0.33216020464897156,
                        -0.3870101273059845,
                        -0.3596566319465637,
                        1.327067255973816,
                        -0.17520150542259216,
                        -0.5677000284194946,
                        0.9182785153388977,
                        2.776029109954834,
                        -0.28923988342285156,
                        -1.0882418155670166,
                        -0.7926236987113953,
                        1.3838845491409302,
                        0.9765057563781738,
                        -2.4585766792297363,
                        0.7676291465759277,
                        -1.4383339881896973,
                        -0.6821849346160889
                    ]
                ],
                [
                    [
                        -0.4176388382911682,
                        0.6646469831466675,
                        -0.13565105199813843,
                        0.675224244594574,
                        -0.6495425701141357,
                        -0.4204353392124176,
                        -1.2117764949798584,
                        0.013959833420813084,
                        0.549980640411377,
                        -0.041497573256492615,
                        0.06347216665744781,
                        0.1867605596780777,
                        -0.09665247797966003,
                        1.4844075441360474,
                        -0.11845070123672485,
                        0.960533618927002,
                        0.7513255476951599,
                        -0.10837171226739883,
                        -0.3135945498943329,
                        -0.5252922773361206,
                        -0.09933177381753922,
                        0.1760512739419937,
                        -1.43954598903656,
                        -0.4146386682987213
                    ],
                    [
                        -1.0436737537384033,
                        -0.2840348184108734,
                        0.23944129049777985,
                        0.3359353840351105,
                        0.3676069676876068,
                        -0.2845483124256134,
                        -0.14277994632720947,
                        0.8469025492668152,
                        -0.4491957426071167,
                        0.09437096863985062,
                        0.039749860763549805,
                        -0.6062490940093994,
                        -0.64207524061203,
                        0.3780277669429779,
                        1.2087666988372803,
                        -0.18536211550235748,
                        -0.08300386369228363,
                        0.7573769688606262,
                        -0.3059435486793518,
                        -0.17973794043064117,
                        -0.7657785415649414,
                        -1.2443691492080688,
                        0.837483286857605,
                        0.26923614740371704
                    ],
                    [
                        -0.7280310988426208,
                        0.026401231065392494,
                        -0.0004548758442979306,
                        0.7252070903778076,
                        0.28073373436927795,
                        1.0164836645126343,
                        0.28989431262016296,
                        -0.5951617360115051,
                        -0.41716453433036804,
                        -0.4611251652240753,
                        -0.04685258865356445,
                        0.13734476268291473,
                        -0.4337281584739685,
                        0.20278415083885193,
                        0.5717160701751709,
                        -0.025920255109667778,
                        0.7183115482330322,
                        -0.14064939320087433,
                        1.062319040298462,
                        -1.143052339553833,
                        1.120572805404663,
                        0.15958045423030853,
                        -0.6266337037086487,
                        -0.32137301564216614
                    ],
                    [
                        1.043509602546692,
                        -0.9524511098861694,
                        0.30131542682647705,
                        -0.24577085673809052,
                        0.7082573771476746,
                        -0.07291360944509506,
                        0.6202797889709473,
                        -0.30432751774787903,
                        -0.15452486276626587,
                        0.3163129687309265,
                        -0.08041676133871078,
                        0.0759759321808815,
                        1.0811957120895386,
                        -0.6835904121398926,
                        -1.1445049047470093,
                        -0.9464130997657776,
                        -1.1805341243743896,
                        -0.09649967402219772,
                        -0.12394405901432037,
                        0.36353933811187744,
                        0.9650117754936218,
                        -0.6490723490715027,
                        0.9695438742637634,
                        -0.11032402515411377
                    ],
                    [
                        -0.07228768616914749,
                        0.26630714535713196,
                        -0.3372746407985687,
                        -0.5976740121841431,
                        0.45722097158432007,
                        0.22892150282859802,
                        -0.4182160794734955,
                        -0.26224279403686523,
                        0.5773335695266724,
                        0.4821564257144928,
                        -1.1236549615859985,
                        -0.0011549051851034164,
                        1.863325834274292,
                        1.0305112600326538,
                        -2.4664485454559326,
                        0.1439625471830368,
                        0.17056600749492645,
                        -0.5911961793899536,
                        -0.1863415390253067,
                        0.0738888755440712,
                        1.0883218050003052,
                        0.6707402467727661,
                        0.7707123160362244,
                        -0.8094856142997742
                    ],
                    [
                        0.43821415305137634,
                        -0.3807965815067291,
                        1.048211693763733,
                        0.1446477472782135,
                        -0.9889041781425476,
                        -0.5117682814598083,
                        -0.32235297560691833,
                        -0.11277114599943161,
                        -0.02775500901043415,
                        -0.4541833996772766,
                        0.3983202576637268,
                        0.19579976797103882,
                        0.425815224647522,
                        1.4184329509735107,
                        0.0116961058229208,
                        -0.5144379734992981,
                        0.33499786257743835,
                        -0.41838571429252625,
                        0.7098975777626038,
                        0.6763100028038025,
                        0.30287784337997437,
                        -0.9793568253517151,
                        -0.9350190758705139,
                        -0.36804455518722534
                    ],
                    [
                        -0.08166320621967316,
                        -0.9010801315307617,
                        0.15111985802650452,
                        -1.3509676456451416,
                        0.9267362952232361,
                        -0.7909375429153442,
                        0.3767493963241577,
                        0.35485294461250305,
                        0.08253927528858185,
                        0.20993489027023315,
                        -0.39221811294555664,
                        0.1490628868341446,
                        0.6907183527946472,
                        0.4584464132785797,
                        -1.241361141204834,
                        -0.7194598317146301,
                        -0.017223432660102844,
                        0.4911605715751648,
                        -0.8162617683410645,
                        1.848210334777832,
                        -1.3921301364898682,
                        0.7334021329879761,
                        1.3050223588943481,
                        0.648114800453186
                    ],
                    [
                        0.6757763028144836,
                        -0.3804886043071747,
                        0.4770180881023407,
                        -0.24649152159690857,
                        0.30369487404823303,
                        -0.48541656136512756,
                        0.225625142455101,
                        -1.0083699226379395,
                        0.12282287329435349,
                        0.5055781006813049,
                        0.06514601409435272,
                        -0.24475781619548798,
                        0.4914401173591614,
                        -2.0734920501708984,
                        0.43647387623786926,
                        -0.4748680591583252,
                        0.1798720359802246,
                        -1.0683015584945679,
                        -0.14978858828544617,
                        -0.28579118847846985,
                        0.33310914039611816,
                        0.8487804532051086,
                        0.7538977861404419,
                        0.9110727310180664
                    ]
                ],
                [
                    [
                        0.4437168836593628,
                        0.48842766880989075,
                        -0.6872788071632385,
                        -0.13770322501659393,
                        -0.19606702029705048,
                        -0.24812857806682587,
                        -0.35313165187835693,
                        0.2304772287607193,
                        0.2946777641773224,
                        -0.1275717318058014,
                        -0.1894267052412033,
                        0.6930387020111084,
                        0.21055616438388824,
                        0.2069459706544876,
                        -0.5405398607254028,
                        0.22491440176963806,
                        0.42922598123550415,
                        -0.35562488436698914,
                        0.033641450107097626,
                        0.014222907833755016,
                        0.03319895267486572,
                        -0.49790361523628235,
                        1.7092527151107788,
                        0.5256039500236511
                    ],
                    [
                        0.44477882981300354,
                        0.48792529106140137,
                        -0.6872428059577942,
                        -0.0739961564540863,
                        -0.19853250682353973,
                        -0.24812498688697815,
                        -0.38112956285476685,
                        0.2305023968219757,
                        0.2968716621398926,
                        -0.12762027978897095,
                        -0.32946160435676575,
                        0.6919403076171875,
                        0.08961941301822662,
                        0.18580308556556702,
                        -0.4901392161846161,
                        0.22589509189128876,
                        0.1659131944179535,
                        0.05380723625421524,
                        0.23580603301525116,
                        -0.11119663715362549,
                        0.24865888059139252,
                        0.6340651512145996,
                        -1.2115365266799927,
                        -0.7699072957038879
                    ]
                ]
            ]
        },
        {
            "type": "dense",
            "activation": "",
            "shape": [
                32,
                0,
                1
            ],
            "weights": [
                [
                    [
                        0.2988472878932953
                    ],
                    [
                        0.3236681818962097
                    ],
                    [
                        0.37602636218070984
                    ],
                    [
                        0.3741550147533417
                    ],
                    [
                        0.16642867028713226
                    ],
                    [
                        0.4413074254989624
                    ],
                    [
                        -1.0159220695495605
                    ],
                    [
                        0.4817897081375122
                    ]
                ],
                [
                    0.18111485242843628
                ]
            ]
        }
    ]
}