{"model_data": {"model": "SimpleRNN", "input_size": 1, "skip": "0", "output_size": 1, "unit_type": "GRU", "num_layers": 1, "hidden_size": 16, "bias_fl": true}, "state_dict": {"rec.weight_ih_l0": [[-1.2213459014892578], [-0.6445150971412659], [0.3136458098888397], [0.31408926844596863], [-0.8424240946769714], [1.3141539096832275], [-0.15219208598136902], [-0.18916837871074677], [-0.08249173313379288], [-0.6488425731658936], [0.22037024796009064], [0.2871291935443878], [-0.3860483169555664], [0.07602575421333313], [-0.24186037480831146], [0.390383780002594], [-1.3550258874893188], [-0.3188793659210205], [0.5283816456794739], [-0.0767984390258789], [0.35453614592552185], [-0.023977357894182205], [0.2035607099533081], [0.24804864823818207], [-0.8494542241096497], [-0.0358767956495285], [0.9414017796516418], [-0.10712926834821701], [-1.0788589715957642], [-0.007926682941615582], [-0.008402695879340172], [-0.43831008672714233], [1.6184109449386597], [-1.1281845569610596], [-0.1431267112493515], [-0.3148425817489624], [0.7225359678268433], [0.5247359871864319], [-0.06652785837650299], [0.043796949088573456], [1.4872283935546875], [-0.9636513590812683], [-1.0766412019729614], [-0.5546213388442993], [0.9099756479263306], [-0.3800235986709595], [-1.0102951526641846], [-1.1106146574020386]], "rec.weight_hh_l0": [[-2.1870789527893066, 0.6083069443702698, -1.3102470636367798, -0.3628946840763092, 0.10199656337499619, -0.38082069158554077, 0.3003899157047272, 1.2748985290527344, 0.8535493612289429, 0.6370565295219421, -0.05463150143623352, -0.4210483431816101, -0.9217846989631653, -0.1177174523472786, 0.20996810495853424, 0.023952536284923553], [-0.4589552581310272, 0.7624475359916687, -0.29483938217163086, -0.005107294302433729, -0.6019179821014404, -0.15531617403030396, 0.340200811624527, 0.20415718853473663, -0.657368540763855, 0.37484100461006165, 0.7603639364242554, 0.4004817605018616, -0.5661120414733887, 0.5408234596252441, 0.11514203250408173, 0.4428270757198334], [-0.4376586377620697, 0.15209348499774933, -0.014859387651085854, -0.16228532791137695, -0.08873454481363297, -0.47458672523498535, -0.029744671657681465, 0.14566850662231445, -0.04969687759876251, -0.22088542580604553, 0.24630552530288696, -0.05883672833442688, 0.10986243933439255, -0.09460492432117462, 0.5509805679321289, -0.16698281466960907], [-0.615886926651001, -0.3241959512233734, -0.18592846393585205, 0.17113879323005676, 0.2807900011539459, -0.32153117656707764, -0.29021748900413513, 0.19897951185703278, 0.322159081697464, -0.1896609365940094, 0.17842936515808105, 0.08556882292032242, 0.2247292548418045, -0.39500290155410767, -0.10950776934623718, -0.5704128742218018], [-1.1627023220062256, -0.05952708423137665, -1.2519960403442383, -0.1619461625814438, -1.8894731998443604, 1.3349790573120117, -0.5837607979774475, 0.9387837052345276, 0.31169432401657104, 1.0829473733901978, 1.4638912677764893, -2.0592200756073, -1.073966383934021, -0.1891603022813797, -0.8945039510726929, 0.22935327887535095], [-0.4858575761318207, 0.09909264743328094, 0.645561695098877, 0.5240244269371033, 0.6441860198974609, -0.5317926406860352, 0.3816952109336853, 0.38323625922203064, 0.9813607335090637, -1.1798430681228638, -0.815463125705719, -0.07697856426239014, 0.3520563840866089, 0.6847753524780273, 0.9809704422950745, -0.5724327564239502], [-0.1436537802219391, 0.31419217586517334, -0.014654234051704407, 0.1001068651676178, -0.0744214653968811, -0.5208320021629333, -0.007638630922883749, -0.17699621617794037, -0.30175891518592834, -0.15930692851543427, 0.34402546286582947, 0.004133676644414663, -0.15214641392230988, 0.09327821433544159, 0.10576701164245605, 0.026977859437465668], [-0.497048020362854, -0.030597254633903503, -0.6517637968063354, 0.10072100162506104, -0.43985292315483093, 0.5177469253540039, -0.26336103677749634, 0.21703490614891052, -0.05138693377375603, -0.446440190076828, -0.1976642906665802, 0.5055683255195618, -0.1556587666273117, -0.022871125489473343, 0.1985912322998047, 0.04826018959283829], [-0.029043279588222504, -0.22792324423789978, 0.32129740715026855, -0.007283821702003479, -0.03871132805943489, 0.011083841323852539, -0.12811902165412903, 0.2374538779258728, 0.09041223675012589, 0.16431546211242676, 0.037174470722675323, -0.5604357123374939, 0.15796621143817902, -0.48210209608078003, -0.4906735420227051, -1.2473862171173096], [-1.0706449747085571, 0.6955323219299316, 1.2410838603973389, 1.0405782461166382, -1.0067344903945923, 0.41019341349601746, 0.051970575004816055, -0.5958789587020874, -1.4896111488342285, -0.30712834000587463, -1.030945897102356, 0.09404860436916351, 0.32950499653816223, 0.8071847558021545, -1.4609558582305908, -0.8502764701843262], [-0.38629084825515747, 0.9475799202919006, -1.6316649913787842, -0.9986938834190369, -0.16967810690402985, 0.9378727674484253, 0.010752025060355663, -0.027455059811472893, -0.2575860321521759, 0.755122184753418, 0.8250429630279541, 0.18250508606433868, -0.6620464324951172, -0.3366568684577942, -1.5469334125518799, -0.3813312351703644], [-0.14588887989521027, -0.09658615291118622, 0.24327071011066437, 0.004917294252663851, 0.38199540972709656, -0.19798381626605988, 0.22069038450717926, 0.0017369573470205069, 0.4411010444164276, -0.1172386184334755, -0.36806580424308777, -0.3646546006202698, 0.3903513550758362, 0.19167262315750122, 0.1656554639339447, 0.14875942468643188], [0.08631061017513275, 0.3282315731048584, -0.12724843621253967, 0.057196587324142456, 0.15351621806621552, -0.5605005025863647, 0.2876174747943878, 0.22842778265476227, -0.381493479013443, 0.07739602774381638, 0.42199262976646423, -0.21143320202827454, 0.2769257426261902, 0.25652390718460083, 0.455904096364975, 0.26553934812545776], [0.13421988487243652, 0.028738556429743767, 0.17793217301368713, 0.07469018548727036, -0.11643504351377487, 0.13833504915237427, 0.05956127122044563, -0.045225054025650024, 0.07192426174879074, 0.02485705353319645, -0.24036477506160736, -0.05615554749965668, 0.24292652308940887, 0.16137829422950745, 0.15505804121494293, 0.08148957043886185], [0.08826932311058044, -0.21178191900253296, 0.38659608364105225, 0.10872557014226913, -0.037256963551044464, -0.15958832204341888, -0.23464107513427734, -0.34383729100227356, -0.5487179756164551, 0.23570500314235687, -0.6235445737838745, 0.13140591979026794, 0.1957361102104187, -0.01606137491762638, 0.7153119444847107, 0.06676096469163895], [0.3537794351577759, -0.19619804620742798, 0.01628485694527626, 0.052293844521045685, 0.09382624179124832, 0.03489144146442413, -0.07197223603725433, -0.2959517240524292, -0.005786367226392031, 0.22979910671710968, -0.49497678875923157, 0.039619047194719315, 0.11282968521118164, 0.1470782607793808, 0.13000603020191193, 0.4812730550765991], [-0.9884240627288818, -0.03442243114113808, -0.34049853682518005, -0.011838133446872234, 0.2592136263847351, 1.5238245725631714, -0.6621781587600708, -0.4230020344257355, -0.37251725792884827, -0.4120222330093384, -1.0292893648147583, 0.5832990407943726, -0.20189031958580017, 0.1255030632019043, 0.23993787169456482, 0.2337130457162857], [-0.2211592197418213, 0.017852794378995895, -0.07434594631195068, -0.04498039931058884, 0.00020708609372377396, -0.021388446912169456, -0.0007271822541952133, 0.145842507481575, 0.0020860107615590096, 0.005700026638805866, 0.19126121699810028, 0.054176364094018936, -0.014791981317102909, -0.08189757168292999, 0.06256835907697678, -0.16316229104995728], [0.10525835305452347, 0.18455307185649872, 0.09843240678310394, -0.06297553330659866, -0.11310578882694244, -0.1088869571685791, 0.6194853782653809, -0.5465837121009827, 0.06432691216468811, 0.10217541456222534, 0.04609910771250725, -0.3990109860897064, 0.4574958086013794, 0.36538857221603394, 0.28647544980049133, 0.5909346342086792], [0.6418198943138123, 0.6472617387771606, -0.45965173840522766, 0.04522436857223511, 0.027585841715335846, -0.10228448361158371, 0.5274396538734436, -0.15497040748596191, -0.253460556268692, 0.48177626729011536, 0.16262298822402954, -0.1533331573009491, -1.021187424659729, 0.257748544216156, 0.7702726125717163, 0.39751914143562317], [-0.26145341992378235, 0.21797385811805725, -0.22933106124401093, -0.03401761129498482, -0.10581199079751968, -0.0656059980392456, 0.4334956705570221, -0.8026730418205261, -0.47824615240097046, -0.002041969448328018, 1.084476351737976, 0.2370963990688324, 0.10830946266651154, 0.040202170610427856, 0.9682841897010803, -0.08459998667240143], [-1.961397409439087, 0.09684563428163528, 0.23082493245601654, 0.21325254440307617, 0.1411212682723999, -1.1161375045776367, -0.28700074553489685, -0.1848977953195572, -0.06754875183105469, -0.40991848707199097, 0.09689577668905258, 0.3311568796634674, -0.937532901763916, -0.17908211052417755, -0.14645183086395264, -0.018356425687670708], [0.3561117947101593, 0.3334033489227295, 0.2754046618938446, 0.026047460734844208, -0.06953435391187668, -0.05888903886079788, 0.13258863985538483, -0.3644876182079315, -0.07495487481355667, -0.10239819437265396, -0.22665895521640778, -0.022682135924696922, 0.04788531735539436, 0.13133828341960907, 0.053137313574552536, 0.6729106307029724], [-0.02776026353240013, 0.6150866746902466, 0.31310147047042847, 0.053590163588523865, -0.45055046677589417, -0.2960120439529419, 0.26582786440849304, -0.01974252052605152, -0.005530486814677715, -0.06260102987289429, 0.011077234521508217, -0.6463279724121094, -0.1466396600008011, 0.5232620239257812, 0.4745485186576843, 0.33158689737319946], [-0.23113752901554108, 0.2760885953903198, -0.3148779571056366, 0.16337059438228607, -0.09590085595846176, -0.03083767741918564, 0.7475599050521851, -0.21369241178035736, -0.08908683806657791, -0.04316439852118492, 0.8820306658744812, 0.34904712438583374, 0.9272956848144531, 0.6123278141021729, 0.9159940481185913, 0.38241681456565857], [0.0021031955257058144, -0.1876903623342514, 0.25548797845840454, -0.12452143430709839, 0.08355006575584412, 0.02985459566116333, -0.013473916798830032, 0.3589510917663574, 0.39919552206993103, -1.1999441385269165, -0.17490540444850922, -0.06914165616035461, -0.2551569938659668, -0.06449653953313828, -0.14520876109600067, -0.04550033062696457], [0.06020493805408478, 0.11927774548530579, -0.29676029086112976, -0.05729008838534355, -0.0720822885632515, -0.16023823618888855, 0.2734558582305908, -0.08086235076189041, -0.11087522655725479, -0.6738600730895996, 0.09801746904850006, 0.4207213222980499, 0.8886392116546631, 0.13262219727039337, 0.38937750458717346, 0.12961968779563904], [-0.06569933146238327, 1.1115385293960571, 0.05733600631356239, 0.1355137676000595, -0.031075628474354744, -0.6228604316711426, 0.3105809986591339, -0.5839489698410034, -0.4135453402996063, -0.009817967191338539, -0.5081281065940857, 0.4364985227584839, -0.1250825971364975, 0.6230379939079285, 1.6394270658493042, 0.7488114237785339], [0.31260260939598083, 0.3780059516429901, 0.4612930417060852, 0.1648252010345459, -0.5381951928138733, 1.1855944395065308, 0.6674201488494873, -0.17028452455997467, -0.025735927745699883, 0.5295069217681885, 0.7481182217597961, -0.40240395069122314, 0.13479198515415192, 0.5093759894371033, 0.49237245321273804, 0.37344151735305786], [-0.07499860972166061, 0.32053208351135254, -0.06023244932293892, -0.048830073326826096, -0.08945439010858536, -0.15847323834896088, 0.5489789247512817, -0.007095943670719862, -0.06426224112510681, 0.1454657018184662, 0.2913457751274109, -0.17033733427524567, 0.02192961983382702, 0.2838694453239441, 0.502905011177063, 0.3601401150226593], [0.17064885795116425, 1.398164987564087, 0.09052617847919464, -0.02485283836722374, -0.4489196240901947, -0.3215409517288208, 0.15169215202331543, -0.03239013999700546, -0.9216848611831665, 0.18874973058700562, 1.0370961427688599, 0.3257047235965729, -0.5881341099739075, 0.2675473392009735, 0.673250675201416, 0.45933273434638977], [-0.35625702142715454, 0.5701336860656738, -0.07347307354211807, 0.028332754969596863, -0.26473137736320496, -0.14545951783657074, -0.1403706967830658, 0.00776777183637023, -0.565310001373291, -0.43695005774497986, 0.8758478760719299, 0.2653036415576935, -0.41504591703414917, -0.30219563841819763, -0.17701683938503265, -0.14679749310016632], [1.8886964321136475, -0.2690742611885071, 0.48922261595726013, -0.4273165464401245, 0.05149788409471512, 0.3749941289424896, -0.341103732585907, 0.20945701003074646, -0.8117589354515076, 0.8542428016662598, 0.20962569117546082, 0.7441695928573608, -0.053504347801208496, -0.11972633749246597, -0.5801102519035339, -0.6428776383399963], [-0.33286333084106445, 0.3547171354293823, 0.04307514429092407, -0.061341412365436554, -0.48925238847732544, -0.24042221903800964, 0.5666377544403076, -0.4082883596420288, -0.8109236359596252, 0.8212100863456726, 0.6519411206245422, -0.07206618785858154, 0.027956873178482056, 0.14736346900463104, 0.6396254301071167, 0.5207352042198181], [0.7902485728263855, -0.3504403829574585, 0.5260279774665833, 0.10576879978179932, 0.3482021391391754, 0.3898589015007019, -0.09010309725999832, -0.6787764430046082, 0.06771644949913025, 0.101584292948246, -0.3873419761657715, -0.7246512174606323, 0.6224877238273621, -0.08219244331121445, -0.26011618971824646, 0.08530273288488388], [0.07718352228403091, -0.03125515580177307, 0.009603281505405903, -0.27644452452659607, -0.377010315656662, 0.5729226469993591, -0.1441258043050766, 0.4103306233882904, -0.2912716567516327, 0.24767807126045227, -0.10103283822536469, -0.31145331263542175, 0.2835536301136017, 0.041629817336797714, -0.0694088563323021, 0.33004453778266907], [-0.6329896450042725, -0.08568321168422699, -0.6682085394859314, 0.31698545813560486, 0.41374972462654114, -0.5462612509727478, -0.756798505783081, 0.47418537735939026, -0.6974087953567505, 0.015402491204440594, 0.22744420170783997, 1.2245392799377441, 0.2098957747220993, -0.27848827838897705, -0.11975257843732834, -0.12620247900485992], [1.5506558418273926, 0.6010408997535706, -0.19912192225456238, -1.068416953086853, -1.4095183610916138, -0.7544072270393372, -0.35625159740448, 0.8526708483695984, 0.20548824965953827, -0.5885487794876099, 0.2516723573207855, 0.8566513061523438, 1.6794860363006592, 0.3392675817012787, -1.3536291122436523, -0.4850548505783081], [-0.11534761637449265, 0.029107024893164635, 0.25810670852661133, -0.13969029486179352, 0.05836391821503639, 0.260989248752594, 0.5891544222831726, 0.3199639618396759, 0.404369056224823, 0.35479238629341125, 0.46942025423049927, -0.5043037533760071, 0.1972384750843048, 0.1489265412092209, 0.4417206645011902, 0.7085045576095581], [-0.3846956193447113, -0.12980647385120392, 0.146495521068573, 0.056352321058511734, 0.6671518683433533, 0.016169076785445213, -0.14975741505622864, 0.542215883731842, 1.0158603191375732, 0.4086854159832001, -0.3530133366584778, -0.758547306060791, 0.07505600899457932, -0.0028929361142218113, -0.5143191814422607, -0.011526021175086498], [-0.3484496474266052, 0.09911501407623291, -0.4296301603317261, -0.013040553778409958, 0.1098436489701271, 0.06192819029092789, 0.011754592880606651, 0.18235807120800018, 0.2542601525783539, -0.3933601975440979, -0.1634180098772049, 0.1919727772474289, -0.2065676897764206, 0.4084203541278839, 0.5057881474494934, 0.600307822227478], [0.833807110786438, -0.8707776665687561, 0.3088013231754303, -0.26740649342536926, 0.31973934173583984, 0.049587223678827286, 0.1717173010110855, -0.024707168340682983, 1.1925603151321411, -1.4111177921295166, -0.3369697332382202, -0.3344563841819763, -0.06499028205871582, -0.4608696699142456, -0.08672896027565002, -0.4459351599216461], [-0.09431775659322739, -0.16159310936927795, -0.05210752412676811, -0.8055368661880493, -0.29792967438697815, 0.37386900186538696, 0.46296426653862, -0.12099231034517288, -0.18519091606140137, 0.7926248908042908, 1.3493632078170776, -2.0547876358032227, -0.8914191126823425, -0.7992298603057861, -0.07638849318027496, -0.24462465941905975], [0.030933158472180367, -0.11313313990831375, -0.3598603308200836, -0.01484646275639534, -0.3383486270904541, 0.25927796959877014, -0.19791284203529358, 0.40061724185943604, -0.3086554706096649, 0.16976001858711243, 0.36472445726394653, 0.3031311631202698, -0.2484828531742096, -0.1985621154308319, -0.1355019360780716, -0.48876845836639404], [-0.07656113803386688, 0.17271247506141663, 0.8026136159896851, 0.1239689514040947, 0.518086850643158, -1.5770677328109741, 0.3780263662338257, -0.2214394509792328, 0.34551388025283813, -0.44746169447898865, -0.033305615186691284, 0.6147187352180481, 0.8714765310287476, -0.1095067635178566, 0.003306305268779397, -0.34539341926574707], [0.06266386806964874, 0.2765887975692749, 0.26541945338249207, 0.052668631076812744, -0.14122797548770905, 0.17491193115711212, 0.26987147331237793, 0.14471445977687836, -0.13334912061691284, 0.20394942164421082, -0.09840402007102966, 0.0412566252052784, 0.30094966292381287, 0.29505905508995056, 0.2942178249359131, 0.6159017086029053], [-0.6398168206214905, 0.6466675996780396, 0.3447752892971039, 0.3554806709289551, -0.4660196304321289, -0.37605372071266174, 0.3660842478275299, 0.10586428642272949, -1.4041091203689575, 0.8353566527366638, 0.15955810248851776, 0.13485661149024963, -0.2820484936237335, 0.21458306908607483, 1.2634013891220093, 0.7535450458526611], [-0.5282481908798218, 0.7453929781913757, 0.447965532541275, 0.12556321918964386, -0.17993976175785065, -0.5642691850662231, 0.35026848316192627, -0.013829139061272144, -0.5610769987106323, 0.5676031112670898, 0.6360609531402588, 0.8844026327133179, -0.3181394636631012, 0.23798735439777374, 1.6443361043930054, 1.384069561958313]], "rec.bias_ih_l0": [-0.16370467841625214, 0.26194334030151367, -0.04271363466978073, -0.3739725649356842, -0.03173631429672241, -0.2019101083278656, 0.17144908010959625, 0.003379587084054947, -0.40560466051101685, -0.04600013047456741, 0.3303977847099304, -0.12444783002138138, 0.07459404319524765, 0.0964994803071022, 0.39171868562698364, 0.48395809531211853, 0.30264440178871155, -0.3068391680717468, 0.5263627767562866, 0.3055667281150818, 0.32620489597320557, 0.06765701621770859, 0.5709851980209351, 0.46160492300987244, -0.029405411332845688, -0.5535227060317993, -0.15507040917873383, 0.2527901828289032, 0.2015313357114792, 0.307735800743103, 0.5434914827346802, -0.24688799679279327, 0.602833092212677, 0.5627936720848083, 0.36553147435188293, 0.4525686204433441, -0.4329107701778412, 0.025209620594978333, -0.0471428819000721, -0.040303491055965424, -1.2539973258972168, 1.1063201427459717, 0.40057575702667236, 0.5284446477890015, -0.5306902527809143, 0.1068342924118042, 0.06590797752141953, 0.6080046892166138], "rec.bias_hh_l0": [-0.06735114008188248, 0.20131784677505493, -0.0233453456312418, -0.3718893229961395, -0.05085228383541107, -0.20541918277740479, 0.17136842012405396, 0.0010438361205160618, -0.4224569499492645, -0.025568071752786636, 0.32847392559051514, -0.1386086493730545, 0.08723132312297821, 0.0970231369137764, 0.3598700761795044, 0.4852375090122223, 0.3016214370727539, -0.3069984018802643, 0.48895856738090515, 0.3068828582763672, 0.32341471314430237, 0.07281162589788437, 0.5707981586456299, 0.46160802245140076, -0.029624035581946373, -0.5534172654151917, -0.15257032215595245, 0.2377258539199829, 0.2036113739013672, 0.3117053508758545, 0.6092804670333862, -0.24603092670440674, -0.28863152861595154, 0.6258705854415894, -0.009087875485420227, -0.27966707944869995, -0.008387759327888489, 0.049916159361600876, 0.06050517410039902, -0.10427992790937424, -0.3396095931529999, -0.03850696235895157, 0.7161945104598999, -0.4735027551651001, -0.3032033443450928, 0.12520743906497955, 0.19325189292430878, 0.4379524290561676], "lin.weight": [[-0.36325326561927795, 0.13312307000160217, -0.32885488867759705, -1.1504908800125122, -0.6384823322296143, 1.2549071311950684, -0.09224799275398254, 0.7876331806182861, -1.3317375183105469, 0.7091895937919617, 0.3101688325405121, 0.04528197646141052, 0.05843443423509598, -0.3358754813671112, 0.02634730562567711, 0.6305224895477295]], "lin.bias": [-0.16837294399738312]}}