{
    "in_shape": [
        null,
        2
    ],
    "layers": [
        {
            "type": "dense",
            "activation": "relu",
            "shape": [
                null,
                3
            ],
            "weights": [
                [
                    [
                        1.1293423175811768,
                        -0.6481334567070007,
                        -0.34113356471061707
                    ],
                    [
                        -0.6923232078552246,
                        0.31798067688941956,
                        0.10003916919231415
                    ]
                ],
                [
                    0.6834731101989746,
                    -0.5867713093757629,
                    -0.16066816449165344
                ]
            ]
        },
        {
            "type": "dense",
            "activation": "relu",
            "shape": [
                null,
                5
            ],
            "weights": [
                [
                    [
                        0.9970921277999878,
                        1.2956552505493164,
                        -0.3222639262676239,
                        0.6141497492790222,
                        -0.3709804117679596
                    ],
                    [
                        -0.5218557119369507,
                        -0.43600398302078247,
                        0.06662158668041229,
                        -0.006123887840658426,
                        -0.08633878827095032
                    ],
                    [
                        0.33341094851493835,
                        0.11201882362365723,
                        0.5526939034461975,
                        -0.4443644881248474,
                        -0.3127343952655792
                    ]
                ],
                [
                    -0.6073250770568848,
                    -0.0067750378511846066,
                    0.6014111638069153,
                    0.6631876230239868,
                    0.672519326210022
                ]
            ]
        },
        {
            "type": "dense",
            "activation": "relu",
            "shape": [
                null,
                7
            ],
            "weights": [
                [
                    [
                        -0.0012697855709120631,
                        1.06620192527771,
                        -0.3400909900665283,
                        -0.20740772783756256,
                        0.7400426268577576,
                        0.7149689197540283,
                        -0.39709925651550293
                    ],
                    [
                        0.24686485528945923,
                        0.586685299873352,
                        0.7861206531524658,
                        0.25408270955085754,
                        0.8182090520858765,
                        0.2526974380016327,
                        -0.701138973236084
                    ],
                    [
                        -0.09826432913541794,
                        -0.8644171953201294,
                        -0.8293951153755188,
                        -0.27895042300224304,
                        -0.24462248384952545,
                        -0.5433852076530457,
                        0.8805153369903564
                    ],
                    [
                        -0.3925613760948181,
                        0.5148234963417053,
                        0.7330745458602905,
                        -0.21583795547485352,
                        0.205580472946167,
                        0.6981997489929199,
                        0.909326434135437
                    ],
                    [
                        0.02066171169281006,
                        -1.0037678480148315,
                        -0.5738290548324585,
                        0.3895769715309143,
                        -0.9612568616867065,
                        -0.1020641103386879,
                        0.5691696405410767
                    ]
                ],
                [
                    -0.28189507126808167,
                    0.20701035857200623,
                    0.5075435638427734,
                    -0.3704511523246765,
                    -0.5005621314048767,
                    0.5295384526252747,
                    0.8476316332817078
                ]
            ]
        },
        {
            "type": "dense",
            "activation": "relu",
            "shape": [
                null,
                9
            ],
            "weights": [
                [
                    [
                        -0.3628929555416107,
                        -0.1553124040365219,
                        -0.037602800875902176,
                        -0.19637462496757507,
                        -0.07603798061609268,
                        0.09008865803480148,
                        0.006105747539550066,
                        -0.2740026116371155,
                        -0.1753409504890442
                    ],
                    [
                        0.4896400272846222,
                        0.7449202537536621,
                        -0.49308469891548157,
                        -0.2222454696893692,
                        -0.11624143272638321,
                        -0.2662380635738373,
                        0.5153724551200867,
                        -0.5827085375785828,
                        0.24258090555667877
                    ],
                    [
                        0.8989961743354797,
                        0.48238664865493774,
                        -0.813590407371521,
                        -0.7742184996604919,
                        -0.9178439378738403,
                        0.12269408255815506,
                        0.6834107041358948,
                        0.1875946968793869,
                        -0.2620052397251129
                    ],
                    [
                        0.056518398225307465,
                        0.06458587944507599,
                        -0.08424311131238937,
                        0.24322354793548584,
                        0.24170707166194916,
                        -0.14279231429100037,
                        -0.126234233379364,
                        -0.09331265091896057,
                        -0.21277357637882233
                    ],
                    [
                        -1.2434539794921875,
                        -0.05597888305783272,
                        1.107049822807312,
                        0.9657208323478699,
                        1.2680518627166748,
                        0.15476351976394653,
                        0.9319142699241638,
                        -1.5171891450881958,
                        1.1976336240768433
                    ],
                    [
                        0.7283740043640137,
                        0.2424338310956955,
                        0.3593289852142334,
                        0.1610681414604187,
                        0.3315961956977844,
                        0.09541794657707214,
                        0.16214407980442047,
                        0.39371633529663086,
                        0.20771758258342743
                    ],
                    [
                        -0.1889355629682541,
                        -0.8768544793128967,
                        0.5577003359794617,
                        0.5715121626853943,
                        0.7610305547714233,
                        -0.3242838680744171,
                        -0.3972015082836151,
                        0.8591697216033936,
                        -0.7075310349464417
                    ]
                ],
                [
                    -0.10254207998514175,
                    0.19766320288181305,
                    0.8452745079994202,
                    0.8298598527908325,
                    0.49753761291503906,
                    -0.33104753494262695,
                    -0.8148845434188843,
                    0.3810853362083435,
                    -0.6875313520431519
                ]
            ]
        },
        {
            "type": "dense",
            "activation": "sigmoid",
            "shape": [
                null,
                10
            ],
            "weights": [
                [
                    [
                        -1.0253154039382935,
                        -0.8152301907539368,
                        -0.6343765258789062,
                        -0.7286916375160217,
                        -0.5277357697486877,
                        -0.17031332850456238,
                        -0.1749671846628189,
                        0.1329921931028366,
                        -0.1784665286540985,
                        -0.7423248291015625
                    ],
                    [
                        -0.05919520556926727,
                        0.0194254107773304,
                        -0.21303638815879822,
                        -0.2877553105354309,
                        -0.4603807032108307,
                        -0.4114408493041992,
                        -0.13398216664791107,
                        -0.6383934020996094,
                        -0.8051198720932007,
                        -0.5795832276344299
                    ],
                    [
                        1.0514237880706787,
                        0.8593247532844543,
                        0.3457222878932953,
                        0.4371607005596161,
                        0.11385098844766617,
                        0.42986878752708435,
                        -0.03136751800775528,
                        0.4457330107688904,
                        0.2966782748699188,
                        0.9211650490760803
                    ],
                    [
                        0.785746693611145,
                        1.0747166872024536,
                        0.7869902849197388,
                        0.17798753082752228,
                        0.4023914635181427,
                        0.31602713465690613,
                        0.2243083268404007,
                        0.1918277144432068,
                        0.054887425154447556,
                        0.7528058886528015
                    ],
                    [
                        1.115179181098938,
                        0.4894753098487854,
                        0.622055172920227,
                        0.5182434320449829,
                        0.28552886843681335,
                        0.2519887089729309,
                        0.4435455799102783,
                        0.24984192848205566,
                        0.3367951512336731,
                        0.6739686727523804
                    ],
                    [
                        0.08487509936094284,
                        -0.29686474800109863,
                        0.3155730664730072,
                        0.10545484721660614,
                        -0.3090667724609375,
                        0.16122473776340485,
                        -0.22147682309150696,
                        0.266151487827301,
                        0.19073349237442017,
                        -0.1367558389902115
                    ],
                    [
                        0.8266394734382629,
                        0.4305233955383301,
                        0.40187427401542664,
                        0.6047178506851196,
                        0.4446130096912384,
                        -0.17815370857715607,
                        -0.32177790999412537,
                        -0.3574460446834564,
                        -0.20559482276439667,
                        -0.7080463171005249
                    ],
                    [
                        -1.2028533220291138,
                        -0.9977810978889465,
                        -0.5746603608131409,
                        -0.08851761370897293,
                        0.029830990359187126,
                        -0.1684635579586029,
                        0.19093815982341766,
                        0.11566995829343796,
                        0.46920740604400635,
                        0.9996100664138794
                    ],
                    [
                        -2.449340581893921,
                        -1.7378767728805542,
                        -1.4709153175354004,
                        -1.4780769348144531,
                        -0.9816306233406067,
                        -0.1781526356935501,
                        -0.2252693921327591,
                        0.38257771730422974,
                        0.566044270992279,
                        1.346380352973938
                    ]
                ],
                [
                    -0.12119881808757782,
                    0.10540666431188583,
                    0.1875891089439392,
                    0.26519566774368286,
                    0.4648949205875397,
                    0.4177374243736267,
                    0.14625298976898193,
                    -0.03937999904155731,
                    0.456033855676651,
                    0.5880208015441895
                ]
            ]
        }
    ]
}