{
    "in_shape": [
        32,
        0,
        1
    ],
    "layers": [
        {
            "type": "lstm",
            "activation": "tanh",
            "shape": [
                32,
                0,
                8
            ],
            "weights": [
                [
                    [
                        0.16812670230865479,
                        0.12467000633478165,
                        0.04817671701312065,
                        -0.21744853258132935,
                        0.5561898946762085,
                        0.2822970449924469,
                        0.08625674247741699,
                        -0.37184128165245056,
                        -0.1339639276266098,
                        -0.05274675786495209,
                        0.13754978775978088,
                        0.028010429814457893,
                        0.163786843419075,
                        0.7542769312858582,
                        1.594045877456665,
                        -0.22618761658668518,
                        -0.8414283394813538,
                        -0.6522058844566345,
                        3.5895450115203857,
                        -0.8178724050521851,
                        -0.22319519519805908,
                        -0.48888707160949707,
                        -2.4364571571350098,
                        -1.009713888168335,
                        -0.8404022455215454,
                        0.00856816302984953,
                        0.14165548980236053,
                        -1.1634935140609741,
                        -0.5528509616851807,
                        0.8760054707527161,
                        -2.2964043617248535,
                        -0.13852182030677795
                    ]
                ],
                [
                    [
                        -0.2683162987232208,
                        -0.29763263463974,
                        -0.216840922832489,
                        0.2894471287727356,
                        -0.8264725804328918,
                        0.750465989112854,
                        -0.4588984549045563,
                        -0.8875006437301636,
                        -0.03269973024725914,
                        0.22077836096286774,
                        -0.41492632031440735,
                        0.4223829507827759,
                        -0.08156107366085052,
                        -0.6822333931922913,
                        -0.2620064616203308,
                        0.2381071299314499,
                        0.15348784625530243,
                        0.5430241227149963,
                        -0.08587715774774551,
                        -0.06543944031000137,
                        -0.4181613624095917,
                        -0.19367094337940216,
                        -0.5218674540519714,
                        -0.6357027292251587,
                        -0.553449273109436,
                        -0.219227135181427,
                        -0.3020089268684387,
                        0.6522825956344604,
                        0.04957658424973488,
                        -0.1882524937391281,
                        -1.459899663925171,
                        -0.33854836225509644
                    ],
                    [
                        0.28426286578178406,
                        0.3964520990848541,
                        0.19961604475975037,
                        0.0955248475074768,
                        0.009193405508995056,
                        0.42571043968200684,
                        -0.37593644857406616,
                        -1.1168277263641357,
                        0.15569911897182465,
                        -0.2458256185054779,
                        -0.457781583070755,
                        0.30443719029426575,
                        -0.5702627301216125,
                        -0.10070079565048218,
                        0.07543424516916275,
                        0.12484922260046005,
                        -0.11013961583375931,
                        -1.430433750152588,
                        0.23441389203071594,
                        0.5783126950263977,
                        0.4383428394794464,
                        -0.3968683183193207,
                        0.5380265712738037,
                        0.21622523665428162,
                        0.4281845986843109,
                        0.5031035542488098,
                        0.027296986430883408,
                        -0.037519074976444244,
                        -0.9059617519378662,
                        -0.28776007890701294,
                        -0.926075279712677,
                        -0.09868614375591278
                    ],
                    [
                        0.31576260924339294,
                        -0.036523062735795975,
                        -0.12001597881317139,
                        -0.061898522078990936,
                        0.024010464549064636,
                        -1.0363365411758423,
                        -0.08663119375705719,
                        -0.24298228323459625,
                        0.7091193795204163,
                        0.18824458122253418,
                        -0.5843407511711121,
                        -0.03957035019993782,
                        0.22310717403888702,
                        0.8180278539657593,
                        1.7188034057617188,
                        -0.16294515132904053,
                        -0.4352797269821167,
                        0.4779108762741089,
                        0.18074347078800201,
                        -0.7135850787162781,
                        -0.8154481053352356,
                        -1.007311224937439,
                        -2.571303129196167,
                        0.19905512034893036,
                        0.1421976238489151,
                        -0.04207433760166168,
                        0.2256549447774887,
                        -0.08459237217903137,
                        -0.3553575575351715,
                        0.5624516010284424,
                        0.4851877987384796,
                        -0.26667889952659607
                    ],
                    [
                        0.3271895945072174,
                        0.14857856929302216,
                        -0.17603133618831635,
                        -0.03670358657836914,
                        -0.24891415238380432,
                        0.1578974723815918,
                        -0.7641258239746094,
                        0.42579808831214905,
                        -0.12291514873504639,
                        -0.4449978470802307,
                        0.13889849185943604,
                        0.24128644168376923,
                        -0.0031813201494514942,
                        0.06344634294509888,
                        -0.33342477679252625,
                        0.2786203920841217,
                        0.11908472329378128,
                        0.29466739296913147,
                        0.18725857138633728,
                        -0.45849013328552246,
                        -1.135650873184204,
                        0.07825222611427307,
                        0.22031503915786743,
                        -0.1943918913602829,
                        0.7494006156921387,
                        0.04358561336994171,
                        -0.010082446038722992,
                        0.7459927201271057,
                        1.0010958909988403,
                        -0.05434849485754967,
                        -0.4341175854206085,
                        0.2461932748556137
                    ],
                    [
                        -0.40674063563346863,
                        -0.17179962992668152,
                        0.847901463508606,
                        -0.05538436025381088,
                        -0.5780413746833801,
                        -1.1912891864776611,
                        -0.19925689697265625,
                        0.16243189573287964,
                        -0.2856961488723755,
                        -0.17135387659072876,
                        0.4113708436489105,
                        -0.3012488782405853,
                        -0.12978680431842804,
                        -0.21787051856517792,
                        0.08275095373392105,
                        -0.30892089009284973,
                        -0.026634717360138893,
                        -0.633974015712738,
                        0.31488507986068726,
                        -0.6497289538383484,
                        -0.11324217915534973,
                        0.7657734155654907,
                        -0.33552366495132446,
                        -0.2496410608291626,
                        -0.28954604268074036,
                        -0.26068779826164246,
                        0.6992409825325012,
                        0.25859513878822327,
                        0.09711780399084091,
                        -0.3934806287288666,
                        -0.1261698603630066,
                        -0.30604445934295654
                    ],
                    [
                        -0.07514931261539459,
                        -0.3397381603717804,
                        0.702589750289917,
                        -0.2675269544124603,
                        -0.40911632776260376,
                        -0.6798146963119507,
                        -0.2685438394546509,
                        -0.1215667799115181,
                        -0.03236036375164986,
                        -0.31108060479164124,
                        1.0333290100097656,
                        -0.16391941905021667,
                        0.07553312182426453,
                        1.3474746942520142,
                        -0.3684910833835602,
                        -0.15056589245796204,
                        0.4297436475753784,
                        -0.6756964921951294,
                        1.4697550535202026,
                        0.20784609019756317,
                        0.9015523791313171,
                        0.7641523480415344,
                        -1.2289302349090576,
                        0.217328280210495,
                        0.2902511656284332,
                        -0.48211947083473206,
                        0.4614144563674927,
                        -0.15330816805362701,
                        0.4505665600299835,
                        -0.21452760696411133,
                        0.9527819156646729,
                        -0.45657262206077576
                    ],
                    [
                        -0.21918682754039764,
                        0.25382012128829956,
                        -1.8217401504516602,
                        0.6224360466003418,
                        1.071163296699524,
                        1.5384362936019897,
                        -2.0155200958251953,
                        0.03789834678173065,
                        -0.2266814261674881,
                        -0.20774191617965698,
                        -0.9673986434936523,
                        0.12927047908306122,
                        0.3060556948184967,
                        -0.5866803526878357,
                        0.07249714434146881,
                        0.12286518514156342,
                        0.12327037006616592,
                        -0.02228262461721897,
                        -0.1287398487329483,
                        -0.8349982500076294,
                        -1.3492026329040527,
                        -0.8729798197746277,
                        1.3338754177093506,
                        0.20511113107204437,
                        -0.07358705252408981,
                        0.42698556184768677,
                        -1.4750688076019287,
                        1.1349221467971802,
                        1.1923017501831055,
                        0.14073389768600464,
                        -0.2915264666080475,
                        0.24484963715076447
                    ],
                    [
                        -0.024166317656636238,
                        0.16411159932613373,
                        0.12259262055158615,
                        0.36201730370521545,
                        0.28830498456954956,
                        0.621026873588562,
                        -0.045099303126335144,
                        0.015526865608990192,
                        -0.20089665055274963,
                        -0.2016059160232544,
                        -0.0864214152097702,
                        0.08270776271820068,
                        0.0866345465183258,
                        0.03284985199570656,
                        -0.1373230367898941,
                        0.542779266834259,
                        0.4238767623901367,
                        -0.023068560287356377,
                        -0.04092943295836449,
                        -1.2212656736373901,
                        -0.8483486175537109,
                        -1.092907190322876,
                        -0.9723963141441345,
                        0.3580680787563324,
                        -0.38074204325675964,
                        0.11488045752048492,
                        0.0580858550965786,
                        0.15249046683311462,
                        -1.0644599199295044,
                        0.11314193904399872,
                        -0.06655517965555191,
                        0.22336480021476746
                    ]
                ],
                [
                    0.005978260189294815,
                    1.3511993885040283,
                    0.21811261773109436,
                    1.0755728483200073,
                    0.12833090126514435,
                    -1.4320104122161865,
                    0.33540111780166626,
                    -0.1474548876285553,
                    0.9955250024795532,
                    -0.8663825988769531,
                    -0.35301920771598816,
                    -0.006017383653670549,
                    -0.6032862663269043,
                    1.5892674922943115,
                    0.042468804866075516,
                    0.34831833839416504,
                    -0.45200130343437195,
                    0.10698557645082474,
                    -0.5627487301826477,
                    -0.2909679710865021,
                    0.08173226565122604,
                    -0.10807085037231445,
                    0.34368062019348145,
                    -0.4782094955444336,
                    0.8335803151130676,
                    1.302802562713623,
                    0.7964466214179993,
                    0.45761528611183167,
                    0.5396468639373779,
                    1.2748819589614868,
                    0.9564698934555054,
                    1.0552401542663574
                ]
            ]
        },
        {
            "type": "dense",
            "activation": "",
            "shape": [
                32,
                0,
                1
            ],
            "weights": [
                [
                    [
                        -0.2548481523990631
                    ],
                    [
                        0.261677622795105
                    ],
                    [
                        -0.2613492012023926
                    ],
                    [
                        -0.551360547542572
                    ],
                    [
                        -1.1249363422393799
                    ],
                    [
                        -0.037772439420223236
                    ],
                    [
                        -1.1627203226089478
                    ],
                    [
                        -0.2637042701244354
                    ]
                ],
                [
                    -0.13925579190254211
                ]
            ]
        }
    ]
}