{"model_data": {"model": "SimpleRNN", "input_size": 1, "skip": "0", "output_size": 1, "unit_type": "LSTM", "num_layers": 1, "hidden_size": 8, "bias_fl": true}, "state_dict": {"rec.weight_ih_l0": [[0.16812670230865479], [0.12467000633478165], [0.04817671701312065], [-0.21744853258132935], [0.5561898946762085], [0.2822970449924469], [0.08625674247741699], [-0.37184128165245056], [-0.1339639276266098], [-0.05274675786495209], [0.13754978775978088], [0.028010429814457893], [0.163786843419075], [0.7542769312858582], [1.594045877456665], [-0.22618761658668518], [-0.8414283394813538], [-0.6522058844566345], [3.5895450115203857], [-0.8178724050521851], [-0.22319519519805908], [-0.48888707160949707], [-2.4364571571350098], [-1.009713888168335], [-0.8404022455215454], [0.00856816302984953], [0.14165548980236053], [-1.1634935140609741], [-0.5528509616851807], [0.8760054707527161], [-2.2964043617248535], [-0.13852182030677795]], "rec.weight_hh_l0": [[-0.2683162987232208, 0.28426286578178406, 0.31576260924339294, 0.3271895945072174, -0.40674063563346863, -0.07514931261539459, -0.21918682754039764, -0.024166317656636238], [-0.29763263463974, 0.3964520990848541, -0.036523062735795975, 0.14857856929302216, -0.17179962992668152, -0.3397381603717804, 0.25382012128829956, 0.16411159932613373], [-0.216840922832489, 0.19961604475975037, -0.12001597881317139, -0.17603133618831635, 0.847901463508606, 0.702589750289917, -1.8217401504516602, 0.12259262055158615], [0.2894471287727356, 0.0955248475074768, -0.061898522078990936, -0.03670358657836914, -0.05538436025381088, -0.2675269544124603, 0.6224360466003418, 0.36201730370521545], [-0.8264725804328918, 0.009193405508995056, 0.024010464549064636, -0.24891415238380432, -0.5780413746833801, -0.40911632776260376, 1.071163296699524, 0.28830498456954956], [0.750465989112854, 0.42571043968200684, -1.0363365411758423, 0.1578974723815918, -1.1912891864776611, -0.6798146963119507, 1.5384362936019897, 0.621026873588562], [-0.4588984549045563, -0.37593644857406616, -0.08663119375705719, -0.7641258239746094, -0.19925689697265625, -0.2685438394546509, -2.0155200958251953, -0.045099303126335144], [-0.8875006437301636, -1.1168277263641357, -0.24298228323459625, 0.42579808831214905, 0.16243189573287964, -0.1215667799115181, 0.03789834678173065, 0.015526865608990192], [-0.03269973024725914, 0.15569911897182465, 0.7091193795204163, -0.12291514873504639, -0.2856961488723755, -0.03236036375164986, -0.2266814261674881, -0.20089665055274963], [0.22077836096286774, -0.2458256185054779, 0.18824458122253418, -0.4449978470802307, -0.17135387659072876, -0.31108060479164124, -0.20774191617965698, -0.2016059160232544], [-0.41492632031440735, -0.457781583070755, -0.5843407511711121, 0.13889849185943604, 0.4113708436489105, 1.0333290100097656, -0.9673986434936523, -0.0864214152097702], [0.4223829507827759, 0.30443719029426575, -0.03957035019993782, 0.24128644168376923, -0.3012488782405853, -0.16391941905021667, 0.12927047908306122, 0.08270776271820068], [-0.08156107366085052, -0.5702627301216125, 0.22310717403888702, -0.0031813201494514942, -0.12978680431842804, 0.07553312182426453, 0.3060556948184967, 0.0866345465183258], [-0.6822333931922913, -0.10070079565048218, 0.8180278539657593, 0.06344634294509888, -0.21787051856517792, 1.3474746942520142, -0.5866803526878357, 0.03284985199570656], [-0.2620064616203308, 0.07543424516916275, 1.7188034057617188, -0.33342477679252625, 0.08275095373392105, -0.3684910833835602, 0.07249714434146881, -0.1373230367898941], [0.2381071299314499, 0.12484922260046005, -0.16294515132904053, 0.2786203920841217, -0.30892089009284973, -0.15056589245796204, 0.12286518514156342, 0.542779266834259], [0.15348784625530243, -0.11013961583375931, -0.4352797269821167, 0.11908472329378128, -0.026634717360138893, 0.4297436475753784, 0.12327037006616592, 0.4238767623901367], [0.5430241227149963, -1.430433750152588, 0.4779108762741089, 0.29466739296913147, -0.633974015712738, -0.6756964921951294, -0.02228262461721897, -0.023068560287356377], [-0.08587715774774551, 0.23441389203071594, 0.18074347078800201, 0.18725857138633728, 0.31488507986068726, 1.4697550535202026, -0.1287398487329483, -0.04092943295836449], [-0.06543944031000137, 0.5783126950263977, -0.7135850787162781, -0.45849013328552246, -0.6497289538383484, 0.20784609019756317, -0.8349982500076294, -1.2212656736373901], [-0.4181613624095917, 0.4383428394794464, -0.8154481053352356, -1.135650873184204, -0.11324217915534973, 0.9015523791313171, -1.3492026329040527, -0.8483486175537109], [-0.19367094337940216, -0.3968683183193207, -1.007311224937439, 0.07825222611427307, 0.7657734155654907, 0.7641523480415344, -0.8729798197746277, -1.092907190322876], [-0.5218674540519714, 0.5380265712738037, -2.571303129196167, 0.22031503915786743, -0.33552366495132446, -1.2289302349090576, 1.3338754177093506, -0.9723963141441345], [-0.6357027292251587, 0.21622523665428162, 0.19905512034893036, -0.1943918913602829, -0.2496410608291626, 0.217328280210495, 0.20511113107204437, 0.3580680787563324], [-0.553449273109436, 0.4281845986843109, 0.1421976238489151, 0.7494006156921387, -0.28954604268074036, 0.2902511656284332, -0.07358705252408981, -0.38074204325675964], [-0.219227135181427, 0.5031035542488098, -0.04207433760166168, 0.04358561336994171, -0.26068779826164246, -0.48211947083473206, 0.42698556184768677, 0.11488045752048492], [-0.3020089268684387, 0.027296986430883408, 0.2256549447774887, -0.010082446038722992, 0.6992409825325012, 0.4614144563674927, -1.4750688076019287, 0.0580858550965786], [0.6522825956344604, -0.037519074976444244, -0.08459237217903137, 0.7459927201271057, 0.25859513878822327, -0.15330816805362701, 1.1349221467971802, 0.15249046683311462], [0.04957658424973488, -0.9059617519378662, -0.3553575575351715, 1.0010958909988403, 0.09711780399084091, 0.4505665600299835, 1.1923017501831055, -1.0644599199295044], [-0.1882524937391281, -0.28776007890701294, 0.5624516010284424, -0.05434849485754967, -0.3934806287288666, -0.21452760696411133, 0.14073389768600464, 0.11314193904399872], [-1.459899663925171, -0.926075279712677, 0.4851877987384796, -0.4341175854206085, -0.1261698603630066, 0.9527819156646729, -0.2915264666080475, -0.06655517965555191], [-0.33854836225509644, -0.09868614375591278, -0.26667889952659607, 0.2461932748556137, -0.30604445934295654, -0.45657262206077576, 0.24484963715076447, 0.22336480021476746]], "rec.bias_ih_l0": [0.0033889352343976498, 0.6756022572517395, 0.10918550938367844, 0.5378316044807434, 0.06453485041856766, -0.7842234373092651, 0.1694290041923523, -0.0713331550359726, 0.49830162525177, -0.43319129943847656, -0.16574522852897644, 0.0057052928023040295, -0.3177352845668793, 0.7236780524253845, 0.012624194845557213, 0.17604248225688934, -0.130639910697937, 0.08241187781095505, -0.2679841220378876, -0.11825171858072281, 0.16215820610523224, -0.10877279192209244, 0.06783057004213333, -0.28729769587516785, 0.42720651626586914, 0.6513698101043701, 0.3982040584087372, 0.21740004420280457, 0.28277474641799927, 0.5268206596374512, 0.47999006509780884, 0.5222309827804565], "rec.bias_hh_l0": [0.002589325187727809, 0.6755971908569336, 0.10892710834741592, 0.5377412438392639, 0.06379605084657669, -0.6477870345115662, 0.16597212851047516, -0.0761217325925827, 0.4972233474254608, -0.43319129943847656, -0.18727397918701172, -0.011722676455974579, -0.2855510115623474, 0.865589439868927, 0.029844610020518303, 0.1722758412361145, -0.32136139273643494, 0.02457369863986969, -0.29476460814476013, -0.17271625995635986, -0.0804259404540062, 0.0007019414915703237, 0.2758500576019287, -0.19091178476810455, 0.4063737988471985, 0.6514326930046082, 0.3982425630092621, 0.2402152419090271, 0.2568720877170563, 0.7480612993240356, 0.47647979855537415, 0.5330091118812561], "lin.weight": [[-0.2548481523990631, 0.261677622795105, -0.2613492012023926, -0.551360547542572, -1.1249363422393799, -0.037772439420223236, -1.1627203226089478, -0.2637042701244354]], "lin.bias": [-0.13925579190254211]}}