{"model_data": {"model": "SimpleRNN", "input_size": 1, "skip": "0", "output_size": 1, "unit_type": "LSTM", "num_layers": 1, "hidden_size": 20, "bias_fl": true}, "state_dict": {"rec.weight_ih_l0": [[-0.5751697421073914], [-0.18088175356388092], [0.5682464241981506], [-0.285617858171463], [0.5605568289756775], [-0.28207409381866455], [0.5939313173294067], [0.24326008558273315], [-0.11820249259471893], [0.32880938053131104], [-1.0844770669937134], [-1.0804736614227295], [0.6381175518035889], [-0.3627381920814514], [-0.01489678118377924], [0.4641287624835968], [-0.7259328961372375], [-0.07856578379869461], [-0.4176170527935028], [-0.1909211128950119], [1.0590434074401855], [-0.49621596932411194], [0.4734514653682709], [-0.5371443033218384], [0.6604593992233276], [1.0188075304031372], [0.7664592862129211], [-0.24455563724040985], [0.8637040853500366], [-0.018277304247021675], [0.11965946853160858], [-0.13372482359409332], [1.2784262895584106], [-0.9269076585769653], [0.17632412910461426], [0.43568485975265503], [0.5257598161697388], [2.5415117740631104], [0.24909608066082], [-0.44999346137046814], [-0.5654346942901611], [0.017561163753271103], [-0.08372918516397476], [0.4023265838623047], [-0.1664627492427826], [-0.7642189264297485], [-1.1396948099136353], [0.0037976375315338373], [0.8156269192695618], [-0.4215559661388397], [-0.6280335783958435], [0.04513930156826973], [0.8567289113998413], [-0.6810021996498108], [0.4273535907268524], [0.37542960047721863], [0.3010714054107666], [-1.9731011390686035], [-0.15777184069156647], [0.24244412779808044], [0.2942623794078827], [-0.03459717705845833], [0.4973321557044983], [-0.34157904982566833], [0.812856912612915], [-0.8603622913360596], [-0.026139400899410248], [-0.08559848368167877], [0.2118549793958664], [-0.030125051736831665], [-1.1875406503677368], [-0.3428874611854553], [0.19102734327316284], [-0.8949065208435059], [-0.12662014365196228], [0.0026348403189331293], [0.006497534457594156], [-0.7288586497306824], [0.21499498188495636], [-0.3970261216163635]], "rec.weight_hh_l0": [[0.601065456867218, -0.20694592595100403, 0.1906958520412445, -0.11583241075277328, 0.36889514327049255, -0.022697454318404198, 0.16719631850719452, -0.03076273202896118, -0.022001175209879875, -0.11340265721082687, 0.3856232464313507, -0.32804638147354126, 0.021495897322893143, 0.08236069232225418, 0.5070971250534058, -0.44616571068763733, -0.26395899057388306, -0.05748764052987099, 0.04211745783686638, 0.20883364975452423], [0.16455966234207153, -0.17154794931411743, -0.12798085808753967, -0.13336598873138428, -0.0004187915474176407, 0.049073535948991776, -0.1407746970653534, 0.07772038877010345, 0.06965850293636322, -0.07966682314872742, 0.184504896402359, -0.19006259739398956, -0.08344633132219315, 0.3351938724517822, -0.33301427960395813, 0.20629996061325073, -0.2287062257528305, 0.07116007804870605, -0.013709097169339657, -0.24171139299869537], [0.017515039071440697, 0.15526236593723297, 0.031665340065956116, 0.04596316069364548, -0.17274029552936554, -0.1461922973394394, -0.017684724181890488, 0.0903591439127922, 0.15385101735591888, 0.061818722635507584, -0.005871269386261702, -0.0674237459897995, 0.12561000883579254, -0.15502086281776428, 0.16884198784828186, 0.1372292935848236, 0.18268674612045288, -0.018436899408698082, -0.31607574224472046, 0.18177078664302826], [0.4516024887561798, 0.03622307628393173, 0.060214459896087646, 0.008572387509047985, 0.15052834153175354, 0.38824036717414856, -0.2084241807460785, -0.11855413764715195, 0.15354914963245392, -0.035764213651418686, -0.020241638645529747, 0.21185900270938873, -0.13303327560424805, 0.012211569584906101, 0.1537049114704132, 0.1500585377216339, 0.26082587242126465, 0.19351282715797424, -0.383122980594635, 0.015007228590548038], [-0.08176451921463013, 0.08045057952404022, 0.021151838824152946, 0.2746984660625458, -0.3969363868236542, 0.009105329401791096, -0.09348638355731964, 0.05192951858043671, -0.022188622504472733, 0.19085519015789032, 0.15945693850517273, -0.12798656523227692, -0.2721046507358551, -0.20098286867141724, 0.04179386422038078, -0.08607900887727737, 0.29579588770866394, 0.30633655190467834, -0.04929265379905701, 0.03608720004558563], [-0.16142986714839935, 0.024547092616558075, -0.10639038681983948, 0.05906527489423752, 0.06763391941785812, -0.3206309676170349, -0.29778343439102173, -0.00518654054030776, 0.06919370591640472, -0.19138024747371674, -0.11210565268993378, -0.061744943261146545, 0.569577157497406, -0.03325902298092842, -0.03502464294433594, 0.21570409834384918, 0.23730212450027466, -0.6514524221420288, -0.1215733140707016, -0.10256320238113403], [-0.03414222225546837, 0.02590758539736271, -0.09019564092159271, 0.03728413209319115, -0.10973275452852249, -0.053794946521520615, -0.04193011671304703, -0.1964731216430664, 0.010367941111326218, 0.32625526189804077, -0.19732393324375153, -0.2304113507270813, -0.12201899290084839, 0.42963191866874695, -0.08643417805433273, 0.19721561670303345, 0.0016142328968271613, -0.3394945561885834, 0.1525888293981552, -0.37720051407814026], [-0.08562523126602173, -0.0845012292265892, 0.027968483045697212, 0.04824943467974663, 0.06003105267882347, -0.19803336262702942, -0.14018434286117554, -0.022574666887521744, 0.24416254460811615, 0.002278676023706794, -0.10001173615455627, -0.009070072323083878, 0.25741785764694214, -0.10047657787799835, 0.010952417738735676, 0.16298171877861023, 0.07363224774599075, -0.10775607824325562, -0.28960832953453064, 0.1648865044116974], [0.13418306410312653, 0.2027580291032791, 0.1906047910451889, 0.44631776213645935, 0.10681556910276413, 0.10465093702077866, 0.13927437365055084, 0.06441398710012436, 0.3120999038219452, 0.28086772561073303, 0.15575207769870758, -0.19077730178833008, -0.7118862271308899, 0.12206075340509415, -0.06593314558267593, 0.015757659450173378, 0.8932210206985474, 0.22998328506946564, -0.10802159458398819, -0.21365194022655487], [-0.14043544232845306, -0.12887145578861237, -0.2217557430267334, 0.24689511954784393, -0.2769336700439453, -0.5422309041023254, -0.5303255915641785, 0.03637036308646202, -0.14004302024841309, -0.014672158285975456, 0.1737152487039566, -0.2145237922668457, 0.4268367290496826, -0.08525867760181427, -0.05913441255688667, 0.31993740797042847, -0.10925600677728653, -0.36599186062812805, 0.06234351545572281, -0.0009048912907019258], [0.09654200077056885, -0.2800323963165283, -0.09922043234109879, -0.29888173937797546, -0.17789986729621887, -0.0475316159427166, -0.10911962389945984, 0.1769201010465622, -0.38528329133987427, -0.24561826884746552, -0.001084458432160318, -0.37896084785461426, 0.2283524125814438, 0.33674636483192444, -0.3668299615383148, 0.24532099068164825, -0.21329869329929352, 0.07503121346235275, 0.2964071035385132, -0.2526266872882843], [0.23534899950027466, -0.39606907963752747, 0.2293875366449356, 0.3883587419986725, 0.2699914574623108, -0.04273590072989464, -0.11846840381622314, 4.741628799820319e-05, 0.1181686744093895, 0.23531730473041534, -0.46902409195899963, -0.21616116166114807, -0.10464782267808914, -0.07458392530679703, 0.15385431051254272, 0.08885999768972397, -0.2737646698951721, -0.17725731432437897, -0.7471240162849426, 0.08133594691753387], [-0.6729127764701843, -0.3445744812488556, -0.13195882737636566, -0.016153162345290184, 0.03456476330757141, -1.0350531339645386, -0.8448818922042847, -0.17228668928146362, 0.47507932782173157, -0.25125449895858765, -0.5242910981178284, 0.6414085626602173, 0.9098497033119202, -1.110774040222168, 0.2172602415084839, -0.07124333083629608, -0.2827000916004181, -0.9259929656982422, 0.07844355702400208, 0.28619855642318726], [0.24692003428936005, -0.04087022691965103, 0.030358323827385902, 0.033662792295217514, 0.14236034452915192, 0.05846497789025307, -0.16408300399780273, 0.08257763832807541, 0.24918048083782196, -0.13067016005516052, -0.00760366627946496, -0.08678662031888962, 0.01662866398692131, 0.2395208328962326, -0.13884161412715912, 0.21615882217884064, 0.16955700516700745, -0.06347823143005371, -0.28063493967056274, -0.21417991816997528], [-0.29651784896850586, -0.03367497771978378, -0.05856606364250183, -0.21510691940784454, 0.12181416898965836, -0.37113118171691895, -0.2759934961795807, 0.016547633334994316, 0.37897250056266785, -0.3146819472312927, -0.2017822414636612, 0.12948168814182281, 0.3558465838432312, -0.21801751852035522, 0.14402711391448975, -0.03285541385412216, 0.007207523100078106, -0.35550418496131897, 0.08234119415283203, 0.11389929056167603], [-0.20122772455215454, -0.18931163847446442, -0.07808274775743484, 0.014028486795723438, -0.021621182560920715, -0.30210012197494507, -0.0060539827682077885, -0.08644268661737442, -0.03222711756825447, -0.05852426588535309, -0.14473287761211395, 0.0005258193123154342, 0.4466688334941864, -0.1337922364473343, -0.06541667878627777, 0.05291217193007469, -0.0898384302854538, -0.2000001072883606, -0.020833155140280724, 0.1293126791715622], [0.4283272624015808, -0.061493270099163055, -0.13353043794631958, -0.02774682082235813, -0.15170499682426453, 0.11036539077758789, 0.07522150874137878, 0.204946368932724, 0.18276067078113556, 0.1957043558359146, 0.3611301779747009, -0.6204113364219666, -0.10124536603689194, 0.7065337300300598, -0.2255972921848297, -0.02714899741113186, 0.18381622433662415, 0.28572729229927063, -0.15337875485420227, -0.30482232570648193], [-0.30581605434417725, -0.36559945344924927, -0.06665423512458801, 0.11414381116628647, -0.2497454434633255, -0.6551417708396912, -0.9149115085601807, -0.19318880140781403, -0.6045981049537659, -0.5161805748939514, -0.08723653852939606, 0.7008479833602905, 1.1675845384597778, 0.08128026127815247, -0.34782418608665466, 0.34334874153137207, -0.2878253757953644, -0.9852853417396545, 0.4263950288295746, -0.2665075957775116], [0.3753874599933624, -0.21443872153759003, 0.3952653706073761, 0.18656903505325317, 0.16461697220802307, 0.44113779067993164, 0.4502333998680115, -0.21882520616054535, -0.36250630021095276, 0.20149914920330048, 0.5855566263198853, 0.10184425860643387, -0.514957070350647, -0.2401348054409027, 0.20555230975151062, -0.27390849590301514, -0.08527905493974686, 0.20077428221702576, -0.252826988697052, 0.10265044867992401], [-0.1080293282866478, -0.11208263784646988, -0.17585784196853638, -0.11265352368354797, 0.14268775284290314, -0.19563649594783783, -0.22130240499973297, -0.14102785289287567, 0.1881483793258667, -0.31381773948669434, -0.027457164600491524, 0.12176774442195892, -0.07188639044761658, -0.13100332021713257, 0.11177679896354675, 0.12817415595054626, 0.09898164123296738, -0.01880180835723877, -0.212438702583313, 0.131827250123024], [-0.8490455746650696, 0.04665418341755867, -0.5633154511451721, -0.3475492596626282, -0.3714465796947479, -0.9562762975692749, -0.5059254765510559, 0.4096595048904419, -0.017422780394554138, -0.7771109938621521, -0.5931023359298706, -0.3529910147190094, 0.718183159828186, 0.0004437075403984636, -0.4682786464691162, 0.6247990131378174, -0.5262335538864136, -0.8640240430831909, 0.8493040800094604, -0.14214889705181122], [0.14696075022220612, -0.15304581820964813, 0.012172460556030273, -0.35207483172416687, -0.017077092081308365, 0.12695591151714325, 0.1350225955247879, 0.06531357765197754, -0.1537998765707016, -0.07080356776714325, 0.3516876995563507, 0.24018380045890808, 0.09897498041391373, 0.350494921207428, -0.18398664891719818, 0.03930511325597763, -0.3479134142398834, 0.04343177378177643, 0.03448684886097908, -0.021347103640437126], [0.004134957678616047, 0.08235015720129013, -0.04001055285334587, 0.006168787367641926, -0.2725139856338501, -0.0505589097738266, -0.15135923027992249, 0.014733933843672276, -0.08406206220388412, -0.13550500571727753, 0.054349590092897415, 0.023105360567569733, 0.05417874455451965, -0.2740735709667206, 0.10284136235713959, -0.04789653792977333, -0.14352849125862122, 0.0835631862282753, -0.013781970366835594, 0.11023559421300888], [0.3340166211128235, -0.02555837482213974, 0.1774929016828537, 0.23967376351356506, 0.12320797890424728, 0.19241781532764435, -0.07465145736932755, -0.07419987767934799, 0.2588375210762024, 0.11344288289546967, -0.07843151688575745, 0.14581462740898132, -0.12600082159042358, -0.06437917053699493, -0.0616786926984787, -0.012868585996329784, 0.18126057088375092, 0.14221568405628204, -0.20456084609031677, 0.08166752755641937], [-0.0710189938545227, 0.04059271141886711, -0.2427501678466797, 0.35419824719429016, -0.3940572440624237, -0.10296785086393356, -0.12017789483070374, 0.20222559571266174, -0.1338300257921219, 0.011269047856330872, 0.10615447163581848, -0.10920295119285583, -0.03837735205888748, -0.2481563687324524, -0.1737474799156189, 0.1136532574892044, -0.038192473351955414, 0.15623845160007477, -0.1748899668455124, 0.1683477759361267], [-0.49022454023361206, -0.02698507159948349, -0.1074763759970665, 0.38086357712745667, -0.012605058029294014, -0.20798136293888092, -0.13599199056625366, -0.04959810897707939, 0.26754331588745117, -0.25124695897102356, -0.37932243943214417, 0.024848436936736107, 0.2509027123451233, -0.47781917452812195, 0.28030747175216675, -0.17676624655723572, 0.15568995475769043, -0.47328445315361023, 0.1299007683992386, 0.18284812569618225], [-0.08835672587156296, -0.1985621452331543, 0.004708507098257542, 0.5379392504692078, 0.21461398899555206, -0.15566834807395935, -0.6448571681976318, -0.32980772852897644, 0.5056678652763367, 0.12430112063884735, -0.21443942189216614, 0.351764053106308, -0.11640391498804092, -0.08413558453321457, 0.09590533375740051, 0.4191531538963318, 0.652864933013916, -0.4734296202659607, -0.01411729957908392, -0.3567466735839844], [0.0962960347533226, -0.07051125168800354, 0.032276593148708344, 0.03293094038963318, -0.043047696352005005, 0.11344800889492035, 0.1424185335636139, -0.07167845219373703, 0.07539837807416916, 0.06882623583078384, -0.020942123606801033, -0.01943329907953739, -0.0325433574616909, -0.07446311414241791, 0.07500579953193665, 0.05103307217359543, 0.061108238995075226, -0.009725674986839294, -0.12991368770599365, 0.1733265519142151], [0.22551767528057098, 0.1112731471657753, 0.08362489938735962, 0.1889442652463913, 0.11847119778394699, -0.024747682735323906, -0.2546466588973999, -0.09017322212457657, 0.42317095398902893, 0.3018907904624939, -0.22032824158668518, 0.7673881649971008, -0.5149146318435669, -0.07683321833610535, -0.3449636399745941, 0.06446713209152222, 0.4351658225059509, -0.1985965371131897, -0.2264057695865631, -0.39684683084487915], [-0.13162903487682343, 0.012875806540250778, -0.13910172879695892, -0.20997564494609833, -0.2508034110069275, -0.3036215007305145, -0.6488572955131531, -0.011063101701438427, -0.09368376433849335, -0.6949465274810791, -0.28709396719932556, -0.13191178441047668, 0.1145688071846962, -0.18441540002822876, -0.43635204434394836, 0.5050519704818726, 0.08160556107759476, 0.017450520768761635, 0.6268762946128845, -0.36836928129196167], [-0.3999340236186981, 0.23355674743652344, -0.09563802182674408, 0.04271076247096062, -0.1648269146680832, -0.28942880034446716, -0.0314372256398201, 0.07385208457708359, -0.024058055132627487, -0.0012045807670801878, -0.2944272458553314, -0.2962401211261749, 0.2911235988140106, 0.027350325137376785, 0.10202106088399887, 0.10277748107910156, 0.12595884501934052, -0.3702680170536041, 0.2635532021522522, -0.016253367066383362], [0.011541555635631084, -0.16067591309547424, 0.18773256242275238, 0.259864866733551, 0.1579599678516388, 0.03118894249200821, 0.42392224073410034, -0.30903735756874084, 0.29334360361099243, 0.18343497812747955, -0.12834058701992035, 0.03412431478500366, -0.14721624553203583, 0.026968402788043022, 0.22712747752666473, -0.22236403822898865, 0.3212685286998749, -0.09332329034805298, 0.1357078105211258, -0.03045492246747017], [-0.3989282548427582, 0.06677277386188507, -0.07571257650852203, 0.28297001123428345, 0.140814870595932, -0.3517341911792755, -0.13856828212738037, 0.04484536126255989, 0.6732145547866821, -0.124875009059906, -0.49911558628082275, -0.11851473897695541, 0.42274609208106995, -0.6697040796279907, 0.3847588300704956, 0.18079279363155365, 0.23641052842140198, -0.38080939650535583, 0.1149110198020935, 0.2116071879863739], [0.08422303199768066, 0.019397281110286713, -0.009779219515621662, 0.06323692947626114, -0.19542454183101654, -0.21612484753131866, -0.021694334223866463, -0.06955965608358383, -0.2282503843307495, 0.08071400225162506, 0.002840166911482811, -0.1993667036294937, 0.12392272055149078, 0.035360950976610184, 0.14778290688991547, 0.01580096036195755, -0.19141560792922974, -0.20439577102661133, -0.08777453750371933, 0.2448658049106598], [-0.41479653120040894, 0.040965400636196136, -0.15063008666038513, -0.2908383905887604, -0.06072520464658737, -0.4926271438598633, -0.032555557787418365, 0.07724008709192276, 0.19534112513065338, -0.5451992154121399, -0.3224696218967438, -0.06445356458425522, 0.4795382618904114, -0.15193191170692444, 0.07553824782371521, 0.16632191836833954, -0.08859863132238388, -0.3945944309234619, 0.2475886046886444, 0.024709179997444153], [-0.3128398656845093, -0.2794564962387085, -0.2517085373401642, 0.05068036913871765, -0.2660624086856842, -0.511844277381897, -0.22963091731071472, 0.09972770512104034, -0.16924729943275452, -0.5969179272651672, -0.08631085604429245, -0.04256698489189148, 0.46080833673477173, 0.041894808411598206, 0.002393345581367612, 0.22349226474761963, -0.07770992815494537, -0.43112683296203613, 0.5746229290962219, -0.036047231405973434], [0.1012880951166153, -0.1256641447544098, -0.1638181507587433, 0.2663978338241577, -0.21741822361946106, -0.13874320685863495, -0.16070693731307983, -0.25003090500831604, 0.3537575602531433, 0.6074156165122986, 0.20393486320972443, -0.23178386688232422, -0.25506913661956787, 0.1541045904159546, -0.13973966240882874, 0.029929066076874733, 0.24020466208457947, -0.05690668150782585, 0.34423524141311646, -0.19259309768676758], [-1.0653369426727295, -0.18760323524475098, -0.04875871166586876, 0.575592577457428, -0.41372331976890564, -0.45998695492744446, -0.14691434800624847, -0.21697089076042175, -0.14604860544204712, -0.20819959044456482, -0.44071608781814575, 0.48648709058761597, 0.6226087212562561, -0.7854025959968567, 0.37290698289871216, -0.03374531492590904, 0.1290421038866043, -0.26475799083709717, 0.09548967331647873, 0.3829692602157593], [-0.2428804486989975, -0.26890259981155396, -0.2322002798318863, -0.1678066998720169, -0.28615498542785645, -0.32511138916015625, -0.8753829002380371, 0.34367647767066956, -0.47047099471092224, -0.556361734867096, 0.024863077327609062, 0.0360119566321373, 0.1369355469942093, -0.1964120715856552, -0.48753488063812256, 0.4783588945865631, -0.4695936441421509, 0.013444555923342705, 0.34067147970199585, -0.37953293323516846], [-0.07844947278499603, -0.10818678140640259, 0.23565222322940826, 0.08604691177606583, -0.035477641969919205, 0.10954215377569199, 0.15885190665721893, -0.16496703028678894, 0.1829516589641571, 0.02766409143805504, -0.30889809131622314, 0.1594005972146988, -0.08560603111982346, -0.2625431716442108, 0.07698509842157364, -0.0667446106672287, 0.05999111384153366, 0.14573994278907776, -0.1666688621044159, 0.2822188138961792], [-0.09007133543491364, 0.014193981885910034, 0.0347985103726387, 0.008861604146659374, -0.006621197797358036, 0.21148890256881714, -0.12913909554481506, 0.06443379819393158, -0.0116258030757308, 0.0075692725367844105, 0.0718681663274765, -0.1422404795885086, -0.12010746449232101, -0.012411603704094887, -0.15173828601837158, 0.22383089363574982, -0.004593341611325741, -0.006462815683335066, -0.18810929358005524, -0.286793977022171], [-0.15935568511486053, 0.21615813672542572, -0.05024990811944008, -0.1852935552597046, 0.026226457208395004, -0.31381216645240784, 0.08510656654834747, -0.27120479941368103, 0.259930282831192, -0.22520922124385834, -0.31369420886039734, 0.4876668453216553, 0.15736068785190582, -0.5669198632240295, 0.23039406538009644, -0.28682059049606323, 0.24275563657283783, 0.005917660426348448, -0.17250551283359528, 0.33904504776000977], [0.32448360323905945, -0.1879711151123047, -0.19639930129051208, -0.156266450881958, -0.11658592522144318, 0.2445550560951233, -0.17150133848190308, 0.02568901516497135, -0.30660098791122437, 0.3271205425262451, -0.009796500205993652, -0.19706843793392181, -0.5423386096954346, -0.11548543721437454, -0.0462302640080452, -0.13221782445907593, -0.13265185058116913, 0.314611554145813, 0.09186098724603653, -0.1387830227613449], [0.015980208292603493, -0.14999794960021973, 0.05849197506904602, 0.25409814715385437, -0.23640315234661102, 0.2570459544658661, -0.19204233586788177, -0.15242865681648254, -0.12356641888618469, 0.3303345739841461, 0.06834615021944046, -0.35607215762138367, -0.5739200711250305, -0.08954823017120361, 0.14144544303417206, 0.14935211837291718, -0.003518603276461363, -0.00617096247151494, -0.15695104002952576, -0.017774377018213272], [0.054390765726566315, 0.10026721656322479, 0.0622100904583931, -0.09400466084480286, 0.0831030011177063, 0.3671087920665741, 0.11350958049297333, -0.050642240792512894, 0.21841731667518616, 0.15868878364562988, 0.4273568093776703, -0.11883960664272308, -0.09506545215845108, 0.32025179266929626, 0.03145403042435646, -0.3194122314453125, 0.026295648887753487, 0.5493484139442444, 0.056442659348249435, 0.07868845015764236], [0.5141516327857971, 0.11624295264482498, -0.06815540045499802, 0.10745684802532196, 0.10460641980171204, 0.20554517209529877, -0.02389455959200859, 0.0694156140089035, 0.1879909187555313, -0.1440373808145523, -0.11125463247299194, -0.0731983333826065, -0.3003828227519989, -0.10756199806928635, -0.32672950625419617, 0.056612078100442886, 0.0994296595454216, 0.1074623316526413, 0.14811287820339203, -0.2627699077129364], [0.08319869637489319, -0.11495458334684372, 0.06930050253868103, 0.11801254749298096, -0.027141090482473373, -0.3393840789794922, 0.29204675555229187, 0.08719362318515778, 0.12596164643764496, -0.06881054490804672, -0.3976258337497711, 0.3684837222099304, 0.0748952105641365, -0.0436987467110157, 0.43036407232284546, 0.01847217231988907, 0.1757703572511673, -0.06602851301431656, -0.19524116814136505, 0.14866094291210175], [-0.1039118841290474, -0.22663293778896332, -0.07549005001783371, -0.22184358537197113, 0.31166940927505493, -0.10043729841709137, -0.10666687041521072, -0.010145620442926884, 0.0650738775730133, -0.19010619819164276, -0.0036250194534659386, 0.3845457136631012, 0.7761948108673096, -0.5827722549438477, 0.2874428629875183, -0.09035435318946838, -0.1800597608089447, -0.2987995147705078, -0.07621318101882935, 0.1860308200120926], [-0.0025011259131133556, -0.0771382749080658, -0.014786619693040848, 0.04705367237329483, 0.44668257236480713, -0.03585303574800491, 0.38222143054008484, -0.44568973779678345, 0.4894663989543915, -0.07454562932252884, 0.06945290416479111, 0.41834452748298645, -0.2059151530265808, -0.27102580666542053, 0.21103017032146454, -0.1583031266927719, 0.47872352600097656, 0.8659535050392151, -0.1249808818101883, -0.03627130389213562], [0.22101490199565887, 0.21467655897140503, -0.2522420883178711, 0.09548307210206985, -0.20241113007068634, 0.24730919301509857, -0.08263284713029861, 0.1916152983903885, -0.046860530972480774, 0.3108215928077698, -0.1336548775434494, -0.5466107130050659, -0.6118706464767456, -0.03760039806365967, -0.10647416859865189, 0.08323005586862564, 0.5706614851951599, 0.18959739804267883, -0.37785738706588745, -0.062444303184747696], [0.15760517120361328, -0.2124076634645462, -0.2713705599308014, 0.16134300827980042, -0.03058077208697796, 0.08914689719676971, -0.019768252968788147, 0.24562877416610718, -0.19202810525894165, 0.1793646216392517, -0.7000960111618042, -1.2350836992263794, -0.12901370227336884, 0.008116346783936024, 0.041396353393793106, 0.1355496197938919, -0.09061949700117111, 0.2250661998987198, -0.33083969354629517, -0.0725797489285469], [0.5251450538635254, -0.025097373872995377, -0.11757490038871765, -0.5792111158370972, 0.04409465566277504, 0.6206708550453186, 0.6236916184425354, 0.12240737676620483, -0.5795498490333557, 0.26625362038612366, 0.005464367102831602, -0.263857901096344, -0.8390233516693115, 0.5804926156997681, -0.5534044504165649, -0.29364141821861267, 0.16269853711128235, 0.5828564763069153, 0.04054999351501465, -0.8761495351791382], [-0.4996376037597656, -0.018734818324446678, -0.10612685978412628, 0.3683317303657532, 0.16721639037132263, -0.2777765393257141, 0.15130433440208435, -0.10017597675323486, 0.03817225620150566, -0.220967099070549, -0.029947230592370033, 0.07085063308477402, 0.4122057259082794, -0.3729745149612427, 0.343350887298584, -0.1433071494102478, -0.37115058302879333, -0.2782917320728302, -0.2922055125236511, 0.22509440779685974], [0.16876554489135742, 0.11774250119924545, 0.18070265650749207, 0.1706288605928421, -0.005893871653825045, -0.26211628317832947, -0.20360660552978516, 0.23374590277671814, 0.5242514610290527, -0.1926952600479126, -0.2574615776538849, -0.25137898325920105, 0.42623046040534973, -0.567602813243866, 0.5247060060501099, 0.30783575773239136, 0.07199345529079437, -0.2978479266166687, -0.39672309160232544, 0.08589489012956619], [0.09555159509181976, -0.15835395455360413, 0.2330908179283142, 0.03633738309144974, 0.10139714181423187, -0.07581368088722229, 0.06611626595258713, -0.27967116236686707, -0.11061932146549225, 0.28008848428726196, -0.04454032704234123, -0.0010511380387470126, 0.21573489904403687, -0.05138443410396576, 0.44174838066101074, -0.2586901783943176, -0.103551484644413, -0.068196602165699, -0.17861047387123108, 0.17988549172878265], [-0.2461119145154953, -0.06947091966867447, -0.14145438373088837, -0.14112594723701477, 0.038632865995168686, -0.1290082484483719, -0.5004202127456665, -0.17690348625183105, 0.45812320709228516, 0.06424179673194885, -0.40657976269721985, 0.25013768672943115, -0.007113561499863863, -0.3209308385848999, -0.02754829451441765, 0.09440843015909195, 0.12706509232521057, -0.07736148685216904, -0.3942643404006958, -0.06175432354211807], [0.02357329986989498, -0.45065248012542725, 0.21712839603424072, 0.157137930393219, -0.0733896940946579, -0.2604128122329712, 0.0003054856788367033, -0.5254772305488586, 0.2927802503108978, 0.2572949528694153, -0.8423900604248047, 0.5641305446624756, -0.340846449136734, -0.8175836205482483, 0.28239914774894714, -0.22065873444080353, 0.09042919427156448, 0.03342927619814873, -0.12694697082042694, 0.3555752635002136], [0.7447898387908936, -0.5860820412635803, -0.20836497843265533, -0.39402881264686584, 0.5859879851341248, 0.23763853311538696, -0.22606974840164185, 0.10915233939886093, 0.7035191059112549, -0.08267152309417725, 0.2176586538553238, -0.3159794211387634, 0.15469123423099518, 0.19700664281845093, -0.15391770005226135, 0.019827550277113914, -1.0455902814865112, 0.02197001501917839, -0.2973595857620239, -0.2167382687330246], [-0.08124753087759018, -0.006631572265177965, -0.20509439706802368, -0.22068528831005096, -0.27852681279182434, -0.5068776607513428, -0.0052687181159853935, -0.23705969750881195, 0.07171549648046494, -0.13645575940608978, -0.5232163667678833, -0.3367210030555725, 0.12055682390928268, 0.13999632000923157, 0.18503005802631378, 0.2449778914451599, 0.09478083997964859, -0.18480588495731354, 0.47441768646240234, -0.10477467626333237], [0.030133312568068504, -0.2556246221065521, -0.057836465537548065, 0.10934764891862869, -0.059411533176898956, 0.028368206694722176, 0.27370357513427734, 0.07714348286390305, -0.5985185503959656, 0.29554930329322815, 0.42169705033302307, 0.22735342383384705, -0.0049474528059363365, 0.05686624348163605, -0.07036226987838745, -0.38485440611839294, -0.3667890131473541, 0.3325152099132538, -0.19020980596542358, -0.18644607067108154], [-0.5504740476608276, 0.03998655825853348, -0.32795965671539307, -0.02586030773818493, -0.20412759482860565, -0.46138137578964233, -0.48402950167655945, 0.29460492730140686, 0.11336684972047806, -0.37367454171180725, 0.26670196652412415, -0.24955616891384125, 0.5499117970466614, 0.03778193145990372, -0.14336493611335754, 0.50734943151474, -0.4811612367630005, -0.39305543899536133, 0.017179755493998528, -0.046606577932834625], [0.2581324577331543, -0.26438748836517334, -0.11168593168258667, -0.17730844020843506, -0.015757672488689423, 0.13031359016895294, -0.08368554711341858, 0.06871620565652847, 0.061991654336452484, -0.017587734386324883, 0.5387519001960754, 0.041825149208307266, -0.02630046382546425, 0.44977378845214844, -0.36205577850341797, 0.21295785903930664, -0.44491130113601685, 0.06809837371110916, 0.028497718274593353, -0.26478689908981323], [-0.1265425980091095, 0.1459285318851471, -0.029495280236005783, 0.16028617322444916, -0.33532992005348206, -0.02486775815486908, -0.07233352214097977, -0.0717424526810646, 0.14634883403778076, 0.009522340260446072, -0.028967203572392464, 0.07851298153400421, 0.25774505734443665, -0.2921241521835327, 0.038136083632707596, -0.04008707404136658, 0.11817347258329391, -0.3416095972061157, -0.23547083139419556, 0.07268846780061722], [0.29973649978637695, -0.0319005586206913, 0.03619038686156273, -0.06453447788953781, 0.08921786397695541, 0.2401917427778244, -0.16279979050159454, 0.01986073888838291, 0.060439109802246094, -0.1277192234992981, -0.14577366411685944, 0.09285162389278412, 0.09225710481405258, 0.030541399493813515, -0.02509263902902603, 0.06994522362947464, 0.13151024281978607, -0.10206031054258347, -0.26462310552597046, -0.012430832721292973], [-0.03911831974983215, 0.020736906677484512, -0.14364764094352722, 0.18392078578472137, -0.39998599886894226, -0.07923866808414459, -0.14891275763511658, 0.14854206144809723, -0.10731241106987, 0.14383231103420258, 0.25919654965400696, -0.08131760358810425, -0.03231605514883995, -0.10050632059574127, -0.1611635535955429, 0.21424204111099243, -0.08974864333868027, 0.13512252271175385, 0.011195325292646885, 0.03569911792874336], [-0.1815415620803833, -0.1037854254245758, -0.23459652066230774, 0.07933077216148376, 0.10081958025693893, -0.5574597120285034, -0.25379738211631775, 0.31235936284065247, -0.18384362757205963, -0.15154998004436493, -0.18985868990421295, -0.32288360595703125, 0.34740620851516724, 0.1880604773759842, 0.20080117881298065, -0.022506078705191612, 0.11129389703273773, -0.3448224365711212, 0.3732411563396454, -0.21836437284946442], [-0.13583257794380188, -0.1708216518163681, -0.05728680640459061, -0.27466699481010437, 0.04191020876169205, 0.13634561002254486, -0.16401423513889313, 0.02895546890795231, -0.3397948145866394, -0.14241117238998413, 0.5444177389144897, 0.27075737714767456, -0.007016022689640522, 0.4418250024318695, -0.1363816261291504, 0.12016113102436066, -0.036817412823438644, -0.46707719564437866, 0.29517585039138794, -0.32806289196014404], [-0.0282752625644207, -0.0008497924427501857, 0.06995649635791779, 0.11470004916191101, -0.18174846470355988, 0.08729299157857895, 0.17778976261615753, 0.020390570163726807, 0.14031684398651123, -0.10746455192565918, 0.05171602591872215, 0.09228236973285675, -0.08429310470819473, -0.2104364037513733, 0.30697140097618103, 0.10389730334281921, 0.09724432229995728, 0.039751939475536346, -0.528242826461792, 0.30153706669807434], [0.0604332834482193, -0.1739799976348877, 0.2567687928676605, 0.5154226422309875, 0.18414972722530365, 0.10590652376413345, -0.025189979001879692, -0.4434810280799866, 0.200059711933136, 0.271300345659256, 0.11276569962501526, 0.7244073152542114, -0.5081145167350769, -0.28025105595588684, 0.06809576600790024, -0.31325745582580566, 0.11980155110359192, -0.09309311956167221, -0.2157949060201645, -0.016378913074731827], [-0.08358407020568848, -0.19214533269405365, -0.04897571727633476, 0.090440534055233, -0.14972427487373352, -0.144480898976326, -0.5497103333473206, 0.04866551607847214, 0.007596767507493496, -0.43439748883247375, -0.03725530207157135, -0.1278494894504547, 0.029789883643388748, -0.18395216763019562, -0.36776137351989746, 0.45256397128105164, 0.06996901333332062, 0.057865116745233536, 0.3278003931045532, -0.06464868038892746], [0.056586556136608124, -0.14291870594024658, -0.11144322156906128, -0.2713470160961151, -0.184629887342453, -0.06303606182336807, -0.10105043649673462, 0.2184382975101471, -0.2886747121810913, -0.2730126976966858, -0.005234051030129194, -0.5515550374984741, 0.19887909293174744, 0.44092223048210144, -0.3520021140575409, 0.3673417270183563, -0.11739643663167953, 0.03889917582273483, 0.2702527344226837, -0.3318192660808563], [0.08287829160690308, -0.15964806079864502, 0.05927567556500435, 0.6576859354972839, 0.41768133640289307, -0.13739171624183655, -0.22784438729286194, -0.026463408023118973, 0.8404722809791565, 0.04844600334763527, -1.1633656024932861, -0.6972047090530396, 0.17593759298324585, -0.22134193778038025, 0.11850371211767197, 0.2517688274383545, 0.39573025703430176, -0.3389999568462372, -0.5992933511734009, 0.08607253432273865], [-0.22095146775245667, 0.029560472816228867, -0.0927000567317009, 0.3668682873249054, 0.2508597671985626, -0.7779771685600281, -0.8313714861869812, 0.10014045983552933, 0.5903612971305847, -0.32375186681747437, -0.357896625995636, -0.15775319933891296, 0.6377494931221008, -0.3930196762084961, 0.2357090711593628, 0.3639213442802429, 0.20662645995616913, -0.7545412182807922, -0.36857566237449646, -0.06070767715573311], [0.3036564588546753, -0.12455791980028152, -0.032088179141283035, 0.06562711298465729, 0.17768153548240662, 0.04805543273687363, -0.24184340238571167, 0.13518723845481873, 0.23511245846748352, 0.008221805095672607, 0.16731923818588257, 0.145017609000206, -0.17830073833465576, 0.3015845715999603, -0.20771479606628418, 0.014197411946952343, 0.13293161988258362, 0.10490348935127258, -0.18960188329219818, -0.21441228687763214], [-0.05329832807183266, 0.04818401113152504, -0.341264009475708, -0.11931551992893219, -0.021493161097168922, -0.32623451948165894, -0.03824102133512497, 0.18687093257904053, -0.040072306990623474, -0.6481069922447205, -0.4680875837802887, -0.6138981580734253, 0.7443004846572876, -0.18656349182128906, 0.09618891030550003, 0.20606625080108643, -0.05673854425549507, -0.5686063170433044, 0.04099629446864128, -0.1260572224855423], [-0.48652490973472595, -0.28817352652549744, 0.012900249101221561, 0.19481906294822693, -0.04723738878965378, -0.1711844801902771, 0.03330124169588089, -0.0974666029214859, -0.21398212015628815, -0.17502951622009277, -0.3276771306991577, 0.271828830242157, 0.36412936449050903, -0.2113451361656189, 0.32056838274002075, -0.16249364614486694, -0.19797827303409576, -0.4922181963920593, -0.2297917902469635, 0.3028884530067444], [0.4531400203704834, -0.3650927245616913, -0.20125648379325867, -0.07388301938772202, -0.16628316044807434, 0.10546709597110748, 0.011699717491865158, 0.13755030930042267, 0.24942812323570251, 0.27049294114112854, 0.48835164308547974, -0.4702461361885071, -0.06917446851730347, 0.8830602169036865, -0.2051386684179306, 0.01159078348428011, 0.03917321190237999, 0.2013425976037979, -0.058149490505456924, -0.22080154716968536], [-0.37888726592063904, -0.3320119082927704, 0.2612706422805786, -0.02322089858353138, 0.26750805974006653, -0.30862367153167725, -0.3083575367927551, -0.18290869891643524, -0.726901113986969, -0.3947715759277344, 0.07191801071166992, -0.11586196720600128, 1.1350882053375244, 0.015487642027437687, 0.5525737404823303, -0.015363994054496288, -0.5466234087944031, -0.5737195014953613, 0.601483166217804, -0.08730389177799225], [-0.2631654143333435, -0.2747849225997925, -0.11175055801868439, 0.27782750129699707, -0.3517210781574249, -0.1608484536409378, -0.2642413377761841, 0.046722885221242905, -0.3321937620639801, -0.2300272434949875, 0.5009585618972778, 0.44629424810409546, 0.049590982496738434, -0.14995358884334564, -0.10310932993888855, 0.17976653575897217, -0.3244003355503082, -0.24259620904922485, 0.3712567687034607, 0.005740912165492773], [0.023820769041776657, -0.011995437555015087, -0.10097072273492813, 0.19521987438201904, -0.1516295224428177, -0.04467000439763069, 0.07415316253900528, 0.02820252627134323, 0.10537416487932205, -0.14921164512634277, -0.17804469168186188, -0.17138926684856415, 0.04150799289345741, -0.3181222379207611, 0.2269820272922516, -0.014612085185945034, 0.1423116773366928, -0.20977316796779633, -0.27587464451789856, -0.0016842298209667206]], "rec.bias_ih_l0": [-0.2313176542520523, 0.2256532460451126, -0.06332443654537201, 0.06174512207508087, -0.16560235619544983, 0.4869110584259033, 0.4239886701107025, -0.15839169919490814, 0.10904768854379654, -0.048722948879003525, 0.28529396653175354, 0.19421368837356567, 0.18378137052059174, 0.5261603593826294, 0.34868869185447693, 0.09511291980743408, -0.13267263770103455, 0.275858998298645, -0.013324267230927944, 0.04840296134352684, 0.30044323205947876, 0.1425086259841919, 0.05439820513129234, -0.05034501850605011, -0.047994665801525116, -0.08906088024377823, 0.12671858072280884, -0.231032595038414, 0.5080665349960327, 0.26317283511161804, -0.347829133272171, -0.36476388573646545, 0.044860199093818665, -0.24990946054458618, 0.1902434080839157, 0.17738929390907288, 0.1533759981393814, 0.0812959298491478, 0.5211614966392517, -0.1927245408296585, 0.15031452476978302, 0.15710777044296265, 0.025814082473516464, 0.09872636944055557, 0.0016395646380260587, 0.12383491545915604, -0.07851063460111618, 0.24903975427150726, -0.12510129809379578, -0.035079360008239746, -0.015702776610851288, 0.0596231110394001, -0.1572376787662506, -0.07005169987678528, -0.28420504927635193, -0.018357818946242332, -0.08390845358371735, 0.03158390894532204, -0.03234506770968437, -0.19469328224658966, 0.44146233797073364, 0.12300368398427963, -0.13618560135364532, 0.04422122612595558, 0.13349385559558868, -0.015389308333396912, 0.25439414381980896, 0.09048058092594147, 0.20473285019397736, 0.39090609550476074, 0.2615637481212616, 0.25631317496299744, 0.3798736333847046, 0.11650034785270691, 0.014674819074571133, 0.131956085562706, -0.059699490666389465, 0.19794274866580963, 0.33198925852775574, 0.20554108917713165], "rec.bias_hh_l0": [-0.031521718949079514, 0.18256467580795288, -0.18252970278263092, 0.07750185579061508, -0.1402231603860855, 0.13924530148506165, 0.3455985486507416, 0.11697741597890854, 0.00539091182872653, -0.09816635400056839, 0.04763463884592056, 0.18031930923461914, 0.26209065318107605, 0.583537757396698, 0.3511340320110321, 0.04652950540184975, -0.15182022750377655, 0.4995889961719513, -0.2369324266910553, 0.2851542532444, 0.427844375371933, 0.18426711857318878, -0.21106085181236267, -0.034077275544404984, -0.021484673023223877, 0.049335088580846786, 0.3217310905456543, -0.07962851971387863, 0.2819339632987976, 0.4235546886920929, -0.3710509240627289, -0.5857495069503784, 0.28409355878829956, -0.2499745488166809, 0.054863061755895615, 0.07757262885570526, 0.10503237694501877, -0.025285186246037483, 0.5359950661659241, -0.2988346219062805, 0.04867596924304962, -0.038879185914993286, -0.024982139468193054, -0.19011349976062775, 0.22923177480697632, -0.12045935541391373, -0.06501118838787079, 0.04723696783185005, 0.11173059791326523, -0.05770144611597061, -0.11008410155773163, 0.033696647733449936, -0.14386439323425293, 0.16770049929618835, -0.23805348575115204, 0.1518803834915161, 0.22562198340892792, 0.02002563513815403, -0.02697884663939476, -0.1506773680448532, 0.20749934017658234, 0.22736850380897522, 0.049180857837200165, 0.23978164792060852, -0.11928088217973709, 0.11016719788312912, 0.3672332465648651, -0.005777337588369846, -0.05838625133037567, 0.3437754511833191, 0.1817207634449005, 0.2888880968093872, 0.5553070902824402, 0.19268250465393066, 0.13273556530475616, 0.04509400203824043, 0.23891890048980713, 0.06429077684879303, 0.3565604090690613, 0.03133692592382431], "lin.weight": [[0.18576715886592865, -0.19877339899539948, 0.262350469827652, 0.10883540660142899, 0.33210381865501404, -0.39237186312675476, -0.08887158334255219, -0.052069492638111115, -0.06288682669401169, 0.028572868555784225, -0.1283237487077713, -0.26491278409957886, 0.15616047382354736, 0.013388133607804775, 0.28602680563926697, -0.12076456099748611, 0.11888888478279114, -1.0608211755752563, -0.1833529770374298, 0.23154328763484955]], "lin.bias": [0.11516627669334412]}}