{
    "in_shape": [
        32,
        0,
        1
    ],
    "layers": [
        {
            "type": "gru",
            "activation": "tanh",
            "shape": [
                32,
                0,
                64
            ],
            "weights": [
                [
                    [
                        -0.13131332397460938,
                        0.5236828327178955,
                        0.4078328013420105,
                        -0.31145045161247253,
                        -0.027689475566148758,
                        -0.13999031484127045,
                        -1.461840033531189,
                        -0.19422249495983124,
                        0.01946430280804634,
                        -0.9515568017959595,
                        -0.42732006311416626,
                        -1.1020463705062866,
                        0.2287919521331787,
                        -3.549516201019287,
                        -0.23022916913032532,
                        -0.5195275545120239,
                        0.8164232969284058,
                        0.9168189167976379,
                        2.5147831439971924,
                        0.13003100454807281,
                        1.2414010763168335,
                        1.0465224981307983,
                        -0.7373776435852051,
                        -0.22399389743804932,
                        -2.999553680419922,
                        -0.7229450345039368,
                        0.7289324998855591,
                        0.9983195662498474,
                        -0.31963667273521423,
                        1.3299055099487305,
                        0.3412448465824127,
                        0.07572124153375626,
                        -0.2982119619846344,
                        0.4504486918449402,
                        -1.9063084125518799,
                        0.6259389519691467,
                        -1.1625131368637085,
                        -0.31809157133102417,
                        0.17620046436786652,
                        -1.0238193273544312,
                        -0.7407335638999939,
                        0.862811803817749,
                        0.3396341800689697,
                        -0.1734682023525238,
                        -0.8718861937522888,
                        0.9338629841804504,
                        -0.7812795042991638,
                        -0.41300535202026367,
                        -0.4525761306285858,
                        -0.558485209941864,
                        -0.7693192362785339,
                        -1.2845430374145508,
                        1.604169249534607,
                        -0.77445387840271,
                        2.5485053062438965,
                        -0.08442641794681549,
                        0.6174928545951843,
                        1.285042643547058,
                        0.3585509955883026,
                        -0.0932573452591896,
                        0.24157096445560455,
                        -1.2756973505020142,
                        -0.3677562177181244,
                        2.0073819160461426,
                        -0.5825463533401489,
                        0.16111989319324493,
                        -1.1772490739822388,
                        -0.2544180452823639,
                        0.3405807614326477,
                        -0.3382764160633087,
                        -1.1274724006652832,
                        -1.3133000135421753,
                        0.9964290857315063,
                        -0.07973837107419968,
                        0.3405340313911438,
                        -0.9126592874526978,
                        -0.7276750802993774,
                        -0.7365549206733704,
                        0.8153505325317383,
                        0.5789012312889099,
                        -0.0616789273917675,
                        0.8701967597007751,
                        -0.42283180356025696,
                        -0.8794870376586914,
                        0.46612823009490967,
                        0.5699055194854736,
                        -0.9134204983711243,
                        -0.2979189157485962,
                        -1.1930091381072998,
                        0.02260969765484333,
                        0.17226406931877136,
                        0.2951565384864807,
                        -0.26558175683021545,
                        1.3148512840270996,
                        0.1674211472272873,
                        -0.31794121861457825,
                        -0.39890122413635254,
                        -0.15297479927539825,
                        2.040091037750244,
                        -0.1582389622926712,
                        -0.41519245505332947,
                        -1.2613328695297241,
                        -1.400412917137146,
                        0.04424744099378586,
                        -0.2741411030292511,
                        -0.262177973985672,
                        -1.0650759935379028,
                        0.6843920946121216,
                        -0.6579962372779846,
                        -0.57103031873703,
                        0.807314395904541,
                        -0.4050857424736023,
                        -0.7073031663894653,
                        -0.5922653079032898,
                        -0.31221187114715576,
                        0.2275334894657135,
                        -3.268214464187622,
                        -0.040978796780109406,
                        0.3787434995174408,
                        -0.8591546416282654,
                        -0.5081456899642944,
                        0.6362505555152893,
                        1.0910084247589111,
                        -0.37417155504226685,
                        -0.15623284876346588,
                        -0.7178882360458374,
                        0.35309427976608276,
                        0.3431554436683655,
                        -0.33304330706596375,
                        -0.049141883850097656,
                        0.28928402066230774,
                        0.5543856620788574,
                        0.022726794704794884,
                        -0.16869626939296722,
                        -0.6851964592933655,
                        -1.1918851137161255,
                        -1.0785906314849854,
                        -0.8351146578788757,
                        0.34152334928512573,
                        -1.548516035079956,
                        -0.24965645372867584,
                        0.47464627027511597,
                        0.28852349519729614,
                        1.160881519317627,
                        0.8511807322502136,
                        1.7611809968948364,
                        0.24236464500427246,
                        -0.24271903932094574,
                        -1.071378231048584,
                        -1.4223430156707764,
                        1.061299443244934,
                        -0.08435371518135071,
                        0.022031819447875023,
                        0.7900812029838562,
                        0.10325460135936737,
                        0.48722612857818604,
                        -0.7063948512077332,
                        -1.5976938009262085,
                        0.22953130304813385,
                        -0.28298184275627136,
                        -0.7515680193901062,
                        -0.05757538229227066,
                        -2.198676109313965,
                        -0.1910993903875351,
                        0.7959670424461365,
                        -0.7389490604400635,
                        1.2930976152420044,
                        0.5530447363853455,
                        0.40251749753952026,
                        -0.6551074981689453,
                        -0.7663218975067139,
                        -0.16753247380256653,
                        4.883743762969971,
                        1.4580172300338745,
                        -0.7238457798957825,
                        -0.984056293964386,
                        5.229935169219971,
                        -5.981583118438721,
                        0.3056584894657135,
                        -0.4154689908027649,
                        -0.9918991327285767,
                        -0.9085966944694519,
                        0.23480509221553802,
                        0.30979740619659424,
                        0.7405943274497986,
                        -0.5683454275131226,
                        3.850099802017212,
                        0.2892850935459137,
                        0.3815160393714905,
                        1.0881773233413696,
                        0.1027904525399208,
                        -0.027823813259601593
                    ]
                ],
                [
                    [
                        -1.125990390777588,
                        0.07264954596757889,
                        0.5977770090103149,
                        -0.1376807540655136,
                        -1.2741538286209106,
                        -0.6612851619720459,
                        0.7171214818954468,
                        0.002320791594684124,
                        -0.4613450765609741,
                        0.3610627353191376,
                        0.3927684426307678,
                        0.6792796850204468,
                        -1.5666815042495728,
                        1.9799662828445435,
                        -0.22071604430675507,
                        0.23065060377120972,
                        0.30026787519454956,
                        -0.30467700958251953,
                        -0.043775711208581924,
                        0.7089462876319885,
                        0.27167168259620667,
                        0.7015827894210815,
                        -0.5115706324577332,
                        -1.4187648296356201,
                        1.7733250856399536,
                        -0.27018073201179504,
                        0.18120837211608887,
                        -0.35680848360061646,
                        -0.6101379990577698,
                        0.29310473799705505,
                        0.5056488513946533,
                        -0.22560369968414307,
                        0.504737377166748,
                        -1.3089672327041626,
                        1.0019227266311646,
                        -0.6227654814720154,
                        -0.014952391386032104,
                        0.401137113571167,
                        0.36744046211242676,
                        0.6847897171974182,
                        0.42942196130752563,
                        -0.3756001889705658,
                        0.4788127541542053,
                        -0.034392520785331726,
                        0.702321469783783,
                        -0.704691469669342,
                        0.5543603301048279,
                        1.7411221265792847,
                        0.4586881995201111,
                        0.40950819849967957,
                        0.9249439835548401,
                        -0.7751291394233704,
                        -0.5499101281166077,
                        -0.22253109514713287,
                        -1.1356689929962158,
                        0.16072550415992737,
                        -0.4120369553565979,
                        0.6366077661514282,
                        0.6176491975784302,
                        -0.035801660269498825,
                        0.021662455052137375,
                        0.33873066306114197,
                        -0.9098924994468689,
                        -1.0884711742401123,
                        -0.08624722808599472,
                        -0.36786067485809326,
                        -0.3431152403354645,
                        -0.27973857522010803,
                        0.13324226438999176,
                        -0.6288639307022095,
                        -0.29379338026046753,
                        -0.03491705283522606,
                        0.039294928312301636,
                        -0.24642881751060486,
                        -0.23244571685791016,
                        0.028492650017142296,
                        0.03173938766121864,
                        0.047023892402648926,
                        0.047277290374040604,
                        -0.2018895447254181,
                        -0.10179951041936874,
                        0.3346821367740631,
                        -0.2931053936481476,
                        -0.033347368240356445,
                        -0.07541875541210175,
                        -0.3398597836494446,
                        0.48670434951782227,
                        -0.02160692773759365,
                        0.41732144355773926,
                        0.08267423510551453,
                        0.04004532843828201,
                        0.026961440220475197,
                        -0.31480133533477783,
                        0.09976598620414734,
                        -0.3553750216960907,
                        -0.14907214045524597,
                        -0.502260148525238,
                        0.1001066341996193,
                        -0.3869589567184448,
                        0.15368714928627014,
                        -0.1462172567844391,
                        -0.456849604845047,
                        -0.20787343382835388,
                        -0.029678193852305412,
                        -0.025947879999876022,
                        0.5149453282356262,
                        -0.37384217977523804,
                        0.14563247561454773,
                        -0.1682233363389969,
                        -0.21362243592739105,
                        0.10499098896980286,
                        0.056809596717357635,
                        0.0004171585023868829,
                        0.13501642644405365,
                        -0.22821033000946045,
                        -0.06040206551551819,
                        0.45289456844329834,
                        -0.02319423109292984,
                        -0.45167380571365356,
                        0.5580450296401978,
                        -0.09896450489759445,
                        -0.6120249629020691,
                        0.19815270602703094,
                        0.09215711802244186,
                        -0.25378933548927307,
                        0.2432468831539154,
                        0.030551724135875702,
                        -0.6235517859458923,
                        -0.1359272301197052,
                        0.16638143360614777,
                        -0.49100765585899353,
                        -0.1458023488521576,
                        0.40822869539260864,
                        0.27471089363098145,
                        0.023502172902226448,
                        0.0021025415044277906,
                        0.13550758361816406,
                        -0.12928850948810577,
                        0.1826753318309784,
                        -0.024519044905900955,
                        -0.3756190538406372,
                        -0.2799714207649231,
                        0.07524282485246658,
                        -0.6892768740653992,
                        -0.09426578134298325,
                        -0.06575339287519455,
                        0.3249068558216095,
                        -0.2462375909090042,
                        -0.23171888291835785,
                        -0.10410866886377335,
                        -0.04674931615591049,
                        0.3547103703022003,
                        0.28058290481567383,
                        0.06716544181108475,
                        -0.2882816195487976,
                        -0.34808072447776794,
                        0.12271668761968613,
                        0.16130274534225464,
                        -0.1783280372619629,
                        0.2615335285663605,
                        -0.169960156083107,
                        -0.22386111319065094,
                        0.3625165522098541,
                        -0.2740323543548584,
                        -0.02775035798549652,
                        -0.14209671318531036,
                        -0.2773638665676117,
                        -0.10384665429592133,
                        -0.7322399616241455,
                        -0.4590173065662384,
                        -0.0025930211413651705,
                        0.2981409728527069,
                        -0.2370680719614029,
                        0.14687028527259827,
                        -0.061712104827165604,
                        0.2577994167804718,
                        0.07301015406847,
                        0.0833176001906395,
                        0.049248501658439636,
                        -0.23941241204738617,
                        0.2509554922580719,
                        0.16975584626197815,
                        0.1297931671142578,
                        0.28367719054222107,
                        0.0034796996042132378,
                        0.6750414371490479,
                        -0.15728938579559326,
                        -0.08432447165250778,
                        0.3503492772579193,
                        -0.2441663146018982,
                        -0.6481137871742249,
                        -0.2735050320625305
                    ],
                    [
                        -0.13649892807006836,
                        -0.75569748878479,
                        -2.0733723640441895,
                        -0.6856953501701355,
                        0.20248080790042877,
                        -0.886446475982666,
                        -0.14142060279846191,
                        -0.34235531091690063,
                        -0.629947304725647,
                        -0.7541552782058716,
                        -0.3320741057395935,
                        -0.539949893951416,
                        1.9534491300582886,
                        -0.289332777261734,
                        -0.506352961063385,
                        -0.855122447013855,
                        -1.3210833072662354,
                        -2.2080657482147217,
                        0.617119550704956,
                        0.4512268006801605,
                        -0.8209468722343445,
                        -0.20309703052043915,
                        -0.592625081539154,
                        0.22809283435344696,
                        -0.4198138117790222,
                        0.40158388018608093,
                        -0.6610517501831055,
                        0.08851919323205948,
                        -0.8798232078552246,
                        -0.8213380575180054,
                        0.24738247692584991,
                        0.07531985640525818,
                        -0.6654316186904907,
                        1.0268876552581787,
                        -0.34682145714759827,
                        -0.4659440517425537,
                        -1.0565125942230225,
                        -0.5909316539764404,
                        -0.7787651419639587,
                        -0.33664944767951965,
                        0.4902589023113251,
                        -0.018846381455659866,
                        0.5032050013542175,
                        0.5158157348632812,
                        -0.3961733281612396,
                        0.9803921580314636,
                        -0.4511909782886505,
                        -0.3014630973339081,
                        -0.6933321356773376,
                        -0.3676470220088959,
                        -0.44354453682899475,
                        0.17464478313922882,
                        -0.22617532312870026,
                        1.0069580078125,
                        -0.37269696593284607,
                        -0.4210980236530304,
                        0.45129522681236267,
                        -0.07902874797582626,
                        -0.28592249751091003,
                        0.42391082644462585,
                        -0.6362748742103577,
                        0.21034502983093262,
                        -0.3194696009159088,
                        -0.07810776680707932,
                        0.43495622277259827,
                        0.14868177473545074,
                        0.08803645521402359,
                        0.049940112978219986,
                        -0.16268037259578705,
                        0.05518230423331261,
                        0.21534469723701477,
                        0.3424059748649597,
                        -0.36689573526382446,
                        0.21458040177822113,
                        0.19056518375873566,
                        0.26268041133880615,
                        0.18254944682121277,
                        0.14886502921581268,
                        0.3341817557811737,
                        -0.07323668897151947,
                        0.30169323086738586,
                        0.6896753311157227,
                        -0.01120212022215128,
                        -0.688558042049408,
                        0.48886483907699585,
                        -0.016523178666830063,
                        0.19346335530281067,
                        -0.02633536048233509,
                        0.6679840087890625,
                        0.18274624645709991,
                        0.12734612822532654,
                        -0.3130360543727875,
                        0.3752257823944092,
                        0.06073842570185661,
                        0.42312493920326233,
                        -0.09029638767242432,
                        0.5215916633605957,
                        0.03151175379753113,
                        -0.02018999494612217,
                        -0.08970022946596146,
                        0.8106857538223267,
                        0.4655196964740753,
                        -0.011880860663950443,
                        -0.3035626709461212,
                        0.3213159739971161,
                        0.15749892592430115,
                        -0.12977458536624908,
                        0.26900172233581543,
                        0.43569043278694153,
                        -0.002334821270778775,
                        -0.3521488308906555,
                        0.30127257108688354,
                        0.15191422402858734,
                        -0.6583665013313293,
                        0.17322583496570587,
                        -0.17697851359844208,
                        0.10681558400392532,
                        0.1515600085258484,
                        0.13873156905174255,
                        0.10880354046821594,
                        -0.132345512509346,
                        0.6673508882522583,
                        0.20254728198051453,
                        0.12421566247940063,
                        -0.40249398350715637,
                        0.7128553986549377,
                        -0.25404587388038635,
                        0.5901957154273987,
                        -0.10502663254737854,
                        -0.12331162393093109,
                        -0.13732562959194183,
                        0.572800874710083,
                        -0.11274713277816772,
                        -0.11083744466304779,
                        -0.09033302962779999,
                        -0.08768900483846664,
                        0.03104272484779358,
                        -0.07111886143684387,
                        0.0847703292965889,
                        -0.024753453209996223,
                        -0.17216503620147705,
                        0.2588924765586853,
                        -0.08597268164157867,
                        -0.24369226396083832,
                        0.14001935720443726,
                        0.3572012782096863,
                        0.06147392466664314,
                        0.30019882321357727,
                        -0.1482219696044922,
                        -0.21154101192951202,
                        -0.03914899751543999,
                        0.06926926225423813,
                        -0.04598495736718178,
                        0.050288982689380646,
                        0.05872216075658798,
                        0.2210058867931366,
                        0.2502422630786896,
                        0.0615081749856472,
                        -0.2715083062648773,
                        -0.19474288821220398,
                        -0.09105923771858215,
                        0.0671038031578064,
                        -0.05997978150844574,
                        -0.08195862919092178,
                        -0.08164000511169434,
                        0.05855696275830269,
                        -0.1431419998407364,
                        0.11161021143198013,
                        -0.11572518944740295,
                        0.004880852065980434,
                        -0.14534345269203186,
                        0.40927690267562866,
                        -0.0017800298519432545,
                        0.12473562359809875,
                        -0.07384360581636429,
                        -0.5044941306114197,
                        -0.13945527374744415,
                        -0.06963015347719193,
                        -0.0705120861530304,
                        0.17366749048233032,
                        -0.11911337077617645,
                        -0.4584120810031891,
                        -0.11867755651473999,
                        -0.18684083223342896,
                        0.012430300004780293,
                        -0.1012514978647232,
                        0.12712793052196503,
                        -0.029155848547816277,
                        0.1394963562488556,
                        0.18675410747528076,
                        0.10123077780008316,
                        -0.24227109551429749
                    ],
                    [
                        -0.02375449612736702,
                        0.7723053097724915,
                        -0.3363887667655945,
                        0.12014570832252502,
                        -0.23877012729644775,
                        0.357340931892395,
                        -0.19454650580883026,
                        -0.19008418917655945,
                        0.34526097774505615,
                        0.005136482883244753,
                        0.029856787994503975,
                        0.2921717166900635,
                        0.035339511930942535,
                        -2.6043701171875,
                        0.30470797419548035,
                        -0.12840993702411652,
                        1.463767647743225,
                        1.1919679641723633,
                        2.6944470405578613,
                        -0.03332265093922615,
                        -0.15762615203857422,
                        0.851841390132904,
                        -0.19208654761314392,
                        -0.018210044130682945,
                        -2.090348720550537,
                        0.5032994151115417,
                        1.0006587505340576,
                        -0.34483957290649414,
                        0.6151541471481323,
                        0.86040860414505,
                        -0.6991778612136841,
                        -1.82613205909729,
                        0.8298624753952026,
                        0.4015596807003021,
                        -0.6543726921081543,
                        0.4175710082054138,
                        0.4947409927845001,
                        0.40581369400024414,
                        -0.09410389512777328,
                        0.5639267563819885,
                        -0.5339805483818054,
                        1.4505566358566284,
                        -0.008133732713758945,
                        0.6324690580368042,
                        0.391420841217041,
                        -0.16196908056735992,
                        0.4619220197200775,
                        -1.1038075685501099,
                        0.4158267080783844,
                        0.33241596817970276,
                        0.30036869645118713,
                        1.251656413078308,
                        1.7413274049758911,
                        0.35224488377571106,
                        2.0239193439483643,
                        -1.4663236141204834,
                        1.080666422843933,
                        0.15319496393203735,
                        0.28730884194374084,
                        -0.3520231246948242,
                        0.7567422986030579,
                        -0.7092112898826599,
                        0.029623132199048996,
                        1.9196879863739014,
                        -0.7178827524185181,
                        0.26765239238739014,
                        0.4032563865184784,
                        0.4919322729110718,
                        -0.42003169655799866,
                        0.5397492051124573,
                        -0.5521344542503357,
                        0.1957227736711502,
                        0.3661893606185913,
                        -0.13415594398975372,
                        -0.19913700222969055,
                        -0.15340179204940796,
                        -0.25321879982948303,
                        0.05520828440785408,
                        0.19656099379062653,
                        0.17457836866378784,
                        1.2503076791763306,
                        1.2179161310195923,
                        -0.14097802340984344,
                        0.008488504216074944,
                        0.5942693948745728,
                        0.07708891481161118,
                        -0.47245699167251587,
                        -0.2161167562007904,
                        -0.6458766460418701,
                        -0.5534234046936035,
                        0.33520805835723877,
                        -0.18108755350112915,
                        -0.12455268949270248,
                        -0.5373747944831848,
                        -0.5645654797554016,
                        0.3381424844264984,
                        -1.3321572542190552,
                        -0.43944409489631653,
                        0.1330864429473877,
                        0.005992169491946697,
                        0.16370628774166107,
                        0.1643293797969818,
                        -0.5374249815940857,
                        -0.10233146697282791,
                        0.4024975597858429,
                        -0.5374444127082825,
                        0.2829487919807434,
                        0.23148319125175476,
                        -0.23395052552223206,
                        -0.11030305922031403,
                        0.023878898471593857,
                        -0.15659835934638977,
                        -0.08377649635076523,
                        -0.2555773854255676,
                        -0.42892077565193176,
                        1.1196377277374268,
                        0.06311151385307312,
                        0.06358717381954193,
                        -0.8187751770019531,
                        0.012690973468124866,
                        -0.4868786931037903,
                        0.5872554779052734,
                        0.04196111112833023,
                        0.04101445525884628,
                        0.38913965225219727,
                        -0.48030754923820496,
                        -0.926304042339325,
                        0.2819770574569702,
                        0.13203786313533783,
                        0.014059516601264477,
                        -0.5780459642410278,
                        -0.7475327253341675,
                        -0.08964081853628159,
                        0.3237346112728119,
                        0.0741192027926445,
                        0.2282605916261673,
                        0.4079413414001465,
                        0.04116407409310341,
                        -0.006845091935247183,
                        -0.09939201921224594,
                        0.5932339429855347,
                        0.1009468287229538,
                        -0.36097168922424316,
                        -0.01994399167597294,
                        0.5456826686859131,
                        -0.8155643939971924,
                        0.4761333465576172,
                        0.6731716990470886,
                        0.15770649909973145,
                        -0.22858980298042297,
                        0.15376119315624237,
                        -0.1731470376253128,
                        0.217943012714386,
                        0.2625647485256195,
                        0.08092141896486282,
                        -0.08675075322389603,
                        0.04346992447972298,
                        0.3878311514854431,
                        0.1838316172361374,
                        0.2627590298652649,
                        0.5319033861160278,
                        0.0496969074010849,
                        -0.07252730429172516,
                        -0.44778358936309814,
                        -0.16042877733707428,
                        0.49404504895210266,
                        0.16750222444534302,
                        0.1497187614440918,
                        0.10676366835832596,
                        0.03525484353303909,
                        0.5542603731155396,
                        0.4282746911048889,
                        -0.3693494498729706,
                        0.4045272767543793,
                        -0.19089630246162415,
                        0.6934148669242859,
                        0.013191968202590942,
                        -0.6055708527565002,
                        0.20049886405467987,
                        -0.14606353640556335,
                        -0.6925103068351746,
                        0.14570331573486328,
                        0.00880153477191925,
                        -0.22532965242862701,
                        0.04077989608049393,
                        0.10942824184894562,
                        -0.19102755188941956,
                        -0.02439873479306698,
                        -0.2904391586780548,
                        -0.14756612479686737,
                        -0.07367125153541565,
                        0.30973321199417114
                    ],
                    [
                        -0.6936182975769043,
                        -0.7206066250801086,
                        -0.34306448698043823,
                        -0.2545488774776459,
                        0.3451572358608246,
                        0.4007852375507355,
                        0.14438655972480774,
                        0.38077908754348755,
                        -8.981602150015533e-06,
                        -0.4058632552623749,
                        0.9324943423271179,
                        0.040479935705661774,
                        1.8658164739608765,
                        -3.471496343612671,
                        0.3418053090572357,
                        -1.1886976957321167,
                        -0.20969265699386597,
                        -0.8434028029441833,
                        0.17421439290046692,
                        0.371825635433197,
                        0.23872146010398865,
                        -0.364564448595047,
                        0.4601125419139862,
                        1.3876368999481201,
                        -1.3910356760025024,
                        1.1142551898956299,
                        -0.46842095255851746,
                        0.15465359389781952,
                        -0.13197433948516846,
                        -0.40594640374183655,
                        -0.07053343206644058,
                        -0.30380892753601074,
                        -1.5894644260406494,
                        0.9377331733703613,
                        -1.3622206449508667,
                        -0.3142603933811188,
                        -0.1875479519367218,
                        -1.0164761543273926,
                        -1.1374982595443726,
                        -0.44752469658851624,
                        0.31132638454437256,
                        -1.5670734643936157,
                        0.8419694304466248,
                        -0.9404295682907104,
                        -0.08128036558628082,
                        0.4113328158855438,
                        -0.6174415946006775,
                        -3.0406341552734375,
                        -0.17357137799263,
                        -0.09634430706501007,
                        -0.9552584886550903,
                        1.1428985595703125,
                        0.9361488223075867,
                        0.5836800932884216,
                        1.3871175050735474,
                        -2.2755415439605713,
                        -0.33103713393211365,
                        -1.5149425268173218,
                        -0.7037307024002075,
                        0.19974683225154877,
                        -0.2913297414779663,
                        -1.2148211002349854,
                        -0.08377408981323242,
                        1.7021404504776,
                        -0.01330622099339962,
                        0.644138514995575,
                        -0.588076114654541,
                        0.8935101628303528,
                        0.6558029055595398,
                        0.9605677127838135,
                        0.24017232656478882,
                        -0.5805327296257019,
                        -0.22032897174358368,
                        -0.1978813260793686,
                        -0.19377484917640686,
                        -0.153718039393425,
                        -0.4607729911804199,
                        -0.22536298632621765,
                        0.7051183581352234,
                        0.43324992060661316,
                        1.0772370100021362,
                        0.16327498853206635,
                        0.06927619874477386,
                        -0.9167405962944031,
                        0.6868129372596741,
                        0.5594425797462463,
                        -0.17561841011047363,
                        -0.2707323431968689,
                        0.2657833695411682,
                        0.38797810673713684,
                        0.3607478439807892,
                        0.4369086027145386,
                        -1.2313203811645508,
                        -0.166839137673378,
                        0.6315100789070129,
                        0.06641548126935959,
                        0.2154754400253296,
                        0.24601012468338013,
                        0.5435033440589905,
                        0.8014600872993469,
                        0.3835294246673584,
                        0.617962121963501,
                        -0.10047923773527145,
                        0.682942807674408,
                        0.16677674651145935,
                        -0.6562691330909729,
                        0.15603797137737274,
                        -0.20281727612018585,
                        0.21317711472511292,
                        0.25594648718833923,
                        -0.21222613751888275,
                        -0.3398909270763397,
                        0.6879121661186218,
                        -0.3851872384548187,
                        -0.1268400251865387,
                        0.15062551200389862,
                        -0.09203993529081345,
                        -0.4287607967853546,
                        0.1623910516500473,
                        -0.3171665370464325,
                        0.05152751877903938,
                        0.8031570911407471,
                        0.415280818939209,
                        0.010807768441736698,
                        -0.5488149523735046,
                        0.2919456362724304,
                        0.1323891580104828,
                        0.8038111329078674,
                        0.05246512219309807,
                        -0.369049608707428,
                        1.0910100936889648,
                        -0.03896960988640785,
                        -0.10540696978569031,
                        -0.03044182062149048,
                        0.2031267136335373,
                        0.032807812094688416,
                        0.19248312711715698,
                        0.010634495876729488,
                        0.11059306561946869,
                        0.1995491087436676,
                        0.11923328042030334,
                        -0.890619158744812,
                        0.0010816093999892473,
                        0.08280615508556366,
                        0.2587830126285553,
                        0.23517705500125885,
                        0.16194035112857819,
                        0.2775489091873169,
                        0.03601520135998726,
                        0.07858699560165405,
                        -0.024876190349459648,
                        -0.672974169254303,
                        0.29069870710372925,
                        -0.15932264924049377,
                        0.1591910570859909,
                        -0.051419392228126526,
                        -0.1407197117805481,
                        -0.30094611644744873,
                        -0.33253350853919983,
                        0.049058932811021805,
                        -0.5692698955535889,
                        -0.1849430650472641,
                        -0.15912701189517975,
                        -0.7705811858177185,
                        -0.2672778367996216,
                        0.13090386986732483,
                        -0.04147762060165405,
                        0.28409937024116516,
                        0.006268335971981287,
                        0.22798295319080353,
                        -0.46171990036964417,
                        0.2746717035770416,
                        -0.00015319355588871986,
                        0.09542156755924225,
                        -0.6055936813354492,
                        0.7144272327423096,
                        -0.1340789645910263,
                        0.03802180662751198,
                        0.21895357966423035,
                        -0.2201419472694397,
                        0.2240961194038391,
                        -0.11333107948303223,
                        0.18931935727596283,
                        0.01579035259783268,
                        -0.38026273250579834,
                        -0.004671294707804918,
                        0.42658039927482605,
                        0.003129135351628065,
                        -0.11408157646656036,
                        -0.4162338674068451,
                        -0.0668768584728241,
                        -0.16337130963802338
                    ],
                    [
                        -0.23137995600700378,
                        -0.2660844326019287,
                        -0.08510206639766693,
                        -0.1618596911430359,
                        0.4057224988937378,
                        -0.43032363057136536,
                        -0.7515714764595032,
                        0.005444752052426338,
                        -1.4397249221801758,
                        -0.6596039533615112,
                        -0.4050714373588562,
                        -0.3669218122959137,
                        -0.046554308384656906,
                        -1.0660218000411987,
                        -0.3893083930015564,
                        -0.9343178868293762,
                        -0.1249757781624794,
                        0.3141149878501892,
                        -0.3182770013809204,
                        -0.8089109659194946,
                        -0.7995115518569946,
                        -0.8721657395362854,
                        -0.8408011794090271,
                        0.9386195540428162,
                        -1.812450647354126,
                        -0.34661346673965454,
                        -0.6057997345924377,
                        -0.06780990213155746,
                        0.7396130561828613,
                        -0.36366504430770874,
                        -1.1331361532211304,
                        -0.15161320567131042,
                        1.264155387878418,
                        0.366875022649765,
                        -0.8446505665779114,
                        -0.2760569453239441,
                        -0.16266761720180511,
                        -0.7697920203208923,
                        -0.45404091477394104,
                        -0.43280234932899475,
                        -0.1977003663778305,
                        0.45886585116386414,
                        -1.033748745918274,
                        2.2578208446502686,
                        -0.560617983341217,
                        -0.01867070607841015,
                        -0.26164114475250244,
                        0.20727744698524475,
                        -0.28626126050949097,
                        -0.32895734906196594,
                        -0.38619232177734375,
                        0.1923120617866516,
                        -0.21586263179779053,
                        0.31249985098838806,
                        0.35747620463371277,
                        -0.21838100254535675,
                        0.6980391144752502,
                        -0.4125826060771942,
                        -0.40217262506484985,
                        -0.03640201687812805,
                        0.41390299797058105,
                        -0.7754628658294678,
                        0.2930372655391693,
                        0.1651287078857422,
                        -0.8346983790397644,
                        1.0210356712341309,
                        0.11607592552900314,
                        -0.10899601876735687,
                        0.0971255749464035,
                        -0.4912840723991394,
                        -0.3251676559448242,
                        0.058482762426137924,
                        0.06036577746272087,
                        0.08066649734973907,
                        0.1436195969581604,
                        -0.1231575533747673,
                        -0.13984763622283936,
                        -0.6749908328056335,
                        -0.13267771899700165,
                        0.11700950562953949,
                        0.05683225020766258,
                        0.07985543459653854,
                        -0.11716341972351074,
                        0.061496466398239136,
                        -0.18377071619033813,
                        0.019942844286561012,
                        -0.37883973121643066,
                        0.2039339542388916,
                        -0.41325876116752625,
                        0.10102370381355286,
                        0.8247355818748474,
                        -0.20479215681552887,
                        -0.008179974742233753,
                        0.15877287089824677,
                        0.38067805767059326,
                        0.12961982190608978,
                        0.0391157902777195,
                        0.39840975403785706,
                        -0.40999218821525574,
                        0.028253594413399696,
                        0.03781261667609215,
                        -0.40389981865882874,
                        -0.30100417137145996,
                        -0.15756016969680786,
                        0.3251185417175293,
                        0.11835181713104248,
                        -0.03363896906375885,
                        -0.10855972766876221,
                        0.5985662341117859,
                        -0.09941819310188293,
                        -0.2864917814731598,
                        -0.09893440455198288,
                        0.14453387260437012,
                        -0.21974849700927734,
                        -0.046128395944833755,
                        0.1429949849843979,
                        -0.2927051782608032,
                        0.007249793503433466,
                        0.4478379786014557,
                        0.4432455897331238,
                        0.012914423830807209,
                        0.515910804271698,
                        0.39158308506011963,
                        0.26426342129707336,
                        0.13346074521541595,
                        -0.09071911871433258,
                        0.5475968718528748,
                        0.1523389369249344,
                        -0.454050213098526,
                        -0.01365889236330986,
                        0.4196760058403015,
                        -0.09234462678432465,
                        0.3816814720630646,
                        -0.08739401400089264,
                        -0.21142877638339996,
                        0.13065965473651886,
                        0.37367379665374756,
                        -0.715804398059845,
                        0.08443504571914673,
                        0.26679927110671997,
                        -0.19238197803497314,
                        -0.2864309847354889,
                        -0.18539422750473022,
                        -0.34225863218307495,
                        -0.15298016369342804,
                        -0.5805164575576782,
                        0.2789194583892822,
                        0.06376226246356964,
                        -0.42459434270858765,
                        -0.6251357197761536,
                        -0.026320716366171837,
                        0.19864383339881897,
                        0.17750941216945648,
                        0.07171157747507095,
                        -0.06578156352043152,
                        -0.45692017674446106,
                        0.2351849526166916,
                        0.2744796872138977,
                        -0.2465057224035263,
                        -0.13446055352687836,
                        -0.6899280548095703,
                        -0.00840624701231718,
                        0.14914090931415558,
                        -0.05355765298008919,
                        -0.5744083523750305,
                        0.2425841987133026,
                        -0.12614744901657104,
                        0.24153347313404083,
                        -0.5047609210014343,
                        -0.3698582649230957,
                        -0.21124233305454254,
                        0.15500986576080322,
                        -0.180556982755661,
                        0.16145971417427063,
                        -0.09041233360767365,
                        -0.019871419295668602,
                        -0.19246216118335724,
                        -0.008775508962571621,
                        0.5172595381736755,
                        -0.15827114880084991,
                        -0.2515600621700287,
                        0.10979778319597244,
                        0.406281054019928,
                        0.05277217552065849,
                        -0.4267033040523529,
                        -0.08962550014257431,
                        -0.25242072343826294,
                        -0.6698040962219238,
                        0.06352866441011429,
                        -0.25279727578163147,
                        -0.17264120280742645,
                        0.6151781678199768
                    ],
                    [
                        -1.01022469997406,
                        0.7651991248130798,
                        0.13417063653469086,
                        -0.09070391952991486,
                        -0.25571680068969727,
                        -0.625220000743866,
                        0.04410426318645477,
                        -0.59686678647995,
                        -1.0185908079147339,
                        1.3059359788894653,
                        1.2684671878814697,
                        0.055958837270736694,
                        -0.7130299806594849,
                        0.47809118032455444,
                        0.10936392843723297,
                        -0.7193900346755981,
                        1.663356065750122,
                        -2.0855748653411865,
                        1.1691442728042603,
                        0.030826833099126816,
                        -0.3590998947620392,
                        0.6009386777877808,
                        -0.8559269309043884,
                        0.16378626227378845,
                        1.5636744499206543,
                        -0.10281793028116226,
                        0.1711115837097168,
                        0.4209350347518921,
                        -0.23463232815265656,
                        0.5931633710861206,
                        -0.2720206379890442,
                        -0.3084191381931305,
                        -0.6853358745574951,
                        -0.7155541181564331,
                        2.3760008811950684,
                        -0.5338859558105469,
                        -0.26127490401268005,
                        -0.616306722164154,
                        -0.027947720140218735,
                        0.8543863892555237,
                        -0.004909978248178959,
                        0.6781533360481262,
                        -0.029049834236502647,
                        2.9722535610198975,
                        0.4652021527290344,
                        1.102928638458252,
                        0.21374212205410004,
                        1.3415241241455078,
                        0.23773926496505737,
                        0.36508068442344666,
                        0.5651336908340454,
                        1.430161714553833,
                        -0.8248223066329956,
                        -0.06665056943893433,
                        -0.6410420536994934,
                        -0.26143965125083923,
                        1.8844823837280273,
                        0.4625071585178375,
                        0.06587062776088715,
                        -0.4918508529663086,
                        0.8045647740364075,
                        1.2037527561187744,
                        0.11255631595849991,
                        1.051838994026184,
                        -0.15040884912014008,
                        0.2006390541791916,
                        -0.5352494716644287,
                        0.3689628541469574,
                        -0.2729620039463043,
                        -0.3873915672302246,
                        0.20747855305671692,
                        -0.24442654848098755,
                        0.01817772164940834,
                        -0.5077774524688721,
                        -0.08035003393888474,
                        0.4406415522098541,
                        0.06446808576583862,
                        0.19077147543430328,
                        0.2429075539112091,
                        -0.2597770690917969,
                        -0.05968534201383591,
                        0.4408411681652069,
                        0.03652326017618179,
                        -0.4617577791213989,
                        0.4201900362968445,
                        -0.018205970525741577,
                        -0.2744283676147461,
                        -0.04798844829201698,
                        -0.41286224126815796,
                        0.08723817765712738,
                        -0.02126697637140751,
                        -0.47590571641921997,
                        0.33438026905059814,
                        -0.3528231382369995,
                        0.08407729119062424,
                        0.06788812577724457,
                        -0.002843830268830061,
                        -0.6932483315467834,
                        -0.8819828629493713,
                        -0.43229618668556213,
                        0.2034751921892166,
                        0.23602034151554108,
                        0.057692766189575195,
                        0.1836971938610077,
                        -0.7839717268943787,
                        0.5650473237037659,
                        -0.38564056158065796,
                        0.3683823049068451,
                        -0.5934140086174011,
                        0.3458247482776642,
                        0.08121422678232193,
                        -0.14474272727966309,
                        0.6109100580215454,
                        0.45128923654556274,
                        0.20351971685886383,
                        1.1313107013702393,
                        0.6345912218093872,
                        -0.3115231394767761,
                        0.10861995071172714,
                        0.8386160135269165,
                        -0.7218033075332642,
                        0.8870452046394348,
                        0.25637343525886536,
                        -0.5119269490242004,
                        -0.2477819174528122,
                        -0.36118635535240173,
                        -0.01712823659181595,
                        0.21518947184085846,
                        -0.21215659379959106,
                        0.13130798935890198,
                        -1.331723928451538,
                        0.4324793815612793,
                        0.8376356363296509,
                        -0.14904388785362244,
                        -0.10681527853012085,
                        0.2966889441013336,
                        -0.4749649465084076,
                        -0.22790874540805817,
                        0.2638658583164215,
                        -0.2365727424621582,
                        -0.3325193226337433,
                        -0.21430571377277374,
                        -0.09023506194353104,
                        0.011835595592856407,
                        -0.2299085408449173,
                        0.5091259479522705,
                        0.08681590110063553,
                        0.2485898733139038,
                        -0.14043860137462616,
                        0.169478639960289,
                        0.33254382014274597,
                        0.18553894758224487,
                        -0.1473654806613922,
                        0.06280390173196793,
                        -0.08036386221647263,
                        -0.13706061244010925,
                        0.23814615607261658,
                        0.23473307490348816,
                        0.0845315009355545,
                        0.023548468947410583,
                        0.4100005030632019,
                        0.07214290648698807,
                        -0.36891844868659973,
                        0.5151708126068115,
                        -0.1467735916376114,
                        -0.2847515642642975,
                        -0.5005891919136047,
                        0.41717734932899475,
                        0.17527207732200623,
                        0.014337604865431786,
                        0.3517412543296814,
                        0.5596811175346375,
                        -0.09512227028608322,
                        0.5913416743278503,
                        0.0037063199561089277,
                        0.14090074598789215,
                        0.09886728227138519,
                        -0.00662832148373127,
                        0.057234328240156174,
                        -0.055405113846063614,
                        -0.2881636321544647,
                        -0.30602240562438965,
                        -0.06708221137523651,
                        -0.14614231884479523,
                        0.4834173917770386,
                        0.6758690476417542,
                        -0.05800130218267441,
                        -0.08188371360301971,
                        -0.0705171599984169,
                        0.3211071491241455,
                        0.12986211478710175,
                        0.23692212998867035
                    ],
                    [
                        -0.2181626260280609,
                        0.29902663826942444,
                        0.27544689178466797,
                        0.3853290379047394,
                        -0.5916051864624023,
                        0.10137932002544403,
                        0.2689594328403473,
                        -0.012057483196258545,
                        0.09826908260583878,
                        0.7540170550346375,
                        0.26165908575057983,
                        0.4434064030647278,
                        -1.0667692422866821,
                        0.005104679614305496,
                        -0.04923626407980919,
                        0.20954060554504395,
                        0.4749298393726349,
                        -0.13910269737243652,
                        0.21076877415180206,
                        0.307054728269577,
                        0.7499222755432129,
                        0.6875873804092407,
                        -0.0317891500890255,
                        -1.1276050806045532,
                        1.9568670988082886,
                        -0.12848325073719025,
                        0.5228925943374634,
                        -0.4401206970214844,
                        0.5736880898475647,
                        0.45127367973327637,
                        0.09424665570259094,
                        -0.408285915851593,
                        -0.030794214457273483,
                        -0.8878681659698486,
                        1.52711021900177,
                        -0.38084307312965393,
                        0.7644479274749756,
                        0.3229491412639618,
                        0.3390394151210785,
                        0.8740135431289673,
                        0.4190707802772522,
                        0.2755911350250244,
                        0.2228444516658783,
                        -0.4106272757053375,
                        0.6092450022697449,
                        -0.47931963205337524,
                        0.8389396071434021,
                        0.62007075548172,
                        0.5849922299385071,
                        0.41517046093940735,
                        0.9213138818740845,
                        -0.9022299647331238,
                        -0.853533148765564,
                        -1.0181059837341309,
                        -1.2813581228256226,
                        0.017197350040078163,
                        -1.148322582244873,
                        -0.24993126094341278,
                        0.49782413244247437,
                        0.002786048222333193,
                        0.42821481823921204,
                        0.3342951238155365,
                        -0.017142007127404213,
                        -0.7675015330314636,
                        0.28806251287460327,
                        -0.5360721349716187,
                        -1.1569154262542725,
                        -0.7072906494140625,
                        0.12905652821063995,
                        -0.32992807030677795,
                        -0.15741990506649017,
                        -0.4926765263080597,
                        -0.23285481333732605,
                        -0.30184459686279297,
                        -0.6787307858467102,
                        -0.1772271990776062,
                        -0.33735552430152893,
                        0.3741864860057831,
                        -0.3220762014389038,
                        -0.5024247765541077,
                        -0.7088238000869751,
                        -0.015941614285111427,
                        -0.502292811870575,
                        0.1734922230243683,
                        0.3711068630218506,
                        -0.015660187229514122,
                        0.01970532350242138,
                        -0.15232087671756744,
                        0.34549447894096375,
                        0.05498002469539642,
                        -0.8751157522201538,
                        0.207982137799263,
                        -0.08868028968572617,
                        -0.08754956722259521,
                        -0.6191761493682861,
                        -0.13758182525634766,
                        -0.6666017770767212,
                        -0.47138822078704834,
                        -0.5348597764968872,
                        0.06551676988601685,
                        -0.2725464999675751,
                        -0.21345750987529755,
                        0.23682467639446259,
                        0.1481027454137802,
                        -0.10565358400344849,
                        0.37101519107818604,
                        -0.14556409418582916,
                        0.3216710090637207,
                        -0.13614435493946075,
                        0.07342874258756638,
                        -0.12448970228433609,
                        -0.17916680872440338,
                        -0.14877137541770935,
                        0.21944564580917358,
                        0.029717085883021355,
                        0.03268435597419739,
                        0.10641499608755112,
                        -0.22132818400859833,
                        -0.22861337661743164,
                        0.7959849238395691,
                        0.11402643471956253,
                        -0.7270070314407349,
                        -0.39158809185028076,
                        0.1282661110162735,
                        0.0899527370929718,
                        0.60109943151474,
                        -0.06133458390831947,
                        -0.1506858468055725,
                        0.28390973806381226,
                        0.09535584598779678,
                        -0.05623384937644005,
                        0.1267111450433731,
                        -0.18830689787864685,
                        -0.18264226615428925,
                        -0.11991406232118607,
                        -0.3906642198562622,
                        -0.1672506481409073,
                        -0.02601964771747589,
                        0.23843567073345184,
                        -0.12611815333366394,
                        -0.011798796243965626,
                        0.17587193846702576,
                        0.2588512599468231,
                        -0.24541303515434265,
                        0.01474960520863533,
                        0.2917116582393646,
                        0.012949321419000626,
                        -0.01953047700226307,
                        0.3719225227832794,
                        -0.07008607685565948,
                        -0.3351134657859802,
                        0.07158177345991135,
                        0.38727664947509766,
                        -0.2290644496679306,
                        -0.22115080058574677,
                        0.05082143843173981,
                        -0.08721534162759781,
                        -0.05818744748830795,
                        0.10085465759038925,
                        0.05474924296140671,
                        0.0015015123644843698,
                        0.1081424430012703,
                        0.30643177032470703,
                        -0.033120207488536835,
                        0.21345309913158417,
                        -0.07975053787231445,
                        -0.33731138706207275,
                        -0.2728461027145386,
                        0.05499895662069321,
                        -0.4082717001438141,
                        -0.11460284143686295,
                        -0.2700701653957367,
                        0.013124748133122921,
                        0.2351192981004715,
                        -0.12398508936166763,
                        0.3055143654346466,
                        0.19350983202457428,
                        -0.3930775821208954,
                        -0.04555779695510864,
                        -0.22994892299175262,
                        0.42683473229408264,
                        -0.14854395389556885,
                        0.07052773982286453,
                        0.3389875292778015,
                        0.013951770961284637,
                        0.07644788175821304,
                        -0.04762247949838638,
                        0.35056644678115845,
                        -0.0605071559548378,
                        0.08992514759302139,
                        0.16357196867465973,
                        0.012550398707389832
                    ],
                    [
                        -0.7922505736351013,
                        -0.5646815299987793,
                        0.15103407204151154,
                        -0.1717473417520523,
                        -0.7143332958221436,
                        -0.4966488778591156,
                        0.27977004647254944,
                        -0.9850692749023438,
                        -0.43277889490127563,
                        -0.12056168913841248,
                        0.8995460867881775,
                        -0.06974142789840698,
                        -0.9806657433509827,
                        4.447266101837158,
                        -0.3968929052352905,
                        0.18737681210041046,
                        -0.5374622941017151,
                        -0.3031511604785919,
                        0.1517503559589386,
                        0.23585344851016998,
                        -0.233723446726799,
                        0.3022693693637848,
                        -0.020441586151719093,
                        -0.8367640376091003,
                        2.900211811065674,
                        0.27072107791900635,
                        -0.18719670176506042,
                        -0.054697781801223755,
                        -0.3726254105567932,
                        -0.12279500812292099,
                        -0.1500592827796936,
                        -0.11857626587152481,
                        -0.19067320227622986,
                        -0.682822048664093,
                        1.5177994966506958,
                        -0.31638795137405396,
                        -0.0480746328830719,
                        -0.19086819887161255,
                        -0.07412780821323395,
                        -0.11096397787332535,
                        0.7039628028869629,
                        -0.3552412688732147,
                        -0.3506145477294922,
                        0.4842655062675476,
                        -0.12635542452335358,
                        0.5782893300056458,
                        0.2646826505661011,
                        1.2527902126312256,
                        -0.19209130108356476,
                        -0.21072234213352203,
                        0.7067140340805054,
                        -0.16741175949573517,
                        -2.3390026092529297,
                        -0.6759874224662781,
                        -2.4646828174591064,
                        0.5913700461387634,
                        0.6721194386482239,
                        -0.3972282409667969,
                        -0.026255665346980095,
                        0.5315355062484741,
                        -0.026490600779652596,
                        1.055614709854126,
                        -0.7021719217300415,
                        -0.9799532890319824,
                        0.5504063367843628,
                        -0.76479172706604,
                        0.1320529580116272,
                        -0.6126737594604492,
                        -0.09218207746744156,
                        -0.012719915248453617,
                        0.5033714175224304,
                        -0.09533345699310303,
                        -0.3948436975479126,
                        0.29105857014656067,
                        -0.41783371567726135,
                        0.33650991320610046,
                        0.14788345992565155,
                        0.6086859703063965,
                        0.16209407150745392,
                        -0.5365415811538696,
                        -0.3495405912399292,
                        -0.18605132400989532,
                        -0.14347431063652039,
                        0.4188511371612549,
                        0.021718190982937813,
                        0.30620062351226807,
                        0.6371118426322937,
                        -0.2306119054555893,
                        0.17316202819347382,
                        0.1589626520872116,
                        -0.38773873448371887,
                        0.15536320209503174,
                        0.7859329581260681,
                        -0.4411110281944275,
                        -0.2784726321697235,
                        0.1127670556306839,
                        -0.28759145736694336,
                        0.06947574764490128,
                        -0.2053307592868805,
                        -0.15008656680583954,
                        0.22591657936573029,
                        0.4149881899356842,
                        0.5302654504776001,
                        0.06061325594782829,
                        0.041487544775009155,
                        0.6279349327087402,
                        0.24610579013824463,
                        0.08152159303426743,
                        0.11749676614999771,
                        -0.055719733238220215,
                        -0.3466061055660248,
                        0.5048393607139587,
                        -0.24171458184719086,
                        -0.01303385104984045,
                        -0.1285286694765091,
                        -0.5100172758102417,
                        1.0187567472457886,
                        -0.28250858187675476,
                        -1.090004801750183,
                        0.9213583469390869,
                        -0.4096989035606384,
                        -0.5741986632347107,
                        -0.2679576277732849,
                        -0.07413003593683243,
                        0.12169745564460754,
                        0.6309334635734558,
                        -0.19026246666908264,
                        -0.5150083899497986,
                        0.2339184284210205,
                        0.11631185561418533,
                        -0.13922809064388275,
                        0.11986649036407471,
                        -0.19202342629432678,
                        -0.17967092990875244,
                        -0.1994626373052597,
                        -0.2693251371383667,
                        -0.12005975842475891,
                        0.20105504989624023,
                        0.253191202878952,
                        -0.16805531084537506,
                        -0.2416866570711136,
                        -0.09918323159217834,
                        0.13731718063354492,
                        -0.3240690231323242,
                        -0.060489293187856674,
                        0.2866017520427704,
                        0.2101939469575882,
                        -0.38353314995765686,
                        0.2242320030927658,
                        -0.01231636293232441,
                        -0.15446850657463074,
                        -0.4459832012653351,
                        0.7066841125488281,
                        -0.23524712026119232,
                        -0.2526216506958008,
                        0.15671946108341217,
                        -0.06287948042154312,
                        0.018686091527342796,
                        -0.002340973587706685,
                        0.05415244773030281,
                        0.04793783649802208,
                        0.2307155728340149,
                        0.19728535413742065,
                        0.06174665689468384,
                        0.015395132824778557,
                        0.17603659629821777,
                        -0.44645068049430847,
                        -0.2817241847515106,
                        0.09877797216176987,
                        -0.04430638253688812,
                        0.08195295184850693,
                        -0.0057384963147342205,
                        0.14437222480773926,
                        -0.159071147441864,
                        0.30281972885131836,
                        0.10448039323091507,
                        0.06583073735237122,
                        -0.12143222987651825,
                        -0.02764875441789627,
                        0.17046427726745605,
                        0.5058405995368958,
                        -0.4883018434047699,
                        0.3776305913925171,
                        -0.10469284653663635,
                        0.3085917532444,
                        0.02609104849398136,
                        -0.05981949716806412,
                        0.34786126017570496,
                        0.15729641914367676,
                        -0.21769629418849945,
                        0.21173055469989777,
                        -0.33735182881355286
                    ],
                    [
                        0.016733352094888687,
                        0.7381073832511902,
                        0.4437716603279114,
                        -0.0883847251534462,
                        -0.16552044451236725,
                        -0.4840105175971985,
                        0.335921049118042,
                        -0.7476651072502136,
                        -0.0709248036146164,
                        -0.3489859104156494,
                        0.8766782283782959,
                        -0.006272584665566683,
                        -0.8511210680007935,
                        2.36391019821167,
                        -0.13394659757614136,
                        0.5260115265846252,
                        -0.12569540739059448,
                        1.1095283031463623,
                        0.847283124923706,
                        -0.9385212063789368,
                        -0.1650165170431137,
                        0.062461789697408676,
                        0.1916329711675644,
                        -0.8375889658927917,
                        0.9757336378097534,
                        -0.3510020077228546,
                        0.6539410948753357,
                        -0.2163526862859726,
                        0.9388318061828613,
                        0.17353485524654388,
                        -0.5246288776397705,
                        -0.09360321611166,
                        1.4219030141830444,
                        -0.6303660273551941,
                        0.4566032588481903,
                        0.4169929623603821,
                        0.44802126288414,
                        0.06108164042234421,
                        1.181199312210083,
                        1.0759401321411133,
                        0.05834219977259636,
                        0.5732414126396179,
                        0.31136199831962585,
                        -0.511772096157074,
                        0.5652003884315491,
                        -0.3377847969532013,
                        1.7227356433868408,
                        -0.24536457657814026,
                        0.22952213883399963,
                        0.20304885506629944,
                        3.0517218112945557,
                        -0.2430892139673233,
                        -1.0309325456619263,
                        -1.5973012447357178,
                        -2.5258381366729736,
                        0.6908571124076843,
                        0.5593993067741394,
                        -0.4261481463909149,
                        0.03399968892335892,
                        -0.7905749678611755,
                        0.32369235157966614,
                        0.5941306352615356,
                        0.1169765368103981,
                        -1.5241684913635254,
                        0.2576567232608795,
                        0.3729458451271057,
                        1.7183849811553955,
                        -0.310369074344635,
                        -0.053962189704179764,
                        -0.23033763468265533,
                        1.1101731061935425,
                        0.6755220293998718,
                        0.6122976541519165,
                        0.419730007648468,
                        -0.008985252119600773,
                        0.3591034412384033,
                        0.33342739939689636,
                        0.3878624737262726,
                        -0.2862895429134369,
                        -0.14999426901340485,
                        0.34513989090919495,
                        -0.5298774838447571,
                        0.3570219874382019,
                        1.9549341201782227,
                        -0.07008427381515503,
                        0.6862980723381042,
                        0.18562978506088257,
                        0.1271403580904007,
                        -0.18046018481254578,
                        0.13427531719207764,
                        0.10344985127449036,
                        0.4815591275691986,
                        -0.0067242830991744995,
                        0.4541923701763153,
                        0.2210703194141388,
                        0.18682968616485596,
                        0.9426122307777405,
                        0.20029230415821075,
                        0.4145045876502991,
                        0.28119537234306335,
                        0.5271254181861877,
                        0.5901734232902527,
                        0.20874062180519104,
                        0.5074845552444458,
                        0.40936902165412903,
                        0.7403091192245483,
                        1.3491722345352173,
                        0.7700349688529968,
                        0.6199682354927063,
                        -0.473702996969223,
                        0.3499327600002289,
                        -0.9262650012969971,
                        -0.09292431175708771,
                        1.545918345451355,
                        1.5913758277893066,
                        -1.2773150205612183,
                        0.7948954105377197,
                        -0.10282687842845917,
                        -0.24543724954128265,
                        0.7242770791053772,
                        0.03474907577037811,
                        -0.7808814644813538,
                        0.5570781826972961,
                        0.5411563515663147,
                        0.9153741002082825,
                        1.2226723432540894,
                        0.44909927248954773,
                        -0.5750499963760376,
                        0.08979684859514236,
                        0.4020026922225952,
                        -0.1646435558795929,
                        0.07060948014259338,
                        -0.10286612808704376,
                        -0.17129400372505188,
                        0.18691980838775635,
                        -0.07322731614112854,
                        -0.16079214215278625,
                        0.2536969780921936,
                        0.47128695249557495,
                        -0.04021326079964638,
                        0.2886473834514618,
                        -0.07954367995262146,
                        -0.06602632999420166,
                        -0.021023130044341087,
                        -0.33428871631622314,
                        -0.21022668480873108,
                        -0.20401659607887268,
                        -0.3400906026363373,
                        0.5393087863922119,
                        0.0032017026096582413,
                        0.2207169234752655,
                        -0.27055710554122925,
                        0.8946719765663147,
                        -0.13016189634799957,
                        -0.273967444896698,
                        0.20202624797821045,
                        -0.25560101866722107,
                        -0.015771793201565742,
                        0.10588526725769043,
                        -0.12313859164714813,
                        -0.017169050872325897,
                        0.010037509724497795,
                        0.35208508372306824,
                        0.30692198872566223,
                        0.21163193881511688,
                        -0.04891299828886986,
                        0.008932703174650669,
                        -0.3420533835887909,
                        -0.16816359758377075,
                        0.044844042509794235,
                        -0.5623584985733032,
                        -0.4906652271747589,
                        -0.18827439844608307,
                        -0.16018518805503845,
                        -0.2170991748571396,
                        0.4126991629600525,
                        0.037746477872133255,
                        0.256933331489563,
                        0.04112207517027855,
                        -0.5673627257347107,
                        0.3480505645275116,
                        -0.11911671608686447,
                        -0.26138177514076233,
                        0.5538528561592102,
                        0.18164704740047455,
                        -0.4039754271507263,
                        -0.09651186317205429,
                        -0.018624024465680122,
                        0.04753275215625763,
                        0.10603659600019455,
                        -0.09970787912607193,
                        0.17567522823810577
                    ],
                    [
                        0.4630093276500702,
                        0.3836517930030823,
                        -0.8478212356567383,
                        0.392926424741745,
                        0.009764726273715496,
                        1.08279287815094,
                        -0.48523297905921936,
                        0.34447211027145386,
                        0.5411818623542786,
                        0.4128417372703552,
                        0.6118399500846863,
                        0.3816888630390167,
                        0.13513366878032684,
                        0.8987727761268616,
                        0.8872734904289246,
                        -0.1526622474193573,
                        0.8712936639785767,
                        1.0047706365585327,
                        -0.4341666102409363,
                        -0.038329679518938065,
                        0.004208350088447332,
                        0.545807957649231,
                        0.9494529366493225,
                        -0.5682472586631775,
                        1.8571429252624512,
                        -0.21707718074321747,
                        0.22980058193206787,
                        0.7894346117973328,
                        0.7302736043930054,
                        0.7992229461669922,
                        -0.1345716267824173,
                        0.03910185024142265,
                        0.9123325347900391,
                        -0.6446564197540283,
                        0.8395401239395142,
                        0.4109681248664856,
                        0.6777028441429138,
                        -0.5202321410179138,
                        0.8926438689231873,
                        0.7804981470108032,
                        0.4990497827529907,
                        -0.5958771705627441,
                        0.14953070878982544,
                        0.6733767986297607,
                        0.19493116438388824,
                        0.2620622217655182,
                        0.9339630603790283,
                        0.9252842664718628,
                        0.13930772244930267,
                        0.041351888328790665,
                        0.3624398410320282,
                        -1.5642338991165161,
                        -0.8559812903404236,
                        -0.38124752044677734,
                        -0.21193048357963562,
                        -0.19771303236484528,
                        -1.0418310165405273,
                        -0.03514831140637398,
                        0.22053450345993042,
                        -0.37701159715652466,
                        0.4640226662158966,
                        -0.6138358116149902,
                        0.6992290019989014,
                        0.7730407118797302,
                        0.4671091139316559,
                        -0.06473170965909958,
                        -0.6611324548721313,
                        -0.09234043210744858,
                        0.03849104791879654,
                        -1.1656280755996704,
                        -0.22834673523902893,
                        -0.5027298927307129,
                        0.18262715637683868,
                        -0.2651340961456299,
                        -0.4935304522514343,
                        0.2031732201576233,
                        -0.1226997897028923,
                        0.0014580994611606002,
                        -0.4164957106113434,
                        -0.23148424923419952,
                        -0.9103127121925354,
                        -0.42251163721084595,
                        -0.7726660370826721,
                        0.07408702373504639,
                        -0.023993343114852905,
                        -0.06610105186700821,
                        0.30168095231056213,
                        -0.03276968374848366,
                        -0.30373457074165344,
                        0.0005696126609109342,
                        -0.8187089562416077,
                        0.21452470123767853,
                        -0.34760624170303345,
                        0.1713520735502243,
                        -0.40793925523757935,
                        -0.19401240348815918,
                        -1.1283131837844849,
                        -0.25513407588005066,
                        -0.47711801528930664,
                        -0.7524237036705017,
                        -0.3909517824649811,
                        -0.32505136728286743,
                        0.36882081627845764,
                        0.24888187646865845,
                        -0.36543816328048706,
                        -0.29552340507507324,
                        0.007209526840597391,
                        -0.22988738119602203,
                        -0.2048732340335846,
                        0.16771869361400604,
                        0.07726577669382095,
                        -0.7036231160163879,
                        -0.18830488622188568,
                        0.25983044505119324,
                        0.27290621399879456,
                        -0.06800217181444168,
                        0.4857792556285858,
                        -0.538042426109314,
                        -0.11567242443561554,
                        0.6072092056274414,
                        -0.3276844918727875,
                        -0.5809908509254456,
                        -0.43309488892555237,
                        -0.017401915043592453,
                        0.13500076532363892,
                        -0.3146405816078186,
                        -0.3088344931602478,
                        -0.7617408633232117,
                        0.1811833381652832,
                        0.317486971616745,
                        -0.8389025330543518,
                        0.13545836508274078,
                        0.04140942171216011,
                        -0.13698714971542358,
                        -0.10283976793289185,
                        -0.5798766016960144,
                        0.05922190472483635,
                        0.04132731258869171,
                        0.06798864156007767,
                        -0.23662316799163818,
                        -0.15925323963165283,
                        0.063125841319561,
                        0.06473112106323242,
                        -0.24109402298927307,
                        -0.037619780749082565,
                        0.06489330530166626,
                        -0.30116742849349976,
                        -0.14711305499076843,
                        0.39842915534973145,
                        -0.04373866692185402,
                        -0.6803810596466064,
                        0.15610633790493011,
                        0.05852485075592995,
                        -0.13745346665382385,
                        -0.35727837681770325,
                        0.10287829488515854,
                        -0.006667894311249256,
                        -0.04542834684252739,
                        -0.03201337903738022,
                        -0.5109023451805115,
                        0.03815639764070511,
                        -0.1403726190328598,
                        -0.18282833695411682,
                        0.09104043990373611,
                        -0.05347764119505882,
                        -0.030334457755088806,
                        -0.32483232021331787,
                        -0.06046554446220398,
                        -0.07865644991397858,
                        0.12118146568536758,
                        -0.4025401175022125,
                        0.18278510868549347,
                        -0.13757695257663727,
                        0.1708155870437622,
                        0.14786365628242493,
                        0.37180379033088684,
                        -0.15997177362442017,
                        -0.15122230350971222,
                        0.08927188068628311,
                        0.26324597001075745,
                        0.052929673343896866,
                        -0.136499285697937,
                        -0.17916586995124817,
                        0.5150505304336548,
                        0.3663541376590729,
                        0.15955312550067902,
                        -0.15438571572303772,
                        0.29564082622528076,
                        -0.5937937498092651,
                        -0.5313720107078552,
                        -0.21035891771316528,
                        -0.03435927629470825
                    ],
                    [
                        -0.1814720332622528,
                        -0.6850662231445312,
                        0.15511679649353027,
                        -0.48085078597068787,
                        0.227565735578537,
                        -0.7078256011009216,
                        -0.2747686207294464,
                        -0.6838974952697754,
                        -0.6688823103904724,
                        -0.4372686445713043,
                        0.6927407383918762,
                        -0.11381286382675171,
                        1.4108811616897583,
                        -0.4142942726612091,
                        0.3766725957393646,
                        -0.542059600353241,
                        0.34354111552238464,
                        -1.816259741783142,
                        -0.7927743196487427,
                        1.0993289947509766,
                        0.2064787894487381,
                        -0.16475991904735565,
                        -0.20780594646930695,
                        0.19930362701416016,
                        -0.8478664755821228,
                        0.46839189529418945,
                        -0.3874751925468445,
                        1.0315922498703003,
                        -0.31210997700691223,
                        0.21436813473701477,
                        0.2730056941509247,
                        0.30475473403930664,
                        -0.5167890191078186,
                        1.2410740852355957,
                        -0.8191152811050415,
                        0.08156310021877289,
                        -0.5092522501945496,
                        -0.6849686503410339,
                        -0.7557693123817444,
                        -0.3151628077030182,
                        0.4527103006839752,
                        -0.22572535276412964,
                        -0.39079055190086365,
                        0.6606183052062988,
                        -0.44853585958480835,
                        1.1044878959655762,
                        -0.9212419390678406,
                        0.499535471200943,
                        -0.5188045501708984,
                        -0.46379178762435913,
                        -0.6073129177093506,
                        -0.16898438334465027,
                        0.47764986753463745,
                        0.45522525906562805,
                        0.30243584513664246,
                        0.13032108545303345,
                        0.3338301479816437,
                        0.4835069179534912,
                        -0.25574538111686707,
                        0.8031221628189087,
                        -1.4260445833206177,
                        -0.22926773130893707,
                        -0.34301477670669556,
                        1.2662789821624756,
                        0.628039538860321,
                        0.4641943573951721,
                        -0.18950292468070984,
                        -0.07803530991077423,
                        -0.20812273025512695,
                        -0.07233329862356186,
                        -0.6577764749526978,
                        -0.12403986603021622,
                        -0.5448347330093384,
                        -0.14239422976970673,
                        0.3399813175201416,
                        -0.2091979831457138,
                        -0.007769170682877302,
                        0.24982617795467377,
                        0.4006790816783905,
                        0.02484850026667118,
                        -0.15735897421836853,
                        -0.4328947067260742,
                        1.3037798404693604,
                        -0.7489681839942932,
                        0.2719826400279999,
                        -0.47301721572875977,
                        -0.11237483471632004,
                        0.1494646966457367,
                        0.45876431465148926,
                        -0.12112218141555786,
                        0.40312662720680237,
