{
    "in_shape": [
        null,
        2
    ],
    "layers": [
        {
            "type": "dense",
            "activation": "relu",
            "shape": [
                null,
                3
            ],
            "weights": [
                [
                    [
                        0.8111623525619507,
                        1.0162543058395386,
                        -0.024472061544656754
                    ],
                    [
                        -0.7003073692321777,
                        -0.2037450671195984,
                        -0.07442475855350494
                    ]
                ],
                [
                    0.6289551854133606,
                    -0.0049047283828258514,
                    -0.6684243083000183
                ]
            ]
        },
        {
            "type": "dense",
            "activation": "relu",
            "shape": [
                null,
                5
            ],
            "weights": [
                [
                    [
                        0.7219144105911255,
                        0.6800377368927002,
                        1.1502090692520142,
                        1.035886526107788,
                        -0.8136183023452759
                    ],
                    [
                        1.2472381591796875,
                        0.1927512139081955,
                        1.2855641841888428,
                        -1.0239068269729614,
                        0.11227834224700928
                    ],
                    [
                        0.5561078190803528,
                        -0.45445486903190613,
                        0.2361481785774231,
                        -0.36740338802337646,
                        0.4346477687358856
                    ]
                ],
                [
                    -0.31761908531188965,
                    0.3108978569507599,
                    0.018148263916373253,
                    0.05836060643196106,
                    1.0894428491592407
                ]
            ]
        },
        {
            "type": "dense",
            "activation": "relu",
            "shape": [
                null,
                7
            ],
            "weights": [
                [
                    [
                        -0.30245548486709595,
                        -0.475812166929245,
                        0.9075234532356262,
                        -0.19876979291439056,
                        0.7067553400993347,
                        -0.004472771193832159,
                        0.19134268164634705
                    ],
                    [
                        0.06770321726799011,
                        -0.1855345219373703,
                        0.4253842532634735,
                        -0.04923225939273834,
                        0.287311851978302,
                        0.03125230222940445,
                        -0.375040203332901
                    ],
                    [
                        0.15326383709907532,
                        -0.8706766366958618,
                        0.5199615955352783,
                        -0.2971467077732086,
                        0.04028363898396492,
                        -0.44429129362106323,
                        -0.2041529268026352
                    ],
                    [
                        0.06130252406001091,
                        -0.4955015182495117,
                        -1.1984531879425049,
                        0.343251496553421,
                        0.9709911942481995,
                        0.23892083764076233,
                        -0.07829258590936661
                    ],
                    [
                        -0.10831514000892639,
                        0.8268343210220337,
                        0.011038684286177158,
                        -0.18915784358978271,
                        -1.0034555196762085,
                        -0.44272348284721375,
                        -0.043453823775053024
                    ]
                ],
                [
                    -0.4274780750274658,
                    0.707341194152832,
                    0.5347775220870972,
                    -0.01930028200149536,
                    -0.6380646228790283,
                    -0.008561269380152225,
                    -0.12288285791873932
                ]
            ]
        },
        {
            "type": "dense",
            "activation": "relu",
            "shape": [
                null,
                9
            ],
            "weights": [
                [
                    [
                        0.2630116641521454,
                        -0.15292060375213623,
                        0.018114756792783737,
                        0.01142628863453865,
                        -0.24758492410182953,
                        -0.17623744904994965,
                        -0.1675535887479782,
                        0.005676535423845053,
                        -0.2621196210384369
                    ],
                    [
                        -0.38846278190612793,
                        0.4258374571800232,
                        -0.5107923746109009,
                        0.16741646826267242,
                        -0.08202040940523148,
                        0.6303732395172119,
                        0.9787190556526184,
                        -0.7063515782356262,
                        0.9415832161903381
                    ],
                    [
                        -0.19609256088733673,
                        0.8891185522079468,
                        0.5251078605651855,
                        0.22778283059597015,
                        -0.1902833878993988,
                        0.7175962328910828,
                        0.19324027001857758,
                        0.710206151008606,
                        0.47495222091674805
                    ],
                    [
                        -0.26388704776763916,
                        0.21724650263786316,
                        -0.2755008041858673,
                        0.25490206480026245,
                        0.183888778090477,
                        0.11201787739992142,
                        -0.054443664848804474,
                        0.008182103745639324,
                        0.015865787863731384
                    ],
                    [
                        -0.2514089047908783,
                        -0.6796635389328003,
                        0.596252977848053,
                        0.7132290005683899,
                        0.15784834325313568,
                        1.0633995532989502,
                        0.9620153903961182,
                        -0.2737056314945221,
                        -0.6377601623535156
                    ],
                    [
                        0.1930166780948639,
                        0.24661479890346527,
                        -0.16837060451507568,
                        0.2172476351261139,
                        0.299357146024704,
                        -0.15536290407180786,
                        -0.2767391800880432,
                        -0.3310104310512543,
                        -0.09368126094341278
                    ],
                    [
                        0.31029650568962097,
                        -0.169747456908226,
                        -0.3467872142791748,
                        0.3646288514137268,
                        -0.20084205269813538,
                        0.1859419345855713,
                        -0.2935563921928406,
                        0.3556572496891022,
                        -0.29309266805648804
                    ]
                ],
                [
                    0.1164325550198555,
                    -0.4569811224937439,
                    0.4636698365211487,
                    0.8176955580711365,
                    -0.34815713763237,
                    -0.5705469846725464,
                    -0.21921762824058533,
                    0.4282087981700897,
                    -0.21120581030845642
                ]
            ]
        },
        {
            "type": "dense",
            "activation": "sigmoid",
            "shape": [
                null,
                10
            ],
            "weights": [
                [
                    [
                        -0.3986377418041229,
                        0.24876104295253754,
                        0.21735262870788574,
                        0.0857221931219101,
                        -0.07776112854480743,
                        0.08563586324453354,
                        0.3907229006290436,
                        -0.25567418336868286,
                        0.2703474760055542,
                        -0.004954368807375431
                    ],
                    [
                        0.12283337861299515,
                        -0.8221049308776855,
                        0.5429818034172058,
                        0.3549712300300598,
                        -0.3157861530780792,
                        -0.5741354823112488,
                        0.1061958447098732,
                        -0.0395926758646965,
                        0.9152913689613342,
                        -0.6595908403396606
                    ],
                    [
                        -0.012070415541529655,
                        0.920931875705719,
                        -0.37482568621635437,
                        -0.28390777111053467,
                        -0.7323455810546875,
                        0.7073491215705872,
                        0.06044347211718559,
                        0.46192485094070435,
                        -0.20918630063533783,
                        0.6224998831748962
                    ],
                    [
                        0.38779374957084656,
                        0.0592610128223896,
                        -0.552752673625946,
                        -0.8925097584724426,
                        0.19935283064842224,
                        0.32307061553001404,
                        -0.7615865468978882,
                        0.13374115526676178,
                        -0.6768313050270081,
                        0.5218701362609863
                    ],
                    [
                        0.045162003487348557,
                        -0.09130354970693588,
                        0.004409353248775005,
                        -0.20705334842205048,
                        -0.21915113925933838,
                        -0.03771468251943588,
                        0.023907702416181564,
                        0.22140614688396454,
                        -0.11193446815013885,
                        0.26831573247909546
                    ],
                    [
                        -0.421625554561615,
                        -0.772589921951294,
                        0.8674872517585754,
                        0.4866897165775299,
                        0.43479469418525696,
                        -0.8011324405670166,
                        0.5439369678497314,
                        0.14679428935050964,
                        0.2886655628681183,
                        -0.38363179564476013
                    ],
                    [
                        -0.5625595450401306,
                        -0.8586443662643433,
                        0.6034840941429138,
                        0.6948876976966858,
                        0.9941713213920593,
                        -0.8575759530067444,
                        1.0310089588165283,
                        -0.2839929461479187,
                        0.7650796175003052,
                        -0.3932013213634491
                    ],
                    [
                        0.01782061718404293,
                        0.5096260905265808,
                        -0.3572384715080261,
                        -0.1605885624885559,
                        -0.4368600845336914,
                        0.8751010894775391,
                        0.20713897049427032,
                        0.23871435225009918,
                        -0.16960850358009338,
                        -0.10601906478404999
                    ],
                    [
                        -0.114889957010746,
                        -0.36545100808143616,
                        -0.018162474036216736,
                        -0.29198044538497925,
                        0.2133069932460785,
                        -0.8722038865089417,
                        -0.5283529162406921,
                        -0.18417449295520782,
                        0.19907835125923157,
                        -0.44004276394844055
                    ]
                ],
                [
                    0.021502455696463585,
                    0.2958725690841675,
                    -0.24378935992717743,
                    -0.6760839223861694,
                    -0.006586459930986166,
                    0.1406659185886383,
                    -0.3090292811393738,
                    -0.044474370777606964,
                    0.05329171195626259,
                    0.24955902993679047
                ]
            ]
        }
    ]
}