{
    "in_shape": [
        null,
        2
    ],
    "layers": [
        {
            "type": "dense",
            "activation": "relu",
            "shape": [
                null,
                3
            ],
            "weights": [
                [
                    [
                        0.9210399985313416,
                        0.8901187777519226,
                        -0.3040412962436676
                    ],
                    [
                        -0.919162392616272,
                        0.9364758729934692,
                        -0.10597866773605347
                    ]
                ],
                [
                    1.0285222742822953e-05,
                    -0.0363517664372921,
                    -0.34935447573661804
                ]
            ]
        },
        {
            "type": "dense",
            "activation": "relu",
            "shape": [
                null,
                5
            ],
            "weights": [
                [
                    [
                        1.259832501411438,
                        -0.36125507950782776,
                        0.25135090947151184,
                        -0.36259058117866516,
                        -1.1469531059265137
                    ],
                    [
                        -0.10234491527080536,
                        -0.35985928773880005,
                        1.240852952003479,
                        -0.3709602952003479,
                        0.8455581068992615
                    ],
                    [
                        0.16716960072517395,
                        -0.24437427520751953,
                        -0.1575206071138382,
                        -0.376128613948822,
                        0.370586097240448
                    ]
                ],
                [
                    0.8630177974700928,
                    -0.31657224893569946,
                    -0.013059273362159729,
                    -0.005353822372853756,
                    0.33449041843414307
                ]
            ]
        },
        {
            "type": "dense",
            "activation": "relu",
            "shape": [
                null,
                7
            ],
            "weights": [
                [
                    [
                        0.2901915907859802,
                        0.4522567391395569,
                        -0.2169022262096405,
                        0.7625129222869873,
                        -0.08397991210222244,
                        1.136420726776123,
                        -0.12433422356843948
                    ],
                    [
                        0.19327658414840698,
                        -0.06470516324043274,
                        -0.32933560013771057,
                        0.12053441256284714,
                        -0.4305528402328491,
                        -0.024821007624268532,
                        0.2203458547592163
                    ],
                    [
                        1.372917890548706,
                        1.034600853919983,
                        0.1932058334350586,
                        0.11036302149295807,
                        -0.25883233547210693,
                        -0.16658265888690948,
                        1.473479986190796
                    ],
                    [
                        0.12412737309932709,
                        0.3861933648586273,
                        0.28509655594825745,
                        -0.2530011534690857,
                        0.3300478160381317,
                        -0.23844149708747864,
                        0.1694733202457428
                    ],
                    [
                        -0.16632124781608582,
                        -0.9374757409095764,
                        -0.16661876440048218,
                        -0.6994852423667908,
                        0.2948612868785858,
                        -0.3707423806190491,
                        0.7051715850830078
                    ]
                ],
                [
                    -0.17577572166919708,
                    -0.0799436941742897,
                    -0.06953219324350357,
                    0.8185992240905762,
                    -0.3083581328392029,
                    0.875321626663208,
                    -0.2255544513463974
                ]
            ]
        },
        {
            "type": "dense",
            "activation": "relu",
            "shape": [
                null,
                9
            ],
            "weights": [
                [
                    [
                        0.46689125895500183,
                        -0.7693692445755005,
                        0.34930580854415894,
                        0.0659075453877449,
                        0.2695077955722809,
                        0.6152433753013611,
                        0.6734459400177002,
                        -0.24125336110591888,
                        0.14838044345378876
                    ],
                    [
                        0.551457405090332,
                        -0.038296472281217575,
                        0.3147735297679901,
                        0.027462847530841827,
                        0.8719576001167297,
                        0.1083642765879631,
                        0.9272026419639587,
                        -0.23755820095539093,
                        0.12678605318069458
                    ],
                    [
                        0.3640226125717163,
                        -0.11643773317337036,
                        0.3251233398914337,
                        0.07117382436990738,
                        -0.3374580144882202,
                        -0.36170119047164917,
                        -0.08382344990968704,
                        0.22635303437709808,
                        0.2800363302230835
                    ],
                    [
                        -0.8561250567436218,
                        0.8919218182563782,
                        -0.49167904257774353,
                        0.44201648235321045,
                        0.4974108040332794,
                        0.4299324154853821,
                        0.649652361869812,
                        -0.11611312627792358,
                        -0.4261389374732971
                    ],
                    [
                        0.3731253445148468,
                        0.29356849193573,
                        0.02182185649871826,
                        -0.19684262573719025,
                        -0.18759295344352722,
                        -0.08242380619049072,
                        -0.12275142222642899,
                        0.03354281559586525,
                        0.24491119384765625
                    ],
                    [
                        -0.7644469738006592,
                        0.678635835647583,
                        -0.33018121123313904,
                        0.5451268553733826,
                        0.4714653193950653,
                        0.29358577728271484,
                        -0.011164072901010513,
                        -0.3772497773170471,
                        -0.11173292994499207
                    ],
                    [
                        0.37420979142189026,
                        -0.49921685457229614,
                        0.5711366534233093,
                        0.6544221639633179,
                        -0.7464207410812378,
                        0.6166641712188721,
                        -0.7105003595352173,
                        -0.22355906665325165,
                        0.07679089903831482
                    ]
                ],
                [
                    -0.1027325913310051,
                    0.6460127234458923,
                    -1.0318379402160645,
                    0.41711530089378357,
                    -0.08243704587221146,
                    -0.342329740524292,
                    -0.2916962206363678,
                    0.22795751690864563,
                    -0.15799766778945923
                ]
            ]
        },
        {
            "type": "dense",
            "activation": "sigmoid",
            "shape": [
                null,
                10
            ],
            "weights": [
                [
                    [
                        -0.4424717426300049,
                        0.5257032513618469,
                        0.40438854694366455,
                        0.35542500019073486,
                        -1.2126672267913818,
                        0.8936012387275696,
                        0.18863089382648468,
                        -0.23469814658164978,
                        0.3368604779243469,
                        -0.13022923469543457
                    ],
                    [
                        0.0506521575152874,
                        0.8242218494415283,
                        -0.4733247756958008,
                        -0.51627117395401,
                        -0.47437718510627747,
                        0.6579627394676208,
                        -0.3590393662452698,
                        -0.054073601961135864,
                        -0.518496036529541,
                        0.6160938739776611
                    ],
                    [
                        1.1923929452896118,
                        1.478163480758667,
                        -1.3453634977340698,
                        -1.1007680892944336,
                        -1.830488681793213,
                        1.798309326171875,
                        -0.38589757680892944,
                        1.0536575317382812,
                        -1.0243995189666748,
                        0.7092563509941101
                    ],
                    [
                        0.12514670193195343,
                        -0.3081187903881073,
                        -0.12171270698308945,
                        -0.6495511531829834,
                        0.5369330048561096,
                        -0.1981043964624405,
                        -0.47364476323127747,
                        0.039977651089429855,
                        -0.035116203129291534,
                        0.2725090980529785
                    ],
                    [
                        0.13643547892570496,
                        0.3437475562095642,
                        0.08093089610338211,
                        0.010976571589708328,
                        0.08367955684661865,
                        0.6255912780761719,
                        0.482776015996933,
                        0.44578251242637634,
                        0.07447779923677444,
                        0.5272552371025085
                    ],
                    [
                        -0.5610339641571045,
                        -0.8650766611099243,
                        0.6390194296836853,
                        0.6303296089172363,
                        -0.03968676179647446,
                        -1.3420279026031494,
                        0.5028409957885742,
                        -0.13963758945465088,
                        0.6154234409332275,
                        -0.7800275087356567
                    ],
                    [
                        -0.18692104518413544,
                        -0.008998644538223743,
                        0.21064354479312897,
                        0.2803455591201782,
                        -0.3475227952003479,
                        0.3571417033672333,
                        0.6388900876045227,
                        0.935747504234314,
                        0.0304085873067379,
                        -0.4707764983177185
                    ],
                    [
                        0.04306444153189659,
                        0.06962014734745026,
                        0.10191073268651962,
                        -0.09226202219724655,
                        0.22091837227344513,
                        0.23416072130203247,
                        0.06174779683351517,
                        0.1174495592713356,
                        -0.2861320674419403,
                        -0.10025813430547714
                    ],
                    [
                        -0.20621320605278015,
                        -0.22722333669662476,
                        -0.041545506566762924,
                        0.25023260712623596,
                        0.19473837316036224,
                        0.9807732701301575,
                        -0.07620105892419815,
                        -0.07466474920511246,
                        0.1730898767709732,
                        -0.008257906883955002
                    ]
                ],
                [
                    0.2762935161590576,
                    0.06358683854341507,
                    -0.25264227390289307,
                    -0.34556111693382263,
                    0.4073348939418793,
                    0.20599365234375,
                    0.03153093531727791,
                    -0.21824081242084503,
                    0.034567173570394516,
                    0.10111430287361145
                ]
            ]
        }
    ]
}