{
    "in_shape": [
        null,
        2
    ],
    "layers": [
        {
            "type": "dense",
            "activation": "relu",
            "shape": [
                null,
                4
            ],
            "weights": [
                [
                    [
                        1.1845465898513794,
                        0.17936661839485168,
                        -0.20510415732860565,
                        -0.6122448444366455
                    ],
                    [
                        0.05531788617372513,
                        -0.24097435176372528,
                        1.440748691558838,
                        0.418698251247406
                    ]
                ],
                [
                    -0.053361084312200546,
                    -0.3667961061000824,
                    0.12535694241523743,
                    -0.5392220616340637
                ]
            ]
        },
        {
            "type": "dense",
            "activation": "relu",
            "shape": [
                null,
                7
            ],
            "weights": [
                [
                    [
                        -0.15877562761306763,
                        0.8142635822296143,
                        -0.25645244121551514,
                        0.9530966281890869,
                        0.34371376037597656,
                        1.0532793998718262,
                        -0.059054553508758545
                    ],
                    [
                        0.06038719415664673,
                        -0.4249892830848694,
                        -0.02631455659866333,
                        -0.1306663155555725,
                        -0.3169281482696533,
                        0.37823253870010376,
                        0.12769287824630737
                    ],
                    [
                        -0.2507518529891968,
                        -0.3829447627067566,
                        -0.8417529463768005,
                        0.44130396842956543,
                        -0.04323875904083252,
                        -1.0345914363861084,
                        0.2938348054885864
                    ],
                    [
                        0.3865031599998474,
                        -0.32933419942855835,
                        0.08075952529907227,
                        0.4988812208175659,
                        -0.3126732110977173,
                        0.46850085258483887,
                        -0.08005285263061523
                    ]
                ],
                [
                    -0.4171549081802368,
                    0.5980865955352783,
                    1.32053542137146,
                    -0.6931104063987732,
                    -0.39396369457244873,
                    0.15478795766830444,
                    -0.49383723735809326
                ]
            ]
        },
        {
            "type": "dense",
            "activation": "relu",
            "shape": [
                null,
                11
            ],
            "weights": [
                [
                    [
                        0.36617422103881836,
                        0.2242933064699173,
                        0.15277069807052612,
                        -0.09511515498161316,
                        0.08631405979394913,
                        -0.07458913326263428,
                        0.26041093468666077,
                        0.26642391085624695,
                        0.0763469859957695,
                        -0.30568039417266846,
                        0.2495644986629486
                    ],
                    [
                        0.6828994154930115,
                        0.8132644891738892,
                        -0.2388583868741989,
                        -0.2921198606491089,
                        0.675703763961792,
                        0.9077972769737244,
                        0.626444935798645,
                        0.7610172033309937,
                        -0.36293482780456543,
                        0.33773475885391235,
                        -0.2959124445915222
                    ],
                    [
                        1.264663815498352,
                        0.9345942139625549,
                        0.5400905609130859,
                        0.27592533826828003,
                        -0.20092248916625977,
                        1.1922848224639893,
                        -0.10799147188663483,
                        -0.22142542898654938,
                        0.15028846263885498,
                        0.47068819403648376,
                        0.5390137434005737
                    ],
                    [
                        0.13809776306152344,
                        0.23108038306236267,
                        -0.8324863910675049,
                        -0.2684866189956665,
                        1.1746658086776733,
                        -0.16062873601913452,
                        1.0371943712234497,
                        0.27636146545410156,
                        0.12155777215957642,
                        0.8500282764434814,
                        -0.5984452366828918
                    ],
                    [
                        0.1480647772550583,
                        -0.12296390533447266,
                        0.32188254594802856,
                        -0.16777373850345612,
                        -0.2824935019016266,
                        0.3454490303993225,
                        0.11022245138883591,
                        -0.26111167669296265,
                        0.19588075578212738,
                        0.3510501980781555,
                        0.3529037833213806
                    ],
                    [
                        -0.5845639705657959,
                        -1.0788917541503906,
                        -0.7149803042411804,
                        0.013305971398949623,
                        1.2191812992095947,
                        0.6975986361503601,
                        -0.7240927219390869,
                        0.664132297039032,
                        -0.09767843782901764,
                        -0.6691031455993652,
                        1.0436069965362549
                    ],
                    [
                        0.1390293389558792,
                        -0.19777683913707733,
                        -0.07602424174547195,
                        0.21817860007286072,
                        -0.13340313732624054,
                        0.038967572152614594,
                        0.3460969030857086,
                        -0.17869263887405396,
                        -0.3421936333179474,
                        -0.1467650681734085,
                        0.13006915152072906
                    ]
                ],
                [
                    -0.002280214801430702,
                    -0.0016373201506212354,
                    1.0894087553024292,
                    -0.1907014697790146,
                    -0.1582021564245224,
                    -0.0021137872245162725,
                    -0.0654943510890007,
                    -0.16627191007137299,
                    -0.007218160666525364,
                    -0.0007958889473229647,
                    1.350761890411377
                ]
            ]
        },
        {
            "type": "dense",
            "activation": "sigmoid",
            "shape": [
                null,
                13
            ],
            "weights": [
                [
                    [
                        0.014874645508825779,
                        0.3496229648590088,
                        0.3086620569229126,
                        0.10667604207992554,
                        0.7704839706420898,
                        1.0660972595214844,
                        0.745496392250061,
                        1.4640929698944092,
                        0.7021375298500061,
                        -0.09761430323123932,
                        -0.4076468348503113,
                        -1.3616567850112915,
                        -1.385219693183899
                    ],
                    [
                        0.6127111911773682,
                        -0.12850593030452728,
                        1.0173540115356445,
                        0.3897797763347626,
                        0.7496116161346436,
                        1.2851519584655762,
                        -0.28738218545913696,
                        0.27072250843048096,
                        0.15886786580085754,
                        -0.5498027205467224,
                        -0.6740554571151733,
                        -0.806892991065979,
                        -0.8400311470031738
                    ],
                    [
                        -0.1284109652042389,
                        0.5159434676170349,
                        -0.3107668161392212,
                        0.962336540222168,
                        -0.9465005397796631,
                        0.05026470869779587,
                        0.4022310674190521,
                        -1.0336459875106812,
                        0.27996334433555603,
                        0.2770128548145294,
                        -0.29501035809516907,
                        0.3664374351501465,
                        -0.12203854322433472
                    ],
                    [
                        0.17459771037101746,
                        0.07773641496896744,
                        -0.06974579393863678,
                        -0.053760774433612823,
                        0.09830459207296371,
                        -0.2985406517982483,
                        -0.20281444489955902,
                        0.269449383020401,
                        -0.163443461060524,
                        0.27308815717697144,
                        -0.29092922806739807,
                        0.09743937104940414,
                        0.204102024435997
                    ],
                    [
                        0.09268778562545776,
                        0.05434948578476906,
                        0.08373598009347916,
                        0.13054077327251434,
                        -0.3557422161102295,
                        -0.5167970657348633,
                        -0.38201844692230225,
                        -0.7332685589790344,
                        0.03759516030550003,
                        -0.061720848083496094,
                        0.9905421137809753,
                        0.9668081402778625,
                        0.9739310145378113
                    ],
                    [
                        0.10360152274370193,
                        -0.40581467747688293,
                        0.3164062798023224,
                        -0.8660852313041687,
                        0.7646471261978149,
                        0.3544436991214752,
                        0.03178870305418968,
                        0.3609379529953003,
                        -0.5088343620300293,
                        -0.17813965678215027,
                        -1.3940472602844238,
                        -0.7884520888328552,
                        -0.48028045892715454
                    ],
                    [
                        -0.10597637295722961,
                        0.22038303315639496,
                        0.8323145508766174,
                        0.6981796622276306,
                        0.03796738013625145,
                        0.3870357275009155,
                        -0.8319840431213379,
                        0.18142062425613403,
                        -0.19787417352199554,
                        -0.651425838470459,
                        0.226070374250412,
                        -0.247883602976799,
                        -0.460631787776947
                    ],
                    [
                        -0.12056423723697662,
                        -0.1543070375919342,
                        -0.62913978099823,
                        -0.6902486085891724,
                        -0.3812006413936615,
                        -0.9277422428131104,
                        -0.30473387241363525,
                        -0.7258498668670654,
                        -0.5396860837936401,
                        0.09633836895227432,
                        0.6480867862701416,
                        0.7541233897209167,
                        0.7031559944152832
                    ],
                    [
                        0.1783253401517868,
                        0.2017507404088974,
                        -0.01590595580637455,
                        -0.24995389580726624,
                        0.26998379826545715,
                        0.027921462431550026,
                        -0.2944449484348297,
                        -0.04467402771115303,
                        -0.21295283734798431,
                        0.20353111624717712,
                        -0.23306900262832642,
                        -0.20193201303482056,
                        -0.21860043704509735
                    ],
                    [
                        0.09002950042486191,
                        -0.09800487011671066,
                        0.8700019121170044,
                        0.6492488980293274,
                        -0.42021992802619934,
                        0.9095717668533325,
                        -0.5601820349693298,
                        0.7270744442939758,
                        -0.25774115324020386,
                        -0.3068668842315674,
                        0.0010753038804978132,
                        -0.9578862190246582,
                        -0.9224007725715637
                    ],
                    [
                        -0.18873538076877594,
                        0.020265020430088043,
                        -0.7179440259933472,
                        -0.09972571581602097,
                        -0.02950105629861355,
                        -1.2941690683364868,
                        0.36588290333747864,
                        -0.6415740251541138,
                        -0.1696915179491043,
                        0.5567440390586853,
                        -0.01874900981783867,
                        0.34256091713905334,
                        0.48635759949684143
                    ]
                ],
                [
                    -0.2573731541633606,
                    0.18644732236862183,
                    -0.30530625581741333,
                    0.6086603403091431,
                    -0.5101277828216553,
                    -1.382741928100586,
                    -0.2800717055797577,
                    -0.45885565876960754,
                    0.21698877215385437,
                    0.16361430287361145,
                    1.065328598022461,
                    0.6671192049980164,
                    0.45639029145240784
                ]
            ]
        }
    ]
}