{
    "in_shape": [
        32,
        0,
        1
    ],
    "layers": [
        {
            "type": "gru",
            "activation": "tanh",
            "shape": [
                32,
                0,
                16
            ],
            "weights": [
                [
                    [
                        -0.0005350534920580685,
                        -0.0004343876207713038,
                        -0.00043702038237825036,
                        -0.0005300057237036526,
                        -0.21191269159317017,
                        0.1269550919532776,
                        -0.0004133869369979948,
                        -0.0004616052028723061,
                        0.08816837519407272,
                        -0.11627423763275146,
                        -0.02123936079442501,
                        -0.00041330119711346924,
                        -0.04726478457450867,
                        -0.0004398914170451462,
                        0.25388088822364807,
                        -0.00037548350519500673,
                        0.0011446241987869143,
                        0.0006073715630918741,
                        0.0006042651366442442,
                        0.0010852930136024952,
                        0.0662473663687706,
                        0.004840631037950516,
                        0.0005077518289908767,
                        0.0007170221651904285,
                        1.0171897411346436,
                        -1.0066566467285156,
                        0.017090629786252975,
                        0.0004765213234350085,
                        0.04656973108649254,
                        0.0006347948219627142,
                        -0.10754717141389847,
                        0.00018514494877308607,
                        6.0130900237709284e-05,
                        -0.0035576268564909697,
                        0.0035264615435153246,
                        0.00028945947997272015,
                        -0.36198246479034424,
                        -1.3014646768569946,
                        -0.004175035748630762,
                        0.0027955893892794847,
                        1.2640248537063599,
                        -1.205664873123169,
                        0.7091655731201172,
                        0.004268364515155554,
                        0.054817553609609604,
                        0.003389549208804965,
                        0.5825621485710144,
                        -0.00573275052011013
                    ]
                ],
                [
                    [
                        -0.000944407656788826,
                        -0.000778015935793519,
                        -0.0007810648530721664,
                        -0.0009294951451011002,
                        -0.14013096690177917,
                        -0.1225818395614624,
                        -0.0007528814603574574,
                        -0.0008126450702548027,
                        -0.09275003522634506,
                        -0.10572128742933273,
                        -0.08047500997781754,
                        -0.0007525458349846303,
                        -0.13144788146018982,
                        -0.0007848982349969447,
                        -0.11438916623592377,
                        -0.0007046223618090153,
                        0.046632543206214905,
                        0.04651842638850212,
                        0.04651352018117905,
                        0.046616435050964355,
                        0.11920186877250671,
                        0.022930806502699852,
                        0.04649173468351364,
                        0.04654074087738991,
                        0.09410227090120316,
                        0.0827556625008583,
                        0.012678569182753563,
                        0.046475041657686234,
                        0.11203768849372864,
                        0.04652594402432442,
                        0.14271390438079834,
                        0.04635493457317352,
                        0.11738309264183044,
                        0.11725562810897827,
                        -0.1172449141740799,
                        -0.1173611432313919,
                        0.020104948431253433,
                        -0.011556477285921574,
                        0.11721799522638321,
                        -0.11728033423423767,
                        0.28959184885025024,
                        0.27933621406555176,
                        0.0034632531460374594,
                        -0.11718674749135971,
                        0.021950198337435722,
                        -0.11726675927639008,
                        0.08803170174360275,
                        0.11698423326015472
                    ],
                    [
                        -0.0009429823257960379,
                        -0.0007768151117488742,
                        -0.0007798621663823724,
                        -0.0009280930971726775,
                        -0.14023445546627045,
                        -0.12257566303014755,
                        -0.0007517143385484815,
                        -0.0008114008232951164,
                        -0.09335406869649887,
                        -0.10511595755815506,
                        -0.08034496754407883,
                        -0.0007513839518651366,
                        -0.13137410581111908,
                        -0.0007836880977265537,
                        -0.11392467468976974,
                        -0.0007035321905277669,
                        0.046571191400289536,
                        0.046460606157779694,
                        0.046455733478069305,
                        0.04655549302697182,
                        0.11943266540765762,
                        0.022879265248775482,
                        0.04643462225794792,
                        0.046482253819704056,
                        0.09567810595035553,
                        0.08057041466236115,
                        0.012649177573621273,
                        0.04641827195882797,
                        0.11200015991926193,
                        0.04646805673837662,
                        0.14244922995567322,
                        0.046300116926431656,
                        0.11721549183130264,
                        0.11709970235824585,
                        -0.11708929389715195,
                        -0.11719469726085663,
                        0.019664673134684563,
                        -0.011364933103322983,
                        0.11706452816724777,
                        -0.11712244898080826,
                        0.2908657491207123,
                        0.27701905369758606,
                        0.0028842976316809654,
                        -0.11703374981880188,
                        0.022214047610759735,
                        -0.11710982024669647,
                        0.08918074518442154,
                        0.11683724075555801
                    ],
                    [
                        0.0009429606725461781,
                        0.0007767967181280255,
                        0.0007798435399308801,
                        0.0009280716185458004,
                        0.1402275115251541,
                        0.12257374078035355,
                        0.0007516965852119029,
                        0.0008113814983516932,
                        0.09335256367921829,
                        0.10511531680822372,
                        0.08034227788448334,
                        0.0007513659074902534,
                        0.13137085735797882,
                        0.0007836697623133659,
                        0.11392835527658463,
                        0.0007035150192677975,
                        -0.04656996577978134,
                        -0.04645928367972374,
                        -0.046454574912786484,
                        -0.046554289758205414,
                        -0.11942914873361588,
                        -0.022879133000969887,
                        -0.04643339291214943,
                        -0.04648103564977646,
                        -0.09567392617464066,
                        -0.08035439997911453,
                        -0.012649089097976685,
                        -0.046417031437158585,
                        -0.11199861764907837,
                        -0.04646676406264305,
                        -0.14244583249092102,
                        -0.046298909932374954,
                        -0.11721181124448776,
                        -0.1170959398150444,
                        0.1170855239033699,
                        0.11719106882810593,
                        -0.019681179895997047,
                        0.011361191980540752,
                        -0.11706065386533737,
                        0.11711879074573517,
                        -0.29084348678588867,
                        -0.27694666385650635,
                        -0.0028822862077504396,
                        0.11702996492385864,
                        -0.022193849086761475,
                        0.11710622161626816,
                        -0.0891566053032875,
                        -0.11683344841003418
                    ],
                    [
                        0.0009442460141144693,
                        0.0007778802537359297,
                        0.0007809287053532898,
                        0.0009293361217714846,
                        0.1401372253894806,
                        0.12258100509643555,
                        0.0007527496782131493,
                        0.0008125042077153921,
                        0.09281277656555176,
                        0.10565921664237976,
                        0.08045955002307892,
                        0.000752414867747575,
                        0.1314384788274765,
                        0.0007847615634091198,
                        0.11434516310691833,
                        0.0007044993690215051,
                        -0.046625565737485886,
                        -0.04651162400841713,
                        -0.04650689661502838,
                        -0.046609532088041306,
                        -0.11922331154346466,
                        -0.02292557805776596,
                        -0.04648509994149208,
                        -0.04653405398130417,
                        -0.09426716715097427,
                        -0.08233943581581116,
                        -0.012675460427999496,
                        -0.046468496322631836,
                        -0.11203320324420929,
                        -0.04651924967765808,
                        -0.1426842361688614,
                        -0.046348463743925095,
                        -0.11736356467008591,
                        -0.11723730713129044,
                        0.1172265037894249,
                        0.11734170466661453,
                        -0.020071174949407578,
                        0.011534841731190681,
                        -0.11719988286495209,
                        0.11726156622171402,
                        -0.28970834612846375,
                        -0.2790280282497406,
                        -0.003400031477212906,
                        0.11716841906309128,
                        -0.021958980709314346,
                        0.11724801361560822,
                        -0.08813204616308212,
                        -0.11696658283472061
                    ],
                    [
                        -0.0002288119721924886,
                        -0.00016728733316995203,
                        -0.00016922537179198116,
                        -0.00022484523651655763,
                        -0.08157607167959213,
                        -0.14088483154773712,
                        -0.00015599546895828098,
                        -0.00018266620463691652,
                        0.04475906491279602,
                        -0.2343793660402298,
                        -0.06654786318540573,
                        -0.00015707175771240145,
                        -0.07319196313619614,
                        -0.00017024220142047852,
                        -0.03850715979933739,
                        -0.0001365685457130894,
                        0.02318989671766758,
                        0.02357214316725731,
                        0.02355361171066761,
                        0.023212667554616928,
                        0.029891733080148697,
                        0.006580281537026167,
                        0.023620760068297386,
                        0.023485258221626282,
                        -0.2867090106010437,
                        -0.5157816410064697,
                        0.009807216003537178,
                        0.02359626069664955,
                        0.035942673683166504,
                        0.0235593244433403,
                        0.07743282616138458,
                        0.023609062656760216,
                        0.05638258904218674,
                        0.05690436810255051,
                        -0.05686282739043236,
                        -0.05639828369021416,
                        -0.5920129418373108,
                        0.12100054323673248,
                        0.056955527514219284,
                        -0.05677705258131027,
                        0.0053421747870743275,
                        -0.1737382858991623,
                        0.017810167744755745,
                        -0.05688592791557312,
                        -0.21084149181842804,
                        -0.0568915456533432,
                        0.14275914430618286,
                        0.056769873946905136
                    ],
                    [
                        0.0005387540441006422,
                        0.00041522516403347254,
                        0.0004162950499448925,
                        0.0005264424253255129,
                        -0.14824619889259338,
                        -0.09627952426671982,
                        0.00039502716390416026,
                        0.0004405138606671244,
                        -0.3202035129070282,
                        0.2313510924577713,
                        0.055311571806669235,
                        0.00039205525536090136,
                        0.027753854170441628,
                        0.0004207329184282571,
                        0.2625707983970642,
                        0.0003473907709121704,
                        -0.005530582275241613,
                        -0.006279601249843836,
                        -0.006249258294701576,
                        -0.005580969620496035,
                        0.14709913730621338,
                        -0.02212902531027794,
                        -0.006381550803780556,
                        -0.006111981347203255,
                        -0.23002661764621735,
                        -0.045475803315639496,
                        0.01115062553435564,
                        -0.006346888840198517,
                        -0.02183295600116253,
                        -0.006252596620470285,
                        -0.09433859586715698,
                        -0.006420280784368515,
                        -0.012410747818648815,
                        -0.013746851123869419,
                        0.013691325671970844,
                        0.012499380856752396,
                        -0.37142884731292725,
                        0.1396399885416031,
                        -0.013926571235060692,
                        0.013447747565805912,
                        0.30521360039711,
                        -0.5015267729759216,
                        0.15692855417728424,
                        0.013861468061804771,
                        0.586470365524292,
                        0.01369929127395153,
                        0.5307925939559937,
                        -0.013978499919176102
                    ],
                    [
                        -0.0009426858159713447,
                        -0.000776563654653728,
                        -0.000779610185418278,
                        -0.0009278010111302137,
                        -0.14024245738983154,
                        -0.12256874889135361,
                        -0.0007514693425036967,
                        -0.0008111400529742241,
                        -0.0934586375951767,
                        -0.10500354319810867,
                        -0.08031663298606873,
                        -0.000751139537896961,
                        -0.13135375082492828,
                        -0.0007834347197785974,
                        -0.11384227871894836,
                        -0.0007033018628135324,
                        0.046557582914829254,
                        0.04644763469696045,
                        0.046442773193120956,
                        0.04654192179441452,
                        0.11946738511323929,
                        0.022868704050779343,
                        0.046421702951192856,
                        0.04646925628185272,
                        0.09594406932592392,
                        0.07992187142372131,
                        0.012643655762076378,
                        0.046405404806137085,
                        0.11198880523443222,
                        0.046454958617687225,
                        0.14239400625228882,
                        0.04628770053386688,
                        0.11717793345451355,
                        0.11706461012363434,
                        -0.1170538067817688,
                        -0.11715760082006454,
                        0.01960897259414196,
                        -0.0113218380138278,
                        0.11702924221754074,
                        -0.11708658933639526,
                        0.2910560965538025,
                        0.27650919556617737,
                        0.0027801026590168476,
                        -0.11699885129928589,
                        0.022242942824959755,
                        -0.11707466095685959,
                        0.08935748040676117,
                        0.11680377274751663
                    ],
                    [
                        0.0009432834340259433,
                        0.0007770701195113361,
                        0.0007801175815984607,
                        0.0009283892577514052,
                        0.1402129977941513,
                        0.12257923185825348,
                        0.0007519628270529211,
                        0.000811664795037359,
                        0.09323061257600784,
                        0.10524401813745499,
                        0.08037233352661133,
                        0.0007516310433857143,
                        0.13139109313488007,
                        0.0007839450845494866,
                        0.11402492225170135,
                        0.0007037642644718289,
                        -0.04658444598317146,
                        -0.04647304117679596,
                        -0.046468257904052734,
                        -0.046568602323532104,
                        -0.11938569694757462,
                        -0.022890638560056686,
                        -0.04644690454006195,
                        -0.04649495705962181,
                        -0.09536422044038773,
                        -0.08095152676105499,
                        -0.012655356898903847,
                        -0.04643048718571663,
                        -0.11200914531946182,
                        -0.04648059606552124,
                        -0.14250560104846954,
                        -0.04631197080016136,
                        -0.11725127696990967,
                        -0.11713321506977081,
                        0.11712262779474258,
                        0.11723019927740097,
                        -0.019757721573114395,
                        0.011406770907342434,
                        -0.11709723621606827,
                        0.11715597659349442,
                        -0.2906060516834259,
                        -0.27748316526412964,
                        -0.0030014982912689447,
                        0.11706672608852386,
                        -0.022147011011838913,
                        0.11714375019073486,
                        -0.08893630653619766,
                        -0.11686918139457703
                    ],
                    [
                        -0.0011566871544346213,
                        -0.0009146566153503954,
                        -0.0009185328963212669,
                        -0.0011340779019519687,
                        -0.1048896387219429,
                        -0.05132284015417099,
                        -0.0008788722334429622,
                        -0.0009637115290388465,
                        0.06557099521160126,
                        -0.11548702418804169,
                        -0.09902964532375336,
                        -0.0008774377056397498,
                        -0.12220387160778046,
                        -0.0009245168184861541,
                        -0.2275899201631546,
                        -0.0008085342706181109,
                        0.029620418325066566,
                        0.02875060960650444,
                        0.028761954978108406,
                        0.02953842468559742,
                        0.10784199088811874,
                        0.020345689728856087,
                        0.02861032634973526,
                        0.028931787237524986,
                        0.21346747875213623,
                        0.23608990013599396,
                        0.030847404152154922,
                        0.02859773486852646,
                        0.12080293893814087,
                        0.02878861129283905,
                        0.1997089684009552,
                        0.028304658830165863,
                        0.07558871805667877,
                        0.07289183139801025,
                        -0.07293123006820679,
                        -0.0753408670425415,
                        0.6225183606147766,
                        -0.04922928661108017,
                        0.07245723903179169,
                        -0.07345946133136749,
                        0.25264930725097656,
                        0.4750889241695404,
                        0.1812463253736496,
                        -0.0724276453256607,
                        -0.15733134746551514,
                        -0.07300902903079987,
                        0.06852873414754868,
                        0.07155364751815796
                    ],
                    [
                        -0.0006718343938700855,
                        -0.0005037970840930939,
                        -0.0005071285995654762,
                        -0.0006570748519152403,
                        -0.1771167665719986,
                        -0.08762342482805252,
                        -0.00047852040734142065,
                        -0.0005390066653490067,
                        -0.12531723082065582,
                        -0.0730554386973381,
                        -0.05406343564391136,
                        -0.00047870411071926355,
                        -0.09508589655160904,
                        -0.0005107108736410737,
                        -0.0431588813662529,
                        -0.0004311409138608724,
                        0.02511715143918991,
                        0.025466766208410263,
                        0.025476275011897087,
                        0.025163035839796066,
                        0.23283906280994415,
                        0.003697960404679179,
                        0.025538066402077675,
                        0.025399835780262947,
                        0.18967872858047485,
                        0.15918192267417908,
                        0.01988283172249794,
                        0.025575047358870506,
                        0.13292481005191803,
                        0.025447020307183266,
                        0.11865190416574478,
                        0.02581235207617283,
                        0.06273997575044632,
                        0.0640866607427597,
                        -0.06410347670316696,
                        -0.06289653480052948,
                        0.5062743425369263,
                        0.20246994495391846,
                        0.0643443688750267,
                        -0.06381691992282867,
                        0.463316410779953,
                        0.18497507274150848,
                        -0.07264740020036697,
                        -0.06444282084703445,
                        0.1261337399482727,
                        -0.06401599198579788,
                        0.5548884272575378,
                        0.0652044415473938
                    ],
                    [
                        -0.00035605792072601616,
                        -0.0002866318682208657,
                        -0.00028691289480775595,
                        -0.0003486541681922972,
                        0.07540085166692734,
                        0.043641746044158936,
                        -0.00027559453155845404,
                        -0.0003001699224114418,
                        0.1564043164253235,
                        -0.1482120305299759,
                        -0.02956870198249817,
                        -0.0002733428555075079,
                        -0.008155209012329578,
                        -0.0002896696678362787,
                        -0.1773652583360672,
                        -0.0002477141679264605,
                        0.0038415545132011175,
                        0.003594179404899478,
                        0.003587207989767194,
                        0.0038086080458015203,
                        -0.08462678641080856,
                        0.01344332005828619,
                        0.0035439704079180956,
                        0.0036409131716936827,
                        -0.10504873842000961,
                        0.06795743852853775,
                        0.005196551326662302,
                        0.003517469624057412,
                        0.00800833199173212,
                        0.003608107101172209,
                        0.06528650224208832,
                        0.003346033161506057,
                        0.010463294573128223,
                        0.009381837211549282,
                        -0.009374966844916344,
                        -0.0103424908593297,
                        0.2703285217285156,
                        -0.13124218583106995,
                        0.009184364229440689,
                        -0.009598971344530582,
                        -0.31609079241752625,
                        0.3501608967781067,
                        0.0362667478621006,
                        -0.009120961651206017,
                        -0.3295150697231293,
                        -0.00943596102297306,
                        -0.4135371446609497,
                        0.008571449667215347
                    ],
                    [
                        0.0009425655007362366,
                        0.0007764613255858421,
                        0.000779507914558053,
                        0.0009276826167479157,
                        0.1402309536933899,
                        0.12256359308958054,
                        0.0007513701566495001,
                        0.0008110348135232925,
                        0.09348127990961075,
                        0.1049739345908165,
                        0.08030436187982559,
                        0.0007510407594963908,
                        0.13134224712848663,
                        0.0007833318086341023,
                        0.11382853239774704,
                        0.0007032083231024444,
                        -0.04655160754919052,
                        -0.04644181206822395,
                        -0.04643695056438446,
                        -0.046536073088645935,
                        -0.11946883052587509,
                        -0.022865667939186096,
                        -0.046415966004133224,
                        -0.04646332189440727,
                        -0.09600059688091278,
                        -0.07932861149311066,
                        -0.012642104178667068,
                        -0.046399641782045364,
                        -0.11198271065950394,
                        -0.04644918441772461,
                        -0.14237289130687714,
                        -0.04628188908100128,
                        -0.11716103553771973,
                        -0.11704812198877335,
                        0.1170371025800705,
                        0.11714053153991699,
                        -0.01962841860949993,
                        0.011303192004561424,
                        -0.11701271682977676,
                        0.11706963926553726,
                        -0.2910573184490204,
                        -0.2762323021888733,
                        -0.002749986946582794,
                        0.11698243767023087,
                        -0.022208457812666893,
                        0.11705799400806427,
                        -0.08935458213090897,
                        -0.11678732186555862
                    ],
                    [
                        -0.000458699360024184,
                        -0.00040591886499896646,
                        -0.00040686188731342554,
                        -0.0004538747889455408,
                        -0.07548447698354721,
                        -0.03524979576468468,
                        -0.00039776964695192873,
                        -0.00041703038732521236,
                        -0.29110193252563477,
                        0.25856640934944153,
                        0.010937540791928768,
                        -0.0003975996223744005,
                        -0.022222431376576424,
                        -0.0004081533697899431,
                        0.014459588564932346,
                        -0.0003822501457761973,
                        0.00297970580868423,
                        0.002586751477792859,
                        0.002610493451356888,
                        0.0029590597841888666,
                        0.04543216899037361,
                        -0.014572374522686005,
                        0.0025451467372477055,
                        0.002675281371921301,
                        0.021539343520998955,
                        0.08560492098331451,
                        0.005467723123729229,
                        0.0025819160509854555,
                        0.02232719026505947,
                        0.00259772059507668,
                        -0.009908589534461498,
                        0.0026175801176577806,
                        0.0029898188076913357,
                        0.002883901819586754,
                        -0.0029352442361414433,
                        -0.0030228181276470423,
                        -0.2262367308139801,
                        -0.1651257574558258,
                        0.0029270232189446688,
                        -0.002921976614743471,
                        0.20869551599025726,
                        -0.04330776259303093,
                        0.04902932047843933,
                        -0.003040105802938342,
                        -0.33828848600387573,
                        -0.0028713413048535585,
                        0.3491121232509613,
                        0.0034579241182655096
                    ],
                    [
                        0.0009430654463358223,
                        0.0007768856594339013,
                        0.0007799327140673995,
                        0.0009281748207286,
                        0.1402321308851242,
                        0.12257736176252365,
                        0.000751783256419003,
                        0.0008114738739095628,
                        0.09332572668790817,
                        0.10514697432518005,
                        0.08035268634557724,
                        0.0007514522294513881,
                        0.1313798874616623,
                        0.0007837592274881899,
                        0.11394742876291275,
                        0.0007035963935777545,
                        -0.0465749055147171,
                        -0.046464256942272186,
                        -0.04645942151546478,
                        -0.046559251844882965,
                        -0.11942331492900848,
                        -0.02288208343088627,
                        -0.04643823951482773,
                        -0.04648590460419655,
                        -0.09560716897249222,
                        -0.08075118064880371,
                        -0.01265068631619215,
                        -0.04642169177532196,
                        -0.11200323700904846,
                        -0.046471595764160156,
                        -0.14246441423892975,
                        -0.04630354046821594,
                        -0.11722604185342789,
                        -0.11710953712463379,
                        0.11709930002689362,
                        0.11720504611730576,
                        -0.019679522141814232,
                        0.011376751586794853,
                        -0.11707424372434616,
                        0.11713230609893799,
                        -0.290817528963089,
                        -0.27716636657714844,
                        -0.002912919269874692,
                        0.11704356223344803,
                        -0.02220640890300274,
                        0.11711989343166351,
                        -0.08913242071866989,
                        -0.116846963763237
                    ],
                    [
                        -0.0010371365351602435,
                        -0.0008796448819339275,
                        -0.000882540422026068,
                        -0.0010229928884655237,
                        -0.1984134167432785,
                        -0.17274151742458344,
                        -0.0008562561706639826,
                        -0.0009121870971284807,
                        -0.3846299946308136,
                        -0.06591136753559113,
                        -0.02246459200978279,
                        -0.0008560707792639732,
                        -0.05892738699913025,
                        -0.0008860687375999987,
                        -0.15142150223255157,
                        -0.0008132086368277669,
                        0.03263628110289574,
                        0.0324380099773407,
                        0.032453496009111404,
                        0.032629355788230896,
                        0.12422668188810349,
                        -0.005189669318497181,
                        0.03242009878158569,
                        0.0324847549200058,
                        -0.2991759181022644,
                        -0.1820615977048874,
                        0.016745150089263916,
                        0.03244628384709358,
                        0.032083410769701004,
                        0.03244280442595482,
                        0.06472451984882355,
                        0.0324774906039238,
                        0.08203034102916718,
                        0.08195101469755173,
                        -0.08198686689138412,
                        -0.08205391466617584,
                        -0.1696971356868744,
                        -0.12357761710882187,
                        0.08197794109582901,
                        -0.08198059350252151,
                        0.015450624749064445,
                        0.09770740568637848,
                        0.028457794338464737,
                        -0.08205538988113403,
                        0.2517154812812805,
                        -0.08194328099489212,
                        -0.6655129194259644,
                        0.08230837434530258
                    ],
                    [
                        -0.0009414287633262575,
                        -0.0007754816906526685,
                        -0.000778526475187391,
                        -0.0009265612461604178,
                        -0.14018018543720245,
                        -0.12250668555498123,
                        -0.0007504141540266573,
                        -0.0008100240956991911,
                        -0.09372584521770477,
                        -0.10464043915271759,
                        -0.0801958218216896,
                        -0.0007500872598029673,
                        -0.13124020397663116,
                        -0.0007823455962352455,
                        -0.11360268294811249,
                        -0.0007023049984127283,
                        0.046496305614709854,
                        0.04638797789812088,
                        0.046383295208215714,
                        0.046480972319841385,
                        0.11951152235269547,
                        0.022828374058008194,
                        0.04636251553893089,
                        0.0464092493057251,
                        0.09644342958927155,
                        0.07644815742969513,
                        0.012623854912817478,
                        0.04634632170200348,
                        0.11191907525062561,
                        0.04639521241188049,
                        0.1421675831079483,
                        0.04622979089617729,
                        0.11700690537691116,
                        0.11689925938844681,
                        -0.11688892543315887,
                        -0.11698675900697708,
                        0.01960241235792637,
                        -0.011140584945678711,
                        0.11686517298221588,
                        -0.11692018061876297,
                        0.2912391424179077,
                        0.27382320165634155,
                        0.002465633675456047,
                        -0.11683517694473267,
                        0.0221474077552557,
                        -0.11690918356180191,
                        0.08963900804519653,
                        0.11664377897977829
                    ]
                ],
                [
                    [
                        -0.0012959956657141447,
                        -0.0011016224743798375,
                        -0.0011049460154026747,
                        -0.0012783072888851166,
                        -0.1863471120595932,
                        -0.16047751903533936,
                        -0.0010722685838118196,
                        -0.0011417701607570052,
                        -0.12288103252649307,
                        -0.13020654022693634,
                        -0.1048862487077713,
                        -0.0010713862720876932,
                        -0.1735868901014328,
                        -0.001109675387851894,
                        -0.14896182715892792,
                        -0.001014144392684102,
                        0.06378785520792007,
                        0.06366515904664993,
                        0.06365828961133957,
                        0.06376929581165314,
                        0.15839652717113495,
                        0.03312937915325165,
                        0.06363385170698166,
                        0.06368942558765411,
                        0.19236479699611664,
                        0.16268156468868256,
                        0.017202047631144524,
                        0.06361185014247894,
                        0.14467069506645203,
                        0.06367435306310654,
                        0.18947017192840576,
                        0.0634569525718689,
                        0.258495569229126,
                        0.2585013210773468,
                        -0.25847354531288147,
                        -0.25847652554512024,
                        -0.04367559775710106,
                        -0.06070677191019058,
                        0.2584632933139801,
                        -0.25849688053131104,
                        0.02357926033437252,
                        -0.03527221456170082,
                        -0.004979894030839205,
                        -0.2583977282047272,
                        0.07862848788499832,
                        -0.2585124969482422,
                        0.1544804722070694,
                        0.2580467462539673
                    ],
                    [
                        -0.0012959957821294665,
                        -0.0011016224743798375,
                        -0.0011049458989873528,
                        -0.0012783071724697948,
                        -0.1863471120595932,
                        -0.16047747433185577,
                        -0.0010722685838118196,
                        -0.001141770277172327,
                        -0.12288104742765427,
                        -0.13020657002925873,
                        -0.1048862487077713,
                        -0.001071386388503015,
                        -0.1735868602991104,
                        -0.001109675271436572,
                        -0.14896181225776672,
                        -0.0010141446255147457,
                        0.06378787010908127,
                        0.06366516649723053,
                        0.06365829706192017,
                        0.06376931816339493,
                        0.15839655697345734,
                        0.03312937170267105,
                        0.06363384425640106,
                        0.06368942558765411,
                        0.19236627221107483,
                        0.16199596226215363,
                        0.017202042043209076,
                        0.06361184269189835,
                        0.14467066526412964,
                        0.06367436796426773,
                        0.18947020173072815,
                        0.0634569451212883,
                        0.15930329263210297,
                        0.15921366214752197,
                        -0.15919698774814606,
                        -0.15928101539611816,
                        -0.014474448747932911,
                        -0.029452141374349594,
                        0.15917405486106873,
                        -0.15923084318637848,
                        0.4164905548095703,
                        0.38805270195007324,
                        -0.0014937162632122636,
                        -0.15913216769695282,
                        0.04536636546254158,
                        -0.15922518074512482,
                        0.1138002797961235,
                        0.1588687002658844
                    ]
                ]
            ]
        },
        {
            "type": "dense",
            "activation": "",
            "shape": [
                32,
                0,
                1
            ],
            "weights": [
                [
                    [
                        -0.037474144250154495
                    ],
                    [
                        -0.02447439543902874
                    ],
                    [
                        0.024719562381505966
                    ],
                    [
                        0.03633710369467735
                    ],
                    [
                        -0.4418327808380127
                    ],
                    [
                        -0.46147093176841736
                    ],
                    [
                        -0.0224163755774498
                    ],
                    [
                        0.027254318818449974
                    ],
                    [
                        1.0075600147247314
                    ],
                    [
                        -0.9462751150131226
                    ],
                    [
                        -0.20892460644245148
                    ],
                    [
                        0.022384822368621826
                    ],
                    [
                        -0.4319480359554291
                    ],
                    [
                        0.025029905140399933
                    ],
                    [
                        0.6018060445785522
                    ],
                    [
                        -0.018561016768217087
                    ]
                ],
                [
                    -0.046487413346767426
                ]
            ]
        }
    ]
}