{
    "in_shape": [
        null,
        2
    ],
    "layers": [
        {
            "type": "dense",
            "activation": "relu",
            "shape": [
                null,
                3
            ],
            "weights": [
                [
                    [
                        -0.9798543453216553,
                        0.5565648078918457,
                        -0.875038743019104
                    ],
                    [
                        -1.010041356086731,
                        -0.5860258936882019,
                        0.8649563193321228
                    ]
                ],
                [
                    1.0100325345993042,
                    0.029429782181978226,
                    0.01003088429570198
                ]
            ]
        },
        {
            "type": "dense",
            "activation": "relu",
            "shape": [
                null,
                5
            ],
            "weights": [
                [
                    [
                        0.20486512780189514,
                        1.1869933605194092,
                        -0.24390599131584167,
                        0.5974099636077881,
                        0.8666259050369263
                    ],
                    [
                        -0.29439210891723633,
                        -0.6385011672973633,
                        -0.07587186992168427,
                        -1.176567792892456,
                        -0.12070974707603455
                    ],
                    [
                        -0.4881361424922943,
                        -0.3866971433162689,
                        -0.18790487945079803,
                        -0.6781969666481018,
                        -0.9785157442092896
                    ]
                ],
                [
                    -0.5297874808311462,
                    0.33833515644073486,
                    -0.4517699182033539,
                    0.6714488863945007,
                    0.8561779856681824
                ]
            ]
        },
        {
            "type": "dense",
            "activation": "relu",
            "shape": [
                null,
                7
            ],
            "weights": [
                [
                    [
                        0.24028103053569794,
                        0.11546337604522705,
                        0.10850940644741058,
                        0.27898839116096497,
                        -0.3849295973777771,
                        0.2591361999511719,
                        0.39456045627593994
                    ],
                    [
                        -0.5634329915046692,
                        -0.8318396210670471,
                        1.086839199066162,
                        -0.1858573704957962,
                        -0.26377397775650024,
                        -0.39568400382995605,
                        -0.43223297595977783
                    ],
                    [
                        -0.3149091601371765,
                        0.021284768357872963,
                        -0.007180115208029747,
                        -0.02556060440838337,
                        0.2515641450881958,
                        0.3719590902328491,
                        0.3173060119152069
                    ],
                    [
                        -1.0091696977615356,
                        -0.26077789068222046,
                        0.41722428798675537,
                        -0.40043047070503235,
                        -0.9078224301338196,
                        0.3164592683315277,
                        0.5595352053642273
                    ],
                    [
                        0.4162314236164093,
                        -0.9510949850082397,
                        0.9037063717842102,
                        -0.3935753405094147,
                        0.46025657653808594,
                        -0.3682619035243988,
                        0.7704353332519531
                    ]
                ],
                [
                    0.7300768494606018,
                    1.2680546045303345,
                    -0.027057424187660217,
                    -0.011436834931373596,
                    0.7283852696418762,
                    -0.2031119018793106,
                    0.5496706366539001
                ]
            ]
        },
        {
            "type": "dense",
            "activation": "relu",
            "shape": [
                null,
                9
            ],
            "weights": [
                [
                    [
                        -0.6990423798561096,
                        0.2072170078754425,
                        0.8363053202629089,
                        -0.02219461090862751,
                        -0.01597459986805916,
                        -0.06512866169214249,
                        1.2893351316452026,
                        0.8608583211898804,
                        -0.23231364786624908
                    ],
                    [
                        -0.0571892112493515,
                        1.4737980365753174,
                        -0.2922665476799011,
                        0.06918077915906906,
                        -0.0976506844162941,
                        -0.43422582745552063,
                        0.9680913686752319,
                        -0.9138715863227844,
                        0.9556938409805298
                    ],
                    [
                        0.9668097496032715,
                        -1.0775314569473267,
                        0.5507305860519409,
                        -0.2818777561187744,
                        -0.14643223583698273,
                        -0.3945065438747406,
                        -0.867002010345459,
                        -0.2631048858165741,
                        -0.030050722882151604
                    ],
                    [
                        0.15469971299171448,
                        0.3232640326023102,
                        -0.2043764591217041,
                        -0.17238935828208923,
                        -0.2742269039154053,
                        -0.2496415674686432,
                        -0.14036817848682404,
                        0.15792107582092285,
                        -0.3993811011314392
                    ],
                    [
                        -1.092916488647461,
                        0.3105963468551636,
                        -0.035755909979343414,
                        -0.0884966179728508,
                        0.14496009051799774,
                        0.5933669805526733,
                        1.3778345584869385,
                        0.37403786182403564,
                        -0.09210425615310669
                    ],
                    [
                        -0.37589165568351746,
                        -0.23788268864154816,
                        0.1835864931344986,
                        0.1066555306315422,
                        -0.05938662961125374,
                        -0.12588268518447876,
                        -0.2096618115901947,
                        -0.36202767491340637,
                        -0.1023138016462326
                    ],
                    [
                        -0.05322033166885376,
                        -0.6671711206436157,
                        0.40136420726776123,
                        -0.34181228280067444,
                        -0.001325077610090375,
                        0.8483918309211731,
                        0.02981523424386978,
                        0.4233817458152771,
                        -0.0699884444475174
                    ]
                ],
                [
                    -0.656086266040802,
                    0.2502908408641815,
                    0.11664622277021408,
                    0.08002682030200958,
                    -0.3407616913318634,
                    0.7341556549072266,
                    0.30099841952323914,
                    0.498535692691803,
                    -0.021155932918190956
                ]
            ]
        },
        {
            "type": "dense",
            "activation": "sigmoid",
            "shape": [
                null,
                10
            ],
            "weights": [
                [
                    [
                        0.019524728879332542,
                        0.3326866626739502,
                        -0.22917823493480682,
                        -0.19842715561389923,
                        1.4518975019454956,
                        0.37767165899276733,
                        0.15312545001506805,
                        0.08262760192155838,
                        -0.3029274046421051,
                        0.7249408960342407
                    ],
                    [
                        0.5261445641517639,
                        -0.7359405755996704,
                        -0.4722984731197357,
                        -0.45524439215660095,
                        -0.4565436840057373,
                        -1.2166926860809326,
                        -1.6986751556396484,
                        -1.678180456161499,
                        0.2314130812883377,
                        -0.7985681891441345
                    ],
                    [
                        0.2733079195022583,
                        0.522720992565155,
                        -0.2669946849346161,
                        -0.4266905188560486,
                        -0.7749460935592651,
                        0.3112996816635132,
                        -0.3535873293876648,
                        0.018620256334543228,
                        -0.3694360554218292,
                        0.28753209114074707
                    ],
                    [
                        -0.08083220571279526,
                        -0.32778260111808777,
                        0.1795266568660736,
                        -0.11262389272451401,
                        -0.2636975944042206,
                        0.05411915108561516,
                        0.28600794076919556,
                        0.14285001158714294,
                        -0.008034746162593365,
                        -0.31677478551864624
                    ],
                    [
                        0.008014321327209473,
                        -0.01812334917485714,
                        0.012201706878840923,
                        -0.31902703642845154,
                        0.15190812945365906,
                        -0.28134995698928833,
                        0.09989428520202637,
                        0.09012063592672348,
                        0.009318272583186626,
                        -0.09312395751476288
                    ],
                    [
                        -0.15731748938560486,
                        -0.43975603580474854,
                        0.21973347663879395,
                        -0.17028169333934784,
                        -0.9701225161552429,
                        -0.4508468508720398,
                        0.35158097743988037,
                        0.02369563654065132,
                        0.5534552335739136,
                        -0.3437790274620056
                    ],
                    [
                        -0.40037861466407776,
                        -0.3027665913105011,
                        0.5412645936012268,
                        0.3243500292301178,
                        1.7950652837753296,
                        -0.4128337800502777,
                        1.0435274839401245,
                        0.8333866000175476,
                        -0.03257352113723755,
                        0.4595676064491272
                    ],
                    [
                        -0.032737623900175095,
                        -0.18759219348430634,
                        0.07072003185749054,
                        -0.10180746763944626,
                        -0.786470890045166,
                        0.4547243118286133,
                        0.3374006748199463,
                        0.8577505946159363,
                        0.5890876650810242,
                        -0.8684077262878418
                    ],
                    [
                        -0.15865576267242432,
                        0.050465941429138184,
                        0.06396828591823578,
                        0.196122944355011,
                        -0.7053805589675903,
                        0.12981992959976196,
                        0.0640982836484909,
                        -0.27391424775123596,
                        0.2597528100013733,
                        -0.49490031599998474
                    ]
                ],
                [
                    -0.34472012519836426,
                    -0.2742903232574463,
                    0.0064451368525624275,
                    -0.49879130721092224,
                    -0.7204641699790955,
                    0.10625798255205154,
                    -0.41154178977012634,
                    0.08617941290140152,
                    0.24082772433757782,
                    0.06918127089738846
                ]
            ]
        }
    ]
}