{
    "in_shape": [
        null,
        5
    ],
    "layers": [
        {
            "type": "dense",
            "activation": "tanh",
            "shape": [
                null,
                4
            ],
            "weights": [
                [
                    [
                        0.8177686333656311,
                        -0.301205575466156,
                        -0.19405420124530792,
                        0.34815964102745056
                    ],
                    [
                        -0.22295425832271576,
                        -0.3414668142795563,
                        0.042375724762678146,
                        -0.25880542397499084
                    ],
                    [
                        -0.5364009737968445,
                        -0.5683102011680603,
                        -0.020361920818686485,
                        0.19487276673316956
                    ],
                    [
                        0.23818686604499817,
                        -0.3082966208457947,
                        -0.013493634760379791,
                        0.04461845010519028
                    ],
                    [
                        0.7001574039459229,
                        -0.552220344543457,
                        0.8640785813331604,
                        -0.22762416303157806
                    ]
                ],
                [
                    0.0008221003226935863,
                    -0.0002866177528630942,
                    -3.6654768337029964e-05,
                    -0.0014793064910918474
                ]
            ]
        },
        {
            "type": "dense",
            "activation": "tanh",
            "shape": [
                null,
                4
            ],
            "weights": [
                [
                    [
                        -0.39948371052742004,
                        -0.29683929681777954,
                        0.028250163421034813,
                        1.022054672241211
                    ],
                    [
                        0.06976300477981567,
                        0.7376091480255127,
                        -0.3782613277435303,
                        -0.035229600965976715
                    ],
                    [
                        0.6666553020477295,
                        0.16777540743350983,
                        -0.33197328448295593,
                        0.35449472069740295
                    ],
                    [
                        -0.5517935752868652,
                        0.1649979203939438,
                        -0.9152255058288574,
                        -0.19780892133712769
                    ]
                ],
                [
                    0.00038959397352300584,
                    -0.0011126388562843204,
                    -1.8831120542017743e-05,
                    0.0002418507938273251
                ]
            ]
        },
        {
            "type": "dense",
            "activation": "",
            "shape": [
                null,
                1
            ],
            "weights": [
                [
                    [
                        -0.8745215535163879
                    ],
                    [
                        -0.0010291896760463715
                    ],
                    [
                        0.8047521114349365
                    ],
                    [
                        -0.3566751480102539
                    ]
                ],
                [
                    -1.4801112229179125e-05
                ]
            ]
        }
    ]
}