{
    "in_shape": [
        null,
        2
    ],
    "layers": [
        {
            "type": "dense",
            "activation": "relu",
            "shape": [
                null,
                5
            ],
            "weights": [
                [
                    [
                        -0.04958939179778099,
                        0.25305962562561035,
                        0.10408063232898712,
                        -0.6865414381027222,
                        1.0906493663787842
                    ],
                    [
                        0.1911010593175888,
                        1.0004953145980835,
                        -0.6667290925979614,
                        -0.32220035791397095,
                        -0.2993842661380768
                    ]
                ],
                [
                    -0.2895168960094452,
                    0.19946207106113434,
                    -0.6524679064750671,
                    -0.37205204367637634,
                    0.2925674021244049
                ]
            ]
        },
        {
            "type": "dense",
            "activation": "relu",
            "shape": [
                null,
                20
            ],
            "weights": [
                [
                    [
                        -0.15146908164024353,
                        0.0976562574505806,
                        0.08142125606536865,
                        -0.17843227088451385,
                        -0.32432305812835693,
                        0.11362304538488388,
                        -0.2296152263879776,
                        -0.09048791974782944,
                        0.21230944991111755,
                        0.2193017452955246,
                        -0.38807520270347595,
                        -0.004990217741578817,
                        -0.05923178046941757,
                        -0.08688994497060776,
                        -0.37209317088127136,
                        0.12572182714939117,
                        -0.10923636704683304,
                        -0.2700536549091339,
                        -0.12047507613897324,
                        0.06464935094118118
                    ],
                    [
                        -0.3182835876941681,
                        -0.31357795000076294,
                        -0.23317620158195496,
                        -0.150771364569664,
                        -0.07261037826538086,
                        0.22199787199497223,
                        0.17448382079601288,
                        -0.17171922326087952,
                        -0.018976518884301186,
                        0.25385582447052,
                        0.2541537582874298,
                        0.7164954543113708,
                        -0.41479986906051636,
                        0.38736987113952637,
                        -0.32549992203712463,
                        0.25114768743515015,
                        0.2357192486524582,
                        0.6605642437934875,
                        -0.9666083455085754,
                        -0.11742714047431946
                    ],
                    [
                        0.04210641607642174,
                        0.03349583223462105,
                        -0.04410684108734131,
                        -0.1756349354982376,
                        -0.41016802191734314,
                        -0.23903252184391022,
                        -0.14146359264850616,
                        -0.2220771610736847,
                        0.14178884029388428,
                        -0.26027926802635193,
                        0.2222662717103958,
                        0.4437390863895416,
                        -0.0016491538845002651,
                        0.1055276170372963,
                        0.08320630341768265,
                        0.2945568263530731,
                        0.08712185174226761,
                        -0.14538681507110596,
                        -0.10554451495409012,
                        -0.4357095956802368
                    ],
                    [
                        0.1585315316915512,
                        0.18272826075553894,
                        0.20558381080627441,
                        -0.4323197603225708,
                        0.05960635095834732,
                        0.12542317807674408,
                        -0.4443362355232239,
                        -0.12362224608659744,
                        0.4341273605823517,
                        -0.10838279128074646,
                        0.11933697015047073,
                        0.13673444092273712,
                        -0.4101801812648773,
                        0.3087051808834076,
                        -0.2733153998851776,
                        0.2292601615190506,
                        -0.3636770248413086,
                        0.21135824918746948,
                        0.188786581158638,
                        0.14844906330108643
                    ],
                    [
                        -0.3817496597766876,
                        0.5655000805854797,
                        -0.3314017057418823,
                        0.4325597882270813,
                        -0.07608888298273087,
                        0.17304958403110504,
                        -0.3814508318901062,
                        0.033797737210989,
                        0.11317015439271927,
                        -1.028090000152588,
                        0.3057449758052826,
                        0.2736692428588867,
                        -0.27175742387771606,
                        -0.9663521647453308,
                        0.012224124744534492,
                        0.21153004467487335,
                        -0.2349594086408615,
                        1.0114896297454834,
                        1.4430452585220337,
                        0.14349590241909027
                    ]
                ],
                [
                    0.6732974052429199,
                    0.43899595737457275,
                    -0.3910316824913025,
                    0.502741277217865,
                    -0.10768482834100723,
                    -0.5101948976516724,
                    -0.38883262872695923,
                    -0.3141704797744751,
                    -0.23503081500530243,
                    0.5788074731826782,
                    0.5584646463394165,
                    -0.018937116488814354,
                    0.5636041164398193,
                    0.4072395861148834,
                    -0.24426162242889404,
                    0.6159675121307373,
                    0.6550624966621399,
                    0.05054181069135666,
                    -0.15493598580360413,
                    0.3271116018295288
                ]
            ]
        },
        {
            "type": "dense",
            "activation": "sigmoid",
            "shape": [
                null,
                13
            ],
            "weights": [
                [
                    [
                        -0.06938980519771576,
                        0.6140984296798706,
                        0.006176491733640432,
                        -0.22458882629871368,
                        -0.3768415153026581,
                        -0.0158044695854187,
                        -0.09553006291389465,
                        0.37360599637031555,
                        0.20246106386184692,
                        0.16925457119941711,
                        0.31441211700439453,
                        0.04576936364173889,
                        0.3318948447704315
                    ],
                    [
                        -0.04223261773586273,
                        0.33417654037475586,
                        0.24370552599430084,
                        0.38063010573387146,
                        -0.3441697955131531,
                        0.15338273346424103,
                        0.1844925433397293,
                        0.28086575865745544,
                        0.2524181008338928,
                        0.47974470257759094,
                        0.13663828372955322,
                        0.12002471834421158,
                        0.40815672278404236
                    ],
                    [
                        0.05753827095031738,
                        -0.0846007838845253,
                        0.18173180520534515,
                        0.08482778817415237,
                        0.21539725363254547,
                        0.04871193319559097,
                        0.223352313041687,
                        0.1295430213212967,
                        -0.12904636561870575,
                        0.2137223184108734,
                        0.055388063192367554,
                        0.1427863985300064,
                        -0.18743571639060974
                    ],
                    [
                        0.13923132419586182,
                        0.2583162784576416,
                        0.10050144791603088,
                        0.1877720057964325,
                        -0.11564707010984421,
                        -0.1242130920290947,
                        -0.09839852154254913,
                        0.20742517709732056,
                        -0.08196225762367249,
                        0.26497653126716614,
                        0.0788315013051033,
                        0.29086068272590637,
                        0.2440997064113617
                    ],
                    [
                        0.03894682601094246,
                        -0.13647495210170746,
                        -0.012446543201804161,
                        0.17810885608196259,
                        0.05023156479001045,
                        0.08173688501119614,
                        0.11111495643854141,
                        0.131729856133461,
                        0.044587183743715286,
                        0.005642517004162073,
                        -0.013027270324528217,
                        -0.018429990857839584,
                        0.19191668927669525
                    ],
                    [
                        -0.1409185230731964,
                        0.013160722330212593,
                        -0.10787810385227203,
                        0.050951916724443436,
                        0.17446587979793549,
                        -0.16391175985336304,
                        -0.2033850997686386,
                        -0.0749291330575943,
                        0.07230183482170105,
                        -0.17502737045288086,
                        0.08472375571727753,
                        -0.09373803436756134,
                        0.08594664931297302
                    ],
                    [
                        0.12243277579545975,
                        -0.1409391313791275,
                        -0.02331230416893959,
                        -0.19341358542442322,
                        -0.06105219945311546,
                        0.20592248439788818,
                        -0.07439859211444855,
                        0.16134116053581238,
                        0.028194831684231758,
                        -0.08630167692899704,
                        -0.22091810405254364,
                        -0.0717848688364029,
                        0.10545044392347336
                    ],
                    [
                        -0.1165582686662674,
                        0.04370038956403732,
                        -0.0010330535005778074,
                        0.05268725007772446,
                        0.051091037690639496,
                        -0.05652787536382675,
                        -0.08445457369089127,
                        0.21219244599342346,
                        -0.08094456791877747,
                        0.07476141303777695,
                        -0.08596757054328918,
                        0.05843234062194824,
                        -0.20728632807731628
                    ],
                    [
                        -0.14479996263980865,
                        0.024543944746255875,
                        -0.07553189992904663,
                        -0.06602274626493454,
                        -0.06831923872232437,
                        0.08941573649644852,
                        0.08100520819425583,
                        0.03617004305124283,
                        0.14937303960323334,
                        -0.20623265206813812,
                        0.20118951797485352,
                        -0.018675358965992928,
                        0.21206799149513245
                    ],
                    [
                        -0.6534197330474854,
                        0.483151912689209,
                        -0.27772530913352966,
                        -0.19548040628433228,
                        -0.13458921015262604,
                        -0.16070638597011566,
                        0.062004249542951584,
                        0.0760631188750267,
                        0.19220471382141113,
                        0.3719932436943054,
                        0.12301406264305115,
                        0.18080033361911774,
                        0.1950169801712036
                    ],
                    [
                        -0.14625242352485657,
                        0.44832053780555725,
                        -0.38980141282081604,
                        0.23861980438232422,
                        -0.21713010966777802,
                        -0.18656142055988312,
                        -0.01098695769906044,
                        -0.06071365997195244,
                        0.2441188544034958,
                        -0.022096039727330208,
                        0.16784898936748505,
                        0.025993265211582184,
                        0.16364529728889465
                    ],
                    [
                        0.17713962495326996,
                        -0.6548028588294983,
                        -0.5049604773521423,
                        0.39814361929893494,
                        -0.0318247526884079,
                        0.03574667498469353,
                        -0.021209927275776863,
                        0.27367281913757324,
                        0.10611015558242798,
                        0.17727382481098175,
                        -0.0046744756400585175,
                        0.06412457674741745,
                        -0.02541092224419117
                    ],
                    [
                        0.20987629890441895,
                        0.9644204378128052,
                        0.16089028120040894,
                        -0.19614171981811523,
                        -0.6316066384315491,
                        -0.06225711479783058,
                        0.16600418090820312,
                        0.12672142684459686,
                        0.30405402183532715,
                        0.8884722590446472,
                        -0.03080754354596138,
                        0.4130649268627167,
                        0.5700520873069763
                    ],
                    [
                        -1.424770712852478,
                        0.5961178541183472,
                        -0.0996515080332756,
                        -0.34681686758995056,
                        -0.28405967354774475,
                        0.07898084819316864,
                        0.09147272258996964,
                        0.16294284164905548,
                        -0.00735465856269002,
                        0.38858017325401306,
                        0.11655012518167496,
                        0.16032950580120087,
                        0.4185647666454315
                    ],
                    [
                        -0.028966736048460007,
                        -0.148552805185318,
                        0.14670194685459137,
                        -0.05140672251582146,
                        0.2151334136724472,
                        -0.1773354560136795,
                        -0.05779017135500908,
                        0.15769584476947784,
                        -0.057234954088926315,
                        0.061219412833452225,
                        -0.06672454625368118,
                        -0.027727657929062843,
                        -0.17565004527568817
                    ],
                    [
                        0.09475600719451904,
                        0.06146067753434181,
                        0.0364290289580822,
                        0.07382804155349731,
                        -0.3748754858970642,
                        0.015845101326704025,
                        0.2356528341770172,
                        -0.0013358400901779532,
                        0.16876006126403809,
                        0.31861862540245056,
                        0.1498819887638092,
                        0.1527680605649948,
                        0.3467337191104889
                    ],
                    [
                        -0.1856308877468109,
                        0.42273175716400146,
                        -0.1649293154478073,
                        0.004560093395411968,
                        -0.42631614208221436,
                        0.13041608035564423,
                        -0.011174527928233147,
                        0.025120314210653305,
                        0.22822369635105133,
                        0.024600116536021233,
                        -0.09538525342941284,
                        0.1799117922782898,
                        0.22888319194316864
                    ],
                    [
                        0.10933331400156021,
                        -0.5115520358085632,
                        -0.36512792110443115,
                        0.5681344866752625,
                        -0.08376997709274292,
                        -0.012546391226351261,
                        -0.010935950092971325,
                        -0.015726139768958092,
                        -0.039894949644804,
                        0.14775091409683228,
                        0.025873973965644836,
                        0.03733968362212181,
                        0.14465659856796265
                    ],
                    [
                        -1.698860764503479,
                        0.6183743476867676,
                        0.6695232391357422,
                        0.16716615855693817,
                        -0.0160652007907629,
                        0.009323894046247005,
                        -0.04562578722834587,
                        -0.025732265785336494,
                        0.030620358884334564,
                        -0.10473641753196716,
                        -0.07095617055892944,
                        -0.04671117290854454,
                        -0.10073745250701904
                    ],
                    [
                        0.12250737845897675,
                        0.640362560749054,
                        -0.0539633110165596,
                        0.25074148178100586,
                        -0.4046035706996918,
                        -0.13472218811511993,
                        0.15032824873924255,
                        0.04620848223567009,
                        0.3264135718345642,
                        0.4337204396724701,
                        0.270289808511734,
                        0.4231407046318054,
                        0.4518048167228699
                    ]
                ],
                [
                    -0.0856604054570198,
                    0.20539653301239014,
                    0.0716809555888176,
                    0.22265414893627167,
                    -0.13839372992515564,
                    0.04343796148896217,
                    -0.06010814383625984,
                    0.020504936575889587,
                    0.1333675980567932,
                    0.21189741790294647,
                    0.18666963279247284,
                    0.16589264571666718,
                    -0.007521363440901041
                ]
            ]
        }
    ]
}