{
    "in_shape": [
        null,
        2
    ],
    "layers": [
        {
            "type": "dense",
            "activation": "relu",
            "shape": [
                null,
                5
            ],
            "weights": [
                [
                    [
                        -0.8342007398605347,
                        1.0894712209701538,
                        0.9780527949333191,
                        -0.6215623617172241,
                        -0.7771282196044922
                    ],
                    [
                        -0.485879510641098,
                        -0.6930601000785828,
                        -1.2675637006759644,
                        1.1348434686660767,
                        0.7771288752555847
                    ]
                ],
                [
                    0.8342021107673645,
                    0.6632188558578491,
                    0.28950539231300354,
                    -3.283297473899438e-07,
                    4.13952534472628e-08
                ]
            ]
        },
        {
            "type": "dense",
            "activation": "relu",
            "shape": [
                null,
                20
            ],
            "weights": [
                [
                    [
                        1.1529932022094727,
                        -0.3112158477306366,
                        1.155501127243042,
                        1.9941269159317017,
                        0.400725394487381,
                        0.6156898140907288,
                        0.16014669835567474,
                        -0.4217339754104614,
                        -0.03723817691206932,
                        -0.2642621099948883,
                        0.8838752508163452,
                        -0.2037159502506256,
                        -0.07390660792589188,
                        -0.09865061938762665,
                        -0.6210334300994873,
                        0.43589937686920166,
                        0.3383063077926636,
                        -0.27538666129112244,
                        0.7685015797615051,
                        -0.8461955785751343
                    ],
                    [
                        0.465067595243454,
                        0.6040016412734985,
                        0.39912012219429016,
                        0.16800713539123535,
                        -0.47414812445640564,
                        -0.060927536338567734,
                        -0.7466886639595032,
                        0.6967772841453552,
                        -0.34073424339294434,
                        0.5198601484298706,
                        0.13078290224075317,
                        -0.6078693270683289,
                        -0.03145771473646164,
                        0.21033822000026703,
                        0.7310555577278137,
                        -0.47497835755348206,
                        0.24602451920509338,
                        0.05491086095571518,
                        0.07135412842035294,
                        0.32961422204971313
                    ],
                    [
                        0.2438715696334839,
                        0.05136599391698837,
                        -0.5556076765060425,
                        -0.8892484903335571,
                        -0.3487999141216278,
                        -0.6191331148147583,
                        -0.9171540141105652,
                        0.605951189994812,
                        -0.30469879508018494,
                        1.0954177379608154,
                        0.12978506088256836,
                        -0.2648124396800995,
                        -0.14084474742412567,
                        0.8963751792907715,
                        -0.23996973037719727,
                        -0.01251106895506382,
                        1.0231413841247559,
                        0.9678444266319275,
                        -0.5378131866455078,
                        0.9348215460777283
                    ],
                    [
                        -0.6061945557594299,
                        0.6681814789772034,
                        -0.2503839135169983,
                        0.41530269384384155,
                        0.8231121301651001,
                        -0.4493085741996765,
                        0.2311113029718399,
                        1.3653723001480103,
                        -0.2943090796470642,
                        -0.12316795438528061,
                        -0.3731417655944824,
                        0.8321322798728943,
                        0.3936719000339508,
                        0.6728904247283936,
                        0.8961862325668335,
                        0.9541142582893372,
                        -0.2584588825702667,
                        -0.9700520634651184,
                        -0.15813136100769043,
                        0.1633128523826599
                    ],
                    [
                        -0.3126281797885895,
                        0.7130153775215149,
                        -0.6996772885322571,
                        -0.6135503649711609,
                        0.6614894270896912,
                        -0.767158031463623,
                        0.696789026260376,
                        0.47794100642204285,
                        0.10543255507946014,
                        -0.0705222636461258,
                        -0.37189385294914246,
                        0.8867692351341248,
                        -0.32574766874313354,
                        0.9478141069412231,
                        0.0295842457562685,
                        0.8147240877151489,
                        -0.11713961511850357,
                        -0.657651424407959,
                        -0.8970333337783813,
                        0.3869141638278961
                    ]
                ],
                [
                    0.5292818546295166,
                    0.21866557002067566,
                    0.4254002869129181,
                    0.8714434504508972,
                    0.08112537860870361,
                    0.891610860824585,
                    0.6271476149559021,
                    -0.28573501110076904,
                    -0.3250771462917328,
                    -0.4414680004119873,
                    0.4045789837837219,
                    0.5704736709594727,
                    -0.25968459248542786,
                    -0.3167112469673157,
                    0.10269197821617126,
                    -0.04501377046108246,
                    0.04871673882007599,
                    0.4981915354728699,
                    0.6088764667510986,
                    0.21665343642234802
                ]
            ]
        },
        {
            "type": "dense",
            "activation": "sigmoid",
            "shape": [
                null,
                13
            ],
            "weights": [
                [
                    [
                        0.46445316076278687,
                        0.25529178977012634,
                        0.05380203574895859,
                        0.06258324533700943,
                        0.11368919909000397,
                        0.13988153636455536,
                        -0.08598146587610245,
                        -0.34376096725463867,
                        -0.14506888389587402,
                        -0.6144925951957703,
                        -0.35812249779701233,
                        -0.5799438953399658,
                        -0.6562252640724182
                    ],
                    [
                        -0.49807798862457275,
                        -0.43307191133499146,
                        -0.43384143710136414,
                        -0.2732987105846405,
                        -0.055622462183237076,
                        -0.2051856517791748,
                        -0.2316059172153473,
                        -0.20031298696994781,
                        0.058315545320510864,
                        0.016728557646274567,
                        0.6381235718727112,
                        0.6171438694000244,
                        0.32838115096092224
                    ],
                    [
                        0.45729926228523254,
                        0.06481730937957764,
                        0.29278427362442017,
                        -0.07679536193609238,
                        -0.03226044028997421,
                        -0.33093154430389404,
                        0.0006098642479628325,
                        -0.42927417159080505,
                        -0.4541674852371216,
                        -0.3912525773048401,
                        -0.583896815776825,
                        -0.7332537174224854,
                        -0.4097842574119568
                    ],
                    [
                        -0.2926991879940033,
                        -0.056401461362838745,
                        0.02463221736252308,
                        0.04893774911761284,
                        -0.14441241323947906,
                        0.13896511495113373,
                        0.0848178043961525,
                        0.41770145297050476,
                        0.059043530374765396,
                        -0.34949353337287903,
                        -1.0132787227630615,
                        -0.7516019344329834,
                        -0.196872740983963
                    ],
                    [
                        0.46013766527175903,
                        0.2474435418844223,
                        0.26714247465133667,
                        0.25370875000953674,
                        0.16780340671539307,
                        0.33223384618759155,
                        0.25830256938934326,
                        0.30307695269584656,
                        0.21888431906700134,
                        0.8245168328285217,
                        0.7771881222724915,
                        0.8026562929153442,
                        0.7900389432907104
                    ],
                    [
                        0.09369920194149017,
                        0.09159353375434875,
                        0.35495081543922424,
                        0.23488937318325043,
                        -0.002001032466068864,
                        -0.030997049063444138,
                        -0.2243809849023819,
                        -0.31705158948898315,
                        -0.43289101123809814,
                        -0.6756247878074646,
                        -0.6234955191612244,
                        -0.729194700717926,
                        -0.7250175476074219
                    ],
                    [
                        0.13164909183979034,
                        -0.004456865601241589,
                        0.22530600428581238,
                        0.2667005956172943,
                        0.5538248419761658,
                        0.24092388153076172,
                        0.46054092049598694,
                        0.2594972550868988,
                        0.13349980115890503,
                        0.46380922198295593,
                        0.7374755144119263,
                        0.292471319437027,
                        0.24517421424388885
                    ],
                    [
                        -0.3090524971485138,
                        -0.4528500437736511,
                        -0.19564518332481384,
                        -0.5657859444618225,
                        -0.5311434864997864,
                        -0.7100144624710083,
                        -0.37345951795578003,
                        -0.2437191903591156,
                        0.19571338593959808,
                        0.6139322519302368,
                        0.6377807259559631,
                        0.6348645091056824,
                        0.699262261390686
                    ],
                    [
                        0.16434702277183533,
                        -0.00114911375567317,
                        -0.09398484230041504,
                        0.07907485961914062,
                        -0.12259753793478012,
                        -0.026728831231594086,
                        0.04737100377678871,
                        -0.2179574817419052,
                        0.08960829675197601,
                        0.10894957929849625,
                        -0.16207022964954376,
                        0.001215700525790453,
                        0.0748824030160904
                    ],
                    [
                        0.5076937079429626,
                        0.03500700369477272,
                        0.1723841279745102,
                        0.1600174456834793,
                        0.01214529201388359,
                        0.27612626552581787,
                        0.33549025654792786,
                        0.220127671957016,
                        -0.3236808180809021,
                        0.02688194252550602,
                        0.69537752866745,
                        0.8103165626525879,
                        0.4712423086166382
                    ],
                    [
                        0.28230729699134827,
                        0.63653165102005,
                        0.3492369055747986,
                        0.20993128418922424,
                        0.04179484397172928,
                        -0.16257637739181519,
                        -0.39428386092185974,
                        -0.169828400015831,
                        -0.6498450636863708,
                        -0.592115044593811,
                        -0.5801872611045837,
                        -0.6487135291099548,
                        -0.6575888395309448
                    ],
                    [
                        -0.2934200167655945,
                        -0.2618596851825714,
                        -0.6191151142120361,
                        -0.4037036895751953,
                        -0.09810200333595276,
                        0.3922235369682312,
                        0.37166863679885864,
                        0.1558603048324585,
                        0.37982696294784546,
                        0.6114082932472229,
                        0.443217933177948,
                        0.6335238218307495,
                        0.35679081082344055
                    ],
                    [
                        0.04133955016732216,
                        -0.09327773749828339,
                        0.11374595761299133,
                        -0.21959759294986725,
                        -0.16010600328445435,
                        -0.12341661751270294,
                        0.18927907943725586,
                        -0.14185607433319092,
                        0.2123255729675293,
                        -0.08954523503780365,
                        0.13550157845020294,
                        -0.20129558444023132,
                        -0.03697577491402626
                    ],
                    [
                        0.010876261629164219,
                        0.3682929575443268,
                        0.4760741889476776,
                        0.5559260249137878,
                        0.42027968168258667,
                        0.32630062103271484,
                        0.12692739069461823,
                        0.4471103847026825,
                        0.34613513946533203,
                        0.39044466614723206,
                        0.7999481558799744,
                        0.7048894762992859,
                        0.5175933837890625
                    ],
                    [
                        -0.7299453616142273,
                        -0.2833213210105896,
                        -0.3729352653026581,
                        -0.3496258556842804,
                        -0.39654839038848877,
                        -0.3623833656311035,
                        -0.3023373484611511,
                        -0.013686428777873516,
                        0.3159489929676056,
                        0.5388644933700562,
                        -0.06122785806655884,
                        0.3911685347557068,
                        0.6321593523025513
                    ],
                    [
                        0.30032169818878174,
                        0.18661031126976013,
                        0.5627787709236145,
                        0.4374218285083771,
                        0.3458322584629059,
                        0.13205227255821228,
                        0.22907231748104095,
                        0.09082762151956558,
                        0.33132511377334595,
                        0.7156022191047668,
                        0.7634918689727783,
                        0.6372926831245422,
                        0.6596980690956116
                    ],
                    [
                        0.5415948033332825,
                        0.031126398593187332,
                        -0.07902306318283081,
                        -0.08146636933088303,
                        0.136030912399292,
                        -0.011839824728667736,
                        0.024330466985702515,
                        -0.2616645395755768,
                        -0.5481412410736084,
                        -0.91879802942276,
                        0.4373098313808441,
                        0.29414549469947815,
                        -0.7764694690704346
                    ],
                    [
                        0.1097465381026268,
                        0.060894474387168884,
                        -0.14132314920425415,
                        -0.16765274107456207,
                        -0.04184826835989952,
                        -0.10937894880771637,
                        -0.1966731697320938,
                        -0.32673925161361694,
                        -0.2203819900751114,
                        -0.49878931045532227,
                        0.6651932597160339,
                        0.6784195303916931,
                        -0.49761950969696045
                    ],
                    [
                        0.24217814207077026,
                        0.0959167554974556,
                        -0.27180519700050354,
                        0.008606597781181335,
                        0.04904448986053467,
                        -0.02716810815036297,
                        -0.18307854235172272,
                        -0.3874953091144562,
                        -0.06138148158788681,
                        -0.36382466554641724,
                        -0.8385036587715149,
                        -0.6176084280014038,
                        -0.5401526689529419
                    ],
                    [
                        -0.3680594563484192,
                        -0.0758218839764595,
                        -0.30750754475593567,
                        -0.06368332356214523,
                        -0.3352383077144623,
                        0.06486289948225021,
                        -0.05447275936603546,
                        0.03471670299768448,
                        0.06281127780675888,
                        0.23332639038562775,
                        0.5221561789512634,
                        0.7034298181533813,
                        0.3448871970176697
                    ]
                ],
                [
                    -0.2651977241039276,
                    -0.10130276530981064,
                    -0.3679812550544739,
                    -0.31546735763549805,
                    -0.22179663181304932,
                    -0.29975607991218567,
                    -0.01576445996761322,
                    0.23763911426067352,
                    0.16300515830516815,
                    0.1250804215669632,
                    -0.17957919836044312,
                    -0.15355809032917023,
                    -0.10283155739307404
                ]
            ]
        }
    ]
}