{"model_data": {"model": "SimpleRNN", "input_size": 1, "skip": "0", "output_size": 1, "unit_type": "GRU", "num_layers": 1, "hidden_size": 75, "bias_fl": true}, "state_dict": {"rec.weight_ih_l0": [[-0.04343773424625397], [-0.012899202294647694], [-0.3560488820075989], [0.018166838213801384], [-0.0033906896132975817], [0.1041804701089859], [-0.1453908383846283], [0.08923958241939545], [-0.020220400765538216], [0.030519571155309677], [0.03411959484219551], [0.044115375727415085], [-0.31609660387039185], [0.02540522813796997], [-0.11374080926179886], [0.038429513573646545], [0.10122154653072357], [-0.07156256586313248], [-0.06696168333292007], [0.04671551659703255], [-0.08978980034589767], [-0.07069337368011475], [-0.06620441377162933], [-0.12210267037153244], [0.22263549268245697], [0.035952966660261154], [0.445090115070343], [0.4133669435977936], [-0.02590620331466198], [-0.032422397285699844], [-0.03696342557668686], [0.04038712754845619], [-0.20831415057182312], [1.2022016048431396], [0.1227250024676323], [-0.21310465037822723], [0.025712240487337112], [-0.004811437800526619], [-0.06972286105155945], [-0.07520803064107895], [-0.3381733000278473], [-0.10263602435588837], [-0.12858299911022186], [-0.31908005475997925], [-0.2932173013687134], [-0.22146864235401154], [-0.3072788119316101], [-0.07217157632112503], [0.09726626425981522], [-0.07818007469177246], [-0.10300083458423615], [-0.037982020527124405], [0.16401414573192596], [0.17293624579906464], [0.003065539291128516], [-0.00672570988535881], [0.00018368898599874228], [0.11599700897932053], [0.1170654445886612], [0.013247448951005936], [-0.06424526870250702], [-0.01216081716120243], [-0.008991413749754429], [0.010924010537564754], [0.009683703072369099], [0.07406684011220932], [-0.16840948164463043], [-0.27670013904571533], [0.02008897252380848], [-0.02468900755047798], [0.17824019491672516], [-0.07994654029607773], [-0.1259896159172058], [0.01917203702032566], [-0.14633244276046753], [0.005727199371904135], [0.12537619471549988], [-0.02327260933816433], [0.009545880369842052], [-0.12547796964645386], [-0.01371824648231268], [0.19692179560661316], [-0.20001894235610962], [-0.01748199574649334], [-0.049386732280254364], [0.009911773726344109], [-0.04513831064105034], [0.02988135628402233], [0.0016472815768793225], [0.02494196593761444], [0.003119728062301874], [-0.02946147322654724], [0.10544690489768982], [-0.04142659157514572], [0.029565958306193352], [0.056081339716911316], [0.18166415393352509], [0.058869753032922745], [0.14087285101413727], [0.05053238943219185], [0.029012635350227356], [-0.38201260566711426], [0.05088219419121742], [0.05001390725374222], [0.035648636519908905], [-0.0167598444968462], [-0.04135889932513237], [0.12720438838005066], [0.6495325565338135], [0.11442485451698303], [-0.039946217089891434], [-0.03188246861100197], [-0.07827744632959366], [0.10832243412733078], [0.1008227989077568], [-0.03369033709168434], [0.2975583076477051], [-0.06969030946493149], [0.1763383150100708], [0.10510796308517456], [0.09562379121780396], [-0.010395938530564308], [-0.007017661351710558], [0.2681800127029419], [0.16372959315776825], [0.09827517718076706], [-0.0016780700534582138], [0.008256620727479458], [0.003387828590348363], [0.310524582862854], [-0.04369290545582771], [0.002476245164871216], [-0.07389649748802185], [0.03883279860019684], [0.00019856952712871134], [0.01571029983460903], [0.039887819439172745], [-0.01582014001905918], [-0.012279540300369263], [0.008654161356389523], [-0.0975942313671112], [0.05117795616388321], [-0.004759192932397127], [0.013162185437977314], [0.0031253995839506388], [-0.0755581334233284], [0.12924529612064362], [0.06879657506942749], [-0.04106355458498001], [0.04426988586783409], [0.30261003971099854], [-0.2623350918292999], [-0.3075821101665497], [-0.3167414963245392], [0.11492152512073517], [-0.38393232226371765], [0.3276313245296478], [-0.2979680001735687], [-0.11023855209350586], [0.3547890782356262], [-0.4069381654262543], [-0.1994176059961319], [0.3215162456035614], [0.02504531480371952], [0.045558445155620575], [-0.009909963235259056], [0.3401399850845337], [0.08028046786785126], [-0.360892117023468], [0.36622288823127747], [0.14923542737960815], [-0.05653436481952667], [0.0029480846133083105], [0.2111329436302185], [-0.4423825442790985], [0.262834757566452], [0.8550428152084351], [-0.6544254422187805], [-0.3300163745880127], [-0.02631586417555809], [-0.35614216327667236], [0.1928815245628357], [0.3285406827926636], [0.6536763906478882], [0.5437677502632141], [-0.3600781261920929], [0.2572583258152008], [0.3197553753852844], [-0.07144372165203094], [0.33207476139068604], [-0.46224966645240784], [0.1582096964120865], [0.37531813979148865], [0.21082112193107605], [-0.3499622941017151], [-0.3032907247543335], [0.22412551939487457], [0.4360620975494385], [-0.48219239711761475], [0.04522983357310295], [-0.35671451687812805], [0.09700621664524078], [0.25974366068840027], [-0.3272510766983032], [0.13209468126296997], [0.08104599267244339], [0.36414003372192383], [0.3074124753475189], [0.041251473128795624], [-0.03290683403611183], [0.2847474217414856], [0.04856273531913757], [0.18428067862987518], [0.3189969062805176], [-0.0335414744913578], [-0.25248482823371887], [-0.24743323028087616], [0.2609005570411682], [-0.03201298788189888], [-0.03645634651184082], [0.05627695098519325], [-0.1746482402086258], [-0.3297560513019562], [-0.10302302986383438], [0.16704274713993073]], "rec.weight_hh_l0": [[-0.0029672749806195498, -0.004170539323240519, -0.006683093495666981, -0.004100346937775612, -0.02391214855015278, 0.026498112827539444, -0.0014829887077212334, 0.030509475618600845, 0.0132666677236557, -0.0033970510121434927, 0.009455599822103977, 0.024404145777225494, -0.016068032011389732, 0.013432701118290424, -0.028250698000192642, 0.025526342913508415, -0.036372385919094086, 0.001375690451823175, 0.010045867413282394, -0.0015453611267730594, 0.005201258230954409, 0.01333537232130766, 0.03236766904592514, 0.003760215826332569, 0.06490235030651093, -0.031156064942479134, -0.023324381560087204, 0.02926558256149292, 0.00984368845820427, 0.004588605370372534, 0.033169765025377274, -0.019736768677830696, -0.031185926869511604, -0.03126773610711098, -0.03276408091187477, 0.01951555535197258, -0.029167907312512398, 0.01099652610719204, 0.03182735666632652, -0.008283952251076698, 0.01732010953128338, 0.011509706266224384, -0.016872737556695938, -0.013569672591984272, 0.011245809495449066, 0.01829955168068409, -0.01277244184166193, -0.005434003192931414, 0.0598599798977375, 0.004099385347217321, -0.0014271115651354194, -0.01614721119403839, -0.02444344572722912, 0.039033833891153336, 0.005494365002959967, -0.022462671622633934, -0.004727326799184084, -0.02325768955051899, 0.023144012317061424, 0.001622923999093473, 0.0063057998195290565, -0.018291374668478966, -0.01497428398579359, -0.02725297585129738, 0.0020171671640127897, 0.009004906751215458, 0.011079976335167885, 0.006890962831676006, -0.01132292952388525, 0.012433527037501335, 0.004904788453131914, -0.003677520202472806, 0.03641980141401291, 0.007474812678992748, -0.017056724056601524], [0.018472827970981598, 0.013704488053917885, 0.012220140546560287, -0.011737124063074589, -0.05343751236796379, 0.11326766759157181, -0.003382242051884532, 0.06674348562955856, 0.02815322019159794, 0.0004622558190021664, 0.019581342115998268, 0.0511757954955101, -0.052525799721479416, 0.009876462630927563, -0.020124901086091995, -0.0029729874804615974, -0.09033551067113876, 0.004568403586745262, 0.0054084802977740765, -0.0016561053926125169, 0.011268346570432186, 0.026253024116158485, 0.017681634053587914, -0.013225696980953217, 0.11878086626529694, -0.12206517159938812, -0.1233254224061966, 0.14896661043167114, 0.012505711056292057, -0.02462669089436531, 0.07198414206504822, -0.07345478236675262, -0.06549593061208725, -0.11774662882089615, -0.12599484622478485, 0.024337807670235634, -0.1181899681687355, 0.05452410504221916, 0.04288288950920105, 0.01817263290286064, 0.02306237816810608, 0.024299895390868187, -0.012973793782293797, -0.030335940420627594, 0.03702891990542412, 0.030891284346580505, -0.023781923577189445, -0.026536542922258377, 0.1350356638431549, 0.006442455109208822, -0.003088124794885516, -0.00979084987193346, -0.09502977877855301, 0.10032631456851959, 0.026299241930246353, -0.04146768897771835, -0.0054264129139482975, -0.07556763291358948, -0.012706328183412552, -0.009537657722830772, -0.0025900222826749086, -0.024214932695031166, -0.008154792711138725, -0.05397649109363556, 0.01357258576899767, 0.0805334597826004, 0.018393637612462044, -0.020326536148786545, -0.02586238831281662, 0.01810256764292717, -0.0359521247446537, 0.009235881268978119, 0.07334280014038086, 0.022043349221348763, -0.004080913495272398], [-0.01270073838531971, -0.02867911197245121, -0.001910045393742621, 0.01909482851624489, -0.07672400027513504, 0.10750777274370193, 0.003740492044016719, 0.0758223757147789, 0.00503262784332037, -0.06521816551685333, 0.047673311084508896, 0.0860246866941452, -0.07426916807889938, 0.032999008893966675, -0.05009046196937561, 0.0744074359536171, -0.1438741236925125, -0.02458612620830536, 0.04105008766055107, -0.011246195062994957, -0.026351450011134148, 0.07570778578519821, 0.06442049890756607, -0.05124450474977493, 0.1127919927239418, -0.1281464844942093, -0.1378527730703354, 0.10734184831380844, 0.053477074950933456, 0.02520241029560566, 0.1077314242720604, -0.10273893922567368, -0.1769292950630188, -0.11712184548377991, -0.14534643292427063, 0.08667856454849243, -0.1271304488182068, -0.025715399533510208, 0.06904952228069305, -0.05747763067483902, 0.0902346596121788, 0.04387436807155609, -0.07393231242895126, -0.0611705407500267, 0.029876135289669037, 0.13366790115833282, -0.09272029250860214, -0.001199937192723155, 0.12646043300628662, 0.043750811368227005, -0.013358916155993938, -0.06925097107887268, -0.08735218644142151, 0.10468096286058426, 0.06194597855210304, -0.027400169521570206, -0.061577729880809784, -0.08786875009536743, 0.07781778275966644, 0.033674560487270355, 0.03183647617697716, -0.0074966903775930405, -0.12396824359893799, -0.10901112109422684, -0.0028640462551265955, 0.05711577087640762, 0.05366775393486023, 0.012166041880846024, -0.043996717780828476, -0.010590208694338799, -0.07320944219827652, -0.013731771148741245, 0.15194281935691833, -0.007563565392047167, -0.09012971073389053], [4.8044807044789195e-05, -0.006161299534142017, 0.0008315547602251172, -0.009224561043083668, -0.03476259857416153, 0.05253317579627037, 0.0023855732288211584, 0.012107985094189644, 0.021161768585443497, -0.0026061302050948143, 0.02192777581512928, 0.03140142932534218, -0.012009010650217533, 0.00993233360350132, -0.034207429736852646, 0.036989014595746994, -0.03739884868264198, -0.007649507373571396, 0.003842159640043974, -0.012076491490006447, 0.007754620164632797, 0.03261902183294296, 0.03752657398581505, -0.007036482449620962, 0.032780807465314865, -0.04459606483578682, -0.06220817565917969, 0.06690172851085663, 0.005624185316264629, -0.01422192994505167, 0.030656766146421432, -0.02703854627907276, -0.03249786049127579, -0.05301419273018837, -0.04228760674595833, 0.0018772928742691875, -0.05540631338953972, 0.01606043241918087, 0.028280556201934814, -0.003323064185678959, -0.002442458411678672, 0.01042499765753746, -0.007895685732364655, -0.007988717406988144, 0.00924914050847292, 0.005741981789469719, 0.0033795619383454323, -0.011318321339786053, 0.0586698018014431, 0.008956121280789375, -9.19898520805873e-05, -0.014619385823607445, -0.045720960944890976, 0.054991260170936584, 0.02188892662525177, -0.023042568936944008, -0.01416029967367649, -0.03542141243815422, 0.043941136449575424, -0.013556934893131256, 0.0030614796560257673, -0.019153647124767303, -0.008538004010915756, -0.030245590955018997, 0.02012663148343563, 0.026956288143992424, 0.004847635980695486, 0.0007951833540573716, -0.0029158969409763813, 0.026073068380355835, -0.01250382699072361, -0.009517895057797432, 0.03613800182938576, 0.016169607639312744, 0.0004930584109388292], [0.009394694119691849, -0.002253242302685976, -0.006454999092966318, -0.002276367973536253, 0.0208391435444355, -0.047946397215127945, 0.01414538361132145, 0.016832595691084862, -0.015915853902697563, 0.0030221317429095507, -0.014921851456165314, -0.020163629204034805, 0.0038680240977555513, 0.0030159454327076674, 0.036369260400533676, -0.031186213716864586, 0.04550136253237724, 0.016083765774965286, -0.0034746446181088686, 0.011738940142095089, 0.012898867018520832, -0.028169803321361542, -0.026383323594927788, -0.003260350087657571, -0.018741942942142487, 0.042790502309799194, 0.04865443333983421, -0.03302205726504326, 0.0029602632857859135, 0.005003376863896847, -0.02804498001933098, 0.0258807260543108, 0.023529784753918648, 0.06370575726032257, 0.031410373747348785, -0.010251869447529316, 0.019660333171486855, -0.004747438244521618, -0.028818316757678986, 0.02007221058011055, -0.026172494515776634, 0.010992874391376972, 0.0021684204693883657, 0.00915655680000782, -0.02257518842816353, -0.00023502050316892564, 0.017628120258450508, 0.0031097624450922012, -0.008644932880997658, -0.011090770363807678, -0.01416647806763649, 0.012797108851373196, 0.01735260710120201, -0.04461514949798584, 0.005196588579565287, 0.011979255825281143, 0.010565613396465778, 0.02075723186135292, -0.038637757301330566, 0.016728324815630913, 6.452731031458825e-05, 0.019903788343071938, 0.012290935032069683, 0.02283855713903904, -0.02917320281267166, -0.027929451316595078, -0.002854810329154134, -0.003467441536486149, -0.014952446334064007, -0.02634512074291706, 0.08301617205142975, 0.0063429586589336395, -0.02905423752963543, -0.010687468573451042, 0.005894697271287441], [0.018907124176621437, 0.0073791928589344025, 0.017314478754997253, -0.017873965203762054, 0.060987360775470734, -0.07203256338834763, -0.00734961312264204, -0.06863871216773987, -0.04720111936330795, 0.040832068771123886, -0.05743922293186188, -0.04670945554971695, -0.019322870299220085, 0.021646300330758095, 0.04009522497653961, -0.044273629784584045, 0.05959212779998779, 0.04931088909506798, -0.006562670227140188, 0.06610545516014099, -0.01457350142300129, -0.03942480683326721, -0.04760552942752838, 0.013739294372498989, -0.0852048471570015, 0.06013429909944534, 0.056286104023456573, -0.08282142132520676, -0.002907644957304001, 0.028066523373126984, -0.06028761714696884, 0.043903328478336334, 0.013285551220178604, 0.08849180489778519, 0.1125190481543541, -0.002726485952734947, 0.05631187558174133, 0.030877407640218735, -0.03465705364942551, 0.03178466856479645, 0.00205022725276649, -0.01186887826770544, 0.010038048028945923, -0.02122008427977562, 0.012498298659920692, 0.00226075598038733, -0.014254966750741005, -0.013802757486701012, -0.09289705008268356, -0.021907737478613853, 0.001021633273921907, -0.006131803151220083, 0.055675022304058075, -0.07620146870613098, -0.005164132919162512, 0.029464419931173325, 0.03161534667015076, 0.09302732348442078, -0.0243817251175642, 0.02753906510770321, 0.0018100517336279154, 0.03823293745517731, -0.00016040742048062384, 0.0232353787869215, -0.03022322803735733, -0.06805966794490814, 0.012329154647886753, -0.047148555517196655, -0.03440699726343155, -0.022878943011164665, 0.06820935755968094, 0.01990469917654991, -0.037241075187921524, -0.04354535788297653, -0.006638087332248688], [0.008440828882157803, -0.0026139740366488695, 0.05347037315368652, -0.007590952329337597, -0.05859128385782242, 0.11565544456243515, -0.021754544228315353, 0.0817062184214592, 0.031395841389894485, -0.02028149738907814, 0.032344985753297806, 0.07789020985364914, -0.06037144362926483, 0.02688274346292019, -0.03245484083890915, 0.04214637726545334, -0.08065780252218246, -0.029276199638843536, 0.012122120708227158, -0.027708888053894043, -0.030693352222442627, 0.047111257910728455, 0.04031365364789963, -0.03477850556373596, 0.15210416913032532, -0.13711555302143097, -0.10021363943815231, 0.11179134249687195, 0.0021363371051847935, -0.012298076413571835, 0.07217436283826828, -0.06387650966644287, -0.08145808428525925, -0.12943871319293976, -0.15476331114768982, 0.046707186847925186, -0.1342764049768448, 0.029439100995659828, 0.026324216276407242, -0.03199662268161774, 0.06264948099851608, 0.008499139919877052, -0.0148742301389575, -0.046449970453977585, 0.05187874287366867, 0.05744456499814987, -0.08165588974952698, -0.02054932340979576, 0.1740415096282959, -0.007112819701433182, 0.009631833992898464, -0.035032741725444794, -0.13084566593170166, 0.0813717469573021, -0.01052178256213665, -0.03571038693189621, -0.011575422249734402, -0.06747931987047195, -0.003605363192036748, 0.012113614939153194, 0.0011669113300740719, -0.01125569548457861, -0.039880912750959396, -0.06244104728102684, 0.03651026636362076, 0.037968698889017105, 0.032456737011671066, -0.04515761137008667, -0.020641736686229706, 0.02538749761879444, -0.04728146269917488, 0.014663619920611382, 0.08124247193336487, 0.04236464574933052, -0.04021739959716797], [0.009338555857539177, -0.05749598518013954, -0.013695118948817253, -0.03842967748641968, 0.0001816944859456271, -0.012850693427026272, 0.022145699709653854, -0.08454383909702301, -0.031948525458574295, 0.028012653812766075, -0.04194878041744232, -0.010720798745751381, -0.011768866330385208, 0.05920102074742317, -0.01329728588461876, 0.015390701591968536, 0.02246236987411976, 0.021181948482990265, 0.004783156793564558, 0.06614912301301956, 0.0007471356657333672, -0.008417547680437565, -0.0036849642638117075, -0.004977403208613396, -0.05928455665707588, 0.01876514032483101, 0.06914903223514557, -0.041704561561346054, -0.015437851659953594, 0.020773302763700485, -0.03080286644399166, 0.011185097508132458, -0.017296236008405685, 0.022862622514367104, 0.03699801117181778, 0.025805315002799034, -0.0007111729355528951, 0.048531580716371536, -0.009031879715621471, 0.009875313378870487, 0.03156010061502457, 0.009469668380916119, -0.004876724444329739, -0.02009757049381733, -0.036299414932727814, 0.037524349987506866, -0.019147800281643867, 0.03927981108427048, -0.01877494901418686, 0.0334225632250309, -0.0204940065741539, -0.04180426150560379, -0.006693979725241661, -0.0010580634698271751, 0.048247065395116806, 0.0292452871799469, 0.02945660427212715, 0.03630150854587555, 0.06420241296291351, 0.026671750470995903, 0.03782159090042114, 0.033272404223680496, -0.03639059141278267, -0.0061376397497951984, -0.01442903745919466, -0.047907911241054535, 0.025254270061850548, 0.02483152225613594, -0.03401811420917511, -0.012965216301381588, 0.04690726101398468, -0.023371761664748192, 0.0167388916015625, -0.0417415015399456, -0.05154946446418762], [-0.0018933428218588233, -0.011086706072092056, -0.01898389682173729, -0.001087394542992115, 0.018493082374334335, -0.005302206613123417, 0.003768946509808302, -0.02962108701467514, -0.03815888240933418, -0.002540714805945754, -0.026129869744181633, -0.01870037615299225, -0.030175084248185158, 0.012194949202239513, 0.052166614681482315, -0.047119755297899246, 0.013788814656436443, 0.017470190301537514, 0.013198110274970531, 0.03072141855955124, 0.021254105493426323, -0.04427259787917137, -0.04914262518286705, -0.004537932574748993, -0.002758061047643423, 0.01069783978164196, 0.030060812830924988, -0.0054049682803452015, 0.024846121668815613, 0.024152705445885658, -0.008016794919967651, 0.0017828552518039942, 0.0009028241620399058, 0.01539741549640894, 0.003616462228819728, 0.026826871559023857, 0.007027395069599152, 0.00198229867964983, -0.03140794113278389, -0.00023618100385647267, 0.012670192867517471, 0.019935159012675285, -0.04326649382710457, -0.02877519465982914, 0.008448644541203976, 0.02897200733423233, -0.02010095864534378, -0.0031477028969675303, -0.014093754813075066, -0.015991223976016045, -0.013581331819295883, -0.005015500821173191, 0.011157617904245853, -0.021126266568899155, 0.006009597331285477, 0.02645784430205822, 0.008449841290712357, 0.026605863124132156, -0.05426868051290512, 0.027621768414974213, 0.017801253125071526, 0.04142312332987785, -0.014978433027863503, 0.004341525956988335, -0.028541529551148415, -0.02124764956533909, 0.020863555371761322, 0.0066780284978449345, -0.014733546413481236, -0.03768760338425636, 0.036012306809425354, -0.010264704935252666, -0.015392889268696308, -0.03956319019198418, -0.016604216769337654], [0.00520560797303915, -0.0060069868341088295, -0.004723180551081896, -0.007227001246064901, -0.006092608440667391, 0.00872098095715046, 0.00449349544942379, -0.0028622476384043694, -0.00374415866099298, 0.002685774816200137, -0.008086769841611385, 0.0034445561468601227, -0.009575041942298412, 0.009730905294418335, 0.005459763575345278, -0.010454789735376835, -0.0064085922203958035, 0.005306854844093323, 0.0005447603762149811, 0.013482061214745045, 0.005130049306899309, -0.005964167881757021, -0.007634794805198908, 0.003931358922272921, 0.0017176265828311443, -0.010223636403679848, -0.004412069916725159, 0.008465242572128773, 0.0022302367724478245, 0.0005673400592058897, 0.0022193090990185738, -0.009345736354589462, -0.0048717353492975235, -0.012562213465571404, -0.008424868807196617, 0.0025476717855781317, -0.014670959673821926, 0.016834242269396782, -0.001257115276530385, 0.007724164053797722, 0.002596797188743949, 0.0018530813977122307, 0.003012127475813031, -0.005528624635189772, -0.0004691408830694854, 0.004807597491890192, -0.0030026680324226618, -0.004208746831864119, 0.014996579848229885, -0.0043337382376194, -0.003841974539682269, -0.0067164101637899876, -0.015060164034366608, 0.011614562012255192, 0.008948756381869316, -0.0019183139083907008, 0.003077681642025709, -0.0031141075305640697, -0.0036810829769819975, 0.005738687701523304, 0.0073087443597614765, 0.0054849861189723015, -0.007544276304543018, -0.0056596058420836926, -0.002690219320356846, 0.001566249062307179, 0.005385040771216154, 0.0024710078723728657, -0.010418684221804142, -0.004804430995136499, 0.008296062238514423, -0.004581805784255266, 0.006586992181837559, -0.005185032729059458, -0.005860581994056702], [-0.0033512264490127563, -0.011696469970047474, -0.023471636697649956, -0.0031896906439214945, 0.019939573481678963, 0.0008171681547537446, 0.010835761204361916, -0.027520861476659775, -0.04130774363875389, -0.0035704716574400663, -0.027845602482557297, -0.013590690679848194, -0.03907435014843941, 0.029679732397198677, 0.036726899445056915, -0.04060173034667969, 0.01016931887716055, 0.03767941892147064, 0.021668000146746635, 0.0532417856156826, 0.009601506404578686, -0.0354006327688694, -0.040981680154800415, 0.0042210910469293594, -0.0031956809107214212, 0.009525692090392113, 0.03244861960411072, -0.02649899199604988, 0.027868883684277534, 0.04612705856561661, -0.00730997184291482, 0.0016100527718663216, -0.012244189158082008, 0.006051624193787575, -0.01016298495233059, 0.034622982144355774, 0.016486728563904762, -0.00022806489141657948, -0.01167657133191824, 0.006565149873495102, 0.03274647146463394, 0.030559033155441284, -0.02265992760658264, -0.044189050793647766, 0.009365048259496689, 0.04984234645962715, -0.025030694901943207, -0.02201686054468155, 0.010331308469176292, -0.044997476041316986, -0.014290899969637394, -0.022095046937465668, 0.008573850616812706, -0.009994284249842167, 0.018323736265301704, 0.03067786619067192, 0.008855990134179592, 0.02308928221464157, -0.046543609350919724, 0.03851601481437683, 0.0238832738250494, 0.03917201608419418, -0.04127926379442215, -0.003988099284470081, -0.036593787372112274, -0.024830501526594162, 0.034187812358140945, 0.042065300047397614, -0.025886770337820053, -0.03848209232091904, 0.05159394070506096, -0.016697710379958153, 0.0007249783375300467, -0.047214705497026443, -0.042236797511577606], [0.006835891865193844, -0.0025471695698797703, 0.014371908269822598, -0.011168149299919605, 0.020873896777629852, -0.03520098701119423, -0.002300685504451394, -0.0022442967165261507, -0.02251467853784561, 0.015170090831816196, -0.015979012474417686, -0.018952444195747375, 0.004575714003294706, 0.014320693910121918, 0.024624202400445938, -0.04606570303440094, 0.009877348318696022, 0.013200708664953709, -0.00019278055697213858, 0.025690089911222458, -0.003660567570477724, -0.029311567544937134, -0.04286639392375946, -0.009237725287675858, -0.002360934391617775, 0.0037858644500374794, 0.017160553485155106, -0.04216039180755615, -0.00310366484336555, -0.0014848101418465376, -0.006457303185015917, 0.011487825773656368, 0.02556496299803257, 0.030756372958421707, 0.039659008383750916, -0.003958963323384523, 0.019276011735200882, 0.02474229596555233, -0.022135592997074127, 0.006445697974413633, -0.0020469443406909704, -0.0031233723275363445, 0.0013946635881438851, 0.002443164587020874, -0.0011304165236651897, -0.0009033188107423484, -0.004336335696280003, -0.0029193421360105276, -0.0017922322731465101, -0.0006243122043088078, 0.002056611469015479, -0.0030963337048888206, 0.02033444494009018, -0.012856680899858475, 0.001253499765880406, 0.008597992360591888, 0.014603842049837112, 0.008386451750993729, -0.049244899302721024, 0.017948772758245468, 0.002210743725299835, 0.028844734653830528, -0.0016319648129865527, 0.013937368057668209, -0.012872383929789066, 0.009008659049868584, 0.00487625552341342, -0.020275171846151352, -0.01646246761083603, -0.018228089436888695, 0.020142607390880585, 0.008490199223160744, -0.0217051450163126, -0.029492748901247978, -0.006742615718394518], [-0.03410523384809494, -0.017284763976931572, 0.11735890805721283, 0.02141168899834156, -0.10660206526517868, 0.12916520237922668, -0.04235726222395897, -0.01770220324397087, 0.044160712510347366, -0.05724580958485603, 0.07940008491277695, 0.06166272237896919, -0.2076394110918045, 0.03908874839544296, -0.0188905056566, 0.07457266747951508, -0.1419636309146881, -0.0455046221613884, 0.06913960725069046, -0.018885016441345215, -0.03818117827177048, 0.03554227575659752, -0.007793571334332228, -0.05242524296045303, 0.05976271256804466, -0.13354842364788055, -0.07224094122648239, 0.1093519851565361, 0.07599455863237381, -0.01933235116302967, 0.11143390089273453, -0.10739216953516006, -0.31269213557243347, -0.11823617666959763, -0.13285790383815765, 0.12829019129276276, -0.0969720408320427, -0.06262574344873428, 0.015514729544520378, -0.05791274458169937, 0.17338602244853973, 0.04323272407054901, -0.14045558869838715, -0.14792487025260925, 0.08514995872974396, 0.16932924091815948, -0.13654938340187073, -0.05154155194759369, 0.16330856084823608, -0.03475403040647507, 0.02066422440111637, -0.08876731246709824, -0.1427358239889145, 0.13475587964057922, 0.032452523708343506, -0.07998988032341003, -0.07606131583452225, -0.13241276144981384, 0.07644886523485184, 0.025636771693825722, 0.015744436532258987, 0.032288793474435806, -0.17090140283107758, -0.15537802875041962, 0.03609973192214966, 0.06210128962993622, 0.1314266473054886, -0.13545559346675873, -0.03415476903319359, 0.025399629026651382, -0.059240520000457764, 0.048012617975473404, 0.1767846792936325, 0.02442115545272827, -0.12030956149101257], [0.0077146426774561405, -0.03919794410467148, -0.017663994804024696, -0.025395382195711136, 0.003710258984938264, 0.011424435302615166, 0.012780290096998215, -0.03639772906899452, -0.021294161677360535, 0.018789462745189667, -0.027206188067793846, -0.003350459970533848, -0.017632082104682922, 0.0428202822804451, -0.009107493795454502, 0.027075115591287613, -0.00041030056308954954, 0.01671101711690426, 0.001140632783062756, 0.04292186722159386, 0.001794870593585074, 0.0024337724316865206, 0.012961583212018013, -0.009588147513568401, -0.02057047188282013, -0.007698217406868935, -0.005011800676584244, 0.011045631021261215, -0.004613152705132961, 0.020305056124925613, -0.012053976766765118, -0.001967189135029912, -0.036528050899505615, -0.008359518833458424, 0.008054971694946289, 0.024398474022746086, -0.01989433728158474, 0.02077644318342209, 0.003833632916212082, -0.008724688552320004, 0.0106892054900527, 0.011927626095712185, -0.019916485995054245, -0.013985260389745235, -0.017278417944908142, 0.03535852208733559, -0.011279727332293987, 0.02179880067706108, 0.0015677467454224825, 0.016995850950479507, -0.013426859863102436, -0.030996298417448997, -0.015081878751516342, 0.01600128412246704, 0.02631843090057373, 0.01709095574915409, 0.019185198470950127, 0.020112525671720505, 0.04111232981085777, 0.023581326007843018, 0.0275720302015543, 0.019264858216047287, -0.04542131349444389, -0.01655321754515171, -0.018183568492531776, -0.025192884728312492, 0.01611255295574665, 0.01651575416326523, -0.03161245584487915, -0.014950350858271122, 0.022361967712640762, -0.011791013181209564, 0.03192711994051933, -0.02774851955473423, -0.029183385893702507], [-0.002817880129441619, -0.04486558586359024, -0.0278285201638937, 0.004446129780262709, 0.019803455099463463, -0.0008344498928636312, 0.021757880225777626, 0.03235070779919624, -0.05311806872487068, -0.01784614473581314, -0.020935488864779472, -0.012368676252663136, -0.026952320709824562, 0.0019557031337171793, 0.11328265070915222, -0.0731409564614296, -0.0025846671778708696, 0.006471183616667986, 0.015020587481558323, 0.021060680970549583, 0.03132644295692444, -0.06425216048955917, -0.08225139230489731, -0.02544768713414669, 0.03366999328136444, -0.00811775028705597, -0.0299537293612957, 0.02805686928331852, 0.0066331541165709496, 0.012068260461091995, 0.004052319098263979, -0.01317461859434843, 0.01941043697297573, -0.04344389960169792, -0.03197025880217552, 0.046294793486595154, 0.00033780711237341166, -0.005846549291163683, -0.07191073894500732, -0.02711918205022812, 0.012308519333600998, 0.025927037000656128, -0.05361475795507431, -0.00120027014054358, -0.013438847847282887, 0.020568713545799255, -0.025257321074604988, 0.039415448904037476, 0.029366759583353996, -0.004133562557399273, -0.029710153117775917, 0.002537679625675082, 0.005659208633005619, -0.02555929496884346, 0.006313310004770756, 0.03362072631716728, 0.016615990549325943, 0.02580859512090683, -0.07040631771087646, 0.05666159465909004, 0.02942970022559166, 0.06831340491771698, -0.015058723278343678, 0.0019511865684762597, -0.048982810229063034, -0.008211865089833736, 0.023709340021014214, 0.02764885127544403, -0.022725334390997887, -0.06363406777381897, 0.029901966452598572, 0.003323221579194069, -0.05086411535739899, -0.04423174634575844, 0.003072211053222418], [0.03692059591412544, -0.05918631702661514, -0.027146916836500168, -0.0034256887156516314, 0.02264045923948288, -0.011458330787718296, 0.028871098533272743, -0.019720692187547684, -0.06386313587427139, -0.01071205921471119, -0.05009820684790611, -0.009152219630777836, -0.08430705964565277, 0.006337393540889025, 0.12344405800104141, -0.1017562747001648, -0.010598739609122276, 0.024196304380893707, -0.006050737574696541, 0.06615821272134781, 0.0613369457423687, -0.0948406532406807, -0.09696252644062042, -0.04064568132162094, 0.039789192378520966, -0.01798829808831215, 0.018255140632390976, -0.025874393060803413, 0.023294702172279358, 0.02641056850552559, -0.008860756643116474, -0.04262646287679672, -0.04565354064106941, -0.0110770957544446, -0.004738717805594206, 0.045013874769210815, -0.0012169681722298265, 0.00821997132152319, -0.052582815289497375, 0.01772524043917656, -0.03380521386861801, 0.0678342804312706, -0.08030486106872559, -0.028148028999567032, -0.0046330043114721775, 0.056085966527462006, -0.024966569617390633, 0.027750656008720398, -0.018058480694890022, -0.07043818384408951, -0.06329642981290817, 0.011698856018483639, 0.016054531559348106, -0.03577808290719986, 0.024520061910152435, 0.04034707695245743, 0.04069680720567703, 0.04787824675440788, -0.14556549489498138, 0.06152964010834694, 0.04313169792294502, 0.08635435253381729, -0.04280847683548927, -0.0038992848712950945, -0.06683196872472763, -0.02145257405936718, 0.03242947906255722, 0.013228878378868103, -0.042294953018426895, -0.0675896406173706, 0.020654575899243355, -0.0004404962237458676, 0.0006639378261752427, -0.06659246981143951, 0.011912522837519646], [0.007179631851613522, 0.01703404262661934, 0.02073228731751442, -0.004206080920994282, 0.040343619883060455, -0.08395621925592422, -0.007612697780132294, 0.003478313097730279, -0.015196413733065128, 0.022922981530427933, -0.03810952976346016, -0.03747517243027687, 0.004433004651218653, 0.004222158808261156, 0.013458051718771458, -0.039399225264787674, 0.07420682907104492, 0.02648618258535862, -0.004182050004601479, 0.03464450314640999, -0.006691549904644489, -0.03547200933098793, -0.030111737549304962, 0.007814224809408188, -0.05569996312260628, 0.06296714395284653, 0.04028141871094704, -0.10179869830608368, -0.0012329494347795844, 0.009379863739013672, -0.0531289167702198, 0.03707822039723396, 0.028562046587467194, 0.10672985017299652, 0.11139281839132309, -0.016585519537329674, 0.05380707234144211, 0.014097829349339008, -0.02384931780397892, 0.023383701220154762, -0.013412363827228546, -0.01764604076743126, 0.004514963831752539, 0.002351893810555339, 0.0022960833739489317, -0.025517260655760765, 0.013148406520485878, -0.01379629410803318, -0.10113202035427094, -0.012892255559563637, 0.010192240588366985, 0.009947272017598152, 0.06652473658323288, -0.08754833787679672, -0.011026976630091667, 0.014005056582391262, 0.015205933712422848, 0.05842110887169838, -0.020061202347278595, 0.006955939345061779, -0.011813168413937092, 0.011870605871081352, 0.014879537746310234, 0.0392608642578125, -0.012139060534536839, -0.043560296297073364, -0.0029419688507914543, -0.040874358266592026, -0.016847122460603714, -0.01820727065205574, 0.0009681069641374052, 0.016378790140151978, -0.04570787772536278, -0.016205551102757454, 0.016430823132395744], [-0.012006162665784359, -0.0228471327573061, -0.00065239128889516, -0.006598480045795441, 0.011191443540155888, 0.015002802945673466, -0.010644130408763885, -0.05519954860210419, -0.03266520798206329, 0.003849543398246169, -0.01914963498711586, -0.005095976870507002, -0.034470219165086746, 0.042197901755571365, 0.007218408398330212, 0.016010219231247902, -0.0030185445211827755, 0.02139572985470295, 0.018146993592381477, 0.0398758240044117, -9.242257510777563e-05, -0.014705970883369446, -0.006930829957127571, -0.020447468385100365, -0.005950260441750288, -0.002728330669924617, -0.002561077242717147, -0.018380869179964066, 0.01546564046293497, 0.03086107037961483, 0.002000885782763362, 0.0002917437523137778, -0.034606944769620895, -0.002842158079147339, -0.025940580293536186, 0.051091715693473816, 0.0014795720344409347, 0.005806284490972757, -0.00908465776592493, -0.025334864854812622, 0.04038868844509125, 0.01327670831233263, -0.06016163155436516, -0.036881934851408005, 0.01447442639619112, 0.04508202150464058, -0.036569125950336456, 0.003938431851565838, 0.008461209014058113, 0.010707316920161247, 0.001194586744531989, -0.03455430641770363, -0.0015643620863556862, 0.013924207538366318, 0.021409736946225166, 0.025622397661209106, 0.009082344360649586, 0.009387093596160412, 0.03301238641142845, 0.02765418402850628, 0.02281520701944828, 0.029662707820534706, -0.0510648638010025, -0.015765439718961716, -0.022560562938451767, -0.02012208104133606, 0.025199737399816513, -0.003271602327004075, -0.026305343955755234, -0.019833799451589584, 0.03824722766876221, -0.006866381037980318, 0.022892387583851814, -0.042644888162612915, -0.048196062445640564], [-3.8967518776189536e-05, -0.00804908387362957, 0.0031309067271649837, -0.004060643725097179, -0.025312701240181923, 0.06088852882385254, 0.0011155175743624568, 0.03682740032672882, 0.006491307634860277, -0.0009128664969466627, 0.006016161292791367, 0.021153302863240242, -0.007991204038262367, 0.011340666562318802, -0.009302030317485332, 0.027888502925634384, -0.053212422877550125, -0.0004029226547572762, 0.0012063422473147511, -0.005116355139762163, -0.000905808643437922, 0.012208497151732445, 0.012676077894866467, -0.003922536037862301, 0.06568124145269394, -0.0482369139790535, -0.07560046762228012, 0.08048008382320404, 0.0031893944833427668, 0.00493940245360136, 0.02431657537817955, -0.018467681482434273, -0.028843320906162262, -0.04585873335599899, -0.0836009681224823, 0.008153276517987251, -0.0318586528301239, -0.0020925761200487614, 0.009967619553208351, -0.0024837281089276075, 0.005059532355517149, 0.006697712000459433, -0.009796946309506893, -0.008901076391339302, -0.000942194601520896, 0.013050513342022896, -0.008655529469251633, 0.002184326993301511, 0.07596128433942795, 0.013587651774287224, -0.002175463130697608, -0.010651594027876854, -0.04324731230735779, 0.06309398263692856, 0.017798110842704773, -0.014120925217866898, -0.0036970407236367464, -0.046514302492141724, 0.031031932681798935, 0.004527844022959471, 0.005083124153316021, 0.0030885690357536077, -0.012870126403868198, -0.01897505857050419, -1.5064513718243688e-05, 0.012920377776026726, 0.004820990841835737, -0.004584596026688814, -0.003690604353323579, 0.011153103783726692, -0.03400539234280586, -0.00154106505215168, 0.026280976831912994, 0.004492179024964571, -0.012666906230151653], [-0.003698926419019699, 0.006048934068530798, -0.001954280771315098, 0.0019597490318119526, 0.023790962994098663, -0.0007631912012584507, -0.01792094111442566, -0.05592307075858116, -0.03912965580821037, 0.005009307060390711, -0.027055317535996437, -0.017407141625881195, -0.05398071929812431, 0.029966579750180244, 0.024166904389858246, -0.013438877649605274, 0.012705912813544273, 0.04190021753311157, 0.018687285482883453, 0.05456185340881348, -0.0072741261683404446, -0.02833528071641922, -0.020930223166942596, 0.007310378365218639, -0.011244211345911026, 0.004651225637644529, 0.031220007687807083, -0.019275736063718796, 0.02031477354466915, 0.04648136720061302, -0.008768719621002674, 0.005387458950281143, -0.03261735290288925, 0.008127053268253803, 0.005772093776613474, 0.044423509389162064, 0.00642278790473938, -0.0009720431407913566, -0.0008270241669379175, -0.008056079037487507, 0.03904091566801071, 0.0162506103515625, -0.029912587255239487, -0.05738775432109833, 0.04084901884198189, 0.05268096923828125, -0.05288229510188103, -0.015841178596019745, -0.014778128825128078, -0.033548079431056976, 0.005322032608091831, -0.02291526086628437, 0.012188010849058628, -0.010559707880020142, -0.009774886071681976, 0.031532470136880875, 0.016204820945858955, 0.04087503254413605, -0.020091364160180092, 0.03475169092416763, 0.010628143325448036, 0.03052806667983532, -0.03214668110013008, -0.01200121734291315, -0.03577301278710365, -0.03677013888955116, 0.03776346519589424, 0.0077554816380143166, -0.02811964973807335, -0.03315596655011177, 0.07465191930532455, 0.0031525795347988605, 0.025195956230163574, -0.044982027262449265, -0.04477127641439438], [0.007593829184770584, -0.013372077606618404, -0.022689251229166985, -0.01607769913971424, -0.02520003728568554, 0.04771539568901062, 0.009798131883144379, 0.008773465640842915, 0.0019814830739051104, 0.0028882359620183706, -0.0013957079499959946, 0.02601715922355652, -0.03008379228413105, 0.028779802843928337, -0.024172088131308556, 0.022174231708049774, -0.04569635167717934, 0.011135391891002655, 0.007132392842322588, 0.019259339198470116, 0.010244864039123058, 0.02435987815260887, 0.028528517112135887, 0.017286408692598343, 0.04554542526602745, -0.05429328605532646, -0.07189874351024628, 0.05509559065103531, 0.011521550826728344, 0.007212025113403797, 0.0282574575394392, -0.03212520852684975, -0.04750565439462662, -0.04614830017089844, -0.05161518603563309, 0.02724495530128479, -0.05248507857322693, 0.019993042573332787, 0.02611677162349224, 0.0061764768324792385, 0.02480551227927208, 0.023922249674797058, -0.0014275944558903575, -0.026719873771071434, 0.008226349949836731, 0.03703804686665535, -0.014172046445310116, -0.009226536378264427, 0.05189865455031395, 0.007136587984859943, -0.010640257969498634, -0.030425071716308594, -0.04713728651404381, 0.04618646949529648, 0.038297343999147415, -0.009891992434859276, -0.0019585182890295982, -0.010194296017289162, 0.03835885226726532, 0.010544540360569954, 0.01932046189904213, -0.006631908938288689, -0.03124244324862957, -0.03687229007482529, -0.0036419040989130735, 0.011871454305946827, 0.019210467115044594, 0.017577892169356346, -0.024564526975154877, 0.007861805148422718, -0.00011194450780749321, -0.015568357892334461, 0.04609612748026848, -0.0019367777276784182, -0.027463160455226898], [0.0043793595395982265, -0.006957621779292822, -0.03377532958984375, 0.029141370207071304, 0.024639084935188293, 0.018525347113609314, -0.00801869947463274, 0.035856280475854874, -0.05063523352146149, -0.030327940359711647, -0.02841675467789173, -0.02625023014843464, -0.04834738001227379, -0.01891873963177204, 0.10220575332641602, -0.08010317385196686, 0.01704389415681362, 0.008279123343527317, 0.014455155469477177, 0.016150860115885735, 0.055612754076719284, -0.08114880323410034, -0.08672687411308289, -0.0104689821600914, 0.03367380052804947, -0.004081846214830875, 0.0030010526534169912, 0.012494714930653572, 0.043286651372909546, 0.02643170952796936, 0.0077584427781403065, -0.018976373597979546, 0.0074368976056575775, 0.030212536454200745, -0.020344344899058342, 0.029942143708467484, -0.0015158499591052532, -0.012917207553982735, -0.05314796417951584, 0.006483056116849184, -0.026961544528603554, 0.03623171150684357, -0.08845397084951401, -0.012446032837033272, 0.030720435082912445, 0.02464492805302143, -0.018601665273308754, -0.005942882504314184, -0.0019064017105847597, -0.024854041635990143, -0.03426294028759003, 0.02231781743466854, -0.006193169858306646, -0.018995484337210655, -0.00019906026136595756, 0.024021515622735023, 0.0056677209213376045, 0.06276210397481918, -0.08361585438251495, 0.042022138833999634, 0.018463874235749245, 0.059155579656362534, -0.002923841355368495, 0.003710981225594878, -0.05034996569156647, -0.014069534838199615, 0.017192289233207703, 0.00028671015752479434, -0.017528479918837547, -0.06767182052135468, 0.0606394037604332, 0.0070257652550935745, -0.03176258131861687, -0.03882409632205963, 0.03166462481021881], [0.011747908778488636, -0.019036879763007164, -0.038722287863492966, 0.03983950987458229, 0.01992812566459179, -0.04091216251254082, 0.005351304076611996, 0.02805158868432045, -0.06712155044078827, -0.03175271302461624, -0.03368690609931946, -0.019754402339458466, -0.06447023153305054, -0.015152894891798496, 0.12795765697956085, -0.12105976790189743, 0.01586184836924076, 0.00611358555033803, 0.011720008216798306, 0.026612792164087296, 0.0586085245013237, -0.10317239910364151, -0.11456208676099777, -0.01630229689180851, 0.049478039145469666, 0.010666660033166409, -0.029193561524152756, 0.014838654547929764, 0.03732246533036232, 0.029978597536683083, 0.007420903071761131, -0.03170820325613022, -0.005320212338119745, -0.0002351169241592288, -0.03103487938642502, 0.039742402732372284, 0.01568445935845375, -0.016117731109261513, -0.0722741037607193, -0.0002331037976546213, -0.012662509456276894, 0.04895021393895149, -0.09223760664463043, -0.016865747049450874, 0.027958931401371956, 0.026119647547602654, -0.02908085100352764, 0.011378695257008076, -0.0198246780782938, -0.06331074982881546, -0.04214884340763092, 0.019473640248179436, 0.009477491490542889, -0.009695124812424183, 0.020528143271803856, 0.024890055879950523, 0.01969074085354805, 0.06878206878900528, -0.12178266793489456, 0.056781403720378876, 0.03050592727959156, 0.08525404334068298, -0.012409861199557781, 0.005901316646486521, -0.055423393845558167, -0.013570204377174377, 0.02332104742527008, 0.01851925626397133, -0.02039029635488987, -0.06651803106069565, 0.00015772994083818048, 0.002769152168184519, -0.05960322916507721, -0.056813422590494156, 0.025714995339512825], [0.008568917401134968, -0.08906141668558121, -0.08462338894605637, -0.03393643721938133, -0.06763523072004318, 0.10956445336341858, 0.0459904707968235, -0.011862200684845448, -0.001785272266715765, -0.013625872321426868, -0.006742177531123161, 0.07208696752786636, -0.02767154574394226, 0.05717117711901665, -0.035889796912670135, 0.04896575212478638, -0.09920097142457962, -0.016933567821979523, 0.007901044562458992, 0.027964603155851364, 0.05620129778981209, 0.03836563974618912, 0.04876846820116043, -0.01665956899523735, 0.08112149685621262, -0.09703037887811661, -0.08628736436367035, 0.11180655658245087, 0.031181925907731056, 0.005012026522308588, 0.05766865611076355, -0.07353096455335617, -0.08898287266492844, -0.14971226453781128, -0.14398528635501862, 0.0522124245762825, -0.11569138616323471, 0.03726981580257416, 0.04485237970948219, -0.008317419327795506, 0.013318007811903954, 0.06756196916103363, -0.05930193141102791, -0.014938526786863804, -0.04144708439707756, 0.06296105682849884, -0.0022169966250658035, 0.029710320755839348, 0.16257046163082123, 0.07864763587713242, -0.05273080989718437, -0.0548858568072319, -0.09770321100950241, 0.10726981610059738, 0.09472715109586716, -0.0118761220946908, -0.005237902980297804, -0.05437827855348587, 0.053747259080410004, 0.02675679698586464, 0.07361438125371933, -0.002415761351585388, -0.10005545616149902, -0.06666326522827148, -0.02301064133644104, 0.06551599502563477, 0.017461543902754784, 0.06476210802793503, -0.04522939398884773, -0.003455011174082756, 0.010424334555864334, -0.0524250753223896, 0.08276625722646713, -0.01010043639689684, -0.04214189946651459], [0.01107291504740715, -0.036531489342451096, -0.02374555729329586, -0.035064686089754105, 0.05086091160774231, -0.02176663838326931, 0.01801467500627041, -0.06409972906112671, -0.036002613604068756, 0.0335003137588501, -0.04692886397242546, -0.041641559451818466, 0.006027592346072197, 0.02521829679608345, 0.004023017827421427, 0.011990212835371494, 0.04948893189430237, 0.03053298220038414, -0.018140321597456932, 0.0612756721675396, -0.005862050224095583, -0.019490182399749756, -0.004848883021622896, -0.029965223744511604, -0.11539002507925034, 0.04035797715187073, -0.011033744551241398, -0.04257235303521156, -0.025520818307995796, 0.046043869107961655, -0.045773945748806, 0.03683663532137871, -0.0042562964372336864, 0.09276995062828064, 0.12224116921424866, -0.0014775372110307217, 0.03113444149494171, 0.014268825761973858, -0.02430500090122223, -0.01556633785367012, -0.020478328689932823, -0.017525125294923782, -0.0032975063659250736, 0.008204424753785133, -0.03656504303216934, 0.008068736642599106, 0.02018801122903824, 0.055751338601112366, -0.14796294271945953, -0.023280849680304527, -0.015093164518475533, -0.014614008367061615, 0.042738866060972214, -0.026925312355160713, -0.00255974056199193, 0.04575546458363533, 0.03580015152692795, 0.0714065432548523, 0.04165291786193848, 0.040468666702508926, 0.029774796217679977, 0.02787655033171177, -0.014776645228266716, 0.002494178945198655, -0.04306601360440254, -0.07622426748275757, -0.006003153510391712, 0.0208301804959774, -0.03257675841450691, -0.02945856936275959, 0.04693937301635742, -0.0025636532809585333, 0.0034082343336194754, -0.04693249613046646, 0.004142770543694496], [0.01038538571447134, 0.01465111318975687, 0.024679778143763542, -0.00999556202441454, 0.043862778693437576, -0.027510451152920723, -0.010214680805802345, -0.042761173099279404, -0.03667987510561943, 0.02555467188358307, -0.03440665453672409, -0.029934534803032875, -0.023573333397507668, 0.027247941121459007, 0.01930215395987034, -0.015325549058616161, 0.04293752834200859, 0.04631844162940979, 0.0041716634295880795, 0.05184292420744896, -0.015364672057330608, -0.02986597828567028, -0.01814407855272293, 0.01176961325109005, -0.08137492090463638, 0.04635888710618019, 0.0354854054749012, -0.06968039274215698, 0.0119932284578681, 0.03039124608039856, -0.038217492401599884, 0.027429793030023575, -0.00944594107568264, 0.09080957621335983, 0.08658910542726517, 0.0018032288644462824, 0.04899435117840767, 0.012008698657155037, -0.01363526564091444, 0.02749953418970108, 0.006224886979907751, -0.012601218186318874, -0.009133302606642246, -0.026118453592061996, 0.014944649301469326, 0.02556437812745571, -0.01187451183795929, -0.029103891924023628, -0.08114637434482574, -0.04549654573202133, 0.010332470759749413, -0.007993633858859539, 0.03787685185670853, -0.041531775146722794, -0.014525938779115677, 0.03537670522928238, 0.012375113554298878, 0.06167035177350044, 0.0076628257520496845, 0.028189314529299736, -0.010250532068312168, 0.022001080214977264, -0.0019941632635891438, 0.004858920816332102, -0.03442798927426338, -0.06521841138601303, 0.014369768090546131, -0.04722190275788307, -0.03416259586811066, -0.025461018085479736, 0.06271360069513321, 0.024263126775622368, 0.009244629181921482, -0.03733422979712486, -0.014262122102081776], [0.12227213382720947, -0.08000606298446655, 0.02173685096204281, -0.12817126512527466, 0.09385119378566742, -0.22804386913776398, 0.08054101467132568, -0.13597038388252258, -0.07149187475442886, 0.14685894548892975, -0.13401223719120026, -0.08886273205280304, 0.1526927947998047, 0.06413117051124573, -0.022267267107963562, 0.027768107131123543, 0.19789625704288483, 0.03523888811469078, -0.12188245356082916, 0.09192293137311935, -0.021370943635702133, -0.00038702384335920215, 0.005200618412345648, -0.11475609242916107, -0.18590591847896576, 0.17955411970615387, 0.3259197175502777, -0.22672311961650848, -0.17897222936153412, -0.006121750455349684, -0.18760551512241364, 0.1602269560098648, 0.1856122463941574, 0.27138790488243103, 0.14824405312538147, -0.08069168031215668, 0.15360020101070404, 0.1299027055501938, -0.06295762956142426, 0.03530215844511986, -0.1830199658870697, 0.0075407507829368114, 0.15998227894306183, 0.12246658653020859, -0.13119584321975708, -0.08944171667098999, 0.039609987288713455, 0.16663797199726105, -0.04624685272574425, 0.13114477694034576, -0.07284007221460342, -0.005575285293161869, 0.1354987472295761, -0.2092479169368744, 0.025959406048059464, 0.07909604907035828, 0.13500235974788666, 0.13281869888305664, 0.020232636481523514, 0.02984681725502014, 0.04654938355088234, 0.04667001590132713, -0.006347754038870335, 0.11248281598091125, -0.03495029732584953, -0.13824498653411865, -0.050733406096696854, -0.08294375240802765, -0.045641589909791946, -0.04086998477578163, 0.06616707146167755, 0.028082845732569695, -0.16376149654388428, -0.07973320037126541, 0.016318028792738914], [-0.011198057793080807, -0.010581260547041893, -0.06626924127340317, 0.018387427553534508, 0.0617564395070076, -0.08856388181447983, 0.0040567959658801556, -0.07751982659101486, -0.03586254641413689, 0.017992256209254265, -0.025740202516317368, -0.07904226332902908, 0.05099918693304062, -0.007271274924278259, 0.07057151198387146, -0.0645812600851059, 0.08349550515413284, 0.01715552806854248, -0.0017632120288908482, 0.04664620757102966, 0.0017843800596892834, -0.052701275795698166, -0.0663640946149826, 0.0674896389245987, -0.10112258046865463, 0.0837625116109848, 0.07821150124073029, -0.09022481739521027, -0.0028132412116974592, 0.025114696472883224, -0.049014560878276825, 0.07058434188365936, 0.0836881697177887, 0.05179424583911896, 0.13218903541564941, -0.051016915589571, 0.08860190212726593, 0.0014939563116058707, -0.05859346687793732, -0.006179956719279289, -0.050295185297727585, -0.06789304316043854, 0.006872227415442467, 0.051502250134944916, -0.045118480920791626, -0.04676210135221481, 0.050371505320072174, 0.04280230775475502, -0.16356337070465088, -0.044187046587467194, -0.003345158649608493, 0.02234455943107605, 0.10693471878767014, -0.15365861356258392, -0.05930108204483986, 0.04156579077243805, 0.00786877702921629, 0.08146937191486359, -0.07164322584867477, 0.04663914442062378, -0.00031968599068932235, 0.01981014385819435, 0.05038829147815704, 0.036198101937770844, -0.06480035930871964, -0.07507508248090744, -0.02113908901810646, 0.04200650006532669, -0.016894113272428513, -0.05081724002957344, 0.09943021088838577, 0.013981921598315239, -0.08564979583024979, -0.01765330322086811, 0.020620383322238922], [-0.000665920611936599, -0.013495178893208504, -0.006287120282649994, -0.007662639021873474, -0.015559122897684574, 0.04653008282184601, 0.005742636043578386, 0.007335875183343887, 0.007593553978949785, -0.0006080373423174024, 0.003655342385172844, 0.015637002885341644, -0.01119974348694086, 0.021997813135385513, -0.019068000838160515, 0.02181111089885235, -0.04812158644199371, 0.0039383950643241405, 0.007428337819874287, 0.008470725268125534, 0.006705385632812977, 0.011511219665408134, 0.014988274313509464, 0.0033131861127913, 0.03377813845872879, -0.042627524584531784, -0.06231490150094032, 0.060033123940229416, 0.008223513141274452, 0.0018107069190591574, 0.028658950701355934, -0.031684502959251404, -0.04114869609475136, -0.07059457898139954, -0.07482282817363739, 0.010722513310611248, -0.03902242332696915, 0.011837542988359928, 0.010386724956333637, -0.003992624580860138, 0.008777652867138386, 0.0051696267910301685, -0.010051077231764793, -0.008295485749840736, -0.0018060411093756557, 0.018910853192210197, -0.00035918052890338004, -0.005150852259248495, 0.06889447569847107, -0.006487077102065086, -0.0030178057495504618, -0.019568128511309624, -0.03452828899025917, 0.04183530807495117, 0.02493528462946415, -0.006974387913942337, -0.005570108536630869, -0.02561183273792267, 0.03169380873441696, 0.0033687783870846033, 0.0071627357974648476, -0.004893672652542591, -0.020009241998195648, -0.029139263555407524, 0.0018954440020024776, 0.018051616847515106, 0.00798499770462513, -0.0012183773797005415, -0.013446091674268246, 0.009797968901693821, -0.0195202324539423, -0.005798024125397205, 0.038785435259342194, -0.0002466823789291084, -0.014304686337709427], [0.0003374425577931106, -0.010682891122996807, 0.0005096870590932667, -0.003360827686265111, 0.01921677030622959, -0.010651596821844578, -0.006744984071701765, -0.06281332671642303, -0.03946880251169205, 0.013488130643963814, -0.03218168392777443, -0.01659410446882248, -0.037962477654218674, 0.033281370997428894, 0.012009654194116592, 0.002853974001482129, 0.020227333530783653, 0.035068120807409286, 0.011096829548478127, 0.047616902738809586, -0.0013241100823506713, -0.019576622173190117, -0.013318524695932865, -0.013860858045518398, -0.03206157311797142, 0.016937071457505226, 0.03875112533569336, -0.028563806787133217, 0.011018174700438976, 0.04014696553349495, -0.01511883083730936, 0.012697160243988037, -0.020643291994929314, 0.02301759272813797, 0.021149270236492157, 0.038889866322278976, 0.01418319158256054, -0.0029363848734647036, -0.00683077285066247, -0.008691363967955112, 0.02384023368358612, 0.013577836565673351, -0.04682960733771324, -0.04271629825234413, 0.015297221019864082, 0.042373280972242355, -0.038263652473688126, 0.0009443952003493905, -0.021970679983496666, -0.0026049399748444557, -0.003951625432819128, -0.024046501144766808, 0.013683609664440155, -0.010971623472869396, 0.019783221185207367, 0.036429040133953094, 0.019016021862626076, 0.04713878035545349, 0.02823140285909176, 0.03032595105469227, 0.011884472332894802, 0.030792424455285072, -0.025791840627789497, -0.010266298428177834, -0.03218817710876465, -0.04484577849507332, 0.029694216325879097, -0.0015837206738069654, -0.025116845965385437, -0.023069333285093307, 0.059169624000787735, -0.00031527821556665003, 0.02256232686340809, -0.04556514322757721, -0.036376602947711945], [0.008673891425132751, 0.013519288040697575, 0.020869174972176552, 0.0020853900350630283, 0.043836671859025955, -0.04914769157767296, -0.0058648535050451756, 0.00496337004005909, -0.03255436196923256, 0.013822210021317005, -0.03126383572816849, -0.03370441868901253, 0.006462979596108198, -0.00038822460919618607, 0.04245941713452339, -0.043808646500110626, 0.047287870198488235, 0.016628123819828033, -0.006766014266759157, 0.02655135467648506, -0.012598304077982903, -0.05223056301474571, -0.052595458924770355, 0.0001743555039865896, -0.03832336887717247, 0.07047836482524872, 0.03312632441520691, -0.06359253078699112, -0.005116407293826342, 0.013620957732200623, -0.041518405079841614, 0.03323123976588249, 0.02723742462694645, 0.0921112596988678, 0.07349681109189987, -0.015810087323188782, 0.05701552703976631, -0.004136634524911642, -0.056816212832927704, 0.016546761617064476, -0.010255308821797371, -0.02457219921052456, 0.0050938064232468605, 0.007891464978456497, -0.008157449774444103, -0.0013037421740591526, -0.0005914545035921037, 0.0025368581991642714, -0.06668860465288162, -0.03130631148815155, 0.005500016734004021, 0.014396264217793941, 0.05514580011367798, -0.0665736198425293, -0.015419859439134598, 0.029774999246001244, 0.015118583105504513, 0.04535900428891182, -0.03428645804524422, 0.0206005796790123, -0.013388345949351788, 0.03226209431886673, 0.017869170755147934, 0.027096567675471306, -0.023298272863030434, -0.03603558614850044, -0.006280763540416956, -0.04178565368056297, -0.009633935987949371, -0.02416965179145336, 0.008440384641289711, 0.026193883270025253, -0.03342939168214798, -0.02224798873066902, 0.004506649449467659], [0.01626182720065117, 0.016245834529399872, 0.011941208504140377, -0.005648663733154535, 0.030882051214575768, -0.012317052111029625, -0.0021538622677326202, -0.04297309368848801, -0.03564543277025223, 0.01745704375207424, -0.040745291858911514, -0.024202972650527954, -0.032004863023757935, 0.02399258129298687, 0.037003375589847565, -0.03738165274262428, 0.02282133139669895, 0.044668201357126236, -1.403822625434259e-05, 0.05669039115309715, -0.00096804992062971, -0.033782754093408585, -0.02675735019147396, 0.010640446096658707, -0.02899033948779106, 0.012674162164330482, 0.035790473222732544, -0.022355638444423676, 0.012590703554451466, 0.03347868099808693, -0.01941828243434429, 0.01105036772787571, -0.005682431627064943, 0.03683143109083176, 0.027113106101751328, 0.0018241021316498518, 0.00855520274490118, 0.013995837420225143, -0.005690120626240969, 0.040261343121528625, -0.007290811277925968, 0.008143344894051552, 0.0028285174630582333, -0.03226345777511597, 0.012097214348614216, 0.0252576544880867, -0.015123341232538223, -0.025230830535292625, -0.024249089881777763, -0.03082381933927536, -0.0036372379399836063, -0.004086158704012632, 0.014380102977156639, -0.025413187220692635, -0.01437286101281643, 0.027102822437882423, 0.016247890889644623, 0.03859684616327286, -0.04514947533607483, 0.03308408707380295, -0.0037105586379766464, 0.024135228246450424, -0.009811697527766228, 0.00012982163752894849, -0.04188087210059166, -0.03553260490298271, 0.015169791877269745, -0.02657456137239933, -0.03537413105368614, -0.0361005999147892, 0.07928754389286041, 0.018553249537944794, 0.011667824350297451, -0.0341479629278183, -0.016476767137646675], [0.0007113692699931562, 0.02159849926829338, 0.060251325368881226, 0.030034806579351425, 0.04741746559739113, -0.006720986217260361, -0.03146357089281082, 0.03033282607793808, -0.1171615868806839, -0.033393748104572296, -0.058593496680259705, -0.014223253354430199, -0.13497288525104523, -0.003426435636356473, 0.1474369764328003, -0.1256764680147171, -0.00148796068970114, 0.010245808400213718, 0.04259936138987541, 0.030513858422636986, -0.01033852994441986, -0.13333001732826233, -0.16306062042713165, -0.03401118889451027, -0.011650269851088524, -0.010138235986232758, -0.037018220871686935, -0.04308018088340759, 0.04324084520339966, 0.03578577935695648, -0.024629756808280945, -0.03695731982588768, -0.11089925467967987, -0.02472534030675888, 0.033836767077445984, 0.10014607012271881, 0.010296200402081013, 0.004561392590403557, -0.0982166975736618, -0.01991763338446617, 0.08656486868858337, 0.03013993613421917, -0.08677028119564056, -0.11234437674283981, 0.06965778768062592, 0.06096320226788521, -0.08595123887062073, -0.04690971598029137, -0.01173437386751175, -0.09802398830652237, 0.0119326738640666, -0.0031140900682657957, -0.04883991926908493, 0.06155673786997795, 0.03510471433401108, 0.06598096340894699, -0.006287724711000919, 0.005087046884000301, -0.11782623827457428, 0.0347074493765831, -0.013223130255937576, 0.1603877693414688, -0.07400188595056534, -0.024768372997641563, 0.0047315871343016624, 0.02271936647593975, 0.07518897205591202, -0.09436588734388351, 0.027163615450263023, -0.06438525766134262, 0.020428042858839035, 0.009876753203570843, 0.021553298458456993, -0.11682112514972687, -0.04645184800028801], [0.10518434643745422, -0.10059806704521179, -0.4063945412635803, -0.14539885520935059, 0.05215805768966675, -0.21620261669158936, 0.22311757504940033, -0.03893648460507393, -0.047688428312540054, 0.08852031826972961, -0.1437186598777771, -0.085306316614151, 0.22283008694648743, -0.05489731580018997, 0.165972039103508, -0.21081800758838654, 0.16331467032432556, 0.009249665774405003, -0.08217068016529083, 0.118988037109375, 0.200295090675354, -0.11332777142524719, -0.1906241774559021, 0.26393741369247437, -0.09194765985012054, 0.08040288835763931, 0.18851594626903534, -0.1330820620059967, -0.0996365025639534, -0.032570790499448776, -0.16336938738822937, 0.09066887944936752, 0.3542921245098114, 0.005926548037678003, 0.12275607138872147, -0.27942389249801636, 0.13610947132110596, 0.1811095029115677, -0.13124020397663116, 0.14842236042022705, -0.31632545590400696, 0.05892503634095192, 0.3484884202480316, 0.17900234460830688, -0.2944842576980591, -0.20929035544395447, 0.21502652764320374, 0.15068306028842926, -0.07336612790822983, -0.05859246850013733, -0.19785897433757782, 0.09029219299554825, 0.1663341224193573, -0.27558183670043945, 0.08589286357164383, 0.013086877763271332, 0.08058185875415802, 0.044453974813222885, -0.2520793080329895, 0.013402712531387806, 0.13827967643737793, 0.08217038214206696, 0.15853428840637207, 0.1753106713294983, 0.002288748510181904, -0.03935880959033966, -0.06650233268737793, 0.2768028676509857, 0.016720257699489594, -0.04466267302632332, 0.08150502294301987, -0.17910687625408173, -0.4207337498664856, -0.06597229838371277, 0.13702896237373352], [-0.009491324424743652, -0.002159152179956436, -0.023112677037715912, 0.010347304865717888, 0.06710270047187805, 0.015165645629167557, -0.009420749731361866, -0.058950766921043396, -0.05901525914669037, -0.006323088426142931, -0.04118243604898453, -0.047497015446424484, -0.07440058141946793, 0.0017491598846390843, 0.060964372009038925, -0.027789756655693054, 0.026531944051384926, 0.05999014526605606, 0.02207382209599018, 0.05266732722520828, 0.010163511149585247, -0.056955933570861816, -0.03985083848237991, 0.028356710448861122, -0.05274880677461624, 0.012190687470138073, -0.02753276750445366, -0.027999604120850563, 0.03520229086279869, 0.0795682817697525, -0.0065008546225726604, 0.005922569427639246, -0.05800724774599075, 0.06109261140227318, 0.10879438370466232, 0.030000068247318268, 0.027050524950027466, -0.03231607377529144, -0.026821652427315712, -0.016426529735326767, 0.0025061550550162792, -0.01749730296432972, -0.09139218181371689, -0.03841851279139519, 0.01758905127644539, 0.024939507246017456, 0.0009084747871384025, 0.020675554871559143, -0.1550847291946411, -0.11737873405218124, -0.002467008074745536, 0.0058502331376075745, 0.04862712696194649, -0.05652271956205368, -0.03714553639292717, 0.055902834981679916, 0.01744110696017742, 0.08092627674341202, -0.023611512035131454, 0.07299824059009552, 0.005183571018278599, 0.044245798140764236, 0.005786209367215633, -0.03195963427424431, -0.09306256473064423, -0.07564664632081985, 0.02682194858789444, 0.0018551149405539036, -0.044345565140247345, -0.0684375986456871, 0.06951005756855011, 0.020547330379486084, 0.052349213510751724, -0.05892746150493622, 0.018562955781817436], [-0.008664730936288834, -0.038030266761779785, 0.011283209547400475, 0.004782372619956732, -0.054865576326847076, 0.14128641784191132, 0.005156622733920813, 0.020981650799512863, 0.0031853646505624056, -0.06370440125465393, -0.0003063464246224612, 0.07105963677167892, -0.09224752336740494, 0.037401795387268066, -0.03093043342232704, 0.06229826435446739, -0.12217318266630173, -0.01409207470715046, 0.0353567935526371, 0.024508390575647354, 0.0030730292201042175, 0.03673737496137619, 0.05106998607516289, -0.03944101929664612, 0.04387028515338898, -0.08516621589660645, -0.11784783750772476, 0.05487419292330742, 0.061514828354120255, 0.011352800764143467, 0.06115247309207916, -0.056102413684129715, -0.18909531831741333, -0.06766798347234726, -0.059301260858774185, 0.07866961508989334, -0.09871897101402283, -0.052669357508420944, 0.0611107237637043, -0.011431136168539524, 0.06629962474107742, 0.07775730639696121, -0.10017919540405273, -0.07897871732711792, 0.01911945827305317, 0.13078723847866058, -0.054502811282873154, -0.01531706377863884, 0.0869724452495575, 0.03564145788550377, -0.021051954478025436, -0.05786093324422836, -0.13925233483314514, 0.13640791177749634, 0.08736184984445572, -0.02719031646847725, -0.01912052184343338, -0.08525940775871277, 0.077208511531353, 0.0278629120439291, 0.03100401721894741, 0.011793084442615509, -0.11843647807836533, -0.08377014100551605, 0.014550158753991127, 0.05135953798890114, 0.05170057713985443, -0.02745899371802807, -0.01864619366824627, 0.03840525448322296, -0.05332699045538902, -0.010047958232462406, 0.1462429314851761, 0.009867755696177483, -0.07733912765979767], [0.017150677740573883, -0.02478293888270855, -0.007175703067332506, -0.02050529420375824, 0.04599570110440254, -0.024507351219654083, -0.0014635033439844847, -0.06322213262319565, -0.05707278847694397, 0.026362180709838867, -0.06357027590274811, -0.03272838890552521, -0.05691089108586311, 0.04203863441944122, 0.03642852604389191, -0.0230321753770113, 0.04424291476607323, 0.052126288414001465, -0.00028183983522467315, 0.0850505605340004, 0.0008999758283607662, -0.03923190385103226, -0.030961254611611366, -0.010435336269438267, -0.06345316767692566, 0.026008374989032745, 0.015986628830432892, -0.04568107798695564, 0.002903289394453168, 0.05014526844024658, -0.03486712649464607, 0.01686774753034115, -0.030278366059064865, 0.052877262234687805, 0.06328679621219635, 0.05203597992658615, 0.013253302313387394, 0.024982329457998276, -0.0297082606703043, 0.0035145808942615986, 0.02327243983745575, 0.01722039468586445, -0.049189839512109756, -0.04136669263243675, 0.003915772307664156, 0.049615707248449326, -0.04936607927083969, 0.01631024479866028, -0.06220918148756027, -0.005467025097459555, -0.01788332499563694, -0.02364439144730568, 0.016245856881141663, -0.030806120485067368, 0.02028552070260048, 0.043911900371313095, 0.03891991078853607, 0.07559375464916229, -0.0059979017823934555, 0.05303294584155083, 0.0258464515209198, 0.042953114956617355, -0.042057737708091736, -0.00915789045393467, -0.060306329280138016, -0.07515433430671692, 0.02951071970164776, -0.013819675892591476, -0.0548311211168766, -0.050349824130535126, 0.09201997518539429, 0.011188709177076817, 0.021838057786226273, -0.0628732368350029, -0.037450842559337616], [0.03254693001508713, -0.021905293688178062, 0.006803288124501705, -0.021251719444990158, 0.02521592378616333, -0.039748482406139374, 0.009135095402598381, -0.02887818031013012, -0.017925335094332695, 0.037347279489040375, -0.02813584730029106, -0.02351500652730465, -0.009723735973238945, 0.018060803413391113, -0.02538062259554863, 0.028974752873182297, 0.04638650268316269, 0.022570176050066948, -0.020922789350152016, 0.03721602261066437, -0.019776104018092155, 0.01902025192975998, 0.030799997970461845, -0.03847343847155571, -0.06016359105706215, 0.05105751380324364, 0.02806168608367443, -0.03641080856323242, -0.024732880294322968, 0.00947522185742855, -0.03264250606298447, 0.04192664101719856, -0.0010171147296205163, 0.03587506711483002, 0.05520456284284592, 0.007765641901642084, 0.039180900901556015, 0.012155303731560707, -0.008915605954825878, 0.009924518875777721, -0.010549593716859818, -0.010339862667024136, -0.004513667896389961, -5.272664930089377e-05, -0.01671767234802246, 0.013180780224502087, -0.009394765831530094, 0.03294031322002411, -0.060462478548288345, 0.010198859497904778, -0.01883273385465145, -0.006526491139084101, 0.04220086708664894, -0.06286416202783585, 0.046320997178554535, 0.025978021323680878, 0.034657903015613556, 0.04302167519927025, 0.09665130823850632, 0.02107885666191578, 0.0036373790353536606, -0.0022112743463367224, -0.0017423556419089437, 0.002323942491784692, -0.03706938773393631, -0.04689553380012512, -0.007859964855015278, 0.01453616376966238, -0.019252972677350044, -0.012136423029005527, 0.05108610913157463, 0.020354732871055603, 0.018491573631763458, -0.015206498093903065, -0.0061023724265396595], [0.007770000025629997, 0.01002691499888897, 0.0046040695160627365, 0.010556281544268131, 0.039200298488140106, -0.015562834218144417, -0.011131703853607178, -0.04633244127035141, -0.06571967154741287, -0.0058782659471035, -0.02911287359893322, -0.005784174427390099, -0.05610962584614754, 0.009247544221580029, 0.0852167159318924, -0.07935575395822525, 0.009539608843624592, 0.031303610652685165, 0.014342742040753365, 0.040270209312438965, 0.00927822943776846, -0.0748496800661087, -0.08236279338598251, 0.00788506306707859, 0.008962181396782398, 0.01615745574235916, -0.003198102815076709, 0.014657067134976387, 0.02313818782567978, 0.021886924281716347, -0.007808006834238768, 0.0042571560479700565, -0.00944790430366993, 0.008542770519852638, -0.010308519005775452, 0.04010353237390518, 0.018571997061371803, -0.005676058121025562, -0.05730266869068146, 0.018714070320129395, 0.029854753986001015, 0.01805873215198517, -0.04777200520038605, -0.03981670364737511, 0.04296250268816948, 0.040243010967969894, -0.042330194264650345, -0.018671851605176926, 0.007885350845754147, -0.03295439854264259, -0.003166350768879056, -0.0014880670933052897, 0.00928514078259468, -0.032919224351644516, -0.01976955309510231, 0.040891509503126144, 0.01889553852379322, 0.04246062785387039, -0.056112006306648254, 0.05197183042764664, 0.00316953775472939, 0.0812075212597847, -0.029759982600808144, 0.0014332850696519017, -0.05116754397749901, -0.029328012838959694, 0.0285017192363739, -0.026665061712265015, -0.024594636633992195, -0.058061886578798294, 0.046759624034166336, 0.013291938230395317, -0.020461048930883408, -0.05708559602499008, -0.019612278789281845], [0.00014677127182949334, -0.01844680868089199, -0.013647105544805527, -0.010631250217556953, -0.04507053270936012, 0.07228056341409683, 0.0011349281994625926, 0.025476831942796707, -0.00139619130641222, -0.012559939175844193, 0.004095090087503195, 0.04157944396138191, -0.0640932023525238, 0.03115108422935009, -0.01515491958707571, 0.02038135752081871, -0.06120506301522255, 0.007784333545714617, 0.02516273967921734, 0.01825113780796528, 0.021907798945903778, 0.02129257656633854, 0.025021178647875786, -0.01571214571595192, 0.0789373442530632, -0.07690197974443436, -0.05737796425819397, 0.07833892107009888, 0.03634808957576752, 0.005669767037034035, 0.04778491333127022, -0.06831863522529602, -0.07719974964857101, -0.10853876918554306, -0.09371994435787201, 0.06742139160633087, -0.0848543718457222, 0.033178817480802536, 0.032618001103401184, -0.017709454521536827, 0.0451168455183506, 0.05036354809999466, -0.07884710282087326, -0.047762125730514526, 0.020552294328808784, 0.06683576852083206, -0.03318082168698311, -0.0012918941210955381, 0.09884930402040482, -0.009932287037372589, -0.017259925603866577, -0.03571837767958641, -0.06887360662221909, 0.07645934075117111, 0.029522651806473732, -0.017011018469929695, -0.002453623805195093, -0.02881379798054695, 0.01568204164505005, 0.02062002383172512, 0.028695883229374886, 0.001309458864852786, -0.06400948017835617, -0.05839706212282181, -0.007723208516836166, 0.023290127515792847, 0.03403794765472412, 0.022294489666819572, -0.03707333281636238, -0.006037510000169277, 0.0047556497156620026, -0.01328098401427269, 0.07585462182760239, -0.008502659387886524, -0.041050709784030914], [-0.011515481397509575, -0.02446676418185234, 0.08591417223215103, 0.01346336118876934, -0.06140192225575447, 0.11842769384384155, -0.037017934024333954, 0.016300693154335022, 0.01866529881954193, -0.06414449959993362, 0.054365139454603195, 0.023960329592227936, -0.13528038561344147, 0.038447607308626175, -0.0503569021821022, 0.07446558028459549, -0.07825543731451035, -0.024562571197748184, 0.038259249180555344, 0.01949203945696354, -0.06535807996988297, 0.03845306485891342, 0.020183749496936798, -0.04303726553916931, 0.14204715192317963, -0.11205042153596878, -0.11607694625854492, 0.1346040964126587, 0.07472885400056839, 0.05385642871260643, 0.10840689390897751, -0.05292457342147827, -0.17372146248817444, -0.12098710238933563, -0.14130167663097382, 0.09195083379745483, -0.08636694401502609, -0.031206822022795677, 0.04522838443517685, -0.03740840032696724, 0.11206861585378647, 0.02398102730512619, -0.08048554509878159, -0.11421307921409607, 0.08261105418205261, 0.14055609703063965, -0.13791261613368988, -0.0486183725297451, 0.0907597690820694, -0.024526752531528473, 0.01722385361790657, -0.06988298147916794, -0.11419469863176346, 0.15123434364795685, 0.019497832283377647, 0.004107479006052017, -0.05296647548675537, -0.03582713380455971, 0.08808247745037079, 0.052539560943841934, 0.011343886144459248, 0.009689689613878727, -0.09866811335086823, -0.13593019545078278, 0.03582184761762619, 0.06643696874380112, 0.0812583938241005, -0.07936233282089233, -0.016706131398677826, 0.06719276309013367, -0.07816241681575775, 0.05271776020526886, 0.1550104171037674, -0.0006124809151515365, -0.11529266089200974], [0.002964549232274294, 0.0386306494474411, 0.0510835163295269, 0.007963879033923149, -0.04656035080552101, 0.0832587480545044, -0.03221719712018967, 0.07731710374355316, 0.03250845894217491, -0.025441201403737068, 0.0330849327147007, 0.04547755420207977, -0.04611411690711975, -0.007356628309935331, -0.022489452734589577, -0.0004215572262182832, -0.08046994358301163, 0.0021535849664360285, 0.019375184550881386, -0.05530129745602608, -0.04775366559624672, 0.02943282388150692, 0.01750318333506584, 0.009138956665992737, 0.07821524888277054, -0.1209757998585701, -0.05026160180568695, 0.10730109363794327, 0.01693219318985939, -0.020578421652317047, 0.07255080342292786, -0.060916487127542496, -0.03334047272801399, -0.13351356983184814, -0.10353569686412811, 0.024288393557071686, -0.07461320608854294, 0.018853677436709404, 0.036993999034166336, -0.004967129789292812, 0.03242217376828194, -0.002951927250251174, 0.005549830850213766, -0.048313286155462265, 0.06619185954332352, 0.047808680683374405, -0.07099061459302902, -0.06425513327121735, 0.13706836104393005, -0.017976759001612663, 0.028133638203144073, -0.012396831065416336, -0.10080091655254364, 0.09099101275205612, -0.029612980782985687, -0.037496183067560196, -0.01673457771539688, -0.06638557463884354, -0.04066053405404091, -0.01433495245873928, -0.029986592009663582, -0.02550816535949707, 0.009228476323187351, -0.033329397439956665, 0.031822629272937775, 0.08769100159406662, 0.034713152796030045, -0.03782939910888672, -0.007855227217078209, 0.017475267872214317, -0.012775802053511143, 0.03235315904021263, 0.03602008894085884, 0.04110375791788101, -0.02224739082157612], [0.0044491770677268505, -0.0736469030380249, -0.050055135041475296, -0.03201863169670105, -0.04009723663330078, 0.11507668346166611, 0.04036955535411835, 0.056430649012327194, -0.0075736804865300655, -0.0002985468599945307, -0.02365168370306492, 0.0473221056163311, -0.05063950642943382, 0.06956762820482254, -0.0498114712536335, 0.08891592174768448, -0.08635450899600983, 0.013818985782563686, 0.008527462370693684, 0.059191495180130005, 0.039598457515239716, 0.04491179436445236, 0.044066619127988815, -0.004631625488400459, 0.09410221129655838, -0.10484205186367035, -0.08104203641414642, 0.1551458239555359, 0.03836415708065033, 0.00823760125786066, 0.03414938226342201, -0.044699300080537796, -0.1354440152645111, -0.07630302011966705, -0.13261276483535767, 0.04206852614879608, -0.11491365730762482, 0.015299866907298565, 0.054874222725629807, 0.0148333590477705, 0.028143564239144325, 0.0627427026629448, -0.045375317335128784, -0.0512782521545887, -0.016986699774861336, 0.08678614348173141, -0.017149602994322777, -0.000901456514839083, 0.08697148412466049, 0.09982255846261978, -0.04139459505677223, -0.06749182194471359, -0.11644662916660309, 0.14021973311901093, 0.09279020875692368, -0.013850117102265358, -0.016070351004600525, -0.09979993104934692, 0.13212575018405914, 0.020407212898135185, 0.05605073645710945, 0.021106980741024017, -0.09760982543230057, -0.08036840707063675, -0.008966591209173203, 0.06099812313914299, 0.03022855706512928, 0.034863777458667755, -0.04296853765845299, 0.00755164073780179, -0.024758916348218918, -0.04104042425751686, 0.1160619854927063, -0.022692235186696053, -0.05570106953382492], [-0.02096256986260414, -0.04158264771103859, 0.08205882459878922, 0.023684822022914886, -0.09530694782733917, 0.13495022058486938, -0.02127298340201378, 0.10438181459903717, -0.0007229528855532408, -0.07593899965286255, 0.01648462750017643, 0.06584901362657547, -0.10890991240739822, 0.03711303696036339, -0.00924705807119608, 0.05239040032029152, -0.03331160917878151, -0.03735455125570297, 0.048186350613832474, -0.03725473955273628, -0.028181929141283035, 0.017675574868917465, 0.04044349864125252, -0.0826629176735878, 0.03289313614368439, -0.1203770861029625, -0.013091380707919598, 0.027813756838440895, 0.04969809576869011, 0.010571125894784927, 0.0405900813639164, -0.07280995696783066, -0.17338217794895172, -0.10677696764469147, -0.08163300156593323, 0.1024288535118103, -0.08409823477268219, -0.03705577924847603, 0.08817094564437866, -0.037917379289865494, 0.09064620733261108, 0.02177712507545948, -0.13045012950897217, -0.08856482803821564, 0.05060881748795509, 0.09095942974090576, -0.10539969801902771, -0.05484224483370781, 0.028656672686338425, 0.0162010807543993, -0.005502916406840086, -0.06683847308158875, -0.06503605842590332, 0.14910350739955902, 0.04418569803237915, -0.061616186052560806, -0.046078871935606, -0.04387662187218666, 0.03915464133024216, 0.007263996172696352, -0.004162452183663845, 0.018636902794241905, -0.12216785550117493, -0.12067591398954391, 0.029721233993768692, 0.03183326870203018, 0.054162416607141495, -0.06038710102438927, 0.006003167945891619, 0.08104271441698074, -0.02169608324766159, 0.005432736594229937, 0.11588481068611145, 0.03974953666329384, -0.07100599259138107], [-0.004061535466462374, -0.02482723258435726, 0.04130332171916962, 0.006014405284076929, -0.05598137155175209, 0.17374277114868164, -0.003418463747948408, 0.050911758095026016, 0.04299105331301689, -0.05959724262356758, 0.06103810667991638, 0.07543757557868958, -0.11423083394765854, 0.04888871684670448, -0.05320463329553604, 0.07330182939767838, -0.11672161519527435, -0.043918345123529434, 0.02993430756032467, -0.04418366402387619, -0.05721557140350342, 0.08783230185508728, 0.07324331253767014, -0.07038462162017822, 0.12049604952335358, -0.13293562829494476, -0.13644318282604218, 0.11193909496068954, 0.03301527723670006, 0.004942979197949171, 0.11465419828891754, -0.09507742524147034, -0.16234637796878815, -0.13108669221401215, -0.1358155757188797, 0.08667611330747604, -0.15416719019412994, -0.0029802657663822174, 0.06264530122280121, -0.0472944937646389, 0.09711669385433197, 0.005597796756774187, -0.06860122829675674, -0.0909774973988533, 0.04105003923177719, 0.13853012025356293, -0.10655185580253601, -0.019081510603427887, 0.1169133335351944, -0.03370349109172821, -0.004989757668226957, -0.06676353514194489, -0.1599048674106598, 0.1479802131652832, -0.023898238316178322, -0.061164505779743195, -0.03276515007019043, -0.051671504974365234, 0.05830812081694603, 0.08470069617033005, 0.016451645642518997, -0.006885158363729715, -0.0919787585735321, -0.12234651297330856, 0.037323467433452606, 0.06193656101822853, 0.07018960267305374, -0.0591287687420845, -0.007964972406625748, 0.06097982078790665, -0.05035894364118576, 0.04695480689406395, 0.17889676988124847, 0.04191738739609718, -0.11665014922618866], [-0.011729728430509567, -0.03438707813620567, 0.023882141336798668, 0.002843475667759776, -0.05029458925127983, 0.10821068286895752, -0.0011381130898371339, 0.005043077282607555, 0.03766447305679321, -0.02439994178712368, 0.001308547449298203, 0.045404382050037384, -0.08961064368486404, -0.0016818478470668197, -0.057844631373882294, 0.06905651837587357, -0.05098361894488335, -0.039191216230392456, 0.03565085679292679, -0.012002685107290745, 0.01911316066980362, 0.060723740607500076, 0.04667399078607559, -0.013406099751591682, 0.004345632158219814, -0.04174270108342171, -0.11178448796272278, 0.034253206104040146, 0.05156978592276573, 0.03403163701295853, 0.06293459236621857, -0.05049130693078041, -0.13947580754756927, -0.024238402023911476, -0.06778489053249359, 0.08571645617485046, -0.043247055262327194, -0.01842748001217842, 0.06747326999902725, -0.03163444995880127, 0.08711248636245728, 0.03481559082865715, -0.09195275604724884, -0.06755663454532623, 0.0213029682636261, 0.08533861488103867, -0.0488002710044384, -0.005293881054967642, 0.036577705293893814, 0.031503211706876755, -0.012006234377622604, -0.04495750367641449, -0.0725879892706871, 0.06755031645298004, 0.04978352040052414, -0.03097446635365486, -0.009678195230662823, 0.009011019952595234, 0.08397519588470459, -0.03556433692574501, 0.02599930390715599, -0.051427654922008514, -0.11174812912940979, -0.0879620686173439, 0.025091979652643204, 0.06429877132177353, 0.04367401823401451, -0.021823788061738014, 0.008174394257366657, 0.01592036336660385, -0.08342065662145615, -0.01579427160322666, 0.10878579318523407, -0.0019286815077066422, -0.035100456327199936], [-0.007163234520703554, -0.0467146635055542, 0.034177590161561966, 0.005158623214811087, -0.07871352136135101, 0.16480039060115814, 0.005718284286558628, 0.04779042303562164, 0.0035007758997380733, -0.06407332420349121, 0.05063047632575035, 0.05024091899394989, -0.082974374294281, 0.06707475334405899, -0.05398247390985489, 0.07263405621051788, -0.11639467626810074, -0.059697091579437256, 0.03225461393594742, -0.022558504715561867, -0.02740057185292244, 0.08676055818796158, 0.07915610074996948, -0.052616722881793976, 0.08276266604661942, -0.08713030070066452, -0.13512729108333588, 0.13200612366199493, 0.03154124692082405, 0.023897580802440643, 0.1101134642958641, -0.09554124623537064, -0.1532701998949051, -0.06608521193265915, -0.11381880939006805, 0.0887255072593689, -0.1473042070865631, -0.023915503174066544, 0.06251729279756546, -0.059506673365831375, 0.10478664934635162, 0.0062704612500965595, -0.0727151557803154, -0.07940331101417542, 0.013122896663844585, 0.12861368060112, -0.11861775070428848, -0.0026935443747788668, 0.09544571489095688, 0.009645484387874603, -0.011823300272226334, -0.08079804480075836, -0.15391090512275696, 0.1562042236328125, -0.006003343500196934, -0.02318640984594822, -0.05447593331336975, -0.07960617542266846, 0.056091949343681335, 0.05225462093949318, 0.04094615951180458, 0.006098631303757429, -0.12616463005542755, -0.0929965078830719, 0.007493786979466677, 0.09286198765039444, 0.05444074049592018, -0.024608636274933815, -0.022299131378531456, -0.0013951507862657309, -0.062055714428424835, 0.020663434639573097, 0.12085865437984467, 0.008593196980655193, -0.11224263161420822], [-0.00011294338037259877, -0.026373378932476044, -0.0005958276451565325, -0.01431302074342966, -0.03788911923766136, 0.09693489223718643, -0.0009508192888461053, 0.006906057242304087, 0.003656451590359211, -0.010980885475873947, 0.012249392457306385, 0.04820974916219711, -0.061712972819805145, 0.03064129501581192, -0.02997523732483387, 0.03155820071697235, -0.08914291858673096, -0.003249554196372628, 0.017854444682598114, 0.011475390754640102, 0.010911616496741772, 0.010103185661137104, 0.01623801700770855, -0.05122922733426094, 0.06953614205121994, -0.0929265171289444, -0.12891671061515808, 0.12098987400531769, 0.018659574910998344, 0.010859020985662937, 0.06190218776464462, -0.05329319089651108, -0.08566939830780029, -0.09872560203075409, -0.11869025975465775, 0.06103866174817085, -0.08741672337055206, 0.030252238735556602, 0.017857644706964493, -0.022074226289987564, 0.056442372500896454, 0.025839269161224365, -0.056833311915397644, -0.04550914838910103, 0.025689110159873962, 0.061073705554008484, -0.046796929091215134, -0.001797127421014011, 0.12971581518650055, 0.002113495720550418, -0.012353450991213322, -0.04195939004421234, -0.08718262612819672, 0.11088243871927261, 0.031359389424324036, -0.02988026663661003, -0.006363378372043371, -0.06235763430595398, 0.05169951915740967, 0.02188822440803051, 0.031091919168829918, 0.013779010623693466, -0.06529290974140167, -0.06292992830276489, 0.006511680781841278, 0.042605847120285034, 0.03006758913397789, 0.0002139681309927255, -0.025776825845241547, 0.0029397967737168074, -0.06992824375629425, -0.003716995706781745, 0.07897929102182388, -0.005887953098863363, -0.04767516255378723], [-0.01665986329317093, 0.050985172390937805, -0.04344668239355087, 0.06260578334331512, 0.11949477344751358, -0.025332601740956306, -0.0260313693434, -0.04268370196223259, -0.07897823303937912, -0.026416219770908356, -0.061767686158418655, -0.08974817395210266, -0.030115704983472824, -0.047177039086818695, 0.1223563551902771, -0.0845576599240303, 0.07040953636169434, 0.06925491988658905, 0.0242000799626112, 0.08352752774953842, 0.01985301822423935, -0.10284588485956192, -0.07169400900602341, 0.04353725537657738, -0.09211777150630951, 0.045823387801647186, -0.007788710296154022, -0.08222131431102753, 0.06072578206658363, 0.1065337136387825, -0.01334415003657341, 0.027448980137705803, 0.022811871021986008, 0.13950225710868835, 0.164659321308136, -0.012491656467318535, 0.07498269528150558, -0.10507283359766006, -0.0450010672211647, 0.02266598865389824, -0.03198879957199097, -0.02284390665590763, -0.10671539604663849, -0.015522596426308155, 0.03523461893200874, -0.024134498089551926, 0.01851099170744419, -0.012053769081830978, -0.2251102775335312, -0.17598135769367218, -0.005602779798209667, 0.05363020300865173, 0.13331714272499084, -0.14608363807201385, -0.09031274169683456, 0.07218816131353378, 0.01670830510556698, 0.12295985966920853, -0.1276853084564209, 0.07876308262348175, -0.021062325686216354, 0.050644710659980774, 0.07162918150424957, -0.012269487604498863, -0.13532519340515137, -0.09640072286128998, -0.006824730429798365, -0.01164461113512516, -0.027751702815294266, -0.10643460601568222, 0.12689374387264252, 0.04125369340181351, -0.012207264080643654, -0.05329427123069763, 0.0609503872692585], [0.01123860664665699, -0.11201715469360352, -0.07947157323360443, -0.03647570312023163, -0.021067259833216667, 0.035888124257326126, 0.060115132480859756, -0.0311909057199955, -0.037019405514001846, -0.00586750777438283, -0.03754550963640213, 0.008126266300678253, -0.04051187261939049, 0.06512142717838287, 0.018520032986998558, -0.015526988543570042, -0.022873207926750183, 0.028971247375011444, 0.01754424162209034, 0.0937906950712204, 0.06486276537179947, -0.014173311181366444, -0.013283727690577507, 0.005727505777031183, -0.01426749024540186, -0.03491533175110817, -0.006171276792883873, 0.0011677450966089964, 0.015521605499088764, 0.04606860503554344, 0.012165511026978493, -0.043982475996017456, -0.09739203006029129, 5.194052209844813e-05, -0.014088400639593601, 0.054481424391269684, -0.050990767776966095, 0.03898240253329277, -0.010995335876941681, 0.004060468636453152, -0.010953647084534168, 0.11781315505504608, -0.08774804323911667, -0.00764856580644846, -0.05265422537922859, 0.07244261354207993, -0.01865990459918976, 0.09712772816419601, 0.035140570253133774, 0.010751503519713879, -0.06632214039564133, -0.043720390647649765, -0.028769107535481453, 0.027466772124171257, 0.1388847529888153, 0.011538656428456306, 0.027020826935768127, 0.040512558072805405, -0.013425388373434544, 0.06655899435281754, 0.08261869847774506, 0.03170150890946388, -0.09640554338693619, -0.04710331931710243, -0.057969290763139725, -0.028094274923205376, 0.028509054332971573, 0.09247677028179169, -0.06973892450332642, -0.042578183114528656, 0.07564902305603027, -0.048725783824920654, 0.08230888843536377, -0.04688413441181183, -0.030469687655568123], [0.013934572227299213, 0.004650823771953583, 0.01536203920841217, -0.0045860237441957, -0.044071685522794724, 0.07744594663381577, -0.008262133225798607, 0.09158120304346085, 0.01736709102988243, -0.024153951555490494, 0.021431883797049522, 0.04115694761276245, -0.0541892945766449, 0.0009863391751423478, -0.021569760516285896, 0.017975501716136932, -0.07614046335220337, -0.007170942146331072, 0.007805729750543833, -0.03461780399084091, -0.0011896728537976742, 0.025412460789084435, 0.02601955644786358, 0.0009494892437942326, 0.13026314973831177, -0.09183845669031143, -0.07378152012825012, 0.1274939924478531, 0.014414370991289616, -0.013698482885956764, 0.06431608647108078, -0.05974137410521507, -0.051103293895721436, -0.09621025621891022, -0.13883404433727264, 0.03160762041807175, -0.07662602514028549, 0.01796351931989193, 0.03303764760494232, 0.0020641509909182787, 0.02721516229212284, 0.030027279630303383, -0.008012384176254272, -0.03924105688929558, 0.03795234113931656, 0.04341510310769081, -0.04485822468996048, -0.023062320426106453, 0.12411940097808838, -0.002340066246688366, -0.005256142932921648, -0.015515091829001904, -0.06375208497047424, 0.05662662163376808, 0.00960296019911766, -0.028905659914016724, -0.004060453735291958, -0.06669886410236359, -0.011751341633498669, 0.0016442117048427463, 0.0017065147403627634, -0.01560332253575325, -0.018914753571152687, -0.046858370304107666, 0.012627333402633667, 0.07296586781740189, 0.026842856779694557, -0.012155401520431042, -0.00935487449169159, 0.013297206722199917, -0.03417687118053436, 0.006028867792338133, 0.061398979276418686, 0.025232365354895592, -0.03882753476500511], [0.002875974867492914, -0.05009130761027336, -0.029564229771494865, -0.023591872304677963, 0.0023582421708852053, 0.01381510030478239, 0.016318682581186295, -0.03675191476941109, -0.026746360585093498, 0.008736662566661835, -0.029002720490098, -0.0003574879374355078, -0.02180272713303566, 0.03737955912947655, 0.00036796281347051263, 0.012973912060260773, 0.0024778484366834164, 0.01058444008231163, 0.006195148918777704, 0.0364646390080452, 0.010856647044420242, -0.006578408181667328, -0.002373147988691926, -0.01115584559738636, -0.025184735655784607, -0.01596304215490818, -0.01984170451760292, 0.005373919382691383, -0.001114348415285349, 0.02364540845155716, -0.010133646428585052, -0.007140007335692644, -0.03802862763404846, -0.02898566611111164, 0.013795806095004082, 0.0358341746032238, -0.017816893756389618, 0.015873100608587265, -0.011824074201285839, -0.02371792495250702, 0.01162401307374239, 0.020723840221762657, -0.04010133817791939, -0.014414142817258835, -0.023828808218240738, 0.0421634241938591, -0.010611655190587044, 0.03571059927344322, 0.0003062415635213256, 0.016526484861969948, -0.01835211180150509, -0.03122802823781967, -0.016939522698521614, 0.02400759421288967, 0.03711879625916481, 0.020144682377576828, 0.020470166578888893, 0.018494749441742897, 0.029973696917295456, 0.02657974883913994, 0.036315154284238815, 0.031759150326251984, -0.059247277677059174, -0.015584008768200874, -0.016396155580878258, -0.025553880259394646, 0.018150532618165016, 0.029559610411524773, -0.02760647051036358, -0.01967935636639595, 0.004064052831381559, -0.02061445266008377, 0.025776084512472153, -0.0383182056248188, -0.030132349580526352], [0.026615066453814507, 0.015543734654784203, 0.024779275059700012, -0.01984376460313797, 0.026897979900240898, -0.0699547603726387, -0.007352145854383707, -0.04971778020262718, -0.024352407082915306, 0.037329982966184616, -0.050810668617486954, -0.03275340050458908, -0.04585323855280876, 0.025543242692947388, 0.022257784381508827, -0.021667378023266792, 0.0505799800157547, 0.05099765583872795, -0.006742252502590418, 0.05599431321024895, -0.00766909820958972, -0.029541131108999252, -0.02123837359249592, 0.003375604283064604, -0.06277496367692947, 0.04783492907881737, 0.07123248279094696, -0.11434508860111237, -0.004959459416568279, 0.02397708222270012, -0.0624549500644207, 0.011822417378425598, 0.012965848669409752, 0.1264808624982834, 0.09403356164693832, 0.007914470508694649, 0.06487307697534561, 0.03325766697525978, -0.006603742018342018, 0.03551463410258293, -0.005546553526073694, 0.017709558829665184, 0.008228120394051075, -0.04807515814900398, 0.0233229361474514, 0.025026900693774223, -0.024132193997502327, -0.02103646844625473, -0.08245769888162613, -0.034385647624731064, -0.003025243990123272, -0.013419847004115582, 0.0567939318716526, -0.0843174010515213, -0.0014687188668176532, 0.012350673787295818, 0.03484370931982994, 0.08270972967147827, -0.017744634300470352, 0.016157345846295357, -7.005519728409126e-05, 0.016442837193608284, -0.007467280142009258, 0.020258165895938873, -0.02263827808201313, -0.04458921402692795, 0.026992037892341614, -0.04859760031104088, -0.039525292813777924, -0.024994198232889175, 0.05858200043439865, 0.017831331118941307, -0.026494100689888, -0.029395369812846184, -0.01206542644649744], [0.01658904179930687, -0.010068797506392002, 0.033088792115449905, -0.031015153974294662, 0.007972734048962593, -0.06947936117649078, 0.008932247757911682, -0.07642639428377151, -0.02476506121456623, 0.0357498936355114, -0.035554565489292145, -0.005853535607457161, -0.02071726694703102, 0.04666668921709061, 0.0022066221572458744, 0.015252779237926006, 0.0657905712723732, 0.030994271859526634, -0.0013936860486865044, 0.053810518234968185, -0.0009540807805024087, -0.009825429879128933, 0.0003987917734775692, -0.0046099042519927025, -0.09941922873258591, 0.04131878912448883, 0.12252100557088852, -0.10638731718063354, -0.0027208670508116484, 0.00748083833605051, -0.0498281754553318, 0.02159903571009636, 0.028525713831186295, 0.14916066825389862, 0.08485781401395798, -0.0012074550613760948, 0.025921449065208435, 0.0503370463848114, 0.009678802452981472, 0.01642208732664585, -0.022061806172132492, 0.022384360432624817, 0.003577342489734292, -0.03906239941716194, -0.006505707278847694, 0.026928463950753212, -0.016460837796330452, -0.006072056945413351, -0.06800227612257004, -0.00040618731873109937, -0.0057543073780834675, -0.026540067046880722, 0.02779022417962551, -0.04684789478778839, 0.013639302924275398, 0.014916481450200081, 0.020194992423057556, 0.05657065287232399, 0.03820317983627319, 0.0016363312024623156, 0.009457691572606564, 0.01901983469724655, -0.02108471840620041, 0.012308703735470772, 0.004650425631552935, -0.053374990820884705, 0.023028558120131493, -0.05886838585138321, -0.024892868474125862, 0.00015648797852918506, 0.049842242151498795, -0.009175369516015053, -0.01940857246518135, -0.036069802939891815, -0.029206380248069763], [0.017809493467211723, 0.05953159183263779, 0.06798340380191803, -0.01900053583085537, -0.02961796708405018, 0.12353668361902237, -0.03376869484782219, 0.0173699501901865, 0.00025424433988519013, 0.027162952348589897, -0.014082962647080421, 0.0322345532476902, -0.06577864289283752, 0.04403146728873253, 0.012262493371963501, -0.030587663874030113, -0.11905604600906372, 0.04371589049696922, 0.009670131839811802, 0.02980978600680828, -0.04242701083421707, -0.0019521289505064487, 0.018849661573767662, -0.018314609304070473, 0.061582695692777634, -0.14348609745502472, -0.04484937712550163, 0.1215176060795784, 0.0003621034848038107, 0.013585750013589859, 0.06489737331867218, -0.0671207532286644, -0.1097039133310318, -0.11959772557020187, -0.08499941974878311, 0.00818779319524765, -0.14421294629573822, 0.054091036319732666, 0.06507415324449539, 0.0034611383453011513, 0.04368523135781288, -0.03553139045834541, 0.06195902079343796, -0.05812043324112892, 0.07489882409572601, 0.08018548786640167, -0.06756182014942169, -0.05492054298520088, 0.07602617889642715, -0.016965262591838837, 0.03900999203324318, -0.02085009030997753, -0.08325479924678802, 0.06684937328100204, -0.11389370262622833, -0.02641497179865837, -0.00023898253857623786, -0.07357341051101685, -0.14084957540035248, 0.02922859787940979, -0.020817114040255547, -0.011532453820109367, -0.01110016368329525, -0.07086779177188873, -0.024725433439016342, 0.045942340046167374, 0.04640260338783264, -0.08281420916318893, -0.06921280920505524, -0.04565006121993065, 0.021930107846856117, 0.055426061153411865, 0.11611625552177429, 0.02107776701450348, -0.046263035386800766], [0.004302190151065588, -0.011436441913247108, -0.01582963950932026, -0.004570856690406799, 0.018981268629431725, -0.026295874267816544, 0.007127612363547087, -0.02495209313929081, -0.028999820351600647, 0.007417136803269386, -0.02922983653843403, -0.018196865916252136, -0.012670010328292847, 0.016303543001413345, 0.028262034058570862, -0.025034857913851738, 0.023380329832434654, 0.017229897901415825, 0.0012064375914633274, 0.03350987285375595, 0.013740546070039272, -0.027174348011612892, -0.025853199884295464, -0.005879518110305071, -0.022880204021930695, 0.01846209540963173, 0.03743688389658928, -0.03200623765587807, 0.009170498698949814, 0.023242270573973656, -0.018751511350274086, 0.014208619482815266, 0.00795265194028616, 0.02482890896499157, 0.031462185084819794, 0.011840791441500187, 0.025233641266822815, 0.0029926872812211514, -0.017448248341679573, 0.00897874403744936, -0.003845032537356019, 0.009362422861158848, -0.024133136495947838, -0.013715924695134163, -0.006047411356121302, 0.017594967037439346, -0.007193214260041714, 0.006095586810261011, -0.021541357040405273, -0.0035769979003816843, -0.013404748402535915, -0.0055320123210549355, 0.02404121682047844, -0.030327972024679184, 0.011734423227608204, 0.02325557917356491, 0.013044003397226334, 0.03248956426978111, -0.0170019268989563, 0.02344120480120182, 0.013623611070215702, 0.02512460947036743, -0.008152317255735397, 0.0074052573181688786, -0.027369214221835136, -0.0283807422965765, 0.009320233948528767, 0.0028632294852286577, -0.019089866429567337, -0.024577120319008827, 0.0516679547727108, -0.003619055962190032, -0.006492787040770054, -0.03127879276871681, -0.015807388350367546], [-0.002996213035658002, -0.02404671534895897, -0.02151298336684704, -0.01025526225566864, 8.587246156821493e-06, 0.00556224538013339, 0.01152892131358385, -0.01972620189189911, -0.017409414052963257, 0.0003830949717666954, -0.013928317464888096, -0.0036422000266611576, -0.00742891151458025, 0.025955723598599434, 0.009413273073732853, -0.013633107766509056, -0.0018194356234744191, 0.01115719135850668, 0.010242953896522522, 0.024639785289764404, 0.0076774172484874725, -0.010542290285229683, -0.01249453704804182, -0.008121339604258537, 0.0018356014043092728, -0.0034286200534552336, -0.010594791732728481, 0.0073460801504552364, 0.0077670542523264885, 0.018949026241898537, -0.003940863534808159, -0.003203127533197403, -0.016018597409129143, -0.014732621610164642, -0.010000214911997318, 0.01741586998105049, -0.009108041413128376, 0.00523965060710907, -0.011932211928069592, -0.012317989021539688, 0.014168066903948784, 0.008072277531027794, -0.015047707594931126, -0.006969763431698084, -0.013119311071932316, 0.02894650585949421, -0.002559920074418187, 0.009311198256909847, 0.00619940971955657, -0.002421905053779483, -0.009485091082751751, -0.01938789151608944, -0.005102141760289669, 0.005625639110803604, 0.02160070091485977, 0.011453528888523579, 0.007496689911931753, 0.0053508710116147995, -0.001006032805889845, 0.02263534814119339, 0.020450593903660774, 0.020704304799437523, -0.034307610243558884, -0.008172372356057167, -0.016723595559597015, -0.010368982329964638, 0.011754482053220272, 0.0223054401576519, -0.021739793941378593, -0.016233470290899277, 0.006730141583830118, -0.012137528508901596, 0.01317539718002081, -0.023309161886572838, -0.0231959018856287], [0.006349391769617796, -0.063090980052948, -0.04634792357683182, -0.03300505504012108, -0.0014457239303737879, -0.01090869028121233, 0.03893911466002464, -0.04257892072200775, 