{
    "in_shape": [
        null,
        2
    ],
    "layers": [
        {
            "type": "dense",
            "activation": "relu",
            "shape": [
                null,
                3
            ],
            "weights": [
                [
                    [
                        -0.09732440859079361,
                        0.5564467906951904,
                        0.44465744495391846
                    ],
                    [
                        -0.05522922798991203,
                        -0.2972824275493622,
                        0.17538845539093018
                    ]
                ],
                [
                    -0.7023710012435913,
                    0.254391074180603,
                    0.7340966463088989
                ]
            ]
        },
        {
            "type": "dense",
            "activation": "relu",
            "shape": [
                null,
                5
            ],
            "weights": [
                [
                    [
                        -0.41398346424102783,
                        -0.06587930023670197,
                        0.5278846621513367,
                        0.39098694920539856,
                        0.2470216602087021
                    ],
                    [
                        -0.006568156648427248,
                        -0.5234432816505432,
                        -0.09553325176239014,
                        0.30254673957824707,
                        -0.3457983136177063
                    ],
                    [
                        -0.2360702008008957,
                        -0.45109638571739197,
                        -0.04597530514001846,
                        -0.27449408173561096,
                        -0.2963002324104309
                    ]
                ],
                [
                    -0.3882268965244293,
                    -0.5513963103294373,
                    -0.34490489959716797,
                    0.020816504955291748,
                    -0.08713778108358383
                ]
            ]
        },
        {
            "type": "dense",
            "activation": "relu",
            "shape": [
                null,
                7
            ],
            "weights": [
                [
                    [
                        0.37288615107536316,
                        -0.1778913140296936,
                        -0.1364966183900833,
                        0.0478641651570797,
                        0.4010024666786194,
                        0.15277299284934998,
                        0.23902106285095215
                    ],
                    [
                        7.22377808415331e-05,
                        -0.1701805293560028,
                        -0.12455808371305466,
                        0.026616929098963737,
                        0.1866580992937088,
                        0.03507551923394203,
                        0.23315802216529846
                    ],
                    [
                        -0.04716433957219124,
                        -0.16021811962127686,
                        -0.049951545894145966,
                        -0.4456477165222168,
                        -0.061856385320425034,
                        -0.09267105162143707,
                        0.4029538631439209
                    ],
                    [
                        -0.30737414956092834,
                        0.23187954723834991,
                        -0.019816555082798004,
                        -0.19959327578544617,
                        -0.10336831212043762,
                        -0.0695621594786644,
                        -0.20870795845985413
                    ],
                    [
                        0.3683863878250122,
                        0.0739114060997963,
                        -0.29975542426109314,
                        -0.44165918231010437,
                        -0.039728112518787384,
                        -0.00896377582103014,
                        0.08224039524793625
                    ]
                ],
                [
                    -0.12477975338697433,
                    -0.14907974004745483,
                    -0.3891962170600891,
                    0.5716318488121033,
                    0.6807072758674622,
                    -0.21286511421203613,
                    -0.031288500875234604
                ]
            ]
        },
        {
            "type": "dense",
            "activation": "relu",
            "shape": [
                null,
                9
            ],
            "weights": [
                [
                    [
                        -0.026379989460110664,
                        -0.24762128293514252,
                        0.015653930604457855,
                        -0.10982915014028549,
                        -0.36271932721138,
                        -0.17249758541584015,
                        0.14922557771205902,
                        -0.13957710564136505,
                        -0.19449855387210846
                    ],
                    [
                        0.1120043620467186,
                        -0.02201947569847107,
                        0.24994446337223053,
                        -0.26401904225349426,
                        -0.3265124559402466,
                        0.11162097752094269,
                        -0.24262122809886932,
                        0.32759925723075867,
                        0.006524370983242989
                    ],
                    [
                        0.27838337421417236,
                        -0.3307436406612396,
                        -0.3337688446044922,
                        -0.056767787784338,
                        0.17463882267475128,
                        0.19621314108371735,
                        0.3010338544845581,
                        -0.3745177984237671,
                        -0.16942916810512543
                    ],
                    [
                        0.30644288659095764,
                        0.45205721259117126,
                        0.18469548225402832,
                        0.12554477155208588,
                        0.013739959336817265,
                        -0.076857790350914,
                        0.02174278162419796,
                        -0.3650360703468323,
                        -0.33608195185661316
                    ],
                    [
                        0.6527964472770691,
                        0.7056553959846497,
                        0.23044554889202118,
                        -0.13569766283035278,
                        -0.10874355584383011,
                        -0.22678783535957336,
                        -0.2090328186750412,
                        0.041724469512701035,
                        0.3071763813495636
                    ],
                    [
                        0.034144189208745956,
                        -0.34327009320259094,
                        -0.12100294232368469,
                        -0.34889042377471924,
                        0.07335786521434784,
                        0.03569392114877701,
                        0.2899159789085388,
                        -0.09134015440940857,
                        0.041776418685913086
                    ],
                    [
                        0.04751608148217201,
                        0.012335626408457756,
                        -0.1658436805009842,
                        0.34071600437164307,
                        0.03028745763003826,
                        0.17675650119781494,
                        -0.24949127435684204,
                        0.29661262035369873,
                        -0.36694949865341187
                    ]
                ],
                [
                    0.6012914180755615,
                    0.051081761717796326,
                    -0.30264392495155334,
                    -0.21892666816711426,
                    -0.044787075370550156,
                    0.015133974142372608,
                    -0.17636126279830933,
                    -0.052553169429302216,
                    -0.21202264726161957
                ]
            ]
        },
        {
            "type": "dense",
            "activation": "sigmoid",
            "shape": [
                null,
                10
            ],
            "weights": [
                [
                    [
                        -0.22153186798095703,
                        -0.43968355655670166,
                        0.14849211275577545,
                        -0.6650017499923706,
                        0.0716623067855835,
                        -0.0021726046688854694,
                        0.08971313387155533,
                        0.4934343993663788,
                        0.2211272269487381,
                        0.06281133741140366
                    ],
                    [
                        0.07409244030714035,
                        0.14152319729328156,
                        -0.037869736552238464,
                        -0.3296596109867096,
                        -0.04531455785036087,
                        -0.014917291700839996,
                        -0.01907517947256565,
                        -0.1477571427822113,
                        0.0743325725197792,
                        0.058078352361917496
                    ],
                    [
                        0.3189133405685425,
                        0.25199756026268005,
                        0.15792763233184814,
                        -0.2560195326805115,
                        -0.216378852725029,
                        0.23766474425792694,
                        -0.19698843359947205,
                        -0.16230368614196777,
                        -0.2648234963417053,
                        0.004349510185420513
                    ],
                    [
                        0.31926167011260986,
                        -0.01093502901494503,
                        -0.07697554677724838,
                        -0.08142153918743134,
                        0.16849493980407715,
                        -0.016189098358154297,
                        -0.0826239213347435,
                        0.029352029785513878,
                        -0.175322026014328,
                        -0.26500678062438965
                    ],
                    [
                        0.10461664199829102,
                        -0.04462357610464096,
                        -0.2875881791114807,
                        0.2593652009963989,
                        -0.23372280597686768,
                        0.1081894263625145,
                        0.3276490867137909,
                        0.2072664499282837,
                        0.3136950135231018,
                        -0.12273359298706055
                    ],
                    [
                        0.11029839515686035,
                        -0.045208416879177094,
                        -0.15197710692882538,
                        -0.2945995330810547,
                        0.304795503616333,
                        0.25350746512413025,
                        0.02542754076421261,
                        -0.29849570989608765,
                        0.27628499269485474,
                        -0.27358144521713257
                    ],
                    [
                        -0.26199960708618164,
                        0.19004866480827332,
                        0.20417635142803192,
                        -0.2543174624443054,
                        -0.2770943343639374,
                        0.1942383050918579,
                        0.17687658965587616,
                        -0.07343840599060059,
                        -0.15748322010040283,
                        -0.03885432332754135
                    ],
                    [
                        -0.23978285491466522,
                        0.16165995597839355,
                        0.15651783347129822,
                        -0.22223293781280518,
                        0.06697523593902588,
                        -0.020258545875549316,
                        0.08614957332611084,
                        0.017633557319641113,
                        0.057364266365766525,
                        0.2953988313674927
                    ],
                    [
                        0.164845272898674,
                        -0.31071239709854126,
                        0.15967082977294922,
                        0.15359541773796082,
                        -0.13317501544952393,
                        -0.007216413971036673,
                        -0.048250675201416016,
                        -0.2835152745246887,
                        0.20590993762016296,
                        0.10237757861614227
                    ]
                ],
                [
                    -0.25276628136634827,
                    -0.08473239839076996,
                    0.16924257576465607,
                    -0.12249670922756195,
                    -0.08200431615114212,
                    -0.1793053299188614,
                    0.2080593854188919,
                    0.34822043776512146,
                    0.3696953058242798,
                    -0.20922867953777313
                ]
            ]
        }
    ]
}