{
    "in_shape": [
        null,
        2
    ],
    "layers": [
        {
            "type": "dense",
            "activation": "relu",
            "shape": [
                null,
                20
            ],
            "weights": [
                [
                    [
                        -0.8544142246246338,
                        -0.6126934289932251,
                        0.1938886046409607,
                        0.08183205872774124,
                        0.9226146936416626,
                        -0.3366166651248932,
                        0.7906603813171387,
                        -0.493913859128952,
                        -0.30637326836586,
                        0.9082461595535278,
                        0.04609789326786995,
                        -0.45365822315216064,
                        -0.5052319765090942,
                        -0.4156302213668823,
                        -0.6843356490135193,
                        0.5930566191673279,
                        -0.6317384839057922,
                        0.892670214176178,
                        -0.49231910705566406,
                        -0.4051385223865509
                    ],
                    [
                        0.2070004940032959,
                        0.16916269063949585,
                        0.953092634677887,
                        -0.7114883661270142,
                        -0.15374495089054108,
                        0.042690373957157135,
                        0.03034963086247444,
                        0.06483829021453857,
                        -0.1545380800962448,
                        1.0157462358474731,
                        0.7245602011680603,
                        -0.17794205248355865,
                        0.8848365545272827,
                        -0.27982833981513977,
                        0.3088771402835846,
                        0.20534482598304749,
                        0.8364217877388,
                        0.09141411632299423,
                        -0.5674468874931335,
                        0.39259958267211914
                    ]
                ],
                [
                    0.6802240610122681,
                    0.8804941773414612,
                    -0.16077527403831482,
                    0.6322607398033142,
                    0.4954957664012909,
                    -0.1505923718214035,
                    0.5866857767105103,
                    -0.43444758653640747,
                    -0.13236908614635468,
                    -0.28726544976234436,
                    -0.007863094098865986,
                    -0.3074668049812317,
                    -0.16079023480415344,
                    -0.17545917630195618,
                    -0.6197057366371155,
                    0.2401479035615921,
                    0.18539448082447052,
                    -0.004436911549419165,
                    -0.008326479233801365,
                    -0.6837863326072693
                ]
            ]
        },
        {
            "type": "dense",
            "activation": "relu",
            "shape": [
                null,
                20
            ],
            "weights": [
                [
                    [
                        0.07602130621671677,
                        0.40466585755348206,
                        0.5950648784637451,
                        -0.007944556884467602,
                        0.636833906173706,
                        -0.058043427765369415,
                        0.01704195886850357,
                        0.46103987097740173,
                        -0.06590238958597183,
                        -0.44235795736312866,
                        -0.019293349236249924,
                        -0.29689061641693115,
                        -0.4509524405002594,
                        -0.17214688658714294,
                        0.3111008405685425,
                        -0.1384052038192749,
                        0.09296569228172302,
                        0.06898316740989685,
                        0.2815585434436798,
                        0.04256993904709816
                    ],
                    [
                        -0.16878701746463776,
                        0.33861321210861206,
                        0.26022154092788696,
                        0.0423998199403286,
                        0.33622685074806213,
                        0.19117751717567444,
                        0.14901691675186157,
                        0.333499550819397,
                        -0.19983936846256256,
                        -0.30514198541641235,
                        -0.22910282015800476,
                        -0.08482176065444946,
                        -0.30723509192466736,
                        0.04371616989374161,
                        0.18618711829185486,
                        -0.4480237364768982,
                        0.4166080355644226,
                        0.5210124850273132,
                        0.2045396864414215,
                        0.09461042284965515
                    ],
                    [
                        -0.046938564628362656,
                        0.3385328948497772,
                        -0.32039016485214233,
                        0.1613815873861313,
                        0.3790712058544159,
                        0.08411097526550293,
                        -0.13016852736473083,
                        0.04689416661858559,
                        0.16618801653385162,
                        0.0068840160965919495,
                        0.41312187910079956,
                        -0.02990688569843769,
                        0.24597404897212982,
                        -0.1452694535255432,
                        0.029748348519206047,
                        -0.4152834117412567,
                        0.1367865800857544,
                        0.2096417099237442,
                        -0.4011784791946411,
                        0.14018911123275757
                    ],
                    [
                        -0.13885508477687836,
                        -0.13300341367721558,
                        0.5242313742637634,
                        -0.05244269222021103,
                        -0.44542500376701355,
                        -0.0866563618183136,
                        -0.1554941087961197,
                        0.21895596385002136,
                        0.05508525297045708,
                        0.06252080947160721,
                        -0.3796852231025696,
                        -0.2587805688381195,
                        0.19120866060256958,
                        -0.06761199980974197,
                        -0.01966398023068905,
                        0.3086952567100525,
                        0.16575004160404205,
                        -0.13878174126148224,
                        0.4250301420688629,
                        -0.20334357023239136
                    ],
                    [
                        0.07869535684585571,
                        -0.12274737656116486,
                        -0.0029068710282444954,
                        -0.1317642480134964,
                        -0.15882351994514465,
                        -0.21124669909477234,
                        -0.19627617299556732,
                        -0.1494579315185547,
                        -0.10717743635177612,
                        0.3148568272590637,
                        0.36268675327301025,
                        -0.10110006481409073,
                        0.17890265583992004,
                        0.09009210765361786,
                        -0.1737639307975769,
                        0.4857364594936371,
                        -0.14611098170280457,
                        -0.20291665196418762,
                        0.04750455915927887,
                        -0.15498103201389313
                    ],
                    [
                        0.1159931868314743,
                        0.07511705160140991,
                        0.13272598385810852,
                        0.005516993813216686,
                        -0.014019967056810856,
                        -0.13171295821666718,
                        -0.10789363086223602,
                        -0.1756839007139206,
                        -0.12681251764297485,
                        -0.17788779735565186,
                        0.03442580625414848,
                        0.02061266452074051,
                        0.12202536314725876,
                        0.10579598695039749,
                        0.22013279795646667,
                        0.12256679683923721,
                        -0.08253555744886398,
                        -0.04471875727176666,
                        -0.07731705158948898,
                        0.1593753546476364
                    ],
                    [
                        -0.21824237704277039,
                        0.11197861284017563,
                        0.004203469026833773,
                        -0.04989006370306015,
                        -0.23496867716312408,
                        -0.1915164291858673,
                        -0.2046482414007187,
                        -0.058518290519714355,
                        -0.05898036062717438,
                        0.2893037796020508,
                        0.33657798171043396,
                        0.27836599946022034,
                        0.4237002432346344,
                        -0.14526481926441193,
                        -0.25487691164016724,
                        0.5882631540298462,
                        0.014773144386708736,
                        -0.11167510598897934,
                        0.2873916029930115,
                        0.10919114202260971
                    ],
                    [
                        0.19209925830364227,
                        -0.181745246052742,
                        0.17780649662017822,
                        -0.21267041563987732,
                        -0.2118680775165558,
                        -0.09374973922967911,
                        0.11850277334451675,
                        0.17103177309036255,
                        -0.10865446925163269,
                        0.19103440642356873,
                        -0.12423738837242126,
                        0.02829679101705551,
                        0.16786234080791473,
                        0.19477371871471405,
                        0.15569491684436798,
                        0.16291368007659912,
                        0.2130928635597229,
                        -0.029739947989583015,
                        0.20867009460926056,
                        -0.10081056505441666
                    ],
                    [
                        -0.1831526756286621,
                        0.21448051929473877,
                        -0.059756770730018616,
                        0.13910989463329315,
                        -0.11941710114479065,
                        -0.16457760334014893,
                        -0.040029965341091156,
                        -0.16982761025428772,
                        -0.1922941952943802,
                        0.06733501702547073,
                        0.12414830178022385,
                        -0.2184058576822281,
                        -0.17742682993412018,
                        -0.1281207948923111,
                        0.010052806697785854,
                        0.012413622811436653,
                        -0.20746828615665436,
                        0.21154379844665527,
                        0.19962537288665771,
                        0.12692125141620636
                    ],
                    [
                        -0.02959853783249855,
                        0.3697699308395386,
                        -0.0881369411945343,
                        0.1042901948094368,
                        -0.10728442668914795,
                        -0.11005178093910217,
                        -0.1381518691778183,
                        -0.36030933260917664,
                        -0.1785024106502533,
                        0.5324569344520569,
                        0.45493558049201965,
                        0.3620316982269287,
                        0.23481878638267517,
                        0.1905490607023239,
                        -0.03176255151629448,
                        -0.3890407383441925,
                        -0.3437644839286804,
                        0.27858665585517883,
                        -0.2703441381454468,
                        0.1624976098537445
                    ],
                    [
                        -0.1400679349899292,
                        0.42891860008239746,
                        -0.2658470869064331,
                        -0.18972186744213104,
                        0.13755178451538086,
                        0.07137370109558105,
                        -0.0019545783288776875,
                        0.0797274261713028,
                        0.10643285512924194,
                        0.31054234504699707,
                        0.31687480211257935,
                        0.20806577801704407,
                        -0.09231767803430557,
                        -0.08070100843906403,
                        0.37762200832366943,
                        -0.21083275973796844,
                        -0.16242246329784393,
                        0.2718921899795532,
                        -0.23580968379974365,
                        0.050620343536138535
                    ],
                    [
                        0.14041851460933685,
                        -0.009001307189464569,
                        -0.14100654423236847,
                        0.22195307910442352,
                        0.15762925148010254,
                        -0.1383858323097229,
                        0.1893269270658493,
                        -0.17972418665885925,
                        -0.0950045958161354,
                        -0.06650228798389435,
                        -0.06507131457328796,
                        -0.1940268874168396,
                        -0.1715160459280014,
                        -0.20558299124240875,
                        0.16757965087890625,
                        -0.08200925588607788,
                        0.024523446336388588,
                        -0.19766511023044586,
                        0.01911584846675396,
                        0.1016928032040596
                    ],
                    [
                        -0.11898034065961838,
                        0.4796404242515564,
                        -0.3506758213043213,
                        0.14721107482910156,
                        0.5630214214324951,
                        -0.07126563787460327,
                        0.08503330498933792,
                        0.25822269916534424,
                        0.06541784107685089,
                        -0.06179641932249069,
                        0.009689717553555965,
                        -0.0020251465030014515,
                        -0.31783899664878845,
                        0.04670710861682892,
                        0.2415405809879303,
                        -0.46371760964393616,
                        0.29156458377838135,
                        0.2933923602104187,
                        0.36056438088417053,
                        0.25195133686065674
                    ],
                    [
                        0.04369279369711876,
                        -0.0356680303812027,
                        -0.06451508402824402,
                        -0.007608823943883181,
                        -0.16117088496685028,
                        0.15838471055030823,
                        0.1089288666844368,
                        0.03191278502345085,
                        0.014739759266376495,
                        0.17443478107452393,
                        0.18745693564414978,
                        0.09742565453052521,
                        -0.06777649372816086,
                        -0.057405631989240646,
                        0.032522886991500854,
                        -0.11941558122634888,
                        0.05162527412176132,
                        -0.06076503545045853,
                        0.027904121205210686,
                        -0.05279073119163513
                    ],
                    [
                        -0.06448207795619965,
                        -0.0087200328707695,
                        -0.03574773296713829,
                        -0.02614210546016693,
                        0.12495272606611252,
                        0.01902385987341404,
                        0.13790959119796753,
                        -0.17180441319942474,
                        0.09257068485021591,
                        0.09451182931661606,
                        -0.03238720819354057,
                        0.008006771095097065,
                        -0.0942247211933136,
                        -0.04468759521842003,
                        0.21206389367580414,
                        -0.019320514053106308,
                        -0.032708413898944855,
                        -0.20853114128112793,
                        0.17973101139068604,
                        -0.12955014407634735
                    ],
                    [
                        -0.01990497298538685,
                        -0.10693243891000748,
                        0.03740219399333,
                        -0.06351474672555923,
                        -0.04160168021917343,
                        0.21311542391777039,
                        0.017515528947114944,
                        -0.10460270941257477,
                        0.1645246297121048,
                        0.49683433771133423,
                        0.26317572593688965,
                        0.17121252417564392,
                        0.4313947856426239,
                        -0.22325919568538666,
                        0.17161911725997925,
                        0.5987070202827454,
                        -0.053389664739370346,
                        -0.1344475895166397,
                        -0.15964260697364807,
                        -0.18998347222805023
                    ],
                    [
                        0.052358370274305344,
                        0.22260229289531708,
                        -0.0775127187371254,
                        -0.017973117530345917,
                        0.5687428116798401,
                        -0.01194850169122219,
                        0.06411059945821762,
                        0.42673859000205994,
                        -0.18450048565864563,
                        -0.2515333592891693,
                        0.03920317813754082,
                        -0.27689531445503235,
                        0.0187850221991539,
                        -0.004381634294986725,
                        0.3679423928260803,
                        -0.3561599552631378,
                        0.22941817343235016,
                        0.40265727043151855,
                        0.10601381212472916,
                        -0.11004289239645004
                    ],
                    [
                        0.17405040562152863,
                        -0.20452748239040375,
                        -0.22073432803153992,
                        0.04003610461950302,
                        -0.22177430987358093,
                        0.011179102584719658,
                        0.12223858386278152,
                        -0.12865179777145386,
                        -0.03594733029603958,
                        0.5111145377159119,
                        0.18484166264533997,
                        0.30794239044189453,
                        0.3268715441226959,
                        -0.07986097037792206,
                        -0.3117760121822357,
                        0.3952346444129944,
                        0.05882379040122032,
                        -0.15349406003952026,
                        -0.005307076033204794,
                        -0.27051210403442383
                    ],
                    [
                        -0.08901053667068481,
                        0.004516853950917721,
                        -0.19667112827301025,
                        0.1111065000295639,
                        -0.10142965614795685,
                        -0.15271061658859253,
                        -0.11318180710077286,
                        0.235453799366951,
                        0.21300053596496582,
                        0.10964345932006836,
                        -0.23956140875816345,
                        0.023518195375800133,
                        0.18265709280967712,
                        -0.09762520343065262,
                        0.03177947178483009,
                        -0.20259183645248413,
                        -0.07810279726982117,
                        0.06673004478216171,
                        -0.20060579478740692,
                        -0.10309669375419617
                    ],
                    [
                        0.04772427678108215,
                        -0.20813871920108795,
                        0.04162980616092682,
                        0.18945437669754028,
                        -0.1916731894016266,
                        -0.19789427518844604,
                        0.20236556231975555,
                        0.08051332086324692,
                        0.17203661799430847,
                        -0.020192991942167282,
                        0.12474310398101807,
                        0.20750613510608673,
                        -0.08951658010482788,
                        -0.16857776045799255,
                        0.02032051421701908,
                        0.19073551893234253,
                        0.048905376344919205,
                        0.038612186908721924,
                        0.06418030709028244,
                        0.00994967482984066
                    ]
                ],
                [
                    0.1008792296051979,
                    0.019510911777615547,
                    0.38781702518463135,
                    -0.16063745319843292,
                    0.12468774616718292,
                    -0.16081517934799194,
                    -0.12425948679447174,
                    0.4979386329650879,
                    -0.046311188489198685,
                    0.12389947474002838,
                    -0.009788365103304386,
                    0.012474184855818748,
                    0.0960034653544426,
                    -0.21141740679740906,
                    0.3352169692516327,
                    0.3606010377407074,
                    0.38991227746009827,
                    0.4386325180530548,
                    0.41514307260513306,
                    0.01026227418333292
                ]
            ]
        },
        {
            "type": "dense",
            "activation": "sigmoid",
            "shape": [
                null,
                10
            ],
            "weights": [
                [
                    [
                        -0.16826231777668,
                        0.16564404964447021,
                        0.06647872179746628,
                        -0.19209662079811096,
                        -0.14659324288368225,
                        -0.049180544912815094,
                        0.1891365498304367,
                        0.18531973659992218,
                        -0.1957009881734848,
                        0.20673306286334991
                    ],
                    [
                        0.5768881440162659,
                        -0.18178805708885193,
                        0.00958127249032259,
                        -0.18903709948062897,
                        -0.2802070379257202,
                        -0.48493242263793945,
                        -0.2058749496936798,
                        -0.27641788125038147,
                        0.010030449368059635,
                        0.29539284110069275
                    ],
                    [
                        -0.4844161570072174,
                        -0.14201496541500092,
                        0.126342311501503,
                        0.7066444158554077,
                        0.5100318789482117,
                        0.09957978129386902,
                        0.43546590209007263,
                        0.24106557667255402,
                        0.39693933725357056,
                        0.6004629135131836
                    ],
                    [
                        -0.19135402143001556,
                        -0.1458425223827362,
                        0.20443230867385864,
                        0.15546518564224243,
                        -0.1935039460659027,
                        0.023619486019015312,
                        -0.1122492328286171,
                        -0.034286245703697205,
                        0.157659649848938,
                        -0.1317649632692337
                    ],
                    [
                        -0.28064581751823425,
                        -0.29465335607528687,
                        -0.7408113479614258,
                        -0.5951544046401978,
                        -0.22234542667865753,
                        0.2761297821998596,
                        0.33516594767570496,
                        0.20836332440376282,
                        0.02952076680958271,
                        0.5911188125610352
                    ],
                    [
                        0.136012002825737,
                        -0.14594507217407227,
                        -0.008179369382560253,
                        -0.10688893496990204,
                        -0.09273897111415863,
                        -0.03179176524281502,
                        -0.15361209213733673,
                        -0.056806161999702454,
                        0.13405922055244446,
                        0.07433702051639557
                    ],
                    [
                        -0.15148630738258362,
                        0.011228363029658794,
                        -0.20555460453033447,
                        0.1430198699235916,
                        0.21648262441158295,
                        -0.06917860358953476,
                        0.12090535461902618,
                        -0.010476743802428246,
                        -0.1459662914276123,
                        0.09657655656337738
                    ],
                    [
                        -0.5914024114608765,
                        -0.2367650419473648,
                        0.07551001012325287,
                        -0.19039250910282135,
                        -0.2881716787815094,
                        -0.12251508980989456,
                        -0.25566771626472473,
                        -0.22401781380176544,
                        0.24399936199188232,
                        0.44355514645576477
                    ],
                    [
                        -0.15655162930488586,
                        0.17123320698738098,
                        -0.09213798493146896,
                        -0.0028537921607494354,
                        0.039563700556755066,
                        -0.11963498592376709,
                        0.09794336557388306,
                        -0.21786823868751526,
                        0.13734503090381622,
                        -0.18285112082958221
                    ],
                    [
                        0.10692832618951797,
                        0.1372862160205841,
                        0.02225557155907154,
                        0.2805878818035126,
                        0.07120972871780396,
                        0.09770406782627106,
                        -0.20369179546833038,
                        -0.12209633737802505,
                        -0.1010151356458664,
                        -0.4379696846008301
                    ],
                    [
                        0.5781906843185425,
                        0.4553932845592499,
                        0.24993407726287842,
                        -0.11011232435703278,
                        -0.13070476055145264,
                        -0.26514294743537903,
                        -0.13178221881389618,
                        -0.28272581100463867,
                        -0.1741538792848587,
                        -0.39980053901672363
                    ],
                    [
                        0.21068713068962097,
                        0.30343177914619446,
                        0.18257007002830505,
                        0.10365702956914902,
                        0.14037878811359406,
                        0.1592250019311905,
                        0.05805539712309837,
                        -0.2122894674539566,
                        -0.27130210399627686,
                        -0.16541218757629395
                    ],
                    [
                        0.11895186454057693,
                        0.06179985776543617,
                        0.22253361344337463,
                        0.24781064689159393,
                        0.286502480506897,
                        0.3003673255443573,
                        0.011720458045601845,
                        0.07834887504577637,
                        -0.41313832998275757,
                        -0.5715693235397339
                    ],
                    [
                        0.21820786595344543,
                        0.08976628631353378,
                        0.045358289033174515,
                        0.20694181323051453,
                        0.004508623853325844,
                        0.00566605431959033,
                        0.04518534243106842,
                        0.2037186473608017,
                        0.05890201777219772,
                        -0.14181198179721832
                    ],
                    [
                        -0.023237913846969604,
                        -0.16339877247810364,
                        -0.3110303282737732,
                        -0.19691233336925507,
                        -0.38634786009788513,
                        -0.4397984445095062,
                        -0.16994982957839966,
                        -0.10699747502803802,
                        0.20152108371257782,
                        0.310232549905777
                    ],
                    [
                        -0.6024691462516785,
                        -0.3033404052257538,
                        0.004438125528395176,
                        -0.006270105484873056,
                        0.1332339197397232,
                        0.06287085264921188,
                        0.5837481021881104,
                        0.24470742046833038,
                        0.02172577939927578,
                        -0.42463693022727966
                    ],
                    [
                        -0.4131804406642914,
                        -0.05674697458744049,
                        -0.26593688130378723,
                        -0.3017537593841553,
                        -0.2794264554977417,
                        0.024492604658007622,
                        0.009517183527350426,
                        0.3568482995033264,
                        0.38777023553848267,
                        0.503140926361084
                    ],
                    [
                        0.3736865520477295,
                        0.005187241360545158,
                        -0.10136692225933075,
                        -0.17885908484458923,
                        -0.2216411828994751,
                        -0.4604727625846863,
                        -0.34414830803871155,
                        -0.009108074940741062,
                        -0.09147731214761734,
                        0.45822128653526306
                    ],
                    [
                        -0.5351179242134094,
                        -0.4406966269016266,
                        -0.20257708430290222,
                        -0.2051796317100525,
                        0.38384169340133667,
                        0.5202533006668091,
                        0.18767555058002472,
                        0.3084504306316376,
                        0.24145396053791046,
                        0.56539386510849
                    ],
                    [
                        -0.3955780863761902,
                        -0.3688156306743622,
                        -0.5434683561325073,
                        -0.19718016684055328,
                        -0.043692536652088165,
                        0.15933433175086975,
                        0.02052580751478672,
                        0.0977671667933464,
                        0.4585411250591278,
                        -1.5050901174545288
                    ]
                ],
                [
                    -0.13852934539318085,
                    0.04646323621273041,
                    -0.16857627034187317,
                    -0.12933868169784546,
                    -0.24725845456123352,
                    0.11388519406318665,
                    -0.008134542033076286,
                    0.2229800820350647,
                    0.1871076226234436,
                    -0.09114372730255127
                ]
            ]
        }
    ]
}