{
    "in_shape": [
        null,
        2
    ],
    "layers": [
        {
            "type": "dense",
            "activation": "relu",
            "shape": [
                null,
                20
            ],
            "weights": [
                [
                    [
                        0.9854273200035095,
                        -0.2803797125816345,
                        -0.1223161369562149,
                        -0.4775121510028839,
                        -0.5816974639892578,
                        -0.11979826539754868,
                        0.8812150359153748,
                        -0.7455478310585022,
                        -0.5453253984451294,
                        -0.4515097439289093,
                        -0.5165209174156189,
                        -0.4781496524810791,
                        0.9570935964584351,
                        0.08473359048366547,
                        -1.0843991041183472,
                        -0.2962751090526581,
                        -0.7787060141563416,
                        0.002584276022389531,
                        -0.3766908347606659,
                        0.8923465013504028
                    ],
                    [
                        0.7010001540184021,
                        -0.540895938873291,
                        -0.14062784612178802,
                        0.24894161522388458,
                        0.059221379458904266,
                        1.1646225452423096,
                        0.680963933467865,
                        0.6307563781738281,
                        0.22129572927951813,
                        -0.501438558101654,
                        -0.02478782646358013,
                        0.13425633311271667,
                        -0.5321152806282043,
                        0.4839368164539337,
                        0.7019752860069275,
                        0.8555601239204407,
                        -0.10688642412424088,
                        -0.4206155836582184,
                        -0.4526411294937134,
                        -0.16299308836460114
                    ]
                ],
                [
                    -0.1384885609149933,
                    -0.19417373836040497,
                    -0.2293197363615036,
                    -0.43133479356765747,
                    -0.5631643533706665,
                    -0.001448686933144927,
                    -0.004399761091917753,
                    0.5124304890632629,
                    -0.4847295582294464,
                    -0.047727763652801514,
                    -0.6404310464859009,
                    -0.37087345123291016,
                    0.389135479927063,
                    0.08741416037082672,
                    0.8031189441680908,
                    0.2161080539226532,
                    0.9057759642601013,
                    -0.4955878257751465,
                    -0.21331793069839478,
                    0.6663789749145508
                ]
            ]
        },
        {
            "type": "dense",
            "activation": "relu",
            "shape": [
                null,
                20
            ],
            "weights": [
                [
                    [
                        -0.21713095903396606,
                        0.6227582097053528,
                        -0.2881648540496826,
                        0.05518639460206032,
                        -0.06704887002706528,
                        -0.011847438290715218,
                        -0.08657590299844742,
                        0.4176778197288513,
                        0.3652249276638031,
                        0.16353854537010193,
                        0.5946222543716431,
                        -0.2190932333469391,
                        -0.20481425523757935,
                        0.13943591713905334,
                        -0.21012896299362183,
                        -0.3046078681945801,
                        -0.3629906475543976,
                        -0.2491035908460617,
                        0.0051890104077756405,
                        0.2546215355396271
                    ],
                    [
                        0.0547429621219635,
                        0.17750687897205353,
                        0.11954968422651291,
                        0.11703338474035263,
                        0.1633751541376114,
                        -0.15588496625423431,
                        -0.20107394456863403,
                        0.05657513439655304,
                        0.040620237588882446,
                        0.15507417917251587,
                        0.015860671177506447,
                        0.012579130008816719,
                        -0.15529929101467133,
                        0.10726985335350037,
                        0.026188140735030174,
                        -0.03603825345635414,
                        0.1951814442873001,
                        -0.033803947269916534,
                        -0.017615756019949913,
                        -0.11944890022277832
                    ],
                    [
                        -0.05239158123731613,
                        -0.07253166288137436,
                        0.20552456378936768,
                        0.020079970359802246,
                        -0.19896933436393738,
                        0.15293888747692108,
                        -0.002489191247150302,
                        0.16234102845191956,
                        -0.12663106620311737,
                        0.06889674067497253,
                        0.18165743350982666,
                        -0.15107569098472595,
                        0.08103066682815552,
                        0.03219219297170639,
                        -0.17036139965057373,
                        0.141800194978714,
                        0.08356700837612152,
                        -0.18995331227779388,
                        0.07509226351976395,
                        -0.13288769125938416
                    ],
                    [
                        -0.0859602689743042,
                        0.11265172809362411,
                        0.1465759426355362,
                        0.21189454197883606,
                        0.0002882580738514662,
                        -0.0277772918343544,
                        -0.1620250791311264,
                        -0.21488319337368011,
                        0.19111350178718567,
                        0.009043077006936073,
                        0.04102751240134239,
                        0.00925800483673811,
                        -0.15217523276805878,
                        -0.10655893385410309,
                        0.17192071676254272,
                        0.125475212931633,
                        -0.17981289327144623,
                        0.21763595938682556,
                        0.10568048804998398,
                        0.17036549746990204
                    ],
                    [
                        -0.02526024542748928,
                        -0.05973174050450325,
                        0.13020260632038116,
                        0.0762476697564125,
                        0.024378091096878052,
                        0.16716691851615906,
                        0.0754433274269104,
                        -0.12427659332752228,
                        0.21671928465366364,
                        -0.1205628290772438,
                        0.05828157439827919,
                        -0.05805390328168869,
                        0.15484708547592163,
                        -0.033934351056814194,
                        0.2128990739583969,
                        0.10372177511453629,
                        -0.024749169126152992,
                        0.22329767048358917,
                        0.21345919370651245,
                        0.05941560119390488
                    ],
                    [
                        -0.11752116680145264,
                        0.6525512933731079,
                        0.08087614178657532,
                        0.11705664545297623,
                        -0.18275102972984314,
                        -0.21098697185516357,
                        0.5749602317810059,
                        -0.20183613896369934,
                        0.4145382046699524,
                        -0.19804225862026215,
                        0.49170374870300293,
                        -0.11182816326618195,
                        0.21421247720718384,
                        -0.13777300715446472,
                        0.04232851415872574,
                        0.15508700907230377,
                        0.2801279127597809,
                        0.04914826527237892,
                        0.09883606433868408,
                        0.18982566893100739
                    ],
                    [
                        -0.22094599902629852,
                        0.5844882726669312,
                        -0.4115305542945862,
                        -0.1283734142780304,
                        0.0715898796916008,
                        0.19974592328071594,
                        0.27775895595550537,
                        0.0932951420545578,
                        0.31103113293647766,
                        0.08828733116388321,
                        0.4960131049156189,
                        -0.17213599383831024,
                        -0.18909434974193573,
                        -0.17620857059955597,
                        0.0648927167057991,
                        -0.38165339827537537,
                        -0.006010199431329966,
                        -0.16024906933307648,
                        -0.11110806465148926,
                        0.5611711144447327
                    ],
                    [
                        0.09500787407159805,
                        0.5561251044273376,
                        0.4525957703590393,
                        -0.10147015005350113,
                        0.013005838729441166,
                        0.0965028703212738,
                        0.41453519463539124,
                        -0.4754859209060669,
                        -0.10773080587387085,
                        -0.09587033092975616,
                        -0.21899528801441193,
                        -0.13377121090888977,
                        -0.04401293396949768,
                        -0.15378107130527496,
                        0.09760712832212448,
                        0.5999924540519714,
                        0.5231332778930664,
                        0.051410973072052,
                        -0.17706812918186188,
                        -0.07548665255308151
                    ],
                    [
                        0.14264218509197235,
                        -0.053269870579242706,
                        -0.07810802012681961,
                        -0.171864852309227,
                        -0.13679876923561096,
                        -0.015671972185373306,
                        -0.006537892390042543,
                        -0.014638412743806839,
                        0.12559811770915985,
                        -0.09531516581773758,
                        0.16052886843681335,
                        -0.0224709864705801,
                        -0.20918352901935577,
                        0.18875595927238464,
                        -0.13860894739627838,
                        -0.06697212159633636,
                        0.14626596868038177,
                        0.22107522189617157,
                        -0.093792624771595,
                        0.22263233363628387
                    ],
                    [
                        0.12285105884075165,
                        -0.06596042215824127,
                        -0.11121001094579697,
                        -0.07905811816453934,
                        -0.07494072616100311,
                        -0.21573151648044586,
                        -0.14228872954845428,
                        -0.08403364568948746,
                        -0.148201584815979,
                        0.2141583263874054,
                        -0.08932510763406754,
                        0.1501113325357437,
                        0.19023728370666504,
                        -0.07558281719684601,
                        -0.2234632521867752,
                        0.14197440445423126,
                        -0.037647370249032974,
                        -0.038306575268507004,
                        0.0001262695004697889,
                        0.004152899142354727
                    ],
                    [
                        0.08756247907876968,
                        0.0565875843167305,
                        -0.18098567426204681,
                        -0.04393770918250084,
                        0.14258284866809845,
                        0.12600769102573395,
                        -0.14054137468338013,
                        -0.21350446343421936,
                        0.2213018536567688,
                        -0.1962052434682846,
                        -0.21513058245182037,
                        0.15953871607780457,
                        -0.08456868678331375,
                        0.06493435055017471,
                        -0.07795994728803635,
                        0.006211782805621624,
                        -0.15254849195480347,
                        -0.1734701246023178,
                        0.11998769640922546,
                        0.1202625185251236
                    ],
                    [
                        -0.05723961815237999,
                        -0.17859706282615662,
                        -0.18767084181308746,
                        -0.11107875406742096,
                        0.19061823189258575,
                        0.07580600678920746,
                        0.022818902507424355,
                        -0.06401349604129791,
                        0.026208238676190376,
                        0.1538214534521103,
                        0.1202387735247612,
                        0.20775020122528076,
                        -0.13034281134605408,
                        0.010909157805144787,
                        0.09475050866603851,
                        -0.16087590157985687,
                        -0.0463128387928009,
                        -0.19688846170902252,
                        0.072647325694561,
                        0.17721346020698547
                    ],
                    [
                        0.007972518913447857,
                        -0.20049861073493958,
                        0.002897463506087661,
                        0.0508933961391449,
                        -0.02287893183529377,
                        0.09497641026973724,
                        -0.4104141891002655,
                        0.1923820972442627,
                        0.1474262923002243,
                        0.0955049991607666,
                        0.08637350797653198,
                        -0.04799192026257515,
                        0.19915781915187836,
                        0.10813993215560913,
                        -0.11649972945451736,
                        -0.1944734752178192,
                        -0.4055136740207672,
                        -0.021381745114922523,
                        -0.209511861205101,
                        0.3746146559715271
                    ],
                    [
                        -0.1386820375919342,
                        0.6321178078651428,
                        0.11601560562849045,
                        -0.14566856622695923,
                        -0.12638524174690247,
                        -0.05257188901305199,
                        0.3091927766799927,
                        -0.037672802805900574,
                        0.2617725431919098,
                        -0.08533820509910583,
                        0.19267040491104126,
                        0.09518208354711533,
                        -0.006274477578699589,
                        -0.09436167776584625,
                        0.017775611951947212,
                        -0.0013502180809155107,
                        0.3230103552341461,
                        0.19018159806728363,
                        0.06215432658791542,
                        0.11243333667516708
                    ],
                    [
                        -0.21206973493099213,
                        0.4913601577281952,
                        0.44194695353507996,
                        -0.049924951046705246,
                        0.07713331282138824,
                        0.13227424025535583,
                        0.2339247614145279,
                        -0.12803567945957184,
                        -0.31086546182632446,
                        -0.053907930850982666,
                        -0.4054965376853943,
                        -0.059255991131067276,
                        -0.18646197021007538,
                        0.05042954161763191,
                        -0.16860713064670563,
                        0.5878749489784241,
                        0.6085401177406311,
                        0.04176013916730881,
                        -0.12929531931877136,
                        -0.2888091802597046
                    ],
                    [
                        0.10505617409944534,
                        0.570287823677063,
                        0.5101231336593628,
                        0.10908668488264084,
                        0.0028723448049277067,
                        -0.056616440415382385,
                        0.5603775978088379,
                        -0.5701189637184143,
                        0.030220068991184235,
                        -0.16929049789905548,
                        0.22944588959217072,
                        -0.13112568855285645,
                        0.010670612566173077,
                        -0.1556115597486496,
                        0.022855393588542938,
                        0.23042267560958862,
                        0.4133245646953583,
                        -0.22662405669689178,
                        -0.11717072874307632,
                        0.2116725742816925
                    ],
                    [
                        -0.059607282280921936,
                        -0.41211897134780884,
                        0.5546188950538635,
                        -0.10234196484088898,
                        -0.19070318341255188,
                        0.13219806551933289,
                        0.2744096517562866,
                        -0.4363422393798828,
                        -0.40812891721725464,
                        -0.16633866727352142,
                        -0.712645411491394,
                        -0.22917616367340088,
                        0.06133291497826576,
                        0.07711771875619888,
                        -0.07358617335557938,
                        0.3872423768043518,
                        0.31720784306526184,
                        0.11201531440019608,
                        0.049705106765031815,
                        -0.420530766248703
                    ],
                    [
                        0.05307600274682045,
                        -0.18289931118488312,
                        -0.09910975396633148,
                        -0.09943818300962448,
                        -0.21220636367797852,
                        -0.14213529229164124,
                        0.20727567374706268,
                        -0.03729892522096634,
                        0.21879450976848602,
                        0.12752395868301392,
                        -0.1416577249765396,
                        -0.010516167618334293,
                        0.08854725956916809,
                        0.13333816826343536,
                        0.11025194078683853,
                        0.0476515032351017,
                        -0.11677562445402145,
                        -0.08736269176006317,
                        0.024697324261069298,
                        -0.09366393089294434
                    ],
                    [
                        0.00043750504846684635,
                        0.18224109709262848,
                        -0.15161748230457306,
                        -0.21092785894870758,
                        0.07252480834722519,
                        0.04482114315032959,
                        -0.1650933474302292,
                        0.06520307064056396,
                        0.10844738036394119,
                        0.04335794225335121,
                        -0.005681754555553198,
                        -0.12987224757671356,
                        0.10175152122974396,
                        -0.003062668489292264,
                        0.19809161126613617,
                        0.17769576609134674,
                        -0.2107330560684204,
                        0.035182010382413864,
                        0.13888126611709595,
                        0.133616641163826
                    ],
                    [
                        0.09817641973495483,
                        -0.2950243353843689,
                        -0.06617694348096848,
                        0.1101134866476059,
                        0.08952094614505768,
                        -0.08118180185556412,
                        0.036149244755506516,
                        0.4353797137737274,
                        0.2847602069377899,
                        -0.11552437394857407,
                        0.26651471853256226,
                        0.04747987166047096,
                        0.0581665001809597,
                        -0.007746582385152578,
                        -0.19315513968467712,
                        -0.04276740550994873,
                        -0.3797237277030945,
                        -0.11167971044778824,
                        -0.09417403489351273,
                        0.4681605398654938
                    ]
                ],
                [
                    -0.20467381179332733,
                    -0.20420725643634796,
                    0.6039858460426331,
                    -0.17411136627197266,
                    -0.07347147166728973,
                    -0.24090225994586945,
                    -0.09864188730716705,
                    0.5821278095245361,
                    -0.2765805721282959,
                    -0.1631791889667511,
                    -0.0655611902475357,
                    0.14814452826976776,
                    -0.14165575802326202,
                    -0.1566954255104065,
                    0.20833301544189453,
                    0.3770162761211395,
                    0.12220302224159241,
                    -0.08787807077169418,
                    0.1660401076078415,
                    0.13112279772758484
                ]
            ]
        },
        {
            "type": "dense",
            "activation": "sigmoid",
            "shape": [
                null,
                10
            ],
            "weights": [
                [
                    [
                        -0.1379341185092926,
                        -0.04177321493625641,
                        -0.08865294605493546,
                        -0.0363420806825161,
                        0.0699065551161766,
                        -0.029238147661089897,
                        -0.0630209818482399,
                        0.1755882352590561,
                        -0.19488604366779327,
                        0.05607237666845322
                    ],
                    [
                        0.8952272534370422,
                        0.35008853673934937,
                        -0.19714775681495667,
                        -0.2715907394886017,
                        -0.3530906140804291,
                        -0.5426064133644104,
                        -0.4547988772392273,
                        -0.5037589073181152,
                        -0.3815261721611023,
                        -0.1899067610502243
                    ],
                    [
                        -0.36398205161094666,
                        -0.27743059396743774,
                        -0.1800777167081833,
                        0.05066526308655739,
                        -0.03739883005619049,
                        -0.13673743605613708,
                        0.0027895914390683174,
                        0.21415415406227112,
                        0.2098054736852646,
                        0.627510666847229
                    ],
                    [
                        -0.144372820854187,
                        -0.0983256921172142,
                        -0.18485239148139954,
                        -0.0012230067513883114,
                        -0.12737105786800385,
                        -0.18362270295619965,
                        0.09800144284963608,
                        -0.10124073922634125,
                        0.03671114519238472,
                        0.08239804208278656
                    ],
                    [
                        0.20468972623348236,
                        0.19254474341869354,
                        -0.10414907336235046,
                        0.04450353607535362,
                        -0.19206728041172028,
                        0.054722171276807785,
                        0.15624260902404785,
                        0.1861209273338318,
                        -0.04932878166437149,
                        -0.21579621732234955
                    ],
                    [
                        0.03792449086904526,
                        -0.18532811105251312,
                        -0.024398550391197205,
                        0.042908258736133575,
                        -0.1556544303894043,
                        -0.19156263768672943,
                        0.09356316924095154,
                        -0.040955521166324615,
                        -0.20305123925209045,
                        -0.11572892963886261
                    ],
                    [
                        0.5264828205108643,
                        0.10011018812656403,
                        -0.2499500960111618,
                        -0.2635890245437622,
                        -0.5361031889915466,
                        -0.4720691442489624,
                        -0.5498431921005249,
                        -0.3423716723918915,
                        0.004497240763157606,
                        0.4545644521713257
                    ],
                    [
                        -0.45118939876556396,
                        -0.19606567919254303,
                        -0.4319140613079071,
                        0.10535404831171036,
                        0.19412025809288025,
                        0.12398740649223328,
                        0.24149662256240845,
                        -0.004004128277301788,
                        -0.25647279620170593,
                        -0.5216761231422424
                    ],
                    [
                        0.25002723932266235,
                        0.275394469499588,
                        0.39456987380981445,
                        0.41213008761405945,
                        0.2349206656217575,
                        0.38018009066581726,
                        0.012627015821635723,
                        0.16758084297180176,
                        -0.18627697229385376,
                        -0.42717355489730835
                    ],
                    [
                        -0.08473578840494156,
                        0.18340808153152466,
                        0.01871737278997898,
                        -0.14495770633220673,
                        -0.061412252485752106,
                        -0.022203026339411736,
                        0.025064608082175255,
                        -0.005929080303758383,
                        -0.03054199554026127,
                        0.16262634098529816
                    ],
                    [
                        0.12399708479642868,
                        0.052574094384908676,
                        0.5718116164207458,
                        0.3041435182094574,
                        0.2470908761024475,
                        -0.03618810325860977,
                        -0.044062644243240356,
                        -0.1643264889717102,
                        -0.09854085743427277,
                        -0.4213980436325073
                    ],
                    [
                        -0.15264412760734558,
                        -0.10276572406291962,
                        0.1309446394443512,
                        0.07327109575271606,
                        0.13147827982902527,
                        -0.13446030020713806,
                        -0.09758322685956955,
                        -0.1971779763698578,
                        -0.15478819608688354,
                        0.12730659544467926
                    ],
                    [
                        0.13895931839942932,
                        0.0032638947013765574,
                        0.1797238141298294,
                        0.013044783845543861,
                        0.01371411606669426,
                        -0.09388912469148636,
                        -0.21969568729400635,
                        -0.18428216874599457,
                        0.18539316952228546,
                        -0.2118140161037445
                    ],
                    [
                        -0.12187030166387558,
                        0.1301620602607727,
                        -0.13297298550605774,
                        0.06709420680999756,
                        -0.011515741236507893,
                        -0.07223295420408249,
                        0.03093424253165722,
                        0.17198961973190308,
                        0.21236704289913177,
                        0.08093465119600296
                    ],
                    [
                        -0.1520022302865982,
                        0.09889621287584305,
                        -0.20339055359363556,
                        -0.08374613523483276,
                        0.003122404683381319,
                        0.17525704205036163,
                        -0.057044681161642075,
                        -0.09867454320192337,
                        -0.05331366881728172,
                        0.19025029242038727
                    ],
                    [
                        -0.6221880912780762,
                        -0.29102644324302673,
                        -0.16953422129154205,
                        -0.06727910786867142,
                        -0.07910189777612686,
                        0.14715351164340973,
                        0.20495912432670593,
                        0.14696712791919708,
                        0.3978610932826996,
                        0.42377766966819763
                    ],
                    [
                        -0.5079735517501831,
                        -0.598320722579956,
                        -0.28710946440696716,
                        -0.7140424251556396,
                        -0.20064763724803925,
                        0.2955020070075989,
                        0.36456504464149475,
                        0.4636962413787842,
                        0.3144492506980896,
                        0.35604777932167053
                    ],
                    [
                        0.15631677210330963,
                        0.12891167402267456,
                        -0.13681088387966156,
                        0.09888581931591034,
                        -0.021440496668219566,
                        -0.03730867803096771,
                        0.21197830140590668,
                        -0.04435198754072189,
                        -0.08385109156370163,
                        -0.10303444415330887
                    ],
                    [
                        -0.1991226077079773,
                        0.015000753104686737,
                        0.043035294860601425,
                        0.12781751155853271,
                        -0.202284038066864,
                        0.14908595383167267,
                        0.15642176568508148,
                        0.1945865899324417,
                        -0.0219537615776062,
                        -0.19845852255821228
                    ],
                    [
                        -0.04844526946544647,
                        0.07334178686141968,
                        0.12339302152395248,
                        -0.10834100842475891,
                        -0.0334077849984169,
                        0.34878653287887573,
                        0.33950141072273254,
                        0.29418817162513733,
                        -0.11604850739240646,
                        -0.6937562823295593
                    ]
                ],
                [
                    -0.7832040190696716,
                    -0.16412296891212463,
                    0.04214286431670189,
                    0.24926705658435822,
                    0.45320188999176025,
                    0.14533764123916626,
                    0.31028079986572266,
                    0.24697238206863403,
                    0.5057392120361328,
                    0.6520647406578064
                ]
            ]
        }
    ]
}