{
    "in_shape": [
        null,
        2
    ],
    "layers": [
        {
            "type": "dense",
            "activation": "relu",
            "shape": [
                null,
                3
            ],
            "weights": [
                [
                    [
                        0.6856582164764404,
                        -0.5190919637680054,
                        -0.8779188990592957
                    ],
                    [
                        -0.7460969090461731,
                        0.2194490283727646,
                        1.38874351978302
                    ]
                ],
                [
                    0.746099054813385,
                    -0.6316878795623779,
                    0.4973369538784027
                ]
            ]
        },
        {
            "type": "dense",
            "activation": "relu",
            "shape": [
                null,
                5
            ],
            "weights": [
                [
                    [
                        -0.17389585077762604,
                        -0.5497662425041199,
                        1.1903539896011353,
                        0.6350412964820862,
                        -0.6682871580123901
                    ],
                    [
                        -0.24061943590641022,
                        0.5300233364105225,
                        -0.5564186573028564,
                        -0.010356037877500057,
                        0.08282331377267838
                    ],
                    [
                        -0.02606222592294216,
                        0.9463919997215271,
                        -1.0835322141647339,
                        -0.4580341875553131,
                        1.340451955795288
                    ]
                ],
                [
                    -0.40846511721611023,
                    0.31778618693351746,
                    0.27619925141334534,
                    0.026354121044278145,
                    0.4943915605545044
                ]
            ]
        },
        {
            "type": "dense",
            "activation": "relu",
            "shape": [
                null,
                7
            ],
            "weights": [
                [
                    [
                        -0.11017818003892899,
                        0.36454930901527405,
                        -0.09481381624937057,
                        -0.0868711844086647,
                        -0.4137261211872101,
                        -0.114921934902668,
                        0.1983671337366104
                    ],
                    [
                        0.33404913544654846,
                        0.5846147537231445,
                        0.9376998543739319,
                        -0.14385825395584106,
                        -0.05529589205980301,
                        -0.330588161945343,
                        -0.42949017882347107
                    ],
                    [
                        -0.6593908667564392,
                        -0.30742913484573364,
                        0.37000027298927307,
                        1.2235671281814575,
                        0.6630668640136719,
                        -0.04132550209760666,
                        -0.009776837192475796
                    ],
                    [
                        -0.8093382120132446,
                        -0.0026868837885558605,
                        0.04874914512038231,
                        0.39292967319488525,
                        1.132564902305603,
                        -0.44009238481521606,
                        0.12700408697128296
                    ],
                    [
                        0.7059117555618286,
                        0.9610616564750671,
                        0.7605870366096497,
                        -0.31810906529426575,
                        -0.6872885823249817,
                        -0.1171543225646019,
                        -0.3603958189487457
                    ]
                ],
                [
                    0.9247795343399048,
                    -0.9377684593200684,
                    -0.2545980215072632,
                    0.45903316140174866,
                    -0.24703828990459442,
                    -0.04658307880163193,
                    -0.3871254622936249
                ]
            ]
        },
        {
            "type": "dense",
            "activation": "relu",
            "shape": [
                null,
                9
            ],
            "weights": [
                [
                    [
                        -0.04297682270407677,
                        -0.6482418775558472,
                        1.3559218645095825,
                        -0.4434034526348114,
                        -0.3257176876068115,
                        -0.4216883182525635,
                        0.722983181476593,
                        0.45853328704833984,
                        0.14049144089221954
                    ],
                    [
                        -0.003540730569511652,
                        -0.3473523259162903,
                        -0.9025688767433167,
                        1.432221531867981,
                        -0.1551603078842163,
                        1.4434614181518555,
                        0.5268749594688416,
                        1.0640205144882202,
                        -0.2685605585575104
                    ],
                    [
                        0.15864557027816772,
                        -0.8113257884979248,
                        -0.32214295864105225,
                        0.3586824834346771,
                        -0.48459556698799133,
                        0.006824376992881298,
                        0.22616833448410034,
                        0.6758146286010742,
                        0.42823538184165955
                    ],
                    [
                        0.9720195531845093,
                        0.6892061829566956,
                        -0.42976465821266174,
                        -0.04018086567521095,
                        0.10723909735679626,
                        0.18589842319488525,
                        -0.8226861953735352,
                        -0.6324743628501892,
                        0.037335462868213654
                    ],
                    [
                        -0.6082295179367065,
                        -0.524543821811676,
                        1.5531585216522217,
                        -0.36095166206359863,
                        1.7085862159729004,
                        1.7932991981506348,
                        -0.36004385352134705,
                        -0.2570652365684509,
                        -0.04611531272530556
                    ],
                    [
                        -0.0398993045091629,
                        0.16656368970870972,
                        0.35326096415519714,
                        0.08183671534061432,
                        0.15792237222194672,
                        0.30182281136512756,
                        0.1357979029417038,
                        -0.2777462303638458,
                        0.05033141374588013
                    ],
                    [
                        0.09041770547628403,
                        0.025527242571115494,
                        0.29184603691101074,
                        -0.21476148068904877,
                        0.22458158433437347,
                        -0.08558143675327301,
                        -0.05934188887476921,
                        -0.02933472953736782,
                        0.1879405677318573
                    ]
                ],
                [
                    0.676537275314331,
                    0.6221321225166321,
                    0.8031232953071594,
                    -0.9274692535400391,
                    0.5300973653793335,
                    0.1485435664653778,
                    0.2799570858478546,
                    -0.33077701926231384,
                    0.5356665253639221
                ]
            ]
        },
        {
            "type": "dense",
            "activation": "sigmoid",
            "shape": [
                null,
                10
            ],
            "weights": [
                [
                    [
                        0.5084945559501648,
                        0.36077219247817993,
                        0.0734953060746193,
                        -0.3834106922149658,
                        0.779905378818512,
                        0.48515403270721436,
                        0.025654783472418785,
                        0.1351516842842102,
                        -0.20647375285625458,
                        0.5497643351554871
                    ],
                    [
                        -0.617407500743866,
                        -0.7079675197601318,
                        0.5275429487228394,
                        0.166390061378479,
                        0.11164329200983047,
                        -0.8964262008666992,
                        1.1101495027542114,
                        0.4518967866897583,
                        0.5675141215324402,
                        -0.19299980998039246
                    ],
                    [
                        -0.25518450140953064,
                        0.7521106600761414,
                        -0.43813276290893555,
                        -0.5942475199699402,
                        -1.4519835710525513,
                        0.5500876307487488,
                        -0.07027893513441086,
                        0.18891087174415588,
                        -0.6519253849983215,
                        0.5980846881866455
                    ],
                    [
                        -0.14115816354751587,
                        0.948229968547821,
                        -0.9421764612197876,
                        -0.6585500240325928,
                        1.7891836166381836,
                        -0.5050715804100037,
                        -0.35108819603919983,
                        -0.9185621738433838,
                        -1.6990190744400024,
                        1.7333943843841553
                    ],
                    [
                        -0.44013434648513794,
                        -0.1978628933429718,
                        0.3637511134147644,
                        0.29981109499931335,
                        -0.44973742961883545,
                        -0.7513763904571533,
                        0.6523012518882751,
                        0.3087634742259979,
                        0.1268070638179779,
                        -0.5256379246711731
                    ],
                    [
                        0.1953350454568863,
                        -0.5918809771537781,
                        0.22868728637695312,
                        0.24334333837032318,
                        0.710412323474884,
                        0.14615438878536224,
                        -0.09428870677947998,
                        0.3221263289451599,
                        0.5013231635093689,
                        -0.2534904479980469
                    ],
                    [
                        0.7578868865966797,
                        -0.07005035132169724,
                        -0.31917518377304077,
                        -0.36946478486061096,
                        -1.0291821956634521,
                        -0.3650389313697815,
                        -0.16757632791996002,
                        -0.36064502596855164,
                        -0.03531625494360924,
                        -0.38410741090774536
                    ],
                    [
                        -0.6542102098464966,
                        -0.7857449054718018,
                        0.9420213103294373,
                        0.7844714522361755,
                        0.012883089482784271,
                        -0.3382062017917633,
                        0.5343778729438782,
                        0.3783479630947113,
                        0.9283796548843384,
                        -0.9000287055969238
                    ],
                    [
                        -0.018670402467250824,
                        0.07161859422922134,
                        -0.4458897113800049,
                        -0.6317222118377686,
                        0.09174352884292603,
                        0.2497795969247818,
                        -1.0865304470062256,
                        0.13340160250663757,
                        0.11509735137224197,
                        0.42017218470573425
                    ]
                ],
                [
                    -0.342032253742218,
                    0.11995973438024521,
                    -0.268624484539032,
                    -0.2921939790248871,
                    0.5302181243896484,
                    0.14729590713977814,
                    0.5514151453971863,
                    0.09811270236968994,
                    0.04675018787384033,
                    0.244932159781456
                ]
            ]
        }
    ]
}