{
    "in_shape": [
        null,
        2
    ],
    "layers": [
        {
            "type": "dense",
            "activation": "relu",
            "shape": [
                null,
                5
            ],
            "weights": [
                [
                    [
                        0.8358199596405029,
                        1.2248108386993408,
                        0.7094864845275879,
                        0.8108837604522705,
                        0.2584540843963623
                    ],
                    [
                        1.1817970275878906,
                        0.5386029481887817,
                        0.9363640546798706,
                        0.9815578460693359,
                        -1.0931615829467773
                    ]
                ],
                [
                    2.9951779652037658e-06,
                    -0.5386017560958862,
                    -0.0654081404209137,
                    1.7809396695156465e-06,
                    0.8347091674804688
                ]
            ]
        },
        {
            "type": "dense",
            "activation": "relu",
            "shape": [
                null,
                20
            ],
            "weights": [
                [
                    [
                        0.697685182094574,
                        -0.05597841367125511,
                        -0.021042145788669586,
                        0.2766049802303314,
                        0.5677365660667419,
                        -0.746807873249054,
                        -0.33118098974227905,
                        -0.28500550985336304,
                        1.3827861547470093,
                        -0.27890312671661377,
                        -0.3071792423725128,
                        0.10651873797178268,
                        0.4076043665409088,
                        -0.010398593731224537,
                        -0.11784130334854126,
                        0.4146158993244171,
                        0.7464199066162109,
                        -0.5313069224357605,
                        0.292268842458725,
                        -0.3301267623901367
                    ],
                    [
                        0.7903860211372375,
                        -0.06827370822429657,
                        -0.14154969155788422,
                        1.1621320247650146,
                        0.6302467584609985,
                        -0.7496671080589294,
                        0.300594300031662,
                        1.643345832824707,
                        -0.957137405872345,
                        -0.1852598339319229,
                        0.9779685139656067,
                        0.08720187842845917,
                        0.753972053527832,
                        -0.29464563727378845,
                        0.38526567816734314,
                        -0.3326687216758728,
                        -1.2387248277664185,
                        -0.8532531261444092,
                        1.3490347862243652,
                        -0.022396430373191833
                    ],
                    [
                        0.7669460773468018,
                        -0.048511479049921036,
                        -0.3017086684703827,
                        0.6603308320045471,
                        0.7344850897789001,
                        -0.3798719048500061,
                        -0.0008499001269228756,
                        -0.23174817860126495,
                        0.691291868686676,
                        0.36170539259910583,
                        -0.3580287992954254,
                        -0.3965589702129364,
                        0.4507337212562561,
                        0.24754692614078522,
                        0.045971695333719254,
                        -0.025659926235675812,
                        0.3056601583957672,
                        -0.43635106086730957,
                        0.24700136482715607,
                        0.24064403772354126
                    ],
                    [
                        0.17696185410022736,
                        -0.12962549924850464,
                        0.10061704367399216,
                        0.4226726293563843,
                        -0.06358745694160461,
                        -0.5160874128341675,
                        -0.3019542992115021,
                        0.43312254548072815,
                        0.9560660123825073,
                        -0.344209760427475,
                        0.04000673070549965,
                        -0.4430171251296997,
                        0.2559543251991272,
                        -0.21658557653427124,
                        -0.2129170447587967,
                        -0.39026814699172974,
                        0.8030409216880798,
                        -0.4795934855937958,
                        0.1364659070968628,
                        -0.2951093912124634
                    ],
                    [
                        -1.0415172576904297,
                        0.26690858602523804,
                        -0.3842228949069977,
                        -0.8536816835403442,
                        -0.9419383406639099,
                        0.7182523012161255,
                        -0.2961618900299072,
                        0.8639572262763977,
                        0.42022138833999634,
                        0.1562063843011856,
                        0.9319199323654175,
                        0.070186547935009,
                        -0.8144025802612305,
                        0.016141850501298904,
                        -0.1285061538219452,
                        -0.08108122646808624,
                        -0.31965023279190063,
                        0.576146125793457,
                        0.7708467841148376,
                        0.1758972406387329
                    ]
                ],
                [
                    -0.6244133710861206,
                    -0.2895117998123169,
                    -0.09307968616485596,
                    -0.8634899258613586,
                    -0.2988310754299164,
                    1.0165995359420776,
                    -0.19878046214580536,
                    0.4209056794643402,
                    0.6945887207984924,
                    -0.14326979219913483,
                    0.7037903070449829,
                    -0.07389573007822037,
                    -0.46565553545951843,
                    -0.023857342079281807,
                    -0.27514368295669556,
                    -0.16390842199325562,
                    0.26683369278907776,
                    1.0696953535079956,
                    0.5857920050621033,
                    -0.20521771907806396
                ]
            ]
        },
        {
            "type": "dense",
            "activation": "sigmoid",
            "shape": [
                null,
                13
            ],
            "weights": [
                [
                    [
                        0.4502190351486206,
                        0.2352817803621292,
                        0.38964274525642395,
                        0.19496864080429077,
                        0.46466365456581116,
                        0.2380571961402893,
                        0.48455363512039185,
                        0.523788332939148,
                        0.5709598660469055,
                        0.3338942229747772,
                        0.6673227548599243,
                        0.6604388356208801,
                        1.0155107975006104
                    ],
                    [
                        -0.18216949701309204,
                        -0.12979546189308167,
                        0.19898077845573425,
                        0.10408725589513779,
                        0.0699901208281517,
                        -0.19596029818058014,
                        0.021249981597065926,
                        0.010207118466496468,
                        0.10526417195796967,
                        -0.057126834988594055,
                        0.06021781265735626,
                        -0.19834186136722565,
                        -0.1998739093542099
                    ],
                    [
                        0.13674521446228027,
                        -0.1541931927204132,
                        -0.019171399995684624,
                        0.10646987706422806,
                        0.21323899924755096,
                        0.11801056563854218,
                        -0.05474304035305977,
                        0.02391641028225422,
                        -0.021208425983786583,
                        -0.20234154164791107,
                        0.12480294704437256,
                        0.04631646350026131,
                        0.2049926072359085
                    ],
                    [
                        0.07847268879413605,
                        0.12744414806365967,
                        0.2481844425201416,
                        0.4534892141819,
                        0.2988600432872772,
                        0.3102288544178009,
                        0.35474035143852234,
                        0.5378856062889099,
                        0.6442554593086243,
                        0.5946234464645386,
                        0.7603433132171631,
                        0.5663707256317139,
                        0.9238594174385071
                    ],
                    [
                        0.21258321404457092,
                        0.41532906889915466,
                        0.2764122188091278,
                        0.2974202632904053,
                        0.5549400448799133,
                        0.594641387462616,
                        0.6365947127342224,
                        0.3832959830760956,
                        0.4510369896888733,
                        0.45830512046813965,
                        0.34660908579826355,
                        0.5063753128051758,
                        0.91544109582901
                    ],
                    [
                        -0.050432365387678146,
                        -0.1688370704650879,
                        -0.006243972107768059,
                        0.2250974327325821,
                        -0.04994454234838486,
                        0.1863817721605301,
                        0.2665046751499176,
                        0.1941375434398651,
                        0.438277930021286,
                        0.46303871273994446,
                        0.46931710839271545,
                        0.8612957000732422,
                        1.447681188583374
                    ],
                    [
                        0.07030732184648514,
                        0.12770909070968628,
                        0.11706992983818054,
                        0.19359247386455536,
                        -0.01831723563373089,
                        -0.13260403275489807,
                        0.0662318617105484,
                        0.04915207624435425,
                        0.059331901371479034,
                        0.08961339294910431,
                        0.14487014710903168,
                        0.18941569328308105,
                        -0.16267825663089752
                    ],
                    [
                        -0.3765009045600891,
                        -0.654082715511322,
                        -0.3848437964916229,
                        -0.11570903658866882,
                        -0.23214983940124512,
                        -0.19892771542072296,
                        -0.3641793131828308,
                        -0.12296067923307419,
                        -0.09470969438552856,
                        0.04913552105426788,
                        0.005162741523236036,
                        -0.008785998448729515,
                        0.15244761109352112
                    ],
                    [
                        0.3186529576778412,
                        0.2396513670682907,
                        -0.07133154571056366,
                        -0.07491367310285568,
                        -0.04078255966305733,
                        -0.26696664094924927,
                        -0.3730617165565491,
                        -0.3656722605228424,
                        -0.4931304156780243,
                        -0.5183327794075012,
                        -0.693062961101532,
                        -0.6299815773963928,
                        -1.4352303743362427
                    ],
                    [
                        0.08065628260374069,
                        -0.18397800624370575,
                        -0.21007592976093292,
                        -0.017279544845223427,
                        -0.0936465933918953,
                        0.037628211081027985,
                        -0.0762992724776268,
                        0.18170951306819916,
                        0.1312871128320694,
                        0.1345449835062027,
                        -0.07670741528272629,
                        -0.14000451564788818,
                        0.025242194533348083
                    ],
                    [
                        -0.5424860119819641,
                        -0.4689166247844696,
                        -0.525283932685852,
                        -0.5555890798568726,
                        -0.3477255702018738,
                        -0.3415473699569702,
                        -0.08948551118373871,
                        -0.25952574610710144,
                        -0.07580216228961945,
                        -0.40350180864334106,
                        -0.1233055517077446,
                        -0.27595698833465576,
                        0.9391750693321228
                    ],
                    [
                        -0.09623498469591141,
                        0.021000482141971588,
                        0.07949511706829071,
                        -0.11357071995735168,
                        -0.13954494893550873,
                        0.2123323380947113,
                        -0.18414758145809174,
                        0.12983298301696777,
                        -0.2217758148908615,
                        0.1437922865152359,
                        0.08640590310096741,
                        -0.0037518064491450787,
                        0.1036033183336258
                    ],
                    [
                        0.21661336719989777,
                        0.4583534896373749,
                        0.40920960903167725,
                        0.454603374004364,
                        0.42857301235198975,
                        0.6106839179992676,
                        0.4933086633682251,
                        0.721190869808197,
                        0.5695692300796509,
                        0.9222067594528198,
                        0.8404431343078613,
                        0.8773981928825378,
                        1.29978346824646
                    ],
                    [
                        0.09937357902526855,
                        -0.11996820569038391,
                        0.0074255201034247875,
                        -0.184456467628479,
                        0.17542818188667297,
                        -0.13963961601257324,
                        -0.10507480800151825,
                        0.01145096868276596,
                        -0.05199052393436432,
                        0.1611132025718689,
                        0.1193821132183075,
                        -0.07127835601568222,
                        -0.1596483290195465
                    ],
                    [
                        -0.08572635799646378,
                        -0.09296135604381561,
                        0.17198076844215393,
                        -0.10519704967737198,
                        0.13907533884048462,
                        -0.19249878823757172,
                        0.10533270239830017,
                        -0.16115912795066833,
                        0.21678021550178528,
                        -0.10341904312372208,
                        -0.14728432893753052,
                        0.1170494332909584,
                        0.0760013684630394
                    ],
                    [
                        -0.13404996693134308,
                        0.031180305406451225,
                        0.031285837292671204,
                        -0.016009943559765816,
                        0.07861997187137604,
                        -0.11329037696123123,
                        0.048056330531835556,
                        -0.2081242948770523,
                        -0.1463993787765503,
                        -0.0991983562707901,
                        -0.1834733486175537,
                        -0.06714186817407608,
                        -0.20556843280792236
                    ],
                    [
                        0.7007105946540833,
                        0.36204659938812256,
                        0.5257657766342163,
                        0.5191884636878967,
                        0.0006170005071908236,
                        0.31710124015808105,
                        0.1910160779953003,
                        -0.04282550513744354,
                        0.08439680933952332,
                        -0.08573903888463974,
                        -0.35535943508148193,
                        -0.852697491645813,
                        -1.4168691635131836
                    ],
                    [
                        -0.29059115052223206,
                        0.04054852947592735,
                        -0.05935116484761238,
                        -0.18272291123867035,
                        -0.006567510310560465,
                        0.10605771839618683,
                        0.005467431154102087,
                        0.24629297852516174,
                        0.23068702220916748,
                        0.6305255889892578,
                        0.6330700516700745,
                        0.6592648029327393,
                        1.1306020021438599
                    ],
                    [
                        -0.7166486382484436,
                        -0.38978511095046997,
                        -0.30553942918777466,
                        -0.4619307518005371,
                        -0.5708917379379272,
                        -0.3001120686531067,
                        -0.21592235565185547,
                        -0.35011211037635803,
                        -0.3155531585216522,
                        -0.027181530371308327,
                        -0.15362264215946198,
                        0.18559890985488892,
                        -0.35824212431907654
                    ],
                    [
                        -0.22308844327926636,
                        -0.07353893667459488,
                        -0.017381129786372185,
                        -0.14143253862857819,
                        0.09466329216957092,
                        -0.20239192247390747,
                        0.025211891159415245,
                        -0.12121377140283585,
                        -0.07089801877737045,
                        0.06805561482906342,
                        0.16971391439437866,
                        0.12707467377185822,
                        0.02437649294734001
                    ]
                ],
                [
                    -0.2784067690372467,
                    -0.267116516828537,
                    -0.2582285404205322,
                    -0.3986498713493347,
                    -0.021997736766934395,
                    -0.41352495551109314,
                    -0.36509254574775696,
                    -0.1396777182817459,
                    -0.3669576346874237,
                    -0.7487027645111084,
                    -0.17597144842147827,
                    -0.49647530913352966,
                    0.9561523795127869
                ]
            ]
        }
    ]
}