{"model_data": {"model": "SimpleRNN", "input_size": 1, "skip": "0", "output_size": 1, "unit_type": "GRU", "num_layers": 1, "hidden_size": 40, "bias_fl": true}, "state_dict": {"rec.weight_ih_l0": [[-0.02159697748720646], [-0.878915011882782], [0.04526553303003311], [-0.420211523771286], [0.1913946568965912], [0.1739179641008377], [-0.38370656967163086], [0.5412484407424927], [-0.16547586023807526], [-0.5571913123130798], [-0.18873602151870728], [-0.4127074182033539], [0.16897831857204437], [0.06759607791900635], [0.07297004014253616], [-0.07360111176967621], [0.00949128158390522], [0.045791368931531906], [-0.1395532339811325], [-1.038862705230713], [1.5387771129608154], [-0.37842246890068054], [-0.46254250407218933], [0.3602215051651001], [-0.4803098440170288], [-0.1514837145805359], [-1.2374361753463745], [0.415445476770401], [0.05991954356431961], [-0.1720331609249115], [0.6899240016937256], [-0.2345130890607834], [0.19044077396392822], [-0.900252640247345], [0.2041570246219635], [0.41260436177253723], [-0.2906903326511383], [0.13461875915527344], [0.3276984989643097], [-1.487267017364502], [-0.061570778489112854], [-0.15731550753116608], [0.3549604117870331], [0.0107168173417449], [0.12013005465269089], [-0.03194652497768402], [0.4498216509819031], [0.022821391001343727], [0.3131418824195862], [-0.5284982323646545], [0.1425769180059433], [0.27621808648109436], [-0.48295366764068604], [-0.016489410772919655], [0.0707492083311081], [0.023740064352750778], [0.05602851137518883], [0.1574193686246872], [0.3790709376335144], [1.2407143115997314], [-0.09685612469911575], [0.25894320011138916], [-0.0693947896361351], [-0.36153092980384827], [0.12426263093948364], [-0.04122861474752426], [1.5888336896896362], [-1.4587925672531128], [0.0023106143344193697], [0.28703072667121887], [0.2439567744731903], [0.5293945074081421], [0.18053297698497772], [-0.8985788226127625], [0.08210966736078262], [3.048098564147949], [0.22613702714443207], [-0.07474157214164734], [0.2943723499774933], [1.5272668600082397], [0.07267829030752182], [0.4807863235473633], [-0.41644126176834106], [0.4065200984477997], [0.4829908013343811], [0.12933804094791412], [-0.5890222191810608], [-0.25695669651031494], [-0.39558085799217224], [-0.46065980195999146], [-0.5762552618980408], [-0.022626221179962158], [0.2802762985229492], [-0.04882032796740532], [-0.1855635941028595], [-0.12366482615470886], [-0.019428716972470284], [0.20649179816246033], [0.3258779048919678], [0.5342799425125122], [0.6208949685096741], [0.5841999053955078], [0.5091987252235413], [-0.1224837601184845], [-0.3741835355758667], [-0.05279972404241562], [0.507409393787384], [-0.06617777794599533], [-0.01913408748805523], [-0.6312516927719116], [-0.504187822341919], [0.48966068029403687], [0.5067228674888611], [-0.30259063839912415], [0.21026715636253357], [0.7517545819282532], [0.32936322689056396], [-0.06670478731393814], [-0.4960149824619293], [0.43650463223457336]], "rec.weight_hh_l0": [[-0.0016229544999077916, 0.05772022902965546, 0.007493672426789999, 0.02145298756659031, -0.014973936602473259, 0.009533737786114216, 0.02302018739283085, 0.048951562494039536, 0.011556106619536877, -0.10280020534992218, -0.010328514501452446, -0.01736760511994362, 0.00025643158005550504, 0.036312296986579895, -0.0074293422512710094, -0.028904369100928307, -0.005743610206991434, 0.015970787033438683, -0.01024496741592884, 0.1535869836807251, -0.02413705550134182, 0.03821391239762306, 0.0652666836977005, -0.013350465334951878, -0.06444229185581207, -0.0012596140149980783, -0.017979316413402557, 0.03834381699562073, 0.005780394654721022, -0.01915265992283821, 0.01708519645035267, -0.009356572292745113, -0.010365412570536137, -0.17380580306053162, 0.007642599754035473, -0.017621848732233047, 0.03495122119784355, 0.018081001937389374, 0.006776965223252773, 0.03238198533654213], [0.029657339677214622, -0.2795255184173584, 0.330974817276001, -0.16804783046245575, -0.37588149309158325, -0.10667956620454788, 0.39603176712989807, 0.21112416684627533, 0.22124888002872467, 0.2461930364370346, 0.1932877004146576, 0.009177128784358501, 0.0156308151781559, 0.05955608934164047, -0.00018239040218759328, 0.089398592710495, 0.10192685574293137, -0.10929712653160095, -0.15538150072097778, -0.1150464341044426, -0.4631185531616211, -0.0764494314789772, -0.1190323680639267, 0.04469959810376167, 0.0921122133731842, -0.0030177372973412275, 0.21605637669563293, 0.13672856986522675, -0.09843482822179794, 0.34202712774276733, 0.4128865897655487, -0.34930306673049927, -0.3069070875644684, 0.20681922137737274, -0.15833507478237152, -0.08370310813188553, -0.01118425652384758, 0.05731310695409775, 0.29838696122169495, -0.06614863872528076], [-0.012996895238757133, -0.002499848837032914, 0.0008345461683347821, -0.04750851169228554, -0.002622909378260374, -0.010098128579556942, 0.1070767343044281, 0.01729823835194111, 0.0008127980399876833, 0.03194160386919975, -0.014588527381420135, -0.007910835556685925, -0.05590873956680298, 0.0314771868288517, 0.03168731555342674, -0.02625451609492302, 0.01950974576175213, -0.08742939680814743, -0.034859880805015564, -0.07225431501865387, 0.01281071174889803, -0.054157555103302, -0.01433627214282751, -0.08955153822898865, 0.021487964317202568, -0.027633724734187126, 0.00658135861158371, 0.07121727615594864, -0.03620725870132446, -0.0059962524101138115, 0.030293092131614685, -0.003908390179276466, -0.03540102764964104, 0.10692694783210754, -0.02395988069474697, -0.244051992893219, -0.040503378957509995, 0.011000475846230984, 0.11291787773370743, 0.02658582106232643], [-0.05089891701936722, -0.1456325352191925, -0.02957451529800892, -0.06386008858680725, 0.0034972799476236105, 0.013158677145838737, 0.18343114852905273, 0.055274222046136856, 0.011139008216559887, 0.14243504405021667, -0.045652877539396286, 0.09027843922376633, -0.1321483701467514, 0.016804810613393784, -0.010674729943275452, -0.01896885596215725, -0.10607019811868668, -0.019564559683203697, 0.061393145471811295, 0.11012584716081619, 0.0330696627497673, -0.13654237985610962, -0.11328523606061935, 0.027461064979434013, 0.014681131578981876, 0.10199612379074097, 0.12089462578296661, 0.15980753302574158, 0.05412572622299194, 0.03291359171271324, 0.06175415962934494, 0.09664595127105713, -0.0506945475935936, -0.11767615377902985, 0.02327362634241581, -0.07010962814092636, -0.07926058024168015, 0.02611641027033329, 0.13259758055210114, 0.25021296739578247], [0.016856910660862923, 0.18919293582439423, -0.12492584437131882, 0.3709675371646881, 0.051013682037591934, 0.04375802353024483, -0.20353007316589355, 0.1874251812696457, -0.03153945878148079, -0.11766830831766129, -0.32773327827453613, 0.19962140917778015, -0.5058208703994751, -0.036229394376277924, -0.01662634126842022, 0.03107881173491478, -0.17142684757709503, 0.01909005641937256, 0.07283717393875122, 0.8950789570808411, 0.12970447540283203, 0.1526789367198944, 0.29301178455352783, 0.21609556674957275, -0.22454775869846344, 0.11958205699920654, 0.14368802309036255, 0.5844240188598633, 0.06871898472309113, -0.20901358127593994, -0.06167387589812279, 0.0966849997639656, 0.16537266969680786, -0.8407502174377441, 0.18623362481594086, 0.34490519762039185, 0.06970469653606415, 0.005998964421451092, -0.24866348505020142, 0.3475745618343353], [-0.020100196823477745, 0.0086255744099617, -0.0509665422141552, 0.048638902604579926, -0.043281443417072296, 0.01466168463230133, 0.05405282601714134, 0.06361418962478638, -0.031398236751556396, 0.07959447056055069, -0.09592811018228531, 0.08473954349756241, -0.08527859300374985, 0.003365491284057498, 0.018983284011483192, -0.03535210341215134, -0.06382317841053009, 0.004209046717733145, 0.05637744441628456, 0.009637321345508099, -0.0911918431520462, 0.005003026220947504, 0.016867611557245255, -0.0004068239650223404, -0.0316864475607872, 0.11492745578289032, 0.047317177057266235, 0.025745699182152748, 0.04202237352728844, -0.04877466708421707, 0.03283548727631569, 0.12045107781887054, -0.007423131726682186, -0.15697264671325684, 0.05288301035761833, -0.13686080276966095, -0.006698064040392637, 0.031106699258089066, 0.013720829039812088, 0.08362706750631332], [0.00753108412027359, -0.3394324481487274, 0.022882981225848198, -0.09931772202253342, -0.2296256273984909, -0.099737748503685, 0.28242170810699463, 0.34214475750923157, 0.2740700840950012, 0.3578723967075348, -0.015165201388299465, -0.022088272497057915, -0.8426053524017334, -0.07123897224664688, -0.03427448496222496, 0.1938236504793167, -0.09658697992563248, -0.03431709483265877, -0.14273180067539215, 0.8829671740531921, -0.35983768105506897, -0.18727298080921173, -0.1139104962348938, 0.043144188821315765, -0.0837663784623146, 0.13024111092090607, 0.4730161130428314, 0.6369403004646301, 0.011029026471078396, 0.10350923985242844, 0.3512476086616516, -0.06063413619995117, -0.019448399543762207, -0.9146186709403992, -0.05720333382487297, 0.685569703578949, -0.07851510494947433, -0.048156607896089554, 0.24008707702159882, 0.39802610874176025], [-0.059794433414936066, 0.0814620777964592, -0.05017874762415886, 0.3274533450603485, 0.29823043942451477, 0.15430232882499695, -0.42033737897872925, -0.013755741529166698, -0.09819180518388748, 0.04858078435063362, -0.42856675386428833, 0.4842558205127716, -0.2291797250509262, -0.03273198753595352, -0.06409718841314316, -0.09720876812934875, -0.25948089361190796, 0.10027265548706055, 0.15447953343391418, 0.7887442708015442, 0.3790532648563385, 0.1764269471168518, 0.30520036816596985, 0.14517942070960999, -0.2878415584564209, 0.21141083538532257, 0.03260507062077522, 0.12449265271425247, 0.1809995025396347, -0.21397918462753296, -0.06484188139438629, 0.10847968608140945, 0.07402337342500687, -0.2880367338657379, 0.3329581022262573, 0.3830261826515198, 0.021759619936347008, 0.08253467828035355, -0.4173484742641449, 0.3254257142543793], [0.027745813131332397, 0.061408963054418564, 0.01706094853579998, 0.046610139310359955, -0.053123075515031815, -0.033414848148822784, -0.07356936484575272, 0.13747069239616394, 0.03008173033595085, 0.01364792138338089, -0.07719919830560684, 0.032885149121284485, -0.43780872225761414, -0.021835725754499435, 0.01712397299706936, 0.053930193185806274, -0.039925266057252884, -0.02303645946085453, -0.02386646531522274, 0.2550842761993408, -0.0698208138346672, -0.010828707367181778, 0.02779819443821907, 0.1501949280500412, -0.03536610305309296, 0.02375076897442341, 0.06674730032682419, 0.2508954107761383, -0.017085865139961243, 0.012827374041080475, 0.08942658454179764, -0.04283478111028671, -0.01954401656985283, -0.45851001143455505, 0.0246436670422554, -0.028584294021129608, 0.018589550629258156, -0.015215414576232433, 0.006396824028342962, 0.11799414455890656], [0.014122100546956062, -0.09593779593706131, 0.24354441463947296, 0.05522659420967102, -0.5124308466911316, 0.03295747935771942, 0.5890514254570007, 0.39168038964271545, 0.15107719600200653, 0.1373155117034912, 0.08896525204181671, 0.23314963281154633, -0.0663299411535263, 0.1387249082326889, 0.024982687085866928, 0.018427539616823196, -0.16450972855091095, -0.002217639470472932, -0.03652861341834068, 0.22114740312099457, -0.6576511263847351, 0.0210308525711298, 0.013506433926522732, 0.04280005022883415, -0.07357677072286606, 0.34867650270462036, 0.16682244837284088, 0.2324923723936081, 0.10693345218896866, 0.19443672895431519, 0.49078208208084106, -0.28017839789390564, -0.24961386620998383, -0.2446245700120926, 0.052794571965932846, -0.6125720739364624, 0.02573232352733612, 0.16422806680202484, 0.43199312686920166, 0.0361882746219635], [0.0038565483409911394, 0.03503384813666344, 0.08874299377202988, -0.07434257119894028, 0.03144272044301033, -0.1059599369764328, -0.007671333383768797, -0.010763846337795258, 0.008681060746312141, 0.07406079769134521, 0.004733066540211439, -0.13267755508422852, -0.12356729060411453, 0.12397640198469162, 0.009354294277727604, 0.003040209412574768, 0.10538305342197418, -0.024168888106942177, -0.06691203266382217, -0.3836227059364319, -0.017525147646665573, 0.031215911731123924, -0.005672010127454996, -0.03917625918984413, 0.00716388039290905, -0.2262704223394394, -0.0698385015130043, 0.029754644259810448, -0.10535921156406403, 0.11755771189928055, 0.06894825398921967, 0.020988330245018005, -0.10346326231956482, 0.16750819981098175, -0.15279017388820648, -0.19652140140533447, 0.0456279031932354, 0.0534786581993103, 0.10972274839878082, -0.16732971370220184], [0.06355700641870499, 0.22574011981487274, 0.09034467488527298, 0.0615086704492569, -0.23419789969921112, 0.07508379966020584, 0.06011281535029411, 0.1678331047296524, 0.06349052488803864, -0.1024249941110611, 0.157554492354393, 0.16482481360435486, 0.16468504071235657, 0.06325028836727142, 0.03769024461507797, 0.036238040775060654, -0.23958413302898407, 0.06312205642461777, 0.06984955817461014, 0.32033857703208923, -0.4104289412498474, -0.06025496870279312, 0.005412402097135782, 0.039140403270721436, 0.02912660501897335, 0.2970885634422302, 0.22458629310131073, -0.12159697711467743, 0.11476682126522064, 0.118846096098423, 0.29567164182662964, -0.08370665460824966, -0.1517251431941986, -0.6542700529098511, 0.2117430567741394, -0.1401841938495636, 0.007260043639689684, 0.05881672725081444, 0.2634322941303253, 0.11187108606100082], [0.10103127360343933, -0.13371160626411438, -0.1314729005098343, 0.05672410875558853, 0.4703497588634491, 0.06146889925003052, -0.7986658811569214, -0.2640966773033142, -0.0975768193602562, 0.18127469718456268, -0.19328193366527557, 0.16370508074760437, 0.27158281207084656, -0.08657166361808777, 0.048122335225343704, 0.06291324645280838, 0.12537819147109985, 0.13049331307411194, 0.10397826880216599, 0.11658458411693573, 0.5651013851165771, 0.1995852142572403, 0.22849293053150177, -0.016220564022660255, -0.03143901005387306, -0.45390641689300537, 0.07898315787315369, -0.018290750682353973, -0.030204737558960915, -0.04061203822493553, -0.3238048553466797, 0.09074727445840836, 0.11596079170703888, 0.48742756247520447, 0.03458016738295555, 0.5509557723999023, -0.02882554568350315, -0.08517216145992279, -0.46343424916267395, 0.07734014093875885], [0.004029890522360802, 0.03210308030247688, -0.010549504309892654, -0.011587921530008316, -0.029596462845802307, 0.009132825769484043, 0.05560443922877312, 0.02355152927339077, 0.012813147157430649, -0.06319506466388702, -0.036303237080574036, -0.037030041217803955, 0.017604321241378784, 0.030618635937571526, 0.0025177577044814825, -0.015107779763638973, 0.0007563213002867997, 0.004412329755723476, -0.026666387915611267, 0.11615163832902908, -0.03682469576597214, -0.001265987171791494, 0.04080000892281532, -0.05984418839216232, -0.037326350808143616, -0.0264360960572958, 0.08205688744783401, 0.05810370296239853, 0.0013729644706472754, -0.007911314256489277, -0.005557389464229345, -0.0023991880007088184, 0.013025700114667416, 0.012623191811144352, -0.018317854031920433, -0.008135219104588032, 0.015006577596068382, -0.009520938619971275, 0.05119134485721588, 0.05491454899311066], [-0.016406841576099396, 0.018553290516138077, 0.0368490107357502, 0.028032274916768074, -0.04617975652217865, 0.03431757539510727, -0.006238349247723818, 0.04781410098075867, 0.014113065786659718, 0.0057766977697610855, -0.0379030667245388, 0.034288983792066574, -0.0869416669011116, 0.01630234718322754, -0.00705182459205389, -0.017728013917803764, -0.05837000161409378, 0.03954430669546127, 0.015662169083952904, 0.14809758961200714, -0.04619881510734558, 0.004428411368280649, 0.03984690085053444, 0.008297366090118885, -0.03830893337726593, 0.06151615083217621, 0.027460014447569847, 0.08895307034254074, 0.03917534276843071, 0.015992898494005203, 0.055020540952682495, -0.009903745725750923, 0.0010215581860393286, -0.16579534113407135, 0.06320059299468994, 0.06651001423597336, 0.01178608275949955, 0.0167249608784914, 0.015838997438549995, 0.07833927124738693], [0.001146768918260932, 0.016692033037543297, 0.014277146197855473, -0.0028979298658668995, 0.005784619599580765, 0.016411343589425087, -0.05939791351556778, 0.028342515230178833, 0.002837342908605933, 0.006510114762932062, 0.0012127204099670053, -0.0004625879810191691, -0.037004418671131134, 0.011053327471017838, -0.0018930725054815412, -0.0012665217509493232, -0.0368589386343956, 0.0316365621984005, 0.006018105894327164, 0.08096308261156082, 0.0028639098163694143, 0.025368742644786835, 0.027972282841801643, 0.0012795007787644863, -0.022289851680397987, 0.017173821106553078, -0.03862409666180611, 0.05078622326254845, 0.017967725172638893, -0.002245577285066247, 0.022871997207403183, -0.010063922964036465, -0.0014403010718524456, -0.13173002004623413, 0.03894324600696564, 0.06996363401412964, 0.018707167357206345, 0.012279549613595009, -0.005692029371857643, 0.00108395516872406], [-0.057539138942956924, -0.04365972802042961, -0.023285968229174614, 0.10285690426826477, 0.005805362481623888, 0.09099051356315613, 0.10283360630273819, 0.10842730849981308, -0.026292044669389725, 0.1928987056016922, -0.07362924516201019, 0.46529749035835266, -0.00824771262705326, 0.017195189371705055, -0.01780928485095501, -0.07424452900886536, -0.2024606317281723, 0.06806155294179916, 0.089795783162117, 0.1885405033826828, -0.03698400408029556, 0.01972080022096634, 0.031889114528894424, -0.020504869520664215, -0.08663298189640045, 0.27915021777153015, 0.07226966321468353, -0.17996281385421753, 0.11673074960708618, -0.059265170246362686, 0.060145068913698196, 0.10122432559728622, -0.0049146669916808605, -0.3081616461277008, 0.2025742381811142, -0.14753371477127075, -0.029830601066350937, 0.0627937912940979, 0.009042169898748398, 0.12387582659721375], [-0.00862871203571558, -0.06362775713205338, 0.04778756573796272, 0.02001868560910225, 0.04151017591357231, 0.04260004684329033, -0.15841186046600342, 0.018684878945350647, 0.011503941379487514, 0.09307119250297546, -0.05456097424030304, 0.1173105239868164, -0.2200694978237152, 0.04341334477066994, -0.004490678198635578, -0.018110448494553566, -0.06861082464456558, 0.05094904825091362, -0.011380565352737904, 0.17182748019695282, 0.007971527986228466, 0.012830979190766811, 0.02666209079325199, -0.013257314451038837, -0.04705120995640755, 0.03602031245827675, 0.2068084478378296, 0.018008163198828697, 0.02815019153058529, 0.006134238094091415, 0.029869727790355682, -0.08766695857048035, 0.0010077235056087375, -0.12406087666749954, 0.07146070897579193, 0.28797483444213867, 0.024330507963895798, -0.006087241228669882, 0.0450737327337265, 0.1219492182135582], [-0.011106451973319054, -0.11876801401376724, 0.026193248108029366, -0.01418868824839592, -0.0632961317896843, 0.025748923420906067, -0.09845020622015, 0.1514446884393692, 0.06250119209289551, 0.18212303519248962, -0.027659015730023384, 0.14993657171726227, -0.5048760175704956, 0.005319495685398579, 0.04280805215239525, 0.02598978765308857, -0.07606838643550873, -0.00718510989099741, -0.058108970522880554, 0.2421899288892746, -0.10806217789649963, -0.11941167712211609, -0.06292399019002914, 0.04581794887781143, 0.008492431603372097, 0.07593449205160141, 0.207999125123024, 0.2332354336977005, 0.029203498736023903, 0.06321632117033005, 0.1488012671470642, -0.0629039779305458, -0.05616186931729317, -0.32193830609321594, 0.06809022277593613, -0.1542816311120987, -0.08095812052488327, -0.017637649551033974, 0.16096240282058716, 0.1784253567457199], [-0.32663339376449585, -0.033791571855545044, 0.7010208964347839, -0.16980677843093872, -0.7031096816062927, -0.07019858807325363, 0.5360702872276306, 0.5001291632652283, 0.36468374729156494, 0.4992242753505707, 0.5928452610969543, 0.15931805968284607, -0.479126900434494, 0.14913183450698853, -0.04080682247877121, -0.16171620786190033, -0.07523402571678162, 0.20747104287147522, -0.20089499652385712, -0.16220740973949432, -0.5234007835388184, -0.3558107912540436, -0.43985581398010254, 0.13401852548122406, 0.6211344599723816, 0.6964465379714966, -1.1537460088729858, 0.14974190294742584, 0.006944735534489155, 0.5305348634719849, 0.6348758935928345, -0.7940189838409424, -0.6980419158935547, -0.5558261871337891, 0.04978373646736145, -0.9179514050483704, -0.06369897723197937, 0.28980526328086853, 0.33539533615112305, -1.1580060720443726], [0.08780471235513687, 0.2982856333255768, -0.12893635034561157, 0.40071386098861694, 0.22815634310245514, -0.06778094917535782, -0.5354697108268738, 0.09663568437099457, -0.11761192232370377, -0.3081115782260895, -0.4753875732421875, 0.12667830288410187, -0.2293228954076767, -0.071856290102005, 0.025060050189495087, 0.01721285656094551, -0.061307359486818314, -0.15840670466423035, 0.10244401544332504, 1.0598869323730469, 0.27723267674446106, 0.3704923987388611, 0.49658647179603577, 0.2806939482688904, -0.4795774221420288, 0.022045070305466652, 0.2982466518878937, 0.17116151750087738, 0.03506409749388695, -0.47727692127227783, -0.00494571216404438, 0.23081880807876587, 0.1469961553812027, -0.3730350434780121, 0.10394468903541565, 0.702937662601471, 0.09524718672037125, -0.04851127788424492, -0.40124911069869995, 0.6542633175849915], [0.054463617503643036, -0.06174043193459511, -0.015466269105672836, 0.025776555761694908, -0.17094306647777557, -0.06033368408679962, -0.035469911992549896, 0.21063554286956787, 0.06091936305165291, 0.014580381102859974, -0.0705079510807991, -0.01308691781014204, -0.4882723093032837, -0.018099971115589142, 0.015941526740789413, 0.08914552628993988, -0.058032650500535965, -0.017187345772981644, -0.018224144354462624, 0.2826697826385498, -0.2026035636663437, -0.04553524777293205, 0.014161025173962116, 0.14168761670589447, -0.046633243560791016, 0.07121237367391586, 0.3485313057899475, 0.4424362778663635, -0.0057990956120193005, 0.02567836083471775, 0.22065487504005432, -0.00782667938619852, -0.027433663606643677, -0.46858400106430054, -0.022975219413638115, -0.19947907328605652, 0.00964861549437046, -0.0208694227039814, 0.2268260419368744, 0.26082974672317505], [0.050203219056129456, 0.07175303250551224, 0.13333985209465027, -0.05067924037575722, -0.274379700422287, -0.056443437933921814, 0.30030035972595215, 0.24925541877746582, 0.12429895251989365, -0.04381672665476799, 0.11973311752080917, -0.18873868882656097, -0.294145792722702, 0.024966435506939888, -0.008604315109550953, 0.0862027257680893, 0.03301665559411049, -0.07289613038301468, -0.0760069340467453, -0.019946565851569176, -0.38035646080970764, -0.09845399111509323, -0.10230086743831635, 0.09774444252252579, 0.07376053929328918, -0.02694760635495186, -0.06693067401647568, 0.40485700964927673, -0.04460647329688072, 0.14975406229496002, 0.3026809096336365, -0.18782587349414825, -0.2025643289089203, -0.36212843656539917, -0.0973443016409874, -0.11433760821819305, -0.02432364597916603, 0.010263990610837936, 0.253031849861145, -0.14560021460056305], [-0.03858590126037598, -0.14071860909461975, -0.05057226121425629, -0.1066681370139122, 0.16889558732509613, -0.06820085644721985, 0.007010476663708687, -0.18607859313488007, 0.0008039567619562149, 0.09642843157052994, -0.10908839106559753, -0.048168815672397614, 0.15123316645622253, 0.014699905179440975, 0.01947776973247528, -0.05192496255040169, 0.16819709539413452, -0.08555670827627182, -0.03010638989508152, -0.13156576454639435, 0.3683917820453644, -0.15701442956924438, -0.14516732096672058, -0.02659635618329048, 0.10050249844789505, -0.16417089104652405, 0.03957142308354378, -0.1823408156633377, -0.07993299514055252, 0.028017621487379074, -0.21511825919151306, 0.1714048534631729, 0.0032886683475226164, 0.3027011752128601, -0.15255160629749298, 0.2567402124404907, -0.10620981454849243, 0.015990575775504112, -0.19205360114574432, 0.12602396309375763], [0.005427264608442783, 0.06325623393058777, 0.12173332273960114, -0.09375143051147461, -0.2259446680545807, -0.013364546932280064, 0.20496274530887604, 0.1530788242816925, 0.08589579910039902, -0.0465264730155468, 0.18469291925430298, -0.13336020708084106, -0.22660697996616364, 0.08549298346042633, 0.019945528358221054, 0.022340407595038414, 0.025381553918123245, -0.06006566062569618, -0.07300875335931778, -0.11875990778207779, -0.30319830775260925, -0.10629425942897797, -0.10750482231378555, -0.032851580530405045, 0.07528103142976761, -0.010795686393976212, -0.183585062623024, 0.2665679156780243, -0.014350615441799164, 0.12981289625167847, 0.2368095964193344, -0.2931589186191559, -0.1518768072128296, -0.22683359682559967, -0.06751369684934616, -0.09501772373914719, -0.026904955506324768, 0.026695992797613144, 0.2714170217514038, -0.20697136223316193], [-0.046318769454956055, -0.0007758958381600678, 0.009227686561644077, 0.07723037898540497, -0.10143643617630005, 0.10718204081058502, 0.32763391733169556, 0.193336620926857, 0.024857398122549057, 0.08856914937496185, -0.06107571721076965, 0.4771733283996582, -0.03552837669849396, 0.08745875954627991, -0.034160126000642776, -0.07837282866239548, -0.2768256366252899, 0.048970676958560944, 0.02681860327720642, 0.4151206314563751, -0.29234248399734497, 0.024604432284832, 0.0746254250407219, -0.13272367417812347, -0.11482886970043182, 0.32973718643188477, 0.21828921139240265, 0.030778666958212852, 0.12949557602405548, -0.03741535171866417, 0.18838471174240112, -0.04142281413078308, -0.06526020914316177, -0.7322214245796204, 0.2047629952430725, -0.07710236310958862, -0.012731091119349003, 0.06379977613687515, 0.2538241744041443, 0.22505643963813782], [-0.21986426413059235, 0.12977607548236847, 0.20297826826572418, -0.29687783122062683, -0.2090163677930832, -0.04800604656338692, 0.07911616563796997, 0.007478059735149145, 0.10437260568141937, 0.08952952921390533, 0.3970153033733368, 0.020599275827407837, -0.10769892483949661, 0.30420637130737305, 0.032734401524066925, -0.08616535365581512, 0.10756636410951614, 0.0843028873205185, -0.10489513725042343, -0.6683619618415833, 0.004723100457340479, -0.30136924982070923, -0.5078628063201904, -0.21385033428668976, 0.5082637071609497, 0.1723031997680664, -1.0067355632781982, -0.026650704443454742, -0.10636135935783386, 0.30491897463798523, 0.16375276446342468, -0.4066402316093445, -0.3944122791290283, -0.17177031934261322, -0.2529177963733673, -1.0813250541687012, -0.11602143198251724, 0.12840773165225983, 0.2773147225379944, -0.7475515007972717], [-0.053842756897211075, -0.20580923557281494, -0.19581885635852814, 0.16874992847442627, 0.19191135466098785, 0.12968716025352478, -0.15778806805610657, -0.06878029555082321, -0.030666422098875046, 0.1537468284368515, -0.3865759074687958, 0.0171034075319767, 0.06352319568395615, -0.05577220022678375, 0.022221649065613747, -0.022561242803931236, -0.1479954570531845, 0.058930858969688416, 0.059738196432590485, 0.527744710445404, 0.3694758117198944, 0.16750389337539673, 0.3639104664325714, -0.03963770717382431, -0.2728835940361023, -0.03765716031193733, 0.1723022162914276, 0.056989844888448715, 0.1412460207939148, -0.18244828283786774, -0.1314900666475296, 0.18884439766407013, 0.24664181470870972, -0.027168452739715576, 0.19493088126182556, 0.8338807821273804, 0.010853421874344349, -0.04596877470612526, -0.3797319829463959, 0.24063271284103394], [-0.026980221271514893, 0.04393884167075157, -0.04646412655711174, 0.074226014316082, 0.011526019312441349, 0.03901872783899307, 0.011020117439329624, 0.0763007178902626, -0.023275980725884438, 0.05657472833991051, -0.056179918348789215, 0.17279061675071716, 0.0015344129642471671, 0.009679248556494713, 0.013248037546873093, -0.03916468471288681, -0.08526959270238876, 0.03860614821314812, 0.04372381791472435, 0.042710646986961365, -0.02473079040646553, 0.024083981290459633, 0.042064834386110306, 0.00971928983926773, -0.06024351716041565, 0.14015106856822968, 0.013758058659732342, -0.05651690438389778, 0.058247797191143036, -0.06393411755561829, 0.03301815688610077, 0.09830454736948013, 0.02272927388548851, -0.11615310609340668, 0.09637055546045303, -0.16484077274799347, 0.01876961439847946, 0.03376958519220352, 0.0033805889543145895, 0.055633652955293655], [-0.014971370808780193, -0.05774083361029625, 0.05022045224905014, -0.06906617432832718, -0.11954907327890396, -0.02278701774775982, 0.19855159521102905, 0.11792091280221939, 0.04365123063325882, 0.059534188359975815, 0.017482152208685875, -0.055833492428064346, -0.3353690803050995, 0.024992477148771286, 0.02345046028494835, 0.018597522750496864, -0.008700467646121979, -0.05258312076330185, -0.029238561168313026, 0.1349310725927353, -0.13609077036380768, -0.11075209081172943, -0.07970616966485977, 0.03694088011980057, 0.04252532124519348, 0.022174548357725143, 0.07108870148658752, 0.24719810485839844, -0.030539056286215782, 0.08556308597326279, 0.11234402656555176, -0.05831640586256981, -0.09262196719646454, -0.2583408057689667, -0.04275529086589813, 0.07744871079921722, -0.06016041338443756, 0.013236729428172112, 0.13314656913280487, 0.09288109093904495], [0.001809735200367868, 0.11911779642105103, 0.015019833110272884, 0.26438412070274353, 0.09372226893901825, 0.0319099947810173, -0.4181000292301178, 0.06977195292711258, -0.01003215741366148, -0.040856797248125076, -0.3288337290287018, 0.20228242874145508, -0.21468527615070343, -0.019268862903118134, -0.00220079836435616, 0.020756978541612625, -0.1494593322277069, -0.010571400634944439, 0.03249594196677208, 0.5941728949546814, 0.232426255941391, 0.07099052518606186, 0.2345266342163086, 0.2296151965856552, -0.23684224486351013, 0.13466127216815948, 0.12077540904283524, 0.0642436072230339, 0.024549471214413643, -0.11156974732875824, 0.05261535942554474, 0.12047049403190613, 0.10117044299840927, -0.11544976383447647, 0.160724475979805, 0.41776907444000244, 0.07949113845825195, 0.03645435348153114, -0.3242034614086151, 0.3829724192619324], [-0.06042015179991722, -0.16897979378700256, 0.05385442450642586, -0.23234505951404572, -0.05153657868504524, -0.03577973693609238, 0.3171433210372925, -0.056528717279434204, 0.007767080329358578, 0.07931893318891525, 0.16610731184482574, -0.14578992128372192, 0.07453098893165588, 0.09380186349153519, 0.011272220872342587, -0.05041765794157982, 0.05463675409555435, -0.0722828060388565, -0.08323625475168228, -0.2674389183521271, -0.09360085427761078, -0.1333848536014557, -0.09727498143911362, -0.26427507400512695, 0.0877135843038559, -0.046772610396146774, 0.10557480901479721, 0.08734895288944244, -0.027044542133808136, 0.12188798934221268, 0.02836400829255581, -0.22795678675174713, -0.06581297516822815, 0.3394976556301117, -0.10069170594215393, -0.18049561977386475, -0.09426172077655792, -0.004687984939664602, 0.3778146505355835, -0.17031987011432648], [-0.026988396421074867, -0.040742043405771255, -0.08596537262201309, 0.018568934872746468, 0.0005832528113387525, 0.05698433145880699, 0.13663338124752045, 0.044194743037223816, -0.021495750173926353, 0.09128060191869736, -0.11269619315862656, 0.1567140370607376, -0.0839272290468216, 0.05260409042239189, 0.031016765162348747, -0.0639316588640213, -0.07472209632396698, -0.03967171907424927, 0.023000385612249374, 0.07506203651428223, 0.003578642150387168, 0.0073866513557732105, 0.049343835562467575, -0.14399947226047516, -0.05492928996682167, 0.08017010241746902, 0.08781997114419937, 0.12102942168712616, 0.05018274486064911, -0.10304031521081924, -0.003644689917564392, 0.09480050951242447, 0.03154560178518295, 0.12042947113513947, 0.06301449239253998, -0.2840239703655243, -0.024124057963490486, 0.003673074534162879, 0.12436278909444809, 0.1467636525630951], [-0.09836368262767792, -0.2993461787700653, 0.24181154370307922, -0.7864509224891663, -0.19138287007808685, -0.01644286699593067, 0.007160285487771034, -0.07201092690229416, 0.209967702627182, 0.2988949120044708, 0.7016375064849854, 0.04409747198224068, 0.015383986756205559, -0.0603153370320797, 0.1382274478673935, -0.02663075178861618, 0.18886592984199524, -0.2866514027118683, -0.4280167520046234, -0.3755711615085602, -0.4873456060886383, -0.40315794944763184, -0.481945276260376, -0.4355374276638031, 0.423225998878479, 0.03144114464521408, 0.2055860012769699, -0.02638184279203415, 0.08478426188230515, 0.2850610315799713, 0.3775799572467804, -0.334816575050354, -0.23405352234840393, 0.23826657235622406, -0.1424626111984253, -0.5560230016708374, -0.15197883546352386, -0.2481037676334381, 0.7938892245292664, -0.18111194670200348], [-0.03409958630800247, -0.1012575700879097, -0.026357972994446754, 0.06806741654872894, -0.02700622007250786, 0.06223035976290703, 0.10173551738262177, 0.08741384744644165, -0.011868010275065899, 0.24705186486244202, -0.14793740212917328, 0.2909877598285675, -0.1898510456085205, 0.011321703903377056, 0.0012838434195145965, -0.02215908281505108, -0.1269979029893875, -0.001539124408736825, 0.07664786279201508, 0.2198830544948578, -0.0596529059112072, -0.004448522813618183, 0.02512567676603794, -0.005802069325000048, -0.07828303426504135, 0.23694737255573273, 0.16719968616962433, 0.04483148828148842, 0.07033206522464752, -0.03721167519688606, 0.04387383908033371, 0.15076470375061035, 0.028317784890532494, -0.4925980269908905, 0.13427691161632538, 0.12565015256404877, -0.04212438315153122, 0.016365453600883484, -0.020003048703074455, 0.23806369304656982], [-0.1712440401315689, -0.5158541798591614, -0.059884801506996155, 0.1291220784187317, -0.0801747590303421, 0.11877862364053726, 0.7058300971984863, 0.2748042047023773, 0.2316126823425293, 0.30892664194107056, -0.05617648363113403, 0.41239529848098755, -1.2178559303283691, -0.04320410639047623, -0.10331463813781738, -0.041937679052352905, -0.3326960802078247, 0.05260917544364929, -0.006710330955684185, 0.5754662156105042, -0.12372724711894989, -0.15216724574565887, -0.19845128059387207, 0.34372764825820923, -0.1359802484512329, 0.36401861906051636, -0.31278181076049805, 0.7427350878715515, 0.17462457716464996, -0.12555834650993347, 0.10695391893386841, -0.06381918489933014, 0.03206325322389603, -1.5362756252288818, 0.24374660849571228, -0.12995438277721405, -0.07147188484668732, 0.062177591025829315, -0.07512451708316803, 0.22400979697704315], [0.025723589584231377, -0.058475736528635025, 0.023856669664382935, 0.021267712116241455, -0.13601849973201752, -0.02909303642809391, 0.09170445054769516, 0.12531964480876923, 0.06494423747062683, 0.019815929234027863, -0.030563728883862495, 0.030085865408182144, -0.13222217559814453, -0.003031850093975663, -0.013095413334667683, 0.020502347499132156, -0.04097583517432213, -0.03513641282916069, -0.04010678827762604, 0.2423078566789627, -0.1613980382680893, 0.002388707594946027, 0.03930950537323952, 0.08426858484745026, -0.07447762787342072, 0.07894542068243027, 0.2918824255466461, 0.17522574961185455, 0.020073140040040016, 0.05974620580673218, 0.17272140085697174, -0.0414605550467968, -0.051024436950683594, -0.23818252980709076, -0.010721352882683277, -0.050938863307237625, 0.010061130858957767, 0.012570160441100597, 0.09683834761381149, 0.19429342448711395], [-0.007129904814064503, 0.053313858807086945, -0.0041769579984247684, 0.0749548152089119, 0.03677011653780937, 0.0479070208966732, 0.03229667246341705, 0.05330495163798332, -0.003325760830193758, -0.008793688379228115, -0.07862301170825958, 0.11440453678369522, 0.024242516607046127, 0.02165980264544487, -0.014019150286912918, -0.04733675718307495, -0.048364777117967606, 0.017988678067922592, -0.0026449242141097784, 0.03423400968313217, 0.02468934655189514, 0.05111859366297722, 0.06337638944387436, -0.052862972021102905, -0.06534755229949951, 0.04126027226448059, 0.02291887253522873, -0.06288701295852661, 0.026465874165296555, -0.028380582109093666, -0.007104589603841305, -0.0055650509893894196, 0.03564827889204025, 0.05401620641350746, 0.06623013317584991, -0.05288590490818024, 0.03750790283083916, 0.0112243527546525, -0.004111533053219318, 0.03800082206726074], [-0.03560054674744606, -0.15151558816432953, -0.23834393918514252, 0.002812521066516638, 0.22223374247550964, -0.03178830072283745, -0.18175514042377472, -0.08134229481220245, -0.09929729253053665, 0.12146106362342834, -0.17199768126010895, 0.11013004183769226, 0.1113390102982521, -0.04942147433757782, 0.005819458514451981, 0.013934433460235596, -0.059216275811195374, -0.04985952749848366, 0.0797831192612648, 0.38019609451293945, 0.3122376799583435, 0.007656447123736143, 0.0851760134100914, 0.022902026772499084, -0.10942613333463669, -0.006764921825379133, 0.07546016573905945, -0.13293229043483734, 0.011413869448006153, -0.18003877997398376, -0.18323419988155365, 0.3378283977508545, 0.20320037007331848, 0.15623773634433746, -0.033025793731212616, 0.5330959558486938, -0.09693722426891327, -0.07446762174367905, -0.15737053751945496, 0.3488503694534302], [0.004416061099618673, 0.05813334509730339, 0.447309672832489, -0.20858421921730042, -0.4210658371448517, -0.0967092514038086, 0.39193859696388245, 0.219286248087883, 0.23117274045944214, 0.07378498464822769, 0.4369887411594391, -0.1591855138540268, -0.15101823210716248, 0.2710139751434326, 0.07420969754457474, 0.0766085609793663, 0.07749544084072113, 0.04069794341921806, -0.1710585206747055, -0.6280553340911865, -0.4665883183479309, -0.2530217170715332, -0.3549332320690155, -0.015465682372450829, 0.33058011531829834, -0.07592171430587769, -0.8640525341033936, 0.1767490804195404, -0.09340022504329681, 0.5186510682106018, 0.4096634089946747, -0.7960493564605713, -0.5615918636322021, -0.09488474577665329, -0.22949062287807465, -0.6258760690689087, 0.015215875580906868, 0.10966051369905472, 0.4572087824344635, -0.6767821311950684], [0.011341073550283909, 0.011960170231759548, -0.017273074015975, 0.04215685650706291, 0.03471406176686287, -0.003175340360030532, -0.03903939947485924, -0.014055950567126274, -0.014556320384144783, 0.06321283429861069, -0.04315531253814697, 0.014339625835418701, 0.012041017413139343, -0.02317030355334282, 0.0041760834865272045, 0.008187135681509972, 0.013304486870765686, 0.000895466364454478, 0.013807905837893486, -0.07300307601690292, 0.04129050299525261, 0.024019833654165268, 0.002666858723387122, 0.0280202217400074, 0.0026523536071181297, -0.02826613187789917, -0.03736402094364166, -0.05807022005319595, -0.008125439286231995, -0.025673529133200645, -0.025885911658406258, 0.03976438567042351, 0.03586570918560028, 0.06033427268266678, 0.008015640079975128, -0.04018867015838623, 0.006982948165386915, -0.005826828069984913, -0.048209331929683685, 0.026630347594618797], [-0.09672275930643082, 0.00020701283938251436, 0.08030515164136887, -0.13566066324710846, 0.10605362802743912, 0.08267898857593536, -0.04217211529612541, 0.0018016857793554664, 0.0055338237434625626, -0.2405993491411209, 0.18527987599372864, 0.08319764584302902, 0.05740556865930557, 0.07811553031206131, 0.08829569816589355, -0.014289471320807934, -0.06910502910614014, 0.08085470646619797, 0.036750711500644684, -0.313397616147995, 0.2825292646884918, -0.2941761910915375, -0.23625850677490234, -0.07719029486179352, 0.22391687333583832, 0.22236387431621552, -0.42514485120773315, -0.300085186958313, 0.05124370753765106, 0.005386130418628454, -0.013133777305483818, -0.2460443675518036, -0.203474223613739, 0.15851257741451263, 0.0412437841296196, -0.4483509361743927, -0.17409710586071014, 0.0560494102537632, 0.10922767221927643, -0.36880388855934143], [0.0240643173456192, 0.10602346062660217, 0.03980066627264023, 0.01793014258146286, -0.0011290572583675385, 0.024358095601201057, -0.11322684586048126, 0.05056895688176155, 0.0018972787074744701, -0.18896344304084778, 0.012245547026395798, 0.047797635197639465, -0.10422051697969437, 0.02562602609395981, -0.000910995586309582, -0.006817199289798737, -0.03682074323296547, 0.024795930832624435, -0.010845369659364223, 0.34574851393699646, -0.01014098059386015, 0.011901828460395336, 0.06275589019060135, -0.006346616428345442, -0.02325340360403061, 0.09254611283540726, 0.17056898772716522, 0.061720650643110275, 0.024671580642461777, 0.011508625000715256, 0.09381216019392014, -0.001517671043984592, -0.04972332715988159, -0.48701032996177673, 0.030093301087617874, 0.08082691580057144, 0.058517467230558395, 0.0009301453828811646, 0.0896390900015831, 0.010053352452814579], [-0.014035574160516262, 0.0046509443782269955, -0.025050882250070572, 0.042773813009262085, 0.05047004297375679, -0.006430147681385279, -0.0765404924750328, -0.01780245453119278, -0.015562755987048149, 0.07251089066267014, -0.05030472204089165, 0.035686422139406204, 0.014212864451110363, -0.03533627837896347, 0.025101959705352783, 0.021044917404651642, 0.01834309846162796, 0.006165455095469952, 0.02836599014699459, -0.14828085899353027, 0.13327625393867493, -0.04569612815976143, -0.0848560705780983, 0.05671130120754242, 0.07030358910560608, 0.032220564782619476, -0.09685521572828293, -0.13963539898395538, -0.005895513575524092, -0.034018728882074356, -0.04135184362530708, 0.09164074063301086, 0.01769728772342205, 0.04789848253130913, 0.001729580108076334, -0.11755525320768356, -0.03417322039604187, 0.00405815290287137, -0.06928776204586029, -0.03521551191806793], [0.03352827578783035, -0.013229349628090858, 0.04191618785262108, -0.05165097862482071, -0.03979658707976341, -0.09915152937173843, -0.044426701962947845, -0.004172004759311676, 0.031078070402145386, -0.015252695418894291, 0.07040725648403168, -0.20071743428707123, -0.20712721347808838, -0.0515153706073761, -0.009622038342058659, 0.08486384898424149, 0.1336618810892105, -0.07765433937311172, -0.09863952547311783, 0.10076235979795456, -0.03622211143374443, -0.0024034641683101654, -0.00846884585916996, 0.007305899169296026, 0.0418047234416008, -0.11445986479520798, 0.11974526941776276, 0.29926764965057373, -0.0993376076221466, 0.078185074031353, 0.0007033672300167382, -0.18528331816196442, -0.009314141236245632, -0.235149547457695, -0.11309098452329636, 0.2678220272064209, 0.0159060787409544, -0.060325704514980316, 0.06430861353874207, -0.10470550507307053], [0.02130003273487091, 0.011624489910900593, -0.00537502858787775, -0.005542662460356951, 0.0025495111476629972, -0.04596501216292381, -0.03371536731719971, -0.026033837348222733, 0.003407629206776619, 0.038109440356492996, -0.008077550679445267, -0.11507325619459152, -0.04711546003818512, -0.031054779887199402, -0.0016216251533478498, 0.03851669654250145, 0.08308295160531998, -0.027159428223967552, -0.029669560492038727, -0.03469003364443779, 0.016214845702052116, 0.006857670843601227, -0.015123850665986538, 0.03684156760573387, 0.01482679508626461, -0.1096077561378479, -0.004224622156471014, 0.09078788012266159, -0.048635903745889664, 0.008813989348709583, -0.03767329454421997, -0.008976859971880913, 0.04760057479143143, 0.024513326585292816, -0.07597663998603821, 0.07089429348707199, 0.008690079674124718, -0.024837501347064972, -0.05128738656640053, -0.030040137469768524], [-0.18428084254264832, -0.38307705521583557, -0.14759580790996552, -0.4113122224807739, 0.13400842249393463, 0.07040739059448242, 0.293256551027298, -0.15680426359176636, -0.04633312299847603, 0.08196447044610977, 0.1051165908575058, -0.04416394233703613, 0.13727927207946777, 0.08023268729448318, 0.029179543256759644, -0.1041109636425972, 0.0059853820130229, -0.12195812165737152, -0.015102116391062737, -0.22515180706977844, 0.3831324577331543, -0.3687860369682312, -0.3052848279476166, -0.3878687620162964, 0.17411205172538757, 0.191323921084404, 0.1464145928621292, 0.034075818955898285, 0.052654702216386795, 0.009199894033372402, -0.1223696693778038, 0.14769098162651062, -0.08167178183794022, 0.4394966959953308, -0.09332166612148285, -0.16779309511184692, -0.3386293649673462, 0.0033848644234240055, 0.37363967299461365, -0.03343663737177849], [-0.00693231076002121, -0.06574457138776779, 0.0826806128025055, -0.08925649523735046, -0.09807996451854706, -0.029028959572315216, 0.08881008625030518, 0.06491032987833023, 0.04437684267759323, -0.05366260185837746, 0.17547963559627533, -0.13232533633708954, -0.14163893461227417, 0.005299558397382498, -0.004984444007277489, 0.01954469457268715, 0.00824497640132904, -0.0471709743142128, -0.05849096551537514, 0.14785292744636536, -0.15759316086769104, -0.06297874450683594, -0.04740283638238907, -0.021869007498025894, 0.029111111536622047, 0.03724447265267372, 0.06290600448846817, 0.17444133758544922, -0.005392685066908598, 0.10731229931116104, 0.12092496454715729, -0.20567098259925842, -0.0995190367102623, -0.4147677719593048, -0.03124147094786167, 0.06564127653837204, -0.027493052184581757, -0.009873642586171627, 0.13355766236782074, -0.09447015821933746], [-0.03967326506972313, 0.025294290855526924, 0.06010153517127037, -0.0949862003326416, -0.00583882350474596, 0.03204868733882904, -0.020817464217543602, 0.04181815683841705, 0.03499867394566536, -0.24635396897792816, 0.09168586134910583, 0.04240426793694496, -0.09745898097753525, 0.09286683797836304, 0.01403940562158823, -0.04666000232100487, -0.05021277070045471, 0.012374809943139553, -0.03669334203004837, 0.24431531131267548, 0.005101200193166733, -0.06173412874341011, -7.731891673756763e-05, -0.0648558959364891, 0.018475357443094254, 0.15111012756824493, 0.17320536077022552, 0.11296215653419495, 0.04033862054347992, 0.07441610097885132, 0.09129589051008224, -0.04308599606156349, -0.13119076192378998, -0.2871313989162445, 0.00915555004030466, 0.07441884279251099, -0.0008200800511986017, 0.018824903294444084, 0.20121562480926514, -0.0993434339761734], [-0.04344256594777107, 0.07705128937959671, -0.08219839632511139, 0.09016513079404831, 0.41993436217308044, 0.04849151149392128, -0.25613051652908325, -0.21476873755455017, -0.10997232794761658, -0.20399633049964905, -0.10375215113162994, 0.16247378289699554, 0.24700197577476501, 0.05451454222202301, 0.03103931061923504, -0.04136843606829643, -0.032775312662124634, 0.10067044198513031, 0.1033092588186264, -0.2315029501914978, 0.6836601495742798, 0.09057338535785675, 0.05673874914646149, -0.1706269532442093, 0.04147988185286522, 0.03986434265971184, -0.17227011919021606, -0.46535778045654297, 0.031278930604457855, -0.1920175999403, -0.26521188020706177, 0.19004765152931213, 0.08682481944561005, 0.3664030432701111, 0.07333508878946304, -0.2750093638896942, 0.051524050533771515, 0.062425125390291214, -0.04897157475352287, -0.030746107921004295], [0.044981032609939575, 0.07932072877883911, -0.10535110533237457, 0.1572052240371704, 0.06620098650455475, -0.006016081664711237, -0.28476688265800476, 0.007616812363266945, -0.10355096310377121, 0.15102599561214447, -0.11171646416187286, 0.062115997076034546, -0.014802994206547737, -0.10018334537744522, 0.004335374571382999, 0.06489352136850357, -0.03160490095615387, 0.05056753382086754, 0.14077284932136536, 0.0500766858458519, 0.1689503788948059, 0.11820005625486374, 0.025535423308610916, 0.10475193709135056, 0.012964194640517235, 0.06738641113042831, -0.005230195354670286, -0.1579728126525879, 0.004894436337053776, -0.17847231030464172, -0.07251662015914917, 0.2965639531612396, 0.05783914402127266, -0.3418158292770386, 0.06606727093458176, -0.012606232427060604, 0.05016160011291504, 0.004311476368457079, -0.11820900440216064, 0.10924730449914932], [-0.1563892662525177, -0.3062601089477539, -0.10918039828538895, 0.027968671172857285, -0.020158564671874046, 0.4684976637363434, 0.29261961579322815, 0.026043368503451347, -0.02190348505973816, 0.48135292530059814, 0.17838871479034424, 0.502996027469635, 0.3709973394870758, -0.08382472395896912, -0.10480274260044098, -0.08335253596305847, -0.6626107692718506, 0.3028712272644043, 0.17173174023628235, 0.42162764072418213, -0.3502943813800812, 0.06689746677875519, 0.07383574545383453, -0.46334806084632874, -0.18454499542713165, 0.865658164024353, 0.2451528012752533, -0.25986507534980774, 0.5013760924339294, -0.20477290451526642, 0.17451679706573486, 0.02821010909974575, 0.23512522876262665, -1.08612060546875, 0.6785615682601929, -0.12118909507989883, -0.1359814554452896, 0.11265531927347183, 0.2937837541103363, 0.3269869089126587], [-0.3740389049053192, -0.6345893740653992, 0.20608986914157867, -0.5137738585472107, 0.10354633629322052, 0.09816793352365494, 0.24195826053619385, -0.42387425899505615, 0.06772057712078094, 0.5491172671318054, 1.0451536178588867, 0.802404522895813, 0.7742626070976257, -0.1620521992444992, -0.09243790805339813, -0.3944719433784485, -0.15768977999687195, -0.001700667547993362, -0.08373897522687912, -0.4002501666545868, -0.17497166991233826, -0.09615028649568558, -0.5828678011894226, -0.2390492707490921, 0.35853317379951477, 0.5978105664253235, -0.8488244414329529, -0.8991050124168396, 0.18631736934185028, 0.45516636967658997, 0.048568833619356155, -0.457485169172287, -0.19583208858966827, 0.20401416718959808, 0.20070938766002655, -0.8185072541236877, -0.4001225233078003, 0.005436273291707039, 0.2524767518043518, -0.877460241317749], [-0.0036425467114895582, 0.032137054949998856, -0.00460934778675437, 0.036816246807575226, 0.019220439717173576, 0.0012476376723498106, -0.049941159784793854, 0.001393648679368198, -0.020672952756285667, 0.007913779467344284, -0.008778962306678295, 0.034836091101169586, 0.002988101914525032, 0.0003947018412873149, 0.008843698538839817, 0.0022362309973686934, -0.005431059747934341, 0.022430693730711937, 0.039999961853027344, 0.016118459403514862, 0.012939587235450745, 0.021722562611103058, 0.008648860268294811, 0.05552210658788681, 0.0037447926588356495, 0.030972251668572426, -0.034868013113737106, -0.0634409561753273, 0.002408081665635109, -0.02815166674554348, -0.014925127848982811, 0.034894295036792755, -0.007559380494058132, 0.0006354647921398282, 0.014162201434373856, 0.05469842255115509, 0.02192002907395363, 0.01460688654333353, -0.054960109293460846, 0.006293788552284241], [-0.026529576629400253, -0.016481498256325722, -0.02719382382929325, 0.013991933315992355, 0.01490084733814001, 0.0030282337684184313, 0.00035870412830263376, -0.005414691288024187, -0.013562857173383236, 0.0545337088406086, -0.02721959725022316, 0.04872387647628784, 0.019114861264824867, -0.01189704705029726, 0.015603041276335716, -0.00031927856616675854, -0.003211989300325513, 0.004920991603285074, 0.033539269119501114, -0.06355347484350204, 0.04423107951879501, -0.04277218505740166, -0.05503005534410477, 0.03621876984834671, 0.03832743316888809, 0.03967422991991043, -0.04446067661046982, -0.060391683131456375, 0.0065404148772358894, -0.02581356093287468, -0.019409282132983208, 0.06175754964351654, -0.0006207280093804002, 0.04902375116944313, 0.008489826694130898, -0.06703286617994308, -0.029822617769241333, 0.012617280706763268, -0.023558642715215683, 0.02583141438663006], [-0.008799953386187553, -0.00942761730402708, -0.008121524937450886, 0.0009957276051864028, 0.0026808935217559338, -0.00381376501172781, -0.006923909764736891, -0.0014884202973917127, -0.002422354882583022, 0.024317389354109764, 0.0005492258351296186, 0.005814836360514164, 0.0033376123756170273, 0.00042655010474845767, 0.006774011999368668, -0.001118129352107644, 0.008499776013195515, -0.0014360059285536408, 0.009314736351370811, -0.038595765829086304, 0.004726378712803125, -0.012439114041626453, -0.023825867101550102, 0.014006506651639938, 0.01770983450114727, -0.010405492037534714, -0.013962375931441784, -0.0007503119413740933, 0.0004672305076383054, -0.0003945324569940567, -0.0042870366014540195, 0.01886592246592045, -0.00429039541631937, 0.017496883869171143, -0.007263188250362873, -0.041752174496650696, -0.006738561205565929, 0.003972033504396677, 0.003813234157860279, -0.012056325562298298], [0.007797928061336279, -0.01217526476830244, -0.01685488037765026, 0.0047881933860480785, -0.03692014142870903, -0.013610663823783398, 0.046858713030815125, 0.00948554277420044, -0.002104722196236253, 0.06871997565031052, -0.0031632741447538137, -0.01899140514433384, -0.010886210948228836, -0.02042541094124317, 0.008465216495096684, 0.01432812213897705, 0.01763530820608139, -0.013148780912160873, 0.004010074771940708, -0.026681846007704735, -0.04191324859857559, -0.018173273652791977, -0.017595380544662476, 0.009875963442027569, -0.0036900185514241457, -0.03216324746608734, -0.03294271603226662, 0.050526805222034454, -0.010348991490900517, -0.013701323419809341, -0.0045432522892951965, 0.009896593168377876, 0.019332362338900566, -0.009606363251805305, -0.014659509994089603, -0.06041916087269783, -0.017657775431871414, -0.004933107644319534, -0.02209302969276905, 0.010526327416300774], [-0.02227811887860298, -0.046740781515836716, 0.003566622268408537, -0.0531269870698452, -0.04325241222977638, 0.015602693893015385, 0.08809982985258102, 0.029880082234740257, 0.009815017692744732, 0.029182961210608482, 0.05900374799966812, 0.04979066923260689, -0.0027941931039094925, 0.007789635565131903, 0.03290415182709694, -0.0023186353500932455, -0.03018004447221756, -0.0049651023000478745, 0.008910853415727615, 0.036333195865154266, -0.05900081992149353, -0.10552921891212463, -0.07128995656967163, 0.003410971723496914, 0.03339026868343353, 0.07795275747776031, -0.028038980439305305, 0.0003596024471335113, 0.0209311842918396, 0.018618552014231682, 0.04945307970046997, 0.018653450533747673, -0.07380326092243195, -0.09071379899978638, 0.016974063590168953, -0.14743885397911072, -0.07227376848459244, 0.014863632619380951, 0.03526345640420914, -0.009332196786999702], [-0.04471629485487938, 0.08302329480648041, 0.040102455765008926, -0.051012005656957626, 0.04885025694966316, 0.06190544739365578, -0.012404185719788074, 0.026411334052681923, 0.034152206033468246, -0.33143267035484314, 0.003943252842873335, 0.03839928284287453, -0.04109175503253937, 0.12260621041059494, -0.0033151726238429546, -0.08898831903934479, -0.06285373866558075, 0.03987083584070206, -0.04891188070178032, 0.2875262200832367, 0.08480033278465271, -0.010738289915025234, 0.07299759238958359, -0.06155148521065712, -0.04144551604986191, 0.15735428035259247, 0.2344333380460739, 0.07442440092563629, 0.049218811094760895, 0.051917560398578644, 0.04612068086862564, 0.021715084090828896, -0.06494928151369095, -0.22231675684452057, 0.02585538476705551, 0.22830884158611298, 0.041004568338394165, 0.0273829847574234, 0.13843275606632233, -0.07154440879821777], [0.13107500970363617, 0.34200572967529297, -0.3618670105934143, 0.44282758235931396, 0.4867994487285614, 0.005275501869618893, -0.4056037664413452, -0.10178369283676147, -0.30505380034446716, -0.030549418181180954, -0.5376065969467163, 0.06529463827610016, 0.1244073212146759, -0.05399564281105995, -0.044315725564956665, -0.08687275648117065, -0.039524104446172714, 0.10941263288259506, 0.19025999307632446, 0.3326912820339203, 0.6636676788330078, 0.5644190907478333, 0.5307772755622864, -0.16759614646434784, -0.5124551653862, 0.011898409575223923, 0.3171271085739136, -0.21261219680309296, 0.014873025938868523, -0.6261202096939087, -0.6039107441902161, 0.4435140788555145, 0.6202866435050964, -0.17990390956401825, 0.16281583905220032, 0.3783188760280609, 0.3102171719074249, -0.0007066178950481117, -0.49776390194892883, 0.1774463951587677], [0.022600000724196434, 0.10460767894983292, 0.003908311016857624, 0.05433901399374008, 0.013871154747903347, -0.025475110858678818, -0.1509409248828888, 0.04516635835170746, -0.002276597311720252, -0.006489341147243977, -0.07694100588560104, -0.02527639828622341, -0.18990299105644226, -0.043816179037094116, 0.013811030425131321, 0.04287872463464737, 0.029119299724698067, -0.021858464926481247, -0.004787391051650047, 0.06217126548290253, 0.06287771463394165, 0.012437645345926285, -0.006424654275178909, 0.040958207100629807, 0.04049775004386902, 0.01167259830981493, 0.08910835534334183, 0.07950541377067566, -0.03441879153251648, -0.02621188946068287, 0.009759941138327122, 0.009237371385097504, 0.0214337520301342, -0.10360144078731537, -0.007944182492792606, 0.15724162757396698, 0.01759454421699047, -0.038116805255413055, 0.002152664354071021, 0.040626611560583115], [-0.03295810893177986, -0.003930612932890654, -0.02447357401251793, -0.004516738001257181, 0.06616752594709396, 0.008881431072950363, -0.096901074051857, -0.007186052855104208, -0.023444287478923798, 0.01761208102107048, -0.013239118270576, 0.08893364667892456, -0.017077814787626266, -0.009313429705798626, 0.036761004477739334, 0.007089138962328434, -0.010710388422012329, 0.007377095054835081, 0.040549956262111664, -0.049937278032302856, 0.19549712538719177, -0.0770215392112732, -0.0982324630022049, -0.04427672177553177, 0.0861494317650795, 0.11477730423212051, 0.003829444292932749, -0.14372389018535614, 0.014274036511778831, -0.043979790061712265, -0.018929291516542435, 0.08601189404726028, -0.04092765972018242, -0.01378612034022808, 0.021334273740649223, -0.10158690065145493, -0.050546661019325256, 0.011204523965716362, 0.052524715662002563, -0.02864469215273857], [0.014216745272278786, 0.04473235458135605, -0.06410075724124908, 0.09020130336284637, 0.10286720097064972, 0.001697281957603991, -0.18077759444713593, -0.035821810364723206, -0.06289875507354736, 0.08833388984203339, -0.05905269831418991, 0.042383309453725815, 0.056550003588199615, -0.03799043595790863, 0.00837670173496008, 0.01752159371972084, -0.0077107674442231655, 0.03534163534641266, 0.08011996001005173, -0.07634814828634262, 0.20918399095535278, 0.07012180984020233, 0.013834319077432156, -0.006955563556402922, 0.005375498440116644, 0.01772233657538891, -0.05391357094049454, -0.19549129903316498, 0.002136744325980544, -0.11906518787145615, -0.09892155975103378, 0.14951102435588837, 0.05822683125734329, 0.041523851454257965, 0.03699903562664986, -0.018336467444896698, 0.034468874335289, 0.0032299580052495003, -0.05517151951789856, 0.03177377209067345], [0.06556205451488495, 0.10540176928043365, 0.07836215198040009, 0.02679656259715557, -0.05278874561190605, -0.032117124646902084, -0.13792374730110168, 0.07077154517173767, 0.036988258361816406, -0.12167658656835556, 0.03516325354576111, -0.08137592673301697, -0.2031039446592331, 0.0027055987156927586, -0.050730083137750626, 0.01694406010210514, 0.03539704903960228, -0.022712435573339462, -0.08250150829553604, 0.12992854416370392, -0.12698954343795776, 0.1237795352935791, 0.10252998769283295, -0.012607529759407043, -0.04513859003782272, -0.08831319212913513, 0.11734046041965485, 0.22096101939678192, -0.040198568254709244, 0.07905357331037521, 0.10436005145311356, -0.15770013630390167, 0.00930127501487732, -0.38878366351127625, -0.01970086619257927, 0.09700732678174973, 0.10344504565000534, -0.0492221936583519, 0.08044179528951645, -0.11759795993566513], [0.052160363644361496, 0.0833980143070221, -0.05692271888256073, 0.14375314116477966, 0.04075935482978821, 0.004709105007350445, -0.14563973248004913, -0.00518236355856061, -0.06220746785402298, 0.12201657891273499, -0.13158972561359406, 0.036453183740377426, -0.010339268483221531, -0.096953846514225, -0.01960510015487671, 0.0434722937643528, -0.013271939940750599, 0.016771044582128525, 0.07309846580028534, -0.05141695961356163, 0.07697232067584991, 0.13801713287830353, 0.07386031001806259, 0.02495337463915348, -0.03991430997848511, 0.0247823353856802, 0.04735344275832176, -0.06803034991025925, -0.00035078366636298597, -0.13725949823856354, -0.03129904717206955, 0.19716143608093262, 0.10746589303016663, -0.00728617375716567, 0.06245335936546326, -0.015787512063980103, 0.06479457765817642, -0.02468380145728588, -0.08222895115613937, 0.19456550478935242], [0.011794839054346085, 0.036479298025369644, -0.02464604564011097, 0.07396580278873444, 0.07999089360237122, 0.015681535005569458, -0.0923125147819519, -0.019531143829226494, -0.046934206038713455, 0.024601556360721588, -0.025333156809210777, 0.14415651559829712, 0.09918227046728134, 0.028885753825306892, 0.02125026285648346, -0.027207674458622932, -0.03559467941522598, 0.05740543082356453, 0.0775318294763565, -0.020861441269516945, 0.07825858145952225, 0.0851166695356369, 0.058317143470048904, 0.04426594078540802, -0.02459600754082203, 0.035795971751213074, -0.09465053677558899, -0.17250530421733856, 0.030289126560091972, -0.05080360919237137, -0.03690378740429878, 0.17722530663013458, 0.0006265240372158587, 0.17614780366420746, 0.05670684948563576, -0.042176079005002975, 0.07083721458911896, 0.03636040911078453, -0.03355919197201729, 0.0325922854244709], [-0.0447968952357769, 0.07529013603925705, -1.4031057357788086, 0.5515793561935425, 1.462600827217102, 0.04855091869831085, -0.9200921654701233, -1.0021467208862305, -0.9220287799835205, -0.11220287531614304, -1.4856693744659424, 0.49126237630844116, 1.4450594186782837, -0.6917567849159241, -0.31751182675361633, -0.37706005573272705, 0.013682559132575989, -0.30862411856651306, 0.5006732940673828, 0.9059353470802307, 2.082094192504883, 0.626235842704773, 0.8215721845626831, 0.508406937122345, -1.0131603479385376, -0.24700337648391724, 1.4959018230438232, -1.3676962852478027, 0.0752607211470604, -1.1926199197769165, -1.4399471282958984, 1.9100934267044067, 1.5321394205093384, 0.5304596424102783, 0.31305235624313354, 0.11158572882413864, -0.0645560771226883, -0.047260984778404236, -1.393528699874878, 1.8856196403503418], [-0.24560695886611938, -0.7187207937240601, -0.19895227253437042, -0.781485915184021, 0.03231564164161682, 0.03149861469864845, 0.22322452068328857, -0.6439333558082581, 0.0894949734210968, 0.38550522923469543, 0.9186387062072754, 0.16597889363765717, 0.8159739375114441, -0.26829996705055237, -0.008409906178712845, -0.18370197713375092, 0.1275981068611145, -0.020552610978484154, -0.05753438174724579, -0.37666380405426025, -0.13199009001255035, -0.25005674362182617, -0.6159489750862122, -0.09356639534235, 0.3167631924152374, 0.07502856105566025, -0.1450338214635849, -0.4671415090560913, 0.13553550839424133, 0.47386839985847473, -0.11591607332229614, -0.044045694172382355, -0.013579052872955799, 0.6813433170318604, -0.17887473106384277, -0.1733425110578537, -0.3057810068130493, -0.026574665680527687, 0.3154100179672241, -0.3425430953502655], [0.0025447120424360037, 0.00035122211556881666, -0.009042831137776375, 0.007094977423548698, -0.006823386065661907, -0.006254952400922775, 0.0071492549031972885, -0.0014679727610200644, -0.003936185967177153, 0.022181924432516098, -0.008033929392695427, -0.008247410878539085, 0.00043528020614758134, -0.008035716600716114, 0.0020283740013837814, 0.0053438288159668446, 0.009128674864768982, -0.0025295524392277002, 0.004988832399249077, -0.018970971927046776, -0.0055508241057395935, -0.00034029592643491924, -0.004270119592547417, 0.008023741655051708, 0.00019965411047451198, -0.014920924790203571, -0.01397204864770174, 0.01261776965111494, -0.005581554491072893, -0.00901911873370409, -0.009564220905303955, 0.00988637562841177, 0.012201674282550812, 0.00823485478758812, -0.0067136636935174465, -0.009033190086483955, -0.002033794531598687, -0.0010849992977455258, -0.01493893377482891, 0.00425707595422864], [0.02292247675359249, 0.10112181305885315, 0.0675617903470993, 0.017167994752526283, -0.006699271034449339, 0.042512811720371246, -0.07023400813341141, 0.061534687876701355, 0.019660117104649544, -0.20946158468723297, -0.007836814969778061, 0.05513007566332817, -0.11550889164209366, 0.03276211395859718, -0.0041646286845207214, -0.016919633373618126, -0.059467021375894547, 0.013562961481511593, -0.042519692331552505, 0.2808017134666443, 0.02262267656624317, 0.029781414195895195, 0.08801716566085815, -0.09345736354589462, -0.04102686420083046, 0.13295894861221313, 0.15297840535640717, 0.05618467926979065, 0.038636691868305206, 0.017990287393331528, 0.1131807267665863, -0.05310717225074768, -0.045132409781217575, -0.36482322216033936, 0.0594589002430439, 0.012790574692189693, 0.05224413052201271, -0.014882571063935757, 0.14372089505195618, -0.04201825335621834], [0.012351226061582565, 0.015327783301472664, 0.11141369491815567, -0.10695599764585495, -0.03408854454755783, 0.0007115488406270742, -0.06217087060213089, 0.06122683361172676, 0.04204222932457924, -0.16368737816810608, 0.16499918699264526, 0.07325810194015503, -0.13069741427898407, 0.07505974918603897, 0.02955886349081993, -0.010758775286376476, -0.03608265519142151, -0.012183061800897121, -0.04967159777879715, 0.2575843930244446, -0.0455036535859108, -0.05132647976279259, -0.01858735829591751, -0.09730908274650574, 0.050826750695705414, 0.09971186518669128, 0.11376480013132095, 0.09301166236400604, 0.02896004356443882, 0.1260550171136856, 0.14262573421001434, -0.09296537190675735, -0.1773139387369156, -0.4090900421142578, 0.0065774270333349705, -0.048758067190647125, 6.276852946029976e-05, 0.0013054154114797711, 0.2686382234096527, -0.13696010410785675], [0.08626781404018402, 0.24584969878196716, -0.023350073024630547, 0.12147067487239838, 0.015655966475605965, -0.0074201603420078754, -0.25137102603912354, 0.11336201429367065, -0.006868231110274792, -0.37577924132347107, -0.06742503494024277, -0.15219537913799286, -0.15877588093280792, -0.057198308408260345, -0.05621683970093727, 0.07696545869112015, 0.04129617288708687, 0.03886627405881882, -0.006514938082545996, 0.549845814704895, 0.080382339656353, 0.1997518688440323, 0.24234217405319214, 0.08367238938808441, -0.17171858251094818, -0.040427081286907196, 0.42714762687683105, 0.0960196778178215, -0.04465664550662041, -0.06342959403991699, 0.038886696100234985, 0.11195044964551926, 0.10812293738126755, -0.7957598567008972, -0.023240095004439354, 0.381751149892807, 0.17854446172714233, -0.028030168265104294, -0.15896427631378174, 0.25550705194473267], [0.0335056371986866, 0.0920165628194809, -0.048827581107616425, 0.10471975803375244, -0.0037051276303827763, -0.0040339757688343525, -0.14869475364685059, 0.03191864490509033, -0.05006983131170273, 0.07052592188119888, -0.10567144304513931, 0.11009132862091064, -0.07373879104852676, -0.05987656116485596, 0.0077332197688519955, 0.03486970067024231, -0.01570640690624714, 0.012362708337605, 0.07780391722917557, 0.0484318882226944, 0.008646626956760883, 0.06744762510061264, 0.03156270831823349, 0.04643605649471283, -0.006113883573561907, 0.08508822321891785, 0.09102661907672882, -0.04332840442657471, 0.004445751663297415, -0.09981560707092285, 0.020530732348561287, 0.20495325326919556, 0.027528855949640274, -0.14917445182800293, 0.039291560649871826, -0.10592181980609894, 0.043266065418720245, -0.013558262959122658, 0.0038661237340420485, 0.15154215693473816], [-0.15254096686840057, -0.3623928427696228, -0.0466189868748188, 0.11749037355184555, 0.7978792190551758, 0.7429052591323853, -0.8577901721000671, -0.8865779042243958, -0.5177022814750671, 1.1097809076309204, 0.451029896736145, 1.6935439109802246, 0.9258727431297302, 0.028300438076257706, 0.03943626955151558, -0.22711673378944397, -0.9175795316696167, 0.6589921712875366, 0.7737889289855957, -0.31525367498397827, 0.40912213921546936, 0.19136841595172882, -0.11205989122390747, -0.921012282371521, -0.013752947561442852, 1.0208536386489868, -0.06695803254842758, -2.1400675773620605, 0.5083659291267395, -0.1929837316274643, -0.3473743796348572, -0.08637487888336182, 0.09782206267118454, -2.8737292289733887, 0.9157482385635376, 0.5070049166679382, -0.18780654668807983, -0.09108567237854004, -0.11314724385738373, -0.10614515841007233], [-0.007400341331958771, 0.038321979343891144, -0.03435642644762993, 0.03322945162653923, -0.02696700394153595, 0.005301349330693483, 0.03131139650940895, 0.01645038090646267, -0.02015894465148449, -0.020911188796162605, -0.044716011732816696, -0.01688036508858204, -0.03143641725182533, -0.013565611094236374, -0.0047742933966219425, -0.003078737296164036, -0.007517863530665636, 0.0054533714428544044, 0.03079705499112606, 0.021551597863435745, -0.025550365447998047, 0.02507525123655796, 0.026598507538437843, 0.009104372002184391, -0.029987631365656853, 0.021166089922189713, 0.03452209010720253, 0.05746680498123169, 0.00288190646097064, -0.05738724395632744, -0.01239610556513071, 0.011773191392421722, 0.033224351704120636, -0.031171128153800964, 0.007810099981725216, 0.02239554189145565, 0.013737045228481293, 0.001371515798382461, -0.03077872283756733, 0.035828664898872375], [-0.10118138790130615, 0.35503658652305603, -0.7931160926818848, 0.5519559979438782, 0.16423805058002472, 0.18483717739582062, 0.009491312317550182, 0.0116316182538867, -0.4204450845718384, -0.019349664449691772, -0.9053065180778503, 0.4889099597930908, 0.04460446164011955, 0.10921656340360641, -0.19584247469902039, -0.2589348554611206, -0.41372570395469666, 0.2429768592119217, 0.5151746273040771, -0.40774136781692505, 0.37163156270980835, 0.599514365196228, 0.6026533842086792, -0.2576720416545868, -0.5642456412315369, 0.3072306513786316, 0.6235092878341675, 0.03863276168704033, 0.18143416941165924, -0.8240649700164795, -0.5595066547393799, 1.4337879419326782, 0.7963747978210449, 0.11814620345830917, 0.3699727952480316, -0.04737153276801109, 0.21400944888591766, 0.1272612363100052, -0.3141562044620514, 0.45544853806495667], [-0.05642281845211983, -0.030654430389404297, -0.004911323543637991, -0.02985750511288643, 0.039272211492061615, 0.0014239110751077533, -0.01390054076910019, -0.01867658831179142, -0.006591366603970528, 0.07080728560686111, 0.020686019212007523, 0.09288674592971802, 0.034149181097745895, 0.013291074894368649, 0.05348486825823784, 0.0010944344103336334, -0.008917390368878841, 0.00804365798830986, 0.031642764806747437, -0.1683923453092575, 0.14032410085201263, -0.1302388608455658, -0.1475655436515808, 0.04252328351140022, 0.1219806969165802, 0.11224177479743958, -0.15444062650203705, -0.16006891429424286, 0.013061114586889744, -0.0018663019873201847, -0.028248140588402748, 0.07822117954492569, -0.06095346063375473, 0.08225513994693756, 0.008609175682067871, -0.08285193890333176, -0.08475726842880249, 0.027051270008087158, -0.017334025353193283, -0.06913120299577713], [0.0032320949248969555, 0.009824934415519238, -0.002872107084840536, 0.009553194046020508, -0.00782705470919609, 0.0033925131428986788, -0.02300329878926277, 0.011045035906136036, -0.009666504338383675, 0.018276629969477654, 0.008835064247250557, 0.024567272514104843, 0.003175303339958191, -0.002155647613108158, 0.010969780385494232, 0.0031217748764902353, -0.01323991920799017, 0.009154210798442364, 0.018716109916567802, 0.0029217656701803207, -0.019247544929385185, 0.008208085782825947, 0.0037503070197999477, 0.017436988651752472, 0.0018227312248200178, 0.016205040737986565, -0.012077316641807556, -0.02783648669719696, 0.008377051912248135, -0.012605714611709118, 0.006186359096318483, 0.02798912487924099, -0.012621521949768066, -0.002237731358036399, 0.014371328055858612, -0.01383108552545309, 0.004288846161216497, 0.007320416159927845, -0.007548897992819548, 0.01504227053374052], [0.061867110431194305, 0.05048159509897232, 0.1334202140569687, 0.047961968928575516, 0.007494180928915739, 0.01982630416750908, -0.20007383823394775, 0.007308024913072586, 0.047931015491485596, -0.08887900412082672, 0.05340418592095375, 0.02577362209558487, 0.012670555151998997, -0.02427789196372032, -0.016985604539513588, 0.019584832713007927, -0.010831104591488838, 0.0176183320581913, -0.08962029963731766, 0.05324738100171089, 0.016206776723265648, 0.057590827345848083, 0.02907700464129448, 0.06894898414611816, 0.005557559430599213, 0.01378320436924696, -0.030428262427449226, -0.19204802811145782, 0.008822127245366573, 0.1371924877166748, 0.09638137370347977, -0.14679615199565887, -0.021977167576551437, -0.21114952862262726, 0.05159828066825867, 0.01482664979994297, 0.05597005784511566, -0.021422037854790688, -0.038173120468854904, -0.13486406207084656], [0.041568249464035034, 0.3502550423145294, -0.8784769773483276, 0.5432394742965698, 0.3768153190612793, 0.010214966721832752, -0.41065526008605957, -0.2476804256439209, -0.3295052945613861, 0.05959469452500343, -0.9029062390327454, 0.3963916301727295, 0.2062700241804123, -0.19469086825847626, 0.06066189706325531, -0.0092087397351861, -0.08991214632987976, 0.10437610000371933, 0.32319509983062744, 0.26568618416786194, 0.7562832236289978, 0.34124231338500977, 0.3985866904258728, 0.3942306935787201, -0.44830843806266785, 0.2779705226421356, 0.5103289484977722, -0.27855634689331055, 0.09301168471574783, -0.8635938763618469, -0.7052098512649536, 1.4754059314727783, 0.8148658871650696, 0.3951377272605896, 0.14061379432678223, -0.6686749458312988, 0.13334332406520844, 0.02672235667705536, -0.6346041560173035, 0.9455183148384094], [-0.1845121532678604, 0.0687086433172226, 0.16079246997833252, -0.014792587608098984, 0.11411574482917786, -0.040994226932525635, -0.19548238813877106, 0.007250917609781027, 0.04086528718471527, -0.34536656737327576, -0.00741241592913866, -0.2017817497253418, 0.08781352639198303, 0.09565357118844986, -0.08885999768972397, -0.25986430048942566, 0.17299214005470276, 0.09973171353340149, -0.14910566806793213, 0.460104763507843, 0.10432971268892288, 0.16268648207187653, -0.044150128960609436, -0.037218719720840454, -0.04792388901114464, -0.05845252051949501, -0.05757366120815277, -0.1540263146162033, -0.10899422317743301, 0.011926266364753246, -0.1355622261762619, 0.03488078713417053, -0.10716087371110916, -0.04453612491488457, -0.16249018907546997, -0.010198328644037247, 0.03493066877126694, 0.16963128745555878, -0.07627303898334503, -0.005801173858344555], [0.03977613151073456, 0.17119887471199036, 0.07977213710546494, -0.0702706128358841, -0.08152541518211365, 0.07459880411624908, -0.19962020218372345, 0.07883677631616592, 0.07095249742269516, -0.4374599754810333, 0.11039238423109055, -0.23201419413089752, -0.08383406698703766, 0.07462160289287567, -0.005782804451882839, 0.016631748527288437, -0.10441001504659653, 0.047748833894729614, 0.059490617364645004, 0.19822029769420624, -0.06289375573396683, 0.07306794077157974, 0.028509974479675293, 0.04420338198542595, 0.11451604217290878, 0.13786812126636505, -0.6144773960113525, -0.02185404859483242, 0.09527313709259033, 0.08386941999197006, 0.14838702976703644, -0.2085932493209839, -0.08038819581270218, -0.11637748032808304, -0.07621642202138901, -0.36495447158813477, -0.07210729271173477, 0.093469999730587, 0.08181311935186386, -0.23087358474731445], [-0.11063941568136215, -0.017786459997296333, -0.01623217761516571, -0.013322528451681137, -0.018112648278474808, -0.010469798929989338, 0.3983021676540375, 0.062365684658288956, -0.02351575717329979, 0.1086544543504715, 0.15789486467838287, -0.05694405362010002, -0.009210326708853245, 0.04191448166966438, -0.018547402694821358, -0.0637444481253624, 0.07689186930656433, -0.11936728656291962, 0.03160947933793068, -0.21617387235164642, -0.28279420733451843, -0.13345639407634735, -0.08937494456768036, -0.15452297031879425, 0.06726294755935669, -0.056853100657463074, -0.23052704334259033, 0.0294499471783638, 0.09987442195415497, 0.0367744155228138, -0.021175149828195572, -0.0998513251543045, 0.05225653201341629, -0.040427397936582565, 0.044404421001672745, -0.1034872978925705, 0.0334005169570446, -0.01464412733912468, 0.1284635066986084, -0.15468516945838928], [-0.13310639560222626, 0.043648794293403625, -0.08073822408914566, 0.04799657687544823, 0.30362021923065186, 0.058287862688302994, -0.2585919201374054, -0.125923752784729, -0.19066253304481506, -0.2234368622303009, -0.07477432489395142, 0.11608801782131195, 0.06872044503688812, -0.08939151465892792, -0.04476061835885048, -0.0978824645280838, -0.018685823306441307, 0.11052991449832916, 0.07762531191110611, 0.3443516194820404, 0.13580256700515747, 0.13479724526405334, -0.0866822823882103, 0.10476434975862503, 0.0031041153706610203, 0.20275743305683136, -0.19568130373954773, -0.35781732201576233, -0.048847831785678864, -0.2039376199245453, -0.017762405797839165, 0.006930733099579811, -0.05990047752857208, -0.2801588177680969, 0.03929170221090317, 0.27326616644859314, 0.14100870490074158, 0.05196329206228256, -0.19654279947280884, -0.07425709068775177], [0.0037285187281668186, 0.1147380992770195, 0.03016980178654194, -0.03377821668982506, -0.14176565408706665, -0.13748310506343842, -0.2245280146598816, -0.054179999977350235, 0.07458167523145676, 0.20897644758224487, 0.11013264209032059, -0.0023224852047860622, 0.1691129505634308, 0.07233763486146927, 0.019900862127542496, 0.07860703766345978, 0.002679966390132904, 0.10613897442817688, -0.15309222042560577, -0.3072199821472168, -0.12316972762346268, -0.049774207174777985, -0.22612585127353668, -0.02342425100505352, 0.2941657304763794, 0.023103229701519012, -0.023049619048833847, -0.4451894760131836, -0.19380971789360046, 0.21197353303432465, 0.05243070796132088, -0.2116222232580185, -0.052569713443517685, 0.32980820536613464, -0.1858380138874054, -0.11178245395421982, -0.08459214121103287, -0.018447641283273697, 0.03217906877398491, -0.25486502051353455], [0.1468372642993927, 0.03463275358080864, -0.016121188178658485, 0.00022284033184405416, -0.020704086869955063, -0.28135961294174194, -0.044670019298791885, 0.08612430840730667, -0.017267374321818352, 0.20847994089126587, 0.11219263821840286, 0.48615676164627075, 0.05467155575752258, -0.014722965657711029, 0.1534915566444397, 0.10442210733890533, 0.09248417615890503, 0.06853818893432617, -0.04241890832781792, 0.045115239918231964, -0.1348663717508316, 0.041857700794935226, -0.005480878055095673, 0.0038198158144950867, 0.03488939628005028, 0.005407747812569141, 0.00028806665795855224, -0.17363443970680237, -0.03805369511246681, 0.03502785414457321, 0.0991944894194603, 0.10179883241653442, -0.07398227602243423, -0.2107558250427246, -0.04452754929661751, -0.07410573214292526, 8.376333425985649e-05, -0.033018808811903, 0.17287275195121765, 0.10795058310031891], [-0.03758431226015091, -0.25431162118911743, -0.261835515499115, 0.23102030158042908, -0.23818166553974152, 0.017918521538376808, 0.41693833470344543, 0.11587812751531601, -0.003121677553281188, 0.391568660736084, -0.36473628878593445, 0.14168499410152435, -0.12790365517139435, -0.08036653697490692, -0.2257162481546402, -0.03699880465865135, -0.006789475213736296, -0.145933136343956, -0.07799797505140305, 0.18489567935466766, -0.1469133496284485, 0.24016883969306946, 0.21995915472507477, 0.003800696460530162, -0.4783444404602051, 0.11063337326049805, 0.6731365323066711, 0.42088016867637634, -0.03456050530076027, -0.17707549035549164, -0.039536572992801666, 0.3107878267765045, 0.399970680475235, 0.21578063070774078, 0.04189114272594452, 0.1954345554113388, 0.01856565847992897, -0.06506937742233276, -0.19050315022468567, 0.4852084219455719], [-0.030916988849639893, 0.11178803443908691, -0.10118434578180313, 0.07896433025598526, 0.19173376262187958, 0.3194991946220398, 0.15792135894298553, 0.15684419870376587, -0.17495103180408478, 0.10489436239004135, -0.059560324996709824, 0.36148905754089355, -0.10299959778785706, -0.05183791741728783, -0.08886713534593582, -0.14941197633743286, -0.20069795846939087, -0.060822002589702606, 0.19669663906097412, 0.49763572216033936, 0.0462716706097126, 0.2202337235212326, 0.2634395956993103, -0.08565939217805862, -0.31058546900749207, -0.05283229053020477, -0.03871367126703262, 0.19744302332401276, 0.016153106465935707, 0.033047426491975784, -0.08600928634405136, 0.17565803229808807, 0.028289543464779854, -0.39289113879203796, 0.16916631162166595, 0.28822755813598633, 0.026877831667661667, 0.04868585243821144, -0.3061583340167999, 0.15252546966075897], [0.08160005509853363, -0.01756102964282036, -0.14278919994831085, 0.03960653021931648, 0.028046123683452606, 0.024800540879368782, 0.1317773312330246, 0.037993792444467545, -0.11896572262048721, 0.12418060749769211, -0.02767644077539444, -0.06270907074213028, -0.05237927660346031, -0.057735346257686615, 0.016636166721582413, -0.03998233377933502, -0.01772242784500122, 0.07875648885965347, 0.0678735002875328, -0.08966057747602463, -0.10123617947101593, 0.05320160090923309, -0.10674849152565002, 0.07086338847875595, -0.13212750852108002, -0.08890973031520844, 0.0015803748974576592, 0.25514841079711914, 0.14616943895816803, -0.0426306426525116, -0.07183432579040527, -0.0489426851272583, 0.1718919277191162, 0.0945705696940422, -0.026958603411912918, -0.1603369116783142, -0.13243114948272705, 0.045340437442064285, -0.04016272723674774, 0.12618622183799744], [-0.15360137820243835, -0.014820141717791557, -0.1423075795173645, 0.1412009745836258, 0.235961452126503, -0.13662166893482208, -0.1494290828704834, -0.2168823480606079, -0.1139405369758606, -0.04203414544463158, -0.14265207946300507, 0.47521498799324036, 0.07353737205266953, -0.003585426602512598, -0.12259916216135025, -0.15503951907157898, 0.053185854107141495, 0.11622510850429535, 0.21525318920612335, -0.21785590052604675, 0.29479336738586426, 0.1865883618593216, 0.04011964797973633, -0.04926454275846481, -0.3384386897087097, 0.18806315958499908, 0.5782056450843811, -0.244237020611763, 0.07765892893075943, -0.14359714090824127, -0.14023782312870026, 0.20986641943454742, 0.3653534948825836, -0.10871658474206924, 0.14076510071754456, 0.7478503584861755, 0.1291811466217041, 0.04521435871720314, -0.18722301721572876, 0.3960046172142029], [-0.0576978474855423, 0.00643913121894002, 0.05066526681184769, -0.055141203105449677, -0.2586698830127716, 0.11650800704956055, 0.3601778447628021, 0.06811697781085968, 0.0022960982751101255, -0.06717389822006226, 0.09756281226873398, -0.020221814513206482, 0.14804458618164062, 0.0790499746799469, 0.15162350237369537, -0.036680351942777634, -0.10693476349115372, 0.052077751606702805, -0.14375941455364227, -0.2033209651708603, -0.2988855540752411, -0.19762365520000458, 0.014572682790458202, -0.017236540094017982, -0.011229770258069038, -0.0801854133605957, -0.2991607189178467, 0.12805837392807007, -0.0528155118227005, 0.2528124153614044, 0.16288483142852783, -0.16932527720928192, -0.07353336364030838, 0.06708602607250214, -0.06901077926158905, 0.04494066908955574, -0.14834584295749664, -0.09872472286224365, 0.15519052743911743, -0.2545229494571686], [-0.11143381148576736, -0.4745306670665741, -0.23631346225738525, 0.10907140374183655, 0.2590715289115906, 0.1934872269630432, 0.2256428599357605, -0.17511481046676636, -0.16216611862182617, 0.695131242275238, -0.1574193388223648, 0.18293634057044983, -0.24256254732608795, 0.03146582096815109, -0.09196794033050537, -0.03685057908296585, -0.28998038172721863, 0.14634808897972107, 0.30196326971054077, -0.2984295189380646, 0.13743016123771667, -0.06803897023200989, -0.14051923155784607, -0.19713298976421356, -0.11589986085891724, 0.36201611161231995, 0.32862406969070435, -0.3811632990837097, 0.0707111805677414, -0.02750052697956562, -0.07633715867996216, 0.29701316356658936, 0.16214703023433685, -0.4459843635559082, 0.2917119562625885, 0.39675775170326233, -0.1607552468776703, -0.03348509594798088, 0.04509879648685455, 0.26735493540763855], [-0.31313660740852356, -0.12888848781585693, 0.1964416354894638, -0.185786172747612, -0.09295877069234848, 0.008213229477405548, 0.2894292175769806, -0.0676107406616211, 0.17272943258285522, 0.22182707488536835, 0.10014597326517105, 0.15590043365955353, 0.17877987027168274, 0.25139203667640686, -0.07550919055938721, -0.13183631002902985, 0.039729565382003784, 0.06547733396291733, -0.19918633997440338, -0.6846829652786255, -0.2022249847650528, -0.3711596429347992, -0.3817065358161926, -0.18301106989383698, 0.29482531547546387, 0.40165266394615173, -0.11829911917448044, -0.22237420082092285, 0.1100148856639862, 0.15739323198795319, 0.11233124881982803, -0.14775297045707703, -0.19431903958320618, 0.6223174333572388, -0.11483806371688843, -0.39822447299957275, -0.05101804435253143, 0.25426411628723145, 0.4238685667514801, -0.3090610206127167], [-0.19175060093402863, -0.016497086733579636, 0.03492361307144165, -0.019594276323914528, -0.1121600791811943, -0.06301632523536682, 0.3058834373950958, 0.11989211291074753, 0.10721413046121597, 0.03173203393816948, 0.06611119955778122, 0.27693310379981995, -0.15956005454063416, -0.12542743980884552, -0.01959935948252678, -0.15425589680671692, 0.08673477172851562, -0.000508131692185998, -0.04811330884695053, -0.355347603559494, -0.2850688397884369, -0.13244159519672394, -0.1382300853729248, 0.10990580171346664, 0.06355585902929306, -0.04782002419233322, -0.14777933061122894, 0.11218269169330597, 0.0902080163359642, 0.08623319864273071, 0.014346560463309288, -0.01102477591484785, 0.007771817967295647, 0.09160053730010986, -0.16895167529582977, -0.40866225957870483, -0.02921473979949951, 0.132429301738739, 0.086346834897995, -0.12150095403194427], [0.04406389594078064, 0.18983717262744904, 0.034159984439611435, 0.11981827765703201, -0.0808122530579567, -0.0030883948784321547, -0.045763805508613586, 0.15546375513076782, 0.009265749715268612, -0.10519863665103912, 0.011508374474942684, 0.13798440992832184, -0.03373996540904045, -0.08097120374441147, -0.21074724197387695, -0.07493550330400467, 0.10095369070768356, -0.029405642300844193, -0.10271158069372177, -0.19144435226917267, -0.07077047228813171, 0.1798648238182068, 0.09345007687807083, 0.05443904548883438, -0.08834691345691681, -0.03911159560084343, 0.08802317827939987, 0.12043260037899017, -0.038248322904109955, -0.1436121165752411, 0.061908312141895294, -0.06454125046730042, 0.06595995277166367, 0.18564455211162567, -0.0045709628611803055, -0.375996470451355, 0.22559860348701477, 0.018384773284196854, -0.05660923197865486, 0.009571616537868977], [-0.007231882307678461, 0.043538305908441544, -0.04432210698723793, 0.03869175165891647, 0.003939233720302582, -0.0887070968747139, -0.3090711832046509, -0.03842991963028908, 0.03884530067443848, -0.20739035308361053, -0.01218685694038868, -0.27052366733551025, 0.042893651872873306, -0.04394516348838806, -0.012732998467981815, -0.21284648776054382, 0.07650921493768692, -0.004455202259123325, -0.039802346378564835, 0.2209353893995285, 0.0742429867386818, 0.15219742059707642, 0.03810600936412811, 0.007765362039208412, -0.019588328897953033, -0.054832398891448975, -0.07024016231298447, 0.027978625148534775, 0.05896440148353577, -0.06300646811723709, 0.009925773367285728, 0.03694378212094307, 0.1528359204530716, -4.774812623509206e-05, -0.11273432523012161, 0.1883377581834793, 0.1272784173488617, 0.0634305328130722, -0.09791821986436844, 0.032339829951524734], [0.08844907581806183, 0.09740523248910904, -0.016241423785686493, 0.03770936653017998, -0.009024725295603275, 0.01222482044249773, 0.09757284075021744, -0.05437720939517021, 0.05599815770983696, -0.33792564272880554, 0.07924164086580276, -0.4694605767726898, 0.15413713455200195, -0.060457177460193634, -0.10141149163246155, 0.14056600630283356, -0.17927932739257812, 0.04666130617260933, -0.048292338848114014, 0.013589473441243172, 0.003174177138134837, 0.04877479001879692, 0.06484442949295044, -0.056241460144519806, -0.1306198686361313, -0.24088342487812042, -0.1324770599603653, 0.2622549533843994, 0.0028511551208794117, -0.1000363677740097, -0.03323916718363762, -0.1410759836435318, 0.11506916582584381, 0.4338814318180084, 0.0004144168342463672, 0.09420914202928543, 0.06086845323443413, -0.017936216667294502, -0.008241932839155197, -0.1297679841518402], [-0.04443265497684479, 0.024911288172006607, -0.03929669409990311, -0.011551125906407833, -0.1428356170654297, 0.028687994927167892, -0.06731639057397842, 0.12884202599525452, -0.05448018014431, 0.043675485998392105, 0.039833225309848785, 0.3837096095085144, -0.015409575775265694, 0.08043833076953888, 0.13571886718273163, 0.10179884731769562, -0.016793353483080864, -0.007577416021376848, 0.10438408702611923, -0.06896595656871796, -0.12631016969680786, 0.00466071767732501, -0.07021209597587585, 0.1698054075241089, 0.21203753352165222, 0.00604025786742568, -0.4317716956138611, -0.10602860152721405, -0.12394388020038605, 0.16867724061012268, 0.03421807289123535, 0.034711796790361404, -0.10546994209289551, -0.203802689909935, -0.12382661551237106, -0.10967777669429779, 0.02592105232179165, 0.01365131139755249, -0.016834545880556107, -0.21131248772144318], [-0.06427819281816483, 0.03677147254347801, 0.07749948650598526, 0.09597460180521011, 0.0898519977927208, 0.01456322893500328, -0.13567332923412323, -0.053690217435359955, -0.11259331554174423, -0.12099955976009369, 0.1544686257839203, 0.20471251010894775, 0.11590785533189774, 0.10176675021648407, 0.062422070652246475, -0.0032117334194481373, 0.060311730951070786, 0.025084415450692177, 0.08980313688516617, 0.07586194574832916, -0.0067831650376319885, 0.035540368407964706, 0.07479844987392426, -0.10700415074825287, 0.0678030326962471, 0.14076672494411469, -0.24857988953590393, -0.3436757028102875, -0.02081320434808731, -0.025663288310170174, -0.06383153051137924, 0.013524089008569717, 0.007481965236365795, -0.2902129292488098, -0.04790448397397995, 0.2922532558441162, 0.09162289649248123, 0.10817284137010574, 0.06562860310077667, -0.008978839963674545], [-0.07885558158159256, 0.16595540940761566, 0.290605366230011, 0.006554880645126104, -0.45833709836006165, -0.17218145728111267, 0.03919330984354019, 0.5940593481063843, 0.167655348777771, -0.08590012788772583, 0.022359250113368034, -0.004653798416256905, -0.5381532907485962, 0.034891434013843536, -0.10344967246055603, -0.07973496615886688, -0.1978345662355423, 0.0660204216837883, -0.09838725626468658, 0.18932463228702545, -0.2877597510814667, -0.11570218205451965, -0.19748492538928986, 0.35961806774139404, 0.2966054677963257, 0.47941693663597107, -0.22706416249275208, 0.22734849154949188, 0.05982568860054016, 0.07696044445037842, 0.42302000522613525, -0.3839593529701233, -0.37603551149368286, -0.9531228542327881, 0.1276540607213974, -0.6373229622840881, 0.02086498588323593, 0.19970816373825073, 0.320118248462677, -0.23742282390594482], [-0.11426480114459991, -0.19279974699020386, -0.06095631793141365, -0.09832059592008591, 0.1531226933002472, -0.15336346626281738, -0.2563397288322449, -0.308505654335022, -0.03490146994590759, 0.18490608036518097, 0.2735256552696228, -0.10572858899831772, 0.39819690585136414, -0.09863512963056564, -0.08403629809617996, -0.057273510843515396, 0.09652973711490631, 0.038178373128175735, 0.061708807945251465, -0.3439157009124756, 0.015604283660650253, 0.032449208199977875, -0.15341947972774506, 0.06504134833812714, 0.3183005452156067, -0.22648343443870544, -0.17404557764530182, -0.5589641332626343, -0.041111819446086884, 0.023078875616192818, -0.037175823003053665, -0.05108896642923355, -0.06794893741607666, 0.5005408525466919, -0.24207176268100739, 0.11653687059879303, 0.01505381241440773, -0.10012003034353256, -0.13256609439849854, -0.13967452943325043], [-0.017776794731616974, 0.1748991161584854, 0.12876689434051514, -0.017027489840984344, 0.20835766196250916, 0.13409461081027985, -0.24855732917785645, -0.1090339720249176, -0.02848021686077118, -0.1855441927909851, -0.07017308473587036, -0.08961173892021179, 0.23774783313274384, 0.12715333700180054, 0.004679212346673012, -0.04794595018029213, -0.02929982729256153, -0.06863181293010712, 0.08793820440769196, 0.4617966115474701, 0.2306138426065445, -0.17414569854736328, -0.12678904831409454, -0.15337896347045898, 0.20884227752685547, 0.17373110353946686, -0.40430355072021484, -0.150658518075943, 0.08291801810264587, -0.05075245350599289, 0.03999039903283119, -0.09357322007417679, -0.11539185047149658, -0.15012146532535553, 0.0040383185259997845, 0.3626977205276489, -0.19358885288238525, 0.05256681516766548, 0.05781390890479088, -0.2791678309440613], [-0.02886580117046833, 0.042552702128887177, 0.15487830340862274, 0.039418887346982956, 0.08141111582517624, -0.008367637172341347, -0.12523309886455536, 0.00022747066395822912, 0.09113295376300812, -0.31638213992118835, 0.07127086073160172, 0.009544257074594498, 0.10630714148283005, 0.07059522718191147, -0.08953572809696198, -0.018552375957369804, -0.12912793457508087, 0.09751959890127182, 0.05243680998682976, 0.3030186891555786, -0.0627804696559906, 9.684950055088848e-05, -0.10415376722812653, 0.09622128307819366, 0.2302115261554718, 0.11643973737955093, 0.049691859632730484, -0.10803647339344025, 0.13036008179187775, 0.13017156720161438, 0.009343086741864681, -0.10932665318250656, -0.027432266622781754, -0.20016665756702423, 0.002118432428687811, -0.007016669027507305, 0.1265539675951004, 0.07296726107597351, 0.12298930436372757, -0.11444197595119476], [0.06776506453752518, 0.03643930330872536, -0.008308793418109417, 0.25203314423561096, 0.313142329454422, 0.13163058459758759, -0.08057017624378204, -0.05191122740507126, -0.32164472341537476, -0.05924255773425102, -0.2179471105337143, -0.2696954607963562, 0.06900938600301743, -0.005692542530596256, -0.0245469119399786, 0.058538902550935745, -0.06616611033678055, 0.06698750704526901, 0.2882353961467743, 0.2604493498802185, 0.41650819778442383, 0.293418824672699, 0.2241363227367401, -0.32180067896842957, -0.1743234544992447, -0.11572802811861038, -0.4411224126815796, -0.030215030536055565, -0.07307681441307068, -0.12945334613323212, -0.2866820991039276, 0.2228112369775772, 0.06709932535886765, -0.20792560279369354, 0.15903465449810028, 0.44088271260261536, 0.040874067693948746, -0.18614284694194794, -0.5780362486839294, -0.13282176852226257], [0.07940869778394699, -0.048637017607688904, -0.03156742453575134, 0.07785280048847198, -0.07752922177314758, 0.051583852618932724, 0.034785110503435135, -0.0727023184299469, 0.06556789577007294, 0.14969582855701447, 0.0888720378279686, -0.11688961088657379, 0.21484944224357605, -0.17825664579868317, -0.00175576563924551, 0.0397399440407753, 0.11687013506889343, 0.10509335994720459, 0.12324614822864532, -0.1898069530725479, -0.21669723093509674, 0.0494990311563015, -0.12585164606571198, -0.16890811920166016, -0.09540227055549622, -0.24876481294631958, -0.033602211624383926, -0.06048520654439926, -0.070085808634758, 0.047008074820041656, 0.010339678265154362, 0.07353269308805466, 0.06707483530044556, 0.2807202935218811, -0.011954712681472301, 0.025912005454301834, -0.12399795651435852, -0.1413191705942154, 0.20057034492492676, 0.15290378034114838], [0.04496875777840614, -0.34735557436943054, -0.11726953089237213, -0.07527866959571838, 0.20030826330184937, 0.22473390400409698, -0.1333949714899063, 0.19639667868614197, -0.10977780818939209, 0.43516695499420166, -0.08008074015378952, 0.3114011883735657, -0.1883167028427124, -0.08605261147022247, 0.21013043820858002, 0.10695535689592361, -0.268785685300827, 0.1747458279132843, 0.2642395794391632, -0.3343980312347412, 0.044911738485097885, -0.08877946436405182, -0.08331014215946198, -0.11058543622493744, -0.014548069797456264, 0.01708841882646084, 0.16032035648822784, -0.054235998541116714, 0.06083196774125099, -0.036778442561626434, -0.0684332326054573, 0.1724781095981598, -0.027528872713446617, -0.7892453074455261, 0.09766633063554764, -0.30826035141944885, -0.2837623357772827, -0.12255150079727173, 0.08183639496564865, 0.06813739985227585], [0.08813785016536713, 0.3482384979724884, 0.03863747417926788, 0.2348533570766449, -0.18847425282001495, -0.024877095595002174, -0.24113185703754425, 0.511042058467865, 0.151823490858078, -0.14882659912109375, -0.13600927591323853, -0.27560269832611084, -0.5053192973136902, 0.03287562355399132, 0.07779919356107712, 0.17321808636188507, 0.11637358367443085, 0.13545039296150208, -0.0784325823187828, 0.4155768156051636, 0.039427902549505234, 0.02868671901524067, 0.03376166522502899, 0.5307254791259766, -0.035805702209472656, 0.12483608722686768, -0.0886513963341713, 0.14304213225841522, -0.03776858374476433, 0.04720497131347656, 0.22734230756759644, -0.10661552846431732, -0.009473088197410107, -0.7473256587982178, -0.1482076793909073, -0.15720973908901215, 0.2487184703350067, -0.0015953240217640996, -0.19389918446540833, 0.13638195395469666], [0.2007906436920166, 0.12919507920742035, -0.056682005524635315, 0.3831188678741455, 0.027140088379383087, 0.04848414659500122, 0.043826449662446976, 0.04661305248737335, -0.20921297371387482, -0.4061497747898102, -0.5234375, -0.2888660132884979, -0.33195027709007263, -0.03575148060917854, -0.05868861451745033, 0.19750027358531952, -0.03846043720841408, 0.06544226408004761, 0.07779254764318466, 0.9283163547515869, 0.17430894076824188, 0.20611590147018433, 0.38297560811042786, -0.010169019922614098, -0.35682329535484314, -0.18141168355941772, 0.2681971490383148, 0.32926705479621887, -0.0893738642334938, -0.39370205998420715, -0.19223669171333313, 0.09599718451499939, 0.36319127678871155, -0.5589797496795654, 0.0917317196726799, 0.5596280097961426, 0.17944560945034027, -0.08722735941410065, -0.17542678117752075, 0.3762792944908142], [0.04017433524131775, -0.11856599897146225, -0.024316146969795227, 0.14154399931430817, 0.02815932221710682, 0.03003890998661518, -0.07265868782997131, 0.041413746774196625, -0.08866829425096512, 0.2803695797920227, -0.09054111689329147, 0.20062628388404846, -0.04452940821647644, 0.1233450397849083, 0.0581759549677372, 0.10271546989679337, -0.021664995700120926, 0.0811476930975914, -0.015535470098257065, 0.02677297592163086, 0.029725845903158188, -0.03379298746585846, 0.027930893003940582, 0.021375756710767746, 0.1041293516755104, 0.163600355386734, 0.15219080448150635, -0.046240147203207016, -0.18232960999011993, -0.0305471308529377, -0.008651143871247768, 0.12429828196763992, -0.09836556762456894, -0.1956174075603485, 0.06609317660331726, -0.21730108559131622, -0.05206004157662392, 0.017451275140047073, 0.10101199895143509, -0.0713634192943573], [-0.024538284167647362, -0.08944268524646759, -0.05148909613490105, -0.12675167620182037, -0.2361850142478943, -0.04950432479381561, 0.3367883265018463, 0.04525206983089447, 0.13886255025863647, -0.000909437658265233, 0.07477610558271408, -0.0390683151781559, -0.00571261253207922, 0.0041467719711363316, 0.0747024342417717, -0.008379874750971794, 0.13236528635025024, -0.08054352551698685, -0.04326538369059563, -0.26392948627471924, -0.13834476470947266, -0.13510482013225555, -0.1492733359336853, -0.08780823647975922, -0.048028282821178436, -0.08104042708873749, 0.006795927416533232, 0.14006353914737701, -0.04229532182216644, 0.04855012521147728, -0.032778143882751465, 0.05044838413596153, 0.1816920042037964, 0.06733349710702896, -0.150220587849617, -0.070464126765728, -0.0834430605173111, -0.07238096743822098, 0.09430032223463058, 0.00944309402257204], [0.019533971324563026, -0.07741043716669083, 0.04832066223025322, 0.18475845456123352, -0.065543033182621, 0.11617178469896317, 0.15119469165802002, 0.21973346173763275, 0.01011018268764019, 0.10522818565368652, 0.10032497346401215, 0.046683214604854584, -0.182987242937088, 0.023936118930578232, -0.08660299330949783, 0.06295135617256165, -0.11285513639450073, 0.023806408047676086, 0.03255363926291466, 0.1358582079410553, 0.006509044673293829, 0.040611445903778076, -0.06148277595639229, 0.017627481371164322, -0.22608435153961182, 0.06362729519605637, 0.10474447160959244, 0.38621291518211365, 0.055086899548769, -0.0127448420971632, 0.06576120853424072, 0.12796688079833984, 0.07441540062427521, -0.33777034282684326, 0.20356649160385132, -0.3075958490371704, 0.04547866806387901, -0.03577455133199692, 0.24286805093288422, 0.00326036405749619], [-0.10906968265771866, 0.18784785270690918, -0.14937211573123932, 0.27584612369537354, 0.19509102404117584, 0.03285525366663933, -0.5349807143211365, -0.11618177592754364, -0.056726858019828796, 0.03156304359436035, -0.34539657831192017, -0.020275499671697617, 0.10738146305084229, -0.11907980591058731, -0.028678838163614273, -0.10513697564601898, 0.07210870832204819, 0.07903561741113663, 0.11762503534555435, 0.32047170400619507, 0.2649156153202057, 0.2551283538341522, 0.3274135887622833, -0.018197840079665184, -0.14578917622566223, 0.11617092788219452, 0.3918451964855194, -0.07900626212358475, 0.028581006452441216, -0.2926938533782959, -0.16416317224502563, 0.229849174618721, 0.11597339063882828, -0.060705721378326416, 0.029232654720544815, 0.18056786060333252, 0.17280671000480652, -0.038012269884347916, -0.34921473264694214, 0.2526540160179138], [-0.06929070502519608, 0.1853513866662979, 0.05735506862401962, -0.038507092744112015, -0.026463018730282784, -0.13298329710960388, -0.44686517119407654, -0.18040254712104797, 0.032475609332323074, -0.16026562452316284, -0.13268229365348816, -0.12930597364902496, 