{"model_data": {"model": "SimpleRNN", "input_size": 1, "skip": "0", "output_size": 1, "unit_type": "GRU", "num_layers": 1, "hidden_size": 40, "bias_fl": true}, "state_dict": {"rec.weight_ih_l0": [[-0.018536563962697983], [-0.8773936033248901], [0.04640144854784012], [-0.4212295114994049], [0.18989130854606628], [0.17305362224578857], [-0.38482293486595154], [0.5431108474731445], [-0.16803355515003204], [-0.554253101348877], [-0.1875871866941452], [-0.41308435797691345], [0.1706646978855133], [0.06460254639387131], [0.07497163116931915], [-0.07471200078725815], [0.008237261325120926], [0.04471484571695328], [-0.14076833426952362], [-1.0394222736358643], [1.5357129573822021], [-0.3789249658584595], [-0.46101629734039307], [0.36251699924468994], [-0.47767525911331177], [-0.15250037610530853], [-1.2358736991882324], [0.4135291278362274], [0.05949748679995537], [-0.17371097207069397], [0.690991222858429], [-0.23280158638954163], [0.18976262211799622], [-0.9001078605651855], [0.20298922061920166], [0.41127073764801025], [-0.29107218980789185], [0.13533881306648254], [0.3247184455394745], [-1.485465168952942], [-0.06294255703687668], [-0.15632236003875732], [0.3522340655326843], [0.010019520297646523], [0.11856704205274582], [-0.032122381031513214], [0.44803500175476074], [0.020636623725295067], [0.3125430941581726], [-0.5260500907897949], [0.14099229872226715], [0.27440744638442993], [-0.4809296131134033], [-0.016763335093855858], [0.0699642077088356], [0.023574087768793106], [0.05376412719488144], [0.15543143451213837], [0.3789977431297302], [1.240299940109253], [-0.09876105934381485], [0.2566639184951782], [-0.06984905898571014], [-0.36152568459510803], [0.12159653753042221], [-0.04037194699048996], [1.5873225927352905], [-1.4567867517471313], [0.002510768361389637], [0.28594619035720825], [0.24085918068885803], [0.5265698432922363], [0.17729878425598145], [-0.8961700201034546], [0.08147487044334412], [3.043657064437866], [0.2247527539730072], [-0.07462967932224274], [0.2924986779689789], [1.5244604349136353], [0.07364922761917114], [0.48173534870147705], [-0.4152277410030365], [0.40525808930397034], [0.48134690523147583], [0.1281948685646057], [-0.5877031683921814], [-0.25826942920684814], [-0.39346328377723694], [-0.46195998787879944], [-0.5756168365478516], [-0.024263504892587662], [0.2827012836933136], [-0.0475056953728199], [-0.1876496523618698], [-0.12404119968414307], [-0.017831306904554367], [0.20508019626140594], [0.3244304656982422], [0.5330016613006592], [0.6187293529510498], [0.5838540196418762], [0.5103645920753479], [-0.12441907078027725], [-0.37367740273475647], [-0.054278258234262466], [0.5067494511604309], [-0.06437405943870544], [-0.020056089386343956], [-0.6296594142913818], [-0.5051299929618835], [0.4884975254535675], [0.5077980160713196], [-0.30306023359298706], [0.2088300585746765], [0.7505334615707397], [0.3285014033317566], [-0.06733806431293488], [-0.4938572347164154], [0.4353877305984497]], "rec.weight_hh_l0": [[-0.0005208565853536129, 0.05887744948267937, 0.004896996077150106, 0.023010805249214172, -0.012812800705432892, 0.008117731660604477, 0.02615908905863762, 0.047518905252218246, 0.009790518321096897, -0.10532642900943756, -0.013065031729638577, -0.01867714338004589, -0.0006842330913059413, 0.03755290433764458, -0.005378983914852142, -0.030695993453264236, -0.0036318169441074133, 0.013803292065858841, -0.012831414118409157, 0.1506263166666031, -0.021150095388293266, 0.03840191662311554, 0.0675055980682373, -0.011823994107544422, -0.06755374372005463, -0.00352472928352654, -0.01551851723343134, 0.04107986390590668, 0.004292767494916916, -0.021241160109639168, 0.014499508775770664, -0.006728149484843016, -0.007477950770407915, -0.17133192718029022, 0.005559752695262432, -0.0202639177441597, 0.036446042358875275, 0.017744723707437515, 0.003962771967053413, 0.034624285995960236], [0.029611028730869293, -0.2792041301727295, 0.3299739360809326, -0.16710907220840454, -0.37529540061950684, -0.10677238553762436, 0.39733070135116577, 0.21093276143074036, 0.21956999599933624, 0.24541796743869781, 0.19232311844825745, 0.008695722557604313, 0.015704436227679253, 0.06064436957240105, 0.0012376444647088647, 0.08807803690433502, 0.10261794179677963, -0.10977616161108017, -0.15568575263023376, -0.11611191928386688, -0.4626580774784088, -0.0759977474808693, -0.11813048273324966, 0.044123437255620956, 0.09079840779304504, -0.003857602830976248, 0.21669889986515045, 0.1373104304075241, -0.09895160049200058, 0.3403549790382385, 0.4120464622974396, -0.3485805094242096, -0.30600786209106445, 0.20719772577285767, -0.15883363783359528, -0.08456271141767502, -0.010709916241466999, 0.05721279978752136, 0.2975703179836273, -0.06549055874347687], [-0.013335845433175564, -0.0037331548519432545, -0.00014949162141419947, -0.04856640473008156, -0.0019144314574077725, -0.00992473866790533, 0.10938287526369095, 0.0158995371311903, -0.0001105252667912282, 0.03183595836162567, -0.014999949373304844, -0.009018697775900364, -0.053976647555828094, 0.03201417252421379, 0.03226476162672043, -0.02768086828291416, 0.020517807453870773, -0.08766227215528488, -0.03544369339942932, -0.07453502714633942, 0.013093793764710426, -0.05427984893321991, -0.01385134644806385, -0.09222535043954849, 0.020637543871998787, -0.0289809238165617, 0.007219185121357441, 0.07209541648626328, -0.035778507590293884, -0.007027753628790379, 0.029137151315808296, -0.004061616957187653, -0.0343172661960125, 0.10885361582040787, -0.02473854273557663, -0.24608640372753143, -0.04101771488785744, 0.010372315533459187, 0.11351048946380615, 0.02647852525115013], [-0.0513189472258091, -0.14651423692703247, -0.028537405654788017, -0.0664934441447258, 0.002693443326279521, 0.013773838989436626, 0.18234005570411682, 0.055566322058439255, 0.012198279611766338, 0.1432802379131317, -0.04452124983072281, 0.09089812636375427, -0.13094422221183777, 0.01707100123167038, -0.012868250720202923, -0.01841733790934086, -0.10684706270694733, -0.018820401281118393, 0.062025293707847595, 0.11101307719945908, 0.03210483118891716, -0.13650427758693695, -0.113926000893116, 0.024987604469060898, 0.01596471294760704, 0.10275476425886154, 0.12007249146699905, 0.15872816741466522, 0.05481601133942604, 0.03413492813706398, 0.06257468461990356, 0.09551443159580231, -0.05165288597345352, -0.11922901123762131, 0.02397705800831318, -0.069025419652462, -0.07999487966299057, 0.026653971523046494, 0.1337842494249344, 0.24917131662368774], [0.01642465963959694, 0.18833895027637482, -0.12341340631246567, 0.36784765124320984, 0.04967961087822914, 0.044486820697784424, -0.20506183803081512, 0.18772733211517334, -0.02974533475935459, -0.11664361506700516, -0.3260793089866638, 0.20022477209568024, -0.5052107572555542, -0.03640160709619522, -0.019736887887120247, 0.032309163361787796, -0.1724960058927536, 0.020176561549305916, 0.07367289811372757, 0.8961958289146423, 0.1282588094472885, 0.15234696865081787, 0.29193416237831116, 0.21502719819545746, -0.22278977930545807, 0.12066684663295746, 0.14238043129444122, 0.5831810235977173, 0.06962030380964279, -0.2070774883031845, -0.06042766198515892, 0.09507277607917786, 0.16395843029022217, -0.8417060375213623, 0.18706956505775452, 0.3464147746562958, 0.06878906488418579, 0.006626583635807037, -0.2470976710319519, 0.34615951776504517], [-0.020437894389033318, 0.007949268445372581, -0.0501837395131588, 0.04717065393924713, -0.043864816427230835, 0.015382854267954826, 0.0530807264149189, 0.06425642967224121, -0.030475180596113205, 0.0803886130452156, -0.09501522034406662, 0.08538909256458282, -0.08419249206781387, 0.003453945042565465, 0.01742408610880375, -0.034962739795446396, -0.06457991898059845, 0.0048693218268454075, 0.05694299563765526, 0.01045470405369997, -0.0919564962387085, 0.0050435238517820835, 0.016325626522302628, -0.002140163676813245, -0.030692748725414276, 0.11569289863109589, 0.0466448999941349, 0.024770572781562805, 0.042762547731399536, -0.04786397144198418, 0.033574942499399185, 0.11965824663639069, -0.008197962306439877, -0.1585206836462021, 0.053595881909132004, -0.1360892355442047, -0.0071625844575464725, 0.03168093040585518, 0.014630932360887527, 0.08283784985542297], [0.007112147752195597, -0.3400200605392456, 0.02402242086827755, -0.10157646238803864, -0.23057487607002258, -0.09905073046684265, 0.28120511770248413, 0.34298381209373474, 0.27511727809906006, 0.3586885929107666, -0.013999613001942635, -0.021449999883770943, -0.8418353796005249, -0.07132008671760559, -0.036590561270713806, 0.194560706615448, -0.09744793176651001, -0.03356952965259552, -0.14208842813968658, 0.883979082107544, -0.36087778210639954, -0.1872614622116089, -0.11454791575670242, 0.04169641062617302, -0.082469642162323, 0.1311478316783905, 0.47218984365463257, 0.6359456777572632, 0.011784462258219719, 0.10485190153121948, 0.35227105021476746, -0.06182878836989403, -0.020509686321020126, -0.9172767400741577, -0.05641176179051399, 0.6867176294326782, -0.0791943222284317, -0.047653671354055405, 0.24138882756233215, 0.3969697058200836], [-0.059645239263772964, 0.08172684162855148, -0.051733262836933136, 0.3283480703830719, 0.2983171343803406, 0.15420381724834442, -0.41665542125701904, -0.013588839210569859, -0.0983642190694809, 0.04819929972290993, -0.43015792965888977, 0.48407697677612305, -0.22948114573955536, -0.03199874609708786, -0.06243418902158737, -0.09775813668966293, -0.258830189704895, 0.09951549768447876, 0.15342919528484344, 0.7878283858299255, 0.37958985567092896, 0.1757596880197525, 0.30520886182785034, 0.14571110904216766, -0.289537250995636, 0.21106697618961334, 0.0323556549847126, 0.1251157820224762, 0.18040254712104797, -0.21579477190971375, -0.06532175838947296, 0.11019648611545563, 0.07524298131465912, -0.28789812326431274, 0.33223170042037964, 0.38087424635887146, 0.022617658600211143, 0.08296620845794678, -0.4180251657962799, 0.32729899883270264], [0.02690962888300419, 0.059531889855861664, 0.01973194256424904, 0.04230745509266853, -0.0561923049390316, -0.03219899907708168, -0.07576297223567963, 0.1391766369342804, 0.03289729729294777, 0.0154033862054348, -0.07441466301679611, 0.03398296982049942, -0.4363166391849518, -0.02243221364915371, 0.012872970663011074, 0.05581206828355789, -0.04169287905097008, -0.021489055827260017, -0.022640451788902283, 0.2573772370815277, -0.07239090651273727, -0.011371023021638393, 0.026192056015133858, 0.14652998745441437, -0.03267286345362663, 0.025562919676303864, 0.06502202153205872, 0.2488764077425003, -0.015606234781444073, 0.015824174508452415, 0.09187805652618408, -0.0457511730492115, -0.021987779065966606, -0.46156734228134155, 0.026206372305750847, -0.025793833658099174, 0.016506601125001907, -0.014778081327676773, 0.009675968438386917, 0.11545347422361374], [0.013889769092202187, -0.09509971737861633, 0.24076679348945618, 0.0585029311478138, -0.5104485750198364, 0.03323488309979439, 0.5912055969238281, 0.39139145612716675, 0.14781330525875092, 0.1363867074251175, 0.08651448041200638, 0.23319706320762634, -0.06617714464664459, 0.1397169977426529, 0.027642149478197098, 0.015703225508332253, -0.16370277106761932, -0.003217735094949603, -0.03693960979580879, 0.21913392841815948, -0.6557043790817261, 0.022707687690854073, 0.01571914181113243, 0.04320690035820007, -0.07677332311868668, 0.34776365756988525, 0.16832196712493896, 0.23364675045013428, 0.10658056288957596, 0.19107091426849365, 0.4886327385902405, -0.2776188254356384, -0.24718274176120758, -0.24354039132595062, 0.05257084220647812, -0.614825427532196, 0.027394533157348633, 0.16491983830928802, 0.42905861139297485, 0.03829681873321533], [0.003426266834139824, 0.034419357776641846, 0.08704715222120285, -0.07456497102975845, 0.033841513097286224, -0.10634786635637283, -0.005691204685717821, -0.013114087283611298, 0.006712249480187893, 0.07312826812267303, 0.003559800796210766, -0.13262902200222015, -0.12333084642887115, 0.12594035267829895, 0.010108301416039467, 0.00040215274202637374, 0.10631002485752106, -0.025057215243577957, -0.06750915944576263, -0.3850758969783783, -0.015509922057390213, 0.032131172716617584, -0.004510004539042711, -0.04123445600271225, 0.005466361530125141, -0.2274722307920456, -0.06927400082349777, 0.03141946718096733, -0.10576175898313522, 0.11575111746788025, 0.06662175059318542, 0.02199358120560646, -0.10190154612064362, 0.17044800519943237, -0.15343348681926727, -0.19765284657478333, 0.04638195410370827, 0.053190164268016815, 0.10931506752967834, -0.1664431393146515], [0.0626203715801239, 0.22471633553504944, 0.09051673114299774, 0.0631333515048027, -0.23307515680789948, 0.07609962671995163, 0.05948686599731445, 0.16762158274650574, 0.06297481805086136, -0.10118567943572998, 0.15807418525218964, 0.16595469415187836, 0.16645677387714386, 0.0638943612575531, 0.03561905398964882, 0.03488359972834587, -0.24052855372428894, 0.06404315680265427, 0.07093210518360138, 0.3202444016933441, -0.41040802001953125, -0.059597197920084, 0.005047750659286976, 0.03884344547986984, 0.0294631477445364, 0.2980425953865051, 0.2234848439693451, -0.1229579821228981, 0.11569340527057648, 0.11878541857004166, 0.29557371139526367, -0.08399123698472977, -0.15204104781150818, -0.6537936925888062, 0.21277758479118347, -0.13973571360111237, 0.007104725111275911, 0.06027807295322418, 0.262574702501297, 0.1113000437617302], [0.10227981209754944, -0.13195115327835083, -0.13287915289402008, 0.05768715590238571, 0.4706125557422638, 0.05902234464883804, -0.7963624000549316, -0.2649616003036499, -0.09833531826734543, 0.1791282594203949, -0.19471272826194763, 0.1615206003189087, 0.27068111300468445, -0.08599133789539337, 0.05042960122227669, 0.0630079135298729, 0.1274365782737732, 0.12889614701271057, 0.10201315581798553, 0.11391042172908783, 0.5666013956069946, 0.19879645109176636, 0.2292080521583557, -0.012800982221961021, -0.0330810472369194, -0.45610684156417847, 0.07931456714868546, -0.016630716621875763, -0.032258015125989914, -0.04199357330799103, -0.3254725933074951, 0.09209348261356354, 0.11762282252311707, 0.48814740777015686, 0.03226827085018158, 0.5489194393157959, -0.027066431939601898, -0.08560515195131302, -0.465287446975708, 0.07852383702993393], [0.003113215323537588, 0.030469395220279694, -0.00807018019258976, -0.014367661438882351, -0.030904071405529976, 0.00995166227221489, 0.05262135714292526, 0.023877587169408798, 0.013978748582303524, -0.0611359179019928, -0.03259672224521637, -0.036317963153123856, 0.01796465925872326, 0.030680345371365547, 0.0010673835640773177, -0.014120771549642086, -0.0011574826203286648, 0.006248412188142538, -0.025302782654762268, 0.1165308952331543, -0.0397915318608284, -0.0021639291662722826, 0.03815652057528496, -0.06236181780695915, -0.03381963446736336, -0.02488495036959648, 0.07913819700479507, 0.05716320127248764, 0.002790044294670224, -0.005176653154194355, -0.0034973055589944124, -0.0059972344897687435, 0.009957771748304367, 0.011675791814923286, -0.017072800546884537, -0.006536403205245733, 0.013595681637525558, -0.008987223729491234, 0.05434909835457802, 0.051189929246902466], [-0.015756510198116302, 0.01985747367143631, 0.03470712527632713, 0.030555782839655876, -0.044822368770837784, 0.033146414905786514, -0.0032024516258388758, 0.047406211495399475, 0.01179224532097578, 0.004113533068448305, -0.0399182103574276, 0.033424269407987595, -0.08899367600679398, 0.017075447365641594, -0.005466283764690161, -0.020538203418254852, -0.057052191346883774, 0.03783097118139267, 0.014319796115159988, 0.14637647569179535, -0.04414087533950806, 0.005195715464651585, 0.041747935116291046, 0.010804838500916958, -0.04133141413331032, 0.06034509837627411, 0.0293570663779974, 0.09102127701044083, 0.03781329095363617, 0.013501470908522606, 0.05323779955506325, -0.007835590280592442, 0.0028732120990753174, -0.16364088654518127, 0.06213158741593361, 0.06431172043085098, 0.013372274115681648, 0.015777699649333954, 0.013936607167124748, 0.08041416108608246], [0.0007349574589170516, 0.015171677805483341, 0.015328697860240936, -0.004705752711743116, 0.005455250386148691, 0.01676173321902752, -0.059949811547994614, 0.028314536437392235, 0.003635747591033578, 0.007443603593856096, 0.0025837342254817486, 0.0003643568488769233, -0.035639438778162, 0.010905260220170021, -0.0039048942271620035, -0.0013355197152122855, -0.03761502355337143, 0.03206295520067215, 0.006262543611228466, 0.08140736818313599, 0.0022373502142727375, 0.025531766936182976, 0.027555223554372787, -0.0005277133313938975, -0.021228035911917686, 0.017815273255109787, -0.038834348320961, 0.049388669431209564, 0.01863611303269863, -0.0007303133024834096, 0.023511260747909546, -0.011274551041424274, -0.0024184552021324635, -0.13113613426685333, 0.0395369715988636, 0.0709548071026802, 0.017896484583616257, 0.012600005604326725, -0.004172098357230425, -4.759405055665411e-05], [-0.05800468847155571, -0.0446048229932785, -0.022082053124904633, 0.100162073969841, 0.004599963314831257, 0.0916980728507042, 0.10146639496088028, 0.10916220396757126, -0.02488131821155548, 0.19392043352127075, -0.07234739512205124, 0.46599963307380676, -0.007185156457126141, 0.01701447181403637, -0.02040673792362213, -0.07327738404273987, -0.20340578258037567, 0.06894396990537643, 0.09058250486850739, 0.18970395624637604, -0.03811812400817871, 0.01973593793809414, 0.03112855739891529, -0.02233572117984295, -0.08517825603485107, 0.2800804078578949, 0.07136359810829163, -0.1811351180076599, 0.11755779385566711, -0.057801760733127594, 0.06121865287423134, 0.09998761862516403, -0.006031343713402748, -0.3110775351524353, 0.2034154087305069, -0.1461431235074997, -0.030546577647328377, 0.06337027251720428, 0.010376973077654839, 0.12274836003780365], [-0.008959492668509483, -0.06429092586040497, 0.04887894168496132, 0.017452452331781387, 0.04020893946290016, 0.043145786970853806, -0.15952198207378387, 0.019440315663814545, 0.012770378030836582, 0.0938272625207901, -0.053433340042829514, 0.11786168813705444, -0.2192947119474411, 0.043236833065748215, -0.006973381154239178, -0.017155030742287636, -0.06936689466238022, 0.05166861042380333, -0.010755682364106178, 0.172848179936409, 0.006864665541797876, 0.01280090119689703, 0.026046911254525185, -0.015120749361813068, -0.045798905193805695, 0.03680827468633652, 0.20601245760917664, 0.017063703387975693, 0.028800325468182564, 0.007437497843056917, 0.03086722455918789, -0.08883214741945267, 2.132038753188681e-05, -0.1279648393392563, 0.07211759686470032, 0.2890907824039459, 0.023685012012720108, -0.005710359197109938, 0.04637768492102623, 0.12090561538934708], [-0.01150056067854166, -0.11958514153957367, 0.027442101389169693, -0.017161011695861816, -0.06476520001888275, 0.0263795405626297, -0.09964434057474136, 0.152321457862854, 0.0639231726527214, 0.1830088198184967, -0.0264013409614563, 0.15059387683868408, -0.5040711760520935, 0.005122401285916567, 0.0400153286755085, 0.026979809626936913, -0.07694654166698456, -0.006398601923137903, -0.05741392448544502, 0.24338814616203308, -0.10926493257284164, -0.11945821344852448, -0.06360198557376862, 0.04372524842619896, 0.009834572672843933, 0.0768522396683693, 0.20716492831707, 0.23219984769821167, 0.02995327301323414, 0.06468179821968079, 0.14992962777614594, -0.06421232223510742, -0.057277385145425797, -0.3260822296142578, 0.06887424737215042, -0.1529662013053894, -0.08173688501119614, -0.01722768135368824, 0.1624278873205185, 0.1772998720407486], [-0.3270789086818695, -0.034298405051231384, 0.7007392644882202, -0.17060212790966034, -0.7029446363449097, -0.06904422491788864, 0.5367622971534729, 0.49996519088745117, 0.36394715309143066, 0.4997502267360687, 0.5933710336685181, 0.1594642698764801, -0.4786517918109894, 0.14945322275161743, -0.042122043669223785, -0.1622633934020996, -0.07587774842977524, 0.20711031556129456, -0.2003546804189682, -0.16231359541416168, -0.5238021016120911, -0.3548665940761566, -0.43981924653053284, 0.1325245052576065, 0.6213686466217041, 0.6963448524475098, -1.1519650220870972, 0.14939750730991364, 0.007654689718037844, 0.5297637581825256, 0.6348057985305786, -0.794520914554596, -0.6979504227638245, -0.555512011051178, 0.0504242442548275, -0.9172455072402954, -0.06450311839580536, 0.28949305415153503, 0.3362003266811371, -1.1585710048675537], [0.08766777813434601, 0.2983314096927643, -0.1290067881345749, 0.4007693827152252, 0.22817815840244293, -0.06714406609535217, -0.5373858213424683, 0.09656600654125214, -0.11721952259540558, -0.3079434335231781, -0.4748070538043976, 0.12688998878002167, -0.22948415577411652, -0.07192578166723251, 0.02380598522722721, 0.017471304163336754, -0.06291193515062332, -0.15666766464710236, 0.10279243439435959, 1.0599534511566162, 0.2773683965206146, 0.3692043125629425, 0.4959363043308258, 0.2814044654369354, -0.4793262183666229, 0.02300501987338066, 0.29583045840263367, 0.17119735479354858, 0.03561069071292877, -0.47584202885627747, -0.004959084093570709, 0.2309957593679428, 0.1467837691307068, -0.37317758798599243, 0.10458030551671982, 0.7030236721038818, 0.09540043026208878, -0.047976963222026825, -0.40152472257614136, 0.6545094847679138], [0.054113928228616714, -0.062016259878873825, -0.014765680767595768, 0.02384500578045845, -0.17102722823619843, -0.06002908945083618, -0.03600221127271652, 0.21050353348255157, 0.06137256324291229, 0.01482961606234312, -0.06970427185297012, -0.012961720116436481, -0.4877179265022278, -0.01785345934331417, 0.01466051209717989, 0.08913972228765488, -0.05834934115409851, -0.01688557118177414, -0.018086452037096024, 0.2830762565135956, -0.2031288892030716, -0.04558740556240082, 0.013814830221235752, 0.14028386771678925, -0.04584018513560295, 0.07140063494443893, 0.3478900194168091, 0.4419015944004059, -0.005498177371919155, 0.026501325890421867, 0.22093485295772552, -0.00872083567082882, -0.028007907792925835, -0.4687458574771881, -0.022695569321513176, -0.19849979877471924, 0.0090791005641222, -0.020818859338760376, 0.2274250090122223, 0.25992071628570557], [0.050430819392204285, 0.07221715152263641, 0.13188719749450684, -0.0491415411233902, -0.27248328924179077, -0.05713142827153206, 0.30164748430252075, 0.24797651171684265, 0.12238474935293198, -0.044702935963869095, 0.11837852001190186, -0.18938517570495605, -0.29428911209106445, 0.02552526630461216, -0.005650419741868973, 0.08452758938074112, 0.03400447219610214, -0.0738113671541214, -0.07681696116924286, -0.021356431767344475, -0.3788626194000244, -0.0983816459774971, -0.10149780660867691, 0.09808425605297089, 0.0722365453839302, -0.028025880455970764, -0.06590907275676727, 0.40585577487945557, -0.045392099767923355, 0.14810071885585785, 0.30121421813964844, -0.1863444596529007, -0.20124968886375427, -0.360278457403183, -0.09820209443569183, -0.11578374356031418, -0.023689765483140945, 0.00984521210193634, 0.25145378708839417, -0.14443276822566986], [-0.038782551884651184, -0.14061617851257324, -0.05237627774477005, -0.10604428499937057, 0.17066249251365662, -0.06889452785253525, 0.010541615076363087, -0.18838123977184296, -0.0021517216227948666, 0.09530144184827805, -0.11084568500518799, -0.048856183886528015, 0.1527615338563919, 0.018080981448292732, 0.022616298869252205, -0.05549727752804756, 0.16975802183151245, -0.0870775654911995, -0.03127862513065338, -0.13481104373931885, 0.370024174451828, -0.15700604021549225, -0.1439707726240158, -0.028473658487200737, 0.09848926961421967, -0.16565914452075958, 0.041096754372119904, -0.18083028495311737, -0.08116085082292557, 0.025695018470287323, -0.2172570675611496, 0.17310556769371033, 0.005096542648971081, 0.30638793110847473, -0.15367813408374786, 0.25396430492401123, -0.10584651678800583, 0.01620829850435257, -0.19323475658893585, 0.12769582867622375], [0.004653909243643284, 0.06240793690085411, 0.12068493664264679, -0.09472494572401047, -0.22504593431949615, -0.013015141710639, 0.20496034622192383, 0.1522672325372696, 0.08471096307039261, -0.04602671042084694, 0.1848188042640686, -0.13271869719028473, -0.22568842768669128, 0.08596023172140121, 0.019836414605379105, 0.021312817931175232, 0.02565762773156166, -0.059919219464063644, -0.07251875847578049, -0.11919461935758591, -0.30248624086380005, -0.10544094443321228, -0.10730157047510147, -0.034376177936792374, 0.075594961643219, -0.011802454479038715, -0.18200638890266418, 0.26590174436569214, -0.013870303519070148, 0.12859243154525757, 0.23588642477989197, -0.29201844334602356, -0.15060380101203918, -0.22607062757015228, -0.06728280335664749, -0.09533429145812988, -0.02768436074256897, 0.02673381194472313, 0.2709216773509979, -0.20783324539661407], [-0.04673059657216072, -0.0017311875708401203, 0.010219349525868893, 0.07491221278905869, -0.10207423567771912, 0.10773207992315292, 0.32649052143096924, 0.1936485916376114, 0.025980710983276367, 0.0894031748175621, -0.05999276787042618, 0.47774624824523926, -0.03444472327828407, 0.08744291961193085, -0.036632977426052094, -0.07790718227624893, -0.27757373452186584, 0.04969825595617294, 0.027429359033703804, 0.41592806577682495, -0.29312223196029663, 0.024725135415792465, 0.0740036740899086, -0.13455869257450104, -0.11370448023080826, 0.3303675353527069, 0.217509463429451, 0.029859542846679688, 0.13016194105148315, -0.03615513816475868, 0.18911758065223694, -0.0424710288643837, -0.06614340841770172, -0.7334755063056946, 0.2054443061351776, -0.07597425580024719, -0.01322854682803154, 0.06438419222831726, 0.2546832263469696, 0.22405201196670532], [-0.22009418904781342, 0.12979647517204285, 0.20075523853302002, -0.29621246457099915, -0.2083967924118042, -0.04785235598683357, 0.08162380009889603, 0.007372225169092417, 0.10331858694553375, 0.08889129757881165, 0.3950079679489136, 0.02054627053439617, -0.10822685062885284, 0.30457720160484314, 0.03382686525583267, -0.08688443899154663, 0.10808533430099487, 0.08319543302059174, -0.10505308210849762, -0.6686519384384155, 0.005026320926845074, -0.30195626616477966, -0.5074119567871094, -0.21552734076976776, 0.5062549114227295, 0.17247314751148224, -1.0056780576705933, -0.025637783110141754, -0.10641339421272278, 0.3019530177116394, 0.16326427459716797, -0.4050423800945282, -0.3929581940174103, -0.17133398354053497, -0.25316452980041504, -1.082348108291626, -0.11645501106977463, 0.12768709659576416, 0.2780730426311493, -0.7462582588195801], [-0.05535232648253441, -0.2061242014169693, -0.19415690004825592, 0.16865339875221252, 0.19115181267261505, 0.1320336014032364, -0.1594814509153366, -0.06730141490697861, -0.029131360352039337, 0.15544624626636505, -0.3841365575790405, 0.020031748339533806, 0.0636075809597969, -0.05419543385505676, 0.019036030396819115, -0.023066535592079163, -0.15124493837356567, 0.06169792637228966, 0.06167537346482277, 0.5290478467941284, 0.3679853081703186, 0.1673184633255005, 0.3622903823852539, -0.03842093423008919, -0.2715199291706085, -0.033849794417619705, 0.1692793071269989, 0.055638909339904785, 0.14366550743579865, -0.18089249730110168, -0.12978911399841309, 0.18708398938179016, 0.24437189102172852, -0.02852511964738369, 0.1979631930589676, 0.8347156643867493, 0.010876946151256561, -0.04245945066213608, -0.3785357177257538, 0.2391480952501297], [-0.027280477806925774, 0.04340028017759323, -0.046141669154167175, 0.07387956231832504, 0.011632139794528484, 0.039581023156642914, 0.010476143099367619, 0.07666917890310287, -0.022941766306757927, 0.05714922770857811, -0.055761098861694336, 0.17324817180633545, 0.0021988609805703163, 0.009717520326375961, 0.012009955011308193, -0.03934101760387421, -0.08581066876649857, 0.038984451442956924, 0.04410252347588539, 0.04307731240987778, -0.02492949552834034, 0.024275414645671844, 0.041805244982242584, 0.008923716843128204, -0.05977257713675499, 0.14066775143146515, 0.013423752039670944, -0.05713421106338501, 0.05878574773669243, -0.06354021281003952, 0.033310092985630035, 0.09798995405435562, 0.02235368639230728, -0.1162528395652771, 0.09690851718187332, -0.1643584966659546, 0.018536662682890892, 0.03426526114344597, 0.003672588849440217, 0.05532943084836006], [-0.01572461612522602, -0.059282686561346054, 0.05173337832093239, -0.0730130523443222, -0.12047668546438217, -0.021862907335162163, 0.19685547053813934, 0.11754677444696426, 0.04515394568443298, 0.06077113002538681, 0.019308319315314293, -0.054957203567028046, -0.3331645131111145, 0.02546689473092556, 0.019907325506210327, 0.019291702657938004, -0.009913136251270771, -0.05141223222017288, -0.028232214972376823, 0.13626177608966827, -0.1375623643398285, -0.11074500530958176, -0.08067202568054199, 0.03299666941165924, 0.04441449046134949, 0.023289857432246208, 0.06982606649398804, 0.24559855461120605, -0.02938326820731163, 0.0873689353466034, 0.11351224780082703, -0.06015381962060928, -0.09408123791217804, -0.259097158908844, -0.04170653596520424, 0.07899387180805206, -0.0615045540034771, 0.013826889917254448, 0.13527053594589233, 0.09118955582380295], [0.0019538342021405697, 0.11934705078601837, 0.014186423271894455, 0.26467499136924744, 0.09361644089221954, 0.03182041272521019, -0.41495344042778015, 0.06989903748035431, -0.009804078377783298, -0.041009094566106796, -0.3296985328197479, 0.2021673023700714, -0.21503640711307526, -0.019415613263845444, -0.0016509657725691795, 0.020817048847675323, -0.14926789700984955, -0.010715721175074577, 0.03203289583325386, 0.5939619541168213, 0.23257917165756226, 0.06988997012376785, 0.23428483307361603, 0.23041512072086334, -0.23772086203098297, 0.13491198420524597, 0.11975257843732834, 0.06464027613401413, 0.024547431617975235, -0.1123066246509552, 0.052531395107507706, 0.12153011560440063, 0.10165395587682724, -0.11565280705690384, 0.1603323072195053, 0.41659581661224365, 0.07969183474779129, 0.036651261150836945, -0.32452118396759033, 0.3839194178581238], [-0.0602482333779335, -0.16822956502437592, 0.05211750417947769, -0.2299063354730606, -0.049383945763111115, -0.036147549748420715, 0.31895577907562256, -0.057570379227399826, 0.005480885040014982, 0.07830389589071274, 0.16453495621681213, -0.14634814858436584, 0.07419458776712418, 0.09490358084440231, 0.014131946489214897, -0.05303148180246353, 0.05552991107106209, -0.07328229397535324, -0.08397229760885239, -0.26893508434295654, -0.09205107390880585, -0.13303664326667786, -0.09619279950857162, -0.2645106613636017, 0.08574122190475464, -0.047636158764362335, 0.1065109521150589, 0.08872772008180618, -0.02766256034374237, 0.11960013955831528, 0.02682000771164894, -0.22640664875507355, -0.06438647955656052, 0.3424116373062134, -0.10134001076221466, -0.182486429810524, -0.09354115277528763, -0.0048804390244185925, 0.3762378394603729, -0.16894720494747162], [-0.027030188590288162, -0.0409398227930069, -0.08475007861852646, 0.01767749898135662, 0.00021965234191156924, 0.05704407021403313, 0.13541927933692932, 0.04460816830396652, -0.02043060027062893, 0.09136558324098587, -0.1112666204571724, 0.1567656397819519, -0.08367052674293518, 0.05331190302968025, 0.030721163377165794, -0.06367328763008118, -0.07498174905776978, -0.038659293204545975, 0.02318696863949299, 0.07435376197099686, 0.002561555476859212, 0.007093106396496296, 0.04826849699020386, -0.14447762072086334, -0.05334920436143875, 0.0802038237452507, 0.08597860485315323, 0.12059442698955536, 0.05053505674004555, -0.10185851901769638, -0.0028868999797850847, 0.09305036067962646, 0.030319377779960632, 0.12059873342514038, 0.0632130354642868, -0.28372228145599365, -0.023548882454633713, 0.0039123231545090675, 0.12574273347854614, 0.14496839046478271], [-0.09750459343194962, -0.297688752412796, 0.24103978276252747, -0.7845719456672668, -0.19079837203025818, -0.016499308869242668, 0.005482746288180351, -0.07130242884159088, 0.2086913287639618, 0.29812946915626526, 0.7002227902412415, 0.04391033202409744, 0.013026978820562363, -0.06097935885190964, 0.1394270807504654, -0.025791248306632042, 0.1891789734363556, -0.28696340322494507, -0.4269355237483978, -0.3740561306476593, -0.48710331320762634, -0.40220504999160767, -0.4807015657424927, -0.4355071783065796, 0.4223887026309967, 0.03115510754287243, 0.20642444491386414, -0.024802405387163162, 0.08459790796041489, 0.28406253457069397, 0.3773227334022522, -0.3343471586704254, -0.23331888020038605, 0.23823755979537964, -0.1425204873085022, -0.5564888119697571, -0.15150733292102814, -0.2492552101612091, 0.7942823171615601, -0.18035262823104858], [-0.03446654975414276, -0.10201350599527359, -0.025236718356609344, 0.06551305204629898, -0.02826317772269249, 0.06286666542291641, 0.10050743818283081, 0.08817258477210999, -0.010552837513387203, 0.24790611863136292, -0.14675334095954895, 0.2916056513786316, -0.18897183239459991, 0.011148404330015182, -0.0011735673760995269, -0.021194428205490112, -0.1278434693813324, -0.000735518173314631, 0.07733774930238724, 0.22100640833377838, -0.06076044216752052, -0.0044657988473773, 0.024457132443785667, -0.0076046292670071125, -0.07696884870529175, 0.23779058456420898, 0.16636380553245544, 0.0437997430562973, 0.07107224315404892, -0.03586345538496971, 0.04490739479660988, 0.14959891140460968, 0.02728375792503357, -0.49599096179008484, 0.13501453399658203, 0.12682481110095978, -0.042791929095983505, 0.016850227490067482, -0.018680676817893982, 0.2370157539844513], [-0.17137286067008972, -0.5164334177970886, -0.05849815532565117, 0.12616728246212006, -0.08174781501293182, 0.11930957436561584, 0.7043075561523438, 0.2755315601825714, 0.2331106960773468, 0.30965858697891235, -0.05478113517165184, 0.41283050179481506, -1.2169270515441895, -0.04350022226572037, -0.10567457228899002, -0.0402657613158226, -0.3335091769695282, 0.05345300957560539, -0.006055377423763275, 0.5767431855201721, -0.12508724629878998, -0.15218134224414825, -0.19917351007461548, 0.34147435426712036, -0.1343824416399002, 0.36478713154792786, -0.31367701292037964, 0.7415801882743835, 0.17531901597976685, -0.1238609030842781, 0.10819080471992493, -0.06526000052690506, 0.030845779925584793, -1.5396442413330078, 0.24438424408435822, -0.12855984270572662, -0.07215901464223862, 0.062396496534347534, -0.07349513471126556, 0.22267884016036987], [0.025007199496030807, -0.058893054723739624, 0.024935277178883553, 0.02002207562327385, -0.13560080528259277, -0.0279848650097847, 0.08992303907871246, 0.12504790723323822, 0.06466725468635559, 0.020498814061284065, -0.028560692444443703, 0.030399447306990623, -0.13140834867954254, -0.002581764245405793, -0.01399962604045868, 0.02014639414846897, -0.04203924164175987, -0.03368864208459854, -0.03910459578037262, 0.2424415796995163, -0.16247904300689697, 0.0030884873121976852, 0.03885766491293907, 0.08266621828079224, -0.07294311374425888, 0.07921617478132248, 0.29028239846229553, 0.17383980751037598, 0.02073858305811882, 0.060616809874773026, 0.17279858887195587, -0.04326324909925461, -0.0519949346780777, -0.23782242834568024, -0.009600454941391945, -0.04873916879296303, 0.009707058779895306, 0.01260802149772644, 0.0978471040725708, 0.19200284779071808], [-0.00724614504724741, 0.05245126783847809, -0.00564346881583333, 0.07553716003894806, 0.038759373128414154, 0.04745207726955414, 0.03341994807124138, 0.05209954082965851, -0.004060392268002033, -0.008854297921061516, -0.08007492870092392, 0.11379467695951462, 0.024294329807162285, 0.021206527948379517, -0.01325576938688755, -0.047779981046915054, -0.04771639406681061, 0.01722477190196514, -0.002935983007773757, 0.03200246021151543, 0.026886824518442154, 0.050782930105924606, 0.06295491755008698, -0.052077360451221466, -0.06575457006692886, 0.040666744112968445, 0.023574618622660637, -0.06258616596460342, 0.026360785588622093, -0.029436470940709114, -0.00846173893660307, -0.0038774400018155575, 0.037140317261219025, 0.05529792606830597, 0.06564586609601974, -0.054346341639757156, 0.03735470771789551, 0.011106850579380989, -0.005751758348196745, 0.039026763290166855], [-0.03626035526394844, -0.1519005298614502, -0.236460343003273, 0.0015317030483856797, 0.2219247817993164, -0.030198724940419197, -0.18400950729846954, -0.08133665472269058, -0.09795086830854416, 0.12241166085004807, -0.16950297355651855, 0.11125833541154861, 0.11142239719629288, -0.04895279183983803, 0.002852964447811246, 0.014421734027564526, -0.06143646687269211, -0.04763239994645119, 0.08090662211179733, 0.38084107637405396, 0.3113471567630768, 0.00683317007496953, 0.08330667018890381, 0.02276568114757538, -0.10715150088071823, -0.004805628675967455, 0.0726022720336914, -0.13345548510551453, 0.013068071566522121, -0.1773098111152649, -0.18252629041671753, 0.3355906307697296, 0.20095564424991608, 0.15592734515666962, -0.031167490407824516, 0.5346057415008545, -0.09740567207336426, -0.07327710092067719, -0.15640971064567566, 0.34745070338249207], [0.004043752793222666, 0.05768668279051781, 0.4466445744037628, -0.20924273133277893, -0.42064008116722107, -0.09734483063220978, 0.39263394474983215, 0.21895532310009003, 0.2303166538476944, 0.07405742257833481, 0.43676328659057617, -0.15917624533176422, -0.1506052315235138, 0.2710074186325073, 0.07382535934448242, 0.07597778737545013, 0.078694187104702, 0.03955411538481712, -0.17105333507061005, -0.6284509301185608, -0.4663652777671814, -0.2517794072628021, -0.354582279920578, -0.016584623605012894, 0.33060675859451294, -0.07729264348745346, -0.8618915677070618, 0.17654208838939667, -0.0937240943312645, 0.5169216990470886, 0.40921926498413086, -0.795694887638092, -0.5605273246765137, -0.09438925236463547, -0.2299330085515976, -0.6254624128341675, 0.014714080840349197, 0.10914436727762222, 0.4573723077774048, -0.6772549152374268], [0.012640232220292091, 0.01147696003317833, -0.01640661619603634, 0.04254111647605896, 0.03472791239619255, -0.004114201292395592, -0.03942565619945526, -0.014463240280747414, -0.01451734360307455, 0.064384326338768, -0.04259532690048218, 0.014249391853809357, 0.012315086089074612, -0.023911071941256523, 0.0047090123407542706, 0.009245539084076881, 0.014050972647964954, 0.00048442528350278735, 0.013683145865797997, -0.07350421696901321, 0.0408935509622097, 0.024654047563672066, 0.002476641908288002, 0.027865789830684662, 0.00317834853194654, -0.029433870688080788, -0.03870515897870064, -0.058220136910676956, -0.008620044216513634, -0.02522875741124153, -0.02549182064831257, 0.039773792028427124, 0.03607649356126785, 0.060556404292583466, 0.00775282783433795, -0.04114605858922005, 0.007045371923595667, -0.006319568492472172, -0.04830130189657211, 0.02679370529949665], [-0.09696286171674728, -0.00017069678870029747, 0.08060231804847717, -0.1349656581878662, 0.10629075765609741, 0.08399558067321777, -0.04189695417881012, 0.0018407999305054545, 0.005511824507266283, -0.23968903720378876, 0.1848890483379364, 0.08383981138467789, 0.058296576142311096, 0.07837393134832382, 0.08785491436719894, -0.015474105253815651, -0.07000191509723663, 0.08115849643945694, 0.03661106154322624, -0.310935378074646, 0.2813122868537903, -0.29370012879371643, -0.23547396063804626, -0.0771712064743042, 0.22312010824680328, 0.2228279560804367, -0.42456483840942383, -0.300152450799942, 0.05188632011413574, 0.005442399065941572, -0.012317170388996601, -0.2456626445055008, -0.20318977534770966, 0.15654149651527405, 0.04228850081562996, -0.4465517997741699, -0.17385417222976685, 0.05559788644313812, 0.10828529298305511, -0.36778756976127625], [0.023168163374066353, 0.106208436191082, 0.03931264206767082, 0.019093073904514313, -0.00020570351625792682, 0.02692236937582493, -0.11242815852165222, 0.0525960847735405, 0.001215677591972053, -0.18807007372379303, 0.011067541316151619, 0.04874134063720703, -0.1048445925116539, 0.026331044733524323, -0.0012775944778695703, -0.008161891251802444, -0.03857739642262459, 0.025477586314082146, -0.009890547953546047, 0.34488773345947266, -0.009218194521963596, 0.012730113230645657, 0.06297413259744644, -0.007569288834929466, -0.02415269985795021, 0.09458556771278381, 0.17025503516197205, 0.060988474637269974, 0.02656778134405613, 0.010116753168404102, 0.09416396170854568, -0.0003031921514775604, -0.05035533010959625, -0.4849317967891693, 0.03229348734021187, 0.0802372545003891, 0.0587182380259037, 0.001120434608310461, 0.0904984250664711, 0.011059332638978958], [-0.01576926000416279, 0.004194111563265324, -0.026922769844532013, 0.04411177709698677, 0.052122727036476135, -0.003556209383532405, -0.07683710753917694, -0.019530022516846657, -0.017417823895812035, 0.07330409437417984, -0.05150247737765312, 0.038206834346055984, 0.01689070835709572, -0.03457134962081909, 0.024676626548171043, 0.01899886690080166, 0.015381021425127983, 0.00848217774182558, 0.030359139665961266, -0.1489534229040146, 0.13485385477542877, -0.044716726988554, -0.08444996178150177, 0.05576198548078537, 0.06993690878152847, 0.03438017889857292, -0.09772779792547226, -0.14262494444847107, -0.003377259476110339, -0.0361957773566246, -0.04313347861170769, 0.09282191842794418, 0.018740294501185417, 0.048658426851034164, 0.004675850737839937, -0.11823920160531998, -0.03369569033384323, 0.006147005129605532, -0.0698937401175499, -0.03479836881160736], [0.032306015491485596, -0.012957390397787094, 0.03996693715453148, -0.051506027579307556, -0.038759004324674606, -0.09852097183465958, -0.04495011642575264, -0.004279190208762884, 0.029783548787236214, -0.01481885276734829, 0.07028116285800934, -0.2009981870651245, -0.20693813264369965, -0.05057445168495178, -0.009612473659217358, 0.0838816836476326, 0.13298970460891724, -0.07662532478570938, -0.09626370668411255, 0.09909190237522125, -0.033671461045742035, -0.0022143570240586996, -0.00907955877482891, 0.005910444539040327, 0.04195057228207588, -0.1144869402050972, 0.11874673515558243, 0.29872792959213257, -0.09811919182538986, 0.07667597383260727, -0.0015622989740222692, -0.18375076353549957, -0.008673818781971931, -0.23343650996685028, -0.1131771132349968, 0.2666455805301666, 0.015814118087291718, -0.05952434241771698, 0.06406805664300919, -0.1063615009188652], [0.02015274204313755, 0.011021265760064125, -0.00634401710703969, -0.004804178606718779, 0.004074072930961847, -0.045053426176309586, -0.03456680476665497, -0.026528140529990196, 0.0021077643614262342, 0.03852721303701401, -0.008177905343472958, -0.11346273124217987, -0.0461624450981617, -0.030270393937826157, -0.0012132953852415085, 0.037727974355220795, 0.081732839345932, -0.025699250400066376, -0.02814466506242752, -0.03550093621015549, 0.017890751361846924, 0.007077226415276527, -0.015100311487913132, 0.035523973405361176, 0.014881685376167297, -0.10845211893320084, -0.005072596948593855, 0.08911512792110443, -0.047265805304050446, 0.007421744987368584, -0.03857927396893501, -0.00819588452577591, 0.047422003000974655, 0.025026846677064896, -0.07463131844997406, 0.06995180249214172, 0.008337455801665783, -0.023609748110175133, -0.05032413825392723, -0.0302811861038208], [-0.18573883175849915, -0.38264408707618713, -0.14970795810222626, -0.41054025292396545, 0.13560065627098083, 0.07243365049362183, 0.2942200303077698, -0.15856187045574188, -0.04821145161986351, 0.08092623949050903, 0.10346920043230057, -0.042517006397247314, 0.13715054094791412, 0.08139250427484512, 0.028652261942625046, -0.10539810359477997, 0.00429329089820385, -0.1199859157204628, -0.013886315748095512, -0.22358950972557068, 0.3853000998497009, -0.36832624673843384, -0.304505318403244, -0.39060258865356445, 0.1728835254907608, 0.19309209287166595, 0.14777541160583496, 0.03525327891111374, 0.0532880462706089, 0.005995535757392645, -0.12412382662296295, 0.14756391942501068, -0.0803445503115654, 0.43831780552864075, -0.09042996913194656, -0.16954557597637177, -0.33864039182662964, 0.004038396757096052, 0.37359321117401123, -0.03141319006681442], [-0.007489165291190147, -0.06567426025867462, 0.08369503915309906, -0.08995888382196426, -0.09741289168596268, -0.027388781309127808, 0.0886058434844017, 0.06590355187654495, 0.043748222291469574, -0.054464276880025864, 0.17657232284545898, -0.13168051838874817, -0.1419556736946106, 0.006967423018068075, -0.005038972944021225, 0.01846455968916416, 0.006555892061442137, -0.045723576098680496, -0.0574074313044548, 0.14928248524665833, -0.15677881240844727, -0.06272909790277481, -0.047345470637083054, -0.025113044306635857, 0.029144996777176857, 0.038181010633707047, 0.060601476579904556, 0.1744251549243927, -0.003810121212154627, 0.10681979358196259, 0.1208171546459198, -0.20769040286540985, -0.1008247584104538, -0.4146648943424225, -0.030186031013727188, 0.06437724083662033, -0.027490513399243355, -0.009278488345444202, 0.13501816987991333, -0.09746076911687851], [-0.04108615592122078, 0.025972284376621246, 0.05964149907231331, -0.09533128142356873, -0.004653278738260269, 0.0345601961016655, -0.019656462594866753, 0.0442940928041935, 0.034043923020362854, -0.24683597683906555, 0.0915304645895958, 0.042894989252090454, -0.09806215018033981, 0.09412841498851776, 0.013030906207859516, -0.048175014555454254, -0.051889289170503616, 0.013281016610562801, -0.03631597384810448, 0.24563275277614594, 0.006412466522306204, -0.061548538506031036, 0.0006088910740800202, -0.06771446019411087, 0.016967007890343666, 0.1527968794107437, 0.1737191379070282, 0.1126268059015274, 0.04182148352265358, 0.07301768660545349, 0.09180368483066559, -0.04313412308692932, -0.13182175159454346, -0.28584516048431396, 0.010624281130731106, 0.0736096203327179, -0.0007247038884088397, 0.01885250024497509, 0.2027689516544342, -0.09939824789762497], [-0.04473772644996643, 0.07638692855834961, -0.08007913827896118, 0.08928483724594116, 0.4191935062408447, 0.04982816055417061, -0.25575166940689087, -0.21319130063056946, -0.10827503353357315, -0.20366333425045013, -0.10283387452363968, 0.1635691523551941, 0.24761849641799927, 0.056220486760139465, 0.03026733361184597, -0.04272410273551941, -0.03425726667046547, 0.10088609904050827, 0.1026751697063446, -0.22940471768379211, 0.6808280944824219, 0.09053689986467361, 0.05713864043354988, -0.1695825159549713, 0.041016168892383575, 0.0413164347410202, -0.16952648758888245, -0.4650767147541046, 0.033379677683115005, -0.1897132396697998, -0.2625220715999603, 0.18945617973804474, 0.08424613624811172, 0.36592644453048706, 0.07408011704683304, -0.27272361516952515, 0.05173720791935921, 0.06348872929811478, -0.048031121492385864, -0.03006124682724476], [0.043626248836517334, 0.07938595861196518, -0.10490566492080688, 0.15801946818828583, 0.06467705965042114, -0.004983547609299421, -0.28502488136291504, 0.008919664658606052, -0.10358142852783203, 0.15251708030700684, -0.11031501740217209, 0.06285004317760468, -0.01480791624635458, -0.10108887404203415, 0.004777322523295879, 0.06463509798049927, -0.033098556101322174, 0.05116632580757141, 0.14197546243667603, 0.04938142001628876, 0.1675068587064743, 0.1184510886669159, 0.025078121572732925, 0.10443750023841858, 0.013242695480585098, 0.0688079446554184, -0.005596172530204058, -0.1585286408662796, 0.006575150415301323, -0.17843326926231384, -0.07153104990720749, 0.2951825261116028, 0.05728843808174133, -0.3405768573284149, 0.06770502775907516, -0.012211318127810955, 0.050333358347415924, 0.005093091167509556, -0.11796397715806961, 0.10941077023744583], [-0.15543730556964874, -0.306049108505249, -0.10743675380945206, 0.027210082858800888, -0.020885802805423737, 0.467680424451828, 0.29050585627555847, 0.02753562293946743, -0.020643457770347595, 0.4817076325416565, 0.1796761304140091, 0.5032364726066589, 0.3721676170825958, -0.08298359811306, -0.10384748876094818, -0.08221700042486191, -0.6627522706985474, 0.30339813232421875, 0.17204590141773224, 0.4222520589828491, -0.3515467345714569, 0.06682271510362625, 0.072856105864048, -0.4623792767524719, -0.1823207139968872, 0.8652051687240601, 0.24337199330329895, -0.26166364550590515, 0.5011200308799744, -0.20278491079807281, 0.1757640391588211, 0.02671751193702221, 0.23333868384361267, -1.0851130485534668, 0.6784232258796692, -0.12063227593898773, -0.1353234350681305, 0.11269797384738922, 0.29435494542121887, 0.3250265419483185], [-0.37182649970054626, -0.6321234107017517, 0.20472359657287598, -0.5088468194007874, 0.10360712558031082, 0.09736891090869904, 0.24351835250854492, -0.42217567563056946, 0.06647546589374542, 0.5468614101409912, 1.0423957109451294, 0.800855278968811, 0.7719725370407104, -0.16039419174194336, -0.08899378776550293, -0.3936264216899872, -0.1563742309808731, -0.0028095156885683537, -0.08474220335483551, -0.4008539021015167, -0.17388907074928284, -0.09539704769849777, -0.5803490877151489, -0.23738427460193634, 0.3553889989852905, 0.5961595177650452, -0.8468810319900513, -0.8971647024154663, 0.18487471342086792, 0.4523133933544159, 0.04798569902777672, -0.4558716118335724, -0.19443798065185547, 0.203618586063385, 0.19962261617183685, -0.8197112083435059, -0.39668095111846924, 0.004452214576303959, 0.2510327100753784, -0.8750230669975281], [-0.002355031669139862, 0.03279881179332733, -0.002226263051852584, 0.03541991114616394, 0.018451694399118423, -0.0002805828407872468, -0.0509306862950325, 0.002369385678321123, -0.018868690356612206, 0.006741577293723822, -0.006964458152651787, 0.033034805208444595, 0.002048913389444351, 9.752746700542048e-05, 0.00944172777235508, 0.003716445527970791, -0.0038432134315371513, 0.0212118998169899, 0.038292836397886276, 0.017083942890167236, 0.012304876931011677, 0.021208500489592552, 0.008497160859405994, 0.05626707896590233, 0.00431497348472476, 0.029422229155898094, -0.03480929136276245, -0.062039658427238464, 0.001514929230324924, -0.025643223896622658, -0.013176752254366875, 0.03378141671419144, -0.009191863238811493, -0.00010841753100976348, 0.012361585162580013, 0.05576641485095024, 0.022198868915438652, 0.013632302172482014, -0.05339725315570831, 0.005233412608504295], [-0.02722710557281971, -0.016193028539419174, -0.027249405160546303, 0.014238021336495876, 0.014405493624508381, 0.004345559049397707, 0.0011537953978404403, -0.003541617887094617, -0.013488251715898514, 0.054572463035583496, -0.027564892545342445, 0.04942760244011879, 0.01871154084801674, -0.011588833294808865, 0.015394598245620728, -0.0014527419116348028, -0.004776307847350836, 0.00487646646797657, 0.03390626981854439, -0.06309480965137482, 0.04320772364735603, -0.04288051277399063, -0.05462794005870819, 0.03622734919190407, 0.03784310072660446, 0.04137049615383148, -0.043950505554676056, -0.06050809472799301, 0.007842333056032658, -0.026258360594511032, -0.01812610775232315, 0.06194237992167473, -0.001529126544483006, 0.048920467495918274, 0.00971619039773941, -0.0674969032406807, -0.03010512888431549, 0.012847828678786755, -0.02286568656563759, 0.026740213856101036], [-0.009155241772532463, -0.009552009403705597, -0.005925869103521109, -0.00038775510620325804, 0.002261662157252431, -0.0034223259426653385, -0.0070000807754695415, 0.0004288411291781813, -0.001337821246124804, 0.024357907474040985, 0.0024874680675566196, 0.006646117195487022, 0.002690139226615429, 0.0008575821993872523, 0.007557284086942673, -0.0009940904565155506, 0.007309073582291603, -0.0017853575991466641, 0.009069312363862991, -0.03728741034865379, 0.004125379491597414, -0.013479776680469513, -0.024511199444532394, 0.013619407080113888, 0.018787261098623276, -0.00872939731925726, -0.014218009077012539, -0.0006263591349124908, 0.0014763784129172564, 0.0009722161339595914, -0.0020393971353769302, 0.018512563779950142, -0.007273563649505377, 0.016806254163384438, -0.00650412542745471, -0.042163360863924026, -0.007311335299164057, 0.004003214184194803, 0.007724608760327101, -0.013066880404949188], [0.007630777079612017, -0.012460495345294476, -0.01734284497797489, 0.0047692726366221905, -0.03593471646308899, -0.012738628312945366, 0.045710667967796326, 0.008570663630962372, -0.0034292691852897406, 0.06917835772037506, -0.0026867396663874388, -0.01808117888867855, -0.010036989115178585, -0.020226484164595604, 0.00862035434693098, 0.014161810278892517, 0.016267098486423492, -0.012067990377545357, 0.005383710376918316, -0.02672450616955757, -0.04034225642681122, -0.017750682309269905, -0.01740238256752491, 0.00734139746055007, -0.0034113081637769938, -0.03159766644239426, -0.03380846977233887, 0.049122992902994156, -0.009335516020655632, -0.015089014545083046, -0.005511389579623938, 0.009559067897498608, 0.019230853766202927, -0.00931639689952135, -0.013170427642762661, -0.060472507029771805, -0.01791737787425518, -0.0043888576328754425, -0.02092740684747696, 0.009518349543213844], [-0.022364653646945953, -0.047317299991846085, 0.0027408425230532885, -0.05302898585796356, -0.04270516335964203, 0.01669299229979515, 0.08841808885335922, 0.029310263693332672, 0.00884322915226221, 0.030607054010033607, 0.05870336294174194, 0.0496411956846714, -0.0027803650591522455, 0.007800261024385691, 0.033400341868400574, -0.0022714845836162567, -0.030619705095887184, -0.004824133589863777, 0.00938576553016901, 0.03636316582560539, -0.05765534192323685, -0.1056172102689743, -0.071474090218544, 0.0007074678433127701, 0.033388055860996246, 0.07757508009672165, -0.029525477439165115, -0.0008426140993833542, 0.021092474460601807, 0.016869263723492622, 0.04828890785574913, 0.01905626244843006, -0.07323939353227615, -0.09063570201396942, 0.017785485833883286, -0.1481793075799942, -0.07286319881677628, 0.014779958873987198, 0.035138823091983795, -0.008697886019945145], [-0.045958422124385834, 0.08336495608091354, 0.039918430149555206, -0.05130431428551674, 0.05103122815489769, 0.06475972384214401, -0.010993565432727337, 0.027983760461211205, 0.03328311815857887, -0.33216363191604614, 0.0031443790066987276, 0.03978906199336052, -0.042463768273591995, 0.12421946972608566, -0.004915927536785603, -0.09084540605545044, -0.06484896689653397, 0.04148326441645622, -0.049426838755607605, 0.2885729968547821, 0.08745335787534714, -0.010986605659127235, 0.07338470220565796, -0.06467507034540176, -0.04313718155026436, 0.15907597541809082, 0.23500145971775055, 0.07231835275888443, 0.05041543394327164, 0.05046342685818672, 0.04564028978347778, 0.021037131547927856, -0.06502057611942291, -0.2203637957572937, 0.027394261211156845, 0.22739195823669434, 0.04089534282684326, 0.026744011789560318, 0.13963980972766876, -0.07133196294307709], [0.13040652871131897, 0.34147486090660095, -0.36035677790641785, 0.4424087405204773, 0.4839188754558563, 0.003701264737173915, -0.4036206007003784, -0.10083753615617752, -0.3028552830219269, -0.028645126149058342, -0.5353444814682007, 0.06486857682466507, 0.1243555098772049, -0.05371634662151337, -0.04343054071068764, -0.08605612069368362, -0.0386408269405365, 0.10941652208566666, 0.18938255310058594, 0.32980456948280334, 0.6620799899101257, 0.5617706179618835, 0.5276892185211182, -0.16576918959617615, -0.5095099806785583, 0.011953579261898994, 0.3139197826385498, -0.21378964185714722, 0.013986479490995407, -0.6240123510360718, -0.6023440361022949, 0.4434822201728821, 0.6174671649932861, -0.17973938584327698, 0.1615557074546814, 0.3777782618999481, 0.30913540720939636, 0.0006476979469880462, -0.4980478286743164, 0.17553530633449554], [0.02084280177950859, 0.10461360216140747, 0.001072379294782877, 0.05629974603652954, 0.015287041664123535, -0.023470807820558548, -0.14987704157829285, 0.04649431258440018, -0.005601364187896252, -0.00645742192864418, -0.07807355374097824, -0.024539971724152565, -0.19011467695236206, -0.04285954311490059, 0.01272575743496418, 0.041114263236522675, 0.02787064015865326, -0.020798705518245697, -0.002408909611403942, 0.06260067969560623, 0.06403765082359314, 0.013799245469272137, -0.0058172340504825115, 0.03884540870785713, 0.03897152841091156, 0.01302303932607174, 0.08945819735527039, 0.07907313853502274, -0.03280656412243843, -0.029288940131664276, 0.009402340278029442, 0.010100594721734524, 0.021964017301797867, -0.10376951843500137, -0.00653862813487649, 0.15548843145370483, 0.017975954338908195, -0.03768423944711685, 0.003310752334073186, 0.04090651124715805], [-0.03565847873687744, -0.004094101022928953, -0.02699018083512783, -0.002618556609377265, 0.06863939017057419, 0.012680912390351295, -0.09740666300058365, -0.007749858777970076, -0.025865407660603523, 0.01914501190185547, -0.015028191730380058, 0.09096258878707886, -0.015486675314605236, -0.00807556975632906, 0.035905368626117706, 0.0036813400220125914, -0.013544808141887188, 0.01027865894138813, 0.04308906942605972, -0.05050437152385712, 0.19727693498134613, -0.07554858922958374, -0.09750140458345413, -0.04518277570605278, 0.08510337024927139, 0.11721955984830856, 0.002910502953454852, -0.14547879993915558, 0.017098743468523026, -0.0464920699596405, -0.020704299211502075, 0.0879857987165451, -0.03978317230939865, -0.01167361717671156, 0.02433210425078869, -0.10314995050430298, -0.04980182275176048, 0.012887491844594479, 0.05245884135365486, -0.027081165462732315], [0.011532085947692394, 0.04421502724289894, -0.06625241041183472, 0.09300895035266876, 0.1041199266910553, 0.0034844286274164915, -0.1815773844718933, -0.03644851967692375, -0.06497890502214432, 0.0904349684715271, -0.060800209641456604, 0.04473517835140228, 0.0586906336247921, -0.037327807396650314, 0.008280226029455662, 0.015805663540959358, -0.009620260447263718, 0.037806518375873566, 0.08314375579357147, -0.07730535417795181, 0.20991390943527222, 0.07147308439016342, 0.013874856755137444, -0.0070026027970016, 0.005482321605086327, 0.019205395132303238, -0.054513297975063324, -0.1979302614927292, 0.004226758610457182, -0.12103930115699768, -0.09955954551696777, 0.15084294974803925, 0.0588672049343586, 0.04320424795150757, 0.039156414568424225, -0.019894808530807495, 0.03527050092816353, 0.00568567868322134, -0.05578383803367615, 0.032688021659851074], [0.0645071268081665, 0.10510259866714478, 0.07920549064874649, 0.026785917580127716, -0.05335389822721481, -0.032252151519060135, -0.13671565055847168, 0.07217781990766525, 0.03791706636548042, -0.1210801973938942, 0.035656560212373734, -0.0813421681523323, -0.20386303961277008, 0.002654723124578595, -0.04906930401921272, 0.016941063106060028, 0.03517945855855942, -0.023306727409362793, -0.08226656913757324, 0.12911079823970795, -0.127091184258461, 0.12210141122341156, 0.10059512406587601, -0.011538717895746231, -0.044115353375673294, -0.08743560314178467, 0.11573507636785507, 0.2210981696844101, -0.03936489298939705, 0.08006010949611664, 0.10483787953853607, -0.15713371336460114, 0.007419494446367025, -0.38814783096313477, -0.019982626661658287, 0.09469342231750488, 0.10266099870204926, -0.04921108856797218, 0.08167413622140884, -0.1200207993388176], [0.05008211359381676, 0.08321943134069443, -0.058592289686203, 0.14640900492668152, 0.04096793010830879, 0.006221229676157236, -0.1469118595123291, -0.004368774127215147, -0.06441998481750488, 0.1238432452082634, -0.13195805251598358, 0.0374055877327919, -0.009906839579343796, -0.09793981909751892, -0.019815094769001007, 0.04247692599892616, -0.01488415151834488, 0.017963191494345665, 0.07597962021827698, -0.05180118978023529, 0.076754629611969, 0.1391441524028778, 0.0737854540348053, 0.02511952817440033, -0.039929673075675964, 0.02576626092195511, 0.046517156064510345, -0.06927579641342163, 0.0013244745787233114, -0.13879191875457764, -0.031441885977983475, 0.19576917588710785, 0.10761832445859909, -0.0071059647016227245, 0.06447317451238632, -0.01620888151228428, 0.06498502194881439, -0.023412741720676422, -0.08271912485361099, 0.1950150430202484], [0.012886757962405682, 0.03658083826303482, -0.024043753743171692, 0.07433255761861801, 0.07825426012277603, 0.014492934569716454, -0.09280052036046982, -0.01828703284263611, -0.04656126722693443, 0.02636059746146202, -0.024765565991401672, 0.1437404304742813, 0.09882249683141708, 0.02728765644133091, 0.021964894607663155, -0.025304943323135376, -0.034881219267845154, 0.056406859308481216, 0.07776066660881042, -0.021340738981962204, 0.07608262449502945, 0.08515582233667374, 0.057809017598629, 0.04588821157813072, -0.024077914655208588, 0.03482326492667198, -0.09533437341451645, -0.17244867980480194, 0.029578156769275665, -0.05067690834403038, -0.035658396780490875, 0.1761581152677536, 0.00036068467306904495, 0.17613764107227325, 0.0565679632127285, -0.04244736582040787, 0.0703379437327385, 0.035416048020124435, -0.034669142216444016, 0.03320230543613434], [-0.0438501313328743, 0.07551295310258865, -1.4010926485061646, 0.5507152676582336, 1.459956407546997, 0.047375958412885666, -0.9181822538375854, -1.001502275466919, -0.9186939001083374, -0.1118263378739357, -1.4830070734024048, 0.4900609850883484, 1.444220781326294, -0.6899943947792053, -0.31373003125190735, -0.3753155469894409, 0.014288343489170074, -0.30746975541114807, 0.49855634570121765, 0.9054687023162842, 2.0802552700042725, 0.6225680708885193, 0.8192498683929443, 0.5078631639480591, -1.0105137825012207, -0.24686333537101746, 1.49351167678833, -1.3666938543319702, 0.07449395954608917, -1.1902925968170166, -1.4388246536254883, 1.9086830615997314, 1.529951572418213, 0.530265748500824, 0.31121888756752014, 0.1109686866402626, -0.06424397975206375, -0.04752867668867111, -1.391342043876648, 1.8846479654312134], [-0.24467560648918152, -0.7179390788078308, -0.19731202721595764, -0.780963659286499, 0.030939308926463127, 0.031299371272325516, 0.22367160022258759, -0.6424676179885864, 0.08992832154035568, 0.38447004556655884, 0.9188324213027954, 0.1646026372909546, 0.8152271509170532, -0.26692280173301697, -0.008202135562896729, -0.1823950856924057, 0.12766963243484497, -0.0205971822142601, -0.05804659053683281, -0.3750745952129364, -0.13347694277763367, -0.25076326727867126, -0.6150326728820801, -0.09516079723834991, 0.31741833686828613, 0.07495695352554321, -0.14474767446517944, -0.46597787737846375, 0.13456647098064423, 0.4738292098045349, -0.11462733149528503, -0.04541461542248726, -0.015121450647711754, 0.6802980899810791, -0.1792336255311966, -0.17272326350212097, -0.3056541085243225, -0.02701481245458126, 0.3172219693660736, -0.34385910630226135], [0.0030064836610108614, 9.126338409259915e-05, -0.008090220391750336, 0.006748076528310776, -0.007348528131842613, -0.0065815141424536705, 0.0067475405521690845, -0.0009995967848226428, -0.0033612132538110018, 0.02240484394133091, -0.007024404127150774, -0.007776245474815369, 0.0006496887654066086, -0.008114784955978394, 0.0025044847279787064, 0.005688647739589214, 0.009127171710133553, -0.0026804651133716106, 0.004786262288689613, -0.01894437149167061, -0.006095188669860363, -0.000758860376663506, -0.0046013034880161285, 0.00877504050731659, 0.0008221108582802117, -0.01466328650712967, -0.014626588672399521, 0.011875664815306664, -0.005452582612633705, -0.00801200233399868, -0.008692366071045399, 0.00947909988462925, 0.01106138713657856, 0.008202783763408661, -0.006701414007693529, -0.009166193194687366, -0.002228112891316414, -0.0010266575263813138, -0.01473301276564598, 0.0035375594161450863], [0.021742379292845726, 0.10158613324165344, 0.0664980411529541, 0.019547514617443085, -0.004965740256011486, 0.04550998657941818, -0.06974849104881287, 0.06446187943220139, 0.017619337886571884, -0.20847387611865997, -0.00865636020898819, 0.05643364042043686, -0.11595496535301208, 0.033033713698387146, -0.006132698617875576, -0.018837254494428635, -0.06153704971075058, 0.015207050368189812, -0.04053964465856552, 0.2816544473171234, 0.023223618045449257, 0.03193299099802971, 0.0889957845211029, -0.09557677805423737, -0.04288386553525925, 0.13487936556339264, 0.15348856151103973, 0.05543629080057144, 0.04070662334561348, 0.016113512217998505, 0.11383409798145294, -0.05271062254905701, -0.04482533037662506, -0.36467984318733215, 0.06199754774570465, 0.012448804453015327, 0.052796874195337296, -0.014429457485675812, 0.14461171627044678, -0.04032772406935692], [0.011149467900395393, 0.015529532916843891, 0.11235130578279495, -0.10707246512174606, -0.03379787504673004, 0.002759951865300536, -0.060409724712371826, 0.06410280615091324, 0.040901437401771545, -0.16373291611671448, 0.1659478396177292, 0.07375629246234894, -0.13106727600097656, 0.07671977579593658, 0.02858450636267662, -0.012362205423414707, -0.03755110502243042, -0.011245988309383392, -0.048687443137168884, 0.2591937482357025, -0.04630010947585106, -0.050644442439079285, -0.018000194802880287, -0.10027363896369934, 0.04947265610098839, 0.10105716437101364, 0.11298208683729172, 0.09344188123941422, 0.030588770285248756, 0.12492339313030243, 0.1445130556821823, -0.09392489492893219, -0.17926469445228577, -0.40811794996261597, 0.007975287735462189, -0.049585312604904175, 0.0006781892734579742, 0.0016144427936524153, 0.2710299491882324, -0.13811317086219788], [0.08532869070768356, 0.2451809197664261, -0.023489799350500107, 0.12168196588754654, 0.01509920135140419, -0.0055389138869941235, -0.24930013716220856, 0.11243756860494614, -0.00681447796523571, -0.37497448921203613, -0.06820027530193329, -0.15199100971221924, -0.15918584167957306, -0.05717867612838745, -0.057743996381759644, 0.07606159895658493, 0.03921864181756973, 0.0390317402780056, -0.006137976888567209, 0.5499191284179688, 0.07977914065122604, 0.19958432018756866, 0.24204611778259277, 0.08328045904636383, -0.17211876809597015, -0.03917476534843445, 0.4266337752342224, 0.09622473269701004, -0.04303425922989845, -0.06346246600151062, 0.03919948637485504, 0.11131897568702698, 0.10820586234331131, -0.7945097088813782, -0.02157636731863022, 0.3827644884586334, 0.1777820736169815, -0.028190044686198235, -0.15819138288497925, 0.2552465498447418], [0.03188728541135788, 0.09188568592071533, -0.04933145269751549, 0.10585030913352966, -0.004008120391517878, -0.0018967726500704885, -0.14827418327331543, 0.03456758335232735, -0.05116166174411774, 0.07144712656736374, -0.10504212230443954, 0.1107303574681282, -0.0739288330078125, -0.059634242206811905, 0.00805323664098978, 0.03329912945628166, -0.017446598038077354, 0.013069596141576767, 0.07950641214847565, 0.04890742152929306, 0.008023422211408615, 0.06774964928627014, 0.03151722624897957, 0.04569809138774872, -0.006434241309762001, 0.08675398677587509, 0.09097824990749359, -0.04347965866327286, 0.006575240753591061, -0.10089334845542908, 0.02201298251748085, 0.20441022515296936, 0.02605420909821987, -0.14866238832473755, 0.041230570524930954, -0.1063433438539505, 0.04325179383158684, -0.012621975503861904, 0.004823594819754362, 0.15166395902633667], [-0.15268726646900177, -0.36298441886901855, -0.0489189438521862, 0.1184578388929367, 0.798809826374054, 0.7410412430763245, -0.8562577962875366, -0.8868637084960938, -0.516769289970398, 1.108957290649414, 0.44955113530158997, 1.693224549293518, 0.9281855821609497, 0.028579305857419968, 0.04156294837594032, -0.22755393385887146, -0.916779637336731, 0.6578496098518372, 0.7724294066429138, -0.3173123896121979, 0.4119412302970886, 0.19005587697029114, -0.11226651817560196, -0.9162678122520447, -0.01453615166246891, 1.0193440914154053, -0.06763633340597153, -2.1403446197509766, 0.5080659985542297, -0.19389256834983826, -0.3503432869911194, -0.08381664752960205, 0.09941056370735168, -2.868051528930664, 0.9147541522979736, 0.5038424134254456, -0.1868482530117035, -0.08873147517442703, -0.11747714877128601, -0.10510776191949844], [-0.009118563495576382, 0.0377470888197422, -0.03592345118522644, 0.03311750665307045, -0.0248685535043478, 0.007742561865597963, 0.029960734769701958, 0.014968132600188255, -0.022565681487321854, -0.020959656685590744, -0.04429217427968979, -0.01535808201879263, -0.029587941244244576, -0.011698349379003048, -0.005561530590057373, -0.005100121255964041, -0.009881319478154182, 0.00761509221047163, 0.03291124477982521, 0.022169027477502823, -0.023419126868247986, 0.025897182524204254, 0.027032773941755295, 0.005663135088980198, -0.030082205310463905, 0.022774741053581238, 0.033799007534980774, 0.05615943297743797, 0.004755011759698391, -0.059258826076984406, -0.0143109280616045, 0.012401646003127098, 0.03315003588795662, -0.030988948419690132, 0.01003976445645094, 0.022322898730635643, 0.01395153347402811, 0.002863188972696662, -0.028773201629519463, 0.03503478690981865], [-0.10134368389844894, 0.35520443320274353, -0.7929419875144958, 0.5527786612510681, 0.16473087668418884, 0.18578852713108063, 0.010597053915262222, 0.011433307081460953, -0.4222334325313568, -0.0176590234041214, -0.9045048356056213, 0.4882860481739044, 0.04749909043312073, 0.11040594428777695, -0.19604210555553436, -0.260469526052475, -0.4138522446155548, 0.24499846994876862, 0.5162753462791443, -0.40707385540008545, 0.3723551034927368, 0.6012971997261047, 0.603233814239502, -0.2601189613342285, -0.5643168687820435, 0.3073417544364929, 0.6221948266029358, 0.03808378428220749, 0.18203815817832947, -0.8257917761802673, -0.560346245765686, 1.4325014352798462, 0.7961689233779907, 0.1186017170548439, 0.3709285259246826, -0.045614928007125854, 0.2160462886095047, 0.12874755263328552, -0.313123494386673, 0.45418787002563477], [-0.05692380294203758, -0.03140781447291374, -0.004509755410254002, -0.030111026018857956, 0.03871000185608864, 0.002350169001147151, -0.012811584398150444, -0.01840049959719181, -0.006418876349925995, 0.07034160941839218, 0.020934617146849632, 0.09279141575098038, 0.03479018062353134, 0.013824020512402058, 0.05325598642230034, 0.00014786591054871678, -0.009605061262845993, 0.008436975069344044, 0.03111083246767521, -0.16705143451690674, 0.13950303196907043, -0.1305915266275406, -0.14750029146671295, 0.041835956275463104, 0.12182678282260895, 0.11257614195346832, -0.15432117879390717, -0.15980346500873566, 0.013864069245755672, -0.0017816541949287057, -0.027868464589118958, 0.07761801034212112, -0.06110626086592674, 0.08122588694095612, 0.009086735546588898, -0.0827556774020195, -0.08506441861391068, 0.027836935594677925, -0.0169854536652565, -0.06868638098239899], [0.003903562668710947, 0.009755774401128292, -0.0016846685903146863, 0.008778528310358524, -0.008139662444591522, 0.002346334746107459, -0.023746561259031296, 0.010766275227069855, -0.009225950576364994, 0.018000153824687004, 0.010208743624389172, 0.023846304044127464, 0.0034430515952408314, -0.0019127241102978587, 0.010995287448167801, 0.0036875710356980562, -0.012711642310023308, 0.00906284898519516, 0.018082289025187492, 0.0032841276843100786, -0.01955031231045723, 0.00838692020624876, 0.003960710484534502, 0.016804233193397522, 0.0019740101415663958, 0.01540292426943779, -0.012413627468049526, -0.027156464755535126, 0.008001403883099556, -0.011340015567839146, 0.006544025614857674, 0.027010224759578705, -0.013450208120048046, -0.0032235742546617985, 0.013578065671026707, -0.0134854381904006, 0.004656880162656307, 0.007177599240094423, -0.006464884616434574, 0.014157481491565704], [0.062321558594703674, 0.050070129334926605, 0.13293591141700745, 0.04943348094820976, 0.00756576145067811, 0.019949253648519516, -0.20031429827213287, 0.007613587658852339, 0.04774031043052673, -0.08627014607191086, 0.05229923501610756, 0.026444057002663612, 0.013198518194258213, -0.025629522278904915, -0.016569562256336212, 0.02006993070244789, -0.011644077487289906, 0.01715315692126751, -0.08818639814853668, 0.05225427821278572, 0.015802863985300064, 0.057867225259542465, 0.02865459956228733, 0.06942185014486313, 0.005740535911172628, 0.014533511362969875, -0.031087331473827362, -0.19356773793697357, 0.009430401027202606, 0.13651329278945923, 0.09637346118688583, -0.14535477757453918, -0.02162519469857216, -0.21037006378173828, 0.05299507826566696, 0.014710123650729656, 0.05532257631421089, -0.02169615402817726, -0.03980235755443573, -0.1331091970205307], [0.04199118912220001, 0.3492693305015564, -0.877130925655365, 0.5420178771018982, 0.3758595883846283, 0.009636284783482552, -0.411426305770874, -0.24852202832698822, -0.3290610611438751, 0.06104762479662895, -0.9006068706512451, 0.39564967155456543, 0.2067122608423233, -0.19451123476028442, 0.061826273798942566, -0.008695469237864017, -0.08794108033180237, 0.10431338101625443, 0.3229916989803314, 0.26433372497558594, 0.7560990452766418, 0.33995646238327026, 0.39591184258461, 0.3926558494567871, -0.4455510377883911, 0.2749020755290985, 0.5077176690101624, -0.27920711040496826, 0.0925028994679451, -0.8621119856834412, -0.7051942348480225, 1.4746177196502686, 0.8139835596084595, 0.395904541015625, 0.13937465846538544, -0.6681134700775146, 0.13280728459358215, 0.02669181115925312, -0.6343361735343933, 0.9438272714614868], [-0.18377472460269928, 0.0695447251200676, 0.1596646010875702, -0.012687191367149353, 0.11509986966848373, -0.0415264256298542, -0.1942933201789856, 0.0066839042119681835, 0.039918314665555954, -0.3463636636734009, -0.008590096607804298, -0.20238804817199707, 0.08717889338731766, 0.09584116190671921, -0.08647046238183975, -0.2601182162761688, 0.17377246916294098, 0.09895753115415573, -0.1498672515153885, 0.4590684473514557, 0.10543647408485413, 0.16267552971839905, -0.04340066760778427, -0.03550957515835762, -0.04929441213607788, -0.059317395091056824, -0.056881729513406754, -0.1530476063489914, -0.1096508651971817, 0.010686783120036125, -0.13648496568202972, 0.0359991081058979, -0.10613622516393661, -0.043716687709093094, -0.16316334903240204, -0.011413158848881721, 0.03583376854658127, 0.16909685730934143, -0.0776919573545456, -0.0047689867205917835], [0.04016708955168724, 0.17198270559310913, 0.07863350212574005, -0.06786870211362839, -0.08042546361684799, 0.07409295439720154, -0.19859479367733002, 0.07847898453474045, 0.0697985365986824, -0.4382849335670471, 0.1092420294880867, -0.23251286149024963, -0.08466344326734543, 0.07431413978338242, -0.003488594898954034, 0.016157805919647217, -0.10371910780668259, 0.04705202952027321, 0.05888177081942558, 0.19740913808345795, -0.06176123768091202, 0.07322710007429123, 0.0292066503316164, 0.04621673375368118, 0.113127201795578, 0.1371743381023407, -0.6137280464172363, -0.020846085622906685, 0.09468577057123184, 0.08254645764827728, 0.14748649299144745, -0.20733430981636047, -0.07940932363271713, -0.11580526828765869, -0.07679817080497742, -0.3660435676574707, -0.0712246224284172, 0.09315270185470581, 0.08040966093540192, -0.22973613440990448], [-0.11045732349157333, -0.018023112788796425, -0.01688930206000805, -0.013473764061927795, -0.017870711162686348, -0.010897468775510788, 0.40040913224220276, 0.06219121813774109, -0.02401743084192276, 0.10838229954242706, 0.15684135258197784, -0.057457275688648224, -0.008886934258043766, 0.04207025095820427, -0.017544476315379143, -0.06428112089633942, 0.07814686745405197, -0.12044776231050491, 0.030677616596221924, -0.21686770021915436, -0.2821386456489563, -0.13344593346118927, -0.08894171565771103, -0.1553771048784256, 0.06664697825908661, -0.05819525197148323, -0.22864560782909393, 0.029472138732671738, 0.09925947338342667, 0.03586569428443909, -0.021643517538905144, -0.09930524230003357, 0.053131408989429474, -0.03995513543486595, 0.0434957817196846, -0.10506373643875122, 0.03306384012103081, -0.01500379666686058, 0.12821254134178162, -0.15448760986328125], [-0.13340239226818085, 0.043149132281541824, -0.07971873134374619, 0.04693911597132683, 0.30293142795562744, 0.05902913212776184, -0.25999659299850464, -0.1255122572183609, -0.1894453763961792, -0.22254814207553864, -0.07361819595098495, 0.11673804372549057, 0.0690632089972496, -0.0898386538028717, -0.0469062514603138, -0.09678209573030472, -0.019660301506519318, 0.11141541600227356, 0.07844773679971695, 0.3455089330673218, 0.13488879799842834, 0.13483910262584686, -0.08734691143035889, 0.10456182807683945, 0.004393409471958876, 0.2037598341703415, -0.19666704535484314, -0.3587704300880432, -0.047971729189157486, -0.2026217132806778, -0.016857502982020378, 0.005943619646131992, -0.06090562045574188, -0.28100720047950745, 0.04013046249747276, 0.2744813561439514, 0.14041773974895477, 0.05255581811070442, -0.19564905762672424, -0.07514502853155136], [0.0033313853200525045, 0.11354529112577438, 0.031685858964920044, -0.03516001254320145, -0.1418064832687378, -0.13667628169059753, -0.22687283158302307, -0.05452963709831238, 0.0757477656006813, 0.21054309606552124, 0.11192946135997772, -0.0012341408291831613, 0.17032015323638916, 0.0718122348189354, 0.018032440915703773, 0.0801185742020607, 0.0015342386905103922, 0.10742893069982529, -0.15182135999202728, -0.3061235547065735, -0.12424889206886292, -0.04977663606405258, -0.22742225229740143, -0.02432352304458618, 0.29635921120643616, 0.024090467020869255, -0.02481873333454132, -0.4469963610172272, -0.19278666377067566, 0.2137250155210495, 0.05342449992895126, -0.21313436329364777, -0.054004374891519547, 0.32922452688217163, -0.18478761613368988, -0.10998338460922241, -0.08522822707891464, -0.017741292715072632, 0.033295270055532455, -0.256565660238266], [0.1462341547012329, 0.033904027193784714, -0.015352059155702591, 0.0006343296845443547, -0.02142740599811077, -0.28009098768234253, -0.04595746099948883, 0.08727586269378662, -0.01649731956422329, 0.20959985256195068, 0.11313345283269882, 0.4869428277015686, 0.05572296306490898, -0.01529783196747303, 0.15140239894390106, 0.10465150326490402, 0.09138037264347076, 0.0693967267870903, -0.041425153613090515, 0.04608562961220741, -0.1356838494539261, 0.042141444981098175, -0.006149867549538612, 0.003498486941680312, 0.035941023379564285, 0.006473474204540253, -0.0006683897227048874, -0.17486710846424103, -0.036979205906391144, 0.03588951751589775, 0.09997101128101349, 0.10095523297786713, -0.07478898763656616, -0.21264807879924774, -0.043456777930259705, -0.07321664690971375, -0.00019319028069730848, -0.03197269141674042, 0.1731400042772293, 0.10708528012037277], [-0.037324413657188416, -0.2534342408180237, -0.26319432258605957, 0.23333784937858582, -0.23712295293807983, 0.01730385795235634, 0.41880351305007935, 0.11564531922340393, -0.004663474857807159, 0.39058712124824524, -0.36623814702033997, 0.14101718366146088, -0.12883341312408447, -0.07975555211305618, -0.22370398044586182, -0.039001066237688065, -0.0058907680213451385, -0.1469622105360031, -0.07887589186429977, 0.18361152708530426, -0.1456107646226883, 0.24029001593589783, 0.22097674012184143, 0.005051302257925272, -0.48021572828292847, 0.10982289165258408, 0.6743026971817017, 0.42220598459243774, -0.03533134236931801, -0.17877930402755737, -0.04066026583313942, 0.3122239112854004, 0.40124037861824036, 0.21718773245811462, 0.04118698462843895, 0.19389602541923523, 0.019357653334736824, -0.06548069417476654, -0.19181811809539795, 0.48660606145858765], [-0.031239936128258705, 0.11108679324388504, -0.09997653216123581, 0.07833914458751678, 0.19031381607055664, 0.32050690054893494, 0.1563364863395691, 0.15825843811035156, -0.1736038327217102, 0.10591910034418106, -0.058200426399707794, 0.3622017800807953, -0.10238204896450043, -0.05252166464924812, -0.09021822363138199, -0.1486159861087799, -0.20191092789173126, -0.059849176555871964, 0.19752101600170135, 0.4991786479949951, 0.04469342529773712, 0.22046566009521484, 0.26264795660972595, -0.08688697218894958, -0.3091442883014679, -0.051522161811590195, -0.039363548159599304, 0.19622251391410828, 0.017280785366892815, 0.034183017909526825, -0.08458886295557022, 0.17414601147174835, 0.02701343409717083, -0.39394375681877136, 0.1703583300113678, 0.28955572843551636, 0.02634396217763424, 0.04907824844121933, -0.3047097325325012, 0.1513994187116623], [0.08241976052522659, -0.01657731831073761, -0.14477424323558807, 0.04106283187866211, 0.02904711663722992, 0.023218519985675812, 0.13497662544250488, 0.037505488842725754, -0.1200433149933815, 0.12225250899791718, -0.03026162087917328, -0.06435433775186539, -0.052967414259910583, -0.0572255440056324, 0.019318828359246254, -0.04117276892066002, -0.015480554662644863, 0.07672035694122314, 0.06569655239582062, -0.09197355061769485, -0.0993150919675827, 0.05259432643651962, -0.1051458865404129, 0.07127278298139572, -0.13477684557437897, -0.09107766300439835, 0.0037421330343931913, 0.2567141652107239, 0.1443129926919937, -0.045007601380348206, -0.07349696755409241, -0.04681215062737465, 0.17412562668323517, 0.09549331665039062, -0.02883075922727585, -0.16318605840206146, -0.13162067532539368, 0.04419878497719765, -0.04218865558505058, 0.1282830387353897], [-0.15406453609466553, -0.015723146498203278, -0.14099454879760742, 0.13839389383792877, 0.23473885655403137, -0.1359611600637436, -0.1508091241121292, -0.21614010632038116, -0.11248553544282913, -0.04098996892571449, -0.14132483303546906, 0.4758665859699249, 0.07452790439128876, -0.0037593289744108915, -0.12542249262332916, -0.1539507955312729, 0.052283260971307755, 0.11709768325090408, 0.21600420773029327, -0.2166903167963028, 0.29356080293655396, 0.1865301877260208, 0.03934261202812195, -0.0513685904443264, -0.3368645906448364, 0.18897010385990143, 0.5773065686225891, -0.24545243382453918, 0.07841271162033081, -0.14203643798828125, -0.1391122192144394, 0.20847326517105103, 0.36420562863349915, -0.11074669659137726, 0.1415412873029709, 0.7493045330047607, 0.1282770037651062, 0.04563046246767044, -0.18574118614196777, 0.39473676681518555], [-0.057737696915864944, 0.006165024824440479, 0.05020558089017868, -0.05566970631480217, -0.2584002912044525, 0.11561043560504913, 0.36220023036003113, 0.06789442896842957, 0.0018904743483290076, -0.06736456602811813, 0.09687670320272446, -0.02043198049068451, 0.14829100668430328, 0.0793740525841713, 0.15206046402454376, -0.03722664713859558, -0.10548632591962814, 0.05085131525993347, -0.14452871680259705, -0.20381906628608704, -0.29850807785987854, -0.19756922125816345, 0.014894000254571438, -0.018236150965094566, -0.01157105341553688, -0.0815088227391243, -0.2971125543117523, 0.1281515210866928, -0.0533028207719326, 0.2522117793560028, 0.16250541806221008, -0.16890010237693787, -0.07281110435724258, 0.06750060617923737, -0.0699869692325592, 0.04395797476172447, -0.14850135147571564, -0.09902501106262207, 0.1554047167301178, -0.25456035137176514], [-0.1120099201798439, -0.4756462574005127, -0.234676793217659, 0.10604780912399292, 0.25729039311408997, 0.19431303441524506, 0.22384919226169586, -0.1740713119506836, -0.16030849516391754, 0.6964151263237, -0.15574799478054047, 0.18388605117797852, -0.24142101407051086, 0.031100038439035416, -0.09503040462732315, -0.03531232103705406, -0.29117757081985474, 0.14750370383262634, 0.30299922823905945, -0.29684552550315857, 0.13586877286434174, -0.06807421147823334, -0.14152739942073822, -0.19915123283863068, -0.11399068683385849, 0.36321619153022766, 0.32743149995803833, -0.38263601064682007, 0.07174862176179886, -0.025572074577212334, -0.07487360388040543, 0.2953662872314453, 0.16065919399261475, -0.4494103491306305, 0.2927487790584564, 0.3985578417778015, -0.16177120804786682, -0.032814111560583115, 0.04689503088593483, 0.26583796739578247], [-0.3119580149650574, -0.12786516547203064, 0.19458766281604767, -0.18376228213310242, -0.09155041724443436, 0.006305528338998556, 0.2922789752483368, -0.06878510862588882, 0.17082639038562775, 0.21988308429718018, 0.09755231440067291, 0.15410561859607697, 0.17832086980342865, 0.2518160045146942, -0.07372359931468964, -0.1327207237482071, 0.042327407747507095, 0.06380999833345413, -0.2005140334367752, -0.6875784993171692, -0.20006948709487915, -0.3707944452762604, -0.3800109326839447, -0.18107524514198303, 0.29237401485443115, 0.3990785777568817, -0.11770724505186081, -0.22091177105903625, 0.10779618471860886, 0.15521706640720367, 0.1103639006614685, -0.14556702971458435, -0.1920526623725891, 0.6229874491691589, -0.11726581305265427, -0.4006377160549164, -0.04990395903587341, 0.2536829710006714, 0.42103663086891174, -0.30702874064445496], [-0.19186028838157654, -0.017142338678240776, 0.03377608209848404, -0.01990266889333725, -0.11161399632692337, -0.06295502930879593, 0.3083152770996094, 0.11936220526695251, 0.10615469515323639, 0.03164051100611687, 0.06517241895198822, 0.2768419086933136, -0.1590396612882614, -0.1240186095237732, -0.01854196935892105, -0.15516814589500427, 0.08726709336042404, -0.0013763370225206017, -0.04850413650274277, -0.3560924530029297, -0.283878892660141, -0.13270127773284912, -0.13783138990402222, 0.10904476791620255, 0.06258843839168549, -0.04851027578115463, -0.14625972509384155, 0.11222400516271591, 0.0896853432059288, 0.08518747240304947, 0.013442806899547577, -0.009748462587594986, 0.008748237043619156, 0.09228592365980148, -0.16910529136657715, -0.409584105014801, -0.029595835134387016, 0.13247372210025787, 0.08550699055194855, -0.12120506167411804], [0.04379158467054367, 0.18832480907440186, 0.0358785055577755, 0.11828045547008514, -0.08082734048366547, -0.002255063271149993, -0.04892900958657265, 0.15499313175678253, 0.010800672695040703, -0.10339747369289398, 0.013478855602443218, 0.1389675885438919, -0.031910210847854614, -0.08111488074064255, -0.210622638463974, -0.07318712770938873, 0.09966263920068741, -0.02771669626235962, -0.1012609601020813, -0.19043391942977905, -0.07213644683361053, 0.1793367862701416, 0.09142158180475235, 0.05288204923272133, -0.08524789661169052, -0.03842877969145775, 0.08589237183332443, 0.11795629560947418, -0.037079107016325, -0.1411624550819397, 0.06283647567033768, -0.06652629375457764, 0.06434401869773865, 0.18519198894500732, -0.0035602536518126726, -0.3737886846065521, 0.22387787699699402, 0.01911143772304058, -0.05569588765501976, 0.007217980455607176], [-0.006108384113758802, 0.04393725097179413, -0.044090501964092255, 0.03823196142911911, 0.004071764647960663, -0.08902619779109955, -0.3097297251224518, -0.038943301886320114, 0.03919944539666176, -0.20763921737670898, -0.012085280381143093, -0.27096742391586304, 0.04271934553980827, -0.044598717242479324, -0.012418078258633614, -0.2101154327392578, 0.07695180177688599, -0.004547822754830122, -0.040267858654260635, 0.2208520770072937, 0.07416252046823502, 0.15167292952537537, 0.037922684103250504, 0.008167754858732224, -0.019027190282940865, -0.05564585328102112, -0.07037391513586044, 0.027996234595775604, 0.05830909311771393, -0.062393561005592346, 0.009884382598102093, 0.036721017211675644, 0.15267792344093323, -0.00015829507901798934, -0.11325627565383911, 0.18852587044239044, 0.12708698213100433, 0.06245241314172745, -0.09793070703744888, 0.032170798629522324], [0.08895501494407654, 0.09835318475961685, -0.017475035041570663, 0.03954251483082771, -0.007850057445466518, 0.01133302878588438, 0.09903609752655029, -0.05533940717577934, 0.05465716868638992, -0.3390750288963318, 0.07788298279047012, -0.4703005254268646, 0.15292449295520782, -0.06004306674003601, -0.09851232916116714, 0.13951218128204346, -0.17813053727149963, 0.04564536735415459, -0.04926689341664314, 0.012282898649573326, 0.004357221536338329, 0.048619404435157776, 0.06563173234462738, -0.05469865724444389, -0.132087841629982, -0.24201253056526184, -0.13143199682235718, 0.2636242210865021, 0.0018290365114808083, -0.101475790143013, -0.034376394003629684, -0.13979752361774445, 0.11623267829418182, 0.43707531690597534, -0.0006257575005292892, 0.09281981736421585, 0.061605945229530334, -0.018737411126494408, -0.009471255354583263, -0.1285698562860489], [-0.04485519975423813, 0.023913808166980743, -0.03800293058156967, -0.014141936786472797, -0.14396338164806366, 0.029404573142528534, -0.06885510683059692, 0.12938851118087769, -0.053022995591163635, 0.04477502405643463, 0.04123783856630325, 0.38441935181617737, -0.014197662472724915, 0.07994318753480911, 0.13274140655994415, 0.1030651181936264, -0.01779422163963318, -0.006602476816624403, 0.10526297241449356, -0.0676809698343277, -0.12749816477298737, 0.004628314170986414, -0.07105660438537598, 0.16796767711639404, 0.21362148225307465, 0.007017649244517088, -0.4327341318130493, -0.10737989097833633, -0.12302834540605545, 0.1702321171760559, 0.03533778712153435, 0.0334138460457325, -0.10665396600961685, -0.206734761595726, -0.12294487655162811, -0.10820542275905609, 0.025031689554452896, 0.014269650913774967, -0.01548958569765091, -0.2125653773546219], [-0.06475020945072174, 0.03585813194513321, 0.07892528921365738, 0.09329371154308319, 0.08844828605651855, 0.015337524004280567, -0.13735073804855347, -0.0528189018368721, -0.11099820584058762, -0.1198926642537117, 0.15596327185630798, 0.20551058650016785, 0.11678684502840042, 0.10126485675573349, 0.05918445438146591, -0.0017616950208321214, 0.059205830097198486, 0.026134226471185684, 0.09077607840299606, 0.0773727148771286, -0.008094255812466145, 0.03569991514086723, 0.07394155114889145, -0.10834984481334686, 0.06950688362121582, 0.1418551802635193, -0.24960657954216003, -0.3449399173259735, -0.019857821986079216, -0.02391268126666546, -0.06253810971975327, 0.012092402204871178, 0.0061553833074867725, -0.2927305996417999, -0.0469500795006752, 0.2939489185810089, 0.09089960902929306, 0.1087440624833107, 0.06721767783164978, -0.010311879217624664], [-0.0791647732257843, 0.1652453988790512, 0.2920921742916107, 0.0059059495106339455, -0.4597514867782593, -0.17119327187538147, 0.03735404834151268, 0.5950117707252502, 0.16897934675216675, -0.08447862416505814, 0.0238715261220932, -0.004121966194361448, -0.537082314491272, 0.03350915387272835, -0.10526472330093384, -0.07811091095209122, -0.1990353763103485, 0.06726061552762985, -0.0971217229962349, 0.19067582488059998, -0.2893450856208801, -0.11547358334064484, -0.19847847521305084, 0.3591436445713043, 0.29850977659225464, 0.48070228099823, -0.22843383252620697, 0.22551900148391724, 0.060920797288417816, 0.07850178331136703, 0.42449936270713806, -0.38541314005851746, -0.37742123007774353, -0.9545231461524963, 0.12874336540699005, -0.6358001828193665, 0.019870184361934662, 0.2001723200082779, 0.3212651312351227, -0.23873519897460938], [-0.11425644159317017, -0.19299204647541046, -0.06095265969634056, -0.09873616695404053, 0.15353357791900635, -0.15346050262451172, -0.25750932097435, -0.30913397669792175, -0.03489537537097931, 0.18533644080162048, 0.2739713191986084, -0.10548082739114761, 0.39839959144592285, -0.09852525591850281, -0.0843774825334549, -0.056941717863082886, 0.09649723023176193, 0.03889169543981552, 0.06206706911325455, -0.34398114681243896, 0.015954265370965004, 0.03181656077504158, -0.154184490442276, 0.06515025347471237, 0.31895262002944946, -0.22659821808338165, -0.17573752999305725, -0.5590996146202087, -0.04116198420524597, 0.023441564291715622, -0.03743361309170723, -0.05066424235701561, -0.0679737776517868, 0.5007407665252686, -0.24224020540714264, 0.11664655804634094, 0.014653729274868965, -0.09967716038227081, -0.13274535536766052, -0.13954702019691467], [-0.0179000087082386, 0.174836665391922, 0.1289355754852295, -0.017052099108695984, 0.20833422243595123, 0.13444784283638, -0.24974574148654938, -0.1090022474527359, -0.028164314106106758, -0.185313880443573, -0.06947993487119675, -0.08922231942415237, 0.23772835731506348, 0.12671847641468048, 0.004188742954283953, -0.04743191599845886, -0.030062006786465645, -0.06787087768316269, 0.08845275640487671, 0.46226999163627625, 0.23050759732723236, -0.1736493855714798, -0.12705755233764648, -0.15275722742080688, 0.2092638462781906, 0.17447884380817413, -0.40505707263946533, -0.15091504156589508, 0.08350594341754913, -0.05017094686627388, 0.04021508991718292, -0.09349200129508972, -0.11594954133033752, -0.15036918222904205, 0.004585461691021919, 0.3629399836063385, -0.19323395192623138, 0.053162284195423126, 0.0576867014169693, -0.2793232798576355], [-0.028505075722932816, 0.043479327112436295, 0.15349288284778595, 0.0415220782160759, 0.082420714199543, -0.009043556638062, -0.12375397235155106, -0.00016430091636721045, 0.08977579325437546, -0.31738045811653137, 0.0698932483792305, 0.008842366747558117, 0.10545479506254196, 0.07082978636026382, -0.08674037456512451, -0.01953553967177868, -0.12822003662586212, 0.09662102907896042, 0.051581788808107376, 0.30183911323547363, -0.06143207475543022, 3.626029138104059e-05, -0.10336451977491379, 0.09842946380376816, 0.22849202156066895, 0.11557890474796295, 0.05047663301229477, -0.10680239647626877, 0.12957490980625153, 0.12858301401138306, 0.008191649802029133, -0.10783079266548157, -0.026263518258929253, -0.19929413497447968, 0.0013184866402298212, -0.008454546332359314, 0.12732087075710297, 0.07276417315006256, 0.12122263014316559, -0.11320164054632187], [0.06783542782068253, 0.03615954518318176, -0.007550874259322882, 0.25085678696632385, 0.31250640749931335, 0.13216915726661682, -0.08251813799142838, -0.05195534974336624, -0.3205142617225647, -0.05854037404060364, -0.21647614240646362, -0.2691774070262909, 0.06911075115203857, -0.007020304445177317, -0.0268861074000597, 0.059634122997522354, -0.06742438673973083, 0.06799619644880295, 0.28887397050857544, 0.26209649443626404, 0.41580235958099365, 0.2933282256126404, 0.22332309186458588, -0.3216751217842102, -0.17305931448936462, -0.1146276444196701, -0.4420279264450073, -0.03077356331050396, -0.07214102894067764, -0.12823505699634552, -0.28593820333480835, 0.22198353707790375, 0.06613358110189438, -0.20835177600383759, 0.15992029011249542, 0.4422376751899719, 0.04025719687342644, -0.18591716885566711, -0.57716965675354, -0.13340887427330017], [0.07990262657403946, -0.0485723651945591, -0.0327921099960804, 0.0780593752861023, -0.07651347666978836, 0.050344280898571014, 0.036079540848731995, -0.07355096936225891, 0.06412895023822784, 0.14900891482830048, 0.0874505564570427, -0.11766520142555237, 0.21516478061676025, -0.1780102699995041, -0.00047445224481634796, 0.03925566002726555, 0.11848537623882294, 0.10402317345142365, 0.12248743325471878, -0.19134734570980072, -0.21522560715675354, 0.05008615925908089, -0.1249513328075409, -0.16940461099147797, -0.09616682678461075, -0.25078657269477844, -0.03207611292600632, -0.06001625210046768, -0.0709252655506134, 0.04570643976330757, 0.009153240360319614, 0.07491014897823334, 0.06852942705154419, 0.2817739248275757, -0.01334303803741932, 0.023943442851305008, -0.12349865585565567, -0.14167454838752747, 0.1995544284582138, 0.15366071462631226], [0.04453597590327263, -0.3482760488986969, -0.11590271443128586, -0.07776086032390594, 0.19876934587955475, 0.22546084225177765, -0.13494855165481567, 0.19725866615772247, -0.10824979841709137, 0.43629562854766846, -0.07865215092897415, 0.3121291995048523, -0.18728689849376678, -0.08669418096542358, 0.20706088840961456, 0.10840128362178802, -0.2698100805282593, 0.1757238507270813, 0.26515433192253113, -0.33300960063934326, 0.043561045080423355, -0.08871092647314072, -0.08413529396057129, -0.11232871562242508, -0.012909715063869953, 0.01814519800245762, 0.1593024581670761, -0.05557062104344368, 0.06173102185130119, -0.03516220301389694, -0.06716728210449219, 0.17107459902763367, -0.028762301430106163, -0.7928799390792847, 0.09857885539531708, -0.3067529499530792, -0.2845982015132904, -0.12200845032930374, 0.08331295102834702, 0.0668807104229927], [0.08805064857006073, 0.34758439660072327, 0.03962307795882225, 0.23414742946624756, -0.18873116374015808, -0.024481171742081642, -0.24274051189422607, 0.5109242796897888, 0.15302279591560364, -0.14788471162319183, -0.13496917486190796, -0.2753845751285553, -0.5038105249404907, 0.03176570311188698, 0.07707026600837708, 0.1748325228691101, 0.11585439741611481, 0.13620758056640625, -0.07794919610023499, 0.4161234498023987, 0.03846593201160431, 0.02790001407265663, 0.03253103047609329, 0.530195951461792, -0.033900186419487, 0.1253795176744461, -0.0898946151137352, 0.14135582745075226, -0.037286993116140366, 0.048406198620796204, 0.22807766497135162, -0.10760602355003357, -0.010348369367420673, -0.7481290698051453, -0.14785107970237732, -0.15624694526195526, 0.24753035604953766, -0.0013623269042000175, -0.19359003007411957, 0.13521449267864227], [0.20052650570869446, 0.12982776761054993, -0.05722717195749283, 0.38262975215911865, 0.026334520429372787, 0.04889920353889465, 0.04625455662608147, 0.047194112092256546, -0.20966836810112, -0.407173216342926, -0.5244611501693726, -0.2894931435585022, -0.33230307698249817, -0.03505204617977142, -0.05753717198967934, 0.1962079405784607, -0.037920963019132614, 0.06404997408390045, 0.07688623666763306, 0.9285487532615662, 0.1737077534198761, 0.20609299838542938, 0.3841339349746704, -0.011841055937111378, -0.3578560948371887, -0.1812707483768463, 0.2700437903404236, 0.3307406008243561, -0.08918838948011398, -0.3944248855113983, -0.19192425906658173, 0.09661365300416946, 0.3634639084339142, -0.5588840246200562, 0.09134438633918762, 0.5582488179206848, 0.1793574094772339, -0.08776161819696426, -0.17406193912029266, 0.37690529227256775], [0.0397118404507637, -0.11902303248643875, -0.023656411096453667, 0.14121299982070923, 0.02760949544608593, 0.03075268305838108, -0.0735984519124031, 0.042286429554224014, -0.08801311254501343, 0.2811277508735657, -0.08970823884010315, 0.20128272473812103, -0.043742917478084564, 0.12281239032745361, 0.05630075931549072, 0.10267210751771927, -0.022520344704389572, 0.08182327449321747, -0.0147252157330513, 0.027542633935809135, 0.029016416519880295, -0.03340815380215645, 0.027514677494764328, 0.020805761218070984, 0.10485643893480301, 0.16444402933120728, 0.15143071115016937, -0.04722563922405243, -0.18140210211277008, -0.029840411618351936, -0.007989511825144291, 0.12352832406759262, -0.09900368005037308, -0.1970585584640503, 0.06692174077033997, -0.21650303900241852, -0.052219025790691376, 0.018167387694120407, 0.10145600885152817, -0.07204889506101608], [-0.02426670864224434, -0.08930200338363647, -0.052796620875597, -0.12626056373119354, -0.2355133444070816, -0.05067116767168045, 0.3392510712146759, 0.04495987668633461, 0.13775812089443207, -0.0017786116804927588, 0.07298678904771805, -0.03994826599955559, -0.005715901497751474, 0.004732980392873287, 0.07634393125772476, -0.009319833479821682, 0.1340610235929489, -0.08205331116914749, -0.0447101853787899, -0.2652962803840637, -0.13715803623199463, -0.13529066741466522, -0.148302361369133, -0.08819394558668137, -0.04962444677948952, -0.0829252377152443, 0.008671305142343044, 0.1408235728740692, -0.04353882372379303, 0.04691173881292343, -0.03376598656177521, 0.05169880762696266, 0.18318909406661987, 0.06798045337200165, -0.1516057550907135, -0.07227076590061188, -0.08318337053060532, -0.07291947305202484, 0.09338584542274475, 0.010559935122728348], [0.019186481833457947, -0.0776292160153389, 0.04906813055276871, 0.18453967571258545, -0.06595277041196823, 0.11733517050743103, 0.14998847246170044, 0.220407634973526, 0.010427308268845081, 0.10582926869392395, 0.10127808153629303, 0.04741769656538963, -0.1827353686094284, 0.02381187118589878, -0.08684627711772919, 0.06266074627637863, -0.11405879259109497, 0.02445998787879944, 0.03309265524148941, 0.1364520937204361, 0.00556971225887537, 0.04096955433487892, -0.061681635677814484, 0.01682661660015583, -0.225106343626976, 0.06486328691244125, 0.10475484281778336, 0.3855920433998108, 0.05607539787888527, -0.01214746292680502, 0.06642133742570877, 0.1266794502735138, 0.0734093114733696, -0.337954580783844, 0.20480915904045105, -0.3067696690559387, 0.04514416679739952, -0.035495612770318985, 0.24350890517234802, 0.0023671917151659727], [-0.10905907303094864, 0.18798217177391052, -0.1484489142894745, 0.27593690156936646, 0.19467277824878693, 0.033570364117622375, -0.5366876125335693, -0.11589068919420242, -0.055892422795295715, 0.03193040192127228, -0.3443124294281006, -0.019665665924549103, 0.10708672553300858, -0.11938773095607758, -0.030412420630455017, -0.10438751429319382, 0.07084925472736359, 0.08024955540895462, 0.11848678439855576, 0.321346640586853, 0.26419833302497864, 0.25518354773521423, 0.32681307196617126, -0.017361242324113846, -0.14500971138477325, 0.11750639230012894, 0.39012500643730164, -0.07912683486938477, 0.029356013983488083, -0.29131847620010376, -0.16351693868637085, 0.22907771170139313, 0.1149010881781578, -0.06123820319771767, 0.03015732951462269, 0.1819600909948349, 0.1729312688112259, -0.03751955181360245, -0.3488195836544037, 0.25243785977363586], [-0.0690055638551712, 0.18596598505973816, 0.05667998269200325, -0.037954289466142654, -0.02636619657278061, -0.13337518274784088, -0.44533541798591614, -0.18024080991744995, 0.0322016105055809, -0.16082432866096497, -0.1337358057498932, -0.12989696860313416, 