{
    "in_shape": [
        32,
        0,
        1
    ],
    "layers": [
        {
            "type": "lstm",
            "activation": "tanh",
            "shape": [
                32,
                0,
                40
            ],
            "weights": [
                [
                    [
                        -1.661454677581787,
                        0.13452096283435822,
                        -0.3972165286540985,
                        0.26140889525413513,
                        -0.019337957724928856,
                        -0.061046674847602844,
                        -0.2384037971496582,
                        -0.9610829949378967,
                        -0.41665804386138916,
                        -0.06808626651763916,
                        -0.3839390277862549,
                        -0.03535241633653641,
                        -1.1998417377471924,
                        -0.19214075803756714,
                        -0.13545860350131989,
                        0.9970558285713196,
                        -0.27123716473579407,
                        0.6323004961013794,
                        0.07059189677238464,
                        0.30061131715774536,
                        -0.6249769926071167,
                        -0.2409423440694809,
                        -0.427386611700058,
                        -0.026698892936110497,
                        -0.6854262948036194,
                        -0.145183727145195,
                        -0.5279030799865723,
                        -0.164152592420578,
                        -0.5623599290847778,
                        -0.2184639275074005,
                        -0.020975716412067413,
                        0.052654147148132324,
                        0.05480744689702988,
                        0.07198672741651535,
                        0.10988841950893402,
                        -0.4226977527141571,
                        -0.05624935030937195,
                        -0.1424219161272049,
                        0.043571412563323975,
                        -0.13856959342956543,
                        -0.345531165599823,
                        -0.09901341795921326,
                        -0.6743417978286743,
                        -0.5001310706138611,
                        0.026111772283911705,
                        -0.09552587568759918,
                        -0.3850933909416199,
                        -0.19073283672332764,
                        0.015903009101748466,
                        0.11562614142894745,
                        0.30246323347091675,
                        -0.1549893021583557,
                        -0.15662634372711182,
                        -0.06258754432201385,
                        -0.08237579464912415,
                        0.4109872877597809,
                        -0.16097034513950348,
                        0.16129471361637115,
                        -0.0014450968010351062,
                        0.10383526980876923,
                        0.13200867176055908,
                        -0.062211815267801285,
                        -0.5445043444633484,
                        -0.10170865058898926,
                        -0.2859121859073639,
                        0.1551319658756256,
                        -0.2194438874721527,
                        -0.42751193046569824,
                        -0.29985517263412476,
                        -0.20525316894054413,
                        -0.02629939466714859,
                        0.1658046841621399,
                        -0.2715960144996643,
                        0.18697990477085114,
                        -0.22484523057937622,
                        -0.07735216617584229,
                        -0.04202459752559662,
                        -0.18655109405517578,
                        -0.15928080677986145,
                        -0.24175925552845,
                        1.6716639995574951,
                        -0.0075722043402493,
                        -0.05147310346364975,
                        -0.7296651601791382,
                        -0.11492940038442612,
                        -1.2931643724441528,
                        -0.7080299258232117,
                        -0.4933731257915497,
                        -0.5122262239456177,
                        0.09996309131383896,
                        0.04405319318175316,
                        -0.16859494149684906,
                        2.4474127292633057,
                        0.1745787262916565,
                        0.2523178458213806,
                        1.0635325908660889,
                        -0.3435054421424866,
                        0.523252010345459,
                        -0.547243058681488,
                        0.3411850333213806,
                        -0.29819777607917786,
                        -0.4158742427825928,
                        -0.8171366453170776,
                        0.08584725856781006,
                        -1.4834554195404053,
                        -0.9058860540390015,
                        0.7436965703964233,
                        -1.0624240636825562,
                        -1.0162267684936523,
                        0.6616420149803162,
                        -0.497119665145874,
                        0.3745897114276886,
                        -0.4263289272785187,
                        0.29856669902801514,
                        -0.4399619996547699,
                        0.5968272089958191,
                        -1.0493570566177368,
                        0.1830534040927887,
                        -0.08477156609296799,
                        0.8476182222366333,
                        -3.117284059524536,
                        -0.008648254908621311,
                        -0.6499329805374146,
                        -0.35534441471099854,
                        0.0943077802658081,
                        -0.7767259478569031,
                        -0.4100380539894104,
                        -1.2470296621322632,
                        0.0817810595035553,
                        -0.05126900598406792,
                        0.42473092675209045,
                        -0.02759530395269394,
                        0.0343080572783947,
                        -0.17784343659877777,
                        -0.26671382784843445,
                        -0.5146024823188782,
                        -0.35964179039001465,
                        0.06746391952037811,
                        0.07119427621364594,
                        -0.07382048666477203,
                        0.06727123260498047,
                        -0.04622001573443413,
                        -0.6248201727867126,
                        0.016057871282100677,
                        -0.8057476282119751,
                        0.025199608877301216,
                        -0.6487184762954712,
                        -0.5411341786384583,
                        -0.7982097268104553,
                        -0.6230912208557129,
                        -0.07435313612222672,
                        -0.33259010314941406,
                        -0.10883757472038269,
                        0.12432093173265457,
                        -0.1247115284204483,
                        -0.17201653122901917,
                        -0.12388146668672562,
                        -0.20835651457309723,
                        -0.0009965356439352036,
                        -0.2273847758769989
                    ]
                ],
                [
                    [
                        -0.2696361839771271,
                        0.005707724951207638,
                        -0.8600304126739502,
                        -0.031203720718622208,
                        0.0319783017039299,
                        0.2950626611709595,
                        0.06292429566383362,
                        -0.08175969868898392,
                        0.06348465383052826,
                        -0.08812858164310455,
                        -0.11833693832159042,
                        0.012552591972053051,
                        -0.11321161687374115,
                        -0.06602822244167328,
                        -0.04664791002869606,
                        0.954325795173645,
                        -0.14244292676448822,
                        0.12501055002212524,
                        0.10918007791042328,
                        0.2105099856853485,
                        -0.7961174249649048,
                        0.09161831438541412,
                        -0.11307282000780106,
                        0.06890196353197098,
                        0.0813010185956955,
                        0.009482117369771004,
                        -0.2349742203950882,
                        -0.06771586835384369,
                        -0.05217888951301575,
                        -0.1540800780057907,
                        -0.011926037259399891,
                        0.7815507650375366,
                        0.03241242840886116,
                        -0.06838301569223404,
                        -0.027134260162711143,
                        0.0755709707736969,
                        -0.005475284997373819,
                        0.09916505962610245,
                        -0.009251558221876621,
                        -0.010939382016658783,
                        0.617824137210846,
                        0.016064248979091644,
                        0.3765011727809906,
                        0.21374845504760742,
                        0.03933391347527504,
                        0.24729229509830475,
                        -0.08734403550624847,
                        0.09167216718196869,
                        0.24855001270771027,
                        -0.038687147200107574,
                        -0.06956975162029266,
                        -0.011183664202690125,
                        0.7476110458374023,
                        -0.03481738641858101,
                        0.03210585564374924,
                        0.023592432960867882,
                        -0.18075625598430634,
                        -0.0994870662689209,
                        0.10874268412590027,
                        0.14407403767108917,
                        0.017807725816965103,
                        0.3070913851261139,
                        -0.008560365997254848,
                        0.04151882976293564,
                        0.20798800885677338,
                        -0.051763229072093964,
                        0.041366711258888245,
                        0.14592470228672028,
                        0.2569124698638916,
                        0.11640448123216629,
                        0.013712810352444649,
                        0.3020179271697998,
                        0.05781159549951553,
                        -0.053858328610658646,
                        0.10709495097398758,
                        0.1910220831632614,
                        0.30405470728874207,
                        -0.00798754021525383,
                        -0.05532582104206085,
                        0.03910984843969345,
                        -1.2162601947784424,
                        -0.01772124320268631,
                        -1.2443805932998657,
                        0.1496497392654419,
                        0.22505328059196472,
                        0.2857740819454193,
                        -0.7633832097053528,
                        0.34894701838493347,
                        0.03594734147191048,
                        0.1520799696445465,
                        -0.10472633689641953,
                        -0.0161347184330225,
                        0.1518293172121048,
                        -0.18075110018253326,
                        0.1316993683576584,
                        0.46676337718963623,
                        -0.2831721007823944,
                        -0.02691067010164261,
                        -0.12124159187078476,
                        0.3061447739601135,
                        0.1389254629611969,
                        0.2945080101490021,
                        0.21143174171447754,
                        -0.14990177750587463,
                        -0.2485082894563675,
                        -0.06352898478507996,
                        0.09322945773601532,
                        0.1130419373512268,
                        -0.07578329741954803,
                        -0.11260633170604706,
                        0.00019883095228578895,
                        0.7673777937889099,
                        0.09560194611549377,
                        -0.0023448721040040255,
                        0.2930258810520172,
                        0.019993659108877182,
                        0.22659341990947723,
                        0.18102174997329712,
                        -0.0047531211748719215,
                        0.18312391638755798,
                        0.019252339377999306,
                        -0.01658034697175026,
                        -0.6020558476448059,
                        -0.027853727340698242,
                        0.054258931428194046,
                        0.09243538975715637,
                        0.11015795916318893,
                        0.13274423778057098,
                        0.24501506984233856,
                        -0.06911426782608032,
                        0.5398476719856262,
                        -0.03686156123876572,
                        1.3182095289230347,
                        -0.06610281765460968,
                        0.036924418061971664,
                        0.13213014602661133,
                        -0.17307716608047485,
                        0.12625403702259064,
                        0.142141193151474,
                        0.1001129075884819,
                        0.31576836109161377,
                        0.1195603683590889,
                        0.0788508877158165,
                        0.07039088755846024,
                        0.659264326095581,
                        -0.005150473210960627,
                        -0.1192033514380455,
                        0.006641899701207876,
                        0.058222994208335876,
                        -0.20356501638889313,
                        0.0058572678826749325,
                        0.591669499874115,
                        -0.001530617824755609,
                        -0.040142688900232315,
                        0.090337835252285,
                        0.25688469409942627,
                        0.16446639597415924,
                        0.05445437133312225,
                        -0.0301200021058321,
                        0.0673515722155571
                    ],
                    [
                        -0.02412991039454937,
                        -0.10822875052690506,
                        -0.14420440793037415,
                        0.10698768496513367,
                        -0.08716218918561935,
                        -0.26207616925239563,
                        -0.0065903374925255775,
                        -0.030111713334918022,
                        -0.1847708523273468,
                        0.05804077908396721,
                        -0.008892904035747051,
                        -0.006428760942071676,
                        -0.5214273929595947,
                        -0.03943431377410889,
                        -0.12723097205162048,
                        0.02341677062213421,
                        -0.056557830423116684,
                        0.16954322159290314,
                        -0.02931753545999527,
                        -0.14455346763134003,
                        0.25004908442497253,
                        -0.2080278843641281,
                        0.11798202991485596,
                        -0.10099101811647415,
                        -0.13056880235671997,
                        -0.03144623339176178,
                        -0.059040628373622894,
                        -0.0037026354111731052,
                        -0.14198246598243713,
                        0.10559038817882538,
                        0.07738281041383743,
                        -0.0887916311621666,
                        -0.07869324088096619,
                        0.04245903342962265,
                        -0.05040007457137108,
                        -0.15808036923408508,
                        0.13322104513645172,
                        -0.11442101746797562,
                        -0.11453104019165039,
                        0.09136530756950378,
                        0.0692642331123352,
                        -0.08175334334373474,
                        -0.7207204103469849,
                        -0.01779964193701744,
                        -0.04589299112558365,
                        -0.3740586042404175,
                        0.02141888625919819,
                        -0.033637937158346176,
                        -0.15478874742984772,
                        0.0721123144030571,
                        0.09952930361032486,
                        -0.018273254856467247,
                        -0.5455832481384277,
                        -0.033213742077350616,
                        -0.06736201047897339,
                        -0.1982862800359726,
                        -0.01707235351204872,
                        0.08895403146743774,
                        -0.06660500168800354,
                        -0.0630795806646347,
                        0.000360553473001346,
                        -0.16939520835876465,
                        0.16665825247764587,
                        -0.08092395216226578,
                        -0.21118956804275513,
                        0.14683249592781067,
                        -0.00774177722632885,
                        -0.034716036170721054,
                        -0.13370047509670258,
                        0.1927311271429062,
                        0.0522027313709259,
                        -0.14932680130004883,
                        -0.11023838073015213,
                        0.06502025574445724,
                        -0.07671728730201721,
                        -0.17372198402881622,
                        -0.012642699293792248,
                        -0.11697868257761002,
                        -0.10473205894231796,
                        0.027398213744163513,
                        -0.07120569050312042,
                        -0.09108030796051025,
                        0.19911722838878632,
                        0.21101976931095123,
                        0.13876304030418396,
                        -0.12403030693531036,
                        0.021927181631326675,
                        0.22319625318050385,
                        0.17896908521652222,
                        -0.29192548990249634,
                        -0.019791394472122192,
                        0.24628925323486328,
                        -0.03411813825368881,
                        -0.08191248774528503,
                        0.042214516550302505,
                        -0.13594628870487213,
                        0.14680840075016022,
                        0.07198337465524673,
                        -0.08779151737689972,
                        0.08786042779684067,
                        0.08807460218667984,
                        0.2563870847225189,
                        0.25851863622665405,
                        -0.03870804235339165,
                        -0.04344450309872627,
                        0.05937341973185539,
                        -0.07736168801784515,
                        0.03752455860376358,
                        0.16218043863773346,
                        -0.28279003500938416,
                        0.19152677059173584,
                        -0.08299361169338226,
                        0.10754045099020004,
                        -0.0985756441950798,
                        0.2445441335439682,
                        -0.10410060733556747,
                        0.019472109153866768,
                        0.09456047415733337,
                        0.025714043527841568,
                        -0.15899178385734558,
                        -0.3407849669456482,
                        -0.12391829490661621,
                        -0.38476699590682983,
                        0.06350038200616837,
                        -0.08785391598939896,
                        -0.45771634578704834,
                        -0.18054179847240448,
                        -0.019293099641799927,
                        -0.1274816393852234,
                        0.0525590144097805,
                        -0.09185360372066498,
                        0.012575100176036358,
                        -0.054344628006219864,
                        -0.03937142714858055,
                        -0.18130746483802795,
                        -0.3984971046447754,
                        -0.05632581561803818,
                        -0.05902929976582527,
                        -0.03206038102507591,
                        -0.15253141522407532,
                        -0.03083163872361183,
                        -0.1690496951341629,
                        0.132724329829216,
                        -0.09407548606395721,
                        -0.2112116515636444,
                        0.04612431675195694,
                        -0.06251149624586105,
                        -0.013632243499159813,
                        -0.21757251024246216,
                        0.10263286530971527,
                        0.069529689848423,
                        -0.13675647974014282,
                        -0.06242436543107033,
                        0.0399702824652195,
                        -0.05644220486283302,
                        -0.12810614705085754,
                        0.09707950055599213,
                        -0.11576973646879196,
                        -0.10598091781139374,
                        0.08772634714841843
                    ],
                    [
                        -0.9192230105400085,
                        -0.25391507148742676,
                        -0.5151485204696655,
                        -0.41569992899894714,
                        -0.018714280799031258,
                        -0.7168048024177551,
                        0.16425101459026337,
                        -0.07570231705904007,
                        -0.4699845016002655,
                        0.14240849018096924,
                        0.9383341073989868,
                        -0.10471177846193314,
                        -1.6101845502853394,
                        0.023413415998220444,
                        0.014922874979674816,
                        -0.4216664731502533,
                        -0.07136122137308121,
                        -0.293434739112854,
                        -0.02410174533724785,
                        -0.4748532772064209,
                        -0.13106560707092285,
                        -0.48232945799827576,
                        0.4424181282520294,
                        -0.1901235282421112,
                        -0.866239070892334,
                        -0.04147513583302498,
                        0.23314620554447174,
                        -0.13006380200386047,
                        -0.3370742201805115,
                        0.2422296404838562,
                        -0.06562411785125732,
                        -0.6654625535011292,
                        -0.27469316124916077,
                        0.08450882881879807,
                        -0.37785786390304565,
                        -0.361716628074646,
                        -0.33478599786758423,
                        -0.07185276597738266,
                        -0.12984392046928406,
                        -0.1284789741039276,
                        -0.6353640556335449,
                        -0.18534056842327118,
                        0.07559078186750412,
                        -0.18599706888198853,
                        -0.0038957225624471903,
                        -0.5981156826019287,
                        0.11012394726276398,
                        -0.09905178844928741,
                        -0.4251388609409332,
                        0.10753612965345383,
                        0.6817777752876282,
                        -0.11962615698575974,
                        -0.9833940863609314,
                        -0.013925761915743351,
                        -0.04169447347521782,
                        0.19945770502090454,
                        -0.03837927430868149,
                        -0.1373087465763092,
                        -0.0429016537964344,
                        -0.3926793932914734,
                        -0.5092462301254272,
                        -0.508769154548645,
                        0.1270914375782013,
                        -0.1273902803659439,
                        -0.5391632914543152,
                        -0.14730393886566162,
                        0.03362169489264488,
                        -0.10082017630338669,
                        -0.17789793014526367,
                        0.08653037995100021,
                        0.011057576164603233,
                        -0.4357774555683136,
                        -0.20754407346248627,
                        0.13520582020282745,
                        -0.4319845736026764,
                        -0.30387377738952637,
                        -0.264273464679718,
                        -0.1669546365737915,
                        -0.12233191728591919,
                        -0.157516211271286,
                        -0.3321554660797119,
                        0.7901096940040588,
                        0.49747052788734436,
                        0.16944937407970428,
                        0.22866758704185486,
                        -0.2450617104768753,
                        0.5049130320549011,
                        0.2453901171684265,
                        0.3850289583206177,
                        -0.1694469153881073,
                        0.2575322091579437,
                        0.11415085941553116,
                        0.16478240489959717,
                        -0.24394391477108002,
                        0.006685148924589157,
                        -0.13950704038143158,
                        0.09807845205068588,
                        -0.026656370609998703,
                        -0.38271477818489075,
                        0.8597703576087952,
                        0.04171254113316536,
                        0.5019173622131348,
                        -0.13870735466480255,
                        -0.42068755626678467,
                        -0.39866745471954346,
                        0.04686231538653374,
                        -0.0727950856089592,
                        -0.3973110020160675,
                        -0.2687194049358368,
                        0.16305309534072876,
                        0.04697062075138092,
                        1.0512542724609375,
                        0.21982404589653015,
                        -0.1363244503736496,
                        0.1865420639514923,
                        0.7200642824172974,
                        -0.4215107560157776,
                        0.5495758652687073,
                        0.5631067752838135,
                        0.17030036449432373,
                        -0.31266698241233826,
                        -0.23299668729305267,
                        -0.14528760313987732,
                        -0.2871590852737427,
                        0.009524406865239143,
                        -0.8567584156990051,
                        0.10445655882358551,
                        0.049450527876615524,
                        -0.44320249557495117,
                        0.20108500123023987,
                        0.9491586089134216,
                        -0.05030931532382965,
                        -0.864623486995697,
                        0.044695835560560226,
                        0.007850896567106247,
                        -0.6551674604415894,
                        -0.11643566936254501,
                        -0.21259775757789612,
                        -0.03806040436029434,
                        -0.4853341579437256,
                        -0.5319681763648987,
                        -0.4599420130252838,
                        0.17729797959327698,
                        -0.17923913896083832,
                        -0.9771287441253662,
                        -0.2043132185935974,
                        0.08934415131807327,
                        0.010942482389509678,
                        -0.2121242731809616,
                        0.347889244556427,
                        0.01496746577322483,
                        -0.7966951131820679,
                        -0.1454545110464096,
                        0.15821321308612823,
                        -0.29930418729782104,
                        -0.33129703998565674,
                        -0.28524771332740784,
                        -0.11882934719324112,
                        -0.13043442368507385,
                        -0.2654321789741516
                    ],
                    [
                        -0.0679415836930275,
                        -0.13453248143196106,
                        0.027119304984807968,
                        0.2225065976381302,
                        -0.022279880940914154,
                        -0.1656789481639862,
                        -0.08960847556591034,
                        0.04822203889489174,
                        -0.11070146411657333,
                        -0.05509103089570999,
                        -0.13417626917362213,
                        0.013155138120055199,
                        0.15352270007133484,
                        -0.03304940089583397,
                        -0.15167824923992157,
                        -0.016225317493081093,
                        -0.033192265778779984,
                        0.14354321360588074,
                        -0.02405358850955963,
                        -0.0981806293129921,
                        0.24355390667915344,
                        -0.057626862078905106,
                        0.08922139555215836,
                        -0.053429629653692245,
                        0.04451616480946541,
                        -0.01634427346289158,
                        -0.16349700093269348,
                        0.00511228758841753,
                        -0.014571125619113445,
                        0.01602877676486969,
                        -0.008523251861333847,
                        -0.06628439575433731,
                        -0.06315478682518005,
                        0.009179534390568733,
                        0.03064943291246891,
                        -0.043627992272377014,
                        0.0843745619058609,
                        -0.12069201469421387,
                        -0.1121826320886612,
                        -0.028451045975089073,
                        0.08680684864521027,
                        -0.05549601837992668,
                        -0.6796088814735413,
                        0.1711171269416809,
                        -0.0049735307693481445,
                        -0.3773483633995056,
                        0.122887521982193,
                        0.016298433765769005,
                        -0.07473218441009521,
                        -0.1043822392821312,
                        -0.2413027584552765,
                        -0.00150487688370049,
                        -0.629065752029419,
                        -0.027456345036625862,
                        -0.03850492835044861,
                        -0.11367081105709076,
                        -0.013850974850356579,
                        0.0643305703997612,
                        -0.006236513610929251,
                        0.012495209462940693,
                        -0.06100410595536232,
                        -0.11199735105037689,
                        0.03029697947204113,
                        -0.0280163511633873,
                        -0.15334565937519073,
                        -0.06720168143510818,
                        -0.01980973780155182,
                        -0.03595034033060074,
                        -0.02745014987885952,
                        -0.0755288377404213,
                        -0.017935320734977722,
                        -0.07634411007165909,
                        -0.06282825767993927,
                        -0.014850062318146229,
                        -0.06682080775499344,
                        -0.1103430911898613,
                        0.11782602965831757,
                        -0.08776683360338211,
                        -0.07525838166475296,
                        -0.00891006551682949,
                        -0.03227943554520607,
                        0.15647061169147491,
                        0.4637024998664856,
                        -0.09542354196310043,
                        -0.0038423845544457436,
                        -0.03845367953181267,
                        -0.17160819470882416,
                        0.29666152596473694,
                        -0.006940711755305529,
                        -0.1632758229970932,
                        -0.3645017445087433,
                        0.040611542761325836,
                        -0.3291743993759155,
                        -0.07763741910457611,
                        0.18054789304733276,
                        -0.35152342915534973,
                        0.14601539075374603,
                        -0.1732829213142395,
                        -0.08807027339935303,
                        -0.11025557667016983,
                        -0.03537623956799507,
                        0.08486156165599823,
                        0.019282691180706024,
                        0.15049506723880768,
                        0.18672722578048706,
                        0.07597850263118744,
                        0.10638577491044998,
                        0.03604067116975784,
                        0.40115806460380554,
                        -0.06530585885047913,
                        0.1482534408569336,
                        -0.46754127740859985,
                        -0.013745537959039211,
                        -0.037917204201221466,
                        0.18547146022319794,
                        -0.18069322407245636,
                        -0.08506032079458237,
                        -0.04862968623638153,
                        -0.03715355321764946,
                        0.09663189202547073,
                        -0.23053723573684692,
                        -0.08627136051654816,
                        -0.1376952826976776,
                        0.21209201216697693,
                        -0.021891169250011444,
                        -0.127400204539299,
                        -0.14779844880104065,
                        0.10969923436641693,
                        -0.03884873539209366,
                        -0.05609598010778427,
                        -0.33677732944488525,
                        0.05213726684451103,
                        0.2983066439628601,
                        -0.029325149953365326,
                        -0.13794301450252533,
                        0.049340639263391495,
                        -0.023494143038988113,
                        0.06103185564279556,
                        -0.023658059537410736,
                        -0.06046028807759285,
                        0.11351504921913147,
                        0.04796353355050087,
                        0.04123150557279587,
                        -0.04423294588923454,
                        0.026883022859692574,
                        -0.007621499244123697,
                        -0.12844181060791016,
                        0.015922337770462036,
                        -0.025332365185022354,
                        0.010071170516312122,
                        0.008749498054385185,
                        -0.08117631077766418,
                        -0.012998050078749657,
                        0.015383569523692131,
                        0.058108989149332047,
                        -0.04961239546537399,
                        0.07953757792711258,
                        -0.09337877482175827,
                        -0.09046316146850586,
                        -0.02627263404428959
                    ],
                    [
                        -0.02327832393348217,
                        0.024982471019029617,
                        -0.13793520629405975,
                        0.0668908953666687,
                        -0.00687360716983676,
                        -0.10974545776844025,
                        0.08976954966783524,
                        -0.049607954919338226,
                        -0.044490184634923935,
                        0.02682599611580372,
                        -0.0245513953268528,
                        0.005803903564810753,
                        -0.031475141644477844,
                        -0.008542791940271854,
                        -0.07354062795639038,
                        -0.1160920038819313,
                        0.030939793214201927,
                        0.09580397605895996,
                        -0.01045672781765461,
                        -0.03158614784479141,
                        -0.028282834216952324,
                        -0.0024424255825579166,
                        -0.061558764427900314,
                        0.00112724129576236,
                        -0.017815392464399338,
                        0.05318176746368408,
                        -0.029948415234684944,
                        -0.01527765765786171,
                        0.012042105197906494,
                        0.007885647937655449,
                        0.02477777749300003,
                        0.004774322733283043,
                        0.0006784534780308604,
                        0.011720526963472366,
                        -0.0016325301257893443,
                        -0.03376402705907822,
                        -0.054624754935503006,
                        0.013358806259930134,
                        -0.012219389900565147,
                        -0.03748689964413643,
                        0.0024537371937185526,
                        0.005339520052075386,
                        -0.4065802991390228,
                        0.007123713381588459,
                        0.0210559144616127,
                        -0.18645738065242767,
                        0.024629926308989525,
                        -0.04719005525112152,
                        0.01572832651436329,
                        0.02735590562224388,
                        -0.008663078770041466,
                        0.004593840800225735,
                        -0.4377642869949341,
                        -0.010084151290357113,
                        -0.06031462922692299,
                        -0.09140753000974655,
                        0.008610060438513756,
                        0.05386492609977722,
                        -0.026318414136767387,
                        -0.011211302131414413,
                        -0.22669875621795654,
                        0.016460468992590904,
                        -0.05003202706575394,
                        -0.0025584108661860228,
                        0.1191500872373581,
                        0.07280579954385757,
                        -0.03306516632437706,
                        -0.023724203929305077,
                        0.11970353126525879,
                        0.04894975945353508,
                        0.005170350428670645,
                        -0.0915837213397026,
                        0.0014848604332655668,
                        0.005268845707178116,
                        -0.038315534591674805,
                        -0.06226303055882454,
                        -0.13253122568130493,
                        0.005474637262523174,
                        -0.013208892196416855,
                        -0.058419790118932724,
                        0.16577820479869843,
                        0.027133271098136902,
                        0.25546449422836304,
                        0.1130078136920929,
                        -0.15333415567874908,
                        -0.047926392406225204,
                        -0.033322058618068695,
                        0.08946608006954193,
                        0.0964701771736145,
                        -0.11503072082996368,
                        0.01101806852966547,
                        -0.02061229944229126,
                        0.2794770300388336,
                        -0.04888346046209335,
                        0.12557657063007355,
                        -0.058468762785196304,
                        0.08278612792491913,
                        -0.058826953172683716,
                        0.033537574112415314,
                        -0.07484009861946106,
                        -0.002211639890447259,
                        0.14510980248451233,
                        0.02037425898015499,
                        0.04973115399479866,
                        0.0877540186047554,
                        0.10990266501903534,
                        -0.053308356553316116,
                        -0.20105117559432983,
                        -0.11571169644594193,
                        -0.15214566886425018,
                        -0.06782472878694534,
                        -0.03120582364499569,
                        -0.10749942809343338,
                        -0.006174643058329821,
                        0.05276521295309067,
                        -0.023570936173200607,
                        -0.21923060715198517,
                        -0.05358876660466194,
                        -0.10490909218788147,
                        0.08443878591060638,
                        -0.12641000747680664,
                        0.021172339096665382,
                        -0.18065470457077026,
                        0.09335198998451233,
                        0.01853702776134014,
                        -0.17246073484420776,
                        0.0016953148879110813,
                        -0.05289791524410248,
                        0.024342894554138184,
                        0.03652385622262955,
                        0.010952440090477467,
                        0.029948564246296883,
                        -0.04892076924443245,
                        -0.008281415328383446,
                        -0.09691651165485382,
                        -0.08156774193048477,
                        0.036007050424814224,
                        0.05240994319319725,
                        -0.01473038736730814,
                        -0.046259984374046326,
                        -0.10794520378112793,
                        0.036651499569416046,
                        -0.006962655112147331,
                        0.012052183039486408,
                        -0.03062237985432148,
                        0.10056927800178528,
                        -0.052513159811496735,
                        -0.02109575644135475,
                        0.013649431057274342,
                        0.016037574037909508,
                        0.026001648977398872,
                        -0.05897373706102371,
                        0.06227127090096474,
                        0.01069538202136755,
                        -0.022578777745366096,
                        -0.03966083377599716,
                        -0.07634579390287399,
                        0.021233240142464638,
                        -0.009419512934982777,
                        -0.046464141458272934
                    ],
                    [
                        -0.24636337161064148,
                        0.07400299608707428,
                        0.4116751551628113,
                        0.042775049805641174,
                        0.11146412044763565,
                        0.11349403113126755,
                        0.16708523035049438,
                        0.14710955321788788,
                        0.287133127450943,
                        -0.28518998622894287,
                        -0.1444007158279419,
                        -0.048686668276786804,
                        0.26420366764068604,
                        -0.11273336410522461,
                        -0.16386766731739044,
                        -0.9903634190559387,
                        0.05462593585252762,
                        -0.4543037414550781,
                        0.09201930463314056,
                        -0.058567434549331665,
                        -0.027515510097146034,
                        0.36593636870384216,
                        -0.1373874396085739,
                        0.08288804441690445,
                        -0.10027042031288147,
                        0.13403631746768951,
                        -0.1370464414358139,
                        -0.008071600459516048,
                        0.16235952079296112,
                        -0.1261095106601715,
                        -0.11876925081014633,
                        -0.6754789352416992,
                        0.040192048996686935,
                        -0.21865633130073547,
                        0.28449663519859314,
                        -0.04146384820342064,
                        0.05631571263074875,
                        0.10712865740060806,
                        0.06190826743841171,
                        -0.16519148647785187,
                        -0.42195945978164673,
                        0.021896475926041603,
                        0.927544891834259,
                        -0.11590098589658737,
                        0.03447694331407547,
                        0.26270970702171326,
                        -0.29480254650115967,
                        0.15603651106357574,
                        0.20900963246822357,
                        -0.33961212635040283,
                        -0.22615039348602295,
                        -0.03836553543806076,
                        0.4089373052120209,
                        -0.03528017923235893,
                        -0.22713437676429749,
                        0.06099434196949005,
                        -0.006214962340891361,
                        -0.1255931258201599,
                        0.16852158308029175,
                        0.00027891460922546685,
                        0.42507269978523254,
                        0.2558891177177429,
                        0.2573936879634857,
                        0.0541929267346859,
                        -0.16508421301841736,
                        -0.22952573001384735,
                        -0.50373774766922,
                        -0.13411246240139008,
                        -0.11723433434963226,
                        -0.46007758378982544,
                        -0.10315509140491486,
                        -0.05133881792426109,
                        0.05392104387283325,
                        -0.21327321231365204,
                        0.36744585633277893,
                        0.04660535603761673,
                        0.11354577541351318,
                        0.004310438875108957,
                        0.06773388385772705,
                        -0.1909191757440567,
                        0.46271514892578125,
                        -0.2208607941865921,
                        0.3163544833660126,
                        -0.2684006690979004,
                        -0.2556633949279785,
                        0.146306574344635,
                        -0.16511766612529755,
                        -0.3582545220851898,
                        -0.12004930526018143,
                        0.16095726191997528,
                        0.13743123412132263,
                        -0.24071919918060303,
                        -0.6537479758262634,
                        0.3505033552646637,
                        0.07248067855834961,
                        -0.24519725143909454,
                        -0.20097002387046814,
                        0.18348342180252075,
                        0.29483380913734436,
                        -0.09061921387910843,
                        -0.14927032589912415,
                        -0.2633078396320343,
                        0.11304119229316711,
                        0.1561003476381302,
                        0.16615663468837738,
                        -0.16041424870491028,
                        0.15073546767234802,
                        0.037713825702667236,
                        -0.08190972357988358,
                        0.072829969227314,
                        -0.20719324052333832,
                        -0.41920793056488037,
                        -0.210403710603714,
                        0.21093963086605072,
                        -0.45559966564178467,
                        0.015560656785964966,
                        0.02159734070301056,
                        -0.06396251171827316,
                        -0.009561310522258282,
                        -0.10220609605312347,
                        0.1453847736120224,
                        0.04806995391845703,
                        0.7671711444854736,
                        -0.010617829859256744,
                        0.06610681861639023,
                        0.4725762903690338,
                        0.027603235095739365,
                        -0.005526299122720957,
                        0.03939543291926384,
                        -0.26641345024108887,
                        -0.5918431282043457,
                        -0.11669378727674484,
                        -0.816725492477417,
                        -0.12037306278944016,
                        -0.22296136617660522,
                        0.1095409169793129,
                        0.09139667451381683,
                        0.16189557313919067,
                        0.08216691762208939,
                        -0.01816735602915287,
                        0.3382759988307953,
                        0.25664111971855164,
                        -0.02992762252688408,
                        0.04726140946149826,
                        -0.30706286430358887,
                        -0.028382133692502975,
                        -0.24074740707874298,
                        0.001840638113208115,
                        0.2087617963552475,
                        -0.1414034217596054,
                        -0.13615964353084564,
                        -0.5964384078979492,
                        0.03733677789568901,
                        -0.23718509078025818,
                        0.20115496218204498,
                        -0.13769696652889252,
                        0.039882488548755646,
                        0.04441266134381294,
                        0.043977782130241394,
                        -0.24498996138572693
                    ],
                    [
                        -0.5765068531036377,
                        0.08169694244861603,
                        0.3235490918159485,
                        -0.025384152308106422,
                        -0.035820234566926956,
                        0.03605496138334274,
                        0.5288311243057251,
                        -0.02158527448773384,
                        0.01227373443543911,
                        0.05098884552717209,
                        0.550702691078186,
                        0.027209149673581123,
                        -0.20506514608860016,
                        -0.005546297412365675,
                        0.07117413729429245,
                        -0.8262953758239746,
                        -0.03132041543722153,
                        -0.2781977355480194,
                        0.025292133912444115,
                        -0.1964368224143982,
                        0.2753136456012726,
                        0.0692974179983139,
                        0.5163672566413879,
                        -0.038509685546159744,
                        -0.2501071095466614,
                        0.4735000431537628,
                        0.46251484751701355,
                        0.1584276556968689,
                        -0.1532813161611557,
                        0.31925368309020996,
                        0.09921417385339737,
                        -0.2674446702003479,
                        -0.018669521436095238,
                        0.0805218443274498,
                        0.13553114235401154,
                        -0.11521846801042557,
                        -0.059903159737586975,
                        0.07112974673509598,
                        0.003247451037168503,
                        -0.09763973951339722,
                        -0.1151931881904602,
                        0.16994698345661163,
                        0.5544864535331726,
                        -0.006149675231426954,
                        -0.012600313872098923,
                        0.10186048597097397,
                        0.15259267389774323,
                        -0.04964066669344902,
                        -0.10900148004293442,
                        0.031278591603040695,
                        0.19319576025009155,
                        0.04007228463888168,
                        -0.2628365755081177,
                        -0.02904815785586834,
                        0.009439732879400253,
                        -0.17882853746414185,
                        -0.11779824644327164,
                        -0.16781848669052124,
                        0.006775990128517151,
                        -0.10254769772291183,
                        -0.2122834026813507,
                        -0.0209166519343853,
                        0.3809787929058075,
                        -0.02226666361093521,
                        0.018087517470121384,
                        0.16567853093147278,
                        0.1174686849117279,
                        -0.040571484714746475,
                        -0.12341468036174774,
                        -0.006178280338644981,
                        0.1457272619009018,
                        -0.041195809841156006,
                        0.015619385056197643,
                        0.15125751495361328,
                        0.0841703861951828,
                        -0.07621562480926514,
                        -0.04289901256561279,
                        0.06814049184322357,
                        -0.032885145395994186,
                        -0.016563942655920982,
                        -0.006656026933342218,
                        -0.12714411318302155,
                        0.3433822989463806,
                        -0.10916674137115479,
                        -0.20832058787345886,
                        0.23841726779937744,
                        0.21640633046627045,
                        -0.17694023251533508,
                        -0.15751877427101135,
                        0.021528281271457672,
                        0.6625385880470276,
                        -0.17993544042110443,
                        -0.06793563812971115,
                        -0.014176467433571815,
                        -0.10614462196826935,
                        -0.10871381312608719,
                        -0.18141771852970123,
                        -0.057738568633794785,
                        0.18307030200958252,
                        -0.3367697596549988,
                        -0.5473269820213318,
                        -0.16686223447322845,
                        0.2721330225467682,
                        0.18459032475948334,
                        0.30777519941329956,
                        -0.2253192812204361,
                        -0.21329572796821594,
                        0.23904985189437866,
                        0.25894078612327576,
                        -0.2397017627954483,
                        -0.3178621530532837,
                        -0.060417406260967255,
                        -0.1645258218050003,
                        0.07311582565307617,
                        -0.22336339950561523,
                        -0.2249964028596878,
                        0.25088873505592346,
                        -0.17455250024795532,
                        -0.07188332080841064,
                        -0.3092298209667206,
                        0.06116722524166107,
                        0.16820842027664185,
                        0.5632439255714417,
                        0.10482946783304214,
                        -0.026778174564242363,
                        0.1262594610452652,
                        0.34232911467552185,
                        -0.17824891209602356,
                        -0.11080873757600784,
                        0.1141648069024086,
                        0.522362470626831,
                        0.0637863501906395,
                        -0.5178075432777405,
                        -0.008204824291169643,
                        -0.003039308823645115,
                        -0.040742699056863785,
                        -0.011261037550866604,
                        0.06611933559179306,
                        0.022793352603912354,
                        -0.04194870591163635,
                        -0.33032095432281494,
                        -0.14013738930225372,
                        0.4485229253768921,
                        -0.030132798478007317,
                        -0.41260766983032227,
                        0.3549657166004181,
                        0.2703588008880615,
                        0.2965906262397766,
                        -0.10714928805828094,
                        0.41457539796829224,
                        0.14419201016426086,
                        -0.19107083976268768,
                        0.025223977863788605,
                        0.09840300679206848,
                        -0.012906254269182682,
                        -0.1429463028907776,
                        0.009326383471488953,
                        0.09442003071308136,
                        0.01481599174439907,
                        -0.1514464169740677
                    ],
                    [
                        -0.003495523240417242,
                        -0.0604819692671299,
                        0.26085224747657776,
                        0.08319579809904099,
                        0.012432970106601715,
                        -0.13699787855148315,
                        -0.10219095647335052,
                        0.02987148053944111,
                        0.011442307382822037,
                        -0.028721986338496208,
                        -0.0004514580068644136,
                        0.012458092533051968,
                        0.10340066999197006,
                        0.025456389412283897,
                        -0.00873713567852974,
                        -0.2611199617385864,
                        0.0227205790579319,
                        0.054409537464380264,
                        0.005626303609460592,
                        -0.07576309889554977,
                        0.12776975333690643,
                        -0.020603230223059654,
                        -0.05318962410092354,
                        0.022195743396878242,
                        -0.029064996168017387,
                        -0.03838508948683739,
                        -0.07105721533298492,
                        0.011166894808411598,
                        0.06674188375473022,
                        -0.02313697524368763,
                        -0.04015923663973808,
                        -0.10301174968481064,
                        0.01492287591099739,
                        0.006420517805963755,
                        -0.018333325162529945,
                        -0.011024292558431625,
                        -0.06916271895170212,
                        -0.015960242599248886,
                        0.032050106674432755,
                        0.012751083821058273,
                        -0.1783444732427597,
                        -0.016804086044430733,
                        -0.36263933777809143,
                        0.11654360592365265,
                        0.02256598137319088,
                        -0.17990440130233765,
                        0.06352228671312332,
                        0.020927883684635162,
                        0.045210856944322586,
                        -0.054161202162504196,
                        -0.09586703777313232,
                        0.009436182677745819,
                        -0.482656866312027,
                        0.0077591086737811565,
                        0.009348941035568714,
                        0.13381405174732208,
                        0.04701678082346916,
                        0.1464000940322876,
                        0.017814725637435913,
                        -0.01426469162106514,
                        -0.2833729386329651,
                        -0.1151236891746521,
                        -0.2992214560508728,
                        0.033890798687934875,
                        0.011091265827417374,
                        -0.07732919603586197,
                        -0.04395359009504318,
                        0.08573674410581589,
                        0.08358465880155563,
                        -0.04764740169048309,
                        -0.019990794360637665,
                        -0.08489789068698883,
                        0.024780098348855972,
                        -0.0008371949079446495,
                        -0.10023689270019531,
                        -0.02419397607445717,
                        0.02585998736321926,
                        0.02698647789657116,
                        0.046819157898426056,
                        0.05476323142647743,
                        0.6234557628631592,
                        -0.07292497903108597,
                        0.5618769526481628,
                        0.14310899376869202,
                        0.02551134303212166,
                        -0.37869301438331604,
                        0.05407729372382164,
                        -0.23037876188755035,
                        0.003167537972331047,
                        0.05886754393577576,
                        -0.3539343774318695,
                        0.12007946521043777,
                        -0.04713893681764603,
                        0.15812309086322784,
                        0.25997599959373474,
                        -0.18971124291419983,
                        -0.010685394518077374,
                        -0.058632850646972656,
                        0.12681874632835388,
                        -0.13202765583992004,
                        -0.0724940225481987,
                        0.1159249097108841,
                        -0.2620719075202942,
                        -0.04230157658457756,
                        0.15373413264751434,
                        0.06918170303106308,
                        0.35543420910835266,
                        -0.11400467157363892,
                        -0.1181664913892746,
                        0.13322022557258606,
                        0.05897245183587074,
                        -0.14429771900177002,
                        0.036338772624731064,
                        -0.04622911289334297,
                        0.08247853070497513,
                        0.07387806475162506,
                        -0.006033444777131081,
                        0.03662886843085289,
                        -0.02455146424472332,
                        0.012094669044017792,
                        -0.06942564249038696,
                        0.013804640620946884,
                        0.029660513624548912,
                        0.14469805359840393,
                        0.02836797572672367,
                        -0.08645422011613846,
                        -0.1123277097940445,
                        0.1680651605129242,
                        0.0898597314953804,
                        -0.012627466581761837,
                        -0.13416285812854767,
                        0.06075944006443024,
                        -0.2356969565153122,
                        0.024050487205386162,
                        0.01836611144244671,
                        0.18155671656131744,
                        0.03021644428372383,
                        0.08177248388528824,
                        0.009385364130139351,
                        -0.009186473675072193,
                        -0.026481783017516136,
                        0.08024077862501144,
                        -0.15288522839546204,
                        0.04652641341090202,
                        -0.190940260887146,
                        -0.07256234437227249,
                        -0.08832267671823502,
                        0.027255980297923088,
                        0.07437990605831146,
                        -0.014510131441056728,
                        -0.015773097053170204,
                        -0.11227990686893463,
                        0.09995530545711517,
                        0.015834685415029526,
                        0.04789475351572037,
                        -0.025364691391587257,
                        -0.06269453465938568,
                        0.034928444772958755,
                        0.060078490525484085,
                        0.015206476673483849
                    ],
                    [
                        -0.2688136100769043,
                        0.010510350577533245,
                        0.013134331442415714,
                        0.19145746529102325,
                        -0.06354112178087234,
                        -0.29595881700515747,
                        0.08220566809177399,
                        -0.031636666506528854,
                        -0.0749368667602539,
                        0.059977758675813675,
                        0.07135775685310364,
                        0.08385058492422104,
                        -0.1609785109758377,
                        0.006425876636058092,
                        -0.1430383175611496,
                        -0.3645485043525696,
                        0.04554405063390732,
                        0.03167068585753441,
                        -0.06649058312177658,
                        -0.10674340277910233,
                        0.1116722822189331,
                        -0.017179271206259727,
                        0.150447815656662,
                        -5.704603245249018e-05,
                        -0.16955584287643433,
                        0.05361788719892502,
                        -0.01540362648665905,
                        -0.0935831144452095,
                        -0.09526591747999191,
                        0.06037946045398712,
                        0.11519522964954376,
                        -0.23981723189353943,
                        0.009012463502585888,
                        0.0014034518972039223,
                        0.008895778097212315,
                        -0.05950625613331795,
                        -0.15250056982040405,
                        0.025191202759742737,
                        0.014504597522318363,
                        -0.07101327925920486,
                        -0.10876794159412384,
                        0.03721759840846062,
                        -0.05402594804763794,
                        0.0613352432847023,
                        -0.008166028186678886,
                        -0.2527683973312378,
                        0.16202445328235626,
                        -0.05360208451747894,
                        0.07262779772281647,
                        0.028808554634451866,
                        0.10990318655967712,
                        0.05648885294795036,
                        -0.5238497853279114,
                        -0.010392540134489536,
                        -0.09941862523555756,
                        0.191330224275589,
                        0.04464886337518692,
                        0.10084496438503265,
                        -0.11424678564071655,
                        -0.008604242466390133,
                        -0.318162202835083,
                        -0.12471439689397812,
                        -0.007654582615941763,
                        -0.007903710007667542,
                        0.17590820789337158,
                        0.11521021276712418,
                        -0.016268644481897354,
                        -0.03425663337111473,
                        -0.006446867249906063,
                        0.07155587524175644,
                        0.03893614560365677,
                        -0.13700924813747406,
                        0.01745150238275528,
                        0.005165122449398041,
                        -0.07054395973682404,
                        -0.1398114413022995,
                        -0.17248493432998657,
                        0.002494227606803179,
                        -0.0005543742445297539,
                        -0.002636866644024849,
                        0.27204522490501404,
                        0.061202555894851685,
                        0.6825255751609802,
                        0.13951726257801056,
                        -0.1237136647105217,
                        -0.1931895762681961,
                        0.12061530351638794,
                        -0.02710070088505745,
                        -0.1398659646511078,
                        -0.17625786364078522,
                        0.18324218690395355,
                        0.13912267982959747,
                        0.015286014415323734,
                        -0.13374648988246918,
                        0.20965197682380676,
                        -0.5553086996078491,
                        0.01959146559238434,
                        -0.18576721847057343,
                        -0.10806118696928024,
                        -0.15280209481716156,
                        -0.1375524401664734,
                        0.11420758068561554,
                        -0.056156933307647705,
                        0.06829678267240524,
                        0.1589299589395523,
                        0.09924166649580002,
                        -0.01381908729672432,
                        -0.10559570044279099,
                        -0.10447383671998978,
                        -0.006551563274115324,
                        -0.0765334963798523,
                        -0.27992796897888184,
                        0.06406582146883011,
                        -0.024609878659248352,
                        0.10270262509584427,
                        0.1519387811422348,
                        -0.2312314361333847,
                        0.0722336545586586,
                        -0.096429243683815,
                        0.12436506897211075,
                        -0.32305240631103516,
                        0.05328346788883209,
                        0.28371113538742065,
                        0.24977383017539978,
                        -0.012005014345049858,
                        -0.10501838475465775,
                        0.04924440383911133,
                        0.10617730766534805,
                        -0.021950429305434227,
                        0.07889332622289658,
                        0.23391006886959076,
                        0.16399413347244263,
                        -0.42183440923690796,
                        0.011679788120090961,
                        -0.1501486599445343,
                        0.16762588918209076,
                        0.05578630417585373,
                        0.15281319618225098,
                        -0.07376031577587128,
                        -0.06945794820785522,
                        -0.3008628487586975,
                        0.07143794745206833,
                        0.03224826604127884,
                        0.03146892786026001,
                        -0.24456831812858582,
                        0.0906042754650116,
                        -0.02994517982006073,
                        -0.06153500825166702,
                        -0.09512779116630554,
                        0.07215943187475204,
                        0.14102618396282196,
                        -0.296391099691391,
                        0.15051621198654175,
                        0.006777511909604073,
                        0.08011163771152496,
                        -0.10409156233072281,
                        -0.20005780458450317,
                        0.05485639348626137,
                        0.042267609387636185,
                        -0.08543532341718674
                    ],
                    [
                        -0.04842201992869377,
                        -0.15511882305145264,
                        -0.10927604138851166,
                        -0.0667087659239769,
                        -0.023963376879692078,
                        -0.16786505281925201,
                        -0.1856597661972046,
                        -0.124209463596344,
                        -0.104275181889534,
                        -0.21428044140338898,
                        0.013841040432453156,
                        0.005116043612360954,
                        -0.1723281294107437,
                        -0.0871133953332901,
                        -0.06740843504667282,
                        0.3710343539714813,
                        -0.01072701159864664,
                        0.09077579528093338,
                        -0.1557677686214447,
                        -0.06431315094232559,
                        -0.04125043749809265,
                        -0.13466614484786987,
                        -0.08415541797876358,
                        -0.03418797627091408,
                        -0.13485407829284668,
                        -0.020312154665589333,
                        -0.15827403962612152,
                        -0.049208998680114746,
                        -0.15331661701202393,
                        -0.15300768613815308,
                        -0.19582504034042358,
                        -0.0999370738863945,
                        -0.037627212703228,
                        -0.1573849320411682,
                        -0.1461971402168274,
                        -0.09524958580732346,
                        0.09818907082080841,
                        -0.06484030187129974,
                        -0.060385141521692276,
                        -0.05706865340471268,
                        -0.24407948553562164,
                        -0.13515006005764008,
                        -0.2251141220331192,
                        -0.0344184935092926,
                        -0.00963510200381279,
                        -0.10094335675239563,
                        -0.16922283172607422,
                        -0.06989035755395889,
                        -0.11106690764427185,
                        -0.2957627475261688,
                        0.04251581430435181,
                        0.0083343256264925,
                        0.2620883882045746,
                        -0.036525506526231766,
                        -0.05924590677022934,
                        0.14060263335704803,
                        0.004284108057618141,
                        -0.008899327367544174,
                        -0.14552000164985657,
                        -0.05667794123291969,
                        0.07593055814504623,
                        -0.12217500805854797,
                        -0.1701706349849701,
                        -0.0076798140071332455,
                        -0.0517592653632164,
                        -0.173042431473732,
                        -0.1036747619509697,
                        -0.09271286427974701,
                        -0.07675390690565109,
                        -0.28551575541496277,
                        -0.25661954283714294,
                        -0.00991327315568924,
                        -0.027022337540984154,
                        -0.23883500695228577,
                        -0.10113545507192612,
                        -0.046596281230449677,
                        0.0018146989168599248,
                        -0.039839062839746475,
                        -0.01880064606666565,
                        -0.063238725066185,
                        -0.2956460118293762,
                        0.02554989978671074,
                        -0.041722122579813004,
                        0.09083209186792374,
                        0.1259773224592209,
                        0.1354660987854004,
                        -0.12991374731063843,
                        0.150797039270401,
                        0.24840381741523743,
                        -0.07101508229970932,
                        -0.21393944323062897,
                        0.1327098160982132,
                        0.3328648805618286,
                        0.011489858850836754,
                        0.07273180037736893,
                        0.17701008915901184,
                        0.22059205174446106,
                        -0.02857191674411297,
                        -0.17872533202171326,
                        0.030111830681562424,
                        0.0017734866123646498,
                        0.12203733623027802,
                        -0.16531018912792206,
                        -0.035888828337192535,
                        -0.14398746192455292,
                        -0.05171835422515869,
                        0.28698238730430603,
                        -0.17599152028560638,
                        -0.12890620529651642,
                        0.12382945418357849,
                        0.20229949057102203,
                        0.21541212499141693,
                        0.18663878738880157,
                        -0.1619921773672104,
                        0.22297245264053345,
                        0.09546884894371033,
                        -0.16455325484275818,
                        0.029330940917134285,
                        0.01727699115872383,
                        0.259732186794281,
                        -0.22060555219650269,
                        -0.18525266647338867,
                        -0.23200218379497528,
                        -0.10161364823579788,
                        -0.022868145257234573,
                        -0.10820218175649643,
                        -0.14951485395431519,
                        -0.12846556305885315,
                        -0.12716661393642426,
                        -0.29569271206855774,
                        -0.06520194560289383,
                        -0.0019178794464096427,
                        -0.09946374595165253,
                        -0.08728957176208496,
                        -0.07870127260684967,
                        -0.029745152220129967,
                        -0.009890344925224781,
                        -0.07115129381418228,
                        -0.16245493292808533,
                        -0.1133304238319397,
                        -0.0058095757849514484,
                        -0.1688234955072403,
                        -0.13923148810863495,
                        -0.04183962196111679,
                        -0.15528498589992523,
                        -0.06707502156496048,
                        -0.12841427326202393,
                        -0.04921850562095642,
                        -0.1487370878458023,
                        -0.23030225932598114,
                        -0.2358952760696411,
                        -0.04826342314481735,
                        -0.05794661492109299,
                        -0.16501767933368683,
                        -0.16916005313396454,
                        -0.09704156965017319,
                        0.09420011192560196,
                        -0.06518208235502243,
                        -0.06458774209022522,
                        -0.04646668955683708
                    ],
                    [
                        0.00827930960804224,
                        0.23734420537948608,
                        0.9797071814537048,
                        0.14861033856868744,
                        -0.06874001026153564,
                        0.39999502897262573,
                        0.7834751009941101,
                        0.13706175982952118,
                        0.1588277369737625,
                        0.061018336564302444,
                        0.5062581300735474,
                        -0.17851094901561737,
                        -1.450722575187683,
                        -0.08401799201965332,
                        0.22462542355060577,
                        -0.3594002425670624,
                        0.018882881850004196,
                        0.7534309029579163,
                        0.11435426771640778,
                        0.25814953446388245,
                        -0.1794227510690689,
                        -0.12599892914295197,
                        0.26860153675079346,
                        -0.04727386683225632,
                        -0.1646798551082611,
                        0.7871379852294922,
                        0.4797009229660034,
                        0.34195676445961,
                        -0.07846315950155258,
                        0.489961713552475,
                        0.3642868101596832,
                        0.22996853291988373,
                        0.03432570397853851,
                        0.24597777426242828,
                        0.010804093442857265,
                        0.025383280590176582,
                        0.6238822937011719,
                        -0.07607217133045197,
                        0.05657006427645683,
                        0.42002198100090027,
                        0.3389376699924469,
                        0.1943233460187912,
                        0.4732462167739868,
                        -0.04509890452027321,
                        -0.04834376275539398,
                        0.51042240858078,
                        0.3909790515899658,
                        0.1270129233598709,
                        -0.036705005913972855,
                        0.12561404705047607,
                        0.6010685563087463,
                        -0.07420385628938675,
                        -0.7391105890274048,
                        -0.04173331335186958,
                        0.21077190339565277,
                        -0.053221289068460464,
                        -0.08054810017347336,
                        0.7051763534545898,
                        -0.027860797941684723,
                        0.1799153834581375,
                        -0.06922151148319244,
                        -0.24230924248695374,
                        0.45182666182518005,
                        -0.08443804085254669,
                        -0.3789125978946686,
                        0.8716796040534973,
                        0.39302361011505127,
                        -0.07718030363321304,
                        -0.31965553760528564,
                        0.36337581276893616,
                        0.2880590260028839,
                        -0.1016363799571991,
                        -0.009981765411794186,
                        0.3360411822795868,
                        0.20486657321453094,
                        -0.1891210526227951,
                        0.06485284119844437,
                        -0.19023311138153076,
                        -0.08871619403362274,
                        0.27427777647972107,
                        -0.15316781401634216,
                        0.6262112855911255,
                        0.1862604022026062,
                        0.279057115316391,
                        0.016393575817346573,
                        0.584648847579956,
                        0.4624873101711273,
                        -0.18609072268009186,
                        0.37823954224586487,
                        -0.15774595737457275,
                        0.555691659450531,
                        -0.10237020999193192,
                        -0.41892147064208984,
                        -0.10810158401727676,
                        -0.4103250801563263,
                        -0.40633511543273926,
                        0.12052204459905624,
                        -0.04371478781104088,
                        0.4259769320487976,
                        0.533160924911499,
                        0.1971459537744522,
                        0.06996060907840729,
                        0.6531073451042175,
                        -0.09995866566896439,
                        0.2776654362678528,
                        0.7731870412826538,
                        -0.6082634329795837,
                        0.555420458316803,
                        0.49854281544685364,
                        -0.519119143486023,
                        0.17635886371135712,
                        -0.6618457436561584,
                        0.30386096239089966,
                        0.1326867938041687,
                        -0.03583688288927078,
                        -0.09622083604335785,
                        0.6689818501472473,
                        0.0896235853433609,
                        0.3307248651981354,
                        -0.7214590907096863,
                        0.43852490186691284,
                        0.04343756288290024,
                        0.5746982097625732,
                        0.04490409418940544,
                        -0.05921892076730728,
                        0.5752250552177429,
                        0.5172036290168762,
                        0.1566287726163864,
                        0.10866185277700424,
                        0.09606778621673584,
                        0.49914219975471497,
                        -0.1953309327363968,
                        -0.3048672676086426,
                        -0.08551521599292755,
                        0.16615228354930878,
                        0.002317109378054738,
                        0.05584099516272545,
                        0.8427233099937439,
                        0.11421749740839005,
                        0.11329320818185806,
                        -0.29484879970550537,
                        -0.19899918138980865,
                        0.47966495156288147,
                        -0.04839669540524483,
                        0.10363627225160599,
                        0.877456784248352,
                        0.40603676438331604,
                        0.4459352493286133,
                        -0.1529771089553833,
                        0.5664588809013367,
                        0.3643140494823456,
                        0.3037554919719696,
                        -0.07126938551664352,
                        0.2544158697128296,
                        -0.01873249188065529,
                        0.09586159139871597,
                        0.6372766494750977,
                        -0.14043575525283813,
                        0.020037680864334106,
                        0.4378708302974701
                    ],
                    [
                        0.033204611390829086,
                        -0.01749577559530735,
                        -0.22506661713123322,
                        0.094257652759552,
                        -0.01469977106899023,
                        -0.020999984815716743,
                        -0.07525338977575302,
                        0.0034138422925025225,
                        0.03294314444065094,
                        -0.03620857372879982,
                        -0.10519887506961823,
                        0.005037476308643818,
                        -0.016938289627432823,
                        -0.015298517420887947,
                        -0.0031678006052970886,
                        -0.015696411952376366,
                        0.018443968147039413,
                        0.03951004147529602,
                        -0.009910313412547112,
                        -0.047977056354284286,
                        0.13373857736587524,
                        0.01397571712732315,
                        -0.05114932730793953,
                        -0.0058519006706774235,
                        0.01190895400941372,
                        -0.036181673407554626,
                        -0.03850451856851578,
                        -0.0068289125338196754,
                        -0.018808787688612938,
                        -0.04731801897287369,
                        -0.016286203637719154,
                        -0.040764227509498596,
                        -0.007584691513329744,
                        1.2102264008717611e-06,
                        0.01629968173801899,
                        -0.02923639304935932,
                        -0.011630864813923836,
                        -0.007298807613551617,
                        0.01299699954688549,
                        0.020006772130727768,
                        0.04771316051483154,
                        0.020881840959191322,
                        -0.26373782753944397,
                        0.09699184447526932,
                        -0.007447598502039909,
                        -0.03376004099845886,
                        0.08192835003137589,
                        0.0011814634781330824,
                        0.0518251396715641,
                        -0.05307520553469658,
                        -0.14589986205101013,
                        -0.007431225385516882,
                        -0.3446667492389679,
                        -0.021834321320056915,
                        0.03398498147726059,
                        0.08697495609521866,
                        0.014224626123905182,
                        0.14685320854187012,
                        -0.006238910369575024,
                        0.00038622276042588055,
                        -0.13399304449558258,
                        0.011724221520125866,
                        -0.1440613865852356,
                        -0.0009077781578525901,
                        0.039907366037368774,
                        -0.05997978150844574,
                        0.07133235037326813,
                        0.02008565329015255,
                        -0.002690049819648266,
                        -0.07009202986955643,
                        -0.012466714717447758,
                        -0.104285828769207,
                        0.0072342222556471825,
                        -0.006228057201951742,
                        -0.013492979109287262,
                        -0.037789762020111084,
                        0.04207618162035942,
                        0.003958459477871656,
                        0.0159902423620224,
                        0.06623794138431549,
                        0.10359523445367813,
                        0.007370260544121265,
                        0.35595306754112244,
                        0.13446694612503052,
                        -0.03870079666376114,
                        -0.10790383815765381,
                        0.01237553171813488,
                        0.00835272204130888,
                        0.11292103677988052,
                        0.02452244982123375,
                        -0.23839175701141357,
                        0.02583179622888565,
                        -0.15969526767730713,
                        0.03968443349003792,
                        0.0037311878986656666,
                        -0.4235769510269165,
                        -0.0033260209020227194,
                        -0.32733747363090515,
                        -0.07003792375326157,
                        -0.015214581042528152,
                        0.17504341900348663,
                        -0.017933348193764687,
                        -0.1619769185781479,
                        -0.02435300499200821,
                        -0.03779706731438637,
                        0.09415373206138611,
                        0.062378235161304474,
                        0.06981637328863144,
                        0.09700310230255127,
                        0.09989877045154572,
                        0.10589008033275604,
                        -0.08930623531341553,
                        -0.11244568228721619,
                        0.01688661240041256,
                        0.10437434166669846,
                        0.0028399957809597254,
                        -0.24728581309318542,
                        -0.041246648877859116,
                        -0.04961339011788368,
                        0.17108117043972015,
                        -0.2585132122039795,
                        0.03727253898978233,
                        -0.04731378331780434,
                        0.12238270789384842,
                        -0.0169743150472641,
                        -0.02410365827381611,
                        -0.09913677722215652,
                        0.010125252418220043,
                        0.0706438198685646,
                        -0.035357244312763214,
                        -0.23666466772556305,
                        0.036934271454811096,
                        -0.02040836587548256,
                        -0.013857821933925152,
                        0.007817565463483334,
                        0.2846442759037018,
                        0.019499601796269417,
                        0.08717907220125198,
                        -0.009225200861692429,
                        -0.04750027880072594,
                        -0.030170734971761703,
                        0.03831172734498978,
                        -0.13914617896080017,
                        -0.0005725746741518378,
                        -0.06916933506727219,
                        -0.040055423974990845,
                        -0.012260778807103634,
                        -0.00685594929382205,
                        -0.037181589752435684,
                        -0.05947868525981903,
                        -0.004518293775618076,
                        -0.1157388985157013,
                        0.05331357195973396,
                        0.005167314782738686,
                        0.02257741242647171,
                        -0.047951579093933105,
                        -0.014777026139199734,
                        0.015141105279326439,
                        0.025496171787381172,
                        0.017912322655320168
                    ],
                    [
                        -0.15534788370132446,
                        -0.019972635433077812,
                        -0.3751974403858185,
                        0.13286234438419342,
                        -0.17506811022758484,
                        -0.27369093894958496,
                        -0.2471846640110016,
                        -0.2973845303058624,
                        -0.4616454541683197,
                        0.08292607963085175,
                        -0.05852297693490982,
                        -0.022971075028181076,
                        -0.6909033060073853,
                        0.16573484241962433,
                        -0.1948174387216568,
                        0.5789718627929688,
                        -0.19947902858257294,
                        0.27032312750816345,
                        -0.12618763744831085,
                        -0.0005621659220196307,
                        0.21208833158016205,
                        -0.588416337966919,
                        0.2120179682970047,
                        -0.04554859548807144,
                        -0.20174694061279297,
                        -0.244094580411911,
                        0.13784684240818024,
                        -0.031890418380498886,
                        -0.3242308497428894,
                        -0.01869911514222622,
                        -0.042484138160943985,
                        0.37768733501434326,
                        -0.03433787077665329,
                        0.156839057803154,
                        -0.3390709459781647,
                        -0.2057965099811554,
                        -0.12366685271263123,
                        -0.1768614649772644,
                        0.0020736686419695616,
                        0.16592060029506683,
                        0.7994033098220825,
                        0.054583482444286346,
                        -0.912792444229126,
                        0.09002501517534256,
                        -0.11739940196275711,
                        -0.6079112887382507,
                        -0.035880204290151596,
                        -0.19485637545585632,
                        -0.1366012990474701,
                        0.0938057079911232,
                        0.12462537735700607,
                        -0.052177246659994125,
                        -0.5673279166221619,
                        0.08595865219831467,
                        -0.10981547832489014,
                        -0.03274131566286087,
                        -0.09151583909988403,
                        -0.08592996001243591,
                        -0.1497599482536316,
                        -0.013229100964963436,
                        -0.43973860144615173,
                        -0.29289713501930237,
                        -0.23813797533512115,
                        -0.0212375707924366,
                        -0.10529015213251114,
                        -0.03293305262923241,
                        0.15810729563236237,
                        0.05679458752274513,
                        -0.1580907553434372,
                        0.08276734501123428,
                        -0.038738373667001724,
                        -0.17519822716712952,
                        -0.05519634112715721,
                        0.0520000234246254,
                        -0.3933270275592804,
                        -0.20549176633358002,
                        -0.2045472413301468,
                        -0.10163547098636627,
                        0.012236656621098518,
                        0.08018076419830322,
                        0.004495800007134676,
                        0.23859383165836334,
                        -0.16900880634784698,
                        0.3048401474952698,
                        0.1975822001695633,
                        -0.5064936280250549,
                        0.2920083701610565,
                        0.2502167522907257,
                        0.19310863316059113,
                        -0.15787279605865479,
                        -0.22367015480995178,
                        0.12936143577098846,
                        0.9153674840927124,
                        -0.18176457285881042,
                        0.3261794149875641,
                        0.508919358253479,
                        0.07938838750123978,
