{"model_data": {"model": "SimpleRNN", "input_size": 1, "skip": "0", "output_size": 1, "unit_type": "LSTM", "num_layers": 1, "hidden_size": 20, "bias_fl": true}, "state_dict": {"rec.weight_ih_l0": [[0.1009020060300827], [-0.12559904158115387], [0.10816250741481781], [0.3922056257724762], [0.2587863504886627], [0.4707546830177307], [0.38619980216026306], [0.31821972131729126], [-0.30232885479927063], [-0.7831303477287292], [-0.3432176113128662], [0.5006501078605652], [0.20636191964149475], [-0.5768625736236572], [0.04383670911192894], [0.3702748417854309], [-0.14055441319942474], [0.35545507073402405], [0.18140347301959991], [-0.6047382950782776], [1.1258734464645386], [-0.6730713844299316], [-0.08463893085718155], [-0.6772915124893188], [0.6255459189414978], [1.6593480110168457], [0.03829478099942207], [0.18907220661640167], [0.5560899972915649], [-0.8212721347808838], [-0.11067605018615723], [1.0472438335418701], [0.840290367603302], [-0.45455411076545715], [-0.09356590360403061], [0.5163335204124451], [0.10184845328330994], [0.28710249066352844], [2.06160044670105], [-0.1334082931280136], [0.7510433793067932], [-0.2618883550167084], [-0.22013646364212036], [-0.5984990000724792], [0.12273146212100983], [0.6958768367767334], [0.24336819350719452], [-0.18411149084568024], [0.6198108196258545], [-0.32996273040771484], [0.2958347797393799], [-0.7073381543159485], [-0.7547153830528259], [-0.23247788846492767], [-0.02711496315896511], [-0.01949717290699482], [-0.01176191121339798], [-0.0627749040722847], [-1.4963722229003906], [0.5446513295173645], [0.019575366750359535], [-0.46684420108795166], [-0.18058057129383087], [-0.18132881820201874], [0.24818028509616852], [0.3529109060764313], [-0.20055894553661346], [0.6145016551017761], [-0.053819574415683746], [-0.5058987140655518], [0.044423818588256836], [0.8696263432502747], [0.34629085659980774], [-0.4312936067581177], [-0.0808556005358696], [0.26238369941711426], [-0.5060308575630188], [0.47891002893447876], [-0.8554525971412659], [-0.6900115013122559]], "rec.weight_hh_l0": [[0.0010535733308643103, 0.04942627623677254, -0.34224674105644226, -0.3005024790763855, 0.5971423983573914, -0.40520378947257996, 0.6750900149345398, 0.656396210193634, -1.3039920330047607, -0.33549684286117554, -0.28104308247566223, -0.18966233730316162, 0.8068685531616211, 0.014083030633628368, -0.45782947540283203, -0.8135014176368713, 0.1287856549024582, 0.2281617522239685, 0.8368997573852539, -0.6967340707778931], [0.09004677832126617, 0.21659286320209503, 0.012938257306814194, 0.4845549762248993, 0.16291940212249756, 0.18948312103748322, 0.23472340404987335, 0.06861068308353424, 0.23908694088459015, 0.0463356114923954, -0.23086120188236237, -0.05853847786784172, -0.4228195250034332, 0.010823179967701435, -0.08656182140111923, 0.12009388208389282, -0.12624232470989227, -0.13482238352298737, -0.1743583381175995, -0.0047193304635584354], [0.43007993698120117, 0.08865484595298767, 0.44507166743278503, 0.057917192578315735, 0.5226974487304688, 0.27826595306396484, 0.19429674744606018, 0.1280421018600464, 0.05952496454119682, -0.038143523037433624, 0.03994731232523918, -0.3012838661670685, -0.1921878606081009, -0.05938588082790375, -0.16589176654815674, 0.20581457018852234, -0.25104278326034546, 0.054659098386764526, -0.17611908912658691, 0.07017092406749725], [0.3252772092819214, 0.16234742105007172, 0.7115628123283386, 0.4590567648410797, -0.057424332946538925, 0.28272488713264465, 0.34002792835235596, 0.08764129877090454, 0.036487940698862076, -0.4894316792488098, 0.23344221711158752, -0.2833057940006256, 0.018403397873044014, 0.18773789703845978, 0.016420559957623482, 0.19784033298492432, -0.1490197777748108, -0.21795283257961273, -0.22916920483112335, -0.10669649392366409], [-0.4332384765148163, 0.35293886065483093, -0.11708902567625046, 0.06718460470438004, -0.0609339214861393, -0.225813627243042, 0.06060599163174629, 0.17534059286117554, -0.23447468876838684, -0.3816709816455841, -0.3556736707687378, 0.2551437318325043, 0.19887422025203705, 0.22964709997177124, -0.24832817912101746, -0.0006278737564571202, -0.4384263753890991, 0.2161436229944229, 0.14050181210041046, -0.2106080800294876], [0.5856269598007202, -0.060189388692379, -0.23815402388572693, -0.0877985954284668, 0.5614059567451477, 0.454269140958786, -0.533457338809967, 0.25343087315559387, 0.3235377371311188, 0.23517672717571259, 0.028881054371595383, -0.5780231356620789, -0.49195021390914917, -0.12515699863433838, -0.03917558118700981, 0.33363455533981323, 0.043347228318452835, -0.016047069802880287, -0.6499574780464172, 0.5365906357765198], [0.4294126629829407, 0.015972774475812912, 0.23869770765304565, -0.34308964014053345, -0.44166502356529236, 0.04449077695608139, -0.08072681725025177, -0.03976144269108772, -0.010404719039797783, 0.1906771957874298, 0.12116669118404388, 0.0534106008708477, -0.19109760224819183, 0.09110583364963531, 0.058436863124370575, 0.29353129863739014, -0.21953611075878143, 0.21691317856311798, -0.06159159168601036, -0.10198022425174713], [-0.13799600303173065, -0.10077717900276184, 0.0845099687576294, -0.013683528639376163, -0.344954252243042, -0.18471981585025787, 0.06174280866980553, 0.007618898991495371, -0.1506105363368988, -0.019860176369547844, 0.013062279671430588, -0.02810600772500038, -0.13184954226016998, 0.001573942950926721, -0.05138847231864929, 0.23692533373832703, -0.11478833109140396, 0.1584492027759552, 0.08287275582551956, -0.08880582451820374], [0.2707410156726837, -0.06790561974048615, 0.352813184261322, -0.5060020089149475, 0.5067509412765503, 0.7400505542755127, -0.45492658019065857, -0.10514615476131439, 0.49680405855178833, 0.19159728288650513, 0.30282244086265564, -0.6896982789039612, -0.6097013354301453, -0.1578693836927414, -0.23129113018512726, 0.39113304018974304, -0.10473238676786423, -0.2905494272708893, -0.9343018531799316, 0.469014972448349], [-0.30463293194770813, -0.1970699578523636, 0.07878120988607407, -0.28155770897865295, -0.3686206638813019, 0.14701436460018158, -0.0764676034450531, -0.2650212347507477, -0.08639365434646606, 0.21248361468315125, -0.06697776913642883, 0.19879932701587677, 0.022936679422855377, 0.00157839129678905, -0.012224450707435608, -0.151323601603508, 0.2059817612171173, -0.017667299136519432, 0.10170245915651321, -0.16021566092967987], [-0.2047605961561203, 0.12654072046279907, 0.2962189316749573, 0.06528715044260025, -0.020009402185678482, 0.0007839897298254073, 0.2383040487766266, -0.08978176862001419, -0.3097189664840698, -0.019316649064421654, 0.09029961377382278, 0.10452061891555786, 0.23551708459854126, 0.020286496728658676, 0.04219580441713333, 0.04686111956834793, -0.1378513127565384, 0.018088439479470253, 0.2242911010980606, -0.08833396434783936], [0.2639769911766052, -0.03036949783563614, 0.49201709032058716, 0.17870840430259705, -0.07904941588640213, 0.0764184445142746, -0.20425164699554443, 0.00030539371073246, 0.023731842637062073, 0.45844724774360657, 0.23876087367534637, -0.23019051551818848, -0.25301289558410645, -0.10580727458000183, -0.020489444956183434, 0.4148721396923065, -0.12553735077381134, 0.010977591387927532, -0.283448189496994, 0.12847797572612762], [0.35451632738113403, -0.1983308643102646, -0.34169986844062805, 0.051163118332624435, 0.9678298830986023, 0.9639771580696106, 0.0807318240404129, 0.3368898332118988, 1.006873607635498, -0.06535288691520691, -0.054169103503227234, -0.5529022216796875, -0.6971326470375061, -0.27710938453674316, -0.2758689522743225, 0.044309865683317184, 0.511532187461853, -0.13940595090389252, -0.5517792701721191, 0.6993001103401184], [0.07230174541473389, -0.0724310353398323, 0.11970110237598419, 0.06926464289426804, -0.05892159789800644, 0.014366037212312222, -0.14882157742977142, -0.1237899512052536, -0.033999375998973846, 0.3755606710910797, 0.023106416687369347, -0.054284632205963135, -0.01849362440407276, 0.119511678814888, 0.08338285982608795, 0.02425064519047737, -0.024999333545565605, -0.09186955541372299, 0.11264416575431824, -0.24827654659748077], [-0.4104247987270355, -0.04257047176361084, 0.20647378265857697, -0.024004757404327393, -0.09154969453811646, -0.07703140377998352, -0.01615612953901291, -0.03155013546347618, 0.06243164837360382, -0.13914120197296143, 0.00028834023396484554, 0.03307197615504265, -0.007654769346117973, -0.0066611492075026035, -0.14295491576194763, -0.08891698718070984, -0.02002696506679058, -0.09352417290210724, 0.2056068331003189, 0.014416462741792202], [0.5029652714729309, -0.3652920424938202, -0.281899094581604, -0.09186796098947525, -0.11022158712148666, 0.0024702490773051977, 0.14650243520736694, -0.07844271510839462, 0.1505952775478363, 0.053549934178590775, 0.156615749001503, -0.08638761192560196, -0.25657919049263, -0.028865644708275795, 0.17296245694160461, 0.1333221048116684, 0.20416758954524994, 0.24882347881793976, -0.20666076242923737, -0.07650047540664673], [0.16264541447162628, -0.06904533505439758, 0.21154457330703735, -0.01711614988744259, -0.012663773261010647, 0.45404526591300964, 0.06629019975662231, -0.16132447123527527, 0.11649564653635025, 0.15168148279190063, 0.10833389312028885, -0.10357962548732758, -0.350307434797287, 0.0014755150768905878, 0.009253595024347305, 0.2521243393421173, -0.07512607425451279, -0.04905404895544052, -0.257790744304657, 0.013029756024479866], [-0.21080221235752106, -0.1337329000234604, 0.32993966341018677, -0.3316194415092468, -0.22319824993610382, -0.2879866063594818, 0.20944297313690186, 0.14744016528129578, 0.20446757972240448, -0.07423809915781021, 0.11294469982385635, 0.04555889964103699, -0.0693805143237114, -0.0018998412415385246, -0.059960588812828064, 0.024366483092308044, 0.010515572503209114, 0.07787711173295975, 0.17238876223564148, 0.28197145462036133], [0.8544248342514038, 0.6009185910224915, -0.6995207071304321, -0.1407761126756668, 0.6559718251228333, 0.9698006510734558, -0.7265322208404541, 0.4454250931739807, 0.18244503438472748, 0.006801488343626261, -0.34772345423698425, -0.5275485515594482, -0.7062680125236511, 0.07985931634902954, -0.18844270706176758, 0.5851097702980042, -0.6094093918800354, 0.03387691453099251, -0.8510045409202576, 0.2504357099533081], [0.05129791423678398, 0.20288652181625366, 0.6371167302131653, 0.1740492880344391, 0.222207710146904, 0.17753714323043823, 0.24036379158496857, 0.3209487199783325, 0.5130239129066467, -0.33061593770980835, -0.1396554857492447, 0.0739300474524498, -0.6073669195175171, 0.20367592573165894, -0.16183002293109894, 0.17710989713668823, -0.27386999130249023, -0.19498008489608765, -0.036256950348615646, -0.0619305819272995], [0.050022758543491364, -0.254173219203949, -0.023294812068343163, 0.09915239363908768, 0.39032500982284546, 0.4347268342971802, 0.13341303169727325, 0.2313784807920456, 0.891523540019989, -0.2599382996559143, 0.14683611690998077, -0.4091188907623291, -0.5943465232849121, -0.15565860271453857, -0.28218957781791687, 0.1551191359758377, 0.33424124121665955, -0.06486719846725464, -0.450548380613327, 0.8680496215820312], [0.1487749069929123, 0.3741985559463501, 0.13172481954097748, 0.6517484188079834, 0.4373127222061157, 0.2122364342212677, -0.23089991509914398, 0.0647260844707489, 0.02359926700592041, 0.12430606782436371, -0.04527105391025543, -0.03535378351807594, -0.1800602525472641, 0.22753216326236725, -0.07621800154447556, 0.3986530303955078, -0.4070642590522766, -0.27750101685523987, 0.034762028604745865, -0.09129109978675842], [-0.022823315113782883, -0.22040493786334991, 0.060382913798093796, -0.026104215532541275, -0.1152699813246727, 0.2436644583940506, -0.2330353707075119, -0.17126095294952393, 0.3998701572418213, 0.14527609944343567, 0.20104847848415375, 0.0034476895816624165, -0.46918198466300964, -0.14878906309604645, -0.15682771801948547, 0.04946817457675934, 0.016345053911209106, -0.09456247836351395, -0.2481400966644287, 0.5584917068481445], [-0.022746726870536804, 0.16084162890911102, -0.0031540540512651205, 0.20453661680221558, -0.041443031281232834, 0.23209071159362793, -0.0843382477760315, 0.133476123213768, -0.24266470968723297, 0.07487441599369049, -0.2691057622432709, 0.1737024337053299, -0.12040361762046814, 0.2616403102874756, -0.19676867127418518, 0.22589878737926483, -0.4068731963634491, 0.13793496787548065, -0.11914435029029846, -0.18769681453704834], [-0.06860143691301346, -0.277349054813385, -0.23814544081687927, -0.3935563564300537, 0.10511802136898041, -0.23844994604587555, 0.22826097905635834, 0.17245593667030334, 0.17492254078388214, -0.4999803602695465, 0.0028867979999631643, -0.2895021140575409, 0.15575608611106873, -0.06704293191432953, -0.19200438261032104, -0.03383487090468407, 0.07204914093017578, 0.2113899439573288, 0.0027322445530444384, 0.13729211688041687], [0.5036064386367798, -0.24426035583019257, -0.337694376707077, -0.3892870843410492, 0.2825646698474884, 0.12104298919439316, 0.011394414119422436, 0.2393234670162201, 0.3362498879432678, 0.19587069749832153, 0.1079704537987709, -0.5854746699333191, -0.28830674290657043, -0.268093466758728, 0.038688138127326965, 0.24538922309875488, 0.21509067714214325, 0.2579723298549652, -0.5405644178390503, 0.5290843844413757], [0.5831512808799744, 0.2793842852115631, 0.16181327402591705, -0.24902473390102386, -0.12010990083217621, 0.01131714042276144, -0.39148858189582825, -0.09178628027439117, -0.13341593742370605, 0.19388727843761444, 0.03993135318160057, -0.244500994682312, -0.0002559559070505202, 0.28890445828437805, -0.04984402284026146, 0.5712317228317261, -0.42819347977638245, 0.08519826084375381, 0.022466590628027916, 0.003119742963463068], [0.1128680482506752, 0.032370444387197495, -0.024108413606882095, 0.011559933423995972, -0.222102552652359, -0.22178064286708832, -0.04825058951973915, -0.10301030427217484, -0.02073383517563343, -0.03997218236327171, -0.04498829320073128, -0.0504397451877594, -0.09359365701675415, -0.10038771480321884, 0.06375042349100113, 0.18774552643299103, -0.13360990583896637, 0.051219139248132706, 0.08083721995353699, -0.22672778367996216], [-0.024489320814609528, 0.20772753655910492, 0.27608540654182434, -0.18033866584300995, 0.18085837364196777, 0.3544337749481201, -0.3918581008911133, -0.08725112676620483, 0.0747423991560936, 0.012777818366885185, 0.09593547135591507, -0.39253318309783936, -0.21820862591266632, 0.11058570444583893, -0.06806696951389313, 0.060373932123184204, 0.07406226545572281, -0.274506539106369, -0.2445259392261505, 0.30815210938453674], [-0.32888010144233704, 0.0927942618727684, -0.240751251578331, 0.3283754885196686, 0.0006642190855927765, 0.12696270644664764, 0.03946013003587723, 0.11392953246831894, -0.13200977444648743, 0.312247633934021, -0.27180954813957214, 0.297164648771286, 0.14600135385990143, 0.24643900990486145, -0.15729252994060516, -0.255141943693161, 0.21635288000106812, 0.07214944809675217, 0.2388610541820526, -0.4666425287723541], [-0.2633325159549713, 0.04916968196630478, 0.18862290680408478, 0.01850273832678795, 0.007528563030064106, 0.10187502950429916, -0.04876942187547684, 0.053273990750312805, -0.05124145373702049, -0.08758261054754257, -0.009515301324427128, 0.08814641833305359, 0.08100372552871704, -0.2073376327753067, 0.08331882208585739, 0.02779945731163025, 0.013770123943686485, -0.06032700464129448, 0.09066399931907654, 0.05913599580526352], [-0.16801543533802032, -0.21378298103809357, -0.11202435940504074, 0.18117688596248627, -0.4944183826446533, -0.11307808011770248, -0.21339669823646545, -0.13064120709896088, -0.19602224230766296, 0.19149838387966156, 0.11036112159490585, 0.030722737312316895, 0.07363735139369965, -0.12928664684295654, 0.09020311385393143, 0.06750963628292084, 0.15764375030994415, 0.22147275507450104, 0.04126317799091339, -0.003262612037360668], [0.11665727198123932, 0.026916980743408203, -0.16709451377391815, -0.40655985474586487, 0.19823259115219116, 0.16893287003040314, 0.24903307855129242, 0.11934062838554382, 0.4036397933959961, -0.14810071885585785, 0.3213461935520172, -0.29719477891921997, -0.34102413058280945, -0.3208411931991577, -0.11922356486320496, 0.1486782729625702, 0.16471804678440094, -0.16043853759765625, -0.4484967589378357, 0.5444315075874329], [0.283982515335083, -0.05748935416340828, 0.09564679861068726, -0.043773964047431946, -0.02964296191930771, 0.1123516708612442, 0.03225016966462135, -0.10114770382642746, 0.10892537981271744, 0.2784681022167206, 0.1680646538734436, -0.08776570856571198, -0.03376132994890213, -0.1419198215007782, 0.07457410544157028, 0.16731171309947968, 0.08850865811109543, -0.02079460397362709, -0.053725458681583405, -0.04909902438521385], [-0.21768729388713837, 0.040414050221443176, 0.1097412034869194, -0.01662849262356758, 0.09145018458366394, -0.047238729894161224, -0.13263902068138123, 0.02266639657318592, 0.0025785239413380623, -0.13906781375408173, -0.05839002877473831, -0.07341509312391281, 0.008245591074228287, 0.01945066638290882, -0.19015918672084808, -0.05128306522965431, -0.062046997249126434, -0.14449314773082733, 0.08045455813407898, 0.018969789147377014], [0.45445603132247925, 0.1751805692911148, 0.1280912458896637, 0.13360130786895752, -0.04647795483469963, 0.2838415205478668, -0.31624215841293335, -0.14939704537391663, 0.25852882862091064, 0.09109032154083252, 0.07982424646615982, -0.17676828801631927, -0.5183757543563843, 0.10499994456768036, 0.12604635953903198, 0.4736616015434265, -0.15160652995109558, 0.01622399501502514, -0.2640639543533325, 0.2145378589630127], [0.22185762226581573, 0.2946211099624634, 0.46133121848106384, 0.008329801261425018, 0.0944276973605156, 0.38302385807037354, -0.2287549525499344, -0.07031581550836563, 0.23976100981235504, -0.036446526646614075, 0.12499299645423889, -0.1599673479795456, -0.386045902967453, 0.02210564725100994, -0.061596304178237915, 0.35769757628440857, -0.34953418374061584, -0.2944045662879944, -0.17444749176502228, 0.15586504340171814], [-0.1013341024518013, 0.13756145536899567, 0.33051127195358276, -0.1466071903705597, 0.07359406352043152, -0.2828260064125061, 0.1407846361398697, 0.2780003845691681, 0.3262874186038971, -0.17973758280277252, -0.07780302315950394, -0.09182753413915634, -0.12905630469322205, 0.15573650598526, -0.20060309767723083, 0.20020858943462372, -0.22690685093402863, 0.027290714904665947, 0.25147080421447754, 0.25343596935272217], [-0.23581482470035553, -0.27678605914115906, -0.16242024302482605, -0.4127313494682312, 0.3778769075870514, 0.27835917472839355, -0.38978078961372375, -0.12146732211112976, 0.460826575756073, 0.1532299518585205, 0.2997225821018219, -0.4459535777568817, -0.29103314876556396, -0.40664687752723694, 0.00664459029212594, 0.22703713178634644, 0.07038530707359314, -0.3573382496833801, -0.2853969633579254, 1.0898141860961914], [-0.18961882591247559, 0.23435716331005096, 0.06517714262008667, -0.11267711967229843, 0.2638281583786011, 0.1933150589466095, -0.04639366641640663, 0.16687896847724915, 0.34248772263526917, -0.17600615322589874, 0.12139739841222763, 0.14624013006687164, -0.33346185088157654, -0.06865698099136353, -0.07748809456825256, -0.10120542347431183, -0.12227095663547516, -0.3139578402042389, -0.18722514808177948, 0.35085755586624146], [0.07559072226285934, -0.006225042510777712, -0.774142324924469, -0.401009202003479, -0.16407592594623566, -0.12289354205131531, 0.10487504303455353, 0.06587313115596771, -0.1719810962677002, -0.04384751245379448, -0.38089242577552795, -0.24661476910114288, 0.2168940305709839, 0.1452447921037674, -0.08475792407989502, -0.23380281031131744, 0.08329720050096512, 0.40893715620040894, 0.008578459732234478, -0.05057591199874878], [0.08956107497215271, 0.02765592560172081, 0.24082043766975403, 0.3249160051345825, 0.28927138447761536, 0.25594469904899597, 0.09702356904745102, 0.22280703485012054, 0.4644883871078491, -0.2818945050239563, -0.11526074260473251, -0.027758004143834114, -0.7622430920600891, -0.2047087848186493, -0.05888422578573227, 0.046653661876916885, 0.012263424694538116, -0.31537729501724243, -0.21907702088356018, 0.06047014147043228], [0.20831169188022614, -0.27217403054237366, -0.34377941489219666, -0.49754536151885986, 0.022846106439828873, 0.00956024695187807, 0.5745307803153992, 0.30895552039146423, 0.8669272661209106, -0.6538485884666443, 0.07639412581920624, -0.2548729181289673, -0.9675447940826416, 0.01113929133862257, -0.24118106067180634, 0.1028851866722107, 0.15823133289813995, 0.10305071622133255, -0.6033504605293274, 0.30436480045318604], [0.00561250327154994, 0.05674152076244354, -0.2936351001262665, 0.19437187910079956, 0.33742189407348633, 0.2042071372270584, -0.12124530971050262, 0.21480391919612885, 0.21258804202079773, -0.008220022544264793, -0.19145411252975464, 0.10560149699449539, -0.055005401372909546, 0.19096389412879944, -0.06719708442687988, -0.1762075126171112, 0.018365610390901566, 0.18458670377731323, -0.1667536497116089, -0.33507296442985535], [-0.5940748453140259, 0.3590504825115204, -0.06467334926128387, 0.6487334966659546, 0.0494094081223011, -0.007679568603634834, -0.4117446839809418, 0.1544891744852066, -0.19557470083236694, -0.04056506231427193, -0.294013112783432, 0.24069061875343323, -0.10062059760093689, 0.42434996366500854, -0.43438827991485596, -0.33164340257644653, -0.08138878643512726, -0.36349111795425415, -0.2173006683588028, -0.16784732043743134], [-0.18504774570465088, -0.5200355648994446, -0.5618855357170105, -0.31686505675315857, 0.21391288936138153, 0.2433234453201294, 0.10588575899600983, 0.08980412036180496, 0.13750497996807098, -0.2951483726501465, 0.13837692141532898, -0.4984208643436432, -0.11085325479507446, -0.35013124346733093, -0.024991866201162338, -0.14706960320472717, 0.22378256916999817, 0.025933973491191864, -0.7056453227996826, 0.4684982895851135], [-0.09520049393177032, -0.2761829197406769, -0.40074488520622253, -0.2892870604991913, -0.214778870344162, -0.85591721534729, 0.17859654128551483, 0.06403916329145432, 0.07536551356315613, -0.024672169238328934, -0.24445948004722595, -0.09656842052936554, 0.27365705370903015, -0.08901679515838623, -0.08715737611055374, -0.5073304772377014, 0.16831718385219574, 0.1472128927707672, 0.23999309539794922, -0.18810123205184937], [-0.44284185767173767, 0.4135821461677551, -0.14051999151706696, 0.34878280758857727, -0.17678941786289215, -0.322791188955307, 0.13673442602157593, 0.026625534519553185, -0.01508104708045721, -0.11320894956588745, -0.40386033058166504, 0.4785146713256836, 0.0022911077830940485, 0.049602873623371124, -0.24164320528507233, 0.04027211293578148, -0.08009684830904007, -0.13557331264019012, 0.12744535505771637, -0.1679658144712448], [-0.2510026693344116, -0.10351191461086273, 0.12210488319396973, -0.1485542207956314, 0.03796146810054779, -0.09963679313659668, -0.08900363743305206, 0.07757608592510223, 0.19598077237606049, -0.264912486076355, 0.09750204533338547, 0.06302529573440552, -0.2613724172115326, 0.13573172688484192, -0.22416479885578156, -0.038307301700115204, 0.19235505163669586, 0.06510581821203232, 0.2076425999403, 0.12465743720531464], [0.046049728989601135, 0.06196025013923645, -0.1391335427761078, -0.06322325021028519, -0.05931900069117546, 0.19131048023700714, -0.26898065209388733, -0.1313205361366272, -0.26673242449760437, 0.7156072854995728, -0.007393907755613327, -0.19338838756084442, 0.01728774793446064, 0.23235668241977692, 0.023918554186820984, 0.27103421092033386, -0.0877070352435112, 0.3445979952812195, -0.4563639163970947, -0.28532204031944275], [-0.11346802860498428, -0.10524562001228333, -0.3647644817829132, -0.14220304787158966, 0.13122574985027313, 0.030458446592092514, 0.07274304330348969, 0.03614984080195427, 0.3239779770374298, 0.06241117790341377, -0.09888860583305359, -0.18715327978134155, -0.18819643557071686, -0.15807625651359558, 0.03985141962766647, -0.05377320200204849, 0.2692658007144928, 0.190827414393425, -0.13801772892475128, 0.2980401813983917], [0.07677310705184937, 0.11151164025068283, -0.10809682309627533, -0.24634839594364166, -0.22826065123081207, -0.1902143955230713, 0.38147011399269104, 0.1762874722480774, 0.0350358746945858, -0.05710956081748009, 0.2374066412448883, -0.2531612813472748, -0.14074040949344635, 0.00487406924366951, 0.2025788128376007, 0.08321850746870041, 0.019121970981359482, 0.19816775619983673, -0.11336293816566467, -0.15324266254901886], [0.11888539791107178, 0.1623314768075943, 0.05065000057220459, 0.33657804131507874, 0.017812076956033707, 0.13877864181995392, -0.39025676250457764, -0.04183993488550186, -0.8127202987670898, 0.4681210219860077, -0.18455030024051666, 0.20364873111248016, 0.12264280766248703, 0.32686638832092285, 0.007199854124337435, 0.060549866408109665, -0.14548149704933167, 0.12573277950286865, 0.3013637363910675, -0.5963773131370544], [0.36933019757270813, 0.002899816958233714, 0.2705957889556885, 0.13686296343803406, 0.3101077973842621, -0.10820325464010239, 0.32831498980522156, 0.24126771092414856, 0.14866720139980316, 0.2691795527935028, 0.09379187971353531, -0.09691053628921509, -0.36606770753860474, -0.25892338156700134, 0.08458999544382095, 0.02086014673113823, -0.05376330018043518, 0.026073260232806206, 0.18308758735656738, -0.03655179962515831], [0.3822706937789917, 0.13507775962352753, -0.13028442859649658, -0.07098573446273804, -0.12344829738140106, 0.005007965490221977, -0.09355450421571732, -0.08680187910795212, 0.11409106105566025, 0.1840829700231552, -0.01998099312186241, -0.29712921380996704, -0.018695425242185593, 0.13122330605983734, 0.17447200417518616, 0.22494156658649445, 0.10987736284732819, 0.2459685057401657, -0.04022756963968277, -0.056905146688222885], [0.6015299558639526, -0.02273978479206562, -0.267819881439209, -0.1354772299528122, 0.1024007722735405, 0.04758691415190697, 0.07013093680143356, 0.04068605974316597, 0.0013299756683409214, -0.07345453649759293, 0.09509586542844772, -0.1260441541671753, -0.4852006733417511, 0.0915609747171402, -0.08542221039533615, -0.1647048145532608, 0.20052340626716614, 0.1674085110425949, -0.12067462503910065, 0.21386359632015228], [-0.47510719299316406, -0.24251171946525574, -0.17822574079036713, 0.058142151683568954, -0.13328610360622406, -0.11611012369394302, -0.4490048587322235, -0.24438881874084473, -0.1868872493505478, 0.03978728875517845, -0.09367159008979797, -0.050975631922483444, 0.6209771037101746, 0.00037935751606710255, -0.003160124411806464, -0.24388369917869568, -0.035710375756025314, 0.043387509882450104, 0.22035124897956848, -0.0716315433382988], [0.21380272507667542, -0.05155632272362709, 0.15954534709453583, -0.20414769649505615, -0.27979812026023865, -0.2354491651058197, 0.3469077944755554, 0.04580511897802353, -0.21814261376857758, 0.23171085119247437, -0.20027098059654236, 0.12501901388168335, 0.32528364658355713, -0.056305404752492905, 0.08811675757169724, -0.01812923699617386, 0.007845076732337475, 0.12437248975038528, 0.17020148038864136, -0.41120800375938416], [0.24868527054786682, 0.16002868115901947, 0.4272136986255646, 0.22626301646232605, 0.1969628781080246, -0.24405883252620697, 0.08197275549173355, 0.20645073056221008, -0.06976566463708878, 0.012196261435747147, -0.17029930651187897, 0.2710872292518616, 0.050975341349840164, 0.25978341698646545, -0.26032814383506775, 0.29021161794662476, -0.35059240460395813, 0.19920125603675842, 0.15498293936252594, -0.5522608757019043], [-0.39137741923332214, -0.025012359023094177, -0.22240349650382996, 0.0697823092341423, 0.025036940351128578, 0.027384858578443527, -0.039473194628953934, -0.2284507155418396, 0.21414382755756378, -0.23665566742420197, -0.014492329210042953, -0.05334649980068207, -0.12366387248039246, -0.10259318351745605, 0.020870106294751167, -0.2325027734041214, -0.13352225720882416, -0.17501652240753174, 0.10959510505199432, -0.017010144889354706], [0.30383914709091187, 0.4801417589187622, 0.4013865888118744, 0.16071808338165283, 0.42129024863243103, 0.3400856554508209, -0.17828121781349182, 0.48766177892684937, -0.045561548322439194, -0.09275487810373306, -0.46173959970474243, -0.6862533688545227, -0.23061062395572662, 0.5105758309364319, -0.1938592940568924, 0.46232643723487854, -0.6441358327865601, -0.16869278252124786, -0.27118030190467834, -0.49806123971939087], [0.5800918340682983, -0.026683004572987556, 0.3463495671749115, 0.24584178626537323, 0.2021690458059311, 0.24736542999744415, 0.031099671497941017, 0.20796337723731995, -0.025803839787840843, 0.37311801314353943, 0.08943198621273041, 0.09176061302423477, -0.11405423283576965, 0.0603717565536499, 0.09463854879140854, 0.20350219309329987, 0.048169221729040146, 0.040627241134643555, 0.02664116770029068, 0.09011901170015335], [0.3959045708179474, -0.04298223555088043, 0.22566872835159302, 0.0524795725941658, 0.3584616780281067, 0.014804225414991379, 0.13078327476978302, 0.38040590286254883, 0.04364478588104248, 0.19107607007026672, 0.017147177830338478, -0.19030481576919556, -0.12668000161647797, -0.0659274309873581, -0.26142457127571106, 0.08695053309202194, 0.04316987842321396, 0.09880602359771729, 0.06971189379692078, 0.17237569391727448], [0.16249606013298035, 0.412883996963501, 0.030045755207538605, 0.3189520835876465, -0.15118232369422913, 0.17124302685260773, 0.0487956628203392, 0.22540880739688873, -0.13941213488578796, -0.33490362763404846, -0.29413267970085144, -0.2583632469177246, -0.09991921484470367, 0.4315264821052551, -0.12837697565555573, 0.21349239349365234, -0.3934475779533386, 0.025923943147063255, -0.05080893635749817, -0.2839853763580322], [-0.23462970554828644, 0.37546154856681824, -0.24055613577365875, -0.2200087606906891, -0.12065195292234421, -0.052907705307006836, 0.0037651918828487396, 0.15737450122833252, -0.0811668336391449, -0.5840290188789368, -0.3942287564277649, -0.3830077052116394, -0.14021895825862885, 0.40981969237327576, -0.24574464559555054, 0.08426276594400406, -0.1893145740032196, 0.14074522256851196, -0.04201657325029373, -0.16006270051002502], [0.7170118689537048, -0.0290105901658535, 0.11699570715427399, -0.1720656156539917, 0.5298576354980469, 0.7500557899475098, -0.36825284361839294, 0.2621561586856842, 0.1904529184103012, 0.11932273209095001, -0.005164206027984619, -0.5019370317459106, -0.44674766063690186, -0.2539779841899872, -0.002886800095438957, 0.5985499024391174, -0.07706800103187561, 0.061771176755428314, -0.7767464518547058, 0.4648466110229492], [0.18356849253177643, -0.02196631021797657, -0.36855944991111755, -0.41001999378204346, -0.2546473741531372, -0.305024653673172, -0.29575520753860474, -0.0925820842385292, -0.36675184965133667, 0.054571736603975296, -0.2191530168056488, -0.01910204254090786, 0.25906309485435486, 0.040261417627334595, 0.03378796577453613, 0.17115418612957, -0.08056824654340744, 0.29368776082992554, 0.3453685939311981, -0.136347696185112], [-0.14247383177280426, -0.23556649684906006, -0.3407781720161438, -0.10927462577819824, -0.20642267167568207, -0.3742642402648926, 0.2142396867275238, 0.09049604088068008, 0.04640433192253113, -0.1335974484682083, -0.17987042665481567, -0.06362177431583405, -0.018112698569893837, -0.1469457447528839, 0.09697464853525162, -0.03908650949597359, 0.1631293147802353, 0.27674806118011475, 0.2866687476634979, 0.12560519576072693], [0.3300701677799225, 0.09341997653245926, 0.5237513184547424, -0.28497427701950073, 0.5895469784736633, 0.7005967497825623, -0.380112886428833, -0.03205709159374237, 0.4044146239757538, 0.08950940519571304, 0.0828830897808075, -0.7011340260505676, -0.5854688286781311, -0.03744560107588768, -0.32512664794921875, 0.5315824151039124, -0.1760973483324051, -0.31220680475234985, -0.7934722900390625, 0.3535148799419403], [-0.4957846403121948, 0.013451130129396915, -0.23847857117652893, 0.059959955513477325, -0.1500324308872223, 0.2228919416666031, -0.2758176028728485, -0.18593472242355347, -0.20652393996715546, 0.28765612840652466, -0.26358965039253235, 0.20385430753231049, 0.13561634719371796, 0.2680402398109436, -0.1073242649435997, -0.07889651507139206, 0.13598693907260895, -0.10879955440759659, 0.10549178719520569, -0.3288070261478424], [0.2076989710330963, -0.06985403597354889, 0.6278578639030457, 0.026984546333551407, -0.06848933547735214, 0.05409223958849907, 0.15484356880187988, -0.024764208123087883, -0.1747104376554489, 0.05897139757871628, 0.19196593761444092, 0.12475679069757462, 0.1994471549987793, -0.2547166645526886, -0.006917187478393316, 0.17303727567195892, 0.05357852578163147, -0.09859026968479156, 0.014142174273729324, -0.11634606122970581], [0.14886362850666046, -0.06883899867534637, 0.16689251363277435, 0.1992008537054062, -0.039710961282253265, 0.20934394001960754, -0.27397722005844116, -0.004040994215756655, 0.14138033986091614, 0.2233285903930664, 0.22192563116550446, -0.32244810461997986, -0.18670424818992615, -0.11465778946876526, -0.021252840757369995, 0.3050070106983185, -0.04892822727560997, 0.07197166979312897, -0.21333405375480652, 0.23812335729599], [0.6102892756462097, 0.04662015289068222, 0.476325124502182, -0.03626665472984314, 0.6944394707679749, 0.8224573731422424, 0.04556009918451309, 0.092374786734581, 0.7685461640357971, -0.12912729382514954, 0.14031067490577698, -0.17883700132369995, -0.929782509803772, -0.19339938461780548, -0.11702827364206314, 0.5585688352584839, 0.024090994149446487, -0.34540659189224243, -0.5100647211074829, 0.36617156863212585], [0.4070020020008087, -0.008852170780301094, 0.5132651329040527, 0.1161624938249588, 0.09070119261741638, 0.2699359357357025, -0.11985044181346893, -0.2479621320962906, 0.009376892820000648, 0.4643748104572296, 0.15063130855560303, 0.08894311636686325, -0.040877245366573334, 0.059387993067502975, 0.0337347537279129, 0.27789708971977234, 0.12905840575695038, -0.07981027662754059, -0.0021407848689705133, -0.21452832221984863], [-0.3936678469181061, -0.013457710854709148, 0.2113770991563797, -0.022415874525904655, -0.046500518918037415, -0.2346627116203308, -0.06968197226524353, -0.026551252231001854, -0.12576232850551605, -0.20922426879405975, 0.008028541691601276, 0.05498667433857918, 0.20455294847488403, 0.04291680455207825, -0.18411889672279358, -0.10160493105649948, 0.024369949474930763, -0.13872447609901428, 0.25870227813720703, -0.031029436737298965], [0.42905646562576294, -0.2151714712381363, -0.16668154299259186, -0.015681015327572823, 0.050554290413856506, 0.2539610266685486, -0.06569065153598785, -0.03906051069498062, 0.4915632903575897, 0.1442253738641739, -0.030359914526343346, -0.23547187447547913, -0.6529603004455566, 0.021821187809109688, 0.0355624184012413, 0.14817841351032257, 0.20163403451442719, -0.013199947774410248, -0.24908259510993958, 0.29991409182548523], [0.044215839356184006, 0.048894766718149185, 0.27223291993141174, 0.15378110110759735, 0.2766851782798767, 0.20291775465011597, -0.09971022605895996, -0.05753116309642792, 0.04176773130893707, 0.16419939696788788, -0.16400842368602753, -0.05290453881025314, -0.27473586797714233, -0.08789295703172684, -0.005893046967685223, 0.10192560404539108, -0.04092094674706459, -0.10342548042535782, -0.08855001628398895, -0.12531140446662903], [-0.23782463371753693, -0.12180265784263611, 0.1378490924835205, -0.04035351797938347, -0.09628993272781372, -0.25229233503341675, 0.20646212995052338, 0.14857997000217438, 0.1990494281053543, -0.11848228424787521, -0.14605318009853363, -0.028814300894737244, -0.012091638520359993, 0.065078504383564, -0.19096113741397858, 0.04494081810116768, 0.04456144943833351, 0.03825170174241066, 0.2746526598930359, 0.18450333178043365], [0.5652406811714172, 0.6872024536132812, 0.128695547580719, 0.4341456890106201, 1.0060139894485474, 0.8547926545143127, -0.7920939326286316, 0.5538606643676758, 0.23637911677360535, -0.29231229424476624, -0.22589153051376343, 0.01675833761692047, -0.32769542932510376, 0.10047081857919693, -0.3279857039451599, 0.22107428312301636, -0.42027366161346436, -0.4726642370223999, -0.6856057643890381, 0.13105948269367218], [0.49574294686317444, 0.09813610464334488, 0.6803374886512756, 0.011688830330967903, 0.23896783590316772, 0.11460480093955994, 0.2856297791004181, 0.17648297548294067, 0.21878869831562042, -0.06440430134534836, -0.17717981338500977, 0.08402939140796661, -0.5545293688774109, 0.25845590233802795, -0.23756475746631622, 0.3167560398578644, -0.3672311305999756, -0.1833830028772354, -0.3137390613555908, 0.30911991000175476]], "rec.bias_ih_l0": [0.2805452048778534, 0.2468249648809433, 0.5046417117118835, -0.0026692813262343407, 0.5151994824409485, 0.14226576685905457, -0.014366465620696545, 0.21132388710975647, 0.26797252893447876, 0.12249250710010529, -0.07203175872564316, -0.07689369469881058, 0.06720087677240372, -0.05626261234283447, -0.14010778069496155, -0.201350137591362, 0.02822168916463852, -0.062395114451646805, 0.4705345332622528, 0.1590917557477951, 0.07025077939033508, 0.23278160393238068, -0.2020391970872879, 0.13649801909923553, 0.21587681770324707, 0.06433883309364319, 0.33200451731681824, 0.13040299713611603, 0.23462313413619995, 0.2652047276496887, -0.0237965639680624, -0.14810578525066376, -0.16937750577926636, -0.1854056417942047, 0.11227360367774963, 0.21083477139472961, 0.12358551472425461, 0.17410504817962646, 0.07077473402023315, -0.08413766324520111, 0.19701607525348663, 0.042289916425943375, 0.16686831414699554, 0.0546535886824131, -0.043551359325647354, 0.09335170686244965, -0.18597757816314697, 0.27062082290649414, -0.06186702847480774, 0.09003175795078278, -0.04946146160364151, -0.033258356153964996, -0.08443424850702286, -0.0983167216181755, -0.11394046247005463, -0.0595080703496933, -0.13081498444080353, 0.019702045246958733, 0.25984153151512146, -0.21580468118190765, 0.5051711797714233, 0.09223081916570663, 0.2743915617465973, 0.2929297089576721, 0.5940468907356262, 0.21462330222129822, 0.07527507841587067, -0.0733196809887886, 0.2497236579656601, 0.02740834839642048, 0.1381114274263382, 0.13227760791778564, -0.14808063209056854, 0.004778416361659765, 0.021782569587230682, 0.06390482187271118, -0.08161569386720657, -0.00028467262745834887, 0.2401590496301651, 0.423000693321228], "rec.bias_hh_l0": [0.398215651512146, 0.2784072160720825, 0.4170258939266205, 0.10393612831830978, 0.3678361177444458, 0.3057313859462738, 0.2887181341648102, 0.2805284857749939, 0.3087083697319031, -0.14191707968711853, -0.07679440826177597, 0.12261942028999329, 0.15195788443088531, -0.011277351528406143, -0.1945779174566269, -0.3544338345527649, -0.024070989340543747, -0.07685033231973648, 0.4002627730369568, 0.460294246673584, 0.07854975014925003, 0.28419333696365356, -0.3660129904747009, 0.25834715366363525, 0.2722657024860382, 0.09145941585302353, 0.3655071258544922, -0.055776070803403854, 0.043103259056806564, 0.21201546490192413, -0.0008529024780727923, -0.10435844957828522, 0.1175498217344284, -0.2247372567653656, 0.03145448863506317, 0.10988432914018631, 0.043654799461364746, 0.06784863770008087, -0.19755056500434875, 0.07096502929925919, 0.09469772130250931, 0.07906676828861237, -0.015273446217179298, -0.062467094510793686, 0.25550562143325806, -0.23471590876579285, 0.17865850031375885, -0.018924197182059288, -0.11851894855499268, -0.1399703174829483, -0.2085457593202591, 0.05613566190004349, 0.1609581559896469, 0.2861701250076294, -0.2453443706035614, 0.18052154779434204, -0.049167975783348083, -0.007103930227458477, -0.018685244023799896, 0.10668596625328064, 0.550775408744812, 0.3021431565284729, 0.08962808549404144, 0.23665453493595123, 0.3283368647098541, 0.21776415407657623, 0.19195373356342316, 0.21009781956672668, 0.42392855882644653, 0.15706613659858704, 0.17706145346164703, 0.15280292928218842, -0.09944568574428558, -0.0036008968017995358, -0.009155604057013988, -0.119422048330307, -0.08320504426956177, 0.11790367215871811, 0.4965014159679413, 0.35015302896499634], "lin.weight": [[0.2785186469554901, -0.28338390588760376, 0.00014163005107548088, 0.04163103923201561, 0.32910069823265076, 0.21194051206111908, 0.12918980419635773, 0.23286482691764832, -0.2688051462173462, -0.03895494341850281, -0.003401529975235462, 0.39019545912742615, -0.47746312618255615, -0.13659454882144928, -0.07538402825593948, -0.10054848343133926, 0.16515499353408813, 0.1696632206439972, -0.7875568270683289, 0.12314236164093018]], "lin.bias": [0.0395800843834877]}}