{"model_data": {"model": "SimpleRNN", "input_size": 1, "skip": "0", "output_size": 1, "unit_type": "LSTM", "num_layers": 1, "hidden_size": 20, "bias_fl": true}, "state_dict": {"rec.weight_ih_l0": [[0.10088703036308289], [-0.12557825446128845], [0.10818749666213989], [0.3922158181667328], [0.25878122448921204], [0.47075358033180237], [0.3861992359161377], [0.3182426393032074], [-0.30229923129081726], [-0.7831289172172546], [-0.34321358799934387], [0.5006636381149292], [0.2063920646905899], [-0.5768393278121948], [0.04384174197912216], [0.3702779710292816], [-0.1405484825372696], [0.35540929436683655], [0.1814088225364685], [-0.6047459244728088], [1.125848650932312], [-0.6730539202690125], [-0.08462907373905182], [-0.6772855520248413], [0.6255536675453186], [1.659332275390625], [0.038268499076366425], [0.18909455835819244], [0.556114673614502], [-0.8213068842887878], [-0.11066664010286331], [1.0472469329833984], [0.8402994871139526], [-0.45453691482543945], [-0.09355854243040085], [0.5163347721099854], [0.10184964537620544], [0.2870626747608185], [2.061563491821289], [-0.13342159986495972], [0.751044750213623], [-0.2618793547153473], [-0.2201380431652069], [-0.5984885692596436], [0.12272156774997711], [0.6958691477775574], [0.24336959421634674], [-0.18410229682922363], [0.6198407411575317], [-0.32991844415664673], [0.29583990573883057], [-0.7073145508766174], [-0.7547327876091003], [-0.2324836701154709], [-0.027111660689115524], [-0.019492829218506813], [-0.011764420196413994], [-0.06278219074010849], [-1.496381402015686], [0.5446572303771973], [0.0195635836571455], [-0.4668329954147339], [-0.180551216006279], [-0.18132284283638], [0.2481834888458252], [0.35290342569351196], [-0.20056487619876862], [0.6145065426826477], [-0.05379316583275795], [-0.5059249401092529], [0.04442186281085014], [0.8696410655975342], [0.3463144898414612], [-0.43128377199172974], [-0.08085719496011734], [0.2623996138572693], [-0.5060022473335266], [0.47886162996292114], [-0.8554755449295044], [-0.6900240182876587]], "rec.weight_hh_l0": [[0.0010359813459217548, 0.049434248358011246, -0.34223824739456177, -0.3004491627216339, 0.5971571803092957, -0.4051969647407532, 0.6750829815864563, 0.6564089059829712, -1.3039849996566772, -0.3355048596858978, -0.2810378670692444, -0.18966810405254364, 0.8068611025810242, 0.01409281138330698, -0.4578486382961273, -0.81350177526474, 0.12877729535102844, 0.2281530499458313, 0.8368937969207764, -0.6967251300811768], [0.09004687517881393, 0.21658557653427124, 0.012927768751978874, 0.4845610558986664, 0.16290326416492462, 0.18944872915744781, 0.23475070297718048, 0.06862270832061768, 0.2390740066766739, 0.046353474259376526, -0.23085917532444, -0.05850466340780258, -0.42279917001724243, 0.010845275595784187, -0.08656401187181473, 0.1200961172580719, -0.12622947990894318, -0.13478469848632812, -0.17434214055538177, -0.004726486746221781], [0.43007901310920715, 0.08863003551959991, 0.44509050250053406, 0.05790693685412407, 0.522673487663269, 0.2782509922981262, 0.1943066567182541, 0.1280393898487091, 0.05955101549625397, -0.03812893480062485, 0.03995075449347496, -0.30123692750930786, -0.19222219288349152, -0.059385836124420166, -0.16587428748607635, 0.2058340311050415, -0.25103962421417236, 0.05467579513788223, -0.17612767219543457, 0.07017125189304352], [0.3252898156642914, 0.16233572363853455, 0.7115378379821777, 0.45905208587646484, -0.057429712265729904, 0.2827145755290985, 0.3400558829307556, 0.08765124529600143, 0.03647850826382637, -0.48941782116889954, 0.2334372103214264, -0.28330978751182556, 0.0184196624904871, 0.18772894144058228, 0.01643427461385727, 0.1978309005498886, -0.14900341629981995, -0.21793940663337708, -0.22916802763938904, -0.10670346021652222], [-0.433245450258255, 0.352948933839798, -0.11707571148872375, 0.06723026186227798, -0.060919925570487976, -0.2258019894361496, 0.060604844242334366, 0.17534446716308594, -0.23446901142597198, -0.3816606104373932, -0.3556668758392334, 0.2551342844963074, 0.1988644003868103, 0.22965894639492035, -0.24834521114826202, -0.0006204750388860703, -0.4384365379810333, 0.2161346673965454, 0.14049305021762848, -0.21059821546077728], [0.5856235027313232, -0.0601927787065506, -0.2381461262702942, -0.08778952807188034, 0.5614166259765625, 0.4542351961135864, -0.5334448218345642, 0.25340959429740906, 0.3235158324241638, 0.23516196012496948, 0.02888510562479496, -0.5780245065689087, -0.49192118644714355, -0.12515079975128174, -0.03916814550757408, 0.3336232900619507, 0.043346110731363297, -0.01604926586151123, -0.6499371528625488, 0.5365803241729736], [0.4294068217277527, 0.015984904021024704, 0.23870311677455902, -0.3430866599082947, -0.44166234135627747, 0.04449566826224327, -0.08073298633098602, -0.03976614028215408, -0.010408971458673477, 0.1906633824110031, 0.12114796787500381, 0.053447969257831573, -0.1911037266254425, 0.09110077470541, 0.058433111757040024, 0.29353100061416626, -0.2195311337709427, 0.21690425276756287, -0.061590977013111115, -0.10199324041604996], [-0.1379828155040741, -0.10074174404144287, 0.08454693853855133, -0.013683599419891834, -0.34494417905807495, -0.1846926510334015, 0.06174328923225403, 0.0076081641018390656, -0.15058793127536774, -0.019872820004820824, 0.013068454340100288, -0.02813049592077732, -0.13187569379806519, 0.0015911594964563847, -0.05139162763953209, 0.23694854974746704, -0.11482074111700058, 0.15842923521995544, 0.08284744620323181, -0.08878826349973679], [0.27074670791625977, -0.06790449470281601, 0.3528492748737335, -0.5060063600540161, 0.5067439675331116, 0.7400153875350952, -0.4548886716365814, -0.10514097660779953, 0.49683254957199097, 0.19158054888248444, 0.30281537771224976, -0.6896771788597107, -0.6097234487533569, -0.15785734355449677, -0.2313029170036316, 0.3911575973033905, -0.10478442907333374, -0.29054227471351624, -0.9342970848083496, 0.46902722120285034], [-0.30462250113487244, -0.1970873326063156, 0.0787714347243309, -0.28157058358192444, -0.36862656474113464, 0.14699681103229523, -0.07644587755203247, -0.2650059163570404, -0.0864015445113182, 0.21250523626804352, -0.0669916421175003, 0.19881583750247955, 0.022949595004320145, 0.0015839976258575916, -0.012238527648150921, -0.15133363008499146, 0.20598892867565155, -0.01766146905720234, 0.10172206908464432, -0.16023032367229462], [-0.20474010705947876, 0.12652885913848877, 0.29620397090911865, 0.06530971825122833, -0.02001889795064926, 0.0007774123223498464, 0.2383064329624176, -0.08976846188306808, -0.3097229599952698, -0.01931864395737648, 0.09028910100460052, 0.10451190918684006, 0.23552052676677704, 0.020286714658141136, 0.0422092042863369, 0.04685232415795326, -0.13784000277519226, 0.018098684027791023, 0.224282905459404, -0.08834882825613022], [0.2639932632446289, -0.03039471060037613, 0.49198246002197266, 0.17870381474494934, -0.07904988527297974, 0.07638701796531677, -0.20423701405525208, 0.00031572309671901166, 0.023715484887361526, 0.4584689140319824, 0.2387518435716629, -0.23017218708992004, -0.25298774242401123, -0.10582837462425232, -0.020473863929510117, 0.4148460328578949, -0.12550850212574005, 0.010994895361363888, -0.28342193365097046, 0.1284552961587906], [0.35451745986938477, -0.1983449012041092, -0.341686874628067, 0.05117468163371086, 0.9678344130516052, 0.9639338850975037, 0.08075705915689468, 0.33690401911735535, 1.0068763494491577, -0.06537021696567535, -0.054173026233911514, -0.5528965592384338, -0.6971364617347717, -0.2770811915397644, -0.27589118480682373, 0.04431911185383797, 0.5115107297897339, -0.13939110934734344, -0.5517454743385315, 0.6993024349212646], [0.07227444648742676, -0.07240155339241028, 0.11973109096288681, 0.06929309666156769, -0.05888925865292549, 0.01439399179071188, -0.14883649349212646, -0.1237775981426239, -0.03397533297538757, 0.3755667805671692, 0.02311660349369049, -0.05431313440203667, -0.018523551523685455, 0.11954256892204285, 0.0833558589220047, 0.024283243343234062, -0.025030052289366722, -0.09189429879188538, 0.11261431872844696, -0.2482457160949707], [-0.41044726967811584, -0.04254552721977234, 0.2064974308013916, -0.023967057466506958, -0.09152447432279587, -0.07700832188129425, -0.01618352346122265, -0.03153752163052559, 0.06245248019695282, -0.13911037147045135, 0.0002945413289126009, 0.03304854407906532, -0.007678298745304346, -0.006634831428527832, -0.14298115670681, -0.08889541029930115, -0.02005172334611416, -0.09354745596647263, 0.20558451116085052, 0.014438900165259838], [0.502968966960907, -0.36529260873794556, -0.2819012999534607, -0.09188735485076904, -0.11022357642650604, 0.0024676856119185686, 0.1464977264404297, -0.07845767587423325, 0.15059153735637665, 0.05358051136136055, 0.15660758316516876, -0.08638641983270645, -0.2565760016441345, -0.028860775753855705, 0.17297054827213287, 0.1333262324333191, 0.20416875183582306, 0.2488241195678711, -0.20665866136550903, -0.07650396227836609], [0.162638321518898, -0.06904938071966171, 0.21152150630950928, -0.017124641686677933, -0.012680744752287865, 0.45404013991355896, 0.06628300994634628, -0.16133494675159454, 0.11640126258134842, 0.1516910195350647, 0.1083231121301651, -0.10357189178466797, -0.3502587676048279, 0.001485333894379437, 0.009286526590585709, 0.2520889341831207, -0.07510855793952942, -0.04902543127536774, -0.25779691338539124, 0.012990879826247692], [-0.2107965052127838, -0.13373114168643951, 0.3299197554588318, -0.33160799741744995, -0.2231951653957367, -0.2879975140094757, 0.2094278186559677, 0.14743377268314362, 0.2044491469860077, -0.07424338161945343, 0.11293552070856094, 0.04557550325989723, -0.06936360895633698, -0.001902746851556003, -0.059956908226013184, 0.024347707629203796, 0.010522033087909222, 0.07786935567855835, 0.1724109798669815, 0.2819494605064392], [0.854417085647583, 0.6009191870689392, -0.6995183825492859, -0.14078070223331451, 0.6559669375419617, 0.9698175191879272, -0.7265350222587585, 0.44540634751319885, 0.18244411051273346, 0.006803211290389299, -0.34771931171417236, -0.5275434255599976, -0.706281304359436, 0.07986459136009216, -0.18843576312065125, 0.5851002335548401, -0.6093974113464355, 0.03387324884533882, -0.8510051369667053, 0.25043419003486633], [0.05129450932145119, 0.20282822847366333, 0.6370773315429688, 0.1740482598543167, 0.22220273315906525, 0.17747946083545685, 0.24037916958332062, 0.3209475576877594, 0.5129439234733582, -0.33061012625694275, -0.13965462148189545, 0.07394617050886154, -0.6072521209716797, 0.20366773009300232, -0.1618177592754364, 0.1770666092634201, -0.2738267779350281, -0.19496876001358032, -0.03619977831840515, -0.06195293739438057], [0.04999430850148201, -0.25416672229766846, -0.02329172194004059, 0.09919264167547226, 0.39034444093704224, 0.4347279667854309, 0.1334100365638733, 0.23140890896320343, 0.8915215730667114, -0.259982705116272, 0.14682918787002563, -0.4091155230998993, -0.5943465828895569, -0.1556524932384491, -0.28221774101257324, 0.15510839223861694, 0.3342360854148865, -0.06487397104501724, -0.4505475163459778, 0.8680543303489685], [0.14877629280090332, 0.3742036819458008, 0.1317058503627777, 0.6517587900161743, 0.4373178780078888, 0.21221238374710083, -0.2308816760778427, 0.06473729014396667, 0.023590167984366417, 0.12431517988443375, -0.045274749398231506, -0.03534882515668869, -0.18004538118839264, 0.22753366827964783, -0.07622732222080231, 0.3986418843269348, -0.40705716609954834, -0.27748382091522217, 0.03477025032043457, -0.09128003567457199], [-0.022823471575975418, -0.22038723528385162, 0.060418713837862015, -0.02610388584434986, -0.11526574194431305, 0.2436678409576416, -0.233007550239563, -0.17121917009353638, 0.3999191224575043, 0.1452520489692688, 0.20106390118598938, 0.003450494958087802, -0.4692094326019287, -0.1487896740436554, -0.15685035288333893, 0.0494878813624382, 0.016324566677212715, -0.09455762058496475, -0.24815751612186432, 0.5585278272628784], [-0.022729020565748215, 0.160835400223732, -0.00316414050757885, 0.20452164113521576, -0.04145710542798042, 0.23208682239055634, -0.08433527499437332, 0.13347762823104858, -0.2426730990409851, 0.07490964978933334, -0.269114226102829, 0.17370106279850006, -0.12039598822593689, 0.26163873076438904, -0.1967466175556183, 0.22590142488479614, -0.40686658024787903, 0.13794158399105072, -0.11914055049419403, -0.1877080202102661], [-0.068611741065979, -0.27733704447746277, -0.2381323128938675, -0.3935134708881378, 0.10512958467006683, -0.23843882977962494, 0.22826574742794037, 0.1724589318037033, 0.17492887377738953, -0.49996963143348694, 0.0028786854818463326, -0.28951263427734375, 0.1557462215423584, -0.06702523678541183, -0.1920246183872223, -0.03382733091711998, 0.0720355436205864, 0.211381196975708, 0.002723411191254854, 0.13730178773403168], [0.5036329627037048, -0.24427202343940735, -0.33770492672920227, -0.38931921124458313, 0.2825319468975067, 0.12102670222520828, 0.011389235034584999, 0.23929467797279358, 0.33623334765434265, 0.1958639919757843, 0.10796765238046646, -0.5854383707046509, -0.28829389810562134, -0.2681022882461548, 0.03872064873576164, 0.24538999795913696, 0.2151048183441162, 0.2579912841320038, -0.5405529737472534, 0.5290529727935791], [0.5831384062767029, 0.2794443964958191, 0.1617887169122696, -0.24899038672447205, -0.12008581310510635, 0.011276972480118275, -0.3915047347545624, -0.09171507507562637, -0.13342633843421936, 0.19389931857585907, 0.039894185960292816, -0.2444649487733841, -0.00025173387257382274, 0.2889098823070526, -0.04985509067773819, 0.5712181329727173, -0.42818859219551086, 0.08519503474235535, 0.022505637258291245, 0.0030828616581857204], [0.11288727074861526, 0.032417792826890945, -0.024065934121608734, 0.011548143811523914, -0.22209994494915009, -0.2217501550912857, -0.04825812578201294, -0.10301966965198517, -0.020708104595541954, -0.039994388818740845, -0.04498527571558952, -0.05046502500772476, -0.09363023191690445, -0.10036458820104599, 0.06374239921569824, 0.1877833902835846, -0.1336548626422882, 0.0512065552175045, 0.08080796152353287, -0.22671180963516235], [-0.02451007254421711, 0.20775510370731354, 0.2761152684688568, -0.1803266853094101, 0.18087969720363617, 0.3544577658176422, -0.39187195897102356, -0.08724085986614227, 0.07477188855409622, 0.012755044735968113, 0.0959482416510582, -0.39255595207214355, -0.21823686361312866, 0.110612653195858, -0.06809643656015396, 0.06040284037590027, 0.07403414696455002, -0.2745334804058075, -0.2445509284734726, 0.3081784248352051], [-0.3288773000240326, 0.09275998920202255, -0.24075442552566528, 0.328351229429245, 0.0006505153141915798, 0.1269475221633911, 0.03949736803770065, 0.11392289400100708, -0.1320016235113144, 0.31225812435150146, -0.27180224657058716, 0.29717981815338135, 0.146011084318161, 0.2464369684457779, -0.1572873890399933, -0.2551543414592743, 0.21637007594108582, 0.07215573638677597, 0.2388715147972107, -0.46664655208587646], [-0.2633058726787567, 0.04916498810052872, 0.18861444294452667, 0.018521040678024292, 0.0075143445283174515, 0.10187560319900513, -0.04875835031270981, 0.053270123898983, -0.05125420168042183, -0.08759104460477829, -0.009513037279248238, 0.08814245462417603, 0.08100812137126923, -0.2073313146829605, 0.08332660794258118, 0.027789106592535973, 0.013776598498225212, -0.0603109635412693, 0.09064891934394836, 0.059116944670677185], [-0.16800545156002045, -0.21380206942558289, -0.11203646659851074, 0.18115438520908356, -0.49443748593330383, -0.11309987306594849, -0.2133823186159134, -0.13065513968467712, -0.1960328072309494, 0.19148018956184387, 0.11036531627178192, 0.030745889991521835, 0.0736505389213562, -0.12930500507354736, 0.09022493660449982, 0.06750113517045975, 0.15766073763370514, 0.22149556875228882, 0.0412788949906826, -0.0032856829930096865], [0.11665357649326324, 0.026939796283841133, -0.1670556515455246, -0.4065539538860321, 0.19823072850704193, 0.16894133388996124, 0.2490384578704834, 0.11936213821172714, 0.4036751091480255, -0.14810732007026672, 0.32131385803222656, -0.297195702791214, -0.34105566143989563, -0.32080742716789246, -0.11926115304231644, 0.1487073302268982, 0.16468411684036255, -0.16043373942375183, -0.4485117495059967, 0.5444661378860474], [0.28395000100135803, -0.05746040493249893, 0.09567883610725403, -0.04374121129512787, -0.029611313715577126, 0.11237947642803192, 0.032234419137239456, -0.10113348066806793, 0.1089489758014679, 0.2784653306007385, 0.168069526553154, -0.08779318630695343, -0.03379105031490326, -0.14188309013843536, 0.07454514503479004, 0.1673406958580017, 0.08847781270742416, -0.02082144096493721, -0.05375504493713379, -0.04906750097870827], [-0.21771125495433807, 0.04043921083211899, 0.10976549983024597, -0.01659153215587139, 0.09147600084543228, -0.04721588268876076, -0.13266468048095703, 0.02268834225833416, 0.002600295003503561, -0.13904663920402527, -0.05838290974497795, -0.07343842089176178, 0.008221627213060856, 0.019476788118481636, -0.19018715620040894, -0.051261428743600845, -0.06207197159528732, -0.1445169597864151, 0.08043280988931656, 0.018993135541677475], [0.4544588327407837, 0.17518091201782227, 0.128092959523201, 0.13358043134212494, -0.0464797206223011, 0.28384149074554443, -0.316238671541214, -0.14940699934959412, 0.25852933526039124, 0.09109571576118469, 0.07982581853866577, -0.17676636576652527, -0.5183766484260559, 0.10500113666057587, 0.12605132162570953, 0.4736667275428772, -0.15160702168941498, 0.016224663704633713, -0.2640659213066101, 0.21453741192817688], [0.2218848317861557, 0.2946162819862366, 0.4612671434879303, 0.008329152129590511, 0.09440608322620392, 0.3830193281173706, -0.22877134382724762, -0.07032287120819092, 0.23968186974525452, -0.036433976143598557, 0.12497343122959137, -0.1599631905555725, -0.38598161935806274, 0.022095127031207085, -0.06155432388186455, 0.35768961906433105, -0.3495086431503296, -0.29435035586357117, -0.17445708811283112, 0.15583091974258423], [-0.10133328288793564, 0.1375613659620285, 0.33048975467681885, -0.1466006487607956, 0.07359583675861359, -0.2828389108181, 0.1407671719789505, 0.27799513936042786, 0.3262748122215271, -0.1797425001859665, -0.07780557870864868, -0.09181354939937592, -0.12903885543346405, 0.15572340786457062, -0.2005978673696518, 0.20018666982650757, -0.22689440846443176, 0.027278397232294083, 0.25149422883987427, 0.25342169404029846], [-0.23578137159347534, -0.2768150866031647, -0.16245372593402863, -0.41276559233665466, 0.37783852219581604, 0.27832940220832825, -0.3897668123245239, -0.12146356701850891, 0.46079960465431213, 0.15322436392307281, 0.2996905446052551, -0.4459165930747986, -0.2910018265247345, -0.4066791832447052, 0.0066810352727770805, 0.22700399160385132, 0.07041775435209274, -0.3573073148727417, -0.2853654623031616, 1.089779019355774], [-0.1895640343427658, 0.2343265861272812, 0.06514476239681244, -0.11271779984235764, 0.26377710700035095, 0.1932748556137085, -0.04637574031949043, 0.1668841540813446, 0.342459499835968, -0.17604009807109833, 0.12135536968708038, 0.1462896764278412, -0.3334253430366516, -0.06868147104978561, -0.07746535539627075, -0.10123134404420853, -0.12223588675260544, -0.3139331340789795, -0.18717820942401886, 0.3508106470108032], [0.07558570802211761, -0.00622731214389205, -0.7741385102272034, -0.40102261304855347, -0.16409525275230408, -0.12289226800203323, 0.1048743799328804, 0.06585881114006042, -0.17198173701763153, -0.04384618252515793, -0.38087496161460876, -0.2466178685426712, 0.21689577400684357, 0.1452326774597168, -0.08473087102174759, -0.23379917442798615, 0.08330284059047699, 0.40893545746803284, 0.008572212420403957, -0.05057404562830925], [0.0895577222108841, 0.02766232006251812, 0.24082572758197784, 0.32491233944892883, 0.28925785422325134, 0.25594139099121094, 0.09703425318002701, 0.2228071689605713, 0.46451300382614136, -0.2818908095359802, -0.11525615304708481, -0.027730094268918037, -0.7622684240341187, -0.2047077715396881, -0.05888069048523903, 0.046666402369737625, 0.01226531621068716, -0.3153653144836426, -0.219082310795784, 0.0604710578918457], [0.20829440653324127, -0.27216464281082153, -0.34378641843795776, -0.49755164980888367, 0.022846341133117676, 0.009557889774441719, 0.5745201110839844, 0.3089529871940613, 0.8669407367706299, -0.6538445353507996, 0.07638391852378845, -0.2548997700214386, -0.9675341844558716, 0.011152474209666252, -0.24119891226291656, 0.10287010669708252, 0.15820783376693726, 0.10303181409835815, -0.6033381223678589, 0.30438145995140076], [0.0056066690012812614, 0.05673828721046448, -0.2936386168003082, 0.19436728954315186, 0.3374112844467163, 0.20420575141906738, -0.12124255299568176, 0.21480917930603027, 0.2125939428806305, -0.008224410004913807, -0.191453218460083, 0.10561682283878326, -0.055005043745040894, 0.19095928966999054, -0.06718960404396057, -0.17620094120502472, 0.01836833730340004, 0.18459239602088928, -0.16675683856010437, -0.3350699841976166], [-0.594066321849823, 0.3590526580810547, -0.06467616558074951, 0.6487555503845215, 0.04941462352871895, -0.007685569580644369, -0.4117434322834015, 0.15449918806552887, -0.1955835521221161, -0.04057872295379639, -0.2940196692943573, 0.24070295691490173, -0.1006137952208519, 0.42435166239738464, -0.4343928396701813, -0.33165040612220764, -0.08138630539178848, -0.36348503828048706, -0.21729588508605957, -0.16785478591918945], [-0.18503782153129578, -0.5200708508491516, -0.5619075894355774, -0.316866397857666, 0.21391241252422333, 0.24332588911056519, 0.10587988793849945, 0.08978726714849472, 0.1374732404947281, -0.2951394319534302, 0.13837406039237976, -0.4984287917613983, -0.11082043498754501, -0.35014447569847107, -0.024960320442914963, -0.14708489179611206, 0.2238098680973053, 0.02593100629746914, -0.705625593662262, 0.468467652797699], [-0.09520472586154938, -0.27617818117141724, -0.40074050426483154, -0.2892738878726959, -0.21476615965366364, -0.8559356927871704, 0.1786075085401535, 0.0640728622674942, 0.0753694549202919, -0.02468107081949711, -0.24446608126163483, -0.0965447723865509, 0.27366045117378235, -0.08901587128639221, -0.08717042207717896, -0.5073323249816895, 0.16831426322460175, 0.1472150832414627, 0.23999561369419098, -0.188101664185524], [-0.442848265171051, 0.41360709071159363, -0.1404959112405777, 0.34879693388938904, -0.17678028345108032, -0.32278385758399963, 0.13673581182956696, 0.026642898097634315, -0.01505701057612896, -0.11325103789567947, -0.4038452208042145, 0.4785083532333374, 0.002264686394482851, 0.049615442752838135, -0.24166740477085114, 0.04029150679707527, -0.08011934161186218, -0.13557645678520203, 0.12742288410663605, -0.16794553399085999], [-0.2510277330875397, -0.1034889817237854, 0.1221291571855545, -0.14853094518184662, 0.03798424080014229, -0.09961486607789993, -0.08902040868997574, 0.07758941501379013, 0.19600483775138855, -0.26489752531051636, 0.09751708060503006, 0.06300032883882523, -0.2613959014415741, 0.13575664162635803, -0.2241927832365036, -0.03828497603535652, 0.19233116507530212, 0.06508199870586395, 0.2076219618320465, 0.12468323111534119], [0.04606984928250313, 0.06191830337047577, -0.13914544880390167, -0.0632709413766861, -0.05935491621494293, 0.1912958323955536, -0.26894545555114746, -0.13135690987110138, -0.26674389839172363, 0.7156220078468323, -0.00735522760078311, -0.19336293637752533, 0.017305424436926842, 0.23232460021972656, 0.0239658672362566, 0.2710157036781311, -0.08768149465322495, 0.34461748600006104, -0.4563595950603485, -0.2853353023529053], [-0.11347156018018723, -0.10523851215839386, -0.3647598922252655, -0.14219267666339874, 0.13123926520347595, 0.030468448996543884, 0.07273860275745392, 0.036151401698589325, 0.32397884130477905, 0.062431737780570984, -0.09889876842498779, -0.1871722787618637, -0.18820072710514069, -0.15805986523628235, 0.039827991276979446, -0.05377361550927162, 0.26925379037857056, 0.19081272184848785, -0.13801385462284088, 0.298052042722702], [0.07676131278276443, 0.11153984814882278, -0.1080659031867981, -0.24633269011974335, -0.22824282944202423, -0.19019891321659088, 0.3814682066440582, 0.17629842460155487, 0.035060856491327286, -0.05713857337832451, 0.2374216467142105, -0.2531769573688507, -0.14076931774616241, 0.00490011740475893, 0.2025543749332428, 0.08325149118900299, 0.019093072041869164, 0.19815278053283691, -0.11338906735181808, -0.1532144993543625], [0.11888890713453293, 0.16229797899723053, 0.050625160336494446, 0.3365629315376282, 0.01778564602136612, 0.13877750933170319, -0.39024820923805237, -0.0418502539396286, -0.8127371668815613, 0.46815115213394165, -0.1845194548368454, 0.20366904139518738, 0.1226731613278389, 0.3268440365791321, 0.0072672367095947266, 0.06053515523672104, -0.1454445868730545, 0.12576134502887726, 0.3013463318347931, -0.5964301228523254], [0.3692963719367981, 0.002920297672972083, 0.27061980962753296, 0.13690629601478577, 0.3101441562175751, -0.10818342864513397, 0.32831472158432007, 0.24129188060760498, 0.14868593215942383, 0.26919203996658325, 0.0938081294298172, -0.0969337597489357, -0.36608898639678955, -0.25889384746551514, 0.0845647007226944, 0.020878469571471214, -0.05378600209951401, 0.026049213483929634, 0.18306615948677063, -0.03652269393205643], [0.38228845596313477, 0.1350604146718979, -0.13030226528644562, -0.07104308158159256, -0.12346887588500977, 0.00499361427500844, -0.09354674071073532, -0.08682738989591599, 0.11407723277807236, 0.18408085405826569, -0.019986329600214958, -0.2971140444278717, -0.018679114058613777, 0.13120250403881073, 0.17449575662612915, 0.2249290645122528, 0.10989522188901901, 0.24598246812820435, -0.04021185263991356, -0.05692170560359955], [0.6015419960021973, -0.022746512666344643, -0.2678276598453522, -0.1355135589838028, 0.10239409655332565, 0.04758058488368988, 0.07012571394443512, 0.04066399484872818, 0.0013231970369815826, -0.07341322302818298, 0.0950939878821373, -0.12604056298732758, -0.485194593667984, 0.09155703336000443, -0.08540287613868713, -0.16470156610012054, 0.20053032040596008, 0.16741348803043365, -0.12066963315010071, 0.21385589241981506], [-0.47511664032936096, -0.24251873791217804, -0.1782139241695404, 0.05814226344227791, -0.13328155875205994, -0.1161079928278923, -0.4489789307117462, -0.24438467621803284, -0.1868760883808136, 0.039777759462594986, -0.093672975897789, -0.05097273737192154, 0.6209651231765747, 0.0003730300231836736, -0.003172743832692504, -0.24388159811496735, -0.03570946305990219, 0.043365299701690674, 0.220350444316864, -0.07161615788936615], [0.21379992365837097, -0.05156070739030838, 0.15955393016338348, -0.20414718985557556, -0.2797928750514984, -0.23544800281524658, 0.3469086289405823, 0.045804738998413086, -0.21814139187335968, 0.2316974699497223, -0.20026299357414246, 0.12501627206802368, 0.3252892792224884, -0.05631643906235695, 0.08811693638563156, -0.018139300867915154, 0.007861527614295483, 0.12436426430940628, 0.1701963245868683, -0.4112001061439514], [0.24866001307964325, 0.16005423665046692, 0.42723947763442993, 0.22628729045391083, 0.19698740541934967, -0.2440352588891983, 0.08194231986999512, 0.2064516246318817, -0.06975018978118896, 0.012219252996146679, -0.17030327022075653, 0.2710649073123932, 0.050949517637491226, 0.25981226563453674, -0.26034772396087646, 0.2902412712574005, -0.3506172001361847, 0.19917722046375275, 0.15495991706848145, -0.552238404750824], [-0.3913416266441345, -0.025014346465468407, -0.22241227328777313, 0.06973481178283691, 0.02500804141163826, 0.027378220111131668, -0.039497148245573044, -0.2284660041332245, 0.21414361894130707, -0.2366720288991928, -0.014523275196552277, -0.05333191528916359, -0.12365654855966568, -0.10259738564491272, 0.02089010179042816, -0.23250240087509155, -0.13351555168628693, -0.1750187873840332, 0.10961023718118668, -0.01703205518424511], [0.3038119077682495, 0.4801557660102844, 0.4013916850090027, 0.16072523593902588, 0.4213066101074219, 0.34007444977760315, -0.178287073969841, 0.48763513565063477, -0.04553501307964325, -0.0927736759185791, -0.46170130372047424, -0.6862438917160034, -0.23062816262245178, 0.5105618238449097, -0.19388620555400848, 0.46232008934020996, -0.6441349387168884, -0.16870549321174622, -0.27117303013801575, -0.4980367124080658], [0.580080509185791, -0.026673706248402596, 0.3463483154773712, 0.2458505630493164, 0.20217733085155487, 0.2473643720149994, 0.03111102059483528, 0.20797018706798553, -0.02579866535961628, 0.3731267750263214, 0.08942674100399017, 0.09177073836326599, -0.11406480520963669, 0.06039353832602501, 0.09463755041360855, 0.20351168513298035, 0.04815981164574623, 0.04063163697719574, 0.0266412366181612, 0.09011992812156677], [0.3958847224712372, -0.042962152510881424, 0.22569631040096283, 0.052514176815748215, 0.35848480463027954, 0.014820463955402374, 0.13078635931015015, 0.3804420232772827, 0.04366312921047211, 0.19109795987606049, 0.017166202887892723, -0.19031774997711182, -0.12670375406742096, -0.06590455770492554, -0.26145049929618835, 0.0869719460606575, 0.043146830052137375, 0.09879101812839508, 0.06969135254621506, 0.17239710688591003], [0.16250215470790863, 0.41288459300994873, 0.030035458505153656, 0.31894317269325256, -0.15118646621704102, 0.17124523222446442, 0.04879692196846008, 0.22540034353733063, -0.13941596448421478, -0.33487188816070557, -0.2941359877586365, -0.2583751380443573, -0.09991393983364105, 0.4315284490585327, -0.12836089730262756, 0.21349823474884033, -0.3934439420700073, 0.02592066489160061, -0.05080849304795265, -0.2839885652065277], [-0.23464542627334595, 0.37548351287841797, -0.2405375838279724, -0.21998298168182373, -0.1206374242901802, -0.05288848280906677, 0.0037413209211081266, 0.15735065937042236, -0.08115538954734802, -0.5840298533439636, -0.39423179626464844, -0.3830220699310303, -0.14023457467556, 0.409846693277359, -0.24576355516910553, 0.08427886664867401, -0.18933600187301636, 0.14072346687316895, -0.042028892785310745, -0.1600470393896103], [0.7170257568359375, -0.029033534228801727, 0.11697624623775482, -0.17207933962345123, 0.5298421382904053, 0.7500324249267578, -0.3682425022125244, 0.26215261220932007, 0.19043311476707458, 0.11930935829877853, -0.005163375288248062, -0.5019059181213379, -0.4467264711856842, -0.25399428606033325, -0.002868403447791934, 0.5985224843025208, -0.07704633474349976, 0.06178858131170273, -0.7767269611358643, 0.4648231863975525], [0.18360595405101776, -0.021981144323945045, -0.3685714304447174, -0.4100664556026459, -0.2546757459640503, -0.3050398528575897, -0.29574328660964966, -0.09258734434843063, -0.36675965785980225, 0.054553233087062836, -0.21916502714157104, -0.019075468182563782, 0.25907665491104126, 0.04024975746870041, 0.03381984308362007, 0.17114593088626862, -0.08055103570222855, 0.29370591044425964, 0.34538134932518005, -0.13637208938598633], [-0.1424536406993866, -0.2355293482542038, -0.34072884917259216, -0.10928059369325638, -0.206429585814476, -0.3742382824420929, 0.21422968804836273, 0.09047769755125046, 0.04642155021429062, -0.13359665870666504, -0.17986170947551727, -0.06364025175571442, -0.01814281940460205, -0.14690430462360382, 0.09696417301893234, -0.0390525758266449, 0.16308283805847168, 0.2767329812049866, 0.2866467833518982, 0.12561437487602234], [0.33007189631462097, 0.09342243522405624, 0.5237798094749451, -0.2849768102169037, 0.5895415544509888, 0.7005370855331421, -0.3800734877586365, -0.032042209059000015, 0.4044444262981415, 0.08949464559555054, 0.08288277685642242, -0.7010975480079651, -0.5854917764663696, -0.03743357211351395, -0.3251417279243469, 0.5316031575202942, -0.17614628374576569, -0.31219717860221863, -0.7934626936912537, 0.35353395342826843], [-0.49579814076423645, 0.01344790868461132, -0.2384827435016632, 0.05995512008666992, -0.15002380311489105, 0.22287441790103912, -0.27582764625549316, -0.18591922521591187, -0.20652520656585693, 0.2876555323600769, -0.263610303401947, 0.20386239886283875, 0.13562344014644623, 0.26805379986763, -0.10736160725355148, -0.07890693843364716, 0.13598881661891937, -0.10881231725215912, 0.1055140346288681, -0.3288152813911438], [0.20772041380405426, -0.0698641762137413, 0.6278496980667114, 0.027008453384041786, -0.06849714368581772, 0.05408484861254692, 0.15485839545726776, -0.02475874125957489, -0.17472434043884277, 0.05897003784775734, 0.19196616113185883, 0.12475255876779556, 0.19945012032985687, -0.2547084391117096, -0.006901951972395182, 0.17302541434764862, 0.053588878363370895, -0.09856919199228287, 0.014136850833892822, -0.11635900288820267], [0.14887596666812897, -0.06885917484760284, 0.1668674796819687, 0.19919569790363312, -0.03971743956208229, 0.20931370556354523, -0.2739616334438324, -0.004033660050481558, 0.14136405289173126, 0.22333262860774994, 0.221924290060997, -0.32242336869239807, -0.1866806149482727, -0.11468294262886047, -0.021235045045614243, 0.3049854040145874, -0.048901308327913284, 0.0719871073961258, -0.21331222355365753, 0.23809756338596344], [0.6103014349937439, 0.046647295355796814, 0.47635865211486816, -0.03627512976527214, 0.694434404373169, 0.8224409818649292, 0.04558154195547104, 0.09239321202039719, 0.7685726881027222, -0.12914764881134033, 0.14028500020503998, -0.17882874608039856, -0.9298208355903625, -0.19336774945259094, -0.11705972254276276, 0.5585973262786865, 0.024041542783379555, -0.345385879278183, -0.5100765824317932, 0.3661852180957794], [0.4069756269454956, -0.008823332376778126, 0.5132945775985718, 0.11618079245090485, 0.09072650969028473, 0.2699631154537201, -0.11986647546291351, -0.24795137345790863, 0.009399423375725746, 0.4643765985965729, 0.1506340354681015, 0.08891341090202332, -0.04090818390250206, 0.05941769480705261, 0.033714111894369125, 0.2779288589954376, 0.12902477383613586, -0.07983336597681046, -0.0021696032490581274, -0.2144988477230072], [-0.3936929702758789, -0.013431711122393608, 0.2114015519618988, -0.022379305213689804, -0.04647339507937431, -0.23464035987854004, -0.06971001625061035, -0.026512574404478073, -0.12573988735675812, -0.20921385288238525, 0.008026440627872944, 0.054962579160928726, 0.20452862977981567, 0.042943209409713745, -0.18414999544620514, -0.10158375650644302, 0.0243446696549654, -0.13874982297420502, 0.2586820721626282, -0.03100559301674366], [0.4290570318698883, -0.21516984701156616, -0.16667526960372925, -0.015687141567468643, 0.05054301396012306, 0.2539542317390442, -0.06565886735916138, -0.03906215354800224, 0.4915650486946106, 0.14422433078289032, -0.030358726158738136, -0.23546481132507324, -0.6529646515846252, 0.021833602339029312, 0.03556329011917114, 0.14818686246871948, 0.2016276717185974, -0.013181437738239765, -0.2490866333246231, 0.2999125123023987], [0.044245291501283646, 0.048874616622924805, 0.2722141146659851, 0.1537335067987442, 0.27665460109710693, 0.202897846698761, -0.09968896210193634, -0.057561684399843216, 0.04175177961587906, 0.16420526802539825, -0.16402356326580048, -0.05287769436836243, -0.2747199237346649, -0.08790376037359238, -0.005866759456694126, 0.10192038118839264, -0.04090264067053795, -0.10340031236410141, -0.08852927386760712, -0.12533707916736603], [-0.23780211806297302, -0.12182090431451797, 0.13782325387001038, -0.04034457728266716, -0.09631150960922241, -0.25231850147247314, 0.2064608484506607, 0.14859335124492645, 0.1990276724100113, -0.11851014941930771, -0.14608170092105865, -0.02878108248114586, -0.012064911425113678, 0.06506118923425674, -0.19095449149608612, 0.04490998014807701, 0.04458475112915039, 0.03826409578323364, 0.2746870815753937, 0.18447045981884003], [0.5652317404747009, 0.6872020363807678, 0.12867428362369537, 0.434143990278244, 1.0060163736343384, 0.8547953963279724, -0.7920976281166077, 0.5538573861122131, 0.2363712638616562, -0.2923276722431183, -0.22588802874088287, 0.01675662212073803, -0.32767820358276367, 0.10046765953302383, -0.32797378301620483, 0.2210579365491867, -0.42024171352386475, -0.4726720154285431, -0.6856037378311157, 0.13105005025863647], [0.49573397636413574, 0.098112091422081, 0.6803156733512878, 0.011705604381859303, 0.23895730078220367, 0.11457391828298569, 0.28564852476119995, 0.1765012890100479, 0.2187676727771759, -0.06442956626415253, -0.17719371616840363, 0.08405061066150665, -0.5544991493225098, 0.2584378719329834, -0.23757272958755493, 0.31671464443206787, -0.367209792137146, -0.18336783349514008, -0.3136979639530182, 0.309097558259964]], "rec.bias_ih_l0": [0.28055158257484436, 0.24683745205402374, 0.5046465992927551, -0.0026706636417657137, 0.5152121782302856, 0.14226682484149933, -0.014357582665979862, 0.21134091913700104, 0.26799124479293823, 0.12249194085597992, -0.07203437387943268, -0.07690499722957611, 0.06722051650285721, -0.05623086169362068, -0.14008277654647827, -0.2013503909111023, 0.028219470754265785, -0.0624014288187027, 0.47053593397140503, 0.15908750891685486, 0.07025047391653061, 0.23279233276844025, -0.20201344788074493, 0.1364983171224594, 0.21589286625385284, 0.0643257349729538, 0.3320186138153076, 0.13042490184307098, 0.23465237021446228, 0.2651989459991455, -0.02380375750362873, -0.14812061190605164, -0.1693408340215683, -0.18537408113479614, 0.11229900270700455, 0.21083548665046692, 0.12359042465686798, 0.17409658432006836, 0.07074088603258133, -0.0841626226902008, 0.1970079392194748, 0.04228938743472099, 0.1668747365474701, 0.05464863032102585, -0.043554145842790604, 0.09333690255880356, -0.1859738677740097, 0.27063536643981934, -0.06184150651097298, 0.08999449014663696, -0.04944921284914017, -0.03322964906692505, -0.0844680517911911, -0.09829596430063248, -0.11395804584026337, -0.05951407924294472, -0.13081400096416473, 0.01969286985695362, 0.2598651647567749, -0.21580514311790466, 0.5051723122596741, 0.09224165230989456, 0.2744162082672119, 0.29293596744537354, 0.5940650105476379, 0.21460941433906555, 0.07526412606239319, -0.07328882068395615, 0.24974505603313446, 0.027415789663791656, 0.13810448348522186, 0.13226114213466644, -0.14804232120513916, 0.004808771423995495, 0.02180836722254753, 0.06391413509845734, -0.08162989467382431, -0.00030507438350468874, 0.2401426136493683, 0.42299026250839233], "rec.bias_hh_l0": [0.3982219099998474, 0.27841922640800476, 0.4170325696468353, 0.10393407195806503, 0.3678496778011322, 0.30573028326034546, 0.28872010111808777, 0.28054457902908325, 0.3087267279624939, -0.14191554486751556, -0.07679696381092072, 0.12260638177394867, 0.1519770324230194, -0.011245856061577797, -0.19455274939537048, -0.3544333279132843, -0.02407149039208889, -0.07685650885105133, 0.40026456117630005, 0.4602850675582886, 0.07854944467544556, 0.2842038571834564, -0.3659844398498535, 0.2583472430706024, 0.27228155732154846, 0.09144620597362518, 0.3655206859111786, -0.055752724409103394, 0.0431327149271965, 0.21201008558273315, -0.0008604522445239127, -0.10437355190515518, 0.1175849512219429, -0.22470538318157196, 0.03148018941283226, 0.10988529771566391, 0.04366275295615196, 0.06784100085496902, -0.19758407771587372, 0.07093937695026398, 0.09468971937894821, 0.079066202044487, -0.015266482718288898, -0.062471989542245865, 0.2555026710033417, -0.23473045229911804, 0.1786613017320633, -0.01890942081809044, -0.11849340796470642, -0.14000733196735382, -0.20853309333324432, 0.05616427958011627, 0.16092374920845032, 0.2861902415752411, -0.24536174535751343, 0.180515319108963, -0.049167267978191376, -0.007113035302609205, -0.018661368638277054, 0.1066853404045105, 0.5507761240005493, 0.3021531105041504, 0.08965304493904114, 0.23666110634803772, 0.3283562660217285, 0.21775025129318237, 0.19194228947162628, 0.21012666821479797, 0.4239482879638672, 0.1570725291967392, 0.1770540177822113, 0.1527862697839737, -0.0994076058268547, -0.003570475848391652, -0.009129722602665424, -0.11941204965114594, -0.08321923762559891, 0.1178828626871109, 0.496482789516449, 0.3501434326171875], "lin.weight": [[0.2785126566886902, -0.28337693214416504, 0.00015538099978584796, 0.04162987321615219, 0.32910874485969543, 0.21194320917129517, 0.12918603420257568, 0.23286506533622742, -0.2688048779964447, -0.038956254720687866, -0.0034031521063297987, 0.3901941180229187, -0.47747212648391724, -0.13659755885601044, -0.07538661360740662, -0.10053331404924393, 0.16512726247310638, 0.16963054239749908, -0.7875711917877197, 0.12315874546766281]], "lin.bias": [0.03958031162619591]}}