 {
    "in_shape": [
        null,
        null,
        1
    ],
    "layers": [
        {
            "type": "lstm",
            "activation": "",
            "shape": [
                null,
                null,
                16
            ],
            "weights": [
                [
                    [
                        -0.10029035806655884,
                        0.057807113975286484,
                        -0.07269418984651566,
                        -0.026201199740171432,
                        -0.16751745343208313,
                        0.0005706293159164488,
                        -0.1134122982621193,
                        -0.00833036471158266,
                        -0.04712092876434326,
                        0.12053340673446655,
                        0.022258685901761055,
                        0.2611478567123413,
                        -0.22535499930381775,
                        -0.11032707244157791,
                        -0.010670879855751991,
                        -0.3720203936100006,
                        0.09924440085887909,
                        0.06698538362979889,
                        0.23161089420318604,
                        0.047187525779008865,
                        -0.2805402874946594,
                        -0.2030669003725052,
                        -0.018835291266441345,
                        0.003434697864577174,
                        -0.037923771888017654,
                        -0.10219888389110565,
                        0.027368124574422836,
                        0.14014314115047455,
                        -0.19715560972690582,
                        -0.06204209849238396,
                        0.010435918346047401,
                        -0.5210267305374146,
                        -0.22646884620189667,
                        -0.038243941962718964,
                        2.465951681137085,
                        -0.12565451860427856,
                        0.08408496528863907,
                        0.021323665976524353,
                        -0.3199813961982727,
                        -0.06004976108670235,
                        -0.25931963324546814,
                        0.6013603210449219,
                        -0.27038711309432983,
                        0.28124716877937317,
                        0.08646374195814133,
                        0.46600696444511414,
                        -0.01966146193444729,
                        -0.12970341742038727,
                        -0.24726730585098267,
                        0.04748430848121643,
                        1.6469191905343905e-05,
                        0.02816280722618103,
                        -0.28440341353416443,
                        -0.07186081260442734,
                        0.15121173858642578,
                        -0.012610994279384613,
                        -0.04984645918011665,
                        -0.20636269450187683,
                        0.2569243907928467,
                        0.04220987483859062,
                        -0.215375155210495,
                        0.028078021481633186,
                        -0.1170724630355835,
                        -0.14378118515014648
                    ]
                ],
                [
                    [
                        0.5877469778060913,
                        -0.08493524044752121,
                        -0.09773670136928558,
                        0.14762043952941895,
                        -0.03265968710184097,
                        0.5098946690559387,
                        0.1816224455833435,
                        0.14192801713943481,
                        0.08235583454370499,
                        -0.5707995891571045,
                        -0.2645939886569977,
                        0.09812796115875244,
                        0.42100533843040466,
                        0.3003106415271759,
                        -0.016330644488334656,
                        -0.35176804661750793,
                        -0.5560086369514465,
                        0.3040197193622589,
                        -0.7017279267311096,
                        -0.6116302013397217,
                        0.05164961889386177,
                        -0.29970526695251465,
                        0.18398526310920715,
                        0.06654278934001923,
                        0.18743382394313812,
                        -0.2615329325199127,
                        0.030502701178193092,
                        -0.03905728459358215,
                        0.4843028783798218,
                        -0.12095329165458679,
                        -0.18740111589431763,
                        -0.38844648003578186,
                        0.10783625394105911,
                        0.1789577603340149,
                        0.507686972618103,
                        0.04555036500096321,
                        0.20168916881084442,
                        -0.07725580036640167,
                        0.1817893236875534,
                        0.19137157499790192,
                        -0.1314546763896942,
                        0.29595547914505005,
                        -0.27751076221466064,
                        -0.8807693123817444,
                        0.39948487281799316,
                        0.024784749373793602,
                        -0.008442658931016922,
                        -0.2511654794216156,
                        0.13899336755275726,
                        -0.06347895413637161,
                        -0.044319041073322296,
                        -0.17807537317276,
                        -0.34156426787376404,
                        0.09906184673309326,
                        -0.015500319190323353,
                        0.09302911907434464,
                        0.06922706216573715,
                        -0.3819836676120758,
                        -0.5389871597290039,
                        0.2672576904296875,
                        0.39366158843040466,
                        -0.0007228687754832208,
                        0.10547493398189545,
                        -0.3138774633407593
                    ],
                    [
                        0.3029630482196808,
                        0.04660457745194435,
                        -0.2090303599834442,
                        0.38342908024787903,
                        0.17226305603981018,
                        0.025259146466851234,
                        0.27657946944236755,
                        3.550115070538595e-05,
                        -0.13300764560699463,
                        -0.15376020967960358,
                        -0.04666890576481819,
                        0.10106232017278671,
                        -0.04939523711800575,
                        0.005701681133359671,
                        -0.3515942692756653,
                        -0.04512649029493332,
                        -0.76755291223526,
                        0.5834555625915527,
                        0.126275435090065,
                        -0.6566743850708008,
                        -0.03292640298604965,
                        -0.5664246082305908,
                        -0.5764281749725342,
                        0.039711400866508484,
                        0.14362353086471558,
                        0.014848782680928707,
                        -0.13199548423290253,
                        -0.4325237572193146,
                        -0.06284383684396744,
                        -0.27816787362098694,
                        -0.10213696211576462,
                        -0.09320974349975586,
                        -0.15983575582504272,
                        -0.3827851712703705,
                        -0.03754005581140518,
                        -0.16541677713394165,
                        -0.2531822919845581,
                        0.5946981906890869,
                        -0.1725022792816162,
                        0.4494795501232147,
                        -0.20987191796302795,
                        0.02094065025448799,
                        -0.19997195899486542,
                        0.0637093260884285,
                        0.06997188180685043,
                        0.03414606675505638,
                        0.2952418327331543,
                        0.08842600882053375,
                        -0.09577268362045288,
                        -1.864427924156189,
                        -0.24268418550491333,
                        -0.13991877436637878,
                        -0.3009016811847687,
                        -0.05187276750802994,
                        0.03234965354204178,
                        0.02171541191637516,
                        -0.1551951766014099,
                        0.13035684823989868,
                        0.377640962600708,
                        -0.18379326164722443,
                        -0.12266944348812103,
                        -0.10948669165372849,
                        -0.378343790769577,
                        -0.21370729804039001
                    ],
                    [
                        0.2788741886615753,
                        0.08565010875463486,
                        0.13946980237960815,
                        -0.13533823192119598,
                        0.037269797176122665,
                        -0.13577887415885925,
                        -0.1929599642753601,
                        0.005279394797980785,
                        -0.08151566982269287,
                        -0.18350714445114136,
                        -0.027080997824668884,
                        0.33152034878730774,
                        -0.21703296899795532,
                        1.3601588010787964,
                        0.022273298352956772,
                        -0.24774989485740662,
                        -0.2949644923210144,
                        0.10588151961565018,
                        -0.45003777742385864,
                        -0.022155487909913063,
                        0.007279300130903721,
                        -0.03415866196155548,
                        -0.13522930443286896,
                        0.10197533667087555,
                        -0.08037003874778748,
                        -0.15084142982959747,
                        -0.05309979245066643,
                        -0.01918834075331688,
                        -0.2604067921638489,
                        -0.1759459376335144,
                        -0.045903049409389496,
                        -0.057640984654426575,
                        -0.2128172516822815,
                        -0.24939173460006714,
                        -0.11914526671171188,
                        -0.13801290094852448,
                        0.18268151581287384,
                        -0.31165626645088196,
                        -0.07403726875782013,
                        0.07541437447071075,
                        0.29814401268959045,
                        2.9793450832366943,
                        -0.36589863896369934,
                        -0.01462734118103981,
                        0.09181447327136993,
                        0.9813629388809204,
                        0.16227716207504272,
                        1.2801297903060913,
                        -0.10467815399169922,
                        -0.17631155252456665,
                        0.008006933145225048,
                        0.16834589838981628,
                        -0.4837428629398346,
                        -0.05301189050078392,
                        -0.12306414544582367,
                        -0.003144997637718916,
                        -0.05816845968365669,
                        -0.19122815132141113,
                        0.31587883830070496,
                        0.20769575238227844,
                        -0.2264992892742157,
                        0.06410393863916397,
                        -0.0019031997071579099,
                        -0.40044692158699036
                    ],
                    [
                        0.5238422751426697,
                        -0.3551987111568451,
                        -0.4121284782886505,
                        0.5593050122261047,
                        0.05110199749469757,
                        0.13092604279518127,
                        0.545786440372467,
                        0.1027105301618576,
                        -0.12743204832077026,
                        0.136393204331398,
                        -0.47443169355392456,
                        0.2872259020805359,
                        0.009973068721592426,
                        -0.736599862575531,
                        -0.25011345744132996,
                        0.28009864687919617,
                        -0.19965985417366028,
                        -0.3153640031814575,
                        0.9185596704483032,
                        -0.9124895930290222,
                        -0.25431933999061584,
                        -0.6477810740470886,
                        -0.8002089262008667,
                        -0.33811935782432556,
                        0.23808886110782623,
                        0.009367034770548344,
                        -0.172247976064682,
                        -0.0602751187980175,
                        0.14252306520938873,
                        -0.5890568494796753,
                        0.1808367669582367,
                        0.8450206518173218,
                        -0.0782611072063446,
                        -0.5178607106208801,
                        0.43873360753059387,
                        0.1845426708459854,
                        0.6377504467964172,
                        -0.2550877034664154,
                        0.047555260360240936,
                        0.04355508089065552,
                        0.04469551891088486,
                        0.37337109446525574,
                        0.08244743198156357,
                        0.1272241324186325,
                        0.1868123561143875,
                        -0.373264342546463,
                        0.06512658298015594,
                        0.7961429953575134,
                        -0.35979217290878296,
                        -0.22690449655056,
                        -0.5247094631195068,
                        -0.9658874869346619,
                        0.5233399868011475,
                        -0.17265474796295166,
                        -0.21646256744861603,
                        -0.14631013572216034,
                        -0.16103579103946686,
                        0.07914668321609497,
                        -0.3849142789840698,
                        -0.1524544209241867,
                        -0.016189860180020332,
                        -0.5295755863189697,
                        -0.040604423731565475,
                        -0.2893866300582886
                    ],
                    [
                        0.929745614528656,
                        -0.3746795356273651,
                        -0.5194475650787354,
                        1.1233400106430054,
                        -0.049784526228904724,
                        0.7636708617210388,
                        0.9120482206344604,
                        -0.055085379630327225,
                        -0.2056662142276764,
                        -0.2835150957107544,
                        -0.5155142545700073,
                        0.3343489468097687,
                        0.05444828048348427,
                        0.5333150625228882,
                        -0.3372277021408081,
                        -0.4529704749584198,
                        -1.097604751586914,
                        -0.23622481524944305,
                        -0.25973305106163025,
                        -1.196158528327942,
                        -0.6047322750091553,
                        -1.1079496145248413,
                        -0.9963740110397339,
                        -0.4015558362007141,
                        0.23445828258991241,
                        0.2543613314628601,
                        0.04217914119362831,
                        -0.4791734516620636,
                        0.06177468225359917,
                        -0.7957071661949158,
                        0.05925700068473816,
                        -0.22822114825248718,
                        0.1830081194639206,
                        0.41679060459136963,
                        -0.3999575674533844,
                        -0.023062726482748985,
                        0.4947490990161896,
                        -0.19398298859596252,
                        0.13738735020160675,
                        0.006474172230809927,
                        0.7903172373771667,
                        0.07641942799091339,
                        0.05020040646195412,
                        0.043150242418050766,
                        0.5964208841323853,
                        -0.059712979942560196,
                        -0.0696801170706749,
                        -0.19133669137954712,
                        -0.13708271086215973,
                        0.21374393999576569,
                        -0.6186955571174622,
                        -0.35427039861679077,
                        -0.9813350439071655,
                        -0.02648921310901642,
                        -0.43219199776649475,
                        -0.2901800274848938,
                        -0.22093085944652557,
                        -0.3289584517478943,
                        -0.34996938705444336,
                        -0.34365373849868774,
                        0.0033978240098804235,
                        -0.4232110381126404,
                        -0.17803937196731567,
                        -0.49940013885498047
                    ],
                    [
                        0.05156472697854042,
                        0.02079153247177601,
                        0.05866901949048042,
                        -0.406421422958374,
                        0.06152321770787239,
                        -0.0001452800934202969,
                        0.129134863615036,
                        0.016913430765271187,
                        0.008169899694621563,
                        -0.013719267211854458,
                        -0.020728006958961487,
                        -0.08005429059267044,
                        0.06030135974287987,
                        0.0856328010559082,
                        0.036415014415979385,
                        -0.03108098730444908,
                        -0.38213619589805603,
                        0.1182403415441513,
                        -0.09307021647691727,
                        0.027307134121656418,
                        0.0573037713766098,
                        0.2570214569568634,
                        0.08693128079175949,
                        -0.046994924545288086,
                        -0.04085594043135643,
                        -0.01408369094133377,
                        -0.15638481080532074,
                        -0.04486337676644325,
                        0.09912272542715073,
                        -0.1541142612695694,
                        -0.06318248808383942,
                        -0.14759039878845215,
                        0.29664936661720276,
                        -0.1042376384139061,
                        0.04189170151948929,
                        0.08087433129549026,
                        -0.05374940112233162,
                        0.253345251083374,
                        -0.8005912899971008,
                        -0.2511305809020996,
                        -0.04449767246842384,
                        0.17847532033920288,
                        -0.006500961724668741,
                        -0.09751693904399872,
                        0.1929968297481537,
                        -0.012127718888223171,
                        0.14857791364192963,
                        0.03514551743865013,
                        0.0713246762752533,
                        0.038834597915410995,
                        0.07330591976642609,
                        0.05569084361195564,
                        -0.022053852677345276,
                        -0.03520584851503372,
                        -0.024766597896814346,
                        0.034702517092227936,
                        0.010182690806686878,
                        0.06003884971141815,
                        -0.08341789245605469,
                        0.0877758339047432,
                        0.05857574939727783,
                        0.09482535719871521,
                        0.08287324011325836,
                        -0.03924546763300896
                    ],
                    [
                        0.10298798233270645,
                        0.021787764504551888,
                        -0.032990578562021255,
                        0.08346081525087357,
                        0.07661191374063492,
                        0.016795434057712555,
                        -0.3178102672100067,
                        0.06831155717372894,
                        0.0470464713871479,
                        0.06223674491047859,
                        -0.08703088015317917,
                        -0.6446124911308289,
                        0.1284690499305725,
                        -0.07936316728591919,
                        -0.04368008300662041,
                        -0.021796641871333122,
                        0.04240422323346138,
                        0.16869385540485382,
                        0.02518981136381626,
                        -0.07852360606193542,
                        0.2659651041030884,
                        -0.32519853115081787,
                        -0.15826387703418732,
                        0.1379736065864563,
                        0.06775268912315369,
                        0.19238989055156708,
                        -0.08036762475967407,
                        -0.3553013503551483,
                        0.20969749987125397,
                        -0.06832272559404373,
                        -0.1330472230911255,
                        -0.11948507279157639,
                        0.07499973475933075,
                        0.23023489117622375,
                        0.03244853392243385,
                        -0.2054292857646942,
                        -0.15374310314655304,
                        0.616355299949646,
                        0.3684174716472626,
                        -0.8576903343200684,
                        0.14239808917045593,
                        0.30397942662239075,
                        -0.10142301768064499,
                        -0.09180134534835815,
                        -0.015050224959850311,
                        -0.06036640703678131,
                        -0.21737848222255707,
                        0.06209893897175789,
                        0.3822201192378998,
                        -0.12322726845741272,
                        -0.016554050147533417,
                        -0.10626006871461868,
                        0.15024685859680176,
                        -0.2464662790298462,
                        -0.2601943612098694,
                        0.04659226909279823,
                        0.03918708860874176,
                        -0.1307603418827057,
                        -0.08454517275094986,
                        -0.298435777425766,
                        0.10543326288461685,
                        0.02516448125243187,
                        -0.04561443254351616,
                        -0.09471898525953293
                    ],
                    [
                        0.0578383170068264,
                        0.15848039090633392,
                        0.121619313955307,
                        -0.028445951640605927,
                        -0.17945849895477295,
                        -0.0015789337921887636,
                        -0.3293151557445526,
                        0.024458518251776695,
                        0.046287260949611664,
                        0.06079607456922531,
                        0.027996577322483063,
                        -0.45940327644348145,
                        0.027549680322408676,
                        -0.009167846292257309,
                        -0.03971096873283386,
                        0.11923746019601822,
                        0.008353964425623417,
                        0.28783372044563293,
                        0.12186197936534882,
                        0.16055582463741302,
                        -0.27778953313827515,
                        0.07529747486114502,
                        -0.10726161301136017,
                        -0.14925585687160492,
                        0.09898358583450317,
                        0.0674104243516922,
                        0.046466611325740814,
                        -0.4779605567455292,
                        -0.026459503918886185,
                        -0.07439788430929184,
                        -0.08668404817581177,
                        0.022685052827000618,
                        -0.01813318580389023,
                        -0.24704064428806305,
                        -0.11170895397663116,
                        -0.22234642505645752,
                        -0.04061254858970642,
                        -0.6157321929931641,
                        0.36542025208473206,
                        -0.2280590683221817,
                        -0.35013890266418457,
                        0.3220841884613037,
                        -0.13277778029441833,
                        0.07430680841207504,
                        0.059002798050642014,
                        0.023216381669044495,
                        0.1546890288591385,
                        0.20259173214435577,
                        -0.1628018170595169,
                        0.06664562225341797,
                        0.11587993800640106,
                        -0.06009972468018532,
                        -0.07356175035238266,
                        0.10931354761123657,
                        -0.03338500112295151,
                        0.08324788510799408,
                        0.03608572483062744,
                        0.030217792838811874,
                        0.03367532044649124,
                        0.1324394941329956,
                        0.034683648496866226,
                        0.2007569968700409,
                        -0.128123939037323,
                        -0.0300272349268198
                    ],
                    [
                        -0.20605750381946564,
                        0.03844388574361801,
                        -0.009055301547050476,
                        0.5482934713363647,
                        -0.13377578556537628,
                        0.025411175563931465,
                        0.037205882370471954,
                        -0.041155606508255005,
                        0.045054592192173004,
                        0.26055657863616943,
                        -0.005464569665491581,
                        -0.09616807848215103,
                        -0.029429635033011436,
                        -0.6162581443786621,
                        0.007985235191881657,
                        0.02858165092766285,
                        0.05222022905945778,
                        -0.07242392003536224,
                        0.016691310331225395,
                        0.24375683069229126,
                        0.0523514561355114,
                        -0.028179245069622993,
                        0.06844682991504669,
                        -0.0684298500418663,
                        0.005845954641699791,
                        -0.044867221266031265,
                        -0.37833380699157715,
                        0.13401544094085693,
                        0.03657907620072365,
                        0.04866127297282219,
                        -0.1427946239709854,
                        0.02257266268134117,
                        0.060756612569093704,
                        0.029194148257374763,
                        -0.3789466917514801,
                        -0.45468002557754517,
                        -0.03477154299616814,
                        0.16113236546516418,
                        -0.25446823239326477,
                        -0.3037671744823456,
                        -0.6972859501838684,
                        0.49154287576675415,
                        0.5022892951965332,
                        -0.12945151329040527,
                        0.48238760232925415,
                        -0.117674820125103,
                        0.2436039000749588,
                        0.04272310808300972,
                        -0.0991085022687912,
                        -0.18357674777507782,
                        0.01611575484275818,
                        -0.15885533392429352,
                        0.4275740087032318,
                        0.14780698716640472,
                        0.0942765474319458,
                        0.06394819170236588,
                        0.06317653506994247,
                        0.02797943726181984,
                        0.07898897677659988,
                        0.18172423541545868,
                        0.061027754098176956,
                        0.03920828551054001,
                        -0.01511834841221571,
                        0.09850228577852249
                    ],
                    [
                        0.3721606135368347,
                        -0.20959313213825226,
                        0.17612962424755096,
                        0.7460353970527649,
                        -0.17206686735153198,
                        0.10281813889741898,
                        0.2256849855184555,
                        -0.03387866169214249,
                        -0.10846336930990219,
                        -0.2025020718574524,
                        -0.04942052438855171,
                        0.08688664436340332,
                        0.23037251830101013,
                        0.16836555302143097,
                        -0.08434312790632248,
                        -0.07979588210582733,
                        0.28878146409988403,
                        0.32437965273857117,
                        0.14280623197555542,
                        -0.2877597510814667,
                        -0.01756136119365692,
                        -0.04382852837443352,
                        0.1296449899673462,
                        -0.028877610340714455,
                        -0.08030278980731964,
                        -0.1404859721660614,
                        0.24633421003818512,
                        -0.04336113855242729,
                        0.17004282772541046,
                        -0.24340009689331055,
                        0.40049031376838684,
                        0.12488072365522385,
                        -0.7587149739265442,
                        0.18360349535942078,
                        -0.23021522164344788,
                        -0.5621982216835022,
                        0.11932846903800964,
                        -0.2532910704612732,
                        -0.41532251238822937,
                        -0.20566822588443756,
                        -0.7353106737136841,
                        0.8747529983520508,
                        -2.7269208431243896,
                        0.013004138134419918,
                        -0.04453141614794731,
                        0.02033623680472374,
                        -0.5878124833106995,
                        0.8811652064323425,
                        -0.3554706871509552,
                        -0.23057223856449127,
                        0.07006900757551193,
                        0.6920070052146912,
                        0.14515726268291473,
                        -0.24402235448360443,
                        0.00317126652225852,
                        -0.28051111102104187,
                        -0.1331343650817871,
                        0.12430447340011597,
                        -0.5791712403297424,
                        0.22290225327014923,
                        0.10177134722471237,
                        -0.08375091850757599,
                        0.09387876838445663,
                        -0.332672119140625
                    ],
                    [
                        -0.36861085891723633,
                        0.09162434190511703,
                        -0.23302683234214783,
                        0.021694790571928024,
                        0.16705983877182007,
                        -0.03299493342638016,
                        0.00697166146710515,
                        -0.13589134812355042,
                        -0.06556279212236404,
                        0.999940812587738,
                        -0.07103575766086578,
                        -0.06821038573980331,
                        -0.03011099435389042,
                        -0.23377099633216858,
                        0.16407056152820587,
                        -0.3481965661048889,
                        -0.4374227225780487,
                        -0.24449263513088226,
                        0.17786863446235657,
                        0.017640041187405586,
                        -0.04259977489709854,
                        -0.0861353650689125,
                        -0.2082947939634323,
                        -0.014911329373717308,
                        0.015280766412615776,
                        0.1656143218278885,
                        0.07459934055805206,
                        -0.1442631632089615,
                        -0.15793533623218536,
                        -0.09888485819101334,
                        0.4105638563632965,
                        -0.3236323595046997,
                        -0.018792878836393356,
                        -0.7610582709312439,
                        -0.07721254229545593,
                        0.03688282147049904,
                        -0.07013599574565887,
                        0.01986180804669857,
                        0.02052410878241062,
                        -0.030231541022658348,
                        -0.2866666316986084,
                        0.26134148240089417,
                        0.8329622149467468,
                        0.025788307189941406,
                        0.4686846435070038,
                        0.044257767498493195,
                        1.0651438236236572,
                        0.09135779738426208,
                        -0.11709187179803848,
                        2.7209630012512207,
                        -0.23432543873786926,
                        -0.32761508226394653,
                        -0.3490043580532074,
                        -0.09409524500370026,
                        -0.20112311840057373,
                        0.24630597233772278,
                        -0.058318424969911575,
                        -0.12775994837284088,
                        0.18081800639629364,
                        0.022310346364974976,
                        -0.07557418197393417,
                        0.041285719722509384,
                        -0.11403274536132812,
                        0.023917527869343758
                    ],
                    [
                        0.3186178207397461,
                        -0.11214384436607361,
                        -0.21695978939533234,
                        0.12912912666797638,
                        0.22202539443969727,
                        0.39634037017822266,
                        0.3753460943698883,
                        0.19454699754714966,
                        -0.1413537710905075,
                        -0.23441508412361145,
                        -0.11599519103765488,
                        0.21689574420452118,
                        -0.09980599582195282,
                        0.4668079912662506,
                        -0.11137252300977707,
                        -0.17021673917770386,
                        -0.498430460691452,
                        -0.17485745251178741,
                        -0.017736384645104408,
                        -0.24130260944366455,
                        -0.015059099532663822,
                        -0.21778422594070435,
                        -0.14675770699977875,
                        -0.071983702480793,
                        0.022677553817629814,
                        -0.31120967864990234,
                        -0.0822194293141365,
                        -0.21744218468666077,
                        -0.13026811182498932,
                        -0.021000174805521965,
                        0.2589009702205658,
                        0.1527605801820755,
                        -0.24534137547016144,
                        -0.10124386101961136,
                        -0.10928596556186676,
                        -0.2587750256061554,
                        0.1465771347284317,
                        -0.024570103734731674,
                        -0.023453088477253914,
                        -1.0220216512680054,
                        -0.11301099509000778,
                        0.6447567343711853,
                        0.4241238832473755,
                        0.18018078804016113,
                        0.16429807245731354,
                        0.11189866811037064,
                        0.2590762972831726,
                        0.08194851130247116,
                        -0.371733695268631,
                        -0.014791303314268589,
                        -0.2592567801475525,
                        0.003211430972442031,
                        0.06338521093130112,
                        0.1449149250984192,
                        0.12793675065040588,
                        -0.06122226640582085,
                        -0.1537412703037262,
                        -0.2490738332271576,
                        0.10353515297174454,
                        -0.13598795235157013,
                        -0.136636883020401,
                        -0.06641208380460739,
                        -0.1351996511220932,
                        -0.10893626511096954
                    ],
                    [
                        0.3706994354724884,
                        0.045155469328165054,
                        -0.013318688608705997,
                        0.5272484421730042,
                        -0.06343517452478409,
                        0.11615490913391113,
                        0.008306090719997883,
                        -0.04509182646870613,
                        0.06035791337490082,
                        0.11821378022432327,
                        -0.15832069516181946,
                        -0.021672245115041733,
                        0.14120666682720184,
                        0.21751360595226288,
                        -0.049282658845186234,
                        -0.20139242708683014,
                        -0.0037426683120429516,
                        0.261376291513443,
                        0.004332989454269409,
                        -0.14367584884166718,
                        0.05602521449327469,
                        -0.0467589795589447,
                        0.16823658347129822,
                        -0.19244274497032166,
                        0.07959991693496704,
                        -0.020959170535206795,
                        -0.3004192113876343,
                        0.19426926970481873,
                        0.1944936215877533,
                        0.07501843571662903,
                        -0.12775704264640808,
                        -0.15783435106277466,
                        0.002793887397274375,
                        -0.34117358922958374,
                        0.16547627747058868,
                        -0.6147814989089966,
                        -0.001470665680244565,
                        -0.0662338063120842,
                        -0.004431755281984806,
                        0.05997097119688988,
                        0.5294003486633301,
                        -0.43373867869377136,
                        -0.48994824290275574,
                        -0.14355874061584473,
                        0.15170277655124664,
                        -0.02303401008248329,
                        0.4102652966976166,
                        0.012440678663551807,
                        0.17934146523475647,
                        0.37087440490722656,
                        0.015787363052368164,
                        0.12463032454252243,
                        -0.04237540066242218,
                        0.33742937445640564,
                        0.01423762645572424,
                        -0.05891524255275726,
                        0.07110099494457245,
                        -0.31470417976379395,
                        -0.47984805703163147,
                        0.06593040376901627,
                        0.17951272428035736,
                        0.1560562402009964,
                        -0.08513135462999344,
                        -0.16563455760478973
                    ],
                    [
                        -0.07961975038051605,
                        0.07272051274776459,
                        -0.053666580468416214,
                        -0.369780570268631,
                        -0.25577592849731445,
                        -0.002038747537881136,
                        0.03528127446770668,
                        0.03189651668071747,
                        -0.030606430023908615,
                        -0.05957063287496567,
                        -0.061320509761571884,
                        -0.05877244099974632,
                        -0.11814945936203003,
                        0.10652147978544235,
                        -0.018320614472031593,
                        -0.13410206139087677,
                        0.2424364984035492,
                        0.24840478599071503,
                        -0.022598763927817345,
                        0.1452886015176773,
                        -0.27129650115966797,
                        -0.16610364615917206,
                        0.1872256100177765,
                        0.03933423385024071,
                        -0.01894596591591835,
                        0.06691012531518936,
                        0.05074360966682434,
                        -0.003737454069778323,
                        -0.08978644758462906,
                        0.16200153529644012,
                        0.07522346079349518,
                        -0.3056999444961548,
                        0.025659017264842987,
                        -0.10538489371538162,
                        -1.896151065826416,
                        -0.3170906603336334,
                        0.07174791395664215,
                        -0.015233725309371948,
                        0.23947784304618835,
                        0.015603075735270977,
                        0.5690653920173645,
                        -0.840846836566925,
                        0.1648482084274292,
                        -0.18344244360923767,
                        0.028330959379673004,
                        -0.39012962579727173,
                        0.09128262102603912,
                        -0.14400608837604523,
                        -0.00203054491430521,
                        0.2915358543395996,
                        -0.01117867510765791,
                        -0.036243341863155365,
                        -0.09027405083179474,
                        -0.0808534324169159,
                        0.21568772196769714,
                        0.05293770134449005,
                        -0.03613252565264702,
                        -0.17135527729988098,
                        -0.08562689274549484,
                        0.10455460846424103,
                        -0.11295732110738754,
                        0.024260424077510834,
                        -0.11176615953445435,
                        0.12251877784729004
                    ],
                    [
                        0.35351982712745667,
                        -0.030870823189616203,
                        -0.11582303792238235,
                        0.12064306437969208,
                        0.16579529643058777,
                        -0.025715522468090057,
                        0.0821676030755043,
                        0.1446525603532791,
                        0.0035609917249530554,
                        0.061657439917325974,
                        -0.35183900594711304,
                        0.004105056636035442,
                        0.13245733082294464,
                        -0.0206394512206316,
                        0.055504366755485535,
                        -0.04413792863488197,
                        -0.21130038797855377,
                        0.05187186598777771,
                        -0.1250305026769638,
                        0.025398822501301765,
                        -0.06274426728487015,
                        -0.1235760971903801,
                        -0.29913750290870667,
                        0.12133350223302841,
                        0.09820372611284256,
                        -0.0037262095138430595,
                        0.3770139813423157,
                        -0.0055054109543561935,
                        0.06956747174263,
                        -0.04391719028353691,
                        0.26800012588500977,
                        -0.15257693827152252,
                        0.06506354361772537,
                        -0.5966470241546631,
                        -0.042666397988796234,
                        -0.16476717591285706,
                        0.0010752344969660044,
                        0.1492585837841034,
                        -0.10623905807733536,
                        0.1252623200416565,
                        -0.24280336499214172,
                        0.07295012474060059,
                        -0.0012340102111920714,
                        -0.025266295298933983,
                        -0.20291027426719666,
                        0.013028734363615513,
                        0.6338182687759399,
                        0.06632798910140991,
                        -0.03684486448764801,
                        1.449462652206421,
                        -0.12541358172893524,
                        -0.01689261756837368,
                        -0.18693043291568756,
                        0.0779542401432991,
                        -0.10229849815368652,
                        -0.05670960247516632,
                        -0.005103322211652994,
                        -0.3608883321285248,
                        -0.7459437251091003,
                        -0.2592788338661194,
                        0.12864840030670166,
                        0.03957042098045349,
                        -0.001211151946336031,
                        -0.011903784237802029
                    ],
                    [
                        -1.0420348644256592,
                        0.1336076408624649,
                        0.5288304686546326,
                        -1.1385085582733154,
                        -0.31178945302963257,
                        -0.20162582397460938,
                        -0.29076364636421204,
                        0.05401640385389328,
                        0.15756219625473022,
                        0.6712297797203064,
                        0.4972403943538666,
                        -0.06914050877094269,
                        -0.030892815440893173,
                        -1.9955623149871826,
                        0.14478206634521484,
                        0.36104390025138855,
                        0.95038902759552,
                        -0.19512441754341125,
                        0.6169334650039673,
                        0.8542726039886475,
                        0.4842139482498169,
                        0.7470459342002869,
                        0.6149908304214478,
                        -0.047613341361284256,
                        -0.1342945396900177,
                        0.6954010128974915,
                        -0.018423480913043022,
                        0.2671588659286499,
                        0.05876860395073891,
                        0.44532883167266846,
                        0.14830192923545837,
                        -0.11716537922620773,
                        -0.05368558689951897,
                        -0.16515716910362244,
                        0.06687292456626892,
                        -0.05694889277219772,
                        -0.13215996325016022,
                        -0.06386248022317886,
                        0.03561525419354439,
                        0.06344296038150787,
                        0.25943079590797424,
                        0.06053627282381058,
                        0.05979568138718605,
                        0.08415033668279648,
                        -0.44682714343070984,
                        0.09697195887565613,
                        -0.17816781997680664,
                        -0.3288109302520752,
                        -0.10402094572782516,
                        -0.16597944498062134,
                        0.3863493502140045,
                        0.5013548135757446,
                        0.010064810514450073,
                        0.17726701498031616,
                        0.23114924132823944,
                        0.06534381210803986,
                        0.18422819674015045,
                        1.2033759355545044,
                        0.5947633385658264,
                        -0.2995333671569824,
                        0.04045357182621956,
                        0.30881035327911377,
                        0.23276789486408234,
                        0.2570587694644928
                    ]
                ],
                [
                    -2.183835029602051,
                    0.8833994269371033,
                    1.241602897644043,
                    -1.9804149866104126,
                    -0.7244001626968384,
                    -3.067011833190918,
                    -2.734407901763916,
                    0.07060623914003372,
                    0.8098324537277222,
                    0.8797892928123474,
                    1.1269421577453613,
                    -1.412229061126709,
                    0.36760541796684265,
                    -1.776670217514038,
                    0.6380651593208313,
                    0.6417858600616455,
                    3.322157621383667,
                    0.5785247087478638,
                    0.15411347150802612,
                    3.0588574409484863,
                    1.611738920211792,
                    3.15126895904541,
                    3.104437828063965,
                    1.0346041917800903,
                    -0.21041259169578552,
                    -0.3568410873413086,
                    -0.0940118134021759,
                    1.7691211700439453,
                    0.13892866671085358,
                    2.1058554649353027,
                    -0.10775629431009293,
                    0.42429494857788086,
                    -0.07543151080608368,
                    -0.8625448942184448,
                    0.04601505398750305,
                    -0.35440459847450256,
                    0.1513894945383072,
                    0.014241382479667664,
                    0.08787167817354202,
                    -0.10938159376382828,
                    0.4864760637283325,
                    0.5606645941734314,
                    -0.10503034293651581,
                    -0.36958757042884827,
                    0.913852334022522,
                    -0.3289126753807068,
                    0.16504041850566864,
                    1.307539701461792,
                    0.47854042053222656,
                    0.40345102548599243,
                    1.47725510597229,
                    0.8040492534637451,
                    1.1798675060272217,
                    -0.05845349282026291,
                    0.7039715051651001,
                    0.7052746415138245,
                    0.8978250026702881,
                    0.8170716166496277,
                    0.5599648952484131,
                    -0.07943116873502731,
                    0.5228679776191711,
                    1.3733668327331543,
                    0.23420119285583496,
                    0.9077404737472534
                ]
            ]
        },
        {
            "type": "dense",
            "activation": "",
            "shape": [
                null,
                null,
                1
            ],
            "weights": [
                [
                    [
                        -0.1104474887251854
                    ],
                    [
                        1.1170780658721924
                    ],
                    [
                        0.024355947971343994
                    ],
                    [
                        -0.32094547152519226
                    ],
                    [
                        -0.31368759274482727
                    ],
                    [
                        -0.6359043717384338
                    ],
                    [
                        1.0276890993118286
                    ],
                    [
                        -1.222611427307129
                    ],
                    [
                        0.3031756579875946
                    ],
                    [
                        0.010767421685159206
                    ],
                    [
                        -0.027256960049271584
                    ],
                    [
                        -0.10040833055973053
                    ],
                    [
                        0.04231911152601242
                    ],
                    [
                        -0.030270688235759735
                    ],
                    [
                        0.345815509557724
                    ],
                    [
                        0.006229672115296125
                    ]
                ],
                [
                    0.10575972497463226
                ]
            ]
        }
    ]
}