{
    "in_shape": [
        null,
        null,
        1
    ],
    "layers": [
        {
            "type": "lstm",
            "activation": "",
            "shape": [
                null,
                null,
                16
            ],
            "weights": [
                [
                    [
                        0.09521350264549255,
                        0.020058365538716316,
                        0.26293426752090454,
                        -0.08152012526988983,
                        -0.1254451721906662,
                        0.0198761448264122,
                        0.10551851242780685,
                        0.034608062356710434,
                        -0.10946497321128845,
                        -0.05095905065536499,
                        0.13008463382720947,
                        0.2689380347728729,
                        -0.0897570550441742,
                        0.6469213962554932,
                        0.05446368455886841,
                        -0.09129538387060165,
                        0.2832721769809723,
                        0.020607933402061462,
                        0.14450781047344208,
                        0.2724527418613434,
                        -0.3951835334300995,
                        -0.19325602054595947,
                        -0.17241120338439941,
                        -0.003167659742757678,
                        -0.04539791867136955,
                        0.046402886509895325,
                        0.25277039408683777,
                        0.08343490958213806,
                        0.008913075551390648,
                        -0.31426718831062317,
                        -0.04515186697244644,
                        -0.19112633168697357,
                        0.054613661020994186,
                        -0.008667201735079288,
                        1.0951529741287231,
                        0.0408361554145813,
                        0.21009591221809387,
                        -0.07337994128465652,
                        0.04346952587366104,
                        -0.25052788853645325,
                        -0.6719141602516174,
                        -0.7639166712760925,
                        -0.3732891380786896,
                        0.4541192948818207,
                        0.1982222944498062,
                        0.23189322650432587,
                        -0.007250302936881781,
                        0.23133152723312378,
                        -0.5720252990722656,
                        0.03780320659279823,
                        -0.03193138539791107,
                        -0.04850069805979729,
                        0.894149661064148,
                        0.1405297964811325,
                        -0.09908345341682434,
                        0.029141180217266083,
                        -0.04434928297996521,
                        0.1434895396232605,
                        0.07606369256973267,
                        0.38221731781959534,
                        -0.049827903509140015,
                        0.00868954323232174,
                        0.011048718355596066,
                        0.057041481137275696
                    ]
                ],
                [
                    [
                        0.5550007820129395,
                        -0.08687860518693924,
                        -0.2037658542394638,
                        0.15347646176815033,
                        -0.1603398621082306,
                        -0.0625578761100769,
                        0.21903669834136963,
                        0.10223672538995743,
                        -0.10610701888799667,
                        -0.19748857617378235,
                        0.27904874086380005,
                        -0.1719214767217636,
                        0.12383876740932465,
                        0.3385210633277893,
                        0.19053220748901367,
                        -0.1601228266954422,
                        0.024569857865571976,
                        -0.2374596893787384,
                        -0.8547517657279968,
                        -0.46573975682258606,
                        -0.12051557004451752,
                        0.08089932799339294,
                        0.30640825629234314,
                        0.09613075107336044,
                        -0.08557670563459396,
                        0.009058220311999321,
                        -0.13054268062114716,
                        -0.20095844566822052,
                        0.23080073297023773,
                        -0.17008927464485168,
                        0.2340744137763977,
                        -0.3182341754436493,
                        0.08236293494701385,
                        -0.16276004910469055,
                        0.4919201135635376,
                        0.23454773426055908,
                        0.33621740341186523,
                        0.1594456434249878,
                        -0.042334675788879395,
                        -0.022719737142324448,
                        -0.5146781206130981,
                        0.04610623046755791,
                        -0.045958854258060455,
                        -0.5391483306884766,
                        -0.08083374053239822,
                        0.24269212782382965,
                        0.12651321291923523,
                        0.15759184956550598,
                        0.4139663875102997,
                        0.029327215626835823,
                        -0.13005657494068146,
                        0.04167716205120087,
                        -0.030622104182839394,
                        -0.11706642061471939,
                        -0.08803201466798782,
                        -0.02888323739171028,
                        -0.15089014172554016,
                        -0.07589175552129745,
                        -0.12838241457939148,
                        0.19907504320144653,
                        -0.010881554335355759,
                        0.21770066022872925,
                        -0.0008533233194611967,
                        -0.1760127991437912
                    ],
                    [
                        0.2094591110944748,
                        -0.3611658215522766,
                        -0.0005079377442598343,
                        0.11720255017280579,
                        0.48533958196640015,
                        0.5248007774353027,
                        0.2091214954853058,
                        0.04539312794804573,
                        -0.08663029968738556,
                        -0.33890560269355774,
                        0.24735546112060547,
                        0.130560964345932,
                        -0.0536198616027832,
                        0.13023130595684052,
                        -0.2432592809200287,
                        0.01570742391049862,
                        -0.7064012885093689,
                        -0.03521052375435829,
                        -0.01267053559422493,
                        -0.2705616056919098,
                        -0.23349367082118988,
                        -0.7201059460639954,
                        -0.5823069214820862,
                        0.13730646669864655,
                        -0.5394218564033508,
                        0.12494686245918274,
                        -0.33853140473365784,
                        -0.25661829113960266,
                        -0.17420464754104614,
                        -0.3571963906288147,
                        -0.09764783829450607,
                        -0.09049657732248306,
                        -0.11088412255048752,
                        -1.4498275518417358,
                        -0.008633315563201904,
                        0.025448938831686974,
                        -0.1295010894536972,
                        0.42369478940963745,
                        -0.32572585344314575,
                        0.7152038216590881,
                        -0.24192145466804504,
                        -0.0027367116417735815,
                        -0.030575577169656754,
                        0.21449661254882812,
                        -0.13456551730632782,
                        0.06487835943698883,
                        0.21397395431995392,
                        -0.01751870848238468,
                        0.08623601496219635,
                        -1.8497087955474854,
                        -0.05353248864412308,
                        0.09002124518156052,
                        -0.31227076053619385,
                        0.029403507709503174,
                        0.025523005053400993,
                        -0.39207589626312256,
                        0.0485205315053463,
                        -0.22424809634685516,
                        -0.017759960144758224,
                        -0.04903572425246239,
                        -0.3254915475845337,
                        -0.06054282188415527,
                        -0.19198408722877502,
                        -0.1658995896577835
                    ],
                    [
                        -0.10307780653238297,
                        0.13294553756713867,
                        0.03708241879940033,
                        -0.2812289595603943,
                        -0.19283658266067505,
                        -0.16027751564979553,
                        0.031630415469408035,
                        -0.07968326658010483,
                        0.13987694680690765,
                        0.2189047932624817,
                        0.09386824816465378,
                        0.2083355337381363,
                        0.09834425151348114,
                        -0.038835689425468445,
                        0.025816921144723892,
                        -0.10810407251119614,
                        0.1939159631729126,
                        0.1882452815771103,
                        -0.25892049074172974,
                        0.3459071218967438,
                        0.03392545506358147,
                        0.09504881501197815,
                        0.0810532197356224,
                        -0.04510166123509407,
                        -0.027817649766802788,
                        -0.10666690766811371,
                        -0.40975481271743774,
                        0.03760145977139473,
                        -0.11155304312705994,
                        -0.1760772466659546,
                        -0.0596897155046463,
                        -0.41300126910209656,
                        -0.43159347772598267,
                        -0.06882303208112717,
                        -0.17347171902656555,
                        -0.17941495776176453,
                        0.007981727831065655,
                        0.22488418221473694,
                        0.10009396821260452,
                        0.46106091141700745,
                        0.6021474003791809,
                        1.95285964012146,
                        0.28697147965431213,
                        0.14096634089946747,
                        -0.3542689085006714,
                        0.585238516330719,
                        0.14341306686401367,
                        0.3545028567314148,
                        -0.055149756371974945,
                        -0.09167826175689697,
                        0.5116285085678101,
                        0.23066885769367218,
                        -1.0408564805984497,
                        0.09853540360927582,
                        0.0835956484079361,
                        -0.003497394034639001,
                        0.11011303216218948,
                        -0.012845066376030445,
                        -0.01599063165485859,
                        -1.0400007963180542,
                        0.09944577515125275,
                        0.24455669522285461,
                        0.1235160082578659,
                        -0.1450423300266266
                    ],
                    [
                        -0.1838504821062088,
                        -0.22828136384487152,
                        0.5290002226829529,
                        0.2401316910982132,
                        0.14167264103889465,
                        0.32290324568748474,
                        0.2112182080745697,
                        0.3678639531135559,
                        -0.28462252020835876,
                        -0.0878441333770752,
                        -0.14006929099559784,
                        0.18851874768733978,
                        -0.4635419249534607,
                        -0.15224114060401917,
                        -0.4855896234512329,
                        0.0614747554063797,
                        -0.28403785824775696,
                        0.2750300168991089,
                        0.26435962319374084,
                        -0.40401116013526917,
                        -0.2555280327796936,
                        -0.2359577715396881,
                        -0.36583176255226135,
                        0.14567166566848755,
                        0.06251830607652664,
                        0.11001382768154144,
                        0.24525700509548187,
                        0.0620000846683979,
                        -0.12550397217273712,
                        -0.26275718212127686,
                        -0.244197815656662,
                        0.24591968953609467,
                        0.2655009925365448,
                        -0.17437265813350677,
                        -0.003979064524173737,
                        0.14108975231647491,
                        0.17283950746059418,
                        -0.17785246670246124,
                        0.10585471987724304,
                        -0.09250114858150482,
                        0.03812657296657562,
                        0.28517234325408936,
                        -0.08891741186380386,
                        0.1650523692369461,
                        -0.03340958058834076,
                        -0.10835002362728119,
                        0.03873855248093605,
                        0.1633705049753189,
                        0.17155364155769348,
                        -0.4829178750514984,
                        0.0687214657664299,
                        -0.179177388548851,
                        0.31359320878982544,
                        -0.0264419037848711,
                        -0.041489966213703156,
                        0.006663165520876646,
                        -0.25944969058036804,
                        -0.026698458939790726,
                        0.1063956692814827,
                        0.09537053853273392,
                        -0.3249658942222595,
                        -0.13765497505664825,
                        -0.278042733669281,
                        -0.02763226255774498
                    ],
                    [
                        0.6803221702575684,
                        -0.35212090611457825,
                        -0.13792192935943604,
                        0.44553428888320923,
                        0.09879378974437714,
                        0.9203091859817505,
                        0.6209538578987122,
                        -0.0555494949221611,
                        -0.36823931336402893,
                        -0.4952241778373718,
                        0.38495904207229614,
                        0.39094793796539307,
                        -0.048627808690071106,
                        0.5127400159835815,
                        -0.07139196246862411,
                        -0.3678739368915558,
                        -0.8099467158317566,
                        -0.6315389275550842,
                        -0.47900915145874023,
                        -0.9032295942306519,
                        -0.5499424934387207,
                        -0.9398193359375,
                        -0.6501548290252686,
                        -0.3258357048034668,
                        0.21894505620002747,
                        0.12745389342308044,
                        0.006327436771243811,
                        -0.35246604681015015,
                        0.15481902658939362,
                        -0.764703094959259,
                        -0.24201731383800507,
                        -0.2402450442314148,
                        0.23413798213005066,
                        0.7477115988731384,
                        -0.31887248158454895,
                        0.12994760274887085,
                        0.07756323367357254,
                        -0.16788144409656525,
                        0.3055083453655243,
                        0.04927286133170128,
                        0.7644190192222595,
                        0.19934827089309692,
                        0.07285065948963165,
                        0.08539975434541702,
                        0.4888055920600891,
                        -0.032277267426252365,
                        -0.16814549267292023,
                        -0.020094754174351692,
                        0.14989355206489563,
                        0.7537994384765625,
                        -0.26838764548301697,
                        -0.2812204360961914,
                        -0.7724213004112244,
                        -0.015769602730870247,
                        -0.2664616107940674,
                        -0.34711575508117676,
                        -0.4272322654724121,
                        -0.6306086778640747,
                        -0.17891870439052582,
                        -0.5456750392913818,
                        -0.3067788779735565,
                        -0.30403393507003784,
                        -0.3418388366699219,
                        -0.476325124502182
                    ],
                    [
                        0.07006901502609253,
                        -0.031850751489400864,
                        -0.05511591210961342,
                        -0.21467141807079315,
                        -0.03281870856881142,
                        -0.162356898188591,
                        -0.1357542872428894,
                        0.17556025087833405,
                        -0.03814316168427467,
                        -0.03784817457199097,
                        0.03601473569869995,
                        0.04878561198711395,
                        0.008060900494456291,
                        0.03518214076757431,
                        -0.12937025725841522,
                        -0.009321269579231739,
                        0.02098250947892666,
                        -0.11921662837266922,
                        -0.05132678151130676,
                        -0.100896455347538,
                        0.006717114709317684,
                        0.10556837916374207,
                        0.10913030803203583,
                        0.04336375743150711,
                        -0.0045007928274571896,
                        0.0003396272368263453,
                        0.048182908445596695,
                        0.11886593699455261,
                        0.053796183317899704,
                        -0.11791108548641205,
                        -0.16087736189365387,
                        -0.012473058886826038,
                        0.02997892163693905,
                        -0.1761769950389862,
                        -0.2840914726257324,
                        -0.042833175510168076,
                        -0.08883824944496155,
                        0.3529615104198456,
                        -0.7099689841270447,
                        0.2213442176580429,
                        0.21874544024467468,
                        0.02434646710753441,
                        0.08481631428003311,
                        -0.155509814620018,
                        -0.15253831446170807,
                        -0.05767044425010681,
                        -0.00031220470555126667,
                        -0.12579332292079926,
                        0.09654533118009567,
                        0.031410060822963715,
                        -0.04531632363796234,
                        -0.04951026663184166,
                        0.06877894699573517,
                        -0.17149800062179565,
                        -0.05783173069357872,
                        0.039605285972356796,
                        -0.045296214520931244,
                        -0.008127797394990921,
                        -0.11752557009458542,
                        0.10891276597976685,
                        -0.020479321479797363,
                        0.009500415064394474,
                        -0.0669141411781311,
                        -0.03900715336203575
                    ],
                    [
                        -0.00717064319178462,
                        0.018116265535354614,
                        0.003537198528647423,
                        0.14513881504535675,
                        -0.05472380667924881,
                        -0.04091582074761391,
                        -0.027378082275390625,
                        0.17591646313667297,
                        0.033897362649440765,
                        0.03134177252650261,
                        0.007833454757928848,
                        -0.04232402890920639,
                        0.15248680114746094,
                        -0.00898902490735054,
                        -0.058805231004953384,
                        -0.042810145765542984,
                        0.13852612674236298,
                        0.08125127851963043,
                        0.004440991673618555,
                        0.26130157709121704,
                        -0.011259844526648521,
                        -0.11940282583236694,
                        -0.11342191696166992,
                        0.11431140452623367,
                        -0.042273569852113724,
                        -0.011814487166702747,
                        -0.09035339951515198,
                        -0.09035392105579376,
                        0.28264063596725464,
                        -0.11825871467590332,
                        0.06687107682228088,
                        -0.1934327632188797,
                        0.05867435038089752,
                        -0.1779877096414566,
                        -0.08235620707273483,
                        0.00010302815644536167,
                        0.1805592030286789,
                        0.6599871516227722,
                        0.38807550072669983,
                        -0.17963217198848724,
                        0.04027458652853966,
                        -0.011201124638319016,
                        0.03104652464389801,
                        -0.1674269735813141,
                        -0.031176980584859848,
                        -0.14206868410110474,
                        -0.0015952041139826179,
                        -0.0033502059523016214,
                        -0.15643081068992615,
                        -0.03864790126681328,
                        -0.00010935339378193021,
                        0.0016472730785608292,
                        -0.02267860621213913,
                        -0.1695052534341812,
                        0.06374576687812805,
                        0.07288872450590134,
                        0.030886730179190636,
                        0.010249887593090534,
                        -0.07358942180871964,
                        0.2545320987701416,
                        0.08806728571653366,
                        0.04084321856498718,
                        0.014865647070109844,
                        -0.024794558063149452
                    ],
                    [
                        -0.2606445550918579,
                        -0.048183586448431015,
                        -0.11153620481491089,
                        -0.24494922161102295,
                        0.00496718380600214,
                        -0.08619257807731628,
                        -0.2251458317041397,
                        0.06369791179895401,
                        0.05117538943886757,
                        0.09528456628322601,
                        -0.051014628261327744,
                        -0.30578354001045227,
                        0.20902875065803528,
                        0.017450112849473953,
                        0.034454796463251114,
                        -0.13388240337371826,
                        -0.1837150901556015,
                        0.6256934404373169,
                        -0.06351691484451294,
                        -0.10377466678619385,
                        -0.39123138785362244,
                        -0.10913874953985214,
                        -0.1138245090842247,
                        -0.15007643401622772,
                        -0.3372717499732971,
                        -0.004378363955765963,
                        -0.14530953764915466,
                        -0.5028141736984253,
                        0.13907501101493835,
                        -0.20555661618709564,
                        0.16413411498069763,
                        -0.19563108682632446,
                        0.19725024700164795,
                        -0.79287189245224,
                        -0.10589903593063354,
                        -0.1753646582365036,
                        0.028129464015364647,
                        -0.4426955580711365,
                        0.10879211872816086,
                        0.25517570972442627,
                        -0.15328122675418854,
                        0.20337456464767456,
                        0.12808097898960114,
                        0.062718965113163,
                        -0.13848306238651276,
                        -0.07422741502523422,
                        0.316140741109848,
                        -0.041326966136693954,
                        -0.09686128795146942,
                        0.3946361541748047,
                        -0.026954377070069313,
                        0.0005698928725905716,
                        0.3041691482067108,
                        -0.01160585880279541,
                        -0.17780351638793945,
                        0.10254309326410294,
                        0.041493065655231476,
                        0.02289474382996559,
                        -0.12458810210227966,
                        0.04477240890264511,
                        0.11974919587373734,
                        -0.0030680508352816105,
                        -0.06426658481359482,
                        -0.06813900172710419
                    ],
                    [
                        -0.11887478828430176,
                        0.049958936870098114,
                        -0.18557804822921753,
                        -0.4585851728916168,
                        -0.21918587386608124,
                        -0.2446352243423462,
                        -0.1641538441181183,
                        -0.09312141686677933,
                        0.2155706286430359,
                        0.10655530542135239,
                        -0.24543564021587372,
                        0.21665892004966736,
                        0.04314614087343216,
                        -0.2392987757921219,
                        0.341431587934494,
                        0.1869865208864212,
                        0.4805593490600586,
                        0.22518399357795715,
                        -0.1771848499774933,
                        0.3543737828731537,
                        0.20765623450279236,
                        0.24425208568572998,
                        0.21675172448158264,
                        0.2563241124153137,
                        -0.2394128143787384,
                        0.1751537024974823,
                        -0.33688586950302124,
                        0.5354410409927368,
                        0.0710979625582695,
                        0.3190196752548218,
                        0.35389313101768494,
                        -0.022789569571614265,
                        0.03418859466910362,
                        -0.12939122319221497,
                        -0.38718652725219727,
                        0.09715654700994492,
                        0.07561087608337402,
                        0.2501019239425659,
                        -0.18900489807128906,
                        -0.18549665808677673,
                        -0.5148424506187439,
                        0.6925451755523682,
                        0.5476071834564209,
                        -0.06758210808038712,
                        -0.35298311710357666,
                        -0.06059189885854721,
                        0.5943186283111572,
                        -0.5293674468994141,
                        -0.027330204844474792,
                        -1.9736387729644775,
                        -0.3482622802257538,
                        -0.24061323702335358,
                        1.1076401472091675,
                        0.005644448567181826,
                        -0.072048120200634,
                        -0.028351252898573875,
                        0.6383597254753113,
                        -0.008109563030302525,
                        -0.12718889117240906,
                        0.4089493751525879,
                        0.20240184664726257,
                        0.026930663734674454,
                        0.26464271545410156,
                        0.2719878554344177
                    ],
                    [
                        -0.19076384603977203,
                        0.0905613899230957,
                        -0.15579327940940857,
                        1.8736934661865234,
                        -0.07916446030139923,
                        0.12492293864488602,
                        0.08393878489732742,
                        -0.030837366357445717,
                        -0.035030387341976166,
                        -0.3839728534221649,
                        0.2679847776889801,
                        0.42201411724090576,
                        0.01798436790704727,
                        0.9232558012008667,
                        0.1439397782087326,
                        -0.2789442241191864,
                        -0.4979274272918701,
                        -0.0028782510198652744,
                        -0.40395963191986084,
                        -0.7233322858810425,
                        -0.3124465048313141,
                        -0.31223350763320923,
                        -0.10117428749799728,
                        -0.005477710161358118,
                        0.07542236149311066,
                        -0.7780290842056274,
                        0.9440606236457825,
                        0.08374325931072235,
                        0.16371291875839233,
                        -0.47845491766929626,
                        -0.012290244922041893,
                        0.28757959604263306,
                        -0.6414596438407898,
                        0.0347425751388073,
                        -0.35001611709594727,
                        -0.7342430353164673,
                        -0.3250814974308014,
                        0.041441529989242554,
                        -0.18669381737709045,
                        -0.04929773509502411,
                        -0.453941285610199,
                        1.3336296081542969,
                        -0.9354736804962158,
                        -0.3590567708015442,
                        0.24944137036800385,
                        0.17801915109157562,
                        0.06692980974912643,
                        1.4728411436080933,
                        -0.33857637643814087,
                        -0.2759779393672943,
                        -0.007481052540242672,
                        0.13057710230350494,
                        0.14210815727710724,
                        0.014555033296346664,
                        -0.03102237358689308,
                        -0.08910948783159256,
                        0.04560447484254837,
                        0.23486082255840302,
                        -0.24467292428016663,
                        0.6936710476875305,
                        -0.10497016459703445,
                        -0.09054824709892273,
                        -0.13817556202411652,
                        -0.3900289833545685
                    ],
                    [
                        -0.9211559295654297,
                        -0.25972309708595276,
                        0.00045893804053775966,
                        -0.5792166590690613,
                        -0.0290350504219532,
                        0.017156414687633514,
                        0.010508745908737183,
                        0.13865244388580322,
                        0.09379758685827255,
                        0.13641740381717682,
                        0.6447733640670776,
                        0.12421870231628418,
                        -0.1569059193134308,
                        -0.33163419365882874,
                        0.3712804913520813,
                        0.03673744201660156,
                        0.026781747117638588,
                        0.01752597652375698,
                        -0.02669208124279976,
                        0.3462904393672943,
                        0.13577024638652802,
                        -0.1882207840681076,
                        -0.12453758716583252,
                        -0.07288064062595367,
                        0.2775965631008148,
                        0.05165825039148331,
                        0.26833152770996094,
                        0.04198267310857773,
                        -0.03996622934937477,
                        -0.11840694397687912,
                        -0.038441698998212814,
                        -0.1921798288822174,
                        -0.3645554184913635,
                        0.07651234418153763,
                        -0.09939555823802948,
                        -0.15035609900951385,
                        -0.23060522973537445,
                        -0.03677777200937271,
                        -0.09598908573389053,
                        0.11809198558330536,
                        -0.5224424600601196,
                        0.2544647455215454,
                        1.1452512741088867,
                        0.026289742439985275,
                        0.7804396152496338,
                        0.2552245259284973,
                        0.11552872508764267,
                        0.20929136872291565,
                        -0.14510497450828552,
                        -0.1271718442440033,
                        -0.05081109702587128,
                        0.10474219918251038,
                        -0.36357659101486206,
                        0.033430859446525574,
                        0.0047360067255795,
                        -0.06551282107830048,
                        -0.10320103913545609,
                        -0.18385018408298492,
                        -0.4454788863658905,
                        0.1966150999069214,
                        -0.030605003237724304,
                        -0.015842072665691376,
                        0.24224112927913666,
                        -0.11954693496227264
                    ],
                    [
                        0.258327454328537,
                        -0.3235321640968323,
                        -0.2713521122932434,
                        0.10101327300071716,
                        0.23720383644104004,
                        0.22387632727622986,
                        0.2999207377433777,
                        0.23259739577770233,
                        -0.22888299822807312,
                        -0.20209597051143646,
                        -0.0136575847864151,
                        -0.05225919559597969,
                        -0.23253746330738068,
                        0.05710260570049286,
                        0.04837614670395851,
                        -0.08275793492794037,
                        -0.25628212094306946,
                        0.12291897088289261,
                        -0.4911424219608307,
                        0.12559595704078674,
                        -0.30185753107070923,
                        -0.5442019701004028,
                        -0.4151841998100281,
                        -0.20642073452472687,
                        -0.10190663486719131,
                        0.020586559548974037,
                        -0.22472721338272095,
                        -0.2880384922027588,
                        -0.29242292046546936,
                        -0.1511310338973999,
                        0.04790285974740982,
                        -0.12518687546253204,
                        -0.20866067707538605,
                        -0.23208707571029663,
                        -0.3463378846645355,
                        -0.042421624064445496,
                        -0.1568019688129425,
                        -0.11923572421073914,
                        -0.019109871238470078,
                        -0.8230190873146057,
                        0.33631688356399536,
                        0.8579079508781433,
                        0.5541941523551941,
                        0.29508480429649353,
                        -0.14265330135822296,
                        0.19051116704940796,
                        0.28135359287261963,
                        -0.039125651121139526,
                        -0.35571086406707764,
                        0.2009919285774231,
                        -0.29430803656578064,
                        -0.058001063764095306,
                        0.4384355843067169,
                        -0.021184401586651802,
                        -0.04081064462661743,
                        -0.0951024666428566,
                        -0.14715036749839783,
                        -0.4454285204410553,
                        -0.3857731223106384,
                        -0.9455438256263733,
                        -0.2896076738834381,
                        0.06435802578926086,
                        -0.2514343857765198,
                        -0.1980433464050293
                    ],
                    [
                        0.1297147572040558,
                        -0.09513732045888901,
                        0.07317505031824112,
                        0.2448424994945526,
                        -0.20000192523002625,
                        -0.1901167929172516,
                        -0.26129165291786194,
                        0.09110032767057419,
                        0.37391069531440735,
                        -0.024647504091262817,
                        0.11488992720842361,
                        -0.10241605341434479,
                        0.12237893790006638,
                        0.4466639757156372,
                        0.6217421293258667,
                        0.25940853357315063,
                        -0.023183943703770638,
                        0.4395800828933716,
                        -0.12345460802316666,
                        -0.06249460577964783,
                        -0.2722018361091614,
                        -0.2165248990058899,
                        0.04369499906897545,
                        0.34806087613105774,
                        0.37544286251068115,
                        -0.13783547282218933,
                        0.3324868083000183,
                        0.1510317474603653,
                        -0.20006658136844635,
                        -0.2672464847564697,
                        -0.03458612412214279,
                        -0.2885837256908417,
                        0.12753190100193024,
                        -0.22162769734859467,
                        0.21360357105731964,
                        -0.23138390481472015,
                        0.024618664756417274,
                        -0.12349100410938263,
                        -0.04059883952140808,
                        0.2947608530521393,
                        0.6671760678291321,
                        -0.5317380428314209,
                        -0.589199960231781,
                        0.000688054773490876,
                        0.2733045816421509,
                        -0.11642013490200043,
                        0.7627344131469727,
                        0.5438395738601685,
                        0.07572361826896667,
                        -1.3931009769439697,
                        0.05686773732304573,
                        -0.14656011760234833,
                        0.34566017985343933,
                        -0.06522863358259201,
                        -0.07366789877414703,
                        -0.009960576891899109,
                        0.538880467414856,
                        0.18822380900382996,
                        -0.2686076760292053,
                        -0.3819734752178192,
                        0.05659697949886322,
                        -0.158394455909729,
                        0.2838222086429596,
                        -0.04401145502924919
                    ],
                    [
                        -0.00840632151812315,
                        0.01377211045473814,
                        0.269000768661499,
                        -0.04662060737609863,
                        -0.052485931664705276,
                        0.3489948809146881,
                        0.07156328111886978,
                        -0.048165831714868546,
                        -0.0054528918117284775,
                        0.04049372300505638,
                        0.08747370541095734,
                        0.3527751564979553,
                        -0.061536841094493866,
                        0.3130455017089844,
                        0.11581826955080032,
                        0.005851512774825096,
                        0.41059422492980957,
                        -0.047258734703063965,
                        -0.13034208118915558,
                        0.14164863526821136,
                        -0.09635704755783081,
                        0.0055039627477526665,
                        0.03010210208594799,
                        -0.005567014683037996,
                        0.041322432458400726,
                        -0.10063410550355911,
                        0.05976130813360214,
                        0.2042079120874405,
                        0.07957806438207626,
                        -0.020904269069433212,
                        0.03057822771370411,
                        -0.040814079344272614,
                        -0.03489326313138008,
                        -0.07272393256425858,
                        -0.843238115310669,
                        -0.03794176131486893,
                        -0.1218114048242569,
                        -0.07930149137973785,
                        -0.11344658583402634,
                        0.2574887275695801,
                        0.4604886770248413,
                        -0.46234753727912903,
                        0.2151220440864563,
                        -0.22184894979000092,
                        -0.11395342648029327,
                        -0.2886679470539093,
                        -0.26676878333091736,
                        -0.45498356223106384,
                        -0.14442437887191772,
                        -0.15362486243247986,
                        0.15490397810935974,
                        0.14183594286441803,
                        -0.2855067551136017,
                        0.1624804139137268,
                        0.036242030560970306,
                        -0.008488178253173828,
                        0.0026338957250118256,
                        -0.011128702200949192,
                        -0.004473288077861071,
                        0.03038974106311798,
                        -0.0009734056075103581,
                        0.1757989376783371,
                        0.0958898589015007,
                        0.06099606305360794
                    ],
                    [
                        0.03714004158973694,
                        -0.16714361310005188,
                        -0.09723301976919174,
                        -0.1687445342540741,
                        -0.060284409672021866,
                        0.1360948234796524,
                        -0.07974687963724136,
                        0.053900863975286484,
                        -0.06986773014068604,
                        -0.05282767117023468,
                        0.2062065601348877,
                        0.12106335908174515,
                        -0.08481663465499878,
                        -0.06900416314601898,
                        0.44213247299194336,
                        0.027313536033034325,
                        -0.06292122602462769,
                        0.4300672113895416,
                        0.049145039170980453,
                        0.13995613157749176,
                        0.17939384281635284,
                        0.012594524770975113,
                        -0.09544321149587631,
                        -0.33874261379241943,
                        -0.42501556873321533,
                        0.03231548145413399,
                        -0.3721572756767273,
                        0.47076794505119324,
                        -0.4127522110939026,
                        0.06131408363580704,
                        -0.14445358514785767,
                        -0.1440970003604889,
                        -0.014166416600346565,
                        -1.8253072500228882,
                        -0.03509294241666794,
                        -0.10867669433355331,
                        -0.0231926329433918,
                        0.03643855080008507,
                        -0.39434126019477844,
                        0.15989425778388977,
                        -0.43036285042762756,
                        0.0655415952205658,
                        0.0010709634516388178,
                        -0.03768807277083397,
                        -0.41715702414512634,
                        0.0046194191090762615,
                        0.6680784225463867,
                        -0.09424816817045212,
                        0.09673664718866348,
                        1.0125569105148315,
                        -0.01254864502698183,
                        0.11501003056764603,
                        -0.253555029630661,
                        0.045025285333395004,
                        0.10235091298818588,
                        0.03895782306790352,
                        -0.2942400872707367,
                        0.36026057600975037,
                        -0.2817167043685913,
                        -0.0935741662979126,
                        -0.1664518415927887,
                        0.04505521059036255,
                        -0.18775908648967743,
                        -0.3121993839740753
                    ],
                    [
                        -1.0263592004776,
                        0.514580488204956,
                        0.4034462869167328,
                        -0.9939999580383301,
                        -0.44044867157936096,
                        -0.16061772406101227,
                        -0.3588885962963104,
                        -0.11021401733160019,
                        0.28611642122268677,
                        0.7638871073722839,
                        -0.2599928379058838,
                        -0.34189605712890625,
                        0.20291505753993988,
                        -1.4563833475112915,
                        -0.6645525693893433,
                        0.11436056345701218,
                        0.96544349193573,
                        0.2495509684085846,
                        0.1343202441930771,
                        0.6127309799194336,
                        0.45196396112442017,
                        0.8023829460144043,
                        0.5869964957237244,
                        0.22031152248382568,
                        0.21152222156524658,
                        0.7387869358062744,
                        0.6183938384056091,
                        0.21453329920768738,
                        0.3078911006450653,
                        0.8281996846199036,
                        -0.18235084414482117,
                        -0.25815415382385254,
                        -0.05586676672101021,
                        0.020158160477876663,
                        0.04123535752296448,
                        -0.06655571609735489,
                        -0.31895267963409424,
                        0.012631808407604694,
                        -0.014935522340238094,
                        -0.03155027702450752,
                        0.11665729433298111,
                        -0.16429905593395233,
                        0.08981461077928543,
                        0.2039412409067154,
                        -0.20403945446014404,
                        0.2918362021446228,
                        -0.040760431438684464,
                        -0.2068953663110733,
                        -0.05766025185585022,
                        -0.48912861943244934,
                        0.48668336868286133,
                        0.43915992975234985,
                        0.0688525140285492,
                        0.0022965187672525644,
                        0.04928996041417122,
                        0.04659469798207283,
                        0.6433923244476318,
                        0.7188701629638672,
                        0.7926321625709534,
                        -0.2074187994003296,
                        0.3199006915092468,
                        0.2983531951904297,
                        0.43659934401512146,
                        0.3939175307750702
                    ]
                ],
                [
                    -1.9278874397277832,
                    1.2033746242523193,
                    -0.09524109214544296,
                    -1.5669034719467163,
                    -0.5337368249893188,
                    -2.788701057434082,
                    -2.058138847351074,
                    0.07068771868944168,
                    0.9934013485908508,
                    1.2117559909820557,
                    -0.10119247436523438,
                    -1.2026097774505615,
                    0.6880767345428467,
                    -1.665061354637146,
                    0.4053681492805481,
                    0.8951777219772339,
                    2.9367992877960205,
                    0.9502187967300415,
                    0.6250587701797485,
                    2.20274019241333,
                    1.568437099456787,
                    3.216237783432007,
                    2.731757640838623,
                    0.9546473026275635,
                    0.2852984368801117,
                    -0.7029477953910828,
                    0.043751202523708344,
                    1.8776873350143433,
                    -0.020613152533769608,
                    2.375880479812622,
                    0.7246054410934448,
                    0.8142386674880981,
                    -0.022902801632881165,
                    -1.157470464706421,
                    -0.11192409694194794,
                    -0.028034113347530365,
                    -0.3562403917312622,
                    -0.07183888554573059,
                    -0.008278794586658478,
                    0.011993296444416046,
                    0.2680020332336426,
                    0.2969290614128113,
                    -0.18436101078987122,
                    -0.4217199683189392,
                    0.4809926450252533,
                    -0.12353380769491196,
                    0.06884843111038208,
                    1.2477436065673828,
                    0.05863698571920395,
                    0.41330838203430176,
                    1.2583744525909424,
                    0.5067997574806213,
                    0.33108946681022644,
                    0.030826663598418236,
                    0.40516191720962524,
                    1.0436445474624634,
                    0.7040163278579712,
                    1.1780575513839722,
                    0.4905433654785156,
                    0.06034904718399048,
                    1.2726194858551025,
                    0.709331750869751,
                    1.1503247022628784,
                    1.2911758422851562
                ]
            ]
        },
        {
            "type": "dense",
            "activation": "",
            "shape": [
                null,
                null,
                1
            ],
            "weights": [
                [
                    [
                        0.17346414923667908
                    ],
                    [
                        0.953528642654419
                    ],
                    [
                        0.0971386507153511
                    ],
                    [
                        -0.29714104533195496
                    ],
                    [
                        -0.27478235960006714
                    ],
                    [
                        -0.328073650598526
                    ],
                    [
                        1.017246127128601
                    ],
                    [
                        -0.7481616735458374
                    ],
                    [
                        0.161206915974617
                    ],
                    [
                        0.0013457972090691328
                    ],
                    [
                        -0.015412990003824234
                    ],
                    [
                        -0.33864152431488037
                    ],
                    [
                        0.015521882101893425
                    ],
                    [
                        -0.05093470215797424
                    ],
                    [
                        0.20726755261421204
                    ],
                    [
                        -0.02838185429573059
                    ]
                ],
                [
                    0.07358907908201218
                ]
            ]
        }
    ]
}