{
    "in_shape": [
        null,
        null,
        1
    ],
    "layers": [
        {
            "type": "lstm",
            "activation": "",
            "shape": [
                null,
                null,
                16
            ],
            "weights": [
                [
                    [
                        0.03316715732216835,
                        -0.042815301567316055,
                        0.19761180877685547,
                        0.1712646782398224,
                        0.05825449526309967,
                        -0.03635944053530693,
                        -0.13512738049030304,
                        -0.04695507884025574,
                        -0.12347700446844101,
                        0.013346899300813675,
                        0.2403828352689743,
                        -0.276181161403656,
                        0.040346190333366394,
                        0.09304490685462952,
                        -0.029146762564778328,
                        0.07664003223180771,
                        0.12406285852193832,
                        0.058856166899204254,
                        0.039434049278497696,
                        0.29861971735954285,
                        0.08413230627775192,
                        0.06506329029798508,
                        -0.01601010374724865,
                        -0.07771410048007965,
                        -0.13618862628936768,
                        0.20994044840335846,
                        -0.030794860795140266,
                        -0.19826240837574005,
                        0.07063912600278854,
                        -0.019736895337700844,
                        -0.11710715293884277,
                        0.09150514751672745,
                        -0.2651742398738861,
                        0.04310450330376625,
                        1.1530781984329224,
                        -0.16483311355113983,
                        -0.0907200425863266,
                        0.009848746471107006,
                        -0.09858308732509613,
                        -0.04295416176319122,
                        -0.04302413389086723,
                        -0.5888832211494446,
                        -0.048438068479299545,
                        0.5535926222801208,
                        0.16561442613601685,
                        -0.23937883973121643,
                        -0.044083163142204285,
                        -0.08963216841220856,
                        -0.8684389591217041,
                        0.07910756766796112,
                        -0.12449509650468826,
                        0.5578423142433167,
                        0.05566830188035965,
                        -0.23974919319152832,
                        -0.0018529625376686454,
                        -0.07698513567447662,
                        -0.4058617651462555,
                        0.0799165815114975,
                        0.34313860535621643,
                        0.5129522681236267,
                        0.05022251605987549,
                        0.5547938942909241,
                        -0.16773958504199982,
                        -0.17955122888088226
                    ]
                ],
                [
                    [
                        0.12375576794147491,
                        0.1450836956501007,
                        -0.1615723967552185,
                        0.24699349701404572,
                        0.006833672057837248,
                        0.2120683640241623,
                        -0.10778743773698807,
                        -0.2575107514858246,
                        -0.0011186724295839667,
                        -0.20046216249465942,
                        0.3025650978088379,
                        0.10804688185453415,
                        0.040261127054691315,
                        -0.07526683062314987,
                        -0.021562352776527405,
                        -0.16794101893901825,
                        0.2624778151512146,
                        0.06899553537368774,
                        -0.3161592185497284,
                        0.004647858440876007,
                        0.023716723546385765,
                        0.1945420503616333,
                        -0.23067143559455872,
                        -0.3624424934387207,
                        -0.1387907862663269,
                        -0.36707398295402527,
                        -0.05496003478765488,
                        -0.0742199569940567,
                        -0.151087686419487,
                        0.02188386395573616,
                        -0.19715486466884613,
                        -0.5515578389167786,
                        0.272741436958313,
                        -0.18158838152885437,
                        0.37727534770965576,
                        -0.20539072155952454,
                        -0.01373126171529293,
                        0.13009966909885406,
                        -0.4550449252128601,
                        0.0350826270878315,
                        -0.052212800830602646,
                        1.041433572769165,
                        -0.06342145055532455,
                        -0.4179569184780121,
                        -0.6492427587509155,
                        0.18891336023807526,
                        0.23371930420398712,
                        -0.13829587399959564,
                        0.03519298508763313,
                        -0.4347502887248993,
                        -0.14473551511764526,
                        0.36456063389778137,
                        0.12224392592906952,
                        0.045745301991701126,
                        -0.3301618993282318,
                        -0.08811891824007034,
                        0.22105461359024048,
                        -0.1342066079378128,
                        0.14978060126304626,
                        0.33247220516204834,
                        0.09699098765850067,
                        0.15407754480838776,
                        -0.08209151774644852,
                        -0.07639271765947342
                    ],
                    [
                        0.20169392228126526,
                        -0.47922664880752563,
                        0.05577947571873665,
                        0.09945299476385117,
                        -0.06337001919746399,
                        0.3717747628688812,
                        0.3826223313808441,
                        0.09877186268568039,
                        -0.001180974766612053,
                        -0.2471277117729187,
                        0.9903596639633179,
                        0.5650317668914795,
                        -0.18776391446590424,
                        0.07704362273216248,
                        0.1849190592765808,
                        -0.22578845918178558,
                        -0.4765000641345978,
                        -0.414391428232193,
                        -0.19714416563510895,
                        -0.3064212203025818,
                        -0.16338101029396057,
                        -0.27768674492836,
                        -0.3415084779262543,
                        0.031179560348391533,
                        0.07537340372800827,
                        0.2887026369571686,
                        -0.08133529126644135,
                        -0.11567521095275879,
                        0.3041616678237915,
                        -0.36391690373420715,
                        -0.171615868806839,
                        -0.22101427614688873,
                        -0.10474800318479538,
                        -0.665847897529602,
                        -0.06629445403814316,
                        0.022078566253185272,
                        0.1095142662525177,
                        0.2939477860927582,
                        -0.4513198733329773,
                        0.5827434062957764,
                        -0.15714643895626068,
                        0.13618096709251404,
                        -0.14068785309791565,
                        0.22726133465766907,
                        -0.21347294747829437,
                        0.12787146866321564,
                        0.2093915492296219,
                        -0.11914844810962677,
                        -0.16002675890922546,
                        -0.06946153193712234,
                        -0.1295710951089859,
                        0.09703575819730759,
                        0.3094785213470459,
                        -0.14442259073257446,
                        0.04801550507545471,
                        -0.1318752020597458,
                        0.22183969616889954,
                        -0.2853254973888397,
                        0.022154787555336952,
                        0.5400295257568359,
                        -0.2302873283624649,
                        0.16061121225357056,
                        -0.1296989917755127,
                        -0.026666676625609398
                    ],
                    [
                        0.07271093130111694,
                        0.0950150117278099,
                        -0.24326367676258087,
                        0.10015460103750229,
                        0.04258829727768898,
                        0.111820288002491,
                        0.22227109968662262,
                        0.045313067734241486,
                        0.14466528594493866,
                        0.13704001903533936,
                        0.48644670844078064,
                        0.06580429524183273,
                        0.10515578836202621,
                        0.10435742884874344,
                        0.26374536752700806,
                        0.10988769680261612,
                        0.22822019457817078,
                        0.0783441960811615,
                        0.24614793062210083,
                        0.35409364104270935,
                        0.06814710795879364,
                        -0.08712664991617203,
                        0.09297695010900497,
                        -0.17765222489833832,
                        -0.11342208087444305,
                        0.028202490881085396,
                        -0.04347459226846695,
                        0.21248146891593933,
                        -0.10363388806581497,
                        -0.10897435247898102,
                        0.07361836731433868,
                        0.33295467495918274,
                        -0.4502147436141968,
                        -0.2074914425611496,
                        -0.1678556352853775,
                        -0.15337513387203217,
                        -0.06526196002960205,
                        0.11102573573589325,
                        0.04546307027339935,
                        0.034949496388435364,
                        -0.051844771951436996,
                        2.272887706756592,
                        -0.7021012306213379,
                        -0.4706849455833435,
                        -0.011394674889743328,
                        0.43295958638191223,
                        -0.29849228262901306,
                        0.7219046950340271,
                        0.12982098758220673,
                        0.223053440451622,
                        0.21612441539764404,
                        -0.15668632090091705,
                        0.016864709556102753,
                        0.08464997261762619,
                        0.0759284570813179,
                        0.11162023991346359,
                        0.15165789425373077,
                        0.12492185086011887,
                        0.3360084891319275,
                        -0.7671173810958862,
                        0.0983879417181015,
                        0.001635833759792149,
                        0.032858431339263916,
                        -0.02049892209470272
                    ],
                    [
                        0.035336557775735855,
                        -0.12876832485198975,
                        0.3113676905632019,
                        -0.2566625475883484,
                        -0.03276728093624115,
                        -0.12932604551315308,
                        -0.03782317414879799,
                        -0.18006369471549988,
                        -0.24642784893512726,
                        0.05370129272341728,
                        0.12218691408634186,
                        -0.12165464460849762,
                        -0.15213064849376678,
                        0.11408944427967072,
                        -0.17053844034671783,
                        0.14324767887592316,
                        -0.3583957850933075,
                        0.18618586659431458,
                        0.23747938871383667,
                        -0.3952980637550354,
                        -0.06667809933423996,
                        -0.06334607303142548,
                        -0.10163343697786331,
                        0.48934730887413025,
                        0.031881049275398254,
                        0.26994961500167847,
                        0.297784686088562,
                        -0.22691331803798676,
                        0.14191576838493347,
                        0.20236985385417938,
                        -0.0813990905880928,
                        0.31483590602874756,
                        -0.10876637697219849,
                        -0.24944785237312317,
                        -0.17603231966495514,
                        0.0752532109618187,
                        0.05571189895272255,
                        -0.15752381086349487,
                        0.03176790475845337,
                        0.2639507055282593,
                        0.07386340945959091,
                        0.8657382726669312,
                        -0.235375314950943,
                        0.46685177087783813,
                        -0.034395214170217514,
                        -0.42129993438720703,
                        0.252748042345047,
                        0.24442502856254578,
                        -0.23501259088516235,
                        -0.4300982654094696,
                        -0.03788908198475838,
                        -0.07034844905138016,
                        0.286732941865921,
                        -0.012814803048968315,
                        0.06792180240154266,
                        -0.11303991824388504,
                        -0.00936274416744709,
                        0.023821702226996422,
                        0.11201005429029465,
                        0.3409560024738312,
                        -0.18299110233783722,
                        0.05931044742465019,
                        -0.17498566210269928,
                        0.005513153038918972
                    ],
                    [
                        1.121039867401123,
                        -0.35153132677078247,
                        -0.06587773561477661,
                        0.45924320816993713,
                        -0.10366510599851608,
                        0.8843511343002319,
                        1.1183379888534546,
                        -0.05644438788294792,
                        0.15862765908241272,
                        -0.42732518911361694,
                        0.05481205880641937,
                        0.3274815082550049,
                        -0.489085853099823,
                        0.2604638338088989,
                        0.05707390978932381,
                        -0.22421808540821075,
                        -0.83905428647995,
                        -0.16294237971305847,
                        -0.2571021318435669,
                        -0.6671441793441772,
                        -0.2581923007965088,
                        -0.9112460017204285,
                        -1.0005406141281128,
                        -0.30958351492881775,
                        0.28422242403030396,
                        0.25859907269477844,
                        0.056129250675439835,
                        -0.45877373218536377,
                        0.05875131115317345,
                        -0.7577840685844421,
                        -0.41723230481147766,
                        -0.11466193944215775,
                        0.2720224857330322,
                        0.5146827101707458,
                        -0.11499901860952377,
                        0.06847502291202545,
                        0.18095214664936066,
                        -0.08383546024560928,
                        0.09223306179046631,
                        -0.15356849133968353,
                        -0.1799604892730713,
                        0.14227579534053802,
                        0.08725938200950623,
                        0.07342270761728287,
                        0.5757801532745361,
                        -0.00751053262501955,
                        -0.24791944026947021,
                        -0.04464082047343254,
                        0.18502025306224823,
                        0.012060970067977905,
                        -0.37340331077575684,
                        -0.2602025866508484,
                        -0.15194126963615417,
                        0.001377292675897479,
                        0.014372331090271473,
                        -0.4671260118484497,
                        -0.08665693551301956,
                        -0.45531225204467773,
                        -0.1315212994813919,
                        -0.22772251069545746,
                        -0.538779079914093,
                        -0.25214603543281555,
                        -0.24690738320350647,
                        -0.21540823578834534
                    ],
                    [
                        0.42611607909202576,
                        -0.010276954621076584,
                        -0.1963510662317276,
                        -0.03394124656915665,
                        0.05469173192977905,
                        0.08884946256875992,
                        0.06204930692911148,
                        0.023106684908270836,
                        0.13370153307914734,
                        -0.012126503512263298,
                        0.03268049284815788,
                        0.16825628280639648,
                        0.07182671874761581,
                        0.035316102206707,
                        0.06161025911569595,
                        -0.1392240673303604,
                        0.38885262608528137,
                        -0.13735339045524597,
                        -0.09761884063482285,
                        0.04088020324707031,
                        0.11195514351129532,
                        0.14095436036586761,
                        0.27511903643608093,
                        -0.13304835557937622,
                        0.06464045494794846,
                        0.06853120028972626,
                        -0.05764549598097801,
                        0.42929697036743164,
                        -0.04336347058415413,
                        0.10915245115756989,
                        0.050313565880060196,
                        0.04593101516366005,
                        0.44490107893943787,
                        0.24444988369941711,
                        -0.6519744992256165,
                        0.13936550915241241,
                        -0.09981033205986023,
                        0.36059579253196716,
                        -0.5266157984733582,
                        -0.3291802406311035,
                        0.2125217765569687,
                        -0.21671180427074432,
                        0.1363491266965866,
                        -0.3435015082359314,
                        -0.3062252104282379,
                        -0.2573710083961487,
                        -0.023460907861590385,
                        0.011323460377752781,
                        0.04513335973024368,
                        -0.08177080005407333,
                        -0.08308786153793335,
                        0.0639025941491127,
                        -0.09433933347463608,
                        0.07725786417722702,
                        0.17651541531085968,
                        0.010979678481817245,
                        0.0023674098774790764,
                        0.005847482476383448,
                        0.014328121207654476,
                        -0.3065318763256073,
                        0.0993652194738388,
                        0.18494221568107605,
                        0.045606281608343124,
                        -0.022129183635115623
                    ],
                    [
                        0.08388999104499817,
                        -0.0074489787220954895,
                        0.14822110533714294,
                        -0.10869663953781128,
                        -0.03195982053875923,
                        0.09742289036512375,
                        0.09238014370203018,
                        0.17355695366859436,
                        -0.04260250926017761,
                        0.005097887013107538,
                        0.2436034381389618,
                        0.18810023367404938,
                        -0.03502076491713524,
                        -0.0019937895704060793,
                        0.062371622771024704,
                        -0.004932959098368883,
                        0.006560732610523701,
                        0.05101434886455536,
                        -0.04928330332040787,
                        -0.12156199663877487,
                        -0.06522350013256073,
                        -0.034073472023010254,
                        0.10207409411668777,
                        0.0015053272945806384,
                        -0.07925603538751602,
                        0.034345511347055435,
                        0.05135505646467209,
                        0.08538880944252014,
                        0.10929388552904129,
                        0.07939103245735168,
                        0.06954792141914368,
                        0.002257356885820627,
                        0.41905078291893005,
                        0.10285043716430664,
                        0.20106688141822815,
                        0.17525337636470795,
                        0.057108405977487564,
                        0.7239747643470764,
                        0.1459871530532837,
                        -0.32173097133636475,
                        -0.08685892075300217,
                        -0.04087243229150772,
                        -0.2567909359931946,
                        0.13087894022464752,
                        0.18314926326274872,
                        -0.26682448387145996,
                        -0.12326735258102417,
                        0.02347426675260067,
                        -0.057711221277713776,
                        -0.1651812046766281,
                        0.013098593801259995,
                        -0.025822417810559273,
                        0.08192860335111618,
                        0.009097143076360226,
                        0.07232118397951126,
                        0.028261493891477585,
                        0.001674911007285118,
                        -0.012052501551806927,
                        0.06705757230520248,
                        0.28950896859169006,
                        -0.04979823902249336,
                        0.018674734979867935,
                        -0.009778355248272419,
                        0.016714874655008316
                    ],
                    [
                        2.5039322281372733e-05,
                        -0.03923734650015831,
                        0.0831204354763031,
                        0.017804892733693123,
                        -0.00795494019985199,
                        -0.19662928581237793,
                        -0.27757683396339417,
                        0.1297302395105362,
                        -0.16207991540431976,
                        -0.004949052818119526,
                        0.0611007884144783,
                        -0.06768300384283066,
                        0.08954711258411407,
                        0.2073993682861328,
                        0.45309746265411377,
                        0.16782987117767334,
                        -0.038170840591192245,
                        0.31048205494880676,
                        -0.04348373785614967,
                        0.16037553548812866,
                        -0.0119990985840559,
                        -0.078777976334095,
                        -0.03640634939074516,
                        -0.32493364810943604,
                        -0.3912311792373657,
                        0.12849749624729156,
                        0.12616994976997375,
                        0.1551998257637024,
                        -0.061241451650857925,
                        -0.01565115712583065,
                        0.18123595416545868,
                        -0.17480570077896118,
                        0.11167886108160019,
                        -1.1325229406356812,
                        0.033340223133563995,
                        -0.3958861231803894,
                        0.014767222106456757,
                        -0.39998292922973633,
                        0.8490230441093445,
                        0.10693661868572235,
                        -0.6979120373725891,
                        0.05067693814635277,
                        -0.21835871040821075,
                        0.6429100036621094,
                        -0.7358603477478027,
                        -0.3979184627532959,
                        0.05208515375852585,
                        0.15347351133823395,
                        -0.01785871386528015,
                        0.6019110679626465,
                        0.015167616307735443,
                        -0.017651408910751343,
                        -0.41141974925994873,
                        -0.061015535145998,
                        0.06348584592342377,
                        0.07609942555427551,
                        -0.4060159921646118,
                        -0.010721372440457344,
                        0.07440338283777237,
                        -0.0910118818283081,
                        0.10107060521841049,
                        -0.04968096688389778,
                        0.31684911251068115,
                        -0.2368071973323822
                    ],
                    [
                        -0.44219887256622314,
                        -0.1073739230632782,
                        -0.1465209424495697,
                        -0.37447482347488403,
                        0.05218679830431938,
                        -0.5651152729988098,
                        -0.440399706363678,
                        0.057878896594047546,
                        0.05038730055093765,
                        0.09397783130407333,
                        -0.3611859381198883,
                        -0.3565116226673126,
                        0.20129232108592987,
                        -0.4110614061355591,
                        -0.2621700167655945,
                        0.045727845281362534,
                        0.5248532295227051,
                        -0.1665150672197342,
                        0.14598295092582703,
                        0.20886676013469696,
                        0.13094556331634521,
                        0.7638131976127625,
                        0.5314108729362488,
                        0.3417447805404663,
                        -0.15641286969184875,
                        -0.09876306354999542,
                        -0.22952845692634583,
                        0.3058723211288452,
                        0.031156953424215317,
                        0.41016316413879395,
                        0.029193349182605743,
                        -0.05152330547571182,
                        0.10956697165966034,
                        -0.3222741186618805,
                        -0.225332573056221,
                        0.05631037801504135,
                        -0.08808420598506927,
                        0.0457862950861454,
                        -0.4258122146129608,
                        0.40267688035964966,
                        -0.5348560214042664,
                        0.19781439006328583,
                        0.509827733039856,
                        0.1550394743680954,
                        0.02195175737142563,
                        0.00038654112722724676,
                        0.1326088011264801,
                        -0.42200565338134766,
                        -0.19520223140716553,
                        0.1427994817495346,
                        0.05655885860323906,
                        0.3748839199542999,
                        0.18671394884586334,
                        -0.10749669373035431,
                        0.020372796803712845,
                        0.08722266554832458,
                        0.32235613465309143,
                        0.11245875805616379,
                        -0.34594443440437317,
                        0.5638555288314819,
                        0.22503957152366638,
                        0.1890108734369278,
                        -0.055513646453619,
                        0.29767194390296936
                    ],
                    [
                        -0.7865796685218811,
                        0.1557343453168869,
                        -0.20451204478740692,
                        1.4312442541122437,
                        -0.026114361360669136,
                        0.1907675862312317,
                        0.10332213342189789,
                        0.0492483526468277,
                        -0.6118137836456299,
                        -0.04904232919216156,
                        0.12785331904888153,
                        0.21467657387256622,
                        -0.031823914498090744,
                        1.1970981359481812,
                        0.5028638243675232,
                        -0.2692558765411377,
                        0.13585405051708221,
                        0.04853827878832817,
                        -0.3131711781024933,
                        -0.1776292622089386,
                        -0.07173434644937515,
                        -0.14185500144958496,
                        -0.1756363958120346,
                        -0.1692758947610855,
                        -0.7438641786575317,
                        -0.20330975949764252,
                        0.11558518558740616,
                        -0.047408752143383026,
                        0.03655702620744705,
                        -0.14375340938568115,
                        0.06477940082550049,
                        0.2555113434791565,
                        -0.8944942355155945,
                        -0.2745494544506073,
                        -0.38387247920036316,
                        -0.8402664065361023,
                        0.05409468710422516,
                        0.6532734036445618,
                        0.16544002294540405,
                        0.14663414657115936,
                        -0.8740152716636658,
                        0.25231191515922546,
                        -1.7883814573287964,
                        -0.0012049166252836585,
                        0.6926278471946716,
                        0.8325433135032654,
                        -0.004503943491727114,
                        1.0163346529006958,
                        -0.4844180941581726,
                        0.30640867352485657,
                        -0.19837209582328796,
                        0.5496799349784851,
                        0.2080981731414795,
                        -0.11075304448604584,
                        -0.028463641181588173,
                        0.06453263759613037,
                        -0.4444084167480469,
                        -0.04464992135763168,
                        0.34012147784233093,
                        0.5580116510391235,
                        -0.05618336424231529,
                        0.1449783742427826,
                        0.23097391426563263,
                        -0.28839796781539917
                    ],
                    [
                        -0.5242087244987488,
                        -0.30196210741996765,
                        -0.22864799201488495,
                        -0.026437658816576004,
                        -0.010896923951804638,
                        0.41066980361938477,
                        0.07082991302013397,
                        0.17902204394340515,
                        0.11026913672685623,
                        -0.11775229126214981,
                        0.04787305369973183,
                        0.07866153120994568,
                        0.0019652140326797962,
                        -0.454723984003067,
                        0.3090304732322693,
                        0.12268171459436417,
                        -0.039076074957847595,
                        0.5584192276000977,
                        0.01807268336415291,
                        0.06356679648160934,
                        -0.012315548956394196,
                        -0.014816788025200367,
                        -0.2102528065443039,
                        0.22492045164108276,
                        0.10387217998504639,
                        -0.10034725815057755,
                        0.3453535735607147,
                        -0.026418713852763176,
                        -0.0058074272237718105,
                        -0.22656400501728058,
                        0.27212920784950256,
                        -0.18163138628005981,
                        0.34183159470558167,
                        -0.7227575778961182,
                        -0.07069319486618042,
                        -0.44424986839294434,
                        0.008649890311062336,
                        -0.5328401327133179,
                        0.16551077365875244,
                        0.37462541460990906,
                        -0.5968554019927979,
                        0.33489906787872314,
                        0.5893151164054871,
                        -0.03906548395752907,
                        1.212269902229309,
                        -0.03438136354088783,
                        0.6447619795799255,
                        -0.7318645715713501,
                        -0.2681821882724762,
                        -0.1549425572156906,
                        -0.14289207756519318,
                        -0.04277800768613815,
                        0.018851542845368385,
                        -0.2272474318742752,
                        -0.04962817206978798,
                        -0.0953156128525734,
                        0.7563328742980957,
                        -0.09227461367845535,
                        -0.07501401007175446,
                        0.2616789937019348,
                        -0.02143530361354351,
                        0.17579887807369232,
                        0.014730481430888176,
                        0.2987256944179535
                    ],
                    [
                        0.05955072119832039,
                        -0.19920092821121216,
                        -0.009380502626299858,
                        -0.05907680466771126,
                        -0.04300348088145256,
                        0.0670376718044281,
                        -0.16639743745326996,
                        -0.04103653132915497,
                        -0.26328033208847046,
                        -0.13374240696430206,
                        -0.29212847352027893,
                        -0.24495214223861694,
                        -0.15711431205272675,
                        -0.16621163487434387,
                        0.1973569095134735,
                        -0.13592496514320374,
                        -0.26953965425491333,
                        -0.004743063822388649,
                        0.020915770903229713,
                        0.026845920830965042,
                        -0.10720834136009216,
                        0.00031591381411999464,
                        -0.3742252290248871,
                        0.046200063079595566,
                        0.03015720285475254,
                        0.09114675968885422,
                        0.04420243576169014,
                        -0.38401663303375244,
                        0.13737568259239197,
                        -0.020088663324713707,
                        0.1407916396856308,
                        0.023849966004490852,
                        -0.12442418932914734,
                        0.05730556324124336,
                        -0.7479943633079529,
                        -0.24090665578842163,
                        0.07068771868944168,
                        -0.28819331526756287,
                        0.018556082621216774,
                        -0.6359543204307556,
                        -0.14978493750095367,
                        0.37655389308929443,
                        0.5590483546257019,
                        -0.054761845618486404,
                        -0.8868780732154846,
                        -0.08129048347473145,
                        0.423717200756073,
                        -0.29059481620788574,
                        -0.3297637403011322,
                        0.01861739158630371,
                        -0.24845848977565765,
                        0.20392662286758423,
                        -0.05217031016945839,
                        -0.03303121030330658,
                        -0.21136777102947235,
                        -0.11148069053888321,
                        0.0672248974442482,
                        -0.15449918806552887,
                        -0.1578616201877594,
                        -0.08923948556184769,
                        -0.1926914006471634,
                        0.21288670599460602,
                        -0.19837957620620728,
                        0.006311309058219194
                    ],
                    [
                        -0.5189620852470398,
                        -0.1746223121881485,
                        0.0007232705247588456,
                        0.8352526426315308,
                        -0.0044065979309380054,
                        0.48731473088264465,
                        -0.1859906166791916,
                        0.18234524130821228,
                        0.15552693605422974,
                        -0.041238367557525635,
                        -0.3560185730457306,
                        0.19392693042755127,
                        -0.0006623016088269651,
                        0.09512490034103394,
                        0.4873536229133606,
                        -0.1135386973619461,
                        0.06714879721403122,
                        0.32019102573394775,
                        0.04997311532497406,
                        0.022903727367520332,
                        -0.015646087005734444,
                        -0.01682451367378235,
                        0.18891675770282745,
                        0.4539324939250946,
                        0.09868048131465912,
                        -0.26572197675704956,
                        0.004986017011106014,
                        0.16307798027992249,
                        0.23417489230632782,
                        -0.15202921628952026,
                        0.49588578939437866,
                        -0.011134441010653973,
                        -0.01134554948657751,
                        -0.5788475275039673,
                        0.19419459998607635,
                        -0.4270585775375366,
                        0.013516397215425968,
                        -0.061884716153144836,
                        -0.4943004548549652,
                        0.41900476813316345,
                        0.07105421274900436,
                        -0.2275732159614563,
                        -0.5410564541816711,
                        -0.16514775156974792,
                        -0.4237314462661743,
                        0.07021833956241608,
                        0.025023339316248894,
                        -0.027987012639641762,
                        0.6061467528343201,
                        -1.9765418767929077,
                        0.1502685248851776,
                        -0.1325150430202484,
                        1.6985208988189697,
                        0.0853128731250763,
                        -0.2989361584186554,
                        0.10452967882156372,
                        1.487358808517456,
                        -0.004247005563229322,
                        -0.3892267942428589,
                        -0.7615704536437988,
                        -0.021626632660627365,
                        -0.13036251068115234,
                        0.10394532233476639,
                        -0.1453697681427002
                    ],
                    [
                        -0.16814856231212616,
                        0.03770123049616814,
                        0.11264066398143768,
                        0.09616512060165405,
                        0.03736976161599159,
                        0.13050107657909393,
                        0.01805431954562664,
                        -0.01583586074411869,
                        0.09546308219432831,
                        -0.010153249837458134,
                        0.09998519718647003,
                        0.04548351466655731,
                        0.08571875840425491,
                        -0.11783415079116821,
                        0.046608101576566696,
                        0.013323701918125153,
                        0.09071359783411026,
                        -0.2209341675043106,
                        0.2621222138404846,
                        0.2630806565284729,
                        0.07230918109416962,
                        0.04409719631075859,
                        -0.08954410254955292,
                        -0.2502695918083191,
                        0.005613301414996386,
                        0.03912157192826271,
                        -0.19418609142303467,
                        0.04001246392726898,
                        -0.0810035914182663,
                        -0.0385296531021595,
                        -0.13499292731285095,
                        -0.2544524073600769,
                        -0.007354565896093845,
                        -0.21534433960914612,
                        -0.4965701103210449,
                        -0.44996190071105957,
                        -0.06296174228191376,
                        0.09957551956176758,
                        0.1671382635831833,
                        0.7153944969177246,
                        0.0012150132097303867,
                        -0.6948866248130798,
                        0.25868117809295654,
                        0.15810179710388184,
                        0.48064178228378296,
                        0.04759079962968826,
                        0.5207527279853821,
                        -0.028955595567822456,
                        0.1236727386713028,
                        0.0662841647863388,
                        0.11906809359788895,
                        -0.0494200624525547,
                        -0.0613446906208992,
                        0.038448404520750046,
                        -0.03142065182328224,
                        0.025355828925967216,
                        -0.1271597146987915,
                        -0.006878647953271866,
                        -0.0446631945669651,
                        -0.4263461232185364,
                        0.10118398070335388,
                        -0.06034598499536514,
                        0.024813640862703323,
                        0.10394836217164993
                    ],
                    [
                        -0.37798771262168884,
                        0.0440186969935894,
                        0.03215827792882919,
                        -0.0972905308008194,
                        0.002864903537556529,
                        -0.24605487287044525,
                        -0.11163916438817978,
                        0.32328110933303833,
                        -0.21281541883945465,
                        0.042867131531238556,
                        0.21849888563156128,
                        0.28935638070106506,
                        0.08455999195575714,
                        -0.2886950373649597,
                        0.162286177277565,
                        0.1249646320939064,
                        0.019790565595030785,
                        0.26266419887542725,
                        0.00392466364428401,
                        -0.08299444615840912,
                        0.03230137750506401,
                        -0.15227492153644562,
                        0.34306395053863525,
                        0.018626393750309944,
                        -0.19303753972053528,
                        -0.04357254505157471,
                        0.36181071400642395,
                        0.5494179725646973,
                        0.05034086853265762,
                        -0.11083456128835678,
                        0.40022701025009155,
                        0.2185637354850769,
                        0.1894637644290924,
                        -0.5285786986351013,
                        0.20466046035289764,
                        0.020077751949429512,
                        -0.008166764862835407,
                        -0.18371252715587616,
                        0.17907892167568207,
                        -0.3418098986148834,
                        -0.24094046652317047,
                        -0.2988409698009491,
                        0.3016064167022705,
                        -0.450447142124176,
                        -0.36955589056015015,
                        -0.005470328964293003,
                        0.29064568877220154,
                        -0.14892463386058807,
                        0.08318042755126953,
                        0.30812424421310425,
                        0.09638522565364838,
                        0.005107191391289234,
                        -0.012642054818570614,
                        -0.08632592111825943,
                        -0.014632709324359894,
                        0.19720226526260376,
                        -0.19974766671657562,
                        0.060324475169181824,
                        0.19311584532260895,
                        -0.08759387582540512,
                        0.08637123554944992,
                        -0.1483803391456604,
                        0.36689797043800354,
                        0.12390022724866867
                    ],
                    [
                        -1.131745457649231,
                        0.39905476570129395,
                        -0.3926973342895508,
                        -0.6673006415367126,
                        0.10344216227531433,
                        -0.38523873686790466,
                        -0.5627195239067078,
                        0.28998440504074097,
                        0.12457114458084106,
                        0.45057809352874756,
                        0.17178013920783997,
                        -0.3802630603313446,
                        0.5226424336433411,
                        -1.3191514015197754,
                        -0.30956387519836426,
                        -0.006249528378248215,
                        1.105086326599121,
                        0.021421678364276886,
                        0.22508171200752258,
                        0.7021714448928833,
                        0.2754758596420288,
                        0.8285706043243408,
                        1.150485634803772,
                        0.5712485313415527,
                        0.4585832357406616,
                        0.5555338859558105,
                        0.4192240238189697,
                        0.6551861763000488,
                        0.37096142768859863,
                        0.7043251991271973,
                        0.16206346452236176,
                        0.06969290971755981,
                        0.024899447336792946,
                        -0.3385818600654602,
                        -0.0827372670173645,
                        -0.28855499625205994,
                        -0.17614831030368805,
                        0.07029276341199875,
                        0.11157940328121185,
                        -0.17668086290359497,
                        -0.031056160107254982,
                        -0.12087785452604294,
                        0.03197992593050003,
                        0.33160731196403503,
                        0.21286612749099731,
                        0.4370112419128418,
                        -0.021345941349864006,
                        -0.220370352268219,
                        -0.07879520952701569,
                        -0.6348469853401184,
                        0.087736114859581,
                        0.15520919859409332,
                        -0.12568987905979156,
                        0.06538057327270508,
                        0.19499963521957397,
                        0.34281235933303833,
                        -0.1917097121477127,
                        0.6300884485244751,
                        0.6624703407287598,
                        0.029028672724962234,
                        0.5539155006408691,
                        0.03878510743379593,
                        -0.0017404670361429453,
                        0.42823347449302673
                    ]
                ],
                [
                    -2.149656295776367,
                    0.7442950010299683,
                    0.0475558340549469,
                    -1.3083057403564453,
                    0.3525938391685486,
                    -2.146831512451172,
                    -3.080399751663208,
                    -0.06011050194501877,
                    -0.17018213868141174,
                    1.553594708442688,
                    0.18430474400520325,
                    -1.7568035125732422,
                    1.5322071313858032,
                    -1.302276849746704,
                    -0.4259680509567261,
                    0.44076675176620483,
                    2.8113229274749756,
                    0.5145435333251953,
                    0.4349808394908905,
                    1.7377686500549316,
                    0.9853899478912354,
                    2.6149988174438477,
                    3.3980374336242676,
                    1.3867521286010742,
                    0.08091705292463303,
                    -0.557459831237793,
                    -0.20740634202957153,
                    2.0717103481292725,
                    -0.27416011691093445,
                    1.9356212615966797,
                    0.9199056625366211,
                    0.8619292974472046,
                    0.035405054688453674,
                    -0.2897633910179138,
                    -0.11636531352996826,
                    0.08264633268117905,
                    -0.5809534192085266,
                    0.020011141896247864,
                    -0.01655958592891693,
                    -0.010961055755615234,
                    0.67667555809021,
                    0.11370813846588135,
                    -0.23053297400474548,
                    -0.3020170331001282,
                    0.03576350584626198,
                    -0.3193128705024719,
                    0.09681116789579391,
                    0.9568983316421509,
                    0.02486020140349865,
                    0.26744964718818665,
                    1.218231439590454,
                    0.097422756254673,
                    0.6732068061828613,
                    0.24813956022262573,
                    0.0371382012963295,
                    1.3975143432617188,
                    0.1620720475912094,
                    1.6812098026275635,
                    0.8583990931510925,
                    0.17478008568286896,
                    1.656442403793335,
                    0.5307388305664062,
                    0.3114479184150696,
                    1.1037042140960693
                ]
            ]
        },
        {
            "type": "dense",
            "activation": "",
            "shape": [
                null,
                null,
                1
            ],
            "weights": [
                [
                    [
                        0.43857795000076294
                    ],
                    [
                        0.7538006901741028
                    ],
                    [
                        -0.03599533066153526
                    ],
                    [
                        -0.07436694949865341
                    ],
                    [
                        -0.20871882140636444
                    ],
                    [
                        0.2748452126979828
                    ],
                    [
                        0.8192743062973022
                    ],
                    [
                        -0.8225167989730835
                    ],
                    [
                        0.6005960702896118
                    ],
                    [
                        -0.0478520505130291
                    ],
                    [
                        -0.1249605268239975
                    ],
                    [
                        -0.004872180055826902
                    ],
                    [
                        0.3040402829647064
                    ],
                    [
                        0.1032927855849266
                    ],
                    [
                        -0.30029726028442383
                    ],
                    [
                        0.037164151668548584
                    ]
                ],
                [
                    -0.055448248982429504
                ]
            ]
        }
    ]
}