{
    "in_shape": [
        null,
        null,
        1
    ],
    "layers": [
        {
            "type": "lstm",
            "activation": "",
            "shape": [
                null,
                null,
                8
            ],
            "weights": [
                [
                    [
                        0.11611101031303406,
                        -0.6046969890594482,
                        0.14209848642349243,
                        0.1589908003807068,
                        -0.6174786686897278,
                        0.6619977951049805,
                        -0.535896897315979,
                        0.2980422079563141,
                        -0.08089321851730347,
                        -0.4982397258281708,
                        0.31482475996017456,
                        0.11496703326702118,
                        0.21759341657161713,
                        0.20502421259880066,
                        -0.19997616112232208,
                        1.3560792207717896,
                        0.2256968766450882,
                        -0.23770061135292053,
                        -0.2638469934463501,
                        0.3184835612773895,
                        0.13073478639125824,
                        0.10436081886291504,
                        -1.1056333780288696,
                        0.6823774576187134,
                        0.061584096401929855,
                        1.9853661060333252,
                        0.27457064390182495,
                        0.4929596781730652,
                        0.007782891858369112,
                        -0.87345290184021,
                        0.7385281324386597,
                        -1.7654727697372437
                    ]
                ],
                [
                    [
                        -0.4538938105106354,
                        -0.1027357205748558,
                        -0.2084319293498993,
                        0.018325455486774445,
                        0.6516557931900024,
                        0.2539871335029602,
                        -0.9152790307998657,
                        1.3059450387954712,
                        -0.35892677307128906,
                        -0.29059404134750366,
                        0.9381429553031921,
                        -0.17395496368408203,
                        -0.49039819836616516,
                        -0.44246259331703186,
                        0.09371660649776459,
                        -0.04793400317430496,
                        -0.29939529299736023,
                        -0.6443213820457458,
                        -0.540453314781189,
                        0.610136091709137,
                        -0.05421227589249611,
                        0.18510249257087708,
                        -0.2502903640270233,
                        -0.448495477437973,
                        1.2537357807159424,
                        0.1932697594165802,
                        2.1037614345550537,
                        -1.1258147954940796,
                        -0.5683534145355225,
                        0.49942392110824585,
                        1.5686784982681274,
                        0.051913488656282425
                    ],
                    [
                        -0.6419840455055237,
                        0.4575210213661194,
                        -0.18350045382976532,
                        -1.2395923137664795,
                        -0.8171915411949158,
                        -0.5413996577262878,
                        0.2752705514431,
                        0.34379372000694275,
                        -0.3742974102497101,
                        0.12220128625631332,
                        0.16201163828372955,
                        -0.26864850521087646,
                        -0.18763761222362518,
                        0.7204473614692688,
                        -0.26056191325187683,
                        1.007900595664978,
                        0.9968751072883606,
                        -0.6461637616157532,
                        -0.06326095014810562,
                        -0.13708235323429108,
                        0.28472357988357544,
                        0.47814953327178955,
                        -1.45570707321167,
                        1.103912115097046,
                        0.5051977038383484,
                        2.864818572998047,
                        0.08296272158622742,
                        1.2238035202026367,
                        -0.020408568903803825,
                        0.4203762710094452,
                        0.2041863054037094,
                        0.16627316176891327
                    ],
                    [
                        -0.5707827806472778,
                        -0.33440494537353516,
                        1.1530884504318237,
                        -0.24593885242938995,
                        -0.9488427639007568,
                        0.8267116546630859,
                        1.6726504564285278,
                        -0.30762332677841187,
                        -1.0698655843734741,
                        0.4856124222278595,
                        1.1829389333724976,
                        0.30984461307525635,
                        -1.3248580694198608,
                        0.08065876364707947,
                        -0.79521644115448,
                        -0.3607081472873688,
                        -0.3210104703903198,
                        -0.42518123984336853,
                        0.2616327404975891,
                        -0.9803281426429749,
                        0.9711207747459412,
                        0.6098150610923767,
                        0.43938276171684265,
                        -0.5147387385368347,
                        1.2989366054534912,
                        0.6614181995391846,
                        -1.2741501331329346,
                        -0.5774797797203064,
                        -0.3886699080467224,
                        -0.7353644967079163,
                        -1.2098360061645508,
                        -0.4168226718902588
                    ],
                    [
                        0.6366547346115112,
                        0.6035267114639282,
                        0.7044641971588135,
                        -0.3619202673435211,
                        0.8778926730155945,
                        0.25873804092407227,
                        -0.2053157091140747,
                        -0.06871127337217331,
                        0.720275342464447,
                        1.3145711421966553,
                        -0.9559295177459717,
                        0.4415862560272217,
                        -0.056003130972385406,
                        0.4107489287853241,
                        -0.14078538119792938,
                        0.32559964060783386,
                        0.12252447754144669,
                        1.0921674966812134,
                        -0.017735593020915985,
                        0.6793339252471924,
                        0.7888426780700684,
                        0.20236410200595856,
                        -0.3393378257751465,
                        0.534767210483551,
                        0.5654218196868896,
                        -0.7245372533798218,
                        1.0037083625793457,
                        3.1797924041748047,
                        -0.4120529294013977,
                        0.2966494560241699,
                        -0.13151170313358307,
                        0.4392337501049042
                    ],
                    [
                        -0.013159055262804031,
                        0.5589845776557922,
                        1.2203468084335327,
                        -0.5289731025695801,
                        -0.17683064937591553,
                        -0.014091985300183296,
                        -0.28597164154052734,
                        0.6287174224853516,
                        0.8223045468330383,
                        -0.3319827914237976,
                        0.07887113839387894,
                        -0.14896176755428314,
                        -0.24592314660549164,
                        0.43516871333122253,
                        -0.18009726703166962,
                        0.333467960357666,
                        -0.9547005295753479,
                        0.892284631729126,
                        -0.8845193982124329,
                        -0.20601756870746613,
                        1.2701846361160278,
                        0.24849703907966614,
                        -0.4134029746055603,
                        0.1104777529835701,
                        0.7270136475563049,
                        -0.6703782081604004,
                        -0.5917864441871643,
                        -2.4604344367980957,
                        -0.8199814558029175,
                        0.6456032395362854,
                        0.26616257429122925,
                        0.3875740170478821
                    ],
                    [
                        0.09974881261587143,
                        0.23258496820926666,
                        -0.5924558639526367,
                        -0.5481891632080078,
                        -0.6001419425010681,
                        0.2725232243537903,
                        -0.12880061566829681,
                        -0.6012906432151794,
                        -0.366215318441391,
                        0.2576636075973511,
                        1.1700934171676636,
                        -0.15418587625026703,
                        -0.1322241872549057,
                        0.5443524718284607,
                        -0.7046672701835632,
                        0.307608962059021,
                        -1.1417036056518555,
                        0.26620572805404663,
                        -0.41435477137565613,
                        -0.5482230186462402,
                        -0.18955257534980774,
                        0.7026926279067993,
                        -0.011255275458097458,
                        -0.21455606818199158,
                        -0.6558354496955872,
                        -0.5759434700012207,
                        1.7327110767364502,
                        -1.2551627159118652,
                        -1.530630111694336,
                        2.0576553344726562,
                        0.7761539816856384,
                        0.098185695707798
                    ],
                    [
                        0.04639806970953941,
                        -0.34382370114326477,
                        0.09727039933204651,
                        -0.03124900721013546,
                        -0.5435467958450317,
                        0.5078240633010864,
                        -2.3760411739349365,
                        -0.9339219331741333,
                        0.08193321526050568,
                        0.0412515364587307,
                        1.070665955543518,
                        -0.5108674168586731,
                        -0.04539661481976509,
                        0.6022944450378418,
                        0.6426003575325012,
                        -0.8910318613052368,
                        0.4960869550704956,
                        0.47794201970100403,
                        -0.534675657749176,
                        0.5602133274078369,
                        0.3129701316356659,
                        1.2042495012283325,
                        1.7640875577926636,
                        -0.22158488631248474,
                        0.4524068832397461,
                        0.6087573170661926,
                        0.025583485141396523,
                        0.4487914741039276,
                        -0.10319093614816666,
                        -1.7933515310287476,
                        0.6093547344207764,
                        -0.5839399695396423
                    ],
                    [
                        -0.4828268587589264,
                        0.4203135073184967,
                        -0.3070847988128662,
                        -0.9877442717552185,
                        -0.5006497502326965,
                        -0.47054895758628845,
                        1.0015486478805542,
                        -1.050248622894287,
                        0.10444710403680801,
                        0.19931748509407043,
                        -0.6600767970085144,
                        -0.04823245108127594,
                        -0.29497724771499634,
                        -0.3650553524494171,
                        0.6133464574813843,
                        -1.675622820854187,
                        -0.44257059693336487,
                        0.683583676815033,
                        0.44437578320503235,
                        -0.1676885485649109,
                        -0.2572956383228302,
                        -0.2010916769504547,
                        2.203455686569214,
                        -0.7760589122772217,
                        -0.37501516938209534,
                        -3.238215446472168,
                        0.41608762741088867,
                        -1.0523464679718018,
                        0.27277424931526184,
                        -0.029666299000382423,
                        -0.25532999634742737,
                        3.2534937858581543
                    ]
                ],
                [
                    -1.0770866870880127,
                    -4.351266860961914,
                    -0.6157683730125427,
                    -2.7074241638183594,
                    0.05532587692141533,
                    -1.693122386932373,
                    0.8914947509765625,
                    -2.8980236053466797,
                    1.946234941482544,
                    4.8927321434021,
                    1.9061219692230225,
                    4.42233943939209,
                    1.3396077156066895,
                    1.6872851848602295,
                    -1.0091564655303955,
                    3.7311408519744873,
                    0.2630019187927246,
                    0.019823908805847168,
                    -0.08015008270740509,
                    0.6790661811828613,
                    -0.14862428605556488,
                    0.35154515504837036,
                    0.1273469179868698,
                    -0.07971381396055222,
                    1.3107166290283203,
                    0.785839319229126,
                    -0.9269659519195557,
                    -1.3587427139282227,
                    1.1990277767181396,
                    -0.498058557510376,
                    1.0958471298217773,
                    -0.09478580206632614
                ]
            ]
        },
        {
            "type": "dense",
            "activation": "",
            "shape": [
                null,
                null,
                1
            ],
            "weights": [
                [
                    [
                        1.6195110082626343
                    ],
                    [
                        1.3765419721603394
                    ],
                    [
                        0.8062215447425842
                    ],
                    [
                        -3.0768380165100098
                    ],
                    [
                        -0.9552519917488098
                    ],
                    [
                        -0.15822775661945343
                    ],
                    [
                        0.08895763009786606
                    ],
                    [
                        -0.08863864839076996
                    ]
                ],
                [
                    0.2633640468120575
                ]
            ]
        }
    ]
}