{
    "in_shape": [
        null,
        null,
        1
    ],
    "layers": [
        {
            "type": "lstm",
            "activation": "",
            "shape": [
                null,
                null,
                8
            ],
            "weights": [
                [
                    [
                        -0.08876568078994751,
                        -0.07324539870023727,
                        0.09831766784191132,
                        0.5333027839660645,
                        0.2698487937450409,
                        0.8527952432632446,
                        -0.21430474519729614,
                        -0.474215567111969,
                        0.006724223494529724,
                        0.051649317145347595,
                        0.2182542383670807,
                        0.1962226927280426,
                        -0.23606891930103302,
                        0.13484184443950653,
                        0.021251047030091286,
                        0.3570985198020935,
                        0.10753059387207031,
                        -0.3877244293689728,
                        -0.4937388300895691,
                        0.18388763070106506,
                        0.9477552771568298,
                        0.08950962126255035,
                        -1.2860851287841797,
                        0.4291411340236664,
                        0.37803468108177185,
                        0.7062283754348755,
                        -0.4481409788131714,
                        1.6224421262741089,
                        0.15225856006145477,
                        -0.7873098254203796,
                        0.35952770709991455,
                        -1.0341047048568726
                    ]
                ],
                [
                    [
                        0.8374412655830383,
                        0.17052263021469116,
                        0.28552985191345215,
                        -1.1299684047698975,
                        0.48710519075393677,
                        -0.7205417156219482,
                        -0.3135634660720825,
                        0.673638105392456,
                        0.010939034633338451,
                        0.08720368146896362,
                        -0.017327485606074333,
                        -0.12347479164600372,
                        -0.9809030294418335,
                        -0.879775881767273,
                        -0.6482775807380676,
                        -0.3331392705440521,
                        -0.42613092064857483,
                        -0.893520712852478,
                        -0.8636115789413452,
                        0.19486689567565918,
                        -0.4312022924423218,
                        0.4674777388572693,
                        -0.4652959406375885,
                        -0.6303985714912415,
                        0.8229065537452698,
                        0.2532224655151367,
                        1.0832706689834595,
                        -1.2158794403076172,
                        -0.9868329167366028,
                        1.152858018875122,
                        1.210326075553894,
                        0.8193824291229248
                    ],
                    [
                        -0.10905411839485168,
                        0.04519665986299515,
                        0.10768657177686691,
                        0.07483536750078201,
                        -0.3690620958805084,
                        0.2818416357040405,
                        0.0613429918885231,
                        0.9700670838356018,
                        -0.3789481818675995,
                        -0.0492192804813385,
                        0.18877068161964417,
                        -0.06970366090536118,
                        0.4854053556919098,
                        0.21495090425014496,
                        0.014971839264035225,
                        -0.053025126457214355,
                        0.06254890561103821,
                        -0.5840002298355103,
                        -0.18586121499538422,
                        -0.24857662618160248,
                        0.5900779962539673,
                        -0.005270120222121477,
                        -1.4344024658203125,
                        0.18632785975933075,
                        -0.18615680932998657,
                        0.6081405282020569,
                        -4.9492162361275405e-05,
                        0.5009746551513672,
                        -0.44369345903396606,
                        -0.2765182852745056,
                        0.1505589485168457,
                        -0.2695242762565613
                    ],
                    [
                        -0.016127586364746094,
                        -0.5722326040267944,
                        0.2827549874782562,
                        0.20404821634292603,
                        -1.322812557220459,
                        0.2539113461971283,
                        0.27083462476730347,
                        -0.9223876595497131,
                        -0.32199180126190186,
                        0.11402564495801926,
                        1.1506081819534302,
                        -0.19934114813804626,
                        -0.5743904113769531,
                        1.2071374654769897,
                        0.7845079898834229,
                        0.0855189710855484,
                        -0.1171964555978775,
                        -0.7872202396392822,
                        -0.18376344442367554,
                        -0.9931994676589966,
                        1.1348516941070557,
                        0.15234890580177307,
                        0.3687015473842621,
                        -0.08153609186410904,
                        -0.19791999459266663,
                        0.5503956079483032,
                        -0.9194297194480896,
                        -0.5151130557060242,
                        0.6102876663208008,
                        -1.149958848953247,
                        -0.17084525525569916,
                        -0.04711358994245529
                    ],
                    [
                        0.46441301703453064,
                        -0.11057355999946594,
                        -0.19384638965129852,
                        -0.11972171813249588,
                        -0.31443843245506287,
                        0.1308596283197403,
                        0.6317600011825562,
                        0.5322580933570862,
                        0.004330420400947332,
                        0.7206955552101135,
                        0.1769847273826599,
                        0.22851113975048065,
                        0.07528342306613922,
                        0.4020301103591919,
                        0.10177119076251984,
                        0.4631206691265106,
                        -0.47510555386543274,
                        0.4799133837223053,
                        0.439261794090271,
                        0.20120638608932495,
                        1.2698339223861694,
                        0.14037145674228668,
                        -0.888303816318512,
                        0.9610311388969421,
                        0.5236053466796875,
                        -0.45870348811149597,
                        0.9368433356285095,
                        1.7372175455093384,
                        -0.740636944770813,
                        0.038379959762096405,
                        0.179437056183815,
                        0.20524367690086365
                    ],
                    [
                        0.243383526802063,
                        0.1404782384634018,
                        0.17465169727802277,
                        -1.048891305923462,
                        -0.10660404711961746,
                        -0.09156183153390884,
                        0.7211522459983826,
                        1.0453952550888062,
                        0.39692556858062744,
                        -0.5876427292823792,
                        0.3836671710014343,
                        -0.77805095911026,
                        0.41467520594596863,
                        -0.7058467864990234,
                        -0.8238194584846497,
                        0.21133454144001007,
                        -0.8428151607513428,
                        0.6044360399246216,
                        -1.514033555984497,
                        -0.3031035363674164,
                        -0.009422807022929192,
                        0.3135695159435272,
                        -0.44229814410209656,
                        0.23712404072284698,
                        0.4370403587818146,
                        -0.29697009921073914,
                        -1.61404550075531,
                        -1.4981969594955444,
                        -0.9290401935577393,
                        0.6341284513473511,
                        -0.4451787769794464,
                        0.30470263957977295
                    ],
                    [
                        -0.23692254722118378,
                        -0.200369730591774,
                        -2.723167657852173,
                        -0.026771865785121918,
                        0.18477894365787506,
                        0.3626500964164734,
                        -1.4971096515655518,
                        0.10415271669626236,
                        -0.949800968170166,
                        -0.04618290066719055,
                        1.840077519416809,
                        0.08917243033647537,
                        0.6900811791419983,
                        -0.5755462646484375,
                        0.8877947330474854,
                        -0.2767804265022278,
                        -0.013078863732516766,
                        0.5909366011619568,
                        -0.6731534600257874,
                        0.05726606398820877,
                        0.0037560409400612116,
                        0.8132749795913696,
                        -0.200942263007164,
                        -0.22493591904640198,
                        -0.02128264680504799,
                        0.2819347679615021,
                        0.39140212535858154,
                        -0.9935619831085205,
                        -0.6788120865821838,
                        0.7891106009483337,
                        0.9938619136810303,
                        -0.14687539637088776
                    ],
                    [
                        0.8863650560379028,
                        0.036368776112794876,
                        0.8364914059638977,
                        0.4744666516780853,
                        -0.9919483065605164,
                        0.23588915169239044,
                        -0.45142507553100586,
                        -1.8998903036117554,
                        0.25254741311073303,
                        -0.016058078035712242,
                        0.3015771806240082,
                        0.20212019979953766,
                        -0.498312383890152,
                        0.15143755078315735,
                        0.010456344112753868,
                        -1.861480712890625,
                        0.9634255170822144,
                        1.4993075132369995,
                        -1.3596537113189697,
                        1.154396414756775,
                        0.7451760768890381,
                        1.9320720434188843,
                        0.8522771596908569,
                        -0.7095999717712402,
                        -0.04389888793230057,
                        0.67494797706604,
                        -1.0925005674362183,
                        1.7541602849960327,
                        1.5192025899887085,
                        -0.8326601386070251,
                        1.3215763568878174,
                        -0.5753424167633057
                    ],
                    [
                        -0.27818483114242554,
                        0.07667027413845062,
                        0.05451371148228645,
                        0.17135530710220337,
                        -0.3763495981693268,
                        -0.2958831489086151,
                        0.2747032344341278,
                        -0.46604669094085693,
                        0.49990126490592957,
                        0.035530734807252884,
                        -0.26119163632392883,
                        0.34423765540122986,
                        0.401432067155838,
                        -0.06460189074277878,
                        -0.1021932065486908,
                        -0.7448229789733887,
                        0.5608999729156494,
                        0.5303127765655518,
                        0.4822140634059906,
                        0.295890212059021,
                        -1.5730799436569214,
                        0.08895639330148697,
                        1.9639291763305664,
                        -0.513982892036438,
                        0.05389924719929695,
                        -0.3501291573047638,
                        -0.6313788294792175,
                        -1.8142955303192139,
                        0.268440842628479,
                        -0.24029619991779327,
                        0.2986834645271301,
                        0.38633397221565247
                    ]
                ],
                [
                    -1.724644660949707,
                    -4.557738304138184,
                    -0.4006519615650177,
                    -3.2918338775634766,
                    1.0191465616226196,
                    -0.34979188442230225,
                    1.3688440322875977,
                    -3.2829065322875977,
                    2.2379276752471924,
                    5.460968017578125,
                    1.4146995544433594,
                    4.254651069641113,
                    0.6696029901504517,
                    0.46246325969696045,
                    -0.5532467365264893,
                    3.8081860542297363,
                    -0.017067410051822662,
                    0.04562148451805115,
                    -0.2584235668182373,
                    0.23184515535831451,
                    -0.33049169182777405,
                    0.724158763885498,
                    0.24100707471370697,
                    -0.15000398457050323,
                    1.2800345420837402,
                    0.3478410840034485,
                    0.5258409976959229,
                    -0.0520971417427063,
                    1.3534631729125977,
                    0.5005635023117065,
                    1.4123215675354004,
                    0.7007037401199341
                ]
            ]
        },
        {
            "type": "dense",
            "activation": "",
            "shape": [
                null,
                null,
                1
            ],
            "weights": [
                [
                    [
                        1.10958731174469
                    ],
                    [
                        0.38514506816864014
                    ],
                    [
                        1.2786951065063477
                    ],
                    [
                        -1.0207942724227905
                    ],
                    [
                        0.8890997767448425
                    ],
                    [
                        0.21700742840766907
                    ],
                    [
                        0.08343266695737839
                    ],
                    [
                        0.14566867053508759
                    ]
                ],
                [
                    0.2519347369670868
                ]
            ]
        }
    ]
}