{
    "in_shape": [
        null,
        null,
        1
    ],
    "layers": [
        {
            "type": "lstm",
            "activation": "",
            "shape": [
                null,
                null,
                12
            ],
            "weights": [
                [
                    [
                        0.03597774729132652,
                        -0.3438228666782379,
                        0.15399155020713806,
                        0.08711370080709457,
                        -0.09431004524230957,
                        0.5008205771446228,
                        0.03142821043729782,
                        -0.12147614359855652,
                        0.41030919551849365,
                        -0.2798229157924652,
                        0.05228966474533081,
                        -0.18530277907848358,
                        -0.22248125076293945,
                        -0.02627188339829445,
                        0.122226282954216,
                        0.015705468133091927,
                        0.07723031938076019,
                        0.5097351670265198,
                        -0.15739567577838898,
                        0.2152029275894165,
                        0.4112204313278198,
                        0.3029346168041229,
                        0.22669896483421326,
                        -0.3202870786190033,
                        0.2508719563484192,
                        0.5163525938987732,
                        -0.19905081391334534,
                        -0.04513762518763542,
                        0.2378189116716385,
                        0.011637219227850437,
                        0.0017988719046115875,
                        0.046052269637584686,
                        0.22051207721233368,
                        2.4436376094818115,
                        0.6221542358398438,
                        0.2923160493373871,
                        -0.0055074491538107395,
                        0.14545321464538574,
                        0.3166375756263733,
                        -0.12071673572063446,
                        0.05860866233706474,
                        -0.20135827362537384,
                        -0.039735984057188034,
                        -0.02701365388929844,
                        -0.4673827290534973,
                        0.09117411077022552,
                        0.20281651616096497,
                        0.34878718852996826
                    ]
                ],
                [
                    [
                        0.05898358300328255,
                        -0.029698031023144722,
                        0.23968948423862457,
                        -0.0319661945104599,
                        -0.7785739302635193,
                        -0.46042686700820923,
                        0.292461633682251,
                        0.020016906782984734,
                        0.13641516864299774,
                        0.1566821187734604,
                        -0.2420930117368698,
                        -0.056116826832294464,
                        0.9747095108032227,
                        0.05313320830464363,
                        0.19455409049987793,
                        0.26709628105163574,
                        0.3649703562259674,
                        0.21123221516609192,
                        -0.07080082595348358,
                        -0.1105058565735817,
                        0.4117647111415863,
                        -0.008183600381016731,
                        0.23140022158622742,
                        -0.12114811688661575,
                        0.93051677942276,
                        -0.11035652458667755,
                        0.28289270401000977,
                        0.1931399405002594,
                        0.08193826675415039,
                        -0.1854621320962906,
                        0.44575321674346924,
                        -0.5094829797744751,
                        -0.25907501578330994,
                        -0.0019096184987574816,
                        -0.10898249596357346,
                        0.41716137528419495,
                        -0.29867804050445557,
                        0.2797183394432068,
                        -0.3057660162448883,
                        -0.36011937260627747,
                        0.38597965240478516,
                        -0.36884480714797974,
                        0.3903657793998718,
                        0.1400960236787796,
                        0.46030205488204956,
                        0.030816536396741867,
                        0.03133263811469078,
                        -0.19246786832809448
                    ],
                    [
                        -0.10870323330163956,
                        -0.45392996072769165,
                        0.16221974790096283,
                        -0.09795267879962921,
                        -0.10008770227432251,
                        -0.33021849393844604,
                        0.024191567674279213,
                        -0.10226766020059586,
                        0.12427932769060135,
                        -0.6131933927536011,
                        0.11567939072847366,
                        0.07689496874809265,
                        0.664715051651001,
                        0.05554670840501785,
                        -0.010210040956735611,
                        -0.07790675759315491,
                        -0.10095588862895966,
                        -0.5851580500602722,
                        -0.044285185635089874,
                        -0.023936180397868156,
                        -0.40444907546043396,
                        0.5787176489830017,
                        -0.13311558961868286,
                        0.054584503173828125,
                        -0.681723952293396,
                        -0.3696219027042389,
                        0.0997404158115387,
                        0.07577981054782867,
                        -1.6987667083740234,
                        0.4618019461631775,
                        0.11130398511886597,
                        0.08690135926008224,
                        -0.35296526551246643,
                        -0.42289987206459045,
                        -0.527216911315918,
                        -0.09698031842708588,
                        0.06947431713342667,
                        -0.09344213455915451,
                        -0.20946671068668365,
                        -0.06015196070075035,
                        -0.14478257298469543,
                        -0.3570975959300995,
                        0.08169891685247421,
                        0.06710585206747055,
                        -0.11104707419872284,
                        0.6081410050392151,
                        0.3745971620082855,
                        0.7591013312339783
                    ],
                    [
                        -0.4818384349346161,
                        0.33057519793510437,
                        -0.002586322370916605,
                        0.4606531858444214,
                        -0.4498228132724762,
                        -0.19451959431171417,
                        0.40215179324150085,
                        0.11634737253189087,
                        0.3262712359428406,
                        -0.06329270452260971,
                        0.34516194462776184,
                        0.3244061768054962,
                        0.3755320608615875,
                        -0.4418472945690155,
                        -0.47438254952430725,
                        -0.4266410171985626,
                        0.04867333918809891,
                        -0.07304707169532776,
                        0.36137855052948,
                        -1.1310114860534668,
                        -0.3098039925098419,
                        0.0665501058101654,
                        -0.36766818165779114,
                        0.029484020546078682,
                        -0.15370021760463715,
                        -0.12954816222190857,
                        0.4131554067134857,
                        -0.053862884640693665,
                        -0.3734799027442932,
                        0.06064249202609062,
                        0.8621922135353088,
                        -0.09995139390230179,
                        0.025057608261704445,
                        0.07884218543767929,
                        -0.2533886432647705,
                        -0.4848597049713135,
                        0.1190422847867012,
                        -0.35939016938209534,
                        -0.6272151470184326,
                        -0.4200080633163452,
                        -0.44644907116889954,
                        -0.2821919023990631,
                        0.30697041749954224,
                        0.5309851765632629,
                        -0.5418155789375305,
                        -0.039357054978609085,
                        -0.15845754742622375,
                        -0.30122214555740356
                    ],
                    [
                        -0.33069226145744324,
                        0.18674102425575256,
                        0.18752802908420563,
                        -0.2994755208492279,
                        -0.11116988211870193,
                        -0.2279622107744217,
                        0.5216146111488342,
                        0.5422260761260986,
                        0.3559028208255768,
                        -0.07142035663127899,
                        -0.027655350044369698,
                        0.4942986071109772,
                        0.21921704709529877,
                        -0.1852407157421112,
                        0.18262502551078796,
                        -0.3969143331050873,
                        0.10378777980804443,
                        -0.15179935097694397,
                        0.3554818034172058,
                        -0.5060074925422668,
                        -0.7626216411590576,
                        -0.1295686960220337,
                        0.055622246116399765,
                        0.2218649834394455,
                        0.33442172408103943,
                        -0.07060825824737549,
                        0.11135763674974442,
                        0.027394069358706474,
                        -0.15743625164031982,
                        -0.15624898672103882,
                        0.16347827017307281,
                        0.8158310055732727,
                        -0.22455298900604248,
                        0.023100921884179115,
                        0.091024249792099,
                        -0.35097765922546387,
                        0.31849029660224915,
                        0.05307566374540329,
                        0.37886378169059753,
                        -0.8787727355957031,
                        -0.31572261452674866,
                        -0.32757753133773804,
                        0.6407936811447144,
                        -0.5950972437858582,
                        -0.3595024347305298,
                        0.03750259801745415,
                        -0.11156442016363144,
                        -0.028125179931521416
                    ],
                    [
                        0.17472152411937714,
                        -0.8112043142318726,
                        -0.29871317744255066,
                        -0.3082919120788574,
                        0.6075581312179565,
                        1.7406989336013794,
                        -0.6641788482666016,
                        -0.24947841465473175,
                        0.12637226283550262,
                        -0.9396843314170837,
                        -0.1617986559867859,
                        -0.10068588703870773,
                        0.3232331871986389,
                        0.687229573726654,
                        0.38610410690307617,
                        -0.094964399933815,
                        0.44856032729148865,
                        0.013335916213691235,
                        -0.2753480076789856,
                        0.1704903542995453,
                        0.7360962629318237,
                        0.05352914333343506,
                        -0.06264122575521469,
                        0.05013222619891167,
                        -4.003650665283203,
                        0.40216320753097534,
                        -0.010753355920314789,
                        0.19235536456108093,
                        0.662824273109436,
                        -1.8659024238586426,
                        0.16850800812244415,
                        0.09117104858160019,
                        1.403090238571167,
                        -0.24375396966934204,
                        0.3759393095970154,
                        0.22856780886650085,
                        0.18225257098674774,
                        -0.2942974269390106,
                        -0.7273572087287903,
                        0.16729368269443512,
                        -0.07790360599756241,
                        0.1438099890947342,
                        1.0518370866775513,
                        0.7002519369125366,
                        0.04185280203819275,
                        0.5857368111610413,
                        0.30716004967689514,
                        -1.500203013420105
                    ],
                    [
                        0.6174705624580383,
                        -2.706608533859253,
                        -0.23677068948745728,
                        -0.18188750743865967,
                        0.12497994303703308,
                        0.5667808651924133,
                        -0.053403738886117935,
                        -0.10557692497968674,
                        -1.064716100692749,
                        0.3159538209438324,
                        -1.1839914321899414,
                        -0.3427819311618805,
                        0.5136253237724304,
                        0.2739841341972351,
                        0.3826603889465332,
                        0.17475400865077972,
                        1.4195095300674438,
                        -0.31981873512268066,
                        -0.38876333832740784,
                        0.6469786763191223,
                        2.1643307209014893,
                        -0.2825659215450287,
                        1.1568330526351929,
                        0.27485421299934387,
                        0.1716727465391159,
                        -0.5643479824066162,
                        0.2067064791917801,
                        0.16743673384189606,
                        0.16043229401111603,
                        -0.25374072790145874,
                        0.11141648888587952,
                        -0.15865178406238556,
                        -0.1733427196741104,
                        -0.068653404712677,
                        -0.0835244283080101,
                        0.09938383847475052,
                        0.15241071581840515,
                        0.6359778046607971,
                        -0.1779705137014389,
                        0.08579480648040771,
                        0.8475959300994873,
                        0.4521777033805847,
                        0.07601507753133774,
                        0.6726387143135071,
                        0.2117016762495041,
                        0.4735860228538513,
                        0.06994641572237015,
                        -0.0389188714325428
                    ],
                    [
                        0.2692704200744629,
                        -1.0253000259399414,
                        0.12587107717990875,
                        0.021861987188458443,
                        0.8690797686576843,
                        -0.16562768816947937,
                        -0.07369126379489899,
                        -0.11505641788244247,
                        -0.8936202526092529,
                        0.05744965001940727,
                        -0.21207353472709656,
                        -0.22716321051120758,
                        -0.790392279624939,
                        0.19821181893348694,
                        0.6379421949386597,
                        0.4627840518951416,
                        0.3413366675376892,
                        -0.6492208242416382,
                        0.014803505502641201,
                        0.5504289865493774,
                        0.3872833549976349,
                        0.037461619824171066,
                        0.27491092681884766,
                        0.23354868590831757,
                        -0.9308632016181946,
                        -0.009494761936366558,
                        -0.2754909098148346,
                        -0.7199807167053223,
                        -0.1297890841960907,
                        0.29874107241630554,
                        -0.08341016620397568,
                        0.41976362466812134,
                        0.17209914326667786,
                        0.03505617752671242,
                        0.13739614188671112,
                        -0.1566263735294342,
                        -0.3695773184299469,
                        0.3524772524833679,
                        0.5633469223976135,
                        -0.5512371063232422,
                        0.10692882537841797,
                        -0.16633225977420807,
                        0.5357076525688171,
                        -0.3177785873413086,
                        0.047550540417432785,
                        0.4208163619041443,
                        -0.0027759948279708624,
                        0.01333639957010746
                    ],
                    [
                        0.2731498181819916,
                        -0.11377934366464615,
                        -0.16435480117797852,
                        0.5063917636871338,
                        0.2489905208349228,
                        0.10357442498207092,
                        -0.11589885503053665,
                        0.37437891960144043,
                        -0.3209106922149658,
                        0.0387735441327095,
                        0.12023978680372238,
                        0.00802658498287201,
                        0.05988427624106407,
                        -0.1977618783712387,
                        0.15947583317756653,
                        0.25382933020591736,
                        0.12847740948200226,
                        -0.12982766330242157,
                        -0.12140003591775894,
                        0.24476920068264008,
                        0.14935091137886047,
                        0.3097836375236511,
                        0.09891855716705322,
                        0.13059042394161224,
                        -0.15435098111629486,
                        -0.2383170872926712,
                        0.036585573107004166,
                        -0.9949365854263306,
                        -0.5988010168075562,
                        0.004763414151966572,
                        -0.23785826563835144,
                        -0.004330804571509361,
                        0.2141191065311432,
                        0.3916606903076172,
                        0.11528901010751724,
                        -0.10144869238138199,
                        0.010679607279598713,
                        -0.01567031256854534,
                        0.07407201826572418,
                        0.4777523875236511,
                        0.24314653873443604,
                        0.2009149044752121,
                        0.17826934158802032,
                        0.6660649180412292,
                        -0.12601938843727112,
                        0.2936706244945526,
                        -0.22137755155563354,
                        -0.15061692893505096
                    ],
                    [
                        0.6672301292419434,
                        -0.3192879259586334,
                        -0.6096516847610474,
                        -0.3268571197986603,
                        0.5722074508666992,
                        -0.6472876071929932,
                        -0.13868014514446259,
                        -0.4378742575645447,
                        0.5970905423164368,
                        -0.029503433033823967,
                        -1.0564345121383667,
                        -0.8499332070350647,
                        0.09942404180765152,
                        0.20800311863422394,
                        0.14466962218284607,
                        0.9129546284675598,
                        0.46527373790740967,
                        -0.4389035403728485,
                        0.3211589455604553,
                        0.6508340239524841,
                        1.2003978490829468,
                        0.06615974009037018,
                        0.8098692297935486,
                        -0.23884820938110352,
                        1.1517118215560913,
                        0.3296236991882324,
                        -0.564707338809967,
                        0.14133983850479126,
                        -1.192070484161377,
                        0.5655661225318909,
                        -0.1458893120288849,
                        -0.25025299191474915,
                        0.07471439987421036,
                        -0.5861761569976807,
                        -0.059462402015924454,
                        0.6812660694122314,
                        -0.5528954267501831,
                        0.2474164366722107,
                        -0.10176660120487213,
                        -0.21597078442573547,
                        0.5102325677871704,
                        0.2782389521598816,
                        0.3769020438194275,
                        0.11537405103445053,
                        0.812425971031189,
                        0.7186227440834045,
                        0.38628342747688293,
                        -0.09839446097612381
                    ],
                    [
                        0.10320457816123962,
                        -0.09056465327739716,
                        -0.11489725857973099,
                        0.27739083766937256,
                        -0.2014034241437912,
                        0.9889081120491028,
                        0.16825763881206512,
                        0.13943244516849518,
                        0.05463925004005432,
                        -0.22505319118499756,
                        -0.24500875174999237,
                        -0.42237183451652527,
                        -0.12356271594762802,
                        0.18224318325519562,
                        -0.05514642968773842,
                        0.18042421340942383,
                        -0.4464387595653534,
                        0.33885544538497925,
                        0.07882851362228394,
                        0.4432220160961151,
                        0.564608097076416,
                        -0.17490091919898987,
                        0.02276400476694107,
                        -0.9728761911392212,
                        2.2624351978302,
                        0.3348683714866638,
                        0.2580493092536926,
                        -0.18101182579994202,
                        1.8493109941482544,
                        -0.7178802490234375,
                        0.006898640654981136,
                        -0.2612701654434204,
                        -0.533375084400177,
                        -0.18494118750095367,
                        0.43417951464653015,
                        0.027517104521393776,
                        -0.15524129569530487,
                        0.33740076422691345,
                        0.9958983659744263,
                        0.18087826669216156,
                        0.11147528141736984,
                        0.03249648958444595,
                        -0.3734431266784668,
                        -0.7853891253471375,
                        0.12261106073856354,
                        0.25719884037971497,
                        0.3185195028781891,
                        0.7426526546478271
                    ],
                    [
                        0.20543095469474792,
                        1.416675090789795,
                        0.08256826549768448,
                        0.04929766803979874,
                        0.028355848044157028,
                        -0.23494453728199005,
                        -0.00012864913151133806,
                        -0.029367685317993164,
                        0.0031892992556095123,
                        -0.8024214506149292,
                        0.5530992746353149,
                        0.05706842243671417,
                        -0.01709979958832264,
                        0.026479169726371765,
                        -0.03876146301627159,
                        -0.23825863003730774,
                        -0.021371103823184967,
                        -0.26174917817115784,
                        0.280494749546051,
                        0.1503283828496933,
                        -0.23497037589550018,
                        -0.4485849142074585,
                        -0.07548500597476959,
                        0.0018489492358639836,
                        -0.5361130833625793,
                        -0.20439587533473969,
                        0.2811265289783478,
                        -0.09857964515686035,
                        -1.0149669647216797,
                        0.8189955353736877,
                        -0.05364694073796272,
                        0.06738466024398804,
                        -0.3431088328361511,
                        -0.8256164193153381,
                        0.20363624393939972,
                        -0.14706134796142578,
                        0.07778862863779068,
                        0.2901196777820587,
                        -0.13775299489498138,
                        0.23753495514392853,
                        0.199784055352211,
                        -0.1554935723543167,
                        -0.04999160021543503,
                        -0.42984557151794434,
                        -0.31300121545791626,
                        0.1694682240486145,
                        -0.10022029280662537,
                        -0.1368357390165329
                    ],
                    [
                        0.6777790188789368,
                        -0.9914020895957947,
                        -0.5514416694641113,
                        -0.5065036416053772,
                        0.1359395831823349,
                        0.2947399318218231,
                        0.1687351018190384,
                        -1.0866382122039795,
                        -1.8077118396759033,
                        1.158553123474121,
                        -0.850818395614624,
                        0.060573529452085495,
                        0.3659316599369049,
                        0.852625846862793,
                        0.3205496668815613,
                        0.7941080331802368,
                        0.19700436294078827,
                        0.25544273853302,
                        0.49626806378364563,
                        1.5261433124542236,
                        1.2556219100952148,
                        0.11385907977819443,
                        1.1969190835952759,
                        0.704831600189209,
                        0.45002588629722595,
                        0.011733896099030972,
                        -0.31365054845809937,
                        -0.003371940227225423,
                        0.37335872650146484,
                        0.3018272817134857,
                        0.3011572062969208,
                        -0.0752565786242485,
                        -0.5239521861076355,
                        0.0058714114129543304,
                        -0.05755360797047615,
                        0.9012318253517151,
                        -0.05118963122367859,
                        0.824667751789093,
                        0.33057788014411926,
                        0.41330739855766296,
                        0.81211256980896,
                        0.557044506072998,
                        0.03254645690321922,
                        -0.0743817538022995,
                        0.8489406108856201,
                        0.0202806256711483,
                        0.1919059455394745,
                        1.0298105478286743
                    ]
                ],
                [
                    1.8029205799102783,
                    -0.5549653768539429,
                    -0.7310076355934143,
                    -2.0592594146728516,
                    0.8925744295120239,
                    0.4285147786140442,
                    0.1581995189189911,
                    -3.0655436515808105,
                    -2.7634174823760986,
                    0.5139660835266113,
                    -1.8578121662139893,
                    0.1090715229511261,
                    1.1685521602630615,
                    1.925518274307251,
                    1.3980517387390137,
                    2.4156994819641113,
                    -0.7498752474784851,
                    0.26012977957725525,
                    1.3582521677017212,
                    2.9704065322875977,
                    2.616802930831909,
                    0.02156990021467209,
                    2.4233555793762207,
                    1.3651540279388428,
                    -0.3869419991970062,
                    -0.17445024847984314,
                    0.06106233596801758,
                    0.21297667920589447,
                    0.30207234621047974,
                    0.8533000946044922,
                    0.6782957315444946,
                    0.5805062055587769,
                    0.3334091901779175,
                    0.5906285047531128,
                    -0.10337278991937637,
                    -0.2524230182170868,
                    0.7702724933624268,
                    0.9908773303031921,
                    0.4637983441352844,
                    0.2405347228050232,
                    1.201058030128479,
                    1.4445340633392334,
                    0.7465543150901794,
                    -0.37276285886764526,
                    0.6861864328384399,
                    1.2122457027435303,
                    0.4571571946144104,
                    1.3546606302261353
                ]
            ]
        },
        {
            "type": "dense",
            "activation": "",
            "shape": [
                null,
                null,
                1
            ],
            "weights": [
                [
                    [
                        -0.7584174275398254
                    ],
                    [
                        0.01638355292379856
                    ],
                    [
                        -0.2744216322898865
                    ],
                    [
                        1.1285151243209839
                    ],
                    [
                        -0.008651304990053177
                    ],
                    [
                        0.013429488055408001
                    ],
                    [
                        1.0174301862716675
                    ],
                    [
                        -0.6372841000556946
                    ],
                    [
                        -0.1416216939687729
                    ],
                    [
                        -0.0109601691365242
                    ],
                    [
                        -0.042841773480176926
                    ],
                    [
                        0.050841305404901505
                    ]
                ],
                [
                    0.19465617835521698
                ]
            ]
        }
    ]
}