{
    "in_shape": [
        null,
        null,
        1
    ],
    "layers": [
        {
            "type": "lstm",
            "activation": "",
            "shape": [
                null,
                null,
                8
            ],
            "weights": [
                [
                    [
                        -0.36243686079978943,
                        -0.8784926533699036,
                        -0.1981155276298523,
                        0.6871045231819153,
                        -0.2022160291671753,
                        0.905267596244812,
                        -0.5380213856697083,
                        0.7599759101867676,
                        -0.35933917760849,
                        -0.17130930721759796,
                        -0.02654712274670601,
                        0.1345333307981491,
                        -0.6519806981086731,
                        -0.06430523842573166,
                        -0.25877997279167175,
                        1.5100799798965454,
                        0.362118661403656,
                        -0.6346835494041443,
                        -1.0777053833007812,
                        0.4434099495410919,
                        1.0793036222457886,
                        0.8605022430419922,
                        -2.481743335723877,
                        0.953977644443512,
                        0.22742992639541626,
                        2.798924684524536,
                        -0.509265661239624,
                        0.3166004419326782,
                        -0.6684866547584534,
                        -0.3547634482383728,
                        0.3525095582008362,
                        -0.9816845655441284
                    ]
                ],
                [
                    [
                        0.16106605529785156,
                        -0.4335213601589203,
                        -1.2946374416351318,
                        0.029854722321033478,
                        0.4748454988002777,
                        0.28938913345336914,
                        -1.3304495811462402,
                        1.0226458311080933,
                        -0.4079894423484802,
                        0.23849694430828094,
                        -0.27742063999176025,
                        -0.07146946340799332,
                        -0.7959575653076172,
                        -0.28619879484176636,
                        0.11069313436746597,
                        0.313189297914505,
                        -1.0653425455093384,
                        -0.5254185795783997,
                        -0.5806096196174622,
                        0.14735671877861023,
                        -0.031567927449941635,
                        -0.10645712167024612,
                        -0.14916954934597015,
                        -0.28760460019111633,
                        0.777981162071228,
                        0.30178898572921753,
                        1.2845028638839722,
                        -1.2661677598953247,
                        -1.3118972778320312,
                        0.5628232955932617,
                        1.7488857507705688,
                        0.07650702446699142
                    ],
                    [
                        -0.8869345188140869,
                        0.2927379012107849,
                        0.8705322742462158,
                        -1.6680670976638794,
                        -0.9560947418212891,
                        -0.6743137240409851,
                        0.4558953046798706,
                        0.08792559057474136,
                        0.04958457499742508,
                        -0.13013330101966858,
                        -0.2798522114753723,
                        -0.6322935819625854,
                        -0.9878191947937012,
                        0.9016801714897156,
                        -0.0719694122672081,
                        1.307481050491333,
                        0.8922693729400635,
                        -0.7304205298423767,
                        -0.3738113343715668,
                        -0.22663363814353943,
                        0.23850758373737335,
                        0.5015712380409241,
                        -1.8109766244888306,
                        1.0260124206542969,
                        0.47863414883613586,
                        3.1875672340393066,
                        0.4753294289112091,
                        1.312082290649414,
                        -0.2888360321521759,
                        0.6550334692001343,
                        0.6745461225509644,
                        0.1384984850883484
                    ],
                    [
                        0.08693581074476242,
                        -0.6106574535369873,
                        1.5383329391479492,
                        -0.36205920577049255,
                        -0.9254475831985474,
                        0.07381297647953033,
                        1.7282345294952393,
                        -1.470945119857788,
                        -0.05902750790119171,
                        0.7905946373939514,
                        -0.8627310395240784,
                        0.5093180537223816,
                        -1.780809760093689,
                        0.1455187201499939,
                        0.05200350284576416,
                        0.32954081892967224,
                        -0.400149941444397,
                        0.22458651661872864,
                        -0.24434202909469604,
                        -0.5554561018943787,
                        1.006642460823059,
                        0.17885951697826385,
                        0.8936169743537903,
                        -0.38930201530456543,
                        -0.34337303042411804,
                        0.21659329533576965,
                        -1.7123847007751465,
                        -1.6684777736663818,
                        -1.3271582126617432,
                        -0.1904720664024353,
                        -3.412858724594116,
                        -0.1427364945411682
                    ],
                    [
                        0.7173061370849609,
                        0.5245485901832581,
                        0.6389855742454529,
                        -0.48980623483657837,
                        1.1997809410095215,
                        -0.004168709274381399,
                        -0.2574509084224701,
                        -0.23441776633262634,
                        0.3235490024089813,
                        1.4454501867294312,
                        -0.6638212203979492,
                        0.3285425007343292,
                        0.27472445368766785,
                        0.21424637734889984,
                        0.3205617666244507,
                        0.9050523042678833,
                        0.1085890457034111,
                        1.251243233680725,
                        -0.0660170316696167,
                        0.5583402514457703,
                        0.5347834825515747,
                        0.1731281727552414,
                        -0.1871359795331955,
                        0.6591436266899109,
                        0.3191925585269928,
                        -0.19109274446964264,
                        1.1251811981201172,
                        2.8184783458709717,
                        -0.7374051213264465,
                        0.368707537651062,
                        1.8045306205749512,
                        0.37159764766693115
                    ],
                    [
                        -0.11675785481929779,
                        0.8837101459503174,
                        1.2922732830047607,
                        -0.22063346207141876,
                        0.20919005572795868,
                        -0.1493283063173294,
                        -0.5376020669937134,
                        1.0810940265655518,
                        0.4617125689983368,
                        -0.805128812789917,
                        0.5099287629127502,
                        -0.4774491786956787,
                        0.5842717885971069,
                        0.3302006125450134,
                        -0.7939419150352478,
                        0.23914504051208496,
                        -1.1334052085876465,
                        0.41585278511047363,
                        -0.968821108341217,
                        -0.059749674052000046,
                        1.4957079887390137,
                        -0.08953513205051422,
                        -0.17574891448020935,
                        0.5070257782936096,
                        0.8339320421218872,
                        -0.0798114463686943,
                        -2.0795373916625977,
                        -1.9305568933486938,
                        -0.03207552805542946,
                        0.4268764853477478,
                        -0.32769322395324707,
                        0.3213059902191162
                    ],
                    [
                        -0.06998296827077866,
                        0.4143509566783905,
                        -0.5170523524284363,
                        -0.8108187913894653,
                        -0.5959844589233398,
                        -0.6924856901168823,
                        -0.6379909515380859,
                        -0.5414110422134399,
                        -0.330364853143692,
                        0.29202648997306824,
                        0.08162383735179901,
                        -0.14061430096626282,
                        -0.8422115445137024,
                        -0.1639215052127838,
                        0.21295639872550964,
                        -0.14968480169773102,
                        -0.7764588594436646,
                        0.37020695209503174,
                        -0.37374570965766907,
                        0.3561462461948395,
                        0.11261507868766785,
                        0.7744771242141724,
                        0.1647558957338333,
                        -0.16966266930103302,
                        -0.43328985571861267,
                        -1.2719647884368896,
                        -0.022497624158859253,
                        -0.9410133957862854,
                        -0.5425467491149902,
                        0.5025919079780579,
                        -0.20385698974132538,
                        1.3966026306152344
                    ],
                    [
                        -0.2166539430618286,
                        -0.06115369498729706,
                        -1.1041259765625,
                        0.20958487689495087,
                        -0.7033403515815735,
                        0.09847000986337662,
                        -2.5780088901519775,
                        -1.02761971950531,
                        0.1114998385310173,
                        0.16843408346176147,
                        1.184500813484192,
                        -0.22106672823429108,
                        1.4065996408462524,
                        -0.020196350291371346,
                        -0.22955626249313354,
                        -1.7888132333755493,
                        0.9319354295730591,
                        0.687521755695343,
                        -2.2961807250976562,
                        -0.09420040994882584,
                        -0.19728496670722961,
                        0.37162700295448303,
                        1.9848296642303467,
                        -0.32295745611190796,
                        1.2722920179367065,
                        0.2528788149356842,
                        2.5657477378845215,
                        0.5116933584213257,
                        -1.086986780166626,
                        0.14967462420463562,
                        3.32822585105896,
                        -0.07738592475652695
                    ],
                    [
                        0.41453829407691956,
                        0.4581102132797241,
                        0.6936565041542053,
                        -0.7344276309013367,
                        -0.7080928087234497,
                        -0.7067967653274536,
                        0.5390750765800476,
                        -1.1975843906402588,
                        0.149818554520607,
                        0.030370038002729416,
                        0.12706834077835083,
                        -0.09185615181922913,
                        -0.365005761384964,
                        -0.2117154449224472,
                        0.43959841132164,
                        -1.208288550376892,
                        -0.6459704041481018,
                        0.6158912181854248,
                        0.42755764722824097,
                        -0.11474549025297165,
                        -0.8020113110542297,
                        -0.9694241285324097,
                        2.410188913345337,
                        -0.741945743560791,
                        0.06701004505157471,
                        -3.1748523712158203,
                        -0.005969150923192501,
                        -0.8252425789833069,
                        0.33344244956970215,
                        0.3152609169483185,
                        -0.6479343175888062,
                        3.450037956237793
                    ]
                ],
                [
                    -1.1501808166503906,
                    -4.564031600952148,
                    1.2945175170898438,
                    -2.9208061695098877,
                    -0.11738386750221252,
                    -1.9256997108459473,
                    1.6007437705993652,
                    -2.920534610748291,
                    1.2813200950622559,
                    4.7290120124816895,
                    0.0650908574461937,
                    4.375328540802002,
                    0.905925989151001,
                    2.1569435596466064,
                    -0.3942185044288635,
                    4.225640296936035,
                    0.07842789590358734,
                    0.05530419945716858,
                    -0.26362982392311096,
                    0.9234967231750488,
                    -0.29559051990509033,
                    0.02136322110891342,
                    0.08235366642475128,
                    -0.2345181256532669,
                    1.0026657581329346,
                    0.12313921004533768,
                    0.09922461211681366,
                    -1.2684929370880127,
                    1.0038716793060303,
                    0.7647204399108887,
                    0.7863118648529053,
                    -0.5068527460098267
                ]
            ]
        },
        {
            "type": "dense",
            "activation": "",
            "shape": [
                null,
                null,
                1
            ],
            "weights": [
                [
                    [
                        1.8916034698486328
                    ],
                    [
                        0.8073657155036926
                    ],
                    [
                        0.20391395688056946
                    ],
                    [
                        -3.2228596210479736
                    ],
                    [
                        -0.14038963615894318
                    ],
                    [
                        -0.2959911823272705
                    ],
                    [
                        0.049671053886413574
                    ],
                    [
                        0.6383188366889954
                    ]
                ],
                [
                    0.443946897983551
                ]
            ]
        }
    ]
}