{
    "in_shape": [
        null,
        2
    ],
    "layers": [
        {
            "type": "dense",
            "activation": "relu",
            "shape": [
                null,
                3
            ],
            "weights": [
                [
                    [
                        0.2344140112400055,
                        1.5458542108535767,
                        0.10063335299491882
                    ],
                    [
                        1.1624724864959717,
                        0.5465522408485413,
                        -0.5361207723617554
                    ]
                ],
                [
                    -0.06304455548524857,
                    -0.08376169949769974,
                    -0.2953437864780426
                ]
            ]
        },
        {
            "type": "dense",
            "activation": "relu",
            "shape": [
                null,
                5
            ],
            "weights": [
                [
                    [
                        -0.19797301292419434,
                        0.05329376831650734,
                        1.0504416227340698,
                        0.05154246464371681,
                        0.25681766867637634
                    ],
                    [
                        -0.07801970839500427,
                        -0.4899553060531616,
                        1.110720157623291,
                        0.22947989404201508,
                        1.3671461343765259
                    ],
                    [
                        -0.2710646092891693,
                        0.2992514669895172,
                        0.2847391963005066,
                        -0.23275309801101685,
                        -0.38385725021362305
                    ]
                ],
                [
                    -0.549558162689209,
                    1.0289289951324463,
                    0.14310765266418457,
                    -0.5313703417778015,
                    0.007698216941207647
                ]
            ]
        },
        {
            "type": "dense",
            "activation": "relu",
            "shape": [
                null,
                7
            ],
            "weights": [
                [
                    [
                        -0.14516770839691162,
                        -0.008987979032099247,
                        -0.369742751121521,
                        -0.06681419163942337,
                        -0.1756279617547989,
                        0.33457890152931213,
                        -0.43024569749832153
                    ],
                    [
                        -0.2621883749961853,
                        -0.4439242482185364,
                        -0.11046073585748672,
                        0.4049944579601288,
                        1.6674554347991943,
                        -0.22411368787288666,
                        -0.4196131229400635
                    ],
                    [
                        0.8299928307533264,
                        -0.22688351571559906,
                        -0.1304076910018921,
                        -0.3044121265411377,
                        0.13228431344032288,
                        0.3187020421028137,
                        0.6510415077209473
                    ],
                    [
                        -0.0780756026506424,
                        0.4373722970485687,
                        0.3538160026073456,
                        -0.3903872072696686,
                        -0.43206536769866943,
                        0.1769009381532669,
                        0.04210406914353371
                    ],
                    [
                        1.158325433731079,
                        -0.3296831548213959,
                        -0.4377247393131256,
                        0.03490950167179108,
                        -0.761589765548706,
                        -0.37233155965805054,
                        0.6503416299819946
                    ]
                ],
                [
                    0.037296101450920105,
                    -0.42572692036628723,
                    -0.17516084015369415,
                    0.9941997528076172,
                    0.9717620611190796,
                    -0.18061116337776184,
                    0.35938921570777893
                ]
            ]
        },
        {
            "type": "dense",
            "activation": "relu",
            "shape": [
                null,
                9
            ],
            "weights": [
                [
                    [
                        0.8064406514167786,
                        0.5175055861473083,
                        0.39297187328338623,
                        0.6682344675064087,
                        -0.6467389464378357,
                        -0.06493876129388809,
                        0.21733151376247406,
                        -0.13452693819999695,
                        0.05016369745135307
                    ],
                    [
                        0.1762477606534958,
                        0.3273497223854065,
                        -0.2881503999233246,
                        -0.30924344062805176,
                        -0.3302590548992157,
                        0.317331463098526,
                        0.20748817920684814,
                        0.3637951910495758,
                        -0.1733066290616989
                    ],
                    [
                        0.012251550331711769,
                        -0.06308688223361969,
                        -0.3739277422428131,
                        0.15784887969493866,
                        -0.04674785956740379,
                        0.010947243310511112,
                        0.106608085334301,
                        0.04361748695373535,
                        0.20299109816551208
                    ],
                    [
                        -1.2047981023788452,
                        0.6390926241874695,
                        0.9598504900932312,
                        -0.11149119585752487,
                        0.4541482925415039,
                        0.1666722297668457,
                        -1.2077159881591797,
                        0.09127991646528244,
                        0.27445170283317566
                    ],
                    [
                        -0.28735867142677307,
                        -0.9868164658546448,
                        -0.8117456436157227,
                        0.6711841821670532,
                        0.8829818964004517,
                        -0.123825304210186,
                        -2.0942249298095703,
                        -0.04505655914545059,
                        -0.08371681720018387
                    ],
                    [
                        0.06416533887386322,
                        0.22387953102588654,
                        0.20247916877269745,
                        -0.28202590346336365,
                        0.28524157404899597,
                        0.19398832321166992,
                        0.346730500459671,
                        -0.23551101982593536,
                        0.13711991906166077
                    ],
                    [
                        0.183553546667099,
                        -0.18373194336891174,
                        0.7286764979362488,
                        0.19411897659301758,
                        -0.33994928002357483,
                        -0.16007409989833832,
                        0.42628970742225647,
                        -0.2021327167749405,
                        -0.10615141689777374
                    ]
                ],
                [
                    -0.7531217336654663,
                    0.48479655385017395,
                    0.38334041833877563,
                    0.6208102107048035,
                    0.16626890003681183,
                    -0.31965065002441406,
                    -0.906045138835907,
                    -0.2527995705604553,
                    -0.1504915952682495
                ]
            ]
        },
        {
            "type": "dense",
            "activation": "sigmoid",
            "shape": [
                null,
                10
            ],
            "weights": [
                [
                    [
                        0.4634575843811035,
                        1.4719253778457642,
                        -1.1266587972640991,
                        -0.26465755701065063,
                        -1.2181967496871948,
                        1.399046540260315,
                        -0.9344305396080017,
                        0.7210536003112793,
                        -0.4068185091018677,
                        0.6701596975326538
                    ],
                    [
                        -0.3133704960346222,
                        0.32254350185394287,
                        0.7651483416557312,
                        -0.22812791168689728,
                        0.41154831647872925,
                        0.40065085887908936,
                        1.0805736780166626,
                        0.9728336334228516,
                        0.1623067408800125,
                        0.3857609033584595
                    ],
                    [
                        -0.38569068908691406,
                        -0.8659662008285522,
                        0.5722690224647522,
                        0.3756590783596039,
                        0.10075737535953522,
                        -0.2540597915649414,
                        1.246915340423584,
                        0.43253281712532043,
                        0.18591219186782837,
                        -0.4790705442428589
                    ],
                    [
                        -0.05924936383962631,
                        -0.30050137639045715,
                        -0.06258987635374069,
                        -0.27736201882362366,
                        0.2873487174510956,
                        -0.8939679265022278,
                        -0.5391028523445129,
                        -0.3845541179180145,
                        0.31020626425743103,
                        -0.18843358755111694
                    ],
                    [
                        0.10796955227851868,
                        0.8746113181114197,
                        -0.40526068210601807,
                        -0.5210052728652954,
                        -0.4150296449661255,
                        1.2278367280960083,
                        0.3136655390262604,
                        0.4437628388404846,
                        -0.5438684225082397,
                        0.7385227680206299
                    ],
                    [
                        -0.012165388092398643,
                        0.31183645129203796,
                        0.21283447742462158,
                        0.03468497842550278,
                        0.12251031398773193,
                        -0.21713757514953613,
                        -0.21577875316143036,
                        -0.04279283806681633,
                        0.2788265347480774,
                        -0.07420086860656738
                    ],
                    [
                        0.35620102286338806,
                        -0.6557599306106567,
                        0.12305353581905365,
                        0.008932290598750114,
                        -0.9071007966995239,
                        -0.5997670292854309,
                        -1.0455777645111084,
                        -2.531501531600952,
                        -0.0629105418920517,
                        -0.792259156703949
                    ],
                    [
                        -0.11253146827220917,
                        -0.056396447122097015,
                        0.05822678655385971,
                        -0.006835023872554302,
                        0.05706787109375,
                        0.28139767050743103,
                        0.20601928234100342,
                        -0.21853241324424744,
                        0.31994521617889404,
                        0.19047288596630096
                    ],
                    [
                        0.18881544470787048,
                        -0.1250372976064682,
                        -0.3161352276802063,
                        0.11893993616104126,
                        0.17497538030147552,
                        -0.1257719248533249,
                        -0.31476476788520813,
                        0.20662619173526764,
                        -0.2513187825679779,
                        -0.05043702572584152
                    ]
                ],
                [
                    0.14761853218078613,
                    -0.35630592703819275,
                    0.2319926768541336,
                    -0.2037176489830017,
                    0.6152867078781128,
                    -0.019460780546069145,
                    -0.34176260232925415,
                    0.15796007215976715,
                    0.02201465517282486,
                    0.433407723903656
                ]
            ]
        }
    ]
}