{
    "in_shape": [
        null,
        5,
        2
    ],
    "layers": [
        {
            "type": "lstm",
            "activation": "tanh",
            "shape": [
                null,
                64
            ],
            "weights": [
                [
                    [
                        -0.9009201526641846,
                        -2.6805942058563232,
                        1.2213512659072876,
                        0.4359557032585144,
                        1.343651294708252,
                        -1.362736463546753,
                        0.1639021784067154,
                        0.9884268045425415,
                        -1.03046715259552,
                        -0.2999976575374603,
                        -0.25336596369743347,
                        -0.7455860376358032,
                        0.3955376148223877,
                        -1.3295612335205078,
                        -2.881312847137451,
                        -0.33014142513275146,
                        -0.8528417348861694,
                        0.8275059461593628,
                        -0.18203885853290558,
                        -0.2007216513156891,
                        -0.3103201687335968,
                        -0.06851615011692047,
                        0.2830648720264435,
                        1.2272385358810425,
                        0.17442582547664642,
                        0.3492908179759979,
                        -0.0008399622747674584,
                        -0.023988885805010796,
                        -0.9359122514724731,
                        -0.9020280838012695,
                        -1.9866797924041748,
                        -0.13952766358852386,
                        -0.8801960349082947,
                        -0.5836327075958252,
                        -0.04034419730305672,
                        0.7084369659423828,
                        -1.1341607570648193,
                        0.8259688019752502,
                        -0.03359149023890495,
                        -0.45750701427459717,
                        -0.5899145603179932,
                        0.8942875862121582,
                        -0.26884549856185913,
                        1.197407841682434,
                        1.1963247060775757,
                        -1.2681317329406738,
                        -2.317500114440918,
                        0.5193431377410889,
                        -0.4006364941596985,
                        -0.8282809257507324,
                        -1.939436674118042,
                        0.5136881470680237,
                        -1.1621006727218628,
                        -0.5936877727508545,
                        -0.2713649272918701,
                        -1.1832844018936157,
                        0.03714583441615105,
                        -0.829302966594696,
                        0.5615525841712952,
                        0.979477047920227,
                        -0.9047282338142395,
                        0.6165246963500977,
                        0.8635056018829346,
                        -1.6781136989593506,
                        -0.7627023458480835,
                        0.04506630450487137,
                        0.6225430965423584,
                        0.11385267972946167,
                        0.11156906187534332,
                        -1.3578319549560547,
                        -0.14495937526226044,
                        -1.1789357662200928,
                        0.7303747534751892,
                        -0.3931676149368286,
                        0.9184695482254028,
                        -1.688484787940979,
                        -0.0032279782462865114,
                        -1.1471104621887207,
                        0.5733059644699097,
                        -0.5147846937179565,
                        0.4115027189254761,
                        -0.7219177484512329,
                        0.09066846966743469,
                        -0.4262281358242035,
                        -0.9725162386894226,
                        -0.3265117406845093,
                        0.4746968746185303,
                        1.1157793998718262,
                        -0.4306822717189789,
                        -0.8650199770927429,
                        0.6970014572143555,
                        -0.1778372824192047,
                        -0.43135005235671997,
                        -0.9531370997428894,
                        2.008404016494751,
                        0.1822119951248169,
                        -1.0760878324508667,
                        -0.392357736825943,
                        -0.27590835094451904,
                        -0.09435474872589111,
                        -0.37720948457717896,
                        -0.10997059941291809,
                        0.6864455342292786,
                        1.6610438823699951,
                        -0.3608238399028778,
                        0.4324374198913574,
                        -0.5727356672286987,
                        0.4277234673500061,
                        -1.1421525478363037,
                        0.3721204996109009,
                        -0.6819363832473755,
                        0.7867284417152405,
                        -0.20801226794719696,
                        -0.4106300175189972,
                        -1.4365057945251465,
                        -1.1799753904342651,
                        -0.6026903390884399,
                        0.8447647094726562,
                        0.48307016491889954,
                        0.07778432965278625,
                        -0.23146241903305054,
                        0.42544424533843994,
                        -0.6821507811546326,
                        0.08659777790307999,
                        1.5979989767074585,
                        -1.0508726835250854,
                        -0.4265245497226715,
                        -1.1872689723968506,
                        0.24972344934940338,
                        -1.3167308568954468,
                        -0.142938494682312,
                        0.6272033452987671,
                        -0.053503744304180145,
                        0.5005205869674683,
                        0.060623034834861755,
                        -0.1317424774169922,
                        -0.9984935522079468,
                        0.6608033180236816,
                        -0.5888732075691223,
                        -0.577610194683075,
                        0.2225612998008728,
                        -0.6976193189620972,
                        0.7219045162200928,
                        0.22204668819904327,
                        0.7281808853149414,
                        0.037940338253974915,
                        -0.7539865970611572,
                        -0.18357212841510773,
                        0.9240370988845825,
                        -0.5996099710464478,
                        -1.2615171670913696,
                        -1.0925337076187134,
                        0.009298758581280708,
                        -0.7270645499229431,
                        -0.020270057022571564,
                        -0.3348133862018585,
                        0.5000710487365723,
                        0.05874909088015556,
                        1.5239288806915283,
                        0.38192060589790344,
                        0.2811278998851776,
                        0.30679163336753845,
                        0.7831062078475952,
                        0.0134887071326375,
                        0.10992830991744995,
                        0.3881027400493622,
                        -0.3199520707130432,
                        -1.1869052648544312,
                        0.7327272891998291,
                        0.20947441458702087,
                        -0.9865190386772156,
                        -1.0609298944473267,
                        0.6557613015174866,
                        -0.20481282472610474,
                        1.101948618888855,
                        -0.6507068276405334,
                        -0.7079023122787476,
                        0.436166375875473,
                        -0.470628947019577,
                        -0.5995736122131348,
                        0.6849068999290466,
                        -0.7904008626937866,
                        0.5210175514221191,
                        -0.6850560307502747,
                        0.10131508857011795,
                        0.030715612694621086,
                        0.6443037390708923,
                        0.49805232882499695,
                        1.2480100393295288,
                        0.012174759991466999,
                        0.20605602860450745,
                        -0.6902238726615906,
                        -0.7439203858375549,
                        -1.7152142524719238,
                        1.2273294925689697,
                        0.5469456315040588,
                        1.8390864133834839,
                        -2.324556827545166,
                        1.2943106889724731,
                        -0.13607321679592133,
                        0.6254284381866455,
                        -0.12241184711456299,
                        0.27871254086494446,
                        -0.9265278577804565,
                        0.8346718549728394,
                        -2.274595022201538,
                        -1.3629506826400757,
                        -0.2330559343099594,
                        -0.2675538957118988,
                        0.5175681114196777,
                        0.24685922265052795,
                        0.3508756458759308,
                        -1.3097821474075317,
                        -0.03295423462986946,
                        0.8704207539558411,
                        0.7708832025527954,
                        0.3029734492301941,
                        -0.6714255213737488,
                        0.28577548265457153,
                        -0.7392771244049072,
                        -0.2255188226699829,
                        -1.335020899772644,
                        0.36759504675865173,
                        0.5474154353141785,
                        -0.9149503707885742,
                        0.03617793321609497,
                        0.296582967042923,
                        0.38922789692878723,
                        -0.9957422018051147,
                        1.034123182296753,
                        0.6453385949134827,
                        1.4466251134872437,
                        -0.7228871583938599,
                        0.5879185199737549,
                        -0.2950787842273712,
                        1.0534906387329102,
                        1.201729655265808,
                        -0.20677509903907776,
                        -2.0502591133117676,
                        0.9800885915756226,
                        -1.0413553714752197,
                        -0.5927954912185669,
                        -1.4063197374343872,
                        -0.2084161639213562,
                        -0.8640668988227844,
                        -0.10109863430261612,
                        1.038659930229187,
                        -0.6970682740211487,
                        0.6134095191955566,
                        -0.237914577126503,
                        0.7823787927627563,
                        0.11186734586954117,
                        0.8542697429656982,
                        0.06958997994661331,
                        1.1688545942306519,
                        -1.8162273168563843
                    ],
                    [
                        -1.0734971761703491,
                        0.8217286467552185,
                        0.6553365588188171,
                        -0.6646943688392639,
                        1.0280287265777588,
                        -0.1112935021519661,
                        0.8343775868415833,
                        -1.1212372779846191,
                        -0.3003357946872711,
                        -0.9758146405220032,
                        -0.580101728439331,
                        -0.5932116508483887,
                        -0.6193081736564636,
                        -0.7562886476516724,
                        -0.7261096835136414,
                        -0.4724871814250946,
                        -0.9043566584587097,
                        -1.78724205493927,
                        -0.3073643147945404,
                        0.007029583677649498,
                        -0.45903274416923523,
                        0.3313916027545929,
                        -1.068433403968811,
                        -1.0249162912368774,
                        -0.8463922739028931,
                        -0.5189128518104553,
                        0.23302169144153595,
                        -0.23023706674575806,
                        -0.22786110639572144,
                        -0.8710198402404785,
                        -0.548424482345581,
                        -1.3762048482894897,
                        -1.0350828170776367,
                        0.18181650340557098,
                        -0.3483220338821411,
                        -0.6412514448165894,
                        -1.7543060779571533,
                        0.08022895455360413,
                        0.8460478186607361,
                        -0.22735804319381714,
                        -1.6847856044769287,
                        -0.5996965765953064,
                        -1.210254192352295,
                        -0.395982563495636,
                        -1.4049030542373657,
                        -1.18697190284729,
                        -0.725786030292511,
                        0.18877021968364716,
                        -0.8346735239028931,
                        -0.025559088215231895,
                        -0.8711314797401428,
                        -0.6584699749946594,
                        -1.5931382179260254,
                        -1.739786982536316,
                        -0.3143174946308136,
                        -1.173806071281433,
                        0.508043110370636,
                        -0.8725010752677917,
                        -0.39993003010749817,
                        -0.520498514175415,
                        -0.7892362475395203,
                        -0.7232043147087097,
                        -1.2087732553482056,
                        -0.6264973878860474,
                        -1.464579463005066,
                        -0.9017542004585266,
                        0.987414538860321,
                        -0.23882316052913666,
                        -1.672142744064331,
                        -0.012673386372625828,
                        -2.75883150100708,
                        -0.001815751544199884,
                        0.23154893517494202,
                        -1.018223762512207,
                        0.22538994252681732,
                        -1.177628993988037,
                        -0.38372665643692017,
                        -1.0949407815933228,
                        -0.6166130900382996,
                        -1.2366820573806763,
                        -1.0705963373184204,
                        -0.35089150071144104,
                        -0.14776374399662018,
                        -0.43027904629707336,
                        0.44581669569015503,
                        0.4168868958950043,
                        0.7139450907707214,
                        0.5709222555160522,
                        -1.1097749471664429,
                        -0.06243159994482994,
                        1.6275432109832764,
                        -0.20672519505023956,
                        -0.2978842556476593,
                        -1.5131884813308716,
                        -0.1733824610710144,
                        0.18220041692256927,
                        -1.10402250289917,
                        -1.6307228803634644,
                        -0.5266084671020508,
                        0.7812469005584717,
                        -0.4386943280696869,
                        -0.8757908344268799,
                        -1.2480942010879517,
                        -1.1194911003112793,
                        -1.2886279821395874,
                        -0.2593153715133667,
                        -1.8689378499984741,
                        -0.18068891763687134,
                        -0.5065043568611145,
                        -0.6119617819786072,
                        -1.3978160619735718,
                        0.7349696755409241,
                        -0.9909002184867859,
                        -1.1020065546035767,
                        -0.6949365735054016,
                        -1.2645994424819946,
                        -0.849511981010437,
                        -1.371053695678711,
                        -0.9603807330131531,
                        -0.9676012396812439,
                        -1.9139087200164795,
                        0.3504984378814697,
                        -0.4034993648529053,
                        0.2626119554042816,
                        0.22040878236293793,
                        -0.4536260664463043,
                        -0.4007936716079712,
                        -0.8498584628105164,
                        -0.09208853542804718,
                        0.8453555107116699,
                        0.25565868616104126,
                        -0.5558289289474487,
                        0.3762821853160858,
                        0.6184064745903015,
                        -1.1542625427246094,
                        -0.4980747401714325,
                        0.8172494769096375,
                        -0.14109081029891968,
                        0.3733464479446411,
                        0.16109056770801544,
                        -0.584611713886261,
                        0.7122786641120911,
                        -0.7275553345680237,
                        0.7715482711791992,
                        -0.15386806428432465,
                        0.15742231905460358,
                        -0.416240394115448,
                        1.1041851043701172,
                        0.2409653216600418,
                        0.6575783491134644,
                        -0.3109661936759949,
                        0.5070819854736328,
                        -0.033791232854127884,
                        -0.27912163734436035,
                        0.8099490404129028,
                        -0.3940373361110687,
                        0.6215008497238159,
                        -0.14740604162216187,
                        0.1390634924173355,
                        1.0960431098937988,
                        0.2854173183441162,
                        -0.97298663854599,
                        0.06665319204330444,
                        0.5957392454147339,
                        -0.0972217321395874,
                        -1.4642597436904907,
                        1.304286003112793,
                        0.8336805105209351,
                        -0.9715909361839294,
                        0.6220348477363586,
                        1.024857997894287,
                        0.2925248444080353,
                        0.0593438595533371,
                        -0.5579926371574402,
                        -1.007155418395996,
                        0.39715704321861267,
                        0.9361429214477539,
                        0.7858039736747742,
                        0.09171521663665771,
                        1.1056509017944336,
                        -0.8218629956245422,
                        0.9258635640144348,
                        -1.2001899480819702,
                        -0.7298183441162109,
                        -1.2336984872817993,
                        -0.8317961096763611,
                        -0.8201109170913696,
                        0.2532898187637329,
                        0.4083957076072693,
                        -1.196333885192871,
                        0.521743893623352,
                        0.7364768981933594,
                        -1.160843849182129,
                        1.0964275598526,
                        0.5900503993034363,
                        -0.916109561920166,
                        0.16441024839878082,
                        0.1271848976612091,
                        0.2659628391265869,
                        -0.7395264506340027,
                        0.0161410141736269,
                        -0.9363076686859131,
                        -0.44691935181617737,
                        -0.4502999484539032,
                        -0.12254613637924194,
                        -0.5032209753990173,
                        -0.4007995128631592,
                        -0.2568840980529785,
                        -0.2454056739807129,
                        -1.2823758125305176,
                        -0.11316348612308502,
                        0.09186429530382156,
                        0.29214054346084595,
                        0.6574466228485107,
                        -0.046994585543870926,
                        0.5239107012748718,
                        -0.8332255482673645,
                        0.7171846628189087,
                        1.0427041053771973,
                        -0.5789379477500916,
                        -0.11234671622514725,
                        -1.5670711994171143,
                        -0.016883863136172295,
                        -0.9584378600120544,
                        -0.8470257520675659,
                        -0.04053477570414543,
                        -0.5483901500701904,
                        -0.980665922164917,
                        -2.1344292163848877,
                        -0.25602009892463684,
                        0.8784006834030151,
                        -0.8639421463012695,
                        -2.248224973678589,
                        -1.432820200920105,
                        -1.387278437614441,
                        0.9927798509597778,
                        -0.9088934659957886,
                        -0.40909022092819214,
                        -0.607799232006073,
                        0.8811456561088562,
                        -1.853325605392456,
                        0.11840606480836868,
                        -0.057685885578393936,
                        -1.843931794166565,
                        -1.4541083574295044,
                        -2.657747983932495,
                        -0.11444258689880371,
                        -1.8622881174087524,
                        -0.12830568850040436,
                        -0.06342922151088715,
                        -0.56270432472229,
                        -0.9333781599998474,
                        -0.09742467105388641,
                        -0.8991652131080627,
                        -0.6357600688934326,
                        -0.4662522077560425
                    ]
                ],
                [
                    [
                        -0.242916077375412,
                        -0.4037672281265259,
                        -0.2742338478565216,
                        -1.4213199615478516,
                        0.18141445517539978,
                        -1.0074108839035034,
                        0.11939568817615509,
                        -0.7127144932746887,
                        -0.5351099371910095,
                        -0.5199242234230042,
                        -1.1767897605895996,
                        -0.10475876182317734,
                        -1.2395473718643188,
                        -0.038466908037662506,
                        -0.3309282064437866,
                        -0.5310918092727661,
                        -0.2397945374250412,
                        -1.0798654556274414,
                        -0.5309023261070251,
                        -0.18785972893238068,
                        -0.24517223238945007,
                        -0.4188176095485687,
                        -0.2128688246011734,
                        0.2466210573911667,
                        -0.3658190071582794,
                        -0.12170850485563278,
                        -0.5668514370918274,
                        -1.466736078262329,
                        -1.65354323387146,
                        0.17198772728443146,
                        -0.11909199506044388,
                        -0.5665203332901001,
                        0.03721477836370468,
                        0.4372551739215851,
                        -0.34620141983032227,
                        -0.04275021702051163,
                        0.32892662286758423,
                        0.2706299424171448,
                        0.23621688783168793,
                        -1.7107195854187012,
                        -0.19030074775218964,
                        -1.4570785760879517,
                        -0.00040326089947484434,
                        0.1261705756187439,
                        0.0854802206158638,
                        -1.0529745817184448,
                        -0.20673483610153198,
                        0.5347126126289368,
                        0.5181084275245667,
                        -0.8770537972450256,
                        -0.5523964762687683,
                        0.6955585479736328,
                        -0.5790069103240967,
                        -0.06724201142787933,
                        -0.42504969239234924,
                        -0.3027883470058441,
                        -0.29347437620162964,
                        -1.1150405406951904,
                        -0.6647500991821289,
                        -1.2807815074920654,
                        0.34845054149627686,
                        0.1357758790254593,
                        -0.06934185326099396,
                        -0.07686207443475723,
                        0.2831748425960541,
                        -1.1144323348999023,
                        -0.3283645510673523,
                        -0.9515191912651062,
                        -0.6413335800170898,
                        -0.8484135270118713,
                        -0.23266859352588654,
                        -0.002751737367361784,
                        0.26853254437446594,
                        -0.9615799784660339,
                        -0.7246265411376953,
                        -0.12536391615867615,
                        -0.34269237518310547,
                        -0.7129353284835815,
                        -0.5577422976493835,
                        -0.7298762798309326,
                        -0.28126803040504456,
                        -0.09171540290117264,
                        -0.12298300117254257,
                        0.22501614689826965,
                        -0.6604086756706238,
                        -0.22344306111335754,
                        -0.8165633678436279,
                        -1.510237693786621,
                        0.18445463478565216,
                        -0.813533365726471,
                        0.1272316575050354,
                        -0.8335633873939514,
                        -0.5985665917396545,
                        -1.0130709409713745,
                        -0.19278863072395325,
                        -0.21467365324497223,
                        -0.41946348547935486,
                        -0.8110412359237671,
                        -0.05463402345776558,
                        -0.29946422576904297,
                        -0.16192534565925598,
                        -0.7814356088638306,
                        0.21049904823303223,
                        0.32347795367240906,
                        -0.5294726490974426,
                        -0.8834941983222961,
                        -0.2367822825908661,
                        -1.000558614730835,
                        -0.41490381956100464,
                        0.23911860585212708,
                        -1.155153751373291,
                        0.04462653771042824,
                        -0.20942740142345428,
                        -0.3883117437362671,
                        0.253088116645813,
                        -0.7480673789978027,
                        -0.677243173122406,
                        -0.4275728166103363,
                        -0.14990238845348358,
                        -0.5101507306098938,
                        0.10820439457893372,
                        0.9642378091812134,
                        -0.029374945908784866,
                        -0.2710985243320465,
                        -0.24304550886154175,
                        -1.3246508836746216,
                        0.20777958631515503,
                        -0.5210394859313965,
                        0.18168140947818756,
                        -0.14320246875286102,
                        -1.0689655542373657,
                        -0.029960738494992256,
                        0.5519068837165833,
                        -0.6967940926551819,
                        0.573515772819519,
                        -0.14784632623195648,
                        0.055053792893886566,
                        -0.1834273636341095,
                        0.1901138573884964,
                        0.2047887146472931,
                        0.2066878378391266,
                        0.23940734565258026,
                        -0.1858561933040619,
                        -0.037418607622385025,
                        -0.39195048809051514,
                        -0.36836573481559753,
                        0.455732524394989,
                        0.30548810958862305,
                        -0.5897712707519531,
                        0.011797797866165638,
                        0.6769865155220032,
                        0.27407968044281006,
                        -0.21869607269763947,
                        0.46391189098358154,
                        -0.6632855534553528,
                        0.414873868227005,
                        -0.2619841396808624,
                        0.06134750321507454,
                        -0.2506434917449951,
                        -0.3101486265659332,
                        0.11333074420690536,
                        -0.05531180277466774,
                        -0.15542377531528473,
                        0.16570742428302765,
                        0.5538687109947205,
                        -0.7004320025444031,
                        -0.07328186184167862,
                        0.6301479339599609,
                        0.4697445034980774,
                        -0.34169724583625793,
                        -0.021192891523241997,
                        -0.07352777570486069,
                        0.3599444031715393,
                        -0.23763257265090942,
                        0.28642192482948303,
                        0.025643296539783478,
                        -0.576589822769165,
                        0.24808527529239655,
                        -0.2574557662010193,
                        -0.3787546455860138,
                        -0.4430343210697174,
                        0.26817530393600464,
                        0.4566219747066498,
                        -0.39134353399276733,
                        -0.05440956726670265,
                        -0.34252649545669556,
                        -0.3845166862010956,
                        -0.09508709609508514,
                        -0.14726859331130981,
                        0.09592588990926743,
                        0.009189636446535587,
                        -0.004233036655932665,
                        -0.46135976910591125,
                        -0.27158796787261963,
                        -1.0835827589035034,
                        -1.4998512268066406,
                        -0.3026586174964905,
                        -0.8042837381362915,
                        -0.04270385205745697,
                        0.23706622421741486,
                        -0.435055673122406,
                        -0.734955906867981,
                        -1.0463505983352661,
                        -0.47120392322540283,
                        -0.6844897270202637,
                        -0.0996583104133606,
                        -0.03963309898972511,
                        -0.2688477635383606,
                        -0.47081419825553894,
                        -0.8161876201629639,
                        -0.4757218360900879,
                        0.05397821217775345,
                        -0.8770653605461121,
                        -0.42697998881340027,
                        -1.4724425077438354,
                        -0.43457546830177307,
                        -0.19505764544010162,
                        -0.5865157842636108,
                        -0.43182557821273804,
                        -1.7241231203079224,
                        -0.7394399046897888,
                        -0.17208530008792877,
                        0.3507724404335022,
                        -0.2021288126707077,
                        -0.4695984125137329,
                        0.13911172747612,
                        -0.6787657141685486,
                        -0.42085304856300354,
                        -0.04608242213726044,
                        0.37989333271980286,
                        0.8196617960929871,
                        -1.4463634490966797,
                        -0.3832300007343292,
                        -1.3004859685897827,
                        -0.19334661960601807,
                        -0.28619107604026794,
                        0.11199195683002472,
                        0.01049539539963007,
                        -0.6059654355049133,
                        -0.18977363407611847,
                        0.15057897567749023,
                        -0.9210258722305298,
                        0.6004229187965393,
                        0.12903715670108795,
                        -0.4503130316734314,
                        -0.5396029353141785,
                        -0.6985368132591248,
                        -0.38201916217803955,
                        -0.7020491361618042,
                        0.14131735265254974,
                        -1.3860018253326416,
                        -1.237524151802063,
                        0.19035989046096802,
                        -1.0928747653961182,
                        -0.022815505042672157,
                        -0.4819839596748352
                    ],
                    [
                        -1.0089198350906372,
                        -0.48108968138694763,
                        -0.5419290661811829,
                        -0.3656702935695648,
                        0.4542507529258728,
                        0.7069454789161682,
                        -0.3931127190589905,
                        -0.9870772361755371,
                        -0.4695042669773102,
                        -1.1419531106948853,
                        0.7776682376861572,
                        -1.2548649311065674,
                        -1.4333465099334717,
                        -0.79962557554245,
                        -0.8974519968032837,
                        -0.16865456104278564,
                        -1.097259759902954,
                        -0.6206992268562317,
                        -0.3940066695213318,
                        -0.4321148991584778,
                        -0.7935580015182495,
                        -1.5028878450393677,
                        -0.7596611976623535,
                        0.9201129674911499,
                        -0.8278447389602661,
                        0.27578142285346985,
                        -0.0032423336524516344,
                        -0.7804598212242126,
                        -0.6462047100067139,
                        -0.22117556631565094,
                        -0.5680885910987854,
                        -1.0345680713653564,
                        -0.625002920627594,
                        -0.4390338659286499,
                        -0.18785156309604645,
                        0.08916187286376953,
                        0.23150509595870972,
                        0.24496674537658691,
                        0.6987285017967224,
                        0.24535194039344788,
                        -0.5708797574043274,
                        -0.4098891317844391,
                        -0.844510555267334,
                        0.014544581063091755,
                        0.32799389958381653,
                        -1.3242827653884888,
                        -0.858873188495636,
                        0.025630159303545952,
                        -0.24565300345420837,
                        -1.018101453781128,
                        -0.12652501463890076,
                        0.8440391421318054,
                        -0.9071006774902344,
                        -0.24205495417118073,
                        -0.5316086411476135,
                        0.43372488021850586,
                        -0.020224865525960922,
                        -0.700073778629303,
                        0.6334058046340942,
                        -0.826862633228302,
                        -0.23487916588783264,
                        1.240212082862854,
                        0.3854481875896454,
                        -0.44724202156066895,
                        -0.6212388277053833,
                        -1.1146584749221802,
                        -0.6048576235771179,
                        0.32573795318603516,
                        0.067473404109478,
                        -0.1264549195766449,
                        0.47438371181488037,
                        0.13235825300216675,
                        0.24750448763370514,
                        0.3797207176685333,
                        -0.4678976535797119,
                        -0.6151282787322998,
                        -0.6004606485366821,
                        -1.5685133934020996,
                        -0.947044849395752,
                        -1.2157299518585205,
                        -0.7686290740966797,
                        0.42146608233451843,
                        0.12389041483402252,
                        0.34080371260643005,
                        -0.6199811697006226,
                        0.1232423186302185,
                        -1.8544713258743286,
                        -0.029594143852591515,
                        -0.7075948715209961,
                        -1.2473175525665283,
                        -0.2871720790863037,
                        -0.25354766845703125,
                        -0.5062561631202698,
                        -0.16694433987140656,
                        -0.11869284510612488,
                        0.9515263438224792,
                        0.09014695882797241,
                        -0.9822686314582825,
                        0.450891375541687,
                        0.23571264743804932,
                        -0.13960745930671692,
                        -0.8644571900367737,
                        0.8532981872558594,
                        -0.2597518563270569,
                        0.14092987775802612,
                        -0.5654706358909607,
                        0.20159006118774414,
                        -0.4321694076061249,
                        -1.743789792060852,
                        -0.6556844711303711,
                        -0.3691757619380951,
                        -0.16383644938468933,
                        -0.09394722431898117,
                        -0.9805535078048706,
                        -0.7113699316978455,
                        -0.8824735283851624,
                        -0.9054518342018127,
                        -0.6955093741416931,
                        -0.4473443925380707,
                        -0.2851327359676361,
                        -1.4993551969528198,
                        -0.6608678698539734,
                        -1.0815733671188354,
                        -0.20914801955223083,
                        -0.05120311677455902,
                        -0.8549759984016418,
                        -0.41919639706611633,
                        -0.5101432204246521,
                        0.3115423619747162,
                        -0.6940145492553711,
                        0.33350419998168945,
                        -0.4350684583187103,
                        -0.5982534885406494,
                        0.6276317834854126,
                        -0.07780266553163528,
                        -0.31958284974098206,
                        -0.028546713292598724,
                        -0.14003677666187286,
                        0.10157673060894012,
                        0.4517020583152771,
                        -0.49501895904541016,
                        0.419320285320282,
                        -0.3289896845817566,
                        -0.21881626546382904,
                        -0.47958487272262573,
                        -0.03571330010890961,
                        0.4179908037185669,
                        -0.10241981595754623,
                        -0.4378925859928131,
                        -0.5932255387306213,
                        0.2538473904132843,
                        -0.06860948354005814,
                        -0.5984074473381042,
                        0.6557952761650085,
                        0.6026632785797119,
                        -0.21294428408145905,
                        0.18166592717170715,
                        1.0258432626724243,
                        -0.6957718133926392,
                        0.2544638514518738,
                        -0.37533628940582275,
                        0.35545748472213745,
                        -0.0856018140912056,
                        0.48520588874816895,
                        0.1489681452512741,
                        0.0122988261282444,
                        0.3927145302295685,
                        -0.4508912265300751,
                        -0.13819536566734314,
                        -0.042071983218193054,
                        0.6176630854606628,
                        -0.03427574783563614,
                        0.822221040725708,
                        -0.10448034107685089,
                        -0.4262405037879944,
                        -0.02269294671714306,
                        0.9806438088417053,
                        -0.27106523513793945,
                        -0.22045370936393738,
                        0.010789069347083569,
                        0.2326994389295578,
                        0.5760301351547241,
                        -0.3701988458633423,
                        -0.2524957060813904,
                        0.367750883102417,
                        -0.16155694425106049,
                        0.611846387386322,
                        0.1356184482574463,
                        -0.15879754722118378,
                        0.9152132868766785,
                        -0.11615457385778427,
                        0.529443085193634,
                        -1.2718242406845093,
                        -0.8042072057723999,
                        0.3035455644130707,
                        0.015262899920344353,
                        0.19652977585792542,
                        0.24177944660186768,
                        -0.7778299450874329,
                        -0.9057146310806274,
                        0.10754664987325668,
                        -0.8482260704040527,
                        0.42734402418136597,
                        -1.2826485633850098,
                        -1.4887946844100952,
                        -1.0110923051834106,
                        -1.228967547416687,
                        -1.1934540271759033,
                        -0.808684766292572,
                        -1.1332472562789917,
                        -0.04895326495170593,
                        -0.7060123085975647,
                        -1.092808723449707,
                        -0.824337899684906,
                        -0.8454598188400269,
                        0.6381063461303711,
                        -1.4966455698013306,
                        -1.7442939281463623,
                        0.48792946338653564,
                        0.16547253727912903,
                        -0.6572785377502441,
                        -0.6870138049125671,
                        -1.0044656991958618,
                        -0.9060688018798828,
                        -0.5061864852905273,
                        -0.7115119099617004,
                        -0.015122574754059315,
                        -0.17089016735553741,
                        -0.5053977370262146,
                        -0.15619860589504242,
                        -0.3837181031703949,
                        -0.3439808189868927,
                        -0.8872898817062378,
                        0.3449476361274719,
                        -0.6240235567092896,
                        0.34485748410224915,
                        0.16591091454029083,
                        -1.1237322092056274,
                        -1.1287684440612793,
                        0.010427646338939667,
                        0.11963307857513428,
                        -1.1870229244232178,
                        -0.3403170108795166,
                        0.5970001816749573,
                        -0.5038618445396423,
                        -0.32900261878967285,
                        -0.8501951098442078,
                        -0.37117183208465576,
                        -0.8343946933746338,
                        -0.576583743095398,
                        -0.09810387343168259,
                        -0.3133576214313507,
                        -0.6543172001838684,
                        0.14052729308605194,
                        -0.6117777228355408,
                        -0.8893143534660339
                    ],
                    [
                        0.13140231370925903,
                        -0.8320299386978149,
                        0.871759831905365,
                        -1.18927001953125,
                        0.8205839991569519,
                        0.39095640182495117,
                        1.5610449314117432,
                        -0.14905044436454773,
                        0.7194064855575562,
                        0.001699452637694776,
                        0.6915870904922485,
                        0.10969696193933487,
                        -0.5557143092155457,
                        0.9376222491264343,
                        0.876395046710968,
                        0.8858799338340759,
                        -0.12352371960878372,
                        -0.4570300579071045,
                        0.25496500730514526,
                        0.5723527669906616,
                        -0.22244541347026825,
                        0.7229816913604736,
                        0.27614736557006836,
                        -0.5995639562606812,
                        -0.1843106746673584,
                        -0.2212633639574051,
                        0.17978951334953308,
                        0.17380023002624512,
                        0.6899085640907288,
                        -0.8687991499900818,
                        -0.619232177734375,
                        -0.672574520111084,
                        0.03328141197562218,
                        1.0452282428741455,
                        0.21021367609500885,
                        -0.41694825887680054,
                        -0.659562349319458,
                        -0.344708651304245,
                        0.10190463811159134,
                        -0.09485842287540436,
                        -0.35600951313972473,
                        -0.10367365181446075,
                        -0.2427612692117691,
                        -0.5036582946777344,
                        -0.2908393442630768,
                        -0.3722818195819855,
                        -0.41642647981643677,
                        0.15495041012763977,
                        -0.8913042545318604,
                        1.1139005422592163,
                        0.07428627461194992,
                        -0.19710569083690643,
                        -1.3712061643600464,
                        -0.5938229560852051,
                        0.3720895051956177,
                        -0.9083520174026489,
                        0.8492384552955627,
                        0.43334856629371643,
                        -0.45287469029426575,
                        -0.09492481499910355,
                        -0.16454267501831055,
                        -0.2228596806526184,
                        -0.6279374957084656,
                        -0.14115971326828003,
                        -0.4116826057434082,
                        0.6217889189720154,
                        -0.6655707359313965,
                        0.6017232537269592,
                        -0.9761916995048523,
                        -0.5722343325614929,
                        -1.714828372001648,
                        -0.9189894199371338,
                        0.10063741356134415,
                        0.9062436819076538,
                        -1.1611392498016357,
                        0.6385485529899597,
                        -0.10303930193185806,
                        -0.7819730639457703,
                        -0.9090976715087891,
                        -0.11501208692789078,
                        0.040890492498874664,
                        -0.04788915440440178,
                        0.750882625579834,
                        -0.8374146223068237,
                        -0.018081147223711014,
                        -0.7698957920074463,
                        1.3513201475143433,
                        0.4298011362552643,
                        -0.020072562620043755,
                        0.0738726556301117,
                        -1.1686147451400757,
                        0.28237977623939514,
                        -1.375577449798584,
                        0.609936535358429,
                        -0.2772500514984131,
                        0.4954049587249756,
                        1.2307443618774414,
                        -1.4635859727859497,
                        0.832769513130188,
                        1.1872228384017944,
                        0.10940080136060715,
                        -1.6684523820877075,
                        -0.8929376602172852,
                        0.44164541363716125,
                        -0.0042242552153766155,
                        0.16433075070381165,
                        0.03247465938329697,
                        -0.19162346422672272,
                        0.16276797652244568,
                        -0.17872777581214905,
                        0.07269337773323059,
                        -0.37540000677108765,
                        -0.8933857083320618,
                        -1.461816668510437,
                        -0.024831505492329597,
                        -0.37927839159965515,
                        0.5542305111885071,
                        0.003175480756908655,
                        0.8369616866111755,
                        0.33942562341690063,
                        -1.4777796268463135,
                        -0.23433171212673187,
                        -0.2850600481033325,
                        0.11936260759830475,
                        -0.24836929142475128,
                        -0.9667828679084778,
                        0.14122681319713593,
                        0.0461142435669899,
                        0.7754861116409302,
                        -0.3053800165653229,
                        0.1777472198009491,
                        -0.18672676384449005,
                        0.5190688371658325,
                        -0.13512736558914185,
                        0.06456878036260605,
                        -1.1468430757522583,
                        -0.4959462881088257,
                        0.31341803073883057,
                        -0.01994248665869236,
                        -0.5265769362449646,
                        0.3495655059814453,
                        -0.2681829631328583,
                        0.9104546904563904,
                        -0.7913064956665039,
                        0.32310646772384644,
                        -0.32318243384361267,
                        -0.6559594869613647,
                        -0.41179436445236206,
                        0.28078150749206543,
                        -0.5242164134979248,
                        0.29312214255332947,
                        -0.18391841650009155,
                        0.3246060907840729,
                        0.08247171342372894,
                        -0.5361966490745544,
                        -0.6257293820381165,
                        -0.8122298121452332,
                        -0.6949205994606018,
                        0.105598084628582,
                        0.2594735324382782,
                        0.6411502957344055,
                        0.4222398102283478,
                        0.6961918473243713,
                        0.4098515212535858,
                        0.46321532130241394,
                        -0.034640226513147354,
                        -0.0670778900384903,
                        0.3906799852848053,
                        -0.22544769942760468,
                        0.015652325004339218,
                        -0.1615626960992813,
                        -0.23469270765781403,
                        -0.8095254302024841,
                        0.7481608986854553,
                        -0.7252707481384277,
                        -0.19476622343063354,
                        0.18794380128383636,
                        -0.44726717472076416,
                        -0.6045957803726196,
                        -0.4361734092235565,
                        -0.5062486529350281,
                        -0.23851585388183594,
                        0.04860057681798935,
                        -0.09554053843021393,
                        0.4396454095840454,
                        0.41673457622528076,
                        0.37174010276794434,
                        0.2843388319015503,
                        -0.21733030676841736,
                        0.09349312633275986,
                        -0.5339741706848145,
                        0.4721418023109436,
                        -0.5893682837486267,
                        -1.266609787940979,
                        0.695936381816864,
                        -0.29804521799087524,
                        -0.012768200598657131,
                        0.437276691198349,
                        0.667152464389801,
                        -0.3762039840221405,
                        -0.278049111366272,
                        -0.17738217115402222,
                        0.7407171726226807,
                        -0.10333865135908127,
                        -0.6411257386207581,
                        1.2227420806884766,
                        0.18797847628593445,
                        0.1901668757200241,
                        -0.6242480874061584,
                        -0.8340217471122742,
                        0.16489620506763458,
                        0.45433509349823,
                        -0.22734777629375458,
                        0.041377678513526917,
                        0.7489588856697083,
                        -1.438525915145874,
                        -0.6920596957206726,
                        -0.22497017681598663,
                        0.3217065632343292,
                        -0.2428186982870102,
                        0.12372907251119614,
                        -1.0653588771820068,
                        -0.7614404559135437,
                        -0.3017105758190155,
                        -0.20893505215644836,
                        0.972326934337616,
                        0.17667067050933838,
                        -0.07514482736587524,
                        -0.9121078252792358,
                        -0.8241833448410034,
                        0.45417875051498413,
                        -0.028665514662861824,
                        -0.6513458490371704,
                        -0.19366604089736938,
                        -0.7450717687606812,
                        -0.9948315024375916,
                        -0.26511478424072266,
                        -0.9928026795387268,
                        -0.5072048306465149,
                        0.306946724653244,
                        -1.3735634088516235,
                        0.8362913727760315,
                        0.7200830578804016,
                        -0.3833814561367035,
                        -1.5083225965499878,
                        -0.6475538611412048,
                        0.06425470858812332,
                        -1.4060431718826294,
                        0.8330099582672119,
                        0.3376307785511017,
                        0.046217773109674454,
                        -0.2897373139858246,
                        0.11146619915962219,
                        -0.3664197623729706,
                        -0.7509137988090515,
                        -0.4829261600971222
                    ],
                    [
                        -1.1801419258117676,
                        -0.28455132246017456,
                        -1.3742268085479736,
                        -0.14055520296096802,
                        -1.0511311292648315,
                        -1.1652865409851074,
                        -0.7639419436454773,
                        0.40878385305404663,
                        -1.177241563796997,
                        0.1343766152858734,
                        -0.2989055812358856,
                        -0.5407495498657227,
                        -1.2053331136703491,
                        -0.5869207978248596,
                        -0.9936205148696899,
                        0.03674190118908882,
                        0.21871601045131683,
                        0.3142842650413513,
                        0.601670503616333,
                        -1.023559331893921,
                        -1.497619867324829,
                        -0.8429116010665894,
                        -1.4132565259933472,
                        0.6164593696594238,
                        -0.40414631366729736,
                        -0.6160266995429993,
                        -1.3734896183013916,
                        -0.6555910706520081,
                        -0.1005474328994751,
                        -0.05150194838643074,
                        -1.914747714996338,
                        -0.12022893130779266,
                        -0.5420315265655518,
                        0.05749242752790451,
                        0.3604001998901367,
                        -0.40324631333351135,
                        -0.1558903157711029,
                        -0.08217768371105194,
                        -0.7338188290596008,
                        -0.5120152235031128,
                        0.5319913625717163,
                        -0.1582346111536026,
                        0.7643072605133057,
                        0.9218024611473083,
                        -0.6623149514198303,
                        0.1647215187549591,
                        -0.707603394985199,
                        -0.1253814548254013,
                        0.18973618745803833,
                        -0.5625659823417664,
                        -0.145280659198761,
                        0.22272378206253052,
                        0.04490765929222107,
                        0.17415101826190948,
                        -1.0410584211349487,
                        0.24930836260318756,
                        -0.08736653625965118,
                        -1.4946303367614746,
                        -0.5367788672447205,
                        -0.5104198455810547,
                        -1.065908670425415,
                        0.33774474263191223,
                        -0.10783689469099045,
                        -0.8642691373825073,
                        -0.9193047881126404,
                        -0.4707995355129242,
                        0.7291324138641357,
                        -0.3892163038253784,
                        0.17239084839820862,
                        0.7951403856277466,
                        0.4907626807689667,
                        -0.06302329152822495,
                        0.09727420657873154,
                        -0.37078288197517395,
                        -0.0140380235388875,
                        -0.9837290644645691,
                        -0.0223198514431715,
                        1.5158764123916626,
                        0.7399003505706787,
                        0.577316164970398,
                        0.14476442337036133,
                        -0.2197030484676361,
                        -0.6106318235397339,
                        -0.03875090181827545,
                        0.674910843372345,
                        0.5927503705024719,
                        -0.737738847732544,
                        -0.1658114194869995,
                        -0.12048421055078506,
                        1.076673150062561,
                        1.436265230178833,
                        -0.5784355998039246,
                        0.8383088707923889,
                        -1.2955952882766724,
                        0.07729463279247284,
                        -0.6545212268829346,
                        -1.0637701749801636,
                        0.703554093837738,
                        -0.2603023648262024,
                        -0.6443334817886353,
                        -1.0133732557296753,
                        0.17457832396030426,
                        -0.22908161580562592,
                        0.34869736433029175,
                        -0.9082270860671997,
                        -0.4973934590816498,
                        -0.9328842163085938,
                        -0.17255452275276184,
                        -0.584290087223053,
                        0.6962116956710815,
                        -0.7075695991516113,
                        0.4716695249080658,
                        -0.5217509865760803,
                        0.27751287817955017,
                        0.8627833724021912,
                        -0.6778673529624939,
                        -1.0465763807296753,
                        -1.0425024032592773,
                        -0.6895502805709839,
                        -0.47210919857025146,
                        -0.13249064981937408,
                        0.14064696431159973,
                        0.21661685407161713,
                        -0.35565289855003357,
                        0.27324235439300537,
                        0.13297446072101593,
                        -0.7635075449943542,
                        -1.0238507986068726,
                        -0.5114781856536865,
                        -0.1386844664812088,
                        -0.7676517367362976,
                        0.05438264086842537,
                        0.7825949788093567,
                        -0.10715271532535553,
                        0.1447547972202301,
                        0.20061413943767548,
                        0.35516318678855896,
                        -0.03511646017432213,
                        0.7831496596336365,
                        -0.18447597324848175,
                        0.2542114555835724,
                        -0.3629930019378662,
                        -0.46717846393585205,
                        -0.164683997631073,
                        0.3942458927631378,
                        -0.2681233882904053,
                        -0.08040032535791397,
                        0.0010434587020426989,
                        0.2896402180194855,
                        -0.1428869366645813,
                        0.35427582263946533,
                        -0.042043089866638184,
                        0.2548430263996124,
                        -0.2045651227235794,
                        0.15379402041435242,
                        0.5365860462188721,
                        -0.034229639917612076,
                        1.0428701639175415,
                        0.1099143996834755,
                        0.13588929176330566,
                        -0.161146879196167,
                        -0.5612260103225708,
                        0.12155044823884964,
                        -0.6042488217353821,
                        -1.3119245767593384,
                        0.46254032850265503,
                        0.2072075754404068,
                        -0.0890021100640297,
                        -0.475104957818985,
                        -0.5082941055297852,
                        0.04425523057579994,
                        0.036139339208602905,
                        -0.42170852422714233,
                        0.5407532453536987,
                        0.4043046236038208,
                        -0.29722416400909424,
                        0.32817602157592773,
                        -0.1636715531349182,
                        0.18369141221046448,
                        0.12190355360507965,
                        0.6975576877593994,
                        0.23067961633205414,
                        -0.010902008973062038,
                        1.0076044797897339,
                        -0.24543814361095428,
                        0.16144095361232758,
                        -0.9296169281005859,
                        -0.9811018109321594,
                        -0.03891998529434204,
                        0.2743977904319763,
                        -0.2558351755142212,
                        -0.5898681879043579,
                        -1.1654683351516724,
                        0.4510097801685333,
                        -1.284293532371521,
                        -0.302448570728302,
                        -1.3696376085281372,
                        -0.703713595867157,
                        0.03476659581065178,
                        1.1878485679626465,
                        0.31206920742988586,
                        -0.156852126121521,
                        -0.37096741795539856,
                        -0.6966937780380249,
                        -0.11099113523960114,
                        -0.9398251175880432,
                        -0.6601988077163696,
                        -0.0185793936252594,
                        -0.04108908027410507,
                        0.5745822787284851,
                        0.11830369383096695,
                        -0.6618072986602783,
                        -0.589508593082428,
                        -0.2392912060022354,
                        -2.9561901092529297,
                        -0.2547723948955536,
                        0.16317515075206757,
                        -0.22804361581802368,
                        -1.1637096405029297,
                        -0.6283286213874817,
                        0.16346757113933563,
                        -0.20758622884750366,
                        -0.9625160694122314,
                        -0.1378275603055954,
                        -0.6432336568832397,
                        -0.03630407899618149,
                        0.01698634773492813,
                        -0.8274961113929749,
                        -0.3310505449771881,
                        0.09966415911912918,
                        -0.24701394140720367,
                        -0.05384422093629837,
                        0.34657567739486694,
                        -0.493039071559906,
                        0.2607164978981018,
                        0.18174681067466736,
                        -0.5280595421791077,
                        0.6572439074516296,
                        -0.6276684999465942,
                        -0.4849342703819275,
                        -0.01951855793595314,
                        -1.2081539630889893,
                        0.35529112815856934,
                        -0.217649906873703,
                        -0.4182453453540802,
                        -0.4925212264060974,
                        -0.4681476354598999,
                        -0.03219859302043915,
                        -0.7183060050010681,
                        -0.6857332587242126,
                        -0.6035446524620056,
                        -0.4093608558177948,
                        -1.0174177885055542,
                        0.2557287812232971,
                        0.1640872210264206,
                        -0.9217759966850281
                    ],
                    [
                        -0.6932740211486816,
                        0.012732281349599361,
                        -0.18206602334976196,
                        1.3740317821502686,
                        -0.27178528904914856,
                        -0.06523842364549637,
                        -2.012662172317505,
                        -0.7357522249221802,
                        -1.8765909671783447,
                        -0.42500630021095276,
                        -0.6016775369644165,
                        -0.8085835576057434,
                        -0.37078186869621277,
                        -1.2911677360534668,
                        -0.8862122893333435,
                        -1.0708482265472412,
                        0.06529723852872849,
                        -0.4801916182041168,
                        0.10103976726531982,
                        -1.8470021486282349,
                        -0.1256021112203598,
                        -1.3820323944091797,
                        -0.9843276739120483,
                        0.27705615758895874,
                        -0.22812102735042572,
                        -0.19242559373378754,
                        -0.3800773620605469,
                        1.1737722158432007,
                        -0.8698510527610779,
                        0.22940412163734436,
                        -0.33482828736305237,
                        -0.18872423470020294,
                        -0.7828901410102844,
                        -1.218346357345581,
                        0.3941080570220947,
                        0.20694869756698608,
                        -0.2126479595899582,
                        -0.2281407117843628,
                        -1.016397476196289,
                        -0.745671808719635,
                        0.12414446473121643,
                        0.567596435546875,
                        0.24420849978923798,
                        0.9744392037391663,
                        0.23554503917694092,
                        -0.9088876843452454,
                        0.10512750595808029,
                        0.6001600623130798,
                        0.059082936495542526,
                        -1.2055481672286987,
                        -0.9820908904075623,
                        0.5674769878387451,
                        0.5398983359336853,
                        -0.09867580980062485,
                        -1.9046522378921509,
                        -0.02622818760573864,
                        -1.8083913326263428,
                        -0.4103979170322418,
                        -0.6963050365447998,
                        0.3349432051181793,
                        -0.434426873922348,
                        -0.6443076729774475,
                        -0.14472244679927826,
                        -0.5078389048576355,
                        0.20263202488422394,
                        -0.07983900606632233,
                        1.5690443515777588,
                        -0.19652093946933746,
                        0.9600929021835327,
                        0.7954803109169006,
                        0.9034304022789001,
                        0.9865710139274597,
                        -0.2429952770471573,
                        -0.5565857887268066,
                        1.0954831838607788,
                        0.26599833369255066,
                        -0.18935711681842804,
                        1.1995139122009277,
                        0.3827124238014221,
                        1.3873302936553955,
                        -0.6790631413459778,
                        -0.41545069217681885,
                        -0.6220203638076782,
                        -0.010414711199700832,
                        0.5872523784637451,
                        0.0878625139594078,
                        0.8007150888442993,
                        0.15780532360076904,
                        -0.5952206254005432,
                        1.963661789894104,
                        0.5294093489646912,
                        0.21401703357696533,
                        1.2660430669784546,
                        -0.2098381668329239,
                        -0.4727599620819092,
                        -0.006773532368242741,
                        -0.4370867609977722,
                        0.6613163948059082,
                        -0.3409023582935333,
                        -0.1986437737941742,
                        0.26893535256385803,
                        1.0560925006866455,
                        -0.31117740273475647,
                        0.9499589204788208,
                        0.0946551263332367,
                        0.21932752430438995,
                        -0.020359525457024574,
                        0.008395841345191002,
                        0.1619233638048172,
                        1.0116989612579346,
                        -0.5191245079040527,
                        0.2150956243276596,
                        0.7937960624694824,
                        0.6004093885421753,
                        0.569555938243866,
                        0.45680275559425354,
                        0.44310232996940613,
                        0.13336710631847382,
                        -0.8495978713035583,
                        -0.14297045767307281,
                        0.9979463815689087,
                        -0.30477091670036316,
                        -0.13580623269081116,
                        0.41534361243247986,
                        0.4021286070346832,
                        0.9368765354156494,
                        -0.21953171491622925,
                        -0.3089042901992798,
                        -0.5689632296562195,
                        -0.03738291934132576,
                        0.0612059161067009,
                        0.432699054479599,
                        -0.9024568796157837,
                        0.5531833171844482,
                        0.1635102778673172,
                        1.3838775157928467,
                        -0.16050465404987335,
                        -0.025489317253232002,
                        -0.38312768936157227,
                        0.24234861135482788,
                        0.13779142498970032,
                        0.2914174199104309,
                        0.2403774857521057,
                        0.2749290466308594,
                        -0.711883008480072,
                        0.1569027155637741,
                        0.5934128761291504,
                        -0.07804793864488602,
                        -0.4119713306427002,
                        0.22132989764213562,
                        -0.05900868773460388,
                        0.4046509563922882,
                        -0.1841830164194107,
                        0.750147819519043,
                        0.3912869393825531,
                        0.03064112365245819,
                        0.4737919270992279,
                        -0.13352443277835846,
                        0.04246062412858009,
                        -0.09593398123979568,
                        -0.26193520426750183,
                        -0.32306164503097534,
                        -0.5427272915840149,
                        -0.23003482818603516,
                        -0.134755939245224,
                        0.3957757353782654,
                        0.018551917746663094,
                        -0.310575008392334,
                        0.0559111163020134,
                        0.12396187335252762,
                        -0.3550165295600891,
                        0.44899556040763855,
                        0.6455191969871521,
                        -1.3722765445709229,
                        0.2745532691478729,
                        0.5633740425109863,
                        -0.4270278513431549,
                        0.4411276578903198,
                        1.3210231065750122,
                        0.7647829055786133,
                        -0.45918262004852295,
                        -0.2163103073835373,
                        0.12995566427707672,
                        -0.022020168602466583,
                        -0.37122488021850586,
                        -0.3892468810081482,
                        -0.10390812158584595,
                        0.12368130683898926,
                        -0.1324586421251297,
                        -0.1820848435163498,
                        0.7090545296669006,
                        -0.5605410933494568,
                        0.11188405007123947,
                        0.19121627509593964,
                        0.13331207633018494,
                        0.9670739769935608,
                        -0.2848588526248932,
                        0.041674062609672546,
                        -0.7730070352554321,
                        0.3895684480667114,
                        -0.4298492670059204,
                        -0.3506235182285309,
                        -0.3410898447036743,
                        0.005374803673475981,
                        -0.3357020914554596,
                        -0.9051421880722046,
                        0.1205957680940628,
                        -0.29219290614128113,
                        0.5900184512138367,
                        -0.12044529616832733,
                        0.1609800010919571,
                        -1.2743818759918213,
                        0.6967477202415466,
                        -1.4562448263168335,
                        -0.15860244631767273,
                        0.9020590782165527,
                        0.002086909953504801,
                        0.6283895373344421,
                        -1.588875412940979,
                        1.262267827987671,
                        -0.5918257236480713,
                        0.710015594959259,
                        -0.7950507998466492,
                        0.3457689881324768,
                        -0.6765031218528748,
                        -0.815134584903717,
                        0.6050520539283752,
                        0.20056328177452087,
                        0.002195903332903981,
                        -0.1525040715932846,
                        -0.8680853843688965,
                        0.12204316258430481,
                        0.40619608759880066,
                        0.73847496509552,
                        0.547308087348938,
                        0.91215580701828,
                        0.4281158745288849,
                        0.04298125207424164,
                        0.36023345589637756,
                        0.9046374559402466,
                        0.8881645202636719,
                        -1.0488566160202026,
                        0.017346546053886414,
                        0.4589960277080536,
                        0.48492568731307983,
                        0.41964206099510193,
                        -0.6908727884292603,
                        0.5700160264968872,
                        -1.676833987236023,
                        -0.8413596749305725,
                        -0.25853636860847473,
                        0.7068893909454346,
                        -0.3483770489692688,
                        -0.20766738057136536,
                        0.048504505306482315,
                        0.14103655517101288
                    ],
                    [
                        0.23315441608428955,
                        -0.550638735294342,
                        -1.015954852104187,
                        -0.3071424961090088,
                        0.19247260689735413,
                        0.12617410719394684,
                        -1.0215575695037842,
                        -0.4080546200275421,
                        -0.354488343000412,
                        0.021209465339779854,
                        0.47184088826179504,
                        -0.19663894176483154,
                        -0.1929471343755722,
                        1.3766047954559326,
                        -0.29457709193229675,
                        2.213998317718506,
                        0.19119399785995483,
                        0.7093712091445923,
                        0.7364215850830078,
                        0.6229761838912964,
                        -0.44275128841400146,
                        1.0886423587799072,
                        1.5962504148483276,
                        -0.005830017384141684,
                        -0.10419998317956924,
                        0.23982952535152435,
                        1.127483606338501,
                        0.518308162689209,
                        1.8693888187408447,
                        -0.22689619660377502,
                        -0.17816077172756195,
                        -0.1093924418091774,
                        -0.09221699088811874,
                        0.8555590510368347,
                        1.0468634366989136,
                        -0.059291865676641464,
                        0.4173455536365509,
                        0.03719285875558853,
                        -1.1954070329666138,
                        1.6377246379852295,
                        -0.4728633761405945,
                        1.045142650604248,
                        -0.1446361243724823,
                        0.19574347138404846,
                        -0.5792312026023865,
                        0.8562975525856018,
                        -1.3493937253952026,
                        0.33048194646835327,
                        0.5844823718070984,
                        1.5227237939834595,
                        0.0426582433283329,
                        -0.26285675168037415,
                        -0.39806756377220154,
                        -0.3947105407714844,
                        0.2534099221229553,
                        0.3811277449131012,
                        1.2460083961486816,
                        0.7100953459739685,
                        0.31384503841400146,
                        0.3979829251766205,
                        0.16154512763023376,
                        0.6145710349082947,
                        0.31234461069107056,
                        -0.3485945463180542,
                        -0.42053455114364624,
                        0.7303205132484436,
                        -0.6477010250091553,
                        0.718985378742218,
                        -0.2151474952697754,
                        0.1825953722000122,
                        -1.4890600442886353,
                        -0.5030087232589722,
                        -0.050112202763557434,
                        0.11558083444833755,
                        0.012527240440249443,
                        -0.4351315200328827,
                        -0.5104572176933289,
                        0.6975511312484741,
                        -0.291870653629303,
                        -0.7232693433761597,
                        -0.5001394152641296,
                        -0.20892086625099182,
                        -0.6599683165550232,
                        -0.9695327281951904,
                        0.6408131122589111,
                        -0.8036357164382935,
                        0.7162099480628967,
                        0.11546899378299713,
                        -0.4373299479484558,
                        0.26177528500556946,
                        -0.7797046899795532,
                        0.6165122389793396,
                        0.23358038067817688,
                        0.5120457410812378,
                        0.7180513143539429,
                        0.19364210963249207,
                        -0.403973788022995,
                        -0.7798266410827637,
                        -0.6275594830513,
                        1.3628194332122803,
                        0.05004149675369263,
                        0.09872148185968399,
                        -0.2278139442205429,
                        0.4407150447368622,
                        0.8898356556892395,
                        0.3016182482242584,
                        -0.21804268658161163,
                        -1.2665306329727173,
                        -1.2676101922988892,
                        -0.8807389140129089,
                        1.2015435695648193,
                        -0.36426669359207153,
                        0.02066268026828766,
                        -0.6862143278121948,
                        -1.6969351768493652,
                        0.309747576713562,
                        1.0351407527923584,
                        0.5297455191612244,
                        0.5480064749717712,
                        -0.2185034155845642,
                        -1.4846482276916504,
                        -1.0976403951644897,
                        0.11221203207969666,
                        0.7505371570587158,
                        0.3168158531188965,
                        -0.25874510407447815,
                        -1.1101701259613037,
                        0.5435781478881836,
                        -0.04591648653149605,
                        -0.11041860282421112,
                        0.1691143810749054,
                        -0.6313145160675049,
                        -0.6238252520561218,
                        -0.47301408648490906,
                        0.17219172418117523,
                        0.04410841688513756,
                        0.48099735379219055,
                        -0.15955086052417755,
                        0.5255846977233887,
                        -0.18664298951625824,
                        0.3707650601863861,
                        -0.38749128580093384,
                        -0.17986446619033813,
                        -0.7625011801719666,
                        0.006044814828783274,
                        0.09641163051128387,
                        -0.29585957527160645,
                        -0.6342747807502747,
                        0.4808366596698761,
                        0.032264821231365204,
                        0.5836228132247925,
                        0.3363895118236542,
                        0.22285093367099762,
                        -0.08573990315198898,
                        -0.022239327430725098,
                        -0.7149769067764282,
                        -0.2095632553100586,
                        -1.2148774862289429,
                        -0.32265573740005493,
                        0.6366071105003357,
                        -0.5070630311965942,
                        -0.1519935429096222,
                        0.20632284879684448,
                        -0.24686387181282043,
                        -0.07480272650718689,
                        1.222360372543335,
                        0.8146792054176331,
                        -0.17539706826210022,
                        -0.06437911838293076,
                        -0.06611337512731552,
                        -0.26403599977493286,
                        0.1337055265903473,
                        0.2299719601869583,
                        0.5725679397583008,
                        0.013192255981266499,
                        -0.04277915507555008,
                        0.03439102694392204,
                        0.1771991103887558,
                        0.5478425025939941,
                        -0.4959573745727539,
                        -0.4738180339336395,
                        -0.8030915260314941,
                        -0.6661664247512817,
                        -0.45879486203193665,
                        0.34648609161376953,
                        0.6357592940330505,
                        0.3986743688583374,
                        0.3800373673439026,
                        -0.1814207136631012,
                        1.5510621070861816,
                        0.1805766075849533,
                        -0.39573192596435547,
                        0.568654477596283,
                        -0.11643476784229279,
                        -0.08034021407365799,
                        0.24422308802604675,
                        0.732093334197998,
                        0.22969385981559753,
                        -0.14648015797138214,
                        -0.6992836594581604,
                        0.0990934744477272,
                        0.0473519042134285,
                        0.5024897456169128,
                        -0.2649352550506592,
                        -0.15112140774726868,
                        0.9769773483276367,
                        -0.3931444585323334,
                        0.26524990797042847,
                        0.32760944962501526,
                        -0.05277484655380249,
                        0.2801837623119354,
                        0.6162465810775757,
                        0.45054322481155396,
                        0.41764697432518005,
                        2.115729808807373,
                        0.4663463532924652,
                        -0.265858918428421,
                        -0.03229624405503273,
                        0.8905220627784729,
                        1.1283239126205444,
                        0.5042892694473267,
                        -0.19963979721069336,
                        0.5997583866119385,
                        -0.11278964579105377,
                        0.3392166495323181,
                        1.0353084802627563,
                        0.7360846400260925,
                        0.6768577098846436,
                        0.5875236392021179,
                        0.6243395805358887,
                        -0.8556751608848572,
                        1.3908498287200928,
                        0.2288917750120163,
                        1.1245461702346802,
                        0.006966279353946447,
                        0.06152418628334999,
                        -0.8470185399055481,
                        -0.2643091678619385,
                        -0.29246050119400024,
                        0.5654587745666504,
                        0.482269823551178,
                        0.316361665725708,
                        -1.1289244890213013,
                        -0.2161191701889038,
                        -0.03207116201519966,
                        -0.2591865360736847,
                        0.6573622226715088,
                        0.4850752651691437,
                        0.8642460703849792,
                        -0.7950344681739807,
                        0.9937635064125061,
                        0.7274572849273682,
                        0.07801482081413269,
                        1.2219809293746948,
                        -0.31096500158309937,
                        0.1846725195646286
                    ],
                    [
                        -0.052581291645765305,
                        -0.39578014612197876,
                        -0.8700153231620789,
                        -0.8557508587837219,
                        -0.3778112232685089,
                        -0.11836475133895874,
                        2.0639359951019287,
                        0.23960664868354797,
                        1.9682828187942505,
                        0.2979213297367096,
                        0.08857515454292297,
                        0.6682982444763184,
                        0.12720085680484772,
                        0.2831055521965027,
                        0.431815505027771,
                        0.9636313319206238,
                        0.13158707320690155,
                        0.05154407024383545,
                        0.8067584037780762,
                        1.5210349559783936,
                        -0.7523722648620605,
                        0.6339566111564636,
                        -1.7633360624313354,
                        -0.056238945573568344,
                        0.6953047513961792,
                        -0.08189596235752106,
                        0.09240448474884033,
                        -0.7104393243789673,
                        0.4667339622974396,
                        -0.0368160717189312,
                        0.2845703363418579,
                        -0.19603155553340912,
                        0.3792399764060974,
                        1.825852870941162,
                        0.7896896004676819,
                        -0.8261563181877136,
                        0.18012870848178864,
                        -0.20829316973686218,
                        2.253746271133423,
                        -0.5456268191337585,
                        -0.3858170807361603,
                        -0.6876911520957947,
                        -0.24498769640922546,
                        -0.3610433042049408,
                        0.10805397480726242,
                        1.2786543369293213,
                        0.6848676800727844,
                        -0.38133594393730164,
                        -0.8346593379974365,
                        0.9785647392272949,
                        1.3845396041870117,
                        -0.9486075043678284,
                        -0.3324752151966095,
                        -0.3123303949832916,
                        2.039069414138794,
                        0.9370938539505005,
                        1.8497843742370605,
                        0.7567377686500549,
                        0.29726824164390564,
                        -0.7271226644515991,
                        0.05879990756511688,
                        -0.6287657618522644,
                        0.6540830135345459,
                        0.5596847534179688,
                        0.5002920627593994,
                        0.5080773234367371,
                        -1.75974440574646,
                        -0.5584949851036072,
                        -1.1361185312271118,
                        -0.03537316620349884,
                        0.7495380640029907,
                        0.011419941671192646,
                        0.1967984288930893,
                        0.5012211799621582,
                        -1.8090697526931763,
                        0.27752092480659485,
                        0.6315727829933167,
                        -1.1361886262893677,
                        -0.1849747896194458,
                        -0.8040907979011536,
                        0.4212132394313812,
                        0.27324816584587097,
                        0.7487004995346069,
                        0.8522908091545105,
                        -1.2372974157333374,
                        0.2559170424938202,
                        -0.2966051995754242,
                        -0.22481566667556763,
                        1.4440921545028687,
                        -0.786170244216919,
                        0.685836136341095,
                        -0.637877881526947,
                        -1.4767919778823853,
                        0.6410621404647827,
                        -0.02841367945075035,
                        -0.7298054099082947,
                        0.9528597593307495,
                        -0.743760883808136,
                        0.9572208523750305,
                        -0.2936035096645355,
                        0.4733531177043915,
                        -0.29896271228790283,
                        1.2023284435272217,
                        -0.837486207485199,
                        -0.2511575520038605,
                        -0.7896245718002319,
                        0.531612753868103,
                        0.05402323976159096,
                        1.0847887992858887,
                        0.26062044501304626,
                        1.0073232650756836,
                        0.07406096160411835,
                        -0.1409229189157486,
                        -0.2986888885498047,
                        0.7820148468017578,
                        -0.6975082159042358,
                        0.4483985900878906,
                        -0.20128880441188812,
                        1.2374802827835083,
                        0.6213759779930115,
                        -0.15510019659996033,
                        1.6748310327529907,
                        0.3826340138912201,
                        -0.8038280010223389,
                        -0.3749317526817322,
                        -0.3343713879585266,
                        0.7675458788871765,
                        1.2929869890213013,
                        0.4742766320705414,
                        -0.29711613059043884,
                        -1.0695610046386719,
                        -0.1315976083278656,
                        0.9219661951065063,
                        -0.021248910576105118,
                        -0.7041317224502563,
                        -0.8327197432518005,
                        -0.34074193239212036,
                        0.563320517539978,
                        -1.035658836364746,
                        -0.12344016879796982,
                        0.8964853286743164,
                        0.3174467086791992,
                        -0.5423446893692017,
                        0.14628945291042328,
                        0.833594560623169,
                        -0.806961178779602,
                        -0.05176188796758652,
                        -0.41559386253356934,
                        -0.2267204374074936,
                        -0.7293806076049805,
                        -0.12629464268684387,
                        -0.2954176664352417,
                        1.1279724836349487,
                        0.01894020102918148,
                        -0.7632383704185486,
                        -0.3304116427898407,
                        -0.21724919974803925,
                        -0.04383360594511032,
                        0.19308334589004517,
                        0.16721147298812866,
                        0.5558050870895386,
                        0.034599386155605316,
                        0.6285553574562073,
                        0.6857863068580627,
                        0.555955708026886,
