{
    "in_shape": [
        null,
        2
    ],
    "layers": [
        {
            "type": "dense",
            "activation": "relu",
            "shape": [
                null,
                4
            ],
            "weights": [
                [
                    [
                        -0.3695808947086334,
                        0.9547613263130188,
                        -0.9738845229148865,
                        -0.21298934519290924
                    ],
                    [
                        -0.537702739238739,
                        1.0831727981567383,
                        0.4323900043964386,
                        0.8964197039604187
                    ]
                ],
                [
                    -0.28269004821777344,
                    -3.481933526927605e-05,
                    0.9099382162094116,
                    0.2129831612110138
                ]
            ]
        },
        {
            "type": "dense",
            "activation": "relu",
            "shape": [
                null,
                7
            ],
            "weights": [
                [
                    [
                        0.3015497922897339,
                        0.05815857648849487,
                        -0.4405660033226013,
                        0.4389492869377136,
                        -0.33189380168914795,
                        -0.39461565017700195,
                        0.3496517539024353
                    ],
                    [
                        0.9207254648208618,
                        -0.14546144008636475,
                        0.9132246375083923,
                        -0.17687523365020752,
                        1.167445421218872,
                        0.4086892604827881,
                        -0.5518636107444763
                    ],
                    [
                        -0.37593886256217957,
                        -0.4160904288291931,
                        -0.7345755696296692,
                        -0.3795331120491028,
                        -0.7145802974700928,
                        0.904731273651123,
                        0.15607896447181702
                    ],
                    [
                        0.34599408507347107,
                        0.4662042260169983,
                        0.019246645271778107,
                        0.37991446256637573,
                        -0.38877972960472107,
                        0.4320867359638214,
                        -0.6246969103813171
                    ]
                ],
                [
                    -0.8765039443969727,
                    -0.11501526832580566,
                    -0.024459360167384148,
                    -0.04681462049484253,
                    0.7971160411834717,
                    0.768717348575592,
                    1.099031686782837
                ]
            ]
        },
        {
            "type": "dense",
            "activation": "relu",
            "shape": [
                null,
                11
            ],
            "weights": [
                [
                    [
                        -1.1853574514389038,
                        0.7491002082824707,
                        -0.31018000841140747,
                        -1.2389196157455444,
                        0.32796189188957214,
                        -0.10416435450315475,
                        -0.5339598655700684,
                        -0.2741883099079132,
                        0.0203852616250515,
                        -0.3801334500312805,
                        1.0048171281814575
                    ],
                    [
                        0.3450748026371002,
                        0.06031322479248047,
                        0.35604649782180786,
                        0.04976802319288254,
                        -0.3574719727039337,
                        -0.27883240580558777,
                        -0.06858783215284348,
                        -0.2145063281059265,
                        0.3602560758590698,
                        -0.07439678907394409,
                        -0.03435041755437851
                    ],
                    [
                        -0.6779159903526306,
                        -0.4008510708808899,
                        -0.06874417513608932,
                        -0.5927667617797852,
                        -0.11299435049295425,
                        -0.33840295672416687,
                        0.8479915261268616,
                        0.6773918867111206,
                        0.13741648197174072,
                        -0.2231072634458542,
                        -0.1694675236940384
                    ],
                    [
                        -0.1170295998454094,
                        0.02036336436867714,
                        0.27269700169563293,
                        -0.22438278794288635,
                        -0.3108305335044861,
                        0.2633060812950134,
                        0.20711785554885864,
                        0.3732726573944092,
                        0.18578194081783295,
                        -0.31475797295570374,
                        -0.3384171426296234
                    ],
                    [
                        0.48697903752326965,
                        -0.05596362426877022,
                        -0.03548368811607361,
                        0.23898649215698242,
                        -0.37942788004875183,
                        -0.5051476955413818,
                        0.8840012550354004,
                        0.8558127284049988,
                        -0.3573174774646759,
                        -0.05647345259785652,
                        -0.33565881848335266
                    ],
                    [
                        0.3130791485309601,
                        0.8007106184959412,
                        -0.12418035417795181,
                        0.5788244009017944,
                        0.14633138477802277,
                        0.6071524620056152,
                        -0.41006845235824585,
                        0.1495489627122879,
                        -0.33929747343063354,
                        0.4002421498298645,
                        0.6113376021385193
                    ],
                    [
                        -0.3356085419654846,
                        -0.8609997034072876,
                        -0.10969267785549164,
                        -0.09298241883516312,
                        0.07856501638889313,
                        0.8888646960258484,
                        0.8954687714576721,
                        -0.2986769676208496,
                        -0.20215195417404175,
                        1.0078704357147217,
                        -0.16712117195129395
                    ]
                ],
                [
                    0.48602432012557983,
                    0.2858298122882843,
                    -0.1613270491361618,
                    0.43276917934417725,
                    -0.3091593086719513,
                    0.6291372179985046,
                    0.5541789531707764,
                    0.015491968020796776,
                    -0.2696724832057953,
                    0.3173883259296417,
                    0.20828908681869507
                ]
            ]
        },
        {
            "type": "dense",
            "activation": "sigmoid",
            "shape": [
                null,
                13
            ],
            "weights": [
                [
                    [
                        -0.5523806810379028,
                        0.2846628427505493,
                        -0.9212843179702759,
                        -1.1357407569885254,
                        -0.16025792062282562,
                        -0.15128284692764282,
                        0.16262757778167725,
                        -0.7061662077903748,
                        -0.9656153321266174,
                        -0.5928400754928589,
                        -0.5855518579483032,
                        -0.1707286238670349,
                        -0.8087058663368225
                    ],
                    [
                        -0.4209555685520172,
                        0.20830890536308289,
                        -0.6092894077301025,
                        -0.454118937253952,
                        -0.40634968876838684,
                        -0.3009254038333893,
                        -0.3700428903102875,
                        0.4887259900569916,
                        0.3730127513408661,
                        0.07687964290380478,
                        0.11643555015325546,
                        -0.0830206647515297,
                        -0.004593904595822096
                    ],
                    [
                        -0.11707694828510284,
                        -0.016577430069446564,
                        0.09948193281888962,
                        0.06551900506019592,
                        -0.012794828973710537,
                        -0.23254860937595367,
                        -0.25635427236557007,
                        0.19706770777702332,
                        -0.2747197151184082,
                        -0.17404261231422424,
                        0.21350625157356262,
                        -0.16353461146354675,
                        -0.14452384412288666
                    ],
                    [
                        -0.7705118060112,
                        0.17738917469978333,
                        -0.6801853775978088,
                        -0.6644587516784668,
                        -0.17109429836273193,
                        -0.14148084819316864,
                        -0.333798885345459,
                        -0.31076759099960327,
                        -0.8353767991065979,
                        -0.4577895700931549,
                        -0.17890308797359467,
                        -0.192282572388649,
                        -0.7331002950668335
                    ],
                    [
                        0.20099037885665894,
                        0.1516861915588379,
                        -0.2005525380373001,
                        -0.11637778580188751,
                        -0.1309262216091156,
                        -0.22001530230045319,
                        -0.1586039811372757,
                        -0.23678773641586304,
                        -0.17872729897499084,
                        -0.00716979056596756,
                        -0.2018417865037918,
                        0.2597275674343109,
                        -0.1850643903017044
                    ],
                    [
                        -0.4186623692512512,
                        0.2571500539779663,
                        0.315104603767395,
                        0.537147045135498,
                        0.2515674829483032,
                        0.14403098821640015,
                        -0.07747291028499603,
                        0.08948788046836853,
                        0.13631288707256317,
                        0.4768941402435303,
                        -0.0935688316822052,
                        -0.011161082424223423,
                        -0.5781276226043701
                    ],
                    [
                        0.4626188278198242,
                        0.03237022086977959,
                        0.7104385495185852,
                        0.6609892845153809,
                        0.18402135372161865,
                        0.031213074922561646,
                        0.008447296917438507,
                        -0.11534170061349869,
                        0.07808151841163635,
                        -0.5235953330993652,
                        -0.34158700704574585,
                        -0.29407912492752075,
                        -0.0239846333861351
                    ],
                    [
                        0.7076852917671204,
                        0.2808205783367157,
                        -0.2374415248632431,
                        -0.3883437216281891,
                        -0.21428947150707245,
                        -0.10623668134212494,
                        -0.08114711940288544,
                        0.08164794743061066,
                        0.23286424577236176,
                        -0.23575928807258606,
                        -0.4752957224845886,
                        -0.3699759840965271,
                        0.3726775050163269
                    ],
                    [
                        0.1622937172651291,
                        0.014524475671350956,
                        0.08044406771659851,
                        0.028176184743642807,
                        0.023113476112484932,
                        0.25098559260368347,
                        -0.0822695717215538,
                        0.24050813913345337,
                        0.15755489468574524,
                        0.17513588070869446,
                        0.15682511031627655,
                        0.1401645839214325,
                        0.07606218755245209
                    ],
                    [
                        -0.5803454518318176,
                        0.5367242693901062,
                        0.8714943528175354,
                        0.4003423750400543,
                        0.2892524003982544,
                        0.20922856032848358,
                        0.47722694277763367,
                        0.2170775830745697,
                        -0.1525951474905014,
                        -0.25132986903190613,
                        -0.01716550998389721,
                        -0.10361290723085403,
                        -0.6826326251029968
                    ],
                    [
                        -0.7149841785430908,
                        -0.8686757683753967,
                        -0.06820492446422577,
                        0.19788476824760437,
                        -0.6469314098358154,
                        -0.16955436766147614,
                        0.4213959872722626,
                        0.15375001728534698,
                        1.2623112201690674,
                        1.0546824932098389,
                        0.9317787885665894,
                        0.7605431079864502,
                        0.005981790833175182
                    ]
                ],
                [
                    -0.06103319674730301,
                    -0.06893185526132584,
                    0.34014320373535156,
                    0.817428469657898,
                    0.28125065565109253,
                    0.24493291974067688,
                    -0.2575587034225464,
                    0.19150736927986145,
                    0.38777536153793335,
                    -0.22405219078063965,
                    -0.17982986569404602,
                    -0.16476525366306305,
                    -0.001875579240731895
                ]
            ]
        }
    ]
}