{
    "in_shape": [
        null,
        2
    ],
    "layers": [
        {
            "type": "dense",
            "activation": "relu",
            "shape": [
                null,
                100
            ],
            "weights": [
                [
                    [
                        0.5628498196601868,
                        -0.6044645309448242,
                        -0.524038553237915,
                        0.10275473445653915,
                        0.7053508758544922,
                        0.04317828640341759,
                        0.2993718087673187,
                        -0.26715728640556335,
                        -0.5361435413360596,
                        -0.37207064032554626,
                        -0.43959081172943115,
                        -0.49603158235549927,
                        -0.5934529900550842,
                        -0.512972891330719,
                        0.505745530128479,
                        0.39519456028938293,
                        0.11056534945964813,
                        0.04048024117946625,
                        0.40248605608940125,
                        0.5570156574249268,
                        -0.5285496711730957,
                        0.6509929299354553,
                        0.2644917070865631,
                        0.18877217173576355,
                        0.15938876569271088,
                        -0.42906996607780457,
                        -0.37617722153663635,
                        0.331245094537735,
                        0.5931414365768433,
                        0.10537470877170563,
                        -0.2403213083744049,
                        -0.003769445465877652,
                        0.10856541246175766,
                        0.49204784631729126,
                        0.22389662265777588,
                        0.5264614224433899,
                        0.4511234760284424,
                        0.6177722215652466,
                        -0.3640139698982239,
                        -0.17245537042617798,
                        0.3168905973434448,
                        -0.4944193363189697,
                        -0.09476223587989807,
                        0.2606199085712433,
                        0.12631385028362274,
                        -0.6385133862495422,
                        0.05761002004146576,
                        -0.577751100063324,
                        -0.4225364029407501,
                        -0.5100708603858948,
                        0.056789759546518326,
                        -0.20342892408370972,
                        0.35624340176582336,
                        0.36057335138320923,
                        0.26400870084762573,
                        0.546531617641449,
                        0.10214011371135712,
                        0.33867260813713074,
                        0.02589005045592785,
                        -0.19492563605308533,
                        -0.5761668682098389,
                        -0.6688947677612305,
                        -0.25531747937202454,
                        -0.3477467894554138,
                        -0.46719974279403687,
                        -0.061303265392780304,
                        0.28690019249916077,
                        0.4477377235889435,
                        -0.5990108251571655,
                        0.0459846630692482,
                        -0.511119544506073,
                        0.19596362113952637,
                        -0.3221001625061035,
                        -0.3161746859550476,
                        -0.6627829074859619,
                        -0.04322393611073494,
                        -0.25659608840942383,
                        -0.5412691235542297,
                        -0.3501831293106079,
                        0.021508319303393364,
                        0.5356178879737854,
                        0.40743592381477356,
                        -1.100894808769226,
                        -0.41729894280433655,
                        -0.041278526186943054,
                        0.22219224274158478,
                        -0.5407505035400391,
                        0.7167251110076904,
                        0.07238378375768661,
                        -0.0902106910943985,
                        0.6048516631126404,
                        -0.4175545573234558,
                        0.0627434253692627,
                        -0.13572265207767487,
                        -0.21585018932819366,
                        0.5146415829658508,
                        -0.07371415942907333,
                        -0.435778945684433,
                        0.20022374391555786,
                        0.1550852358341217
                    ],
                    [
                        -0.6245311498641968,
                        0.31686368584632874,
                        0.02966286800801754,
                        0.30093440413475037,
                        0.5930471420288086,
                        -0.6277576684951782,
                        0.6768053770065308,
                        -0.5146030187606812,
                        0.3695443570613861,
                        -0.37211039662361145,
                        -0.03280642256140709,
                        0.478137344121933,
                        -0.35229623317718506,
                        -0.004785176832228899,
                        -0.5337812304496765,
                        0.553263783454895,
                        -0.40447062253952026,
                        -0.5902813673019409,
                        0.7152578830718994,
                        0.6370277404785156,
                        0.08820106834173203,
                        -0.10310214757919312,
                        -0.6275200247764587,
                        -0.5589492321014404,
                        0.4876742660999298,
                        0.6141506433486938,
                        -0.4046495258808136,
                        -0.3954727053642273,
                        0.2139255851507187,
                        0.015772024169564247,
                        0.6687673926353455,
                        -0.45614758133888245,
                        -0.24109633266925812,
                        -0.2034384161233902,
                        -0.039472632110118866,
                        0.2889918088912964,
                        0.6244989633560181,
                        0.6035163998603821,
                        -0.19886761903762817,
                        -0.5636330842971802,
                        0.5568553805351257,
                        -0.9042230844497681,
                        0.4951516091823578,
                        -0.46183621883392334,
                        -0.42127248644828796,
                        0.42346665263175964,
                        0.4773063063621521,
                        0.4268001317977905,
                        -0.00991850160062313,
                        -0.19165925681591034,
                        -0.549416720867157,
                        0.35177192091941833,
                        -0.07685840874910355,
                        0.43350616097450256,
                        -0.6719471216201782,
                        0.3605242967605591,
                        0.6016430854797363,
                        0.6440441608428955,
                        -0.25109657645225525,
                        -0.13606402277946472,
                        0.5690625905990601,
                        0.0767926499247551,
                        0.2755994200706482,
                        0.6007417440414429,
                        0.08562993258237839,
                        -0.689058244228363,
                        -0.019647693261504173,
                        -0.14152485132217407,
                        0.616254448890686,
                        -0.550868809223175,
                        -0.5330318212509155,
                        -0.3047362267971039,
                        0.09888197481632233,
                        -0.23013471066951752,
                        0.6274884939193726,
                        0.7036191821098328,
                        -0.4423338770866394,
                        -0.008085030131042004,
                        -0.2590889036655426,
                        0.23210057616233826,
                        -0.3171028196811676,
                        0.6401652693748474,
                        -0.9623018503189087,
                        0.23826898634433746,
                        0.4815434217453003,
                        0.6451681852340698,
                        0.1785651594400406,
                        -0.24629108607769012,
                        -0.19512636959552765,
                        -0.24041885137557983,
                        -0.1743391752243042,
                        -0.295879989862442,
                        -0.5628638863563538,
                        0.7038785219192505,
                        0.08187202364206314,
                        0.2868196368217468,
                        -0.7012707591056824,
                        -0.17763252556324005,
                        -0.8092650175094604,
                        0.3506138026714325
                    ]
                ],
                [
                    -0.6068485975265503,
                    0.5734285712242126,
                    -0.5313630104064941,
                    0.03028571605682373,
                    -0.5502505898475647,
                    0.584587812423706,
                    -0.8243246674537659,
                    0.26904454827308655,
                    0.16660082340240479,
                    0.1488189697265625,
                    0.13941046595573425,
                    -0.3194755017757416,
                    -0.01484327670186758,
                    0.5250641107559204,
                    0.5321239233016968,
                    -0.23701529204845428,
                    0.2938782870769501,
                    0.06679078191518784,
                    0.10965817421674728,
                    -0.3898550271987915,
                    0.6536542773246765,
                    -0.6608343720436096,
                    -0.3993500769138336,
                    0.3708544969558716,
                    4.035176971228793e-05,
                    -0.34667953848838806,
                    0.19461101293563843,
                    0.0652369037270546,
                    -0.632090151309967,
                    -0.19819673895835876,
                    -0.4335002899169922,
                    -0.29835382103919983,
                    0.13380172848701477,
                    0.18460194766521454,
                    -0.3998553156852722,
                    -0.7332780957221985,
                    -0.3245316743850708,
                    -1.0984067916870117,
                    -0.09752215445041656,
                    -0.4057113826274872,
                    0.0045115151442587376,
                    0.1509392410516739,
                    -0.10389330983161926,
                    -0.6132184863090515,
                    -0.446044385433197,
                    -0.6535064578056335,
                    -0.5879563093185425,
                    0.1509317308664322,
                    -0.24027235805988312,
                    -0.26453274488449097,
                    -0.22221402823925018,
                    -0.6212166547775269,
                    0.27618202567100525,
                    0.32199424505233765,
                    -0.6444070339202881,
                    -0.7744043469429016,
                    0.7577090859413147,
                    0.5105019211769104,
                    -0.27703073620796204,
                    -0.6841439604759216,
                    0.11880207806825638,
                    -0.6049299836158752,
                    0.6315967440605164,
                    0.24446681141853333,
                    0.3816157579421997,
                    -0.4180760085582733,
                    0.08644158393144608,
                    -0.12769271433353424,
                    0.4759719967842102,
                    0.5048734545707703,
                    0.3283316493034363,
                    0.5858634114265442,
                    0.5251948833465576,
                    0.20711849629878998,
                    0.677509069442749,
                    0.2279798835515976,
                    -0.08307649195194244,
                    -0.3062320053577423,
                    0.6123038530349731,
                    0.16219133138656616,
                    0.5577009320259094,
                    -0.7247879505157471,
                    0.2206806242465973,
                    0.18482516705989838,
                    0.7138708829879761,
                    -0.5935961604118347,
                    0.6388317942619324,
                    -0.32774055004119873,
                    0.26814550161361694,
                    -0.27624940872192383,
                    -0.6540334224700928,
                    0.29603010416030884,
                    -0.3848040997982025,
                    0.08697149902582169,
                    -0.5107215642929077,
                    0.22730234265327454,
                    -0.38339024782180786,
                    -0.6449283957481384,
                    0.0008373757009394467,
                    0.08506820350885391
                ]
            ]
        },
        {
            "type": "dense",
            "activation": "relu",
            "shape": [
                null,
                100
            ],
            "weights": [
                [
                    [
                        0.008025312796235085,
                        -0.003487622831016779,
                        -0.056166958063840866,
                        0.045359015464782715,
                        -0.05183398723602295,
                        -0.00783386267721653,
                        0.044882189482450485,
                        0.0705922469496727,
                        0.05855290964245796,
                        0.09297347068786621,
                        -0.025388790294528008,
                        -0.07459899038076401,
                        -0.07202231884002686,
                        -0.0559256449341774,
                        -0.06499946117401123,
                        -0.02048814296722412,
                        -0.0029788853134959936,
                        0.05717865377664566,
                        -0.07461430877447128,
                        0.09061112254858017,
                        -0.04100784286856651,
                        0.07642271369695663,
                        -0.07570921629667282,
                        0.08609924465417862,
                        -0.05690032243728638,
                        -0.07550574839115143,
                        0.005373549647629261,
                        -0.08269300311803818,
                        -0.07137199491262436,
                        -0.049305107444524765,
                        0.08474526554346085,
                        -0.012775457464158535,
                        0.08931624889373779,
                        -0.029659748077392578,
                        0.04442045837640762,
                        0.05136701092123985,
                        0.07617663592100143,
                        -0.05371363088488579,
                        0.06208310276269913,
                        -0.021412719041109085,
                        -0.0507650263607502,
                        -0.026687253266572952,
                        -0.06307381391525269,
                        0.07585157454013824,
                        0.06897399574518204,
                        -0.051882077008485794,
                        -0.05806276947259903,
                        -0.06536991894245148,
                        -0.024646056815981865,
                        0.0077131749130785465,
                        -0.0974210873246193,
                        -0.09641043096780777,
                        0.021745527163147926,
                        0.05601811408996582,
                        -0.007842063903808594,
                        -0.0683736577630043,
                        -0.05219968780875206,
                        0.07122298330068588,
                        0.00555497407913208,
                        -0.04415210708975792,
                        0.035426557064056396,
                        0.045099902898073196,
                        0.08186804503202438,
                        -0.0006958365556783974,
                        -0.05263710021972656,
                        -0.09408366680145264,
                        -0.09181918203830719,
                        0.010065591894090176,
                        0.0034462809562683105,
                        0.0948847159743309,
                        -0.02520120143890381,
                        0.06460859626531601,
                        0.033318497240543365,
                        0.05695871263742447,
                        -0.08255399763584137,
                        0.08472862094640732,
                        0.057319629937410355,
                        -0.02493312396109104,
                        0.01807614602148533,
                        0.04277393966913223,
                        0.09130733460187912,
                        -0.07840085029602051,
                        -0.002728366991505027,
                        0.054084669798612595,
                        0.04292411729693413,
                        -0.065794937312603,
                        0.056628525257110596,
                        0.014265859499573708,
                        0.03878834471106529,
                        0.07901374250650406,
                        0.06445278227329254,
                        -0.038086142390966415,
                        -0.026316964998841286,
                        0.024513626471161842,
                        -0.027489686384797096,
                        0.045338381081819534,
                        0.03625023365020752,
                        0.046220626682043076,
                        -0.057722270488739014,
                        -0.03772779926657677
                    ],
                    [
                        -0.09249001741409302,
                        0.02313714101910591,
                        -0.05185651779174805,
                        0.08568670600652695,
                        -0.06393438577651978,
                        -0.05368797108530998,
                        0.07792308181524277,
                        -0.022771896794438362,
                        0.020701218396425247,
                        0.05172094702720642,
                        0.012004620395600796,
                        -0.04697011783719063,
                        -0.10832374542951584,
                        0.08209708333015442,
                        0.022890139371156693,
                        0.08953268826007843,
                        0.019806135445833206,
                        0.13515429198741913,
                        0.0811888799071312,
                        0.06320751458406448,
                        0.020370209589600563,
                        0.05029337480664253,
                        0.06942766904830933,
                        0.01897539384663105,
                        -0.058265961706638336,
                        0.022852206602692604,
                        0.05103262886404991,
                        0.12446046620607376,
                        0.0099822161719203,
                        0.039921704679727554,
                        -0.0017639644211158156,
                        -0.02588743157684803,
                        0.08944500982761383,
                        -0.09905833750963211,
                        -0.02050609700381756,
                        -0.023008668795228004,
                        0.04939468950033188,
                        -0.041105687618255615,
                        -0.04191293567419052,
                        0.0089521873742342,
                        -0.051194630563259125,
                        -0.039062608033418655,
                        0.023007387295365334,
                        0.011383319273591042,
                        0.00033962944871746004,
                        -0.006115416530519724,
                        0.015369105152785778,
                        -0.025443511083722115,
                        0.061349011957645416,
                        0.023286331444978714,
                        -0.012135708704590797,
                        0.10176821798086166,
                        0.06621864438056946,
                        0.05787651985883713,
                        0.040923673659563065,
                        -0.04263240471482277,
                        0.1019795760512352,
                        -0.033013712614774704,
                        -0.09042457491159439,
                        -0.0864761546254158,
                        0.06882110983133316,
                        -0.03079490177333355,
                        -0.03936799243092537,
                        0.09628457576036453,
                        -0.028983188793063164,
                        0.10639921575784683,
                        -0.004792236723005772,
                        -0.07374253123998642,
                        -0.022627269849181175,
                        0.026648886501789093,
                        0.05906710773706436,
                        0.03695118799805641,
                        0.03625323995947838,
                        0.10865679383277893,
                        0.021947534754872322,
                        0.07252046465873718,
                        -0.09179695695638657,
                        0.04326369985938072,
                        -0.07463934272527695,
                        -0.06025973707437515,
                        -0.030375689268112183,
                        -0.009464955888688564,
                        0.08674902468919754,
                        -0.0844675675034523,
                        -0.10270220786333084,
                        0.0066252402029931545,
                        0.020515887066721916,
                        -0.01594829559326172,
                        -0.05262934789061546,
                        0.03744408115744591,
                        -0.003978613764047623,
                        -0.07836391031742096,
                        -0.07624033093452454,
                        0.1453080177307129,
                        -0.05108726769685745,
                        0.030086660757660866,
                        0.05630471929907799,
                        0.13013675808906555,
                        0.0011539895785972476,
                        -0.06468234211206436
                    ],
                    [
                        0.03778476640582085,
                        0.09177235513925552,
                        -0.03301319107413292,
                        0.05497025325894356,
                        -0.09852132946252823,
                        0.002068853471428156,
                        -0.0853269025683403,
                        0.03846321254968643,
                        -0.07592456787824631,
                        0.03288636356592178,
                        0.09083105623722076,
                        0.038075901567935944,
                        0.09729143232107162,
                        0.026442958042025566,
                        0.00729029206559062,
                        -0.09814033657312393,
                        -0.021547842770814896,
                        0.058227695524692535,
                        -0.07529807090759277,
                        0.05701419338583946,
                        0.058054592460393906,
                        -0.01329729612916708,
                        -0.012913668528199196,
                        -0.04572166129946709,
                        -0.028050554916262627,
                        0.009967053309082985,
                        0.0009860516292974353,
                        0.07814188301563263,
                        0.051783252507448196,
                        0.06787317246198654,
                        -0.01845470629632473,
                        0.025550901889801025,
                        -0.05347423627972603,
                        0.0875069722533226,
                        0.00652890233322978,
                        -0.09619845449924469,
                        0.07386269420385361,
                        0.008915889076888561,
                        0.05105619505047798,
                        0.08186008036136627,
                        0.0879710465669632,
                        -0.06792580336332321,
                        0.02145026996731758,
                        0.078773133456707,
                        0.04774698242545128,
                        0.07073799520730972,
                        -0.03366357088088989,
                        0.08813092857599258,
                        0.09735746681690216,
                        -0.09099356085062027,
                        -0.017756236717104912,
                        -0.04160138592123985,
                        0.07555296272039413,
                        0.041551947593688965,
                        0.08934509754180908,
                        0.05803961679339409,
                        -0.06048736721277237,
                        0.06259200721979141,
                        -0.04889631271362305,
                        -0.0047480701468884945,
                        -0.06746776401996613,
                        -0.07320412248373032,
                        0.009105694480240345,
                        0.08779218047857285,
                        0.0073626041412353516,
                        -0.09214215725660324,
                        -0.08268938213586807,
                        -0.03813333436846733,
                        -0.04732472822070122,
                        0.039871811866760254,
                        0.05592380836606026,
                        0.07665570825338364,
                        -0.02112719975411892,
                        0.029683757573366165,
                        0.04942232370376587,
                        -0.0535898320376873,
                        -0.08290287107229233,
                        -0.05704987049102783,
                        -0.03874708339571953,
                        -0.04820585250854492,
                        0.039806414395570755,
                        -0.08437085151672363,
                        -0.019933748990297318,
                        -0.07632261514663696,
                        0.03451942279934883,
                        0.03609513118863106,
                        -0.059477102011442184,
                        -0.07060839980840683,
                        -0.016529107466340065,
                        0.03020075522363186,
                        0.05493661388754845,
                        -0.031609345227479935,
                        0.07050951570272446,
                        0.08405881375074387,
                        -0.0256850253790617,
                        0.006180620286613703,
                        -0.05275711044669151,
                        0.03938542678952217,
                        0.025755977258086205,
                        0.081490159034729
                    ],
                    [
                        -0.09856479614973068,
                        -0.0014104604488238692,
                        -0.061104606837034225,
                        -0.06805618107318878,
                        -0.05944007635116577,
                        -0.0405009463429451,
                        -0.006897300481796265,
                        -0.006568713579326868,
                        -0.06115986034274101,
                        -0.018891802057623863,
                        0.057308923453092575,
                        -0.060907330363988876,
                        0.07502798736095428,
                        0.029825789853930473,
                        -0.07292085140943527,
                        -0.11477043479681015,
                        -0.040932778269052505,
                        0.053518325090408325,
                        -0.029224064201116562,
                        -0.02169705182313919,
                        -0.04404338821768761,
                        -0.08074676990509033,
                        0.07530764490365982,
                        0.05110851302742958,
                        -0.019694555550813675,
                        0.04737713932991028,
                        0.007184064015746117,
                        -0.08924940973520279,
                        -0.07837782055139542,
                        -0.099563829600811,
                        -0.12522363662719727,
                        0.01890513114631176,
                        0.04521787911653519,
                        -0.04527795687317848,
                        -0.07349597662687302,
                        0.051821865141391754,
                        -0.11357994377613068,
                        -0.1237509474158287,
                        0.036003727465867996,
                        -0.03737877309322357,
                        -0.03088943287730217,
                        -0.06296699494123459,
                        -0.05012437701225281,
                        0.09530526399612427,
                        -0.028510527685284615,
                        0.050799332559108734,
                        -0.00817265547811985,
                        0.07725559175014496,
                        0.045104172080755234,
                        -0.01929372549057007,
                        -0.0462186336517334,
                        -0.015376806259155273,
                        0.10790985822677612,
                        -0.08744842559099197,
                        0.04204848036170006,
                        0.04534530267119408,
                        0.08612854778766632,
                        -0.08858426660299301,
                        0.04890969395637512,
                        0.08890242129564285,
                        0.07065770775079727,
                        -0.049036845564842224,
                        -0.06754197180271149,
                        0.10313897579908371,
                        0.05761406570672989,
                        0.12175735086202621,
                        -0.020375574007630348,
                        0.06798025965690613,
                        0.04827536642551422,
                        -0.004792963154613972,
                        0.01831878535449505,
                        0.050777334719896317,
                        0.01780327595770359,
                        -0.052877213805913925,
                        -0.037981901317834854,
                        0.027374960482120514,
                        -0.020384546369314194,
                        0.003458714112639427,
                        0.08422226458787918,
                        -0.06812721490859985,
                        0.03179040551185608,
                        0.018347525969147682,
                        0.014488006010651588,
                        0.01689976267516613,
                        0.09314653277397156,
                        -0.10352987051010132,
                        0.03589057922363281,
                        0.05717724561691284,
                        -0.04176943376660347,
                        0.04549630731344223,
                        -0.0072887958958745,
                        0.04368191957473755,
                        -0.006236603949218988,
                        0.05366500839591026,
                        0.13141275942325592,
                        0.024574270471930504,
                        -0.07608240097761154,
                        -0.04210783913731575,
                        0.006054764613509178,
                        -0.048660457134246826
                    ],
                    [
                        -0.05332621559500694,
                        -0.04409470781683922,
                        -0.05089345574378967,
                        0.04974771663546562,
                        -0.08357658237218857,
                        0.09370944648981094,
                        0.004903081338852644,
                        -0.07794506102800369,
                        -0.07392188161611557,
                        -0.07363387197256088,
                        0.07459088414907455,
                        -0.08243371546268463,
                        0.05866356939077377,
                        -0.07892482727766037,
                        -0.0001164436325780116,
                        0.00302239041775465,
                        -0.06309027224779129,
                        -0.062093645334243774,
                        0.10349000990390778,
                        0.0959019735455513,
                        -0.08537665754556656,
                        -0.04581720009446144,
                        0.013207146897912025,
                        0.08335649222135544,
                        -0.08697469532489777,
                        0.05569852888584137,
                        0.04694860428571701,
                        0.1468527913093567,
                        -0.012845027260482311,
                        -0.06813975423574448,
                        -0.028866587206721306,
                        0.006484794430434704,
                        -0.013304468244314194,
                        -0.003410504199564457,
                        0.032443322241306305,
                        -0.060917019844055176,
                        -0.06159279868006706,
                        0.03501148521900177,
                        -0.021332329139113426,
                        -0.08610831946134567,
                        0.026442833244800568,
                        0.06920649111270905,
                        -0.10552149266004562,
                        0.08503709733486176,
                        -0.06156892701983452,
                        -0.046878281980752945,
                        -0.08273935317993164,
                        -0.05817565694451332,
                        0.07280190289020538,
                        0.05151855945587158,
                        0.059515178203582764,
                        0.10081248730421066,
                        0.05759690701961517,
                        0.11726151406764984,
                        -0.05951283127069473,
                        -0.017383547499775887,
                        0.07336080819368362,
                        -0.04386911541223526,
                        0.029497791081666946,
                        -0.07248346507549286,
                        -0.07771787792444229,
                        -0.03867492824792862,
                        0.007771824020892382,
                        0.04210655018687248,
                        -0.08944179117679596,
                        0.03976171091198921,
                        0.11324065178632736,
                        0.072957344353199,
                        0.09538139402866364,
                        0.038109228014945984,
                        -0.01327129639685154,
                        0.05766243487596512,
                        0.09211287647485733,
                        -0.10732396692037582,
                        -0.10818646848201752,
                        -0.06253894418478012,
                        -0.001980776898562908,
                        -0.06130746752023697,
                        0.015479417517781258,
                        0.0891723781824112,
                        0.039114780724048615,
                        0.04860318824648857,
                        -0.05405751243233681,
                        0.0402228906750679,
                        -0.006954566575586796,
                        -0.05605145916342735,
                        0.08885208517313004,
                        -0.07555393129587173,
                        0.08964811265468597,
                        -0.06441844254732132,
                        0.10643766820430756,
                        0.00859613437205553,
                        0.07857263088226318,
                        -0.03094562515616417,
                        0.055302172899246216,
                        -0.017878394573926926,
                        -0.03702512010931969,
                        -0.03599914535880089,
                        -0.002583084860816598,
                        0.07649751007556915
                    ],
                    [
                        0.05732518434524536,
                        -0.0467197559773922,
                        0.08125143498182297,
                        0.07505811750888824,
                        0.01875760592520237,
                        -0.03948097676038742,
                        -0.09630625694990158,
                        -0.028208553791046143,
                        -0.0018365022260695696,
                        0.04827800765633583,
                        -0.03556402027606964,
                        0.006023967172950506,
                        -0.04770056530833244,
                        -0.009729779325425625,
                        0.024843646213412285,
                        0.1390158087015152,
                        0.04896601662039757,
                        0.07210234552621841,
                        0.053696587681770325,
                        -0.10127352923154831,
                        0.09886229038238525,
                        0.08122455328702927,
                        -0.015706248581409454,
                        0.011007708497345448,
                        0.014155841432511806,
                        0.0001148496667155996,
                        -0.09210698306560516,
                        0.10446283221244812,
                        -0.03330118581652641,
                        0.12711727619171143,
                        0.013231169432401657,
                        0.10866054147481918,
                        -0.05984952300786972,
                        -0.038077857345342636,
                        -0.030116498470306396,
                        -0.025759875774383545,
                        -0.04606952518224716,
                        0.03458776697516441,
                        0.07630014419555664,
                        0.05727798864245415,
                        -0.011333748698234558,
                        -0.0896492749452591,
                        0.1055014505982399,
                        0.050935979932546616,
                        -0.005391099955886602,
                        -0.06390758603811264,
                        0.03851054981350899,
                        0.021070176735520363,
                        0.049556564539670944,
                        -0.006556093692779541,
                        0.08728303015232086,
                        0.006813063286244869,
                        0.009361544623970985,
                        0.026267284527420998,
                        -0.052112795412540436,
                        -0.012413723394274712,
                        -0.11890292167663574,
                        -0.0802270770072937,
                        -0.11352866142988205,
                        -0.013557396829128265,
                        -0.005648887250572443,
                        -0.04638933762907982,
                        -0.07965950667858124,
                        -0.09495917707681656,
                        0.1211167722940445,
                        0.010980889201164246,
                        0.014844690449535847,
                        -0.003696116851642728,
                        -0.07943285256624222,
                        -0.020872268825769424,
                        0.08984842151403427,
                        -0.03639901801943779,
                        0.1129441112279892,
                        0.06272463500499725,
                        0.14240460097789764,
                        0.07556883245706558,
                        -0.03451785445213318,
                        0.0571882538497448,
                        0.07347399741411209,
                        -0.0692705288529396,
                        0.05036642402410507,
                        -0.042051102966070175,
                        -0.04266885668039322,
                        -0.11529750376939774,
                        -0.08505085855722427,
                        -0.004705334547907114,
                        0.028145549818873405,
                        -0.07536598294973373,
                        -0.0723801702260971,
                        -0.025815239176154137,
                        -0.022092299535870552,
                        -0.03022981993854046,
                        -0.10028683394193649,
                        0.06966345012187958,
                        0.056389279663562775,
                        -0.09755130112171173,
                        0.034354664385318756,
                        0.03530481830239296,
                        -0.010920734144747257,
                        0.03890885040163994
                    ],
                    [
                        0.016516316682100296,
                        0.03350333124399185,
                        -0.5601913332939148,
                        -0.006276750471442938,
                        -0.00835560541599989,
                        0.3229251205921173,
                        0.3416922390460968,
                        0.35092657804489136,
                        0.2274501621723175,
                        -0.06876732409000397,
                        -0.25254812836647034,
                        -0.07661449909210205,
                        0.2918950021266937,
                        -0.2247747778892517,
                        -0.033852338790893555,
                        -0.42149874567985535,
                        -0.650159478187561,
                        -0.3961774408817291,
                        0.24686390161514282,
                        0.2977908253669739,
                        0.02997269667685032,
                        -0.6570088267326355,
                        0.16243129968643188,
                        0.24482756853103638,
                        0.09091337770223618,
                        0.023037457838654518,
                        0.30673325061798096,
                        -0.8654239773750305,
                        0.043498147279024124,
                        -0.5400906205177307,
                        -0.4604499638080597,
                        -0.5024452209472656,
                        -0.04608410596847534,
                        0.04155503585934639,
                        -0.07518970966339111,
                        0.08569429069757462,
                        -0.3755638897418976,
                        -0.4621872007846832,
                        0.3027406632900238,
                        -0.4643905460834503,
                        -0.513861894607544,
                        -0.05382345989346504,
                        -0.34840860962867737,
                        0.2505076229572296,
                        -0.04529234394431114,
                        0.33269402384757996,
                        -0.02127631939947605,
                        0.28676557540893555,
                        -0.039940059185028076,
                        0.007209837436676025,
                        0.006847751326858997,
                        -0.6826334595680237,
                        0.13154946267604828,
                        -0.8187803626060486,
                        -0.3693084120750427,
                        -0.44077345728874207,
                        0.1674678474664688,
                        0.06248800829052925,
                        0.3167880177497864,
                        0.2865271270275116,
                        0.5090436935424805,
                        -0.22982661426067352,
                        -0.00781062850728631,
                        0.26419082283973694,
                        -0.4431796371936798,
                        0.2955242395401001,
                        0.34619319438934326,
                        -0.0574042871594429,
                        0.379846453666687,
                        -0.4203965663909912,
                        0.06354118883609772,
                        -0.10023524612188339,
                        -0.6535618305206299,
                        -0.4989565908908844,
                        -0.42048951983451843,
                        -0.26803192496299744,
                        -0.08307158201932907,
                        0.013018263503909111,
                        0.33832448720932007,
                        -0.013443208299577236,
                        0.3326307535171509,
                        -0.03914306312799454,
                        -0.3822738826274872,
                        0.3414323329925537,
                        0.3407832682132721,
                        -0.31697386503219604,
                        0.3379093110561371,
                        -0.06919006258249283,
                        0.24635188281536102,
                        0.6287546157836914,
                        0.21077704429626465,
                        -0.0864047035574913,
                        -0.03162767365574837,
                        -0.39943286776542664,
                        0.20686852931976318,
                        0.28446444869041443,
                        -0.07634124904870987,
                        -0.3976765275001526,
                        -0.44329938292503357,
                        0.03872190788388252
                    ],
                    [
                        -0.0904974490404129,
                        0.019084978848695755,
                        -0.008598715998232365,
                        -0.021284794434905052,
                        0.012162327766418457,
                        -0.11058563739061356,
                        -0.12490518391132355,
                        -0.036403171718120575,
                        0.023118702694773674,
                        -0.03630995750427246,
                        -0.03689373657107353,
                        -0.09729905426502228,
                        0.03566374257206917,
                        0.05102996155619621,
                        -0.07509031146764755,
                        0.1113009974360466,
                        0.023255301639437675,
                        -0.01407596468925476,
                        -0.11491882801055908,
                        0.012669702991843224,
                        -0.024598373100161552,
                        -0.03488532453775406,
                        -0.0770808607339859,
                        -0.02676371857523918,
                        -0.0031585574615746737,
                        0.04617965221405029,
                        0.0479937344789505,
                        0.045761838555336,
                        -0.02865232340991497,
                        0.0204363651573658,
                        0.09627148509025574,
                        0.09654317051172256,
                        -0.07975568622350693,
                        0.012587955221533775,
                        0.032371509820222855,
                        0.060914039611816406,
                        0.08835301548242569,
                        0.11910458654165268,
                        -0.027426473796367645,
                        -0.023500995710492134,
                        0.1277209371328354,
                        -0.048716235905885696,
                        -0.004599895793944597,
                        -0.11107607930898666,
                        -0.07036851346492767,
                        0.024004751816391945,
                        0.005101227667182684,
                        -0.0734700933098793,
                        -0.09272867441177368,
                        -0.08385926485061646,
                        -0.09373468160629272,
                        0.13503946363925934,
                        -0.12199251353740692,
                        -0.031971246004104614,
                        -0.006526835262775421,
                        0.05547361075878143,
                        -0.08998020738363266,
                        0.095785953104496,
                        -0.10783664882183075,
                        -0.032882291823625565,
                        0.022369956597685814,
                        0.09545551240444183,
                        0.05577586963772774,
                        0.0680326446890831,
                        0.08803317695856094,
                        -0.07991500198841095,
                        0.04470669478178024,
                        0.04538575932383537,
                        -0.07034208625555038,
                        -0.05398735776543617,
                        0.06796298176050186,
                        -0.09734796732664108,
                        0.0022339618299156427,
                        0.1111510694026947,
                        0.10342725366353989,
                        0.08080034703016281,
                        -0.092716746032238,
                        -0.04420444741845131,
                        -0.024180550128221512,
                        0.07525863498449326,
                        -0.024278253316879272,
                        -0.07207244634628296,
                        0.0988704264163971,
                        -0.12879806756973267,
                        0.043222829699516296,
                        0.12149453163146973,
                        -0.12724855542182922,
                        0.014379382133483887,
                        -0.061154574155807495,
                        0.09298814833164215,
                        -0.08935881406068802,
                        -0.08530225604772568,
                        -0.061543941497802734,
                        0.13222341239452362,
                        -0.10236082226037979,
                        -0.09188602864742279,
                        -0.03776602819561958,
                        -0.021826596930623055,
                        -0.01651524379849434,
                        -0.003179919673129916
                    ],
                    [
                        -0.07750556617975235,
                        -0.04856301471590996,
                        0.14207841455936432,
                        0.06898605078458786,
                        0.0028463720809668303,
                        -0.09644507616758347,
                        -0.12128648906946182,
                        0.025316808372735977,
                        -0.06440756469964981,
                        0.05757004767656326,
                        0.05373283475637436,
                        0.009674238972365856,
                        -0.038424402475357056,
                        0.040472306311130524,
                        -0.055641140788793564,
                        0.021399741992354393,
                        0.0954449474811554,
                        0.13457605242729187,
                        0.03616214543581009,
                        -0.1322735846042633,
                        -0.08976703137159348,
                        0.05501779913902283,
                        -0.029451966285705566,
                        0.01913745328783989,
                        -0.013905787840485573,
                        -0.07572180032730103,
                        0.003729571821168065,
                        0.16301856935024261,
                        0.0035640120040625334,
                        0.01180778257548809,
                        0.08091053366661072,
                        0.13550637662410736,
                        0.09469704329967499,
                        0.07938934862613678,
                        -0.033822812139987946,
                        -0.0991285964846611,
                        -0.011361503042280674,
                        0.09250462800264359,
                        -0.10919442772865295,
                        -0.023711182177066803,
                        0.10417722910642624,
                        0.0666961669921875,
                        0.06526076048612595,
                        -0.11353880167007446,
                        -0.007317586801946163,
                        0.026092935353517532,
                        -0.02436591498553753,
                        -0.05305519700050354,
                        0.08754999935626984,
                        0.03791738674044609,
                        0.033862996846437454,
                        -0.0065292250365018845,
                        0.026718605309724808,
                        0.04884612187743187,
                        -0.020063359290361404,
                        0.0014223778853192925,
                        -0.07169891148805618,
                        -0.004845309536904097,
                        -0.07231766730546951,
                        -0.04890378564596176,
                        -0.11118943244218826,
                        -0.03952948749065399,
                        0.06444431096315384,
                        -0.011894740164279938,
                        0.005553574301302433,
                        0.08916400372982025,
                        -0.08520141243934631,
                        0.09461704641580582,
                        0.0690070390701294,
                        0.07672092318534851,
                        -0.038852106779813766,
                        -0.03799179196357727,
                        0.09540010988712311,
                        0.010640773922204971,
                        0.11709673702716827,
                        0.14340180158615112,
                        0.09316246956586838,
                        -0.09419596195220947,
                        0.004925988614559174,
                        0.09670010954141617,
                        -0.013367865234613419,
                        -0.004595661070197821,
                        -0.013055898249149323,
                        -0.08632197976112366,
                        -0.1031021773815155,
                        0.10061332583427429,
                        0.013896601274609566,
                        0.0923713967204094,
                        0.03982147201895714,
                        -0.07584592700004578,
                        -0.07611744105815887,
                        0.007679188158363104,
                        -0.01559063233435154,
                        0.022572461515665054,
                        -0.01657312549650669,
                        0.022234411910176277,
                        -0.017469538375735283,
                        0.11233125627040863,
                        0.040270473808050156,
                        -0.04960561916232109
                    ],
                    [
                        0.06001385673880577,
                        -0.03904029354453087,
                        0.22875995934009552,
                        0.0067840698175132275,
                        0.040786173194646835,
                        -0.009246445260941982,
                        -0.32561469078063965,
                        -0.17482425272464752,
                        -0.2519412040710449,
                        0.04438752308487892,
                        0.049509476870298386,
                        -0.06495761126279831,
                        -0.1829393208026886,
                        0.1362406462430954,
                        -0.06521250307559967,
                        0.12783104181289673,
                        0.24911810457706451,
                        0.18763144314289093,
                        -0.12211401015520096,
                        -0.387956827878952,
                        0.011078858748078346,
                        0.14298208057880402,
                        -0.034496378153562546,
                        -0.10563425719738007,
                        -0.09841656684875488,
                        0.08993518352508545,
                        -0.16915319859981537,
                        0.3066290318965912,
                        0.062482573091983795,
                        0.15266241133213043,
                        0.16255226731300354,
                        0.1745900809764862,
                        0.09492533653974533,
                        0.0022115365136414766,
                        0.04235361889004707,
                        0.06851691007614136,
                        0.12695442140102386,
                        0.29565778374671936,
                        -0.33192604780197144,
                        0.20768798887729645,
                        0.25923487544059753,
                        -0.04748354107141495,
                        0.15316955745220184,
                        -0.11745628714561462,
                        -0.038020770996809006,
                        -0.14712965488433838,
                        -0.08028323948383331,
                        -0.28288134932518005,
                        -0.08621063083410263,
                        -0.022531986236572266,
                        0.06107126548886299,
                        0.19848361611366272,
                        -0.1286381632089615,
                        0.36366909742355347,
                        0.10440576821565628,
                        0.2658388912677765,
                        -0.11784332990646362,
                        0.010738504119217396,
                        -0.20547613501548767,
                        -0.1815345287322998,
                        -0.11797918379306793,
                        0.21790625154972076,
                        0.05351485684514046,
                        -0.27903297543525696,
                        0.19432638585567474,
                        -0.17013850808143616,
                        -0.1472722887992859,
                        -0.09310968220233917,
                        -0.3571266233921051,
                        0.2544269859790802,
                        0.04248331859707832,
                        -0.08075932413339615,
                        0.2344178408384323,
                        0.22823256254196167,
                        0.26224562525749207,
                        0.20384404063224792,
                        0.03445115312933922,
                        -0.010691354051232338,
                        -0.3974519670009613,
                        0.014001930132508278,
                        -0.24858085811138153,
                        -0.09973043203353882,
                        0.1573762744665146,
                        -0.06036926060914993,
                        -0.1657264083623886,
                        0.06250087916851044,
                        -0.19094564020633698,
                        -0.007067609112709761,
                        -0.28182244300842285,
                        -0.453047513961792,
                        -0.2648921012878418,
                        -0.060552921146154404,
                        -0.06277364492416382,
                        0.2715379595756531,
                        -0.18847261369228363,
                        -0.21114015579223633,
                        0.06228065490722656,
                        0.16825732588768005,
                        0.08693043887615204,
                        0.014472663402557373
                    ],
                    [
                        -0.051064636558294296,
                        0.009408223442733288,
                        0.07370875775814056,
                        0.059443987905979156,
                        0.04745333269238472,
                        0.0654074177145958,
                        0.037764497101306915,
                        0.07935430854558945,
                        0.07142111659049988,
                        -0.0407017357647419,
                        0.0442735031247139,
                        0.09622790664434433,
                        0.04970105364918709,
                        -0.014048433862626553,
                        -0.0533175952732563,
                        -0.017585666850209236,
                        0.04886109381914139,
                        0.08929355442523956,
                        0.011677417904138565,
                        -0.06683867424726486,
                        -0.05937247350811958,
                        0.004991440102458,
                        -0.058256156742572784,
                        -0.06502800434827805,
                        -0.03505368158221245,
                        -0.0615365169942379,
                        -0.06468530744314194,
                        -0.03891025483608246,
                        -0.048562098294496536,
                        0.010316429659724236,
                        0.09607113897800446,
                        0.020918697118759155,
                        0.07943650335073471,
                        -0.11162693798542023,
                        -0.09066319465637207,
                        -0.00763702392578125,
                        0.09929227828979492,
                        -0.027857480570673943,
                        0.07730846852064133,
                        -0.03698373958468437,
                        0.007642921060323715,
                        -0.05230081081390381,
                        0.08516153693199158,
                        0.04064539447426796,
                        -0.10561743378639221,
                        -0.09458737820386887,
                        -0.023398423567414284,
                        -0.025840353220701218,
                        -0.03653663396835327,
                        -0.06065915897488594,
                        0.06510242074728012,
                        -0.06275732815265656,
                        -0.07916612178087234,
                        -0.08063877373933792,
                        0.1055818498134613,
                        0.07893049716949463,
                        -0.026525117456912994,
                        -0.029692018404603004,
                        -0.05622565746307373,
                        0.06696952134370804,
                        -0.05230178311467171,
                        0.048970747739076614,
                        0.011630983091890812,
                        0.030429963022470474,
                        -0.07381897419691086,
                        -0.05515039339661598,
                        -0.06282570958137512,
                        -0.09430687874555588,
                        -0.04795418679714203,
                        -0.0058324337005615234,
                        -0.04417811706662178,
                        -0.03664366155862808,
                        -0.09272973239421844,
                        0.1212206557393074,
                        0.10669461637735367,
                        0.04120540991425514,
                        -0.09955304861068726,
                        0.03044968843460083,
                        0.07527366280555725,
                        -0.04137585312128067,
                        0.08369066566228867,
                        0.012435746379196644,
                        0.09126551449298859,
                        0.015967706218361855,
                        -0.09780937433242798,
                        -0.06029167398810387,
                        0.08366302400827408,
                        -0.08450901508331299,
                        -0.006781848147511482,
                        0.04288007318973541,
                        -0.06752452254295349,
                        -0.00504723796620965,
                        0.05120901018381119,
                        -0.03708353266119957,
                        -0.015293993055820465,
                        -0.059101711958646774,
                        -0.006082463543862104,
                        -0.05379362404346466,
                        0.013140570372343063,
                        0.0029509663581848145
                    ],
                    [
                        0.06349387019872665,
                        0.08095111697912216,
                        -0.07863549888134003,
                        0.09008251875638962,
                        0.0996098518371582,
                        -0.05428355187177658,
                        -0.016042927280068398,
                        0.10384942591190338,
                        0.09257908165454865,
                        0.045714132487773895,
                        -0.015456419438123703,
                        0.024929536506533623,
                        0.1498442441225052,
                        0.01883673295378685,
                        -0.08511286228895187,
                        -0.0018990174867212772,
                        -0.09008294343948364,
                        0.03366849198937416,
                        -0.021755054593086243,
                        0.06108863279223442,
                        -0.09193813800811768,
                        -0.08003120124340057,
                        0.010782914236187935,
                        0.13823194801807404,
                        -0.09884567558765411,
                        0.020757734775543213,
                        -0.007924964651465416,
                        -0.12991826236248016,
                        -0.05907032638788223,
                        -0.00038527819560840726,
                        0.059800151735544205,
                        -0.08306513726711273,
                        0.022208109498023987,
                        0.07235882431268692,
                        -0.09812664985656738,
                        0.04239753633737564,
                        0.050579704344272614,
                        -0.02632071264088154,
                        0.14681683480739594,
                        -0.1362222582101822,
                        -0.10193885117769241,
                        0.03845857456326485,
                        -0.06592879444360733,
                        -0.06655633449554443,
                        0.02120502106845379,
                        0.06094198301434517,
                        0.0400112047791481,
                        0.0223208237439394,
                        0.017856646329164505,
                        0.03728281334042549,
                        -0.08472292870283127,
                        0.004082556813955307,
                        -0.02131294272840023,
                        0.02699958346784115,
                        0.0008089574985206127,
                        -0.04132525622844696,
                        0.02055286429822445,
                        0.061055220663547516,
                        0.015564328990876675,
                        0.03416484594345093,
                        0.0709495022892952,
                        -0.03259865194559097,
                        -0.11650566011667252,
                        -0.019193928688764572,
                        0.04151764139533043,
                        0.007011734414845705,
                        0.12825161218643188,
                        -0.004547321703284979,
                        0.056376826018095016,
                        0.03165869414806366,
                        -0.06044081598520279,
                        0.03603627160191536,
                        0.033069126307964325,
                        -0.09785212576389313,
                        -0.09810911118984222,
                        -0.11626123636960983,
                        0.04672125726938248,
                        -0.011969837360084057,
                        -0.0464751161634922,
                        -0.05501459911465645,
                        0.03428708016872406,
                        0.04678056389093399,
                        0.0426340214908123,
                        -0.036411382257938385,
                        -0.029647229239344597,
                        0.026478571817278862,
                        0.07579801231622696,
                        0.02562856674194336,
                        0.004978152923285961,
                        0.08764892816543579,
                        0.1126718521118164,
                        0.037988901138305664,
                        0.02788817696273327,
                        -0.1296404004096985,
                        -0.009949793107807636,
                        0.07498721033334732,
                        -0.0003610372659750283,
                        -0.11167051643133163,
                        -0.03227601945400238,
                        0.020509708672761917
                    ],
                    [
                        0.09286464750766754,
                        0.002941954182460904,
                        0.04795191437005997,
                        0.07616690546274185,
                        0.028192007914185524,
                        0.046449948102235794,
                        -0.021474182605743408,
                        0.013935732655227184,
                        0.025054706260561943,
                        -0.09009168297052383,
                        0.0041047693230211735,
                        0.08498412370681763,
                        0.09621822834014893,
                        -0.05985665321350098,
                        -0.09219209104776382,
                        0.06723111122846603,
                        -0.0629422664642334,
                        -0.07647426426410675,
                        -0.07107793539762497,
                        -0.06168940290808678,
                        0.07579169422388077,
                        0.03947949409484863,
                        -0.03021218813955784,
                        -0.08880022913217545,
                        -0.08858633041381836,
                        -0.07649022340774536,
                        -0.07635022699832916,
                        -0.08301176130771637,
                        0.08609992265701294,
                        -0.03552911430597305,
                        0.08384734392166138,
                        0.06203193590044975,
                        0.00450401334092021,
                        -0.05494353920221329,
                        0.03166686370968819,
                        0.09447979927062988,
                        0.011129952035844326,
                        0.07204324007034302,
                        0.043982114642858505,
                        0.035923659801483154,
                        0.014411128126084805,
                        -0.03491668775677681,
                        -0.06949552148580551,
                        0.047246575355529785,
                        -0.01940065622329712,
                        0.05102834850549698,
                        0.03981482982635498,
                        0.014856040477752686,
                        0.09063910692930222,
                        0.02895824983716011,
                        0.012360728345811367,
                        -0.015001500025391579,
                        0.030679358169436455,
                        0.09480500221252441,
                        -0.06991864740848541,
                        -0.0251487847417593,
                        -0.003792333649471402,
                        0.06332143396139145,
                        -0.08362491428852081,
                        -0.0021666288375854492,
                        0.04884403944015503,
                        -0.006021535489708185,
                        0.045097220689058304,
                        0.08740311861038208,
                        0.027268588542938232,
                        -0.024194633588194847,
                        0.01882164552807808,
                        0.05417295917868614,
                        0.021611904725432396,
                        0.012417495250701904,
                        -0.025954484939575195,
                        -0.03477701172232628,
                        -0.06518127024173737,
                        0.015424132347106934,
                        0.048828329890966415,
                        0.06728006899356842,
                        0.030210137367248535,
                        0.01047815103083849,
                        0.0022416473366320133,
                        -0.07649954408407211,
                        0.050754476338624954,
                        -0.05077861621975899,
                        -0.010023343376815319,
                        -0.017661213874816895,
                        -0.07418950647115707,
                        -0.07465268671512604,
                        0.045667994767427444,
                        0.08442232757806778,
                        -0.0721360594034195,
                        0.008119381032884121,
                        -0.020684434100985527,
                        -0.009235727600753307,
                        0.026896631345152855,
                        0.01706641912460327,
                        -0.08696550130844116,
                        -0.023423660546541214,
                        -0.0557393915951252,
                        -0.00555033702403307,
                        0.009083163924515247,
                        0.09280436486005783
                    ],
                    [
                        -0.07798899710178375,
                        -0.0652063861489296,
                        0.1153402253985405,
                        0.046663034707307816,
                        0.029736531898379326,
                        0.04760856553912163,
                        -0.02053583785891533,
                        -0.004856491927057505,
                        0.02593536302447319,
                        0.06514263898134232,
                        0.11343052238225937,
                        0.08325361460447311,
                        -0.10433041304349899,
                        0.10411388427019119,
                        0.01552881021052599,
                        0.05362972617149353,
                        -0.0048843626864254475,
                        -0.01961013861000538,
                        -0.11739825457334518,
                        0.018397513777017593,
                        -0.03506075218319893,
                        0.12660673260688782,
                        -0.06686767935752869,
                        0.02578526921570301,
                        -0.052927326411008835,
                        -0.029254453256726265,
                        -0.039756644517183304,
                        0.008761745877563953,
                        0.07436620444059372,
                        -0.05793306604027748,
                        0.03998744115233421,
                        0.010248048231005669,
                        -0.07933291047811508,
                        0.04262983798980713,
                        -0.0763862133026123,
                        0.09795119613409042,
                        0.01822458952665329,
                        0.06859615445137024,
                        0.026753440499305725,
                        0.014070369303226471,
                        0.04288266599178314,
                        0.09343653917312622,
                        0.0921235904097557,
                        0.06289271265268326,
                        0.05539344996213913,
                        0.06242568418383598,
                        0.0630880743265152,
                        -0.04411453381180763,
                        0.08263033628463745,
                        -0.010620201006531715,
                        -0.09835167229175568,
                        0.006894626189023256,
                        0.0540081150829792,
                        0.1295037716627121,
                        0.06042812019586563,
                        0.10764072835445404,
                        -0.0415763184428215,
                        0.03873758390545845,
                        0.07918748259544373,
                        -0.009545125998556614,
                        0.07414096593856812,
                        -0.03370407596230507,
                        -0.06562311202287674,
                        -0.07479368150234222,
                        0.1255291849374771,
                        0.05210040882229805,
                        -0.044658590108156204,
                        -0.07191142439842224,
                        -0.0821281224489212,
                        0.07697101682424545,
                        0.026201928034424782,
                        0.05524269491434097,
                        -0.04077925905585289,
                        0.06632570922374725,
                        -0.03224023059010506,
                        0.0010743053862825036,
                        0.04043159633874893,
                        -0.06863536685705185,
                        0.019554538652300835,
                        -0.04380525276064873,
                        -0.06475621461868286,
                        0.019460082054138184,
                        0.1110973134636879,
                        0.06169748306274414,
                        -0.027563180774450302,
                        0.10540926456451416,
                        -0.10685225576162338,
                        -0.008502828888595104,
                        -0.09264130890369415,
                        0.011116454377770424,
                        -0.10954710841178894,
                        0.07095324993133545,
                        -0.09071961045265198,
                        -0.0057429359294474125,
                        0.049814373254776,
                        0.011905600316822529,
                        -0.09221380949020386,
                        -0.012252653017640114,
                        -0.03385886922478676,
                        -0.05143101140856743
                    ],
                    [
                        -0.09161342680454254,
                        0.09241711348295212,
                        0.0881020575761795,
                        0.01634882763028145,
                        -0.04587067291140556,
                        0.07311118394136429,
                        0.15684311091899872,
                        0.004037835635244846,
                        -0.004783898591995239,
                        0.05937010049819946,
                        0.12498416751623154,
                        -0.087460957467556,
                        0.08669517189264297,
                        0.09548778086900711,
                        0.002719020936638117,
                        0.04317324236035347,
                        0.08218146860599518,
                        -0.050637274980545044,
                        0.023130908608436584,
                        0.006037105806171894,
                        -0.01666058413684368,
                        -0.022809280082583427,
                        -0.09608970582485199,
                        0.0930577740073204,
                        -0.05526772886514664,
                        -0.060591958463191986,
                        -0.04499557241797447,
                        0.12103768438100815,
                        -0.09856261312961578,
                        0.004121467471122742,
                        0.05724431574344635,
                        0.04395710676908493,
                        -0.10488922148942947,
                        0.06758932769298553,
                        -0.09959477186203003,
                        0.05385633930563927,
                        0.08998629450798035,
                        0.04710984602570534,
                        0.09052598476409912,
                        0.035088956356048584,
                        0.031080618500709534,
                        0.09663072973489761,
                        -0.05005533620715141,
                        0.06338995695114136,
                        -0.08262614160776138,
                        -0.01366704236716032,
                        -0.09421639889478683,
                        -0.007614877074956894,
                        0.05959102138876915,
                        0.09146948158740997,
                        -0.09653931856155396,
                        0.041051678359508514,
                        0.0763193741440773,
                        -0.00020595639944076538,
                        -0.036776646971702576,
                        0.14052404463291168,
                        0.1102338582277298,
                        -0.02861969545483589,
                        -0.014150181785225868,
                        -0.05890477076172829,
                        0.033602725714445114,
                        0.021797869354486465,
                        -0.10402843356132507,
                        0.06044293940067291,
                        0.07762116938829422,
                        0.009356435388326645,
                        0.05609825253486633,
                        0.0679752454161644,
                        -0.008052481338381767,
                        0.040243398398160934,
                        -0.020282482728362083,
                        0.060592588037252426,
                        0.021510828286409378,
                        0.11552618443965912,
                        0.06593348830938339,
                        0.09272228926420212,
                        -0.04199620708823204,
                        -0.05230582132935524,
                        0.11340302228927612,
                        -0.05288377031683922,
                        0.09788122028112411,
                        -0.008112299256026745,
                        0.027226002886891365,
                        0.05609948933124542,
                        0.046819861978292465,
                        0.1087447851896286,
                        0.0692668929696083,
                        -0.05516132339835167,
                        -0.01233268529176712,
                        -0.034507934004068375,
                        0.06337051093578339,
                        -0.029979277402162552,
                        -0.08851075172424316,
                        0.08869054913520813,
                        0.061560872942209244,
                        -0.006138882599771023,
                        0.019172383472323418,
                        0.14597193896770477,
                        0.04809071496129036,
                        -0.08570665121078491
                    ],
                    [
                        -0.07511283457279205,
                        0.07045449316501617,
                        0.0278201624751091,
                        0.01674373261630535,
                        0.0029525519348680973,
                        -0.060062482953071594,
                        0.040564101189374924,
                        0.03772425279021263,
                        -0.02745543047785759,
                        0.006306992843747139,
                        -0.04021798446774483,
                        0.027560735121369362,
                        -0.03511243313550949,
                        0.03836233541369438,
                        -0.07442232221364975,
                        0.07395618408918381,
                        -0.0006219708011485636,
                        0.029914775863289833,
                        -0.018454818055033684,
                        -0.0008743859361857176,
                        -0.050475168973207474,
                        0.052772775292396545,
                        0.1267244964838028,
                        -0.058056920766830444,
                        -0.07025494426488876,
                        -0.03719395399093628,
                        0.11415503919124603,
                        -0.053136952221393585,
                        -0.05240445211529732,
                        -0.10471845418214798,
                        0.06183287501335144,
                        -0.11377358436584473,
                        0.0008435380877926946,
                        -0.013382074423134327,
                        -0.06325435638427734,
                        -0.0585210807621479,
                        0.0019407242070883512,
                        -0.045686930418014526,
                        0.11876635998487473,
                        -0.11961458623409271,
                        0.03992443531751633,
                        0.07677348703145981,
                        0.012624157592654228,
                        0.04663711413741112,
                        -0.06120883300900459,
                        0.04720493033528328,
                        -0.06440360844135284,
                        -0.010913919657468796,
                        0.08222820609807968,
                        -0.0781974121928215,
                        -0.047987986356019974,
                        -0.07628966867923737,
                        0.07910727709531784,
                        -0.0075317914597690105,
                        -0.05452074110507965,
                        -0.02025078423321247,
                        -0.056082434952259064,
                        -0.08193224668502808,
                        0.038279302418231964,
                        0.044689275324344635,
                        0.024777378886938095,
                        -0.07163422554731369,
                        0.0887170061469078,
                        0.05308419093489647,
                        -0.10516160726547241,
                        0.10477886348962784,
                        0.09287802875041962,
                        0.01380630861967802,
                        0.10119115561246872,
                        0.04150700196623802,
                        -0.09853607416152954,
                        0.09107524901628494,
                        -0.029583359137177467,
                        0.05305853113532066,
                        0.041998736560344696,
                        0.019493378698825836,
                        -0.08466397225856781,
                        0.009583290666341782,
                        0.007740379776805639,
                        0.03195665031671524,
                        0.0699053704738617,
                        0.036647748202085495,
                        0.05036140978336334,
                        0.10003553330898285,
                        -0.036199212074279785,
                        -0.09644805639982224,
                        0.048168789595365524,
                        0.02387523651123047,
                        0.035879600793123245,
                        -0.024260928854346275,
                        0.06168635934591293,
                        0.05735466629266739,
                        0.05161125585436821,
                        -0.09752608090639114,
                        0.10940101742744446,
                        -0.0151591245085001,
                        -0.0006106615182943642,
                        0.03377729281783104,
                        -0.051271598786115646,
                        -0.03279237821698189
                    ],
                    [
                        -0.054009974002838135,
                        0.02844911813735962,
                        0.01931046135723591,
                        -0.03265173360705376,
                        -0.028699517250061035,
                        -0.04838617518544197,
                        -0.10973821580410004,
                        -0.09372148662805557,
                        0.0339428186416626,
                        -0.1106296107172966,
                        0.050251107662916183,
                        -0.07824363559484482,
                        0.043973658233881,
                        -0.018338646739721298,
                        -0.03986581787467003,
                        -0.022795042023062706,
                        0.11122587323188782,
                        0.09528941661119461,
                        0.025075914338231087,
                        -0.02027912810444832,
                        0.05624430254101753,
                        0.1338801383972168,
                        -0.05751035362482071,
                        -0.1243043765425682,
                        0.0148887038230896,
                        0.0611790232360363,
                        -0.029852688312530518,
                        0.0995456725358963,
                        -0.04113234207034111,
                        -0.02952621877193451,
                        0.07386980950832367,
                        0.1280059516429901,
                        -0.013220109976828098,
                        -0.028653603047132492,
                        0.02596954070031643,
                        -0.06469905376434326,
                        0.10354868322610855,
                        0.06475470215082169,
                        -0.09647087752819061,
                        0.1300121545791626,
                        0.08368279784917831,
                        -0.05316169187426567,
                        0.1415291726589203,
                        0.023477299138903618,
                        -0.05123157426714897,
                        0.07008790224790573,
                        0.010328399948775768,
                        -0.04515994340181351,
                        -0.007849943824112415,
                        0.02315077744424343,
                        -0.0008795976755209267,
                        0.06922351568937302,
                        0.05948192998766899,
                        0.07266861200332642,
                        0.09833722561597824,
                        -0.006533798761665821,
                        -0.04473163187503815,
                        -0.02182978391647339,
                        -0.03893876448273659,
                        0.04021476209163666,
                        0.009261992760002613,
                        0.026923097670078278,
                        -0.06499747186899185,
                        -0.016863655298948288,
                        0.005566648673266172,
                        -0.011239249259233475,
                        -0.02894054353237152,
                        0.055291078984737396,
                        0.043939258903265,
                        0.05206585302948952,
                        -0.08704646676778793,
                        0.09725689142942429,
                        0.01533651165664196,
                        -0.04524132236838341,
                        0.0573204942047596,
                        -0.05114489421248436,
                        0.04875482991337776,
                        0.060948312282562256,
                        -0.1170305386185646,
                        -0.028094971552491188,
                        -0.03593427315354347,
                        0.008730602450668812,
                        0.0917963758111,
                        -0.08713456243276596,
                        -0.10761824995279312,
                        0.10548053681850433,
                        -0.08074694126844406,
                        0.060142602771520615,
                        -0.10621530562639236,
                        -0.07002557069063187,
                        -0.06106599047780037,
                        -0.016334641724824905,
                        0.03261013701558113,
                        0.11232321709394455,
                        -0.044447679072618484,
                        -0.1281486600637436,
                        -0.024394441395998,
                        0.06671354174613953,
                        0.1273667961359024,
                        -0.03449193388223648
                    ],
                    [
                        0.022674357518553734,
                        0.0733952671289444,
                        0.03866240754723549,
                        -0.03961971029639244,
                        -0.028123272582888603,
                        -0.0327003076672554,
                        0.0474194698035717,
                        0.05744760110974312,
                        -0.08208642154932022,
                        -0.02510981075465679,
                        0.10454366356134415,
                        0.015149342827498913,
                        -0.05697266384959221,
                        -0.0002906548324972391,
                        -0.034978270530700684,
                        0.1201443150639534,
                        0.019988222047686577,
                        0.08005323261022568,
                        -0.02784915082156658,
                        -0.12201734632253647,
                        -0.008127152919769287,
                        0.10416187345981598,
                        -0.1315786987543106,
                        -0.006351626478135586,
                        -0.05652966722846031,
                        0.0817650556564331,
                        0.08890315145254135,
                        0.07052085548639297,
                        -0.08588489145040512,
                        0.07793698459863663,
                        0.08557461202144623,
                        0.10192209482192993,
                        0.020766688510775566,
                        0.07355095446109772,
                        0.04348332807421684,
                        -0.07362311333417892,
                        0.14356301724910736,
                        0.18600551784038544,
                        0.0240373183041811,
                        -0.0069385976530611515,
                        0.15322379767894745,
                        -0.05814622715115547,
                        0.007368758786469698,
                        -0.08355005830526352,
                        0.05310435593128204,
                        -0.11713667958974838,
                        0.046406473964452744,
                        0.07062174379825592,
                        -0.05312051996588707,
                        -0.041238393634557724,
                        -0.012002098374068737,
                        0.10106924176216125,
                        -0.09322699159383774,
                        0.18442977964878082,
                        0.01388121210038662,
                        0.05732381343841553,
                        -0.11496599018573761,
                        -0.013051259331405163,
                        -0.08645302802324295,
                        -0.11711590737104416,
                        0.0014929950702935457,
                        0.006048855371773243,
                        -0.060660649091005325,
                        -0.0183140579611063,
                        0.10248316824436188,
                        -0.007228322327136993,
                        -0.1096896305680275,
                        0.035507675260305405,
                        -0.10606059432029724,
                        -0.0027323050890117884,
                        0.03873859718441963,
                        -0.027075542137026787,
                        0.16326861083507538,
                        0.009943148121237755,
                        0.08686929941177368,
                        0.14563383162021637,
                        0.030749399214982986,
                        0.05427716299891472,
                        -0.12827347218990326,
                        0.01261297520250082,
                        -0.020743804052472115,
                        -0.08340852707624435,
                        0.09012570232152939,
                        -0.08397891372442245,
                        -0.08076941221952438,
                        0.1496337503194809,
                        0.021104246377944946,
                        -0.04477909952402115,
                        0.04116436839103699,
                        -0.031080732122063637,
                        -0.11378996819257736,
                        -0.051325228065252304,
                        0.059512246400117874,
                        0.12899793684482574,
                        -0.10783681273460388,
                        -0.1072130799293518,
                        0.08614837378263474,
                        0.0178575050085783,
                        0.0755695030093193,
                        -0.009494984522461891
                    ],
                    [
                        0.04615209251642227,
                        0.0801943764090538,
                        -0.12680299580097198,
                        -0.057545628398656845,
                        -0.08023049682378769,
                        0.04292364791035652,
                        0.01728132739663124,
                        0.0866919755935669,
                        0.07004626095294952,
                        -0.07389117032289505,
                        -0.06995032727718353,
                        0.0704592689871788,
                        0.08854305744171143,
                        -0.06043476611375809,
                        0.08477919548749924,
                        -0.07539693266153336,
                        0.007007915992289782,
                        0.05343242362141609,
                        0.026213064789772034,
                        0.07600592821836472,
                        0.007343423552811146,
                        0.025961697101593018,
                        -0.04050285741686821,
                        0.039827726781368256,
                        0.06551327556371689,
                        0.002899107988923788,
                        -0.002832182450219989,
                        -0.03375614434480667,
                        -0.07928832620382309,
                        -0.050361741334199905,
                        0.03488641232252121,
                        -0.066811203956604,
                        -0.09445728361606598,
                        -0.1178661659359932,
                        0.029552830383181572,
                        0.05808662250638008,
                        -0.028626201674342155,
                        -0.07387775927782059,
                        0.08103036135435104,
                        -0.07773824781179428,
                        -0.03164702281355858,
                        -0.09553424268960953,
                        -0.05364474654197693,
                        0.13448508083820343,
                        -0.037233009934425354,
                        0.05802550166845322,
                        0.06292545795440674,
                        0.1238594800233841,
                        0.09653469175100327,
                        0.08177397400140762,
                        -0.022945428267121315,
                        0.008150182664394379,
                        0.04916909709572792,
                        -0.049724262207746506,
                        0.028658652678132057,
                        -0.08260811865329742,
                        0.07870163768529892,
                        0.033255696296691895,
                        0.12223279476165771,
                        -0.04099411517381668,
                        0.1074109897017479,
                        -0.05643827095627785,
                        -0.09455456584692001,
                        0.07183563709259033,
                        0.07646731287240982,
                        0.054222576320171356,
                        0.0002749389095697552,
                        -0.07163090258836746,
                        0.08746299147605896,
                        -0.03128884360194206,
                        0.007347845938056707,
