{
    "in_shape": [
        null,
        3,
        1
    ],
    "layers": [
        {
            "type": "lstm",
            "activation": "tanh",
            "shape": [
                null,
                100
            ],
            "weights": [
                [
                    [
                        -1.8319649696350098,
                        -1.605912685394287,
                        0.6802811622619629,
                        -0.7967216372489929,
                        -1.7819044589996338,
                        -0.03110966458916664,
                        -1.628930687904358,
                        -2.78987717628479,
                        -1.6625776290893555,
                        -0.18358364701271057,
                        -1.6020745038986206,
                        -0.38846343755722046,
                        -1.3690036535263062,
                        -0.8676465153694153,
                        -0.1349681168794632,
                        -2.0228309631347656,
                        0.9753772020339966,
                        0.9750091433525085,
                        1.3157178163528442,
                        -0.8997591733932495,
                        0.5376317501068115,
                        -1.8544384241104126,
                        0.7231287360191345,
                        -1.7232069969177246,
                        -1.9938318729400635,
                        0.6830605864524841,
                        -1.0462337732315063,
                        -0.057878002524375916,
                        -0.8907018899917603,
                        -1.4939264059066772,
                        -1.9936487674713135,
                        -1.3543486595153809,
                        0.5213632583618164,
                        -2.077061176300049,
                        -2.7703397274017334,
                        -0.05032631754875183,
                        0.521544873714447,
                        -1.8647615909576416,
                        -2.089209794998169,
                        -0.6055100560188293,
                        1.1636236906051636,
                        -1.243334174156189,
                        0.26265355944633484,
                        -2.025357246398926,
                        0.5996187925338745,
                        -1.4322130680084229,
                        -0.5942268967628479,
                        -1.406576156616211,
                        -0.8556888103485107,
                        -0.09903504699468613,
                        -1.6408330202102661,
                        0.3664759397506714,
                        -1.5353143215179443,
                        1.1635257005691528,
                        0.47918254137039185,
                        -2.06754207611084,
                        -0.4607870578765869,
                        1.1233830451965332,
                        0.7763229012489319,
                        0.9428938627243042,
                        -1.3319404125213623,
                        -1.9982051849365234,
                        -2.307736873626709,
                        -0.5816928744316101,
                        0.5095996856689453,
                        -1.3118252754211426,
                        0.2655440866947174,
                        -1.9285893440246582,
                        -0.1485334187746048,
                        -1.295218586921692,
                        0.03619252145290375,
                        -2.2241628170013428,
                        -2.0651934146881104,
                        -1.7267694473266602,
                        -0.810843825340271,
                        -0.07283985614776611,
                        -1.194780707359314,
                        -2.09171199798584,
                        -2.5938339233398438,
                        -0.30004382133483887,
                        2.2167842388153076,
                        -0.8417629599571228,
                        -1.325356125831604,
                        -0.17248328030109406,
                        -1.8092098236083984,
                        -2.0721890926361084,
                        1.0142587423324585,
                        -0.6838269829750061,
                        -1.4966464042663574,
                        -0.21823468804359436,
                        -0.15650074183940887,
                        -2.335448741912842,
                        -1.0200214385986328,
                        -2.0249669551849365,
                        1.1473575830459595,
                        0.13289444148540497,
                        -1.1910728216171265,
                        0.9776194095611572,
                        -1.1448678970336914,
                        -1.0342105627059937,
                        -3.670780658721924,
                        -2.811309337615967,
                        -0.29340699315071106,
                        0.4970536530017853,
                        -2.923915147781372,
                        -1.5214723348617554,
                        -2.324570417404175,
                        -2.670137882232666,
                        -2.3080010414123535,
                        0.7691745162010193,
                        -1.5638432502746582,
                        -0.7608228325843811,
                        -0.47950685024261475,
                        -3.710036039352417,
                        -0.26457443833351135,
                        -3.1346778869628906,
                        1.6377301216125488,
                        2.8701624870300293,
                        -0.8626697063446045,
                        0.9218642711639404,
                        0.22568781673908234,
                        -2.7688088417053223,
                        0.20459017157554626,
                        2.1182034015655518,
                        -3.1871769428253174,
                        3.5105018615722656,
                        -3.6707348823547363,
                        1.4814752340316772,
                        -0.553156316280365,
                        0.062925323843956,
                        -3.2538461685180664,
                        -0.5870361924171448,
                        1.6361594200134277,
                        -3.2528905868530273,
                        -3.235560417175293,
                        0.24797064065933228,
                        1.2253243923187256,
                        -2.788930654525757,
                        -3.237567186355591,
                        -0.31141573190689087,
                        2.875641107559204,
                        -0.9487274885177612,
                        -1.0735005140304565,
                        -2.551016330718994,
                        0.19001345336437225,
                        1.2267441749572754,
                        -0.5514925122261047,
                        -0.4995870888233185,
                        -1.6488617658615112,
                        0.9456952214241028,
                        -1.1079999208450317,
                        2.355018138885498,
                        -2.699669361114502,
                        -0.42745283246040344,
                        2.0008480548858643,
                        -3.0127170085906982,
                        -0.8334013819694519,
                        2.875544309616089,
                        0.3160877525806427,
                        2.944044589996338,
                        -0.9430604577064514,
                        -3.027010202407837,
                        -3.466792345046997,
                        0.025917181745171547,
                        0.9540823101997375,
                        -2.1368772983551025,
                        0.901062548160553,
                        -3.5444157123565674,
                        -0.022789789363741875,
                        -1.2481251955032349,
                        1.2865225076675415,
                        -3.3320887088775635,
                        -3.375610589981079,
                        -3.1468536853790283,
                        -1.2813026905059814,
                        -4.214504718780518,
                        -0.9267040491104126,
                        -1.9026025533676147,
                        -2.857584238052368,
                        -2.2384605407714844,
                        -0.056486934423446655,
                        0.5242934823036194,
                        -0.29412055015563965,
                        -1.2603039741516113,
                        -1.7278045415878296,
                        -3.3545470237731934,
                        0.3113291561603546,
                        0.708228588104248,
                        -0.6670665740966797,
                        1.9052236080169678,
                        0.37472784519195557,
                        -3.598865032196045,
                        -1.9936543703079224,
                        -3.1096906661987305,
                        -0.9509341716766357,
                        0.5866529941558838,
                        -2.6806528568267822,
                        1.0005885362625122,
                        -1.598931908607483,
                        -0.6665505766868591,
                        -0.41822558641433716,
                        -0.5238682627677917,
                        -2.2705323696136475,
                        1.0253111124038696,
                        0.5721327066421509,
                        -0.21178756654262543,
                        0.3292914032936096,
                        0.04964446276426315,
                        -0.45171406865119934,
                        0.5847670435905457,
                        -0.5988495349884033,
                        0.4267275929450989,
                        0.11704335361719131,
                        -0.2317587435245514,
                        0.44655510783195496,
                        0.33311012387275696,
                        0.7019125819206238,
                        -0.8751955032348633,
                        -0.9050562381744385,
                        0.41478094458580017,
                        0.5647721886634827,
                        -0.30395302176475525,
                        -1.5552986860275269,
                        -2.0421721935272217,
                        -0.31741243600845337,
                        -0.4974440038204193,
                        -0.9028908014297485,
                        0.6564972400665283,
                        0.6766355633735657,
                        0.019507132470607758,
                        0.4982702136039734,
                        0.7655658721923828,
                        -0.6986210346221924,
                        0.30448490381240845,
                        0.4715484082698822,
                        -0.6176036596298218,
                        -0.547139585018158,
                        -0.23924176394939423,
                        0.532938539981842,
                        0.5425542593002319,
                        -0.7340736985206604,
                        0.8359925150871277,
                        -0.4486144483089447,
                        0.45415887236595154,
                        0.6839425563812256,
                        0.7231037616729736,
                        -0.5327199697494507,
                        -0.5664439797401428,
                        0.5334463715553284,
                        0.771777331829071,
                        0.4690566658973694,
                        -0.634056806564331,
                        0.7580007314682007,
                        1.0134707689285278,
                        0.8999794125556946,
                        -0.17936350405216217,
                        0.805677592754364,
                        0.9554255604743958,
                        1.6296861171722412,
                        0.7790249586105347,
                        0.5798999071121216,
                        0.20426100492477417,
                        -0.33397454023361206,
                        -0.6047731041908264,
                        -0.6008527278900146,
                        0.3844033181667328,
                        -0.6249918937683105,
                        -0.5054741501808167,
                        -0.19961696863174438,
                        -0.1740073263645172,
                        0.5314878821372986,
                        0.35815665125846863,
                        0.1752961128950119,
                        -0.7731834650039673,
                        0.43282660841941833,
                        1.214257001876831,
                        -0.42942818999290466,
                        0.07570042461156845,
                        -0.39359721541404724,
                        -0.23332099616527557,
                        0.8284028768539429,
                        -0.644899845123291,
                        0.18920977413654327,
                        -0.4775843322277069,
                        0.4440998136997223,
                        -0.36840370297431946,
                        0.6694842576980591,
                        0.5545991659164429,
                        0.7356938123703003,
                        1.5777196884155273,
                        0.561557948589325,
                        0.49184098839759827,
                        -0.538939893245697,
                        0.29905393719673157,
                        0.750150203704834,
                        -0.6129300594329834,
                        -0.7784784436225891,
                        0.831250011920929,
                        0.8004928231239319,
                        0.3827146887779236,
                        -3.159123420715332,
                        -1.9060428142547607,
                        0.6077505946159363,
                        -0.7730215191841125,
                        -2.223471164703369,
                        -0.08731283992528915,
                        -2.269066572189331,
                        -3.174269676208496,
                        -1.7618223428726196,
                        -0.17228132486343384,
                        -1.7849839925765991,
                        -0.24344179034233093,
                        -1.2482240200042725,
                        -0.43362176418304443,
                        -0.7253772020339966,
                        -2.9542555809020996,
                        0.2883516252040863,
                        0.8970323801040649,
                        1.4382684230804443,
                        -0.89754718542099,
                        -0.5087937712669373,
                        -2.148447275161743,
                        0.824694812297821,
                        -1.7094329595565796,
                        -2.594623327255249,
                        0.817066490650177,
                        -1.8748232126235962,
                        0.48388874530792236,
                        -0.8213565945625305,
                        -1.2226200103759766,
                        -2.5726733207702637,
                        -2.2776150703430176,
                        0.819233238697052,
                        -2.46136474609375,
                        -2.8716139793395996,
                        0.3637056052684784,
                        0.5086860656738281,
                        -2.508662462234497,
                        -2.935497283935547,
                        -0.6043628454208374,
                        0.708265483379364,
                        -1.4151853322982788,
                        0.1360751837491989,
                        -1.8844451904296875,
                        0.6587149500846863,
                        -1.3282719850540161,
                        -0.6474555134773254,
                        -1.1015135049819946,
                        -1.1484570503234863,
                        -0.9012584686279297,
                        -1.7240893840789795,
                        0.3691572844982147,
                        -1.7166403532028198,
                        1.1591615676879883,
                        0.8923944234848022,
                        -2.654218912124634,
                        -0.026276394724845886,
                        1.0014392137527466,
                        0.8332585096359253,
                        0.45298999547958374,
                        -1.4000273942947388,
                        -2.507658004760742,
                        -2.749318838119507,
                        -0.4125378727912903,
                        2.0479302406311035,
                        -3.089498996734619,
                        0.287492960691452,
                        -3.0392568111419678,
                        0.0397440604865551,
                        -0.883563220500946,
                        -0.13213184475898743,
                        -3.074226140975952,
                        -2.8905389308929443,
                        -1.842590570449829,
                        -1.0628365278244019,
                        -1.3000961542129517,
                        -1.2544410228729248,
                        -1.9477992057800293,
                        -2.8971943855285645,
                        -0.46677425503730774,
                        2.3018624782562256,
                        -0.7876484990119934,
                        -1.5834484100341797,
                        -0.05911954492330551,
                        -1.9568580389022827,
                        -2.5181570053100586,
                        0.8217941522598267,
                        -0.13526220619678497,
                        -1.7673569917678833,
                        -0.01157624926418066,
                        -0.17925821244716644,
                        -2.996006965637207,
                        -0.8573887348175049,
                        -2.1614885330200195,
                        1.7957069873809814,
                        0.18748629093170166,
                        -1.934634804725647,
                        1.7861502170562744,
                        -1.0937234163284302,
                        -1.0598469972610474
                    ]
                ],
                [
                    [
                        -0.4045118987560272,
                        -0.631964385509491,
                        1.9305769205093384,
                        0.4484066367149353,
                        -0.0026285406202077866,
                        -0.26996737718582153,
                        0.4468775689601898,
                        0.3887525200843811,
                        0.1897200495004654,
                        1.4446591138839722,
                        -0.8524674773216248,
                        2.0131235122680664,
                        -0.48564690351486206,
                        -0.1636548787355423,
                        1.9354429244995117,
                        -0.16544495522975922,
                        2.2658982276916504,
                        1.7270214557647705,
                        -1.4329849481582642,
                        0.9706243276596069,
                        0.6270131468772888,
                        0.16909298300743103,
                        -1.490658164024353,
                        0.7072479724884033,
                        0.07368002086877823,
                        -0.13716073334217072,
                        0.671291172504425,
                        0.9012020230293274,
                        0.5866966247558594,
                        1.0261332988739014,
                        0.31209060549736023,
                        0.4295485317707062,
                        1.1692705154418945,
                        0.061633992940187454,
                        0.2982509136199951,
                        1.598052740097046,
                        -0.06511088460683823,
                        0.07162846624851227,
                        0.07338158041238785,
                        1.0764098167419434,
                        0.9266589879989624,
                        0.18790435791015625,
                        0.8708217740058899,
                        0.046838678419589996,
                        0.49955329298973083,
                        0.629976749420166,
                        1.7710894346237183,
                        -0.2480519562959671,
                        0.4946559965610504,
                        0.9373385310173035,
                        -0.710674524307251,
                        0.37012630701065063,
                        0.24226179718971252,
                        -0.5174638628959656,
                        2.3272767066955566,
                        0.2457970380783081,
                        -0.14351202547550201,
                        0.7974000573158264,
                        4.054319381713867,
                        0.802833080291748,
                        0.04332588613033295,
                        0.1161937415599823,
                        -0.1374390721321106,
                        0.39550361037254333,
                        1.2674033641815186,
                        -0.0023779631592333317,
                        0.7669445872306824,
                        -0.24142932891845703,
                        -0.36089399456977844,
                        0.5282922983169556,
                        0.2474156618118286,
                        -0.1668729931116104,
                        0.03866663575172424,
                        0.40552908182144165,
                        1.3732784986495972,
                        -0.22581800818443298,
                        0.5600357055664062,
                        0.4025830328464508,
                        0.31508973240852356,
                        0.2696736752986908,
                        -0.5815925598144531,
                        0.01051317248493433,
                        1.2846697568893433,
                        1.332468032836914,
                        -1.4443649053573608,
                        -1.0732195377349854,
                        1.4845881462097168,
                        -0.7848497033119202,
                        0.9871414303779602,
                        0.5788661241531372,
                        1.3283530473709106,
                        0.15570324659347534,
                        -0.665361762046814,
                        -0.00650438480079174,
                        0.1606738120317459,
                        1.637799859046936,
                        2.0257465839385986,
                        -0.4073648750782013,
                        -0.540335476398468,
                        0.4024469554424286,
                        0.26816698908805847,
                        0.3194122314453125,
                        -0.46065661311149597,
                        -0.4900851547718048,
                        0.16671361029148102,
                        -1.0522198677062988,
                        0.3289353847503662,
                        -0.05646515637636185,
                        -0.08720791339874268,
                        -0.9857239127159119,
                        -0.5793875455856323,
                        0.6043275594711304,
                        -0.5069549679756165,
                        -0.5130380392074585,
                        -0.879530131816864,
                        -0.02964841015636921,
                        -0.8575925827026367,
                        -0.5644716024398804,
                        -2.0896706581115723,
                        -0.02804058976471424,
                        0.4206317961215973,
                        0.02046719752252102,
                        0.3316051959991455,
                        -0.33115503191947937,
                        0.002944008447229862,
                        1.6737231016159058,
                        0.4158135652542114,
                        -0.2455899566411972,
                        -0.29847362637519836,
                        -0.6715764403343201,
                        0.026316549628973007,
                        0.6040033102035522,
                        -0.6182060241699219,
                        0.0395846888422966,
                        0.2168949395418167,
                        0.623868465423584,
                        -1.019601821899414,
                        0.019302358850836754,
                        0.2096671313047409,
                        -1.6111606359481812,
                        -0.42475003004074097,
                        -0.09260287880897522,
                        0.2739870548248291,
                        -0.11537148058414459,
                        -0.6658895015716553,
                        -1.1545603275299072,
                        0.2271251380443573,
                        -1.5631293058395386,
                        0.16056644916534424,
                        -0.9929482936859131,
                        -1.2593313455581665,
                        -0.7813138961791992,
                        -0.028265975415706635,
                        -1.4164522886276245,
                        -0.5917192101478577,
                        0.09427035599946976,
                        -0.6459675431251526,
                        -0.7693175077438354,
                        -1.4917881488800049,
                        -0.4053933918476105,
                        -0.3814435601234436,
                        0.1402086764574051,
                        0.03876618295907974,
                        0.008618198335170746,
                        0.06965658813714981,
                        0.05565347149968147,
                        -0.6522325277328491,
                        0.2578129172325134,
                        -1.1180589199066162,
                        0.31417399644851685,
                        -1.0818417072296143,
                        0.04534855857491493,
                        -0.027932625263929367,
                        0.2459034025669098,
                        0.5573149919509888,
                        0.3074907958507538,
                        0.018958333879709244,
                        -0.016806313768029213,
                        0.1650834083557129,
                        -0.5971112251281738,
                        0.12535236775875092,
                        -0.36412280797958374,
                        0.266877144575119,
                        0.7569494843482971,
                        0.3710574805736542,
                        0.1094479113817215,
                        -0.8292880058288574,
                        -1.5654586553573608,
                        -0.6956720948219299,
                        -0.5827345252037048,
                        0.6296339631080627,
                        0.13717110455036163,
                        -1.473012089729309,
                        0.0880238264799118,
                        -0.06562490016222,
                        0.475807785987854,
                        -0.601954460144043,
                        -0.4432581961154938,
                        -0.4054391384124756,
                        0.007427822332829237,
                        -0.17451298236846924,
                        -1.1563448905944824,
                        -0.09972819685935974,
                        0.09231327474117279,
                        -0.5877000093460083,
                        0.6095786690711975,
                        1.99057936668396,
                        0.7523218393325806,
                        0.2897142171859741,
                        -0.5671733021736145,
                        -0.2910592257976532,
                        -0.11620675027370453,
                        0.21598424017429352,
                        -2.081843137741089,
                        -0.42065173387527466,
                        0.15000560879707336,
                        -0.5794855952262878,
                        -0.11441861093044281,
                        -0.07415413856506348,
                        0.12233883887529373,
                        -0.03456859663128853,
                        0.07598276436328888,
                        0.2607825994491577,
                        0.24659663438796997,
                        -0.4113208055496216,
                        -0.3457657992839813,
                        0.01681811735033989,
                        0.43159162998199463,
                        -0.09953223913908005,
                        -0.5583381056785583,
                        -0.1037537232041359,
                        -0.3804163336753845,
                        0.2694284915924072,
                        0.9113704562187195,
                        -0.8815332651138306,
                        -1.0796024799346924,
                        0.5458280444145203,
                        -0.3980858027935028,
                        0.39441660046577454,
                        -0.9433499574661255,
                        0.1500152200460434,
                        0.3213862180709839,
                        -1.2314553260803223,
                        -0.5650649070739746,
                        0.18125461041927338,
                        -0.1413881629705429,
                        -0.3550667464733124,
                        0.21168342232704163,
                        -0.18385007977485657,
                        -0.7587433457374573,
                        -0.6970846652984619,
                        0.5494855642318726,
                        1.0229078531265259,
                        0.2708006203174591,
                        0.16839882731437683,
                        0.5242125391960144,
                        -0.8445693850517273,
                        -0.2344447672367096,
                        0.11154570430517197,
                        -0.07869085669517517,
                        1.0726615190505981,
                        0.006624497938901186,
                        0.07732809334993362,
                        -0.28174328804016113,
                        -0.10843461006879807,
                        0.04401750862598419,
                        -0.8475364446640015,
                        -0.2901102900505066,
                        -0.8295287489891052,
                        -0.6883975863456726,
                        -0.7342700958251953,
                        -0.321880578994751,
                        -0.07710141688585281,
                        -0.7722039818763733,
                        -0.6563732028007507,
                        0.11017944663763046,
                        1.2957545518875122,
                        -0.3699379861354828,
                        0.022036053240299225,
                        0.07264233380556107,
                        -0.25151723623275757,
                        0.5968230366706848,
                        -0.637459933757782,
                        -0.9121493101119995,
                        1.3671938180923462,
                        -0.556236982345581,
                        -0.6894220113754272,
                        -1.339930772781372,
                        0.514681875705719,
                        0.23826690018177032,
                        0.371108740568161,
                        -0.2188652902841568,
                        0.8183060884475708,
                        0.5336043834686279,
                        -0.01418264675885439,
                        -0.9565502405166626,
                        -0.7972284555435181,
                        -0.068801149725914,
                        -0.118099644780159,
                        -0.011149567551910877,
                        -0.038694366812705994,
                        -0.3467874825000763,
                        2.690786361694336,
                        0.6544137597084045,
                        0.04646265506744385,
                        -0.14875444769859314,
                        0.7257296442985535,
                        0.4912956953048706,
                        0.22920019924640656,
                        0.4259066879749298,
                        -0.631716787815094,
                        2.096060037612915,
                        -0.6295273900032043,
                        -0.5898082852363586,
                        1.4050873517990112,
                        0.02009018138051033,
                        1.968705654144287,
                        1.1603885889053345,
                        -1.156256914138794,
                        1.0624990463256836,
                        0.6598184704780579,
                        0.41878217458724976,
                        -1.4909093379974365,
                        0.6342533826828003,
                        0.1470390409231186,
                        0.5160800218582153,
                        0.826308012008667,
                        0.6202419400215149,
                        0.6616217494010925,
                        1.069949984550476,
                        0.06419935822486877,
                        0.31042397022247314,
                        0.6866558194160461,
                        0.11643356084823608,
                        0.4284866750240326,
                        1.4256973266601562,
                        -0.28407445549964905,
                        0.1203739196062088,
                        0.3146744668483734,
                        1.3091343641281128,
                        0.8249399065971375,
                        0.0066210245713591576,
                        1.056269884109497,
                        0.11103281378746033,
                        0.27320951223373413,
                        0.7983402013778687,
                        1.7217084169387817,
                        -0.4216301441192627,
                        0.6365797519683838,
                        1.3807346820831299,
                        -0.7366242408752441,
                        0.1912223845720291,
                        0.47093886137008667,
                        -0.38430801033973694,
                        1.6783440113067627,
                        0.3885619044303894,
                        -0.04062168300151825,
                        0.9691040515899658,
                        3.5642716884613037,
                        0.8561754822731018,
                        0.03161831945180893,
                        0.22044238448143005,
                        0.03414195030927658,
                        0.25190746784210205,
                        0.6096433401107788,
                        0.10830141603946686,
                        0.7728497982025146,
                        0.07565425336360931,
                        -0.39236658811569214,
                        0.4600275158882141,
                        -0.49524906277656555,
                        0.07077351212501526,
                        0.19500166177749634,
                        0.3527691960334778,
                        1.6787739992141724,
                        0.6107360124588013,
                        0.9649076461791992,
                        0.4615393877029419,
                        0.3315331041812897,
                        0.5164294242858887,
                        -0.5909738540649414,
                        0.08685310930013657,
                        1.496344804763794,
                        1.1985392570495605,
                        -1.0782310962677002,
                        -0.799216628074646,
                        2.022897481918335,
                        -1.1697083711624146,
                        1.3206150531768799,
                        0.4966508150100708,
                        1.2852939367294312,
                        0.2953445315361023,
                        -0.7074266076087952,
                        0.2745225131511688,
                        -0.2193646878004074,
                        1.2533164024353027,
                        1.772681713104248,
                        -0.6648109555244446,
                        -0.4252210855484009,
                        0.38993048667907715
                    ],
                    [
                        -0.22338531911373138,
                        -1.122020959854126,
                        1.7566196918487549,
                        -0.14312291145324707,
                        0.20288853347301483,
                        -0.41701099276542664,
                        0.45412468910217285,
                        0.18557041883468628,
                        0.07864034175872803,
                        1.308104157447815,
                        -1.5827029943466187,
                        1.9086239337921143,
                        -0.5518850684165955,
                        -0.5389896035194397,
                        1.2084699869155884,
                        -0.020067913457751274,
                        2.3885886669158936,
                        1.3308048248291016,
                        -2.168177843093872,
                        0.7161769270896912,
                        0.7406787872314453,
                        0.1215067058801651,
                        -1.4336174726486206,
                        0.7058039903640747,
                        0.09370598942041397,
                        -0.4029656648635864,
                        0.13836736977100372,
                        0.9079934358596802,
                        -0.11733491718769073,
                        0.7903257608413696,
                        0.4322078824043274,
                        0.16963699460029602,
                        1.7853449583053589,
                        0.2263217568397522,
                        0.38715022802352905,
                        1.88419508934021,
                        -0.15248212218284607,
                        0.15001554787158966,
                        -0.19647729396820068,
                        0.9839993119239807,
                        1.3610332012176514,
                        0.039750486612319946,
                        0.8918061256408691,
                        -0.11400783807039261,
                        -0.03799082338809967,
                        0.89503014087677,
                        1.5858230590820312,
                        -0.8968153595924377,
                        0.028375275433063507,
                        0.6994165778160095,
                        -0.8870907425880432,
                        0.3169267773628235,
                        0.08865711838006973,
                        -0.8592764139175415,
                        1.6992465257644653,
                        0.09306079894304276,
                        -0.7247450351715088,
                        2.1981663703918457,
                        2.0208942890167236,
                        0.8962069749832153,
                        -0.41268038749694824,
                        0.05572642758488655,
                        -0.15053240954875946,
                        -0.0528537891805172,
                        1.3894779682159424,
                        -0.3378636837005615,
                        1.1266655921936035,
                        -0.00475902296602726,
                        -0.4678037762641907,
                        0.27468544244766235,
                        0.32881051301956177,
                        -0.16764295101165771,
                        0.04533618688583374,
                        0.05150195211172104,
                        1.664108395576477,
                        -0.2858089208602905,
                        0.3521789312362671,
                        0.22203557193279266,
                        0.4203256368637085,
                        0.10441339015960693,
                        -0.7435868382453918,
                        -0.04555771127343178,
                        1.9341821670532227,
                        0.2844024896621704,
                        -0.8895103931427002,
                        -0.3578546345233917,
                        1.300227165222168,
                        -0.8420772552490234,
                        1.0034205913543701,
                        0.5077371597290039,
                        1.8614437580108643,
                        0.20423796772956848,
                        -0.7471350431442261,
                        0.12932081520557404,
                        -0.27778419852256775,
                        2.0793988704681396,
                        2.1328539848327637,
                        -0.4305800795555115,
                        -1.4169998168945312,
                        0.4281231462955475,
                        0.30321261286735535,
                        0.15404804050922394,
                        0.39645808935165405,
                        -0.3979674279689789,
                        0.1737590730190277,
                        -1.0101263523101807,
                        0.49022161960601807,
                        0.040021758526563644,
                        -0.10554395616054535,
                        -1.1667436361312866,
                        -0.720550000667572,
                        0.5815426707267761,
                        -0.17157189548015594,
                        -0.13166797161102295,
                        -0.7899355292320251,
                        0.16913360357284546,
                        -0.9408425092697144,
                        -0.5733912587165833,
                        -1.1911200284957886,
                        -0.09534980356693268,
                        0.20354658365249634,
                        0.07123559713363647,
                        0.3311949372291565,
                        -0.5199390053749084,
                        0.14180885255336761,
                        1.186497688293457,
                        0.5077003240585327,
                        -0.23430566489696503,
                        0.03636346384882927,
                        -1.2219985723495483,
                        0.370791494846344,
                        0.9819135665893555,
                        -0.7282370328903198,
                        0.30820390582084656,
                        0.23638007044792175,
                        1.1588573455810547,
                        -1.1605331897735596,
                        0.1914743185043335,
                        0.07874933630228043,
                        -1.564018726348877,
                        -0.4199877679347992,
                        -0.21187259256839752,
                        0.8408369421958923,
                        -0.09573346376419067,
                        -0.8897547721862793,
                        -1.625321865081787,
                        0.09100925177335739,
                        0.10035818815231323,
                        0.7088675498962402,
                        -0.7976741790771484,
                        -1.2778308391571045,
                        -0.8110632300376892,
                        -0.17722761631011963,
                        -1.5056829452514648,
                        -0.5360418558120728,
                        0.08937786519527435,
                        -0.96905916929245,
                        -0.5263524055480957,
                        -0.5089461207389832,
                        -0.471112996339798,
                        -0.8190224170684814,
                        0.151933491230011,
                        0.14606627821922302,
                        0.38756588101387024,
                        0.07291817665100098,
                        0.0865417867898941,
                        -0.20907795429229736,
                        0.26618635654449463,
                        -0.9470630884170532,
                        0.1886376291513443,
                        -1.1409672498703003,
                        0.16635996103286743,
                        0.19976720213890076,
                        0.20394247770309448,
                        1.104125738143921,
                        0.48093941807746887,
                        0.2083902209997177,
                        -0.023173917084932327,
                        0.2391136735677719,
                        -0.42897796630859375,
                        0.589113175868988,
                        -0.45827341079711914,
                        0.8030589818954468,
                        1.5178004503250122,
                        0.3435024321079254,
                        0.2605699300765991,
                        -0.7916361689567566,
                        -1.595136284828186,
                        -0.4389822483062744,
                        -0.5769085884094238,
                        0.8260250091552734,
                        0.25351664423942566,
                        -1.5463820695877075,
                        0.07534421235322952,
                        0.005808732938021421,
                        0.8108335137367249,
                        -0.8880740404129028,
                        -0.33453476428985596,
                        -0.7203555107116699,
                        -0.014441964216530323,
                        -1.5712075233459473,
                        -2.6749725341796875,
                        0.0534091554582119,
                        -0.21663245558738708,
                        -0.5169497728347778,
                        0.7004639506340027,
                        2.2022342681884766,
                        0.17484596371650696,
                        -0.09988100081682205,
                        -0.5062626004219055,
                        -1.185890555381775,
                        -0.04667599871754646,
                        0.18316298723220825,
                        -1.675209403038025,
                        -0.9521431922912598,
                        1.3334304094314575,
                        -0.5985628962516785,
                        0.07932612299919128,
                        -0.01942608878016472,
                        0.013460446149110794,
                        -0.28806158900260925,
                        0.06049833446741104,
                        0.19052481651306152,
                        0.22191719710826874,
                        -1.3892440795898438,
                        -0.4834248721599579,
                        0.22613030672073364,
                        0.1873151659965515,
                        -0.3005192279815674,
                        -1.1378968954086304,
                        -0.2777385711669922,
                        -0.37975558638572693,
                        0.20653946697711945,
                        1.6916810274124146,
                        0.13658633828163147,
                        -1.630067229270935,
                        0.8069837689399719,
                        -1.2451579570770264,
                        1.5068267583847046,
                        -1.0139074325561523,
                        0.18398195505142212,
                        0.6817063093185425,
                        -1.507547378540039,
                        -0.12425268441438675,
                        0.14191532135009766,
                        -0.06093109771609306,
                        -0.281209260225296,
                        0.015643469989299774,
                        -0.25811660289764404,
                        -0.4638339877128601,
                        -0.9152962565422058,
                        0.5891592502593994,
                        1.5350030660629272,
                        -0.004501295275986195,
                        0.08592355996370316,
                        -0.5717611312866211,
                        -0.70222407579422,
                        -0.23262985050678253,
                        0.05243320018053055,
                        -0.1502496749162674,
                        1.897275686264038,
                        0.9864224195480347,
                        -1.0188889503479004,
                        -0.44774433970451355,
                        0.07394248992204666,
                        1.4079455137252808,
                        -1.2109605073928833,
                        -1.2213495969772339,
                        -1.223992109298706,
                        -0.4981696903705597,
                        -0.8676766157150269,
                        0.8600772619247437,
                        1.1315666437149048,
                        -1.4655351638793945,
                        -0.6987526416778564,
                        0.0836353674530983,
                        0.6503728032112122,
                        0.002492154249921441,
                        -1.1282919645309448,
                        0.03237500041723251,
                        -0.2205757051706314,
                        0.7697950601577759,
                        -0.6785011291503906,
                        -1.034525990486145,
                        1.946308970451355,
                        -1.5573170185089111,
                        -0.530576229095459,
                        -1.629347324371338,
                        0.5212105512619019,
                        0.16813206672668457,
                        0.9048191905021667,
                        1.0187175273895264,
                        1.1440973281860352,
                        1.4112064838409424,
                        -0.0005767855909653008,
                        -0.967170774936676,
                        -0.6617655158042908,
                        -0.030319610610604286,
                        1.1083463430404663,
                        0.18930476903915405,
                        0.2655305564403534,
                        -0.7958407998085022,
                        2.743398666381836,
                        0.04576965421438217,
                        0.1573592573404312,
                        -0.18120867013931274,
                        0.8435779213905334,
                        0.41498875617980957,
                        0.13468050956726074,
                        0.2577335834503174,
                        -1.435145616531372,
                        1.905383586883545,
                        -0.6114447116851807,
                        -0.6342312693595886,
                        1.2480405569076538,
                        0.211605042219162,
                        4.2859272956848145,
                        1.8302892446517944,
                        -2.183319568634033,
                        0.7557463049888611,
                        0.2686247229576111,
                        0.1999666839838028,
                        -1.7167929410934448,
                        0.4554613530635834,
                        0.14948712289333344,
                        0.2684742510318756,
                        0.20393839478492737,
                        0.492224782705307,
                        0.13672859966754913,
                        0.8917561769485474,
                        0.30866074562072754,
                        0.2105822116136551,
                        1.7250430583953857,
                        0.49443066120147705,
                        0.35591068863868713,
                        1.8270914554595947,
                        -0.30006131529808044,
                        0.2702237665653229,
                        0.24011671543121338,
                        1.3114254474639893,
                        2.001286029815674,
                        -0.269208699464798,
                        0.9241380095481873,
                        -0.009120526723563671,
                        -0.09628178924322128,
                        0.9470911622047424,
                        1.4397400617599487,
                        -0.9052966237068176,
                        0.3208732008934021,
                        1.2486532926559448,
                        -0.7764766216278076,
                        0.1716088205575943,
                        0.1731923222541809,
                        -0.6529653072357178,
                        1.4882614612579346,
                        0.3255906105041504,
                        -0.7385563254356384,
                        1.670971155166626,
                        1.6274454593658447,
                        1.1709011793136597,
                        -0.2627560496330261,
                        0.23996590077877045,
                        0.14608921110630035,
                        -0.19426782429218292,
                        0.7033669352531433,
                        0.30724191665649414,
                        0.663007378578186,
                        0.21068443357944489,
                        -0.4435504972934723,
                        0.28257015347480774,
                        -0.3083206117153168,
                        0.25618332624435425,
                        0.17639482021331787,
                        0.059894662350416183,
                        1.7753732204437256,
                        0.8225177526473999,
                        0.9515543580055237,
                        0.2476639449596405,
                        0.5524135231971741,
                        0.4303739666938782,
                        -0.6635849475860596,
                        0.05673496425151825,
                        1.9490376710891724,
                        0.49965208768844604,
                        -0.664153516292572,
                        -0.08967405557632446,
                        2.1201043128967285,
                        -1.220691442489624,
                        1.4506059885025024,
                        0.3089980483055115,
                        1.4705824851989746,
                        0.28961434960365295,
                        -0.6863722801208496,
                        0.21019047498703003,
                        -0.5358527302742004,
                        1.6356613636016846,
                        1.747532844543457,
                        -0.6943058371543884,
                        -1.3491910696029663,
                        0.28526103496551514
                    ],
                    [
                        -1.5453418493270874,
                        0.06347853690385818,
                        -7.912863731384277,
                        -1.006400227546692,
                        0.5079604387283325,
                        -3.4793314933776855,
                        0.8162243962287903,
                        1.583327054977417,
                        0.5743675231933594,
                        -0.3054368793964386,
                        -0.9901523590087891,
                        1.328460931777954,
                        -2.3857927322387695,
                        -1.5094571113586426,
                        -0.5085945129394531,
                        -0.7763336896896362,
                        0.3378707766532898,
                        -0.048656534403562546,
                        -2.373180866241455,
                        -1.0116804838180542,
                        -2.428501844406128,
                        0.2029050588607788,
                        -8.373651504516602,
                        13.072199821472168,
                        0.09696722030639648,
                        -5.820498943328857,
                        -0.562678873538971,
                        -0.12178497016429901,
                        -0.07334861904382706,
                        0.22427675127983093,
                        0.2623690664768219,
                        -0.4428759813308716,
                        0.61446213722229,
                        0.3757697641849518,
                        0.003812984563410282,
                        0.6461482644081116,
                        -2.782447576522827,
                        0.1418822705745697,
                        -0.8577882051467896,
                        -0.76516193151474,
                        0.3856502175331116,
                        -0.25980478525161743,
                        -0.9536488652229309,
                        0.6644178032875061,
                        -1.8476601839065552,
                        2.10241961479187,
                        -1.9183473587036133,
                        -0.3763810694217682,
                        0.04624882712960243,
                        -1.0080251693725586,
                        -0.25874659419059753,
                        -0.8380380868911743,
                        -0.009168441407382488,
                        -1.6784663200378418,
                        -2.6094770431518555,
                        -0.36377936601638794,
                        -3.3762047290802,
                        -0.3045910894870758,
                        -5.817070484161377,
                        0.35342299938201904,
                        0.8386476635932922,
                        -0.014374966733157635,
                        -0.6705338358879089,
                        -0.6694420576095581,
                        -0.1157975047826767,
                        -1.1410343647003174,
                        -0.021923622116446495,
                        -1.1429777145385742,
                        6.665589809417725,
                        -0.9309224486351013,
                        -1.4066417217254639,
                        -0.9550180435180664,
                        -0.7998836636543274,
                        -0.0208224356174469,
                        -0.43185991048812866,
                        -1.620335340499878,
                        -0.6089324951171875,
                        11.212809562683105,
                        1.7539399862289429,
                        -1.178858757019043,
                        -1.8310948610305786,
                        0.1584678441286087,
                        -0.424905002117157,
                        -1.465071678161621,
                        0.16662952303886414,
                        -0.11074455082416534,
                        0.7664422988891602,
                        0.9227619171142578,
                        -0.4127606749534607,
                        -1.9325655698776245,
                        0.9906946420669556,
                        -0.6282782554626465,
                        0.4588905870914459,
                        0.6911991238594055,
                        -1.6172713041305542,
                        0.9685337543487549,
                        0.6578732132911682,
                        -4.379137992858887,
                        -1.162452220916748,
                        0.45373988151550293,
                        1.2621053457260132,
                        3.3245866298675537,
                        1.5172783136367798,
                        2.2429513931274414,
                        0.3822365701198578,
                        1.431243658065796,
                        2.236030340194702,
                        1.7751367092132568,
                        0.11845967918634415,
                        -1.6015828847885132,
                        -1.472477912902832,
                        -3.4388484954833984,
                        1.113639235496521,
                        3.7061781883239746,
                        -4.764338970184326,
                        0.5484070777893066,
                        -5.105039119720459,
                        -3.4608566761016846,
                        0.636934757232666,
                        1.4198285341262817,
                        -0.19065256416797638,
                        0.8024353384971619,
                        0.8332734107971191,
                        -0.3015971779823303,
                        1.2260305881500244,
                        -3.027202844619751,
                        2.3427114486694336,
                        0.6066408157348633,
                        2.549570322036743,
                        -0.3667491674423218,
                        0.38559436798095703,
                        1.123008370399475,
                        -4.997488021850586,
                        1.029577612876892,
                        1.8744347095489502,
                        0.8868985772132874,
                        -3.3029391765594482,
                        0.8786105513572693,
                        2.0643131732940674,
                        -0.1337226778268814,
                        -3.0443153381347656,
                        0.4861961901187897,
                        6.12095308303833,
                        1.2789902687072754,
                        0.5714231729507446,
                        -1.8989051580429077,
                        -6.938248634338379,
                        1.047115683555603,
                        5.558692932128906,
                        -7.986487865447998,
                        0.7300073504447937,
                        -3.1831955909729004,
                        6.368274211883545,
                        0.5466381311416626,
                        0.12269782274961472,
                        0.5536679029464722,
                        1.4702850580215454,
                        -3.9324398040771484,
                        0.7448355555534363,
                        -2.8499436378479004,
                        1.2866973876953125,
                        1.1132317781448364,
                        0.1150319054722786,
                        -1.0301830768585205,
                        0.3065541386604309,
                        0.02632247284054756,
                        0.3915340304374695,
                        0.9967882037162781,
                        -0.38092413544654846,
                        0.34240463376045227,
                        -4.613495349884033,
                        0.7193866968154907,
                        0.23500622808933258,
                        5.0351152420043945,
                        6.303537368774414,
                        2.1584653854370117,
                        -1.2564904689788818,
                        8.677509307861328,
                        2.5104706287384033,
                        1.2054057121276855,
                        -0.6809523105621338,
                        0.5384988784790039,
                        2.646631956100464,
                        3.1828434467315674,
                        0.6801730990409851,
                        2.656719923019409,
                        -5.785083293914795,
                        -0.42330992221832275,
                        -4.093178749084473,
                        -1.6246178150177002,
                        0.5692489743232727,
                        1.8764632940292358,
                        0.7810458540916443,
                        1.542808175086975,
                        -0.14707426726818085,
                        0.7480567693710327,
                        -1.022442102432251,
                        0.09778709709644318,
                        -1.715375542640686,
                        2.3793699741363525,
                        -1.3351736068725586,
                        -1.1137977838516235,
                        -1.1675732135772705,
                        1.3696727752685547,
                        0.6934621930122375,
                        0.9075800180435181,
                        0.953731894493103,
                        0.027597622945904732,
                        -0.8115699887275696,
                        -0.7907163500785828,
                        -1.014139175415039,
                        1.186789870262146,
                        0.6699701547622681,
                        -0.06661071628332138,
                        -2.966933488845825,
                        1.3521370887756348,
                        -4.040802001953125,
                        1.8724411725997925,
                        -0.29141169786453247,
                        0.7026801109313965,
                        0.03597191721200943,
                        -1.9081968069076538,
                        -0.28011929988861084,
                        4.028141975402832,
                        -1.361269235610962,
                        -0.20546089112758636,
                        -2.1814205646514893,
                        -0.5111446976661682,
                        2.2673466205596924,
                        -0.10234645754098892,
                        0.3348289728164673,
                        1.052032709121704,
                        3.3800950050354004,
                        1.2962309122085571,
                        1.6343493461608887,
                        0.37674644589424133,
                        0.8375517725944519,
                        -1.3637783527374268,
                        1.1286002397537231,
                        -0.2839251160621643,
                        2.017695665359497,
                        0.7148022651672363,
                        -0.22100621461868286,
                        0.24032743275165558,
                        -0.15596359968185425,
                        -6.433023929595947,
                        -0.05748927220702171,
                        2.1513783931732178,
                        2.015350103378296,
                        -5.394183158874512,
                        1.6974446773529053,
                        1.3387137651443481,
                        0.7815883159637451,
                        0.4303832948207855,
                        -0.057518064975738525,
                        -1.6575983762741089,
                        -0.4729737639427185,
                        -1.5623316764831543,
                        0.6254144310951233,
                        -2.0499024391174316,
                        -0.894828200340271,
                        1.7525097131729126,
                        -1.5300475358963013,
                        2.74226450920105,
                        0.3758286237716675,
                        1.16606867313385,
                        0.12714000046253204,
                        -1.3708500862121582,
                        2.149930477142334,
                        1.4016430377960205,
                        -3.058479070663452,
                        1.4034943580627441,
                        1.9064725637435913,
                        -0.7606339454650879,
                        0.24067379534244537,
                        1.1712185144424438,
                        -1.12563157081604,
                        2.64058518409729,
                        -1.5787909030914307,
                        0.6174728870391846,
                        0.01857171580195427,
                        -0.26050010323524475,
                        -0.04558773711323738,
                        1.2027250528335571,
                        0.678961992263794,
                        -1.121472716331482,
                        -1.643131136894226,
                        -0.059522949159145355,
                        4.8093791007995605,
                        0.10722838342189789,
                        -0.09655893594026566,
                        1.3199772834777832,
                        -2.060901641845703,
                        1.3055014610290527,
                        -0.11901237815618515,
                        0.6397520899772644,
                        -5.170223712921143,
                        -0.026492631062865257,
                        0.3232353627681732,
                        -1.873805046081543,
                        0.26581430435180664,
                        0.42125236988067627,
                        -8.697579383850098,
                        -0.686800479888916,
                        1.3882030248641968,
                        -3.1188347339630127,
                        2.0452122688293457,
                        2.1518125534057617,
                        0.6793165802955627,
                        0.6982307434082031,
                        -1.192286729812622,
                        1.8318275213241577,
                        -2.4740161895751953,
                        -2.147627115249634,
                        -0.04996007680892944,
                        0.4212808907032013,
                        0.8527032732963562,
                        0.7214021682739258,
                        -2.614102602005005,
                        -0.344614714384079,
                        -1.0103256702423096,
                        0.521147608757019,
                        -7.787718772888184,
                        13.0133638381958,
                        0.9023601412773132,
                        -8.27560043334961,
                        0.8165995478630066,
                        -1.660956621170044,
                        0.1955757439136505,
                        0.4680972099304199,
                        0.40338069200515747,
                        0.7473965883255005,
                        0.7473796606063843,
                        0.9164849519729614,
                        0.7062634229660034,
                        0.9925159215927124,
                        -3.805546998977661,
                        0.9502394199371338,
                        0.965923547744751,
                        -0.9186689853668213,
                        0.44968077540397644,
                        0.10952398180961609,
                        -0.7630103826522827,
                        0.6871570944786072,
                        -1.458127498626709,
                        2.022768020629883,
                        -1.4137780666351318,
                        -0.36924058198928833,
                        0.5214738845825195,
                        0.3092864453792572,
                        0.3936096131801605,
                        -0.030965205281972885,
                        0.236594557762146,
                        -1.2092196941375732,
                        -1.2984693050384521,
                        0.7530945539474487,
                        -3.7442848682403564,
                        0.23665085434913635,
                        -4.875096797943115,
                        0.2591278553009033,
                        1.1467199325561523,
                        0.7633327841758728,
                        0.06874719262123108,
                        -0.0696367546916008,
                        -4.293062686920166,
                        1.186951994895935,
                        0.4635426998138428,
                        0.4738444685935974,
                        6.224298477172852,
                        -0.47395452857017517,
                        -0.8993129730224609,
                        0.8212125301361084,
                        0.12130659818649292,
                        0.4354802668094635,
                        -0.3647914528846741,
                        0.25310710072517395,
                        0.18506741523742676,
                        10.574668884277344,
                        2.4942729473114014,
                        -0.9642311334609985,
                        -2.433924674987793,
                        0.03155016154050827,
                        -0.09013544768095016,
                        -0.7479564547538757,
                        0.10295798629522324,
                        0.5667192339897156,
                        0.332427978515625,
                        -0.09329763799905777,
                        -0.1994142085313797,
                        -0.26989442110061646,
                        0.4548899233341217,
                        0.5405522584915161,
                        0.3839087188243866,
                        1.1848195791244507,
                        -0.7741274237632751,
                        0.6750265955924988,
                        1.3322267532348633,
                        -3.2732362747192383,
                        -1.2585221529006958,
                        0.596474289894104
                    ],
                    [
                        -0.13700224459171295,
                        0.09444501996040344,
                        2.317519187927246,
                        1.607713222503662,
                        -0.6571835875511169,
                        0.9738141894340515,
                        0.15335747599601746,
                        -0.6111193895339966,
                        0.13193030655384064,
                        0.3379352390766144,
                        1.0808143615722656,
                        -0.7861567735671997,
                        1.7307921648025513,
                        1.2454692125320435,
                        0.26706835627555847,
                        -0.09222965687513351,
                        -0.2891278564929962,
                        0.14808470010757446,
                        1.530762791633606,
                        1.2095006704330444,
                        0.45754939317703247,
                        0.26411572098731995,
                        4.0034990310668945,
                        -1.609682321548462,
                        -0.3497837781906128,
                        6.889579772949219,
                        1.1183806657791138,
                        -0.046995360404253006,
                        1.5165022611618042,
                        0.49079835414886475,
                        -0.32532981038093567,
                        0.30257153511047363,
                        -1.1428853273391724,
                        -0.44662362337112427,
                        -0.3225519359111786,
                        -0.08499129861593246,
                        1.2595173120498657,
                        -0.5024964213371277,
                        0.0932270810008049,
                        0.43836674094200134,
                        0.077883280813694,
                        0.2531616687774658,
                        -1.3551304340362549,
                        -0.21376433968544006,
                        2.155606985092163,
                        -3.106943130493164,
                        0.3498416543006897,
                        1.4451733827590942,
                        1.3961063623428345,
                        1.5175479650497437,
                        0.0816112831234932,
                        0.5274811387062073,
                        0.6425250172615051,
                        1.353806972503662,
                        2.519272804260254,
                        0.16469182074069977,
                        3.4301364421844482,
                        -0.35748907923698425,
                        4.012332439422607,
                        -0.16907908022403717,
                        0.37341806292533875,
                        0.05969545617699623,
                        -0.03198978304862976,
                        1.314812421798706,
                        0.4762774109840393,
                        0.2845707833766937,
                        0.2562345564365387,
                        0.04642312601208687,
                        -0.6862971186637878,
                        1.0015225410461426,
                        1.0482007265090942,
                        -0.13800360262393951,
                        -0.023864969611167908,
                        0.49558383226394653,
                        -1.6137773990631104,
                        1.0241707563400269,
                        1.4225152730941772,
                        -0.8956660628318787,
                        -0.7012207508087158,
                        -0.8568794131278992,
                        1.0181150436401367,
                        -0.1206822395324707,
                        -1.4660897254943848,
                        0.9070936441421509,
                        -0.17744505405426025,
                        -0.2648930251598358,
                        0.0012083329493179917,
                        0.07444935292005539,
                        0.45718657970428467,
                        -0.5345484018325806,
                        -0.4572376012802124,
                        -0.1015438511967659,
                        0.08839280903339386,
                        -0.3530023694038391,
                        1.5556833744049072,
                        -0.2234468013048172,
                        -0.467861533164978,
                        1.263964056968689,
                        1.084078073501587,
                        0.7894226312637329,
                        -0.7298311591148376,
                        -1.1892645359039307,
                        -1.4124118089675903,
                        -1.3683472871780396,
                        -0.36544904112815857,
                        -0.6079386472702026,
                        -0.40476158261299133,
                        -0.5500550866127014,
                        -0.27698200941085815,
                        0.17306716740131378,
                        0.7696438431739807,
                        1.0808711051940918,
                        -0.8083391785621643,
                        -2.5889291763305664,
                        0.35266655683517456,
                        -0.5160900950431824,
                        1.156211256980896,
                        0.6475770473480225,
                        -0.6986923217773438,
                        0.5786560773849487,
                        0.8688265085220337,
                        -0.19642871618270874,
                        -0.7482776641845703,
                        0.34320807456970215,
                        -0.7333744764328003,
                        2.745471477508545,
                        -0.7503030300140381,
                        -0.5186517834663391,
                        -0.9840988516807556,
                        1.0200170278549194,
                        -0.7382447123527527,
                        -0.9582616090774536,
                        1.0605324506759644,
                        -0.8457580208778381,
                        -0.5636595487594604,
                        -1.1344958543777466,
                        0.5598184466362,
                        -0.585907518863678,
                        -0.37378230690956116,
                        0.43739184737205505,
                        0.46916672587394714,
                        -0.2585446834564209,
                        -7.523211479187012,
                        -0.5064355731010437,
                        0.11939110606908798,
                        0.9003563523292542,
                        2.064213991165161,
                        -1.321165680885315,
                        -1.4053739309310913,
                        0.810583233833313,
                        0.33724260330200195,
                        0.4970797896385193,
                        -0.6221501231193542,
                        -0.004312452860176563,
                        0.38352543115615845,
                        -0.2384238988161087,
                        -1.0325205326080322,
                        0.5165407061576843,
                        -0.6219483613967896,
                        0.7533504366874695,
                        -0.6000217199325562,
                        -0.41567617654800415,
                        -0.43891242146492004,
                        -0.2933826148509979,
                        -0.4093180000782013,
                        0.056736886501312256,
                        -0.1580771803855896,
                        -0.474043071269989,
                        1.2706050872802734,
                        0.8221533298492432,
                        0.7350025773048401,
                        -0.6039577722549438,
                        -0.3446771502494812,
                        -0.5976065993309021,
                        -6.591549396514893,
                        -0.7052276730537415,
                        1.9215075969696045,
                        -0.5481799244880676,
                        -1.1669282913208008,
                        -0.3920648992061615,
                        -0.1596420556306839,
                        -0.9352613687515259,
                        -4.972592830657959,
                        -4.750850677490234,
                        -0.6761698722839355,
                        -1.3444664478302002,
                        0.2873702943325043,
                        1.7142677307128906,
                        0.13029682636260986,
                        0.3866412341594696,
                        0.4078447222709656,
                        -0.6142261028289795,
                        -0.05136265605688095,
                        -0.6714702248573303,
                        -0.1519588977098465,
                        -1.7957345247268677,
                        0.3354191482067108,
                        0.00047283986350521445,
                        0.7000819444656372,
                        -0.2100524753332138,
                        1.382881999015808,
                        0.6901094317436218,
                        0.18604101240634918,
                        -1.2394437789916992,
                        -0.18214482069015503,
                        -0.7996582388877869,
                        -0.7946555018424988,
                        0.507981538772583,
                        0.5700933337211609,
                        0.11194824427366257,
                        0.8383086323738098,
                        -1.0060876607894897,
                        -0.4777468740940094,
                        0.269386887550354,
                        0.792109489440918,
                        -1.357061505317688,
                        0.6718787550926208,
                        -0.2119554579257965,
                        -0.23986001312732697,
                        0.6733113527297974,
                        0.16701799631118774,
                        0.9831878542900085,
                        -0.15187324583530426,
                        -0.6773687601089478,
                        1.3781249523162842,
                        0.16828732192516327,
                        1.7393157482147217,
                        0.059883277863264084,
                        -0.805763304233551,
                        1.914079189300537,
                        -0.13834558427333832,
                        -0.4161681532859802,
                        -0.5588194131851196,
                        -1.3575763702392578,
                        -1.5350030660629272,
                        1.4112184047698975,
                        -0.2776302695274353,
                        1.2002264261245728,
                        -1.1200515031814575,
                        0.4917934238910675,
                        -0.1341516375541687,
                        -0.5528440475463867,
                        0.4993593990802765,
                        -0.28786975145339966,
                        -0.017702752724289894,
                        0.9567646384239197,
                        -0.0905582457780838,
                        0.07504928857088089,
                        -1.1269875764846802,
                        0.6833597421646118,
                        0.5378376245498657,
                        -0.3283030688762665,
                        -0.7755231857299805,
                        0.00583986658602953,
                        -0.05810089409351349,
                        1.2675185203552246,
                        0.0994097888469696,
                        0.2001139223575592,
                        -0.03122643753886223,
                        0.31094878911972046,
                        0.17982293665409088,
                        -1.3483037948608398,
                        1.2743710279464722,
                        -0.6658331155776978,
                        -0.1252693086862564,
                        -1.1002633571624756,
                        0.36640501022338867,
                        1.2426326274871826,
                        0.5811866521835327,
                        0.5960868000984192,
                        0.6507652401924133,
                        -1.429394245147705,
                        -1.5460621118545532,
                        0.7484395503997803,
                        -0.4257526695728302,
                        -0.517248272895813,
                        0.7827726006507874,
                        -1.501215934753418,
                        1.9627183675765991,
                        -0.10334464907646179,
                        0.547412097454071,
                        0.06672951579093933,
                        -0.007249666843563318,
                        0.3830512762069702,
                        -0.47958943247795105,
                        0.7982012629508972,
                        0.6286148428916931,
                        0.8006519675254822,
                        -0.8814948797225952,
                        -0.11677276343107224,
                        -0.9005075693130493,
                        -1.4748209714889526,
                        -0.07908659428358078,
                        -1.2073389291763306,
                        -0.1330157369375229,
                        1.1069051027297974,
                        0.6889009475708008,
                        0.007364185992628336,
                        -0.5031708478927612,
                        -0.19269360601902008,
                        -0.6018829941749573,
                        -0.02336742915213108,
                        1.895811676979065,
                        1.413474202156067,
                        -0.9712767004966736,
                        1.059013843536377,
                        -0.5356365442276001,
                        -0.8557062745094299,
                        0.10209048539400101,
                        0.08773396909236908,
                        1.0832898616790771,
                        -1.3460129499435425,
                        1.5799857378005981,
                        1.225419044494629,
                        0.160031259059906,
                        -0.5595217943191528,
                        -1.2537322044372559,
                        -0.807680070400238,
                        1.74994695186615,
                        0.8663700222969055,
                        0.32076653838157654,
                        0.07627555727958679,
                        3.642914295196533,
                        -1.5479449033737183,
                        -0.7684780955314636,
                        2.6016182899475098,
                        0.3938143253326416,
                        0.9107851982116699,
                        1.2319269180297852,
                        0.33159470558166504,
                        -0.8259418606758118,
                        -0.020525066182017326,
                        -1.2767125368118286,
                        -0.7685093283653259,
                        -0.4745796024799347,
                        -0.21212652325630188,
                        1.3694764375686646,
                        -0.7599626183509827,
                        -0.5757213234901428,
                        0.38642796874046326,
                        -0.8367783427238464,
                        0.2242092341184616,
                        -1.1792281866073608,
                        -0.2089499980211258,
                        1.8833415508270264,
                        -2.6209287643432617,
                        0.5172950029373169,
                        1.3730562925338745,
                        0.8536658883094788,
                        0.379418283700943,
                        -0.2688460946083069,
                        -0.5336049795150757,
                        0.315328449010849,
                        0.786791980266571,
                        1.3719971179962158,
                        -0.13406994938850403,
                        3.428783416748047,
                        -0.7892683744430542,
                        3.429497003555298,
                        -0.19337503612041473,
                        0.18732589483261108,
                        -0.21851953864097595,
                        -0.37632638216018677,
                        1.342470407485962,
                        0.8808630704879761,
                        -0.7969037890434265,
                        -0.2505185306072235,
                        -0.5576196312904358,
                        -0.7642449736595154,
                        0.7218855023384094,
                        0.310367226600647,
                        -0.7716611623764038,
                        -0.16867642104625702,
                        0.3339541554450989,
                        -1.452399492263794,
                        -0.6500030755996704,
                        0.3720599412918091,
                        -1.0101873874664307,
                        -0.924498975276947,
                        -0.9936509728431702,
                        0.8153425455093384,
                        -0.17844264209270477,
                        -1.495133876800537,
                        0.5806139707565308,
                        -0.19933581352233887,
                        -0.6384922862052917,
                        -0.3958410918712616,
                        0.6479496955871582,
                        0.3118053674697876,
                        -0.3888229429721832,
                        0.004282340407371521,
                        -0.44307029247283936,
                        0.2078324407339096,
                        -0.6168196201324463,
                        1.0807286500930786,
                        -0.13499580323696136,
                        -0.11983276158571243,
                        1.1082367897033691,
                        1.1752533912658691,
                        0.7285772562026978
                    ],
                    [
                        -0.5186898112297058,
                        -0.43413132429122925,
                        -2.785658121109009,
                        -1.3225622177124023,
                        0.011900264769792557,
                        0.8344873785972595,
                        -0.8907670974731445,
                        -0.6269515752792358,
                        -0.07303363084793091,
                        -0.6126787066459656,
                        -0.12464475631713867,
                        -1.7011357545852661,
                        -0.049176234751939774,
                        0.47942087054252625,
                        -2.0058517456054688,
                        -0.6620054244995117,
                        -1.0285178422927856,
                        -1.5916849374771118,
                        0.3269120454788208,
                        -1.638122320175171,
                        -1.166106104850769,
                        -0.2601960301399231,
                        0.45272988080978394,
                        -0.35540157556533813,
                        -0.1449403613805771,
                        -0.9533311724662781,
                        -1.541466474533081,
                        -1.414719581604004,
                        -1.0931342840194702,
                        -0.934786856174469,
                        -0.19430452585220337,
                        -0.22697016596794128,
                        -0.7177547216415405,
                        -0.21934421360492706,
                        -0.3189450204372406,
                        -1.5230379104614258,
                        0.06910781562328339,
                        -0.256854385137558,
                        -0.5225717425346375,
                        0.3699435293674469,
                        -0.8027934432029724,
                        -0.4720373749732971,
                        1.0562398433685303,
                        -0.13950850069522858,
                        -1.067029356956482,
                        1.3406192064285278,
                        -1.8617249727249146,
                        -0.5627490282058716,
                        -1.0267548561096191,
                        -2.605607271194458,
                        1.2218265533447266,
                        -0.18133805692195892,
                        -0.31855058670043945,
                        0.15053604543209076,
                        -3.555366039276123,
                        -0.20278289914131165,
                        -1.0438754558563232,
                        -0.5114390850067139,
                        -3.789571523666382,
                        -1.817468523979187,
                        -0.6944712996482849,
                        -0.1083885133266449,
                        -0.1657935082912445,
                        -2.2554216384887695,
                        -1.7656883001327515,
                        -0.9642525315284729,
                        -1.4028342962265015,
                        -0.2961360514163971,
                        0.7634894847869873,
                        -0.802973210811615,
                        -0.3959049880504608,
                        -0.5624370574951172,
                        -0.308643639087677,
                        -0.4545886218547821,
                        1.0283448696136475,
                        -0.49628376960754395,
                        -0.24275588989257812,
                        -0.22162912786006927,
                        -0.3141045868396759,
                        0.8002446293830872,
                        0.7444631457328796,
                        1.3192301988601685,
                        0.6448243856430054,
                        -0.9644668698310852,
                        0.5517556071281433,
                        -0.3896837532520294,
                        -2.1570746898651123,
                        1.524999737739563,
                        -0.7637165784835815,
                        -1.3662179708480835,
                        -0.592097818851471,
                        -0.21474689245224,
                        1.226227879524231,
                        -0.18819618225097656,
                        -0.5555918216705322,
                        -1.4977556467056274,
                        -1.4030516147613525,
                        0.5080606341362,
                        -0.17878654599189758,
                        -1.189695954322815,
                        -0.5294508934020996,
                        -0.2124885469675064,
                        1.6325701475143433,
                        0.3531232178211212,
                        -0.04532604292035103,
                        1.8695229291915894,
                        -0.5265840888023376,
                        -0.09441793709993362,
                        -0.005491243209689856,
                        1.7819255590438843,
                        0.18599559366703033,
                        -1.05434250831604,
                        0.5526416301727295,
                        0.8838549256324768,
                        1.4315640926361084,
                        -0.18123069405555725,
                        1.0257807970046997,
                        0.5024741888046265,
                        0.7422462105751038,
                        -0.703062117099762,
                        -0.6754595637321472,
                        0.151588574051857,
                        -0.0036945361644029617,
                        -0.20784321427345276,
                        0.027224848046898842,
                        -2.1844451427459717,
                        -0.15849779546260834,
                        0.5997018814086914,
                        0.05815882980823517,
                        -0.24620738625526428,
                        -0.009833737276494503,
                        0.2668952941894531,
                        0.4815981090068817,
                        0.027380965650081635,
                        -0.08343521505594254,
                        1.4053643941879272,
                        1.3080768585205078,
                        -0.014178366400301456,
                        -0.5521467328071594,
                        2.5909576416015625,
                        0.4872193932533264,
                        0.8220381140708923,
                        1.2519018650054932,
                        0.09695038944482803,
                        1.384104609489441,
                        0.562616229057312,
                        -0.6390798091888428,
                        0.8384711742401123,
                        -0.42680829763412476,
                        0.8905734419822693,
                        1.2662354707717896,
                        1.1305187940597534,
                        0.1564544141292572,
                        0.34510958194732666,
                        1.4194921255111694,
                        -0.03167753294110298,
                        0.9942917227745056,
                        0.9587956666946411,
                        1.2063292264938354,
                        0.6638574004173279,
                        -0.11995403468608856,
                        -0.08767471462488174,
                        -0.16581660509109497,
                        0.3925071656703949,
                        0.4271025061607361,
                        -0.46861353516578674,
                        1.3503013849258423,
                        -0.29325565695762634,
                        0.5909314751625061,
                        -0.8161959648132324,
                        1.4088207483291626,
                        -0.25501954555511475,
                        -0.2357921153306961,
                        -0.09115037322044373,
                        1.2068921327590942,
                        -0.1435781866312027,
                        -0.5307053923606873,
                        0.1336868554353714,
                        0.037603959441185,
                        1.353420376777649,
                        -0.6729634404182434,
                        1.1034175157546997,
                        1.1285159587860107,
                        0.9044567346572876,
                        -0.4128030836582184,
                        -0.41334986686706543,
                        0.8066186308860779,
                        0.5896530747413635,
                        0.7984764575958252,
                        1.1186647415161133,
                        -0.5656059980392456,
                        -0.16136999428272247,
                        1.1636983156204224,
                        -0.01724841631948948,
                        0.058901045471429825,
                        1.2588293552398682,
                        0.6919560432434082,
                        0.36514195799827576,
                        0.12202589958906174,
                        -0.14343580603599548,
                        -0.7456166744232178,
                        -0.08560872822999954,
                        -0.01487716380506754,
                        -0.19459177553653717,
                        0.9218159914016724,
                        -1.374218463897705,
                        1.7894622087478638,
                        -1.8920845985412598,
                        -0.5006676912307739,
                        0.14024238288402557,
                        -0.5446234941482544,
                        1.2848670482635498,
                        -0.7293280363082886,
                        -0.9384825229644775,
                        0.24561281502246857,
                        1.1326106786727905,
                        0.3620460629463196,
                        0.13591018319129944,
                        0.5402871370315552,
                        -1.028533697128296,
                        0.6508727669715881,
                        -0.12764272093772888,
                        0.04508339986205101,
                        -0.25500205159187317,
                        -1.3228048086166382,
                        -0.9138658046722412,
                        0.3249223232269287,
                        -0.06494487076997757,
